~o
<STREAMINFO> 1 39
<VECSIZE> 39<NULLD><MFCC_D_A><DIAGC>
~h "a"
<BEGINHMM>
<NUMSTATES> 7
<STATE> 2
<NUMMIXES> 2
<MIXTURE> 1 5.000000e-01
<MEAN> 39
 -4.475480e+00 5.228590e-01 -2.271299e+00 -1.564487e+00 -7.505881e-01 -4.222200e+00 -1.312401e-03 -3.568004e+00 -3.622211e+00 -1.885513e+00 -3.706384e+00 -1.711924e+00 -4.411033e-01 8.621070e-04 -1.344854e-02 -8.685695e-03 1.345405e-02 -9.170970e-04 3.505693e-03 8.905993e-03 -5.679650e-03 -8.611134e-03 -5.893693e-03 -2.190387e-03 4.856087e-03 1.865447e-03 -2.138497e-04 -3.838984e-04 5.137965e-05 -4.574499e-04 -8.738101e-04 1.108224e-03 5.735978e-04 8.962545e-04 -2.959345e-04 -3.544847e-04 -2.801676e-04 -2.484762e-04 3.953190e-04
<VARIANCE> 39
 4.183961e+01 5.071648e+01 7.730927e+01 6.966348e+01 5.010016e+01 8.575616e+01 7.308746e+01 5.354759e+01 6.496385e+01 4.316959e+01 3.337804e+01 2.646484e+01 2.754293e+01 1.155630e+00 1.376246e+00 1.681763e+00 1.762840e+00 2.106303e+00 2.692514e+00 2.693799e+00 2.695439e+00 2.833764e+00 2.677511e+00 2.452262e+00 1.913043e+00 1.803238e+00 1.804903e-01 2.236469e-01 2.621391e-01 3.196228e-01 3.874204e-01 4.783365e-01 5.139706e-01 5.299391e-01 5.365331e-01 5.047172e-01 4.788025e-01 3.803027e-01 3.510947e-01
<GCONST> 1.193036e+02
<MIXTURE> 2 5.000000e-01
<MEAN> 39
 -4.475480e+00 5.228590e-01 -2.271299e+00 -1.564487e+00 -7.505881e-01 -4.222200e+00 -1.312401e-03 -3.568004e+00 -3.622211e+00 -1.885513e+00 -3.706384e+00 -1.711924e+00 -4.411033e-01 8.621070e-04 -1.344854e-02 -8.685695e-03 1.345405e-02 -9.170970e-04 3.505693e-03 8.905993e-03 -5.679650e-03 -8.611134e-03 -5.893693e-03 -2.190387e-03 4.856087e-03 1.865447e-03 -2.138497e-04 -3.838984e-04 5.137965e-05 -4.574499e-04 -8.738101e-04 1.108224e-03 5.735978e-04 8.962545e-04 -2.959345e-04 -3.544847e-04 -2.801676e-04 -2.484762e-04 3.953190e-04
<VARIANCE> 39
 4.183961e+01 5.071648e+01 7.730927e+01 6.966348e+01 5.010016e+01 8.575616e+01 7.308746e+01 5.354759e+01 6.496385e+01 4.316959e+01 3.337804e+01 2.646484e+01 2.754293e+01 1.155630e+00 1.376246e+00 1.681763e+00 1.762840e+00 2.106303e+00 2.692514e+00 2.693799e+00 2.695439e+00 2.833764e+00 2.677511e+00 2.452262e+00 1.913043e+00 1.803238e+00 1.804903e-01 2.236469e-01 2.621391e-01 3.196228e-01 3.874204e-01 4.783365e-01 5.139706e-01 5.299391e-01 5.365331e-01 5.047172e-01 4.788025e-01 3.803027e-01 3.510947e-01
<GCONST> 1.193036e+02
<STATE> 3
<NUMMIXES> 2
<MIXTURE> 1 5.000000e-01
<MEAN> 39
 -4.477983e+00 4.054877e-01 -2.335214e+00 -1.468819e+00 -7.982892e-01 -4.159894e+00 9.236299e-02 -3.582183e+00 -3.699634e+00 -1.948928e+00 -3.734096e+00 -1.686764e+00 -4.169662e-01 -1.027414e-03 -1.476251e-02 -7.132324e-03 1.048743e-02 -6.593404e-03 8.308169e-03 1.226487e-02 -9.966304e-04 -1.010981e-02 -7.244707e-03 -4.252082e-03 2.448166e-03 3.428486e-03 -2.418855e-04 -1.034486e-04 2.315417e-04 -4.253147e-04 -7.260487e-04 5.763941e-04 3.802616e-04 5.961726e-04 -1.508474e-04 -1.376715e-04 -2.582083e-04 -3.084510e-04 1.835220e-04
<VARIANCE> 39
 4.206499e+01 5.062267e+01 7.798215e+01 6.843121e+01 4.966306e+01 8.375039e+01 7.157618e+01 5.263409e+01 6.573528e+01 4.347472e+01 3.326096e+01 2.653577e+01 2.709431e+01 1.164687e+00 1.382491e+00 1.693351e+00 1.763001e+00 2.098996e+00 2.667915e+00 2.695414e+00 2.706064e+00 2.851039e+00 2.670823e+00 2.452129e+00 1.918876e+00 1.808486e+00 1.819399e-01 2.237962e-01 2.633293e-01 3.198283e-01 3.853644e-01 4.749972e-01 5.133436e-01 5.322064e-01 5.379708e-01 5.023128e-01 4.787608e-01 3.810737e-01 3.515104e-01
<GCONST> 1.192552e+02
<MIXTURE> 2 5.000000e-01
<MEAN> 39
 -4.477983e+00 4.054877e-01 -2.335214e+00 -1.468819e+00 -7.982892e-01 -4.159894e+00 9.236299e-02 -3.582183e+00 -3.699634e+00 -1.948928e+00 -3.734096e+00 -1.686764e+00 -4.169662e-01 -1.027414e-03 -1.476251e-02 -7.132324e-03 1.048743e-02 -6.593404e-03 8.308169e-03 1.226487e-02 -9.966304e-04 -1.010981e-02 -7.244707e-03 -4.252082e-03 2.448166e-03 3.428486e-03 -2.418855e-04 -1.034486e-04 2.315417e-04 -4.253147e-04 -7.260487e-04 5.763941e-04 3.802616e-04 5.961726e-04 -1.508474e-04 -1.376715e-04 -2.582083e-04 -3.084510e-04 1.835220e-04
<VARIANCE> 39
 4.206499e+01 5.062267e+01 7.798215e+01 6.843121e+01 4.966306e+01 8.375039e+01 7.157618e+01 5.263409e+01 6.573528e+01 4.347472e+01 3.326096e+01 2.653577e+01 2.709431e+01 1.164687e+00 1.382491e+00 1.693351e+00 1.763001e+00 2.098996e+00 2.667915e+00 2.695414e+00 2.706064e+00 2.851039e+00 2.670823e+00 2.452129e+00 1.918876e+00 1.808486e+00 1.819399e-01 2.237962e-01 2.633293e-01 3.198283e-01 3.853644e-01 4.749972e-01 5.133436e-01 5.322064e-01 5.379708e-01 5.023128e-01 4.787608e-01 3.810737e-01 3.515104e-01
<GCONST> 1.192552e+02
<STATE> 4
<NUMMIXES> 2
<MIXTURE> 1 5.000000e-01
<MEAN> 39
 -4.491412e+00 2.896884e-01 -2.381274e+00 -1.392976e+00 -8.711283e-01 -4.089896e+00 1.993381e-01 -3.579263e+00 -3.779310e+00 -2.007693e+00 -3.771550e+00 -1.680238e+00 -3.926583e-01 -2.352940e-03 -1.407643e-02 -4.713465e-03 7.584039e-03 -9.689253e-03 9.216286e-03 1.356898e-02 1.188569e-03 -1.007557e-02 -6.454661e-03 -5.351947e-03 1.508308e-04 3.447004e-03 -1.626226e-04 1.459210e-04 3.263689e-04 -3.968420e-04 -3.808221e-04 1.010223e-04 1.248876e-04 2.863558e-04 3.343664e-05 1.176974e-04 -1.217295e-04 -2.823058e-04 -1.008954e-06
<VARIANCE> 39
 4.223585e+01 5.065164e+01 7.849369e+01 6.745457e+01 4.908783e+01 8.161077e+01 7.013071e+01 5.157960e+01 6.653487e+01 4.369164e+01 3.310010e+01 2.646843e+01 2.653822e+01 1.173802e+00 1.387905e+00 1.699928e+00 1.762447e+00 2.094815e+00 2.650895e+00 2.696079e+00 2.710898e+00 2.864458e+00 2.661450e+00 2.442377e+00 1.922619e+00 1.806116e+00 1.833640e-01 2.240256e-01 2.640505e-01 3.196192e-01 3.838944e-01 4.728698e-01 5.127321e-01 5.330358e-01 5.387836e-01 5.000489e-01 4.769290e-01 3.815365e-01 3.508455e-01
<GCONST> 1.191649e+02
<MIXTURE> 2 5.000000e-01
<MEAN> 39
 -4.491412e+00 2.896884e-01 -2.381274e+00 -1.392976e+00 -8.711283e-01 -4.089896e+00 1.993381e-01 -3.579263e+00 -3.779310e+00 -2.007693e+00 -3.771550e+00 -1.680238e+00 -3.926583e-01 -2.352940e-03 -1.407643e-02 -4.713465e-03 7.584039e-03 -9.689253e-03 9.216286e-03 1.356898e-02 1.188569e-03 -1.007557e-02 -6.454661e-03 -5.351947e-03 1.508308e-04 3.447004e-03 -1.626226e-04 1.459210e-04 3.263689e-04 -3.968420e-04 -3.808221e-04 1.010223e-04 1.248876e-04 2.863558e-04 3.343664e-05 1.176974e-04 -1.217295e-04 -2.823058e-04 -1.008954e-06
<VARIANCE> 39
 4.223585e+01 5.065164e+01 7.849369e+01 6.745457e+01 4.908783e+01 8.161077e+01 7.013071e+01 5.157960e+01 6.653487e+01 4.369164e+01 3.310010e+01 2.646843e+01 2.653822e+01 1.173802e+00 1.387905e+00 1.699928e+00 1.762447e+00 2.094815e+00 2.650895e+00 2.696079e+00 2.710898e+00 2.864458e+00 2.661450e+00 2.442377e+00 1.922619e+00 1.806116e+00 1.833640e-01 2.240256e-01 2.640505e-01 3.196192e-01 3.838944e-01 4.728698e-01 5.127321e-01 5.330358e-01 5.387836e-01 5.000489e-01 4.769290e-01 3.815365e-01 3.508455e-01
<GCONST> 1.191649e+02
<STATE> 5
<NUMMIXES> 2
<MIXTURE> 1 5.000000e-01
<MEAN> 39
 -4.509737e+00 1.864136e-01 -2.407088e+00 -1.338404e+00 -9.462312e-01 -4.030748e+00 3.043129e-01 -3.572684e+00 -3.849503e+00 -2.048910e+00 -3.811188e+00 -1.688176e+00 -3.743536e-01 -2.930558e-03 -1.215056e-02 -2.132796e-03 4.683879e-03 -9.892898e-03 7.975837e-03 1.294673e-02 1.809709e-03 -8.697103e-03 -4.211714e-03 -5.438339e-03 -1.532761e-03 2.769981e-03 -6.699024e-05 2.779773e-04 3.210284e-04 -3.764527e-04 -1.535259e-05 -1.519867e-04 -1.168808e-04 9.746131e-05 1.902890e-04 2.765143e-04 1.202380e-05 -1.996094e-04 -8.759695e-05
<VARIANCE> 39
 4.238533e+01 5.079524e+01 7.880388e+01 6.679116e+01 4.857619e+01 7.978517e+01 6.887655e+01 5.062391e+01 6.730016e+01 4.379002e+01 3.293997e+01 2.629278e+01 2.598139e+01 1.182146e+00 1.391244e+00 1.701795e+00 1.760701e+00 2.090843e+00 2.636355e+00 2.693053e+00 2.707858e+00 2.871420e+00 2.648116e+00 2.423259e+00 1.923480e+00 1.796251e+00 1.846293e-01 2.241777e-01 2.642913e-01 3.189503e-01 3.825066e-01 4.712507e-01 5.116616e-01 5.321733e-01 5.385967e-01 4.977638e-01 4.733323e-01 3.815779e-01 3.491449e-01
<GCONST> 1.190393e+02
<MIXTURE> 2 5.000000e-01
<MEAN> 39
 -4.509737e+00 1.864136e-01 -2.407088e+00 -1.338404e+00 -9.462312e-01 -4.030748e+00 3.043129e-01 -3.572684e+00 -3.849503e+00 -2.048910e+00 -3.811188e+00 -1.688176e+00 -3.743536e-01 -2.930558e-03 -1.215056e-02 -2.132796e-03 4.683879e-03 -9.892898e-03 7.975837e-03 1.294673e-02 1.809709e-03 -8.697103e-03 -4.211714e-03 -5.438339e-03 -1.532761e-03 2.769981e-03 -6.699024e-05 2.779773e-04 3.210284e-04 -3.764527e-04 -1.535259e-05 -1.519867e-04 -1.168808e-04 9.746131e-05 1.902890e-04 2.765143e-04 1.202380e-05 -1.996094e-04 -8.759695e-05
<VARIANCE> 39
 4.238533e+01 5.079524e+01 7.880388e+01 6.679116e+01 4.857619e+01 7.978517e+01 6.887655e+01 5.062391e+01 6.730016e+01 4.379002e+01 3.293997e+01 2.629278e+01 2.598139e+01 1.182146e+00 1.391244e+00 1.701795e+00 1.760701e+00 2.090843e+00 2.636355e+00 2.693053e+00 2.707858e+00 2.871420e+00 2.648116e+00 2.423259e+00 1.923480e+00 1.796251e+00 1.846293e-01 2.241777e-01 2.642913e-01 3.189503e-01 3.825066e-01 4.712507e-01 5.116616e-01 5.321733e-01 5.385967e-01 4.977638e-01 4.733323e-01 3.815779e-01 3.491449e-01
<GCONST> 1.190393e+02
<STATE> 6
<NUMMIXES> 2
<MIXTURE> 1 5.000000e-01
<MEAN> 39
 -4.528141e+00 1.000061e-01 -2.415098e+00 -1.306704e+00 -1.005468e+00 -3.986912e+00 3.956687e-01 -3.566312e+00 -3.901417e+00 -2.068663e+00 -3.848483e+00 -1.704529e+00 -3.614120e-01 -2.932354e-03 -9.808527e-03 -6.225042e-06 1.738141e-03 -7.903552e-03 6.260126e-03 1.092530e-02 2.049714e-03 -6.336710e-03 -1.664785e-03 -4.955641e-03 -2.453286e-03 2.184858e-03 -3.956434e-06 3.130722e-04 2.448857e-04 -3.624127e-04 2.527008e-04 -2.117002e-04 -2.815362e-04 5.027140e-05 2.933145e-04 3.051096e-04 9.809781e-05 -1.021109e-04 -7.865747e-05
<VARIANCE> 39
 4.254468e+01 5.102487e+01 7.894051e+01 6.646230e+01 4.823016e+01 7.839128e+01 6.787085e+01 4.989692e+01 6.797992e+01 4.377474e+01 3.282418e+01 2.606066e+01 2.548445e+01 1.189347e+00 1.391708e+00 1.700183e+00 1.757950e+00 2.083940e+00 2.621808e+00 2.684657e+00 2.696409e+00 2.870764e+00 2.631359e+00 2.397757e+00 1.921593e+00 1.780991e+00 1.856880e-01 2.240986e-01 2.641553e-01 3.179267e-01 3.807141e-01 4.697274e-01 5.098289e-01 5.295908e-01 5.372667e-01 4.953623e-01 4.684042e-01 3.812188e-01 3.466678e-01
<GCONST> 1.188889e+02
<MIXTURE> 2 5.000000e-01
<MEAN> 39
 -4.528141e+00 1.000061e-01 -2.415098e+00 -1.306704e+00 -1.005468e+00 -3.986912e+00 3.956687e-01 -3.566312e+00 -3.901417e+00 -2.068663e+00 -3.848483e+00 -1.704529e+00 -3.614120e-01 -2.932354e-03 -9.808527e-03 -6.225042e-06 1.738141e-03 -7.903552e-03 6.260126e-03 1.092530e-02 2.049714e-03 -6.336710e-03 -1.664785e-03 -4.955641e-03 -2.453286e-03 2.184858e-03 -3.956434e-06 3.130722e-04 2.448857e-04 -3.624127e-04 2.527008e-04 -2.117002e-04 -2.815362e-04 5.027140e-05 2.933145e-04 3.051096e-04 9.809781e-05 -1.021109e-04 -7.865747e-05
<VARIANCE> 39
 4.254468e+01 5.102487e+01 7.894051e+01 6.646230e+01 4.823016e+01 7.839128e+01 6.787085e+01 4.989692e+01 6.797992e+01 4.377474e+01 3.282418e+01 2.606066e+01 2.548445e+01 1.189347e+00 1.391708e+00 1.700183e+00 1.757950e+00 2.083940e+00 2.621808e+00 2.684657e+00 2.696409e+00 2.870764e+00 2.631359e+00 2.397757e+00 1.921593e+00 1.780991e+00 1.856880e-01 2.240986e-01 2.641553e-01 3.179267e-01 3.807141e-01 4.697274e-01 5.098289e-01 5.295908e-01 5.372667e-01 4.953623e-01 4.684042e-01 3.812188e-01 3.466678e-01
<GCONST> 1.188889e+02
<TRANSP> 7
 0.000000e+00 1.000000e+00 0.000000e+00 0.000000e+00 0.000000e+00 0.000000e+00 0.000000e+00
 0.000000e+00 8.796764e-01 1.203236e-01 0.000000e+00 0.000000e+00 0.000000e+00 0.000000e+00
 0.000000e+00 0.000000e+00 8.796766e-01 1.203233e-01 0.000000e+00 0.000000e+00 0.000000e+00
 0.000000e+00 0.000000e+00 0.000000e+00 8.796760e-01 1.203240e-01 0.000000e+00 0.000000e+00
 0.000000e+00 0.000000e+00 0.000000e+00 0.000000e+00 8.796771e-01 1.203229e-01 0.000000e+00
 0.000000e+00 0.000000e+00 0.000000e+00 0.000000e+00 0.000000e+00 8.796785e-01 1.203214e-01
 0.000000e+00 0.000000e+00 0.000000e+00 0.000000e+00 0.000000e+00 0.000000e+00 0.000000e+00
<ENDHMM>
~h "b"
<BEGINHMM>
<NUMSTATES> 5
<STATE> 2
<NUMMIXES> 2
<MIXTURE> 1 5.000000e-01
<MEAN> 39
 -1.995924e+00 2.357602e+00 -1.735498e+00 -3.332321e+00 -8.723274e-01 -5.394786e+00 -1.677098e+00 -1.163881e+00 -2.120322e+00 -2.862177e+00 -4.651378e+00 -1.777231e+00 3.067789e-01 4.541506e-02 2.166326e-02 -3.223001e-02 3.725757e-02 2.927683e-03 -6.740645e-02 -7.500837e-03 2.077344e-02 2.193417e-02 -5.827242e-04 -8.774560e-03 1.201509e-02 -1.588065e-02 -9.542394e-04 -6.517690e-04 -1.789251e-05 2.155461e-04 -5.945308e-05 -3.113352e-05 6.874947e-04 -7.731132e-04 -4.453055e-04 4.441781e-04 2.813824e-04 -2.060025e-04 1.114725e-04
<VARIANCE> 39
 4.573391e+01 4.693538e+01 1.006633e+02 9.799152e+01 5.596880e+01 8.007077e+01 7.439525e+01 5.264059e+01 6.247252e+01 4.507430e+01 2.995123e+01 2.454987e+01 2.080083e+01 1.188546e+00 1.185980e+00 1.900009e+00 1.787445e+00 2.250442e+00 2.116265e+00 2.187522e+00 2.356286e+00 2.749870e+00 2.245044e+00 1.810500e+00 1.566745e+00 1.344731e+00 1.820631e-01 1.928106e-01 2.704082e-01 2.765297e-01 3.921464e-01 3.506816e-01 3.685392e-01 4.554283e-01 4.709198e-01 3.724059e-01 3.387364e-01 2.936483e-01 2.305625e-01
<GCONST> 1.155026e+02
<MIXTURE> 2 5.000000e-01
<MEAN> 39
 -1.995924e+00 2.357602e+00 -1.735498e+00 -3.332321e+00 -8.723274e-01 -5.394786e+00 -1.677098e+00 -1.163881e+00 -2.120322e+00 -2.862177e+00 -4.651378e+00 -1.777231e+00 3.067789e-01 4.541506e-02 2.166326e-02 -3.223001e-02 3.725757e-02 2.927683e-03 -6.740645e-02 -7.500837e-03 2.077344e-02 2.193417e-02 -5.827242e-04 -8.774560e-03 1.201509e-02 -1.588065e-02 -9.542394e-04 -6.517690e-04 -1.789251e-05 2.155461e-04 -5.945308e-05 -3.113352e-05 6.874947e-04 -7.731132e-04 -4.453055e-04 4.441781e-04 2.813824e-04 -2.060025e-04 1.114725e-04
<VARIANCE> 39
 4.573391e+01 4.693538e+01 1.006633e+02 9.799152e+01 5.596880e+01 8.007077e+01 7.439525e+01 5.264059e+01 6.247252e+01 4.507430e+01 2.995123e+01 2.454987e+01 2.080083e+01 1.188546e+00 1.185980e+00 1.900009e+00 1.787445e+00 2.250442e+00 2.116265e+00 2.187522e+00 2.356286e+00 2.749870e+00 2.245044e+00 1.810500e+00 1.566745e+00 1.344731e+00 1.820631e-01 1.928106e-01 2.704082e-01 2.765297e-01 3.921464e-01 3.506816e-01 3.685392e-01 4.554283e-01 4.709198e-01 3.724059e-01 3.387364e-01 2.936483e-01 2.305625e-01
<GCONST> 1.155026e+02
<STATE> 3
<NUMMIXES> 2
<MIXTURE> 1 5.000000e-01
<MEAN> 39
 -1.655394e+00 2.502229e+00 -2.083948e+00 -2.999530e+00 -8.094150e-01 -5.963651e+00 -1.701783e+00 -1.043437e+00 -1.964442e+00 -2.861797e+00 -4.726656e+00 -1.682564e+00 1.831582e-01 3.753393e-02 1.557439e-02 -3.236643e-02 3.809322e-02 3.437566e-03 -6.479759e-02 -6.521558e-04 1.261569e-02 1.678232e-02 4.328056e-03 -7.700072e-03 1.016309e-02 -1.445416e-02 -1.212131e-03 -6.743413e-04 2.213722e-05 -1.912862e-04 -3.423481e-05 5.617660e-04 7.762584e-04 -9.935658e-04 -7.065016e-04 6.815884e-04 1.580552e-04 -3.207166e-04 2.201899e-04
<VARIANCE> 39
 4.637828e+01 4.656558e+01 1.043940e+02 9.794240e+01 5.736744e+01 8.108466e+01 7.636845e+01 5.144031e+01 6.260703e+01 4.749404e+01 2.982351e+01 2.445056e+01 2.084922e+01 1.222781e+00 1.207087e+00 1.950490e+00 1.764414e+00 2.240741e+00 2.146833e+00 2.186265e+00 2.337528e+00 2.744118e+00 2.260506e+00 1.758466e+00 1.549456e+00 1.316101e+00 1.864276e-01 1.969240e-01 2.771899e-01 2.726345e-01 3.910736e-01 3.540892e-01 3.659652e-01 4.529990e-01 4.674314e-01 3.723030e-01 3.257430e-01 2.913630e-01 2.237470e-01
<GCONST> 1.156024e+02
<MIXTURE> 2 5.000000e-01
<MEAN> 39
 -1.655394e+00 2.502229e+00 -2.083948e+00 -2.999530e+00 -8.094150e-01 -5.963651e+00 -1.701783e+00 -1.043437e+00 -1.964442e+00 -2.861797e+00 -4.726656e+00 -1.682564e+00 1.831582e-01 3.753393e-02 1.557439e-02 -3.236643e-02 3.809322e-02 3.437566e-03 -6.479759e-02 -6.521558e-04 1.261569e-02 1.678232e-02 4.328056e-03 -7.700072e-03 1.016309e-02 -1.445416e-02 -1.212131e-03 -6.743413e-04 2.213722e-05 -1.912862e-04 -3.423481e-05 5.617660e-04 7.762584e-04 -9.935658e-04 -7.065016e-04 6.815884e-04 1.580552e-04 -3.207166e-04 2.201899e-04
<VARIANCE> 39
 4.637828e+01 4.656558e+01 1.043940e+02 9.794240e+01 5.736744e+01 8.108466e+01 7.636845e+01 5.144031e+01 6.260703e+01 4.749404e+01 2.982351e+01 2.445056e+01 2.084922e+01 1.222781e+00 1.207087e+00 1.950490e+00 1.764414e+00 2.240741e+00 2.146833e+00 2.186265e+00 2.337528e+00 2.744118e+00 2.260506e+00 1.758466e+00 1.549456e+00 1.316101e+00 1.864276e-01 1.969240e-01 2.771899e-01 2.726345e-01 3.910736e-01 3.540892e-01 3.659652e-01 4.529990e-01 4.674314e-01 3.723030e-01 3.257430e-01 2.913630e-01 2.237470e-01
<GCONST> 1.156024e+02
<STATE> 4
<NUMMIXES> 2
<MIXTURE> 1 5.000000e-01
<MEAN> 39
 -1.377186e+00 2.595368e+00 -2.424767e+00 -2.666889e+00 -7.397941e-01 -6.493149e+00 -1.669062e+00 -9.971287e-01 -1.856929e+00 -2.813932e+00 -4.801631e+00 -1.601552e+00 7.183523e-02 2.800583e-02 9.935617e-03 -3.124947e-02 3.558382e-02 3.416044e-03 -5.790326e-02 5.714289e-03 3.692059e-03 1.024863e-02 1.083759e-02 -7.513703e-03 7.730961e-03 -1.261474e-02 -1.371132e-03 -6.298906e-04 7.233376e-05 -5.800538e-04 -6.391796e-05 1.089965e-03 6.819314e-04 -1.061817e-03 -8.299583e-04 8.417402e-04 3.736467e-05 -3.755793e-04 2.686126e-04
<VARIANCE> 39
 4.666486e+01 4.667050e+01 1.073158e+02 9.718861e+01 5.865677e+01 8.160867e+01 7.874475e+01 5.018431e+01 6.316599e+01 5.013808e+01 2.977955e+01 2.439964e+01 2.089242e+01 1.251328e+00 1.231814e+00 1.997000e+00 1.732545e+00 2.227067e+00 2.182156e+00 2.198263e+00 2.311728e+00 2.732197e+00 2.283670e+00 1.715618e+00 1.533538e+00 1.291130e+00 1.903143e-01 2.015461e-01 2.834632e-01 2.685007e-01 3.890894e-01 3.591535e-01 3.665137e-01 4.486741e-01 4.634226e-01 3.745375e-01 3.138166e-01 2.895952e-01 2.183246e-01
<GCONST> 1.157133e+02
<MIXTURE> 2 5.000000e-01
<MEAN> 39
 -1.377186e+00 2.595368e+00 -2.424767e+00 -2.666889e+00 -7.397941e-01 -6.493149e+00 -1.669062e+00 -9.971287e-01 -1.856929e+00 -2.813932e+00 -4.801631e+00 -1.601552e+00 7.183523e-02 2.800583e-02 9.935617e-03 -3.124947e-02 3.558382e-02 3.416044e-03 -5.790326e-02 5.714289e-03 3.692059e-03 1.024863e-02 1.083759e-02 -7.513703e-03 7.730961e-03 -1.261474e-02 -1.371132e-03 -6.298906e-04 7.233376e-05 -5.800538e-04 -6.391796e-05 1.089965e-03 6.819314e-04 -1.061817e-03 -8.299583e-04 8.417402e-04 3.736467e-05 -3.755793e-04 2.686126e-04
<VARIANCE> 39
 4.666486e+01 4.667050e+01 1.073158e+02 9.718861e+01 5.865677e+01 8.160867e+01 7.874475e+01 5.018431e+01 6.316599e+01 5.013808e+01 2.977955e+01 2.439964e+01 2.089242e+01 1.251328e+00 1.231814e+00 1.997000e+00 1.732545e+00 2.227067e+00 2.182156e+00 2.198263e+00 2.311728e+00 2.732197e+00 2.283670e+00 1.715618e+00 1.533538e+00 1.291130e+00 1.903143e-01 2.015461e-01 2.834632e-01 2.685007e-01 3.890894e-01 3.591535e-01 3.665137e-01 4.486741e-01 4.634226e-01 3.745375e-01 3.138166e-01 2.895952e-01 2.183246e-01
<GCONST> 1.157133e+02
<TRANSP> 5
 0.000000e+00 1.000000e+00 0.000000e+00 0.000000e+00 0.000000e+00
 0.000000e+00 8.842065e-01 1.157935e-01 0.000000e+00 0.000000e+00
 0.000000e+00 0.000000e+00 8.842068e-01 1.157931e-01 0.000000e+00
 0.000000e+00 0.000000e+00 0.000000e+00 8.842081e-01 1.157919e-01
 0.000000e+00 0.000000e+00 0.000000e+00 0.000000e+00 0.000000e+00
<ENDHMM>
~h "c"
<BEGINHMM>
<NUMSTATES> 5
<STATE> 2
<NUMMIXES> 2
<MIXTURE> 1 5.000000e-01
<MEAN> 39
 -7.348391e+00 5.785405e-01 -1.295381e+00 -4.334271e+00 -2.844224e+00 -1.081756e+00 6.825799e-02 -2.904287e+00 -3.181949e+00 -2.003326e+00 -3.334372e+00 -1.665263e+00 -6.001605e-01 -2.360208e-02 3.755566e-03 6.030533e-03 -2.675648e-02 9.287433e-03 2.459797e-02 -3.910026e-02 2.378169e-02 1.336955e-02 6.640912e-03 1.330226e-02 -1.423202e-03 -1.587112e-02 7.327691e-04 8.926380e-05 -1.672369e-04 -3.230115e-04 5.142337e-04 -2.821878e-04 1.101484e-04 -5.340411e-05 -4.484341e-04 -5.241156e-05 -1.879920e-04 -2.792364e-04 1.375480e-05
<VARIANCE> 39
 4.360477e+01 5.195819e+01 6.283109e+01 7.673543e+01 4.409830e+01 4.280793e+01 7.858659e+01 4.060522e+01 7.029612e+01 2.928204e+01 3.495673e+01 1.969706e+01 2.611563e+01 1.621746e+00 1.327501e+00 1.731656e+00 1.782622e+00 1.929941e+00 2.106672e+00 2.187981e+00 2.427779e+00 2.511123e+00 2.434778e+00 2.375586e+00 1.808734e+00 1.604373e+00 2.227980e-01 2.191821e-01 2.729208e-01 3.232440e-01 3.343858e-01 4.067916e-01 4.028763e-01 4.921314e-01 4.601237e-01 4.698249e-01 4.476685e-01 3.576082e-01 3.043373e-01
<GCONST> 1.160158e+02
<MIXTURE> 2 5.000000e-01
<MEAN> 39
 -7.348391e+00 5.785405e-01 -1.295381e+00 -4.334271e+00 -2.844224e+00 -1.081756e+00 6.825799e-02 -2.904287e+00 -3.181949e+00 -2.003326e+00 -3.334372e+00 -1.665263e+00 -6.001605e-01 -2.360208e-02 3.755566e-03 6.030533e-03 -2.675648e-02 9.287433e-03 2.459797e-02 -3.910026e-02 2.378169e-02 1.336955e-02 6.640912e-03 1.330226e-02 -1.423202e-03 -1.587112e-02 7.327691e-04 8.926380e-05 -1.672369e-04 -3.230115e-04 5.142337e-04 -2.821878e-04 1.101484e-04 -5.340411e-05 -4.484341e-04 -5.241156e-05 -1.879920e-04 -2.792364e-04 1.375480e-05
<VARIANCE> 39
 4.360477e+01 5.195819e+01 6.283109e+01 7.673543e+01 4.409830e+01 4.280793e+01 7.858659e+01 4.060522e+01 7.029612e+01 2.928204e+01 3.495673e+01 1.969706e+01 2.611563e+01 1.621746e+00 1.327501e+00 1.731656e+00 1.782622e+00 1.929941e+00 2.106672e+00 2.187981e+00 2.427779e+00 2.511123e+00 2.434778e+00 2.375586e+00 1.808734e+00 1.604373e+00 2.227980e-01 2.191821e-01 2.729208e-01 3.232440e-01 3.343858e-01 4.067916e-01 4.028763e-01 4.921314e-01 4.601237e-01 4.698249e-01 4.476685e-01 3.576082e-01 3.043373e-01
<GCONST> 1.160158e+02
<STATE> 3
<NUMMIXES> 2
<MIXTURE> 1 5.000000e-01
<MEAN> 39
 -7.490727e+00 5.755166e-01 -1.274967e+00 -4.507524e+00 -2.751637e+00 -8.968841e-01 -1.693492e-01 -2.753944e+00 -3.141571e+00 -1.955318e+00 -3.227621e+00 -1.680959e+00 -7.073758e-01 -1.677802e-02 3.400216e-03 4.234865e-03 -2.567157e-02 1.345692e-02 2.182337e-02 -3.554585e-02 2.232815e-02 8.655702e-03 6.457144e-03 1.310958e-02 -3.618885e-03 -1.473304e-02 9.720640e-04 -1.213824e-04 -2.408528e-04 1.897672e-04 5.488812e-04 -3.651608e-04 6.283933e-04 -2.268520e-04 -7.764050e-04 -5.305442e-05 -2.098343e-05 -2.971674e-04 2.111397e-04
<VARIANCE> 39
 4.198368e+01 5.262010e+01 6.219969e+01 8.033467e+01 4.414703e+01 4.122020e+01 7.816460e+01 4.257546e+01 7.002979e+01 2.904908e+01 3.515137e+01 1.948635e+01 2.631656e+01 1.604271e+00 1.316626e+00 1.711407e+00 1.792605e+00 1.909855e+00 2.122499e+00 2.186909e+00 2.410453e+00 2.493222e+00 2.424181e+00 2.361268e+00 1.803548e+00 1.591089e+00 2.225858e-01 2.179271e-01 2.721375e-01 3.270817e-01 3.331299e-01 4.129554e-01 4.048388e-01 4.883797e-01 4.595830e-01 4.711185e-01 4.486721e-01 3.582206e-01 3.042164e-01
<GCONST> 1.159735e+02
<MIXTURE> 2 5.000000e-01
<MEAN> 39
 -7.490727e+00 5.755166e-01 -1.274967e+00 -4.507524e+00 -2.751637e+00 -8.968841e-01 -1.693492e-01 -2.753944e+00 -3.141571e+00 -1.955318e+00 -3.227621e+00 -1.680959e+00 -7.073758e-01 -1.677802e-02 3.400216e-03 4.234865e-03 -2.567157e-02 1.345692e-02 2.182337e-02 -3.554585e-02 2.232815e-02 8.655702e-03 6.457144e-03 1.310958e-02 -3.618885e-03 -1.473304e-02 9.720640e-04 -1.213824e-04 -2.408528e-04 1.897672e-04 5.488812e-04 -3.651608e-04 6.283933e-04 -2.268520e-04 -7.764050e-04 -5.305442e-05 -2.098343e-05 -2.971674e-04 2.111397e-04
<VARIANCE> 39
 4.198368e+01 5.262010e+01 6.219969e+01 8.033467e+01 4.414703e+01 4.122020e+01 7.816460e+01 4.257546e+01 7.002979e+01 2.904908e+01 3.515137e+01 1.948635e+01 2.631656e+01 1.604271e+00 1.316626e+00 1.711407e+00 1.792605e+00 1.909855e+00 2.122499e+00 2.186909e+00 2.410453e+00 2.493222e+00 2.424181e+00 2.361268e+00 1.803548e+00 1.591089e+00 2.225858e-01 2.179271e-01 2.721375e-01 3.270817e-01 3.331299e-01 4.129554e-01 4.048388e-01 4.883797e-01 4.595830e-01 4.711185e-01 4.486721e-01 3.582206e-01 3.042164e-01
<GCONST> 1.159735e+02
<STATE> 4
<NUMMIXES> 2
<MIXTURE> 1 5.000000e-01
<MEAN> 39
 -7.580012e+00 5.645851e-01 -1.270375e+00 -4.651432e+00 -2.624827e+00 -7.362037e-01 -3.714809e-01 -2.621073e+00 -3.136737e+00 -1.907079e+00 -3.116034e+00 -1.712587e+00 -8.008316e-01 -9.434986e-03 1.506548e-03 2.007694e-03 -2.115556e-02 1.793840e-02 1.870408e-02 -2.950646e-02 1.965722e-02 2.894362e-03 6.248437e-03 1.372994e-02 -5.702341e-03 -1.252218e-02 1.016705e-03 -3.745460e-04 -3.137086e-04 7.189449e-04 6.015795e-04 -3.948098e-04 9.992872e-04 -3.887426e-04 -9.098019e-04 -4.577258e-05 1.087849e-04 -2.749641e-04 3.491114e-04
<VARIANCE> 39
 4.014914e+01 5.349792e+01 6.183188e+01 8.427534e+01 4.434885e+01 4.006994e+01 7.802506e+01 4.504890e+01 6.971757e+01 2.892650e+01 3.531769e+01 1.931580e+01 2.655052e+01 1.577821e+00 1.308397e+00 1.686084e+00 1.798390e+00 1.890384e+00 2.140851e+00 2.188885e+00 2.402998e+00 2.480862e+00 2.418586e+00 2.345448e+00 1.792159e+00 1.579274e+00 2.219009e-01 2.171954e-01 2.702740e-01 3.296556e-01 3.320745e-01 4.188676e-01 4.078490e-01 4.861743e-01 4.605314e-01 4.741600e-01 4.494823e-01 3.572984e-01 3.038833e-01
<GCONST> 1.159632e+02
<MIXTURE> 2 5.000000e-01
<MEAN> 39
 -7.580012e+00 5.645851e-01 -1.270375e+00 -4.651432e+00 -2.624827e+00 -7.362037e-01 -3.714809e-01 -2.621073e+00 -3.136737e+00 -1.907079e+00 -3.116034e+00 -1.712587e+00 -8.008316e-01 -9.434986e-03 1.506548e-03 2.007694e-03 -2.115556e-02 1.793840e-02 1.870408e-02 -2.950646e-02 1.965722e-02 2.894362e-03 6.248437e-03 1.372994e-02 -5.702341e-03 -1.252218e-02 1.016705e-03 -3.745460e-04 -3.137086e-04 7.189449e-04 6.015795e-04 -3.948098e-04 9.992872e-04 -3.887426e-04 -9.098019e-04 -4.577258e-05 1.087849e-04 -2.749641e-04 3.491114e-04
<VARIANCE> 39
 4.014914e+01 5.349792e+01 6.183188e+01 8.427534e+01 4.434885e+01 4.006994e+01 7.802506e+01 4.504890e+01 6.971757e+01 2.892650e+01 3.531769e+01 1.931580e+01 2.655052e+01 1.577821e+00 1.308397e+00 1.686084e+00 1.798390e+00 1.890384e+00 2.140851e+00 2.188885e+00 2.402998e+00 2.480862e+00 2.418586e+00 2.345448e+00 1.792159e+00 1.579274e+00 2.219009e-01 2.171954e-01 2.702740e-01 3.296556e-01 3.320745e-01 4.188676e-01 4.078490e-01 4.861743e-01 4.605314e-01 4.741600e-01 4.494823e-01 3.572984e-01 3.038833e-01
<GCONST> 1.159632e+02
<TRANSP> 5
 0.000000e+00 1.000000e+00 0.000000e+00 0.000000e+00 0.000000e+00
 0.000000e+00 8.717817e-01 1.282183e-01 0.000000e+00 0.000000e+00
 0.000000e+00 0.000000e+00 8.717821e-01 1.282179e-01 0.000000e+00
 0.000000e+00 0.000000e+00 0.000000e+00 8.717828e-01 1.282173e-01
 0.000000e+00 0.000000e+00 0.000000e+00 0.000000e+00 0.000000e+00
<ENDHMM>
~h "d"
<BEGINHMM>
<NUMSTATES> 5
<STATE> 2
<NUMMIXES> 2
<MIXTURE> 1 5.000000e-01
<MEAN> 39
 -3.245463e+00 2.306880e+00 -6.851020e-01 -2.002548e+00 -2.812010e+00 -7.625285e+00 1.511771e+00 -3.957667e+00 -4.712967e+00 1.145983e+00 -3.232652e+00 -1.871781e+00 -1.160210e+00 1.189552e-02 4.689877e-02 4.018646e-02 -3.270485e-02 -3.542454e-02 -3.990283e-02 1.209666e-02 -1.871601e-02 -3.106137e-02 4.670193e-02 -6.467513e-03 -5.196537e-03 -1.165484e-03 1.511697e-03 2.207445e-04 1.086199e-04 2.034355e-03 -5.296394e-04 2.121924e-03 -1.746727e-04 2.929362e-03 1.197216e-03 -2.788548e-03 7.404886e-04 1.822361e-05 9.270116e-04
<VARIANCE> 39
 7.715572e+01 6.741521e+01 6.819128e+01 3.827327e+01 5.343171e+01 9.546751e+01 4.704008e+01 4.228536e+01 4.770061e+01 7.245634e+01 2.639694e+01 3.045204e+01 2.269309e+01 2.038642e+00 1.470235e+00 1.649638e+00 1.450952e+00 1.793830e+00 3.004663e+00 2.284717e+00 1.972656e+00 2.377609e+00 2.976162e+00 1.887706e+00 1.785152e+00 1.485013e+00 3.340747e-01 2.220461e-01 2.458678e-01 2.388833e-01 3.090212e-01 4.787833e-01 4.379442e-01 3.339073e-01 4.256705e-01 5.490646e-01 3.591571e-01 3.253039e-01 2.946030e-01
<GCONST> 1.168285e+02
<MIXTURE> 2 5.000000e-01
<MEAN> 39
 -3.245463e+00 2.306880e+00 -6.851020e-01 -2.002548e+00 -2.812010e+00 -7.625285e+00 1.511771e+00 -3.957667e+00 -4.712967e+00 1.145983e+00 -3.232652e+00 -1.871781e+00 -1.160210e+00 1.189552e-02 4.689877e-02 4.018646e-02 -3.270485e-02 -3.542454e-02 -3.990283e-02 1.209666e-02 -1.871601e-02 -3.106137e-02 4.670193e-02 -6.467513e-03 -5.196537e-03 -1.165484e-03 1.511697e-03 2.207445e-04 1.086199e-04 2.034355e-03 -5.296394e-04 2.121924e-03 -1.746727e-04 2.929362e-03 1.197216e-03 -2.788548e-03 7.404886e-04 1.822361e-05 9.270116e-04
<VARIANCE> 39
 7.715572e+01 6.741521e+01 6.819128e+01 3.827327e+01 5.343171e+01 9.546751e+01 4.704008e+01 4.228536e+01 4.770061e+01 7.245634e+01 2.639694e+01 3.045204e+01 2.269309e+01 2.038642e+00 1.470235e+00 1.649638e+00 1.450952e+00 1.793830e+00 3.004663e+00 2.284717e+00 1.972656e+00 2.377609e+00 2.976162e+00 1.887706e+00 1.785152e+00 1.485013e+00 3.340747e-01 2.220461e-01 2.458678e-01 2.388833e-01 3.090212e-01 4.787833e-01 4.379442e-01 3.339073e-01 4.256705e-01 5.490646e-01 3.591571e-01 3.253039e-01 2.946030e-01
<GCONST> 1.168285e+02
<STATE> 3
<NUMMIXES> 2
<MIXTURE> 1 5.000000e-01
<MEAN> 39
 -3.180638e+00 2.523142e+00 -4.232323e-01 -2.065477e+00 -3.233763e+00 -7.631719e+00 1.615541e+00 -3.805866e+00 -4.833273e+00 1.206532e+00 -3.223938e+00 -1.952973e+00 -1.077374e+00 6.500142e-03 2.460652e-02 2.571892e-02 -7.931082e-03 -4.842447e-02 5.644074e-03 4.261933e-03 2.421654e-02 -1.012620e-02 -2.821956e-03 2.430821e-03 -7.429805e-03 9.843289e-03 -6.741759e-04 -2.388386e-03 -1.809441e-03 2.702652e-03 -1.231436e-03 4.853663e-03 -1.169253e-03 4.725320e-03 2.434993e-03 -5.568545e-03 1.061874e-03 -1.386613e-04 1.069226e-03
<VARIANCE> 39
 8.038696e+01 7.286892e+01 7.129037e+01 4.261165e+01 5.430882e+01 9.718091e+01 4.934146e+01 4.493599e+01 4.877914e+01 7.184921e+01 2.765096e+01 3.175757e+01 2.315078e+01 2.076632e+00 1.549058e+00 1.654452e+00 1.533492e+00 1.865892e+00 2.956215e+00 2.381446e+00 1.977821e+00 2.433711e+00 3.037037e+00 1.982717e+00 1.832645e+00 1.508752e+00 3.367916e-01 2.412241e-01 2.464591e-01 2.565740e-01 3.270229e-01 4.756575e-01 4.594439e-01 3.296174e-01 4.392736e-01 5.723398e-01 3.777122e-01 3.338098e-01 2.969062e-01
<GCONST> 1.181018e+02
<MIXTURE> 2 5.000000e-01
<MEAN> 39
 -3.180638e+00 2.523142e+00 -4.232323e-01 -2.065477e+00 -3.233763e+00 -7.631719e+00 1.615541e+00 -3.805866e+00 -4.833273e+00 1.206532e+00 -3.223938e+00 -1.952973e+00 -1.077374e+00 6.500142e-03 2.460652e-02 2.571892e-02 -7.931082e-03 -4.842447e-02 5.644074e-03 4.261933e-03 2.421654e-02 -1.012620e-02 -2.821956e-03 2.430821e-03 -7.429805e-03 9.843289e-03 -6.741759e-04 -2.388386e-03 -1.809441e-03 2.702652e-03 -1.231436e-03 4.853663e-03 -1.169253e-03 4.725320e-03 2.434993e-03 -5.568545e-03 1.061874e-03 -1.386613e-04 1.069226e-03
<VARIANCE> 39
 8.038696e+01 7.286892e+01 7.129037e+01 4.261165e+01 5.430882e+01 9.718091e+01 4.934146e+01 4.493599e+01 4.877914e+01 7.184921e+01 2.765096e+01 3.175757e+01 2.315078e+01 2.076632e+00 1.549058e+00 1.654452e+00 1.533492e+00 1.865892e+00 2.956215e+00 2.381446e+00 1.977821e+00 2.433711e+00 3.037037e+00 1.982717e+00 1.832645e+00 1.508752e+00 3.367916e-01 2.412241e-01 2.464591e-01 2.565740e-01 3.270229e-01 4.756575e-01 4.594439e-01 3.296174e-01 4.392736e-01 5.723398e-01 3.777122e-01 3.338098e-01 2.969062e-01
<GCONST> 1.181018e+02
<STATE> 4
<NUMMIXES> 2
<MIXTURE> 1 5.000000e-01
<MEAN> 39
 -3.289290e+00 2.457513e+00 -3.887781e-01 -1.994773e+00 -3.735701e+00 -7.266548e+00 1.601642e+00 -3.308656e+00 -4.754698e+00 8.136588e-01 -3.168762e+00 -2.042497e+00 -9.314903e-01 -1.281525e-02 -4.778582e-03 -7.360289e-04 5.402085e-03 -5.479003e-02 4.311565e-02 -1.106533e-02 6.056426e-02 1.216958e-02 -5.164631e-02 7.666626e-03 -7.161963e-03 1.519681e-02 -2.126679e-03 -3.078660e-03 -3.062413e-03 1.368819e-03 -4.326941e-04 3.751503e-03 -1.862088e-03 3.756654e-03 2.451585e-03 -5.140531e-03 5.913448e-04 1.318109e-04 4.508361e-04
<VARIANCE> 39
 8.177142e+01 7.585737e+01 7.457484e+01 4.780648e+01 5.308484e+01 9.616539e+01 5.218837e+01 4.691647e+01 5.083770e+01 6.715923e+01 2.914252e+01 3.235732e+01 2.321423e+01 2.135326e+00 1.638030e+00 1.690511e+00 1.612063e+00 1.905477e+00 2.894046e+00 2.448627e+00 1.955180e+00 2.431451e+00 2.961896e+00 2.049800e+00 1.845164e+00 1.502835e+00 3.428544e-01 2.625230e-01 2.510511e-01 2.767693e-01 3.401843e-01 4.731221e-01 4.722114e-01 3.229685e-01 4.384818e-01 5.699351e-01 3.883211e-01 3.367094e-01 2.932971e-01
<GCONST> 1.188703e+02
<MIXTURE> 2 5.000000e-01
<MEAN> 39
 -3.289290e+00 2.457513e+00 -3.887781e-01 -1.994773e+00 -3.735701e+00 -7.266548e+00 1.601642e+00 -3.308656e+00 -4.754698e+00 8.136588e-01 -3.168762e+00 -2.042497e+00 -9.314903e-01 -1.281525e-02 -4.778582e-03 -7.360289e-04 5.402085e-03 -5.479003e-02 4.311565e-02 -1.106533e-02 6.056426e-02 1.216958e-02 -5.164631e-02 7.666626e-03 -7.161963e-03 1.519681e-02 -2.126679e-03 -3.078660e-03 -3.062413e-03 1.368819e-03 -4.326941e-04 3.751503e-03 -1.862088e-03 3.756654e-03 2.451585e-03 -5.140531e-03 5.913448e-04 1.318109e-04 4.508361e-04
<VARIANCE> 39
 8.177142e+01 7.585737e+01 7.457484e+01 4.780648e+01 5.308484e+01 9.616539e+01 5.218837e+01 4.691647e+01 5.083770e+01 6.715923e+01 2.914252e+01 3.235732e+01 2.321423e+01 2.135326e+00 1.638030e+00 1.690511e+00 1.612063e+00 1.905477e+00 2.894046e+00 2.448627e+00 1.955180e+00 2.431451e+00 2.961896e+00 2.049800e+00 1.845164e+00 1.502835e+00 3.428544e-01 2.625230e-01 2.510511e-01 2.767693e-01 3.401843e-01 4.731221e-01 4.722114e-01 3.229685e-01 4.384818e-01 5.699351e-01 3.883211e-01 3.367094e-01 2.932971e-01
<GCONST> 1.188703e+02
<TRANSP> 5
 0.000000e+00 1.000000e+00 0.000000e+00 0.000000e+00 0.000000e+00
 0.000000e+00 8.783498e-01 1.216502e-01 0.000000e+00 0.000000e+00
 0.000000e+00 0.000000e+00 8.783500e-01 1.216500e-01 0.000000e+00
 0.000000e+00 0.000000e+00 0.000000e+00 8.783514e-01 1.216486e-01
 0.000000e+00 0.000000e+00 0.000000e+00 0.000000e+00 0.000000e+00
<ENDHMM>
~h "g"
<BEGINHMM>
<NUMSTATES> 5
<STATE> 2
<NUMMIXES> 2
<MIXTURE> 1 5.000000e-01
<MEAN> 39
 -1.722452e+00 -1.483194e+00 -3.288830e+00 -1.623129e+00 -1.676309e+00 -7.032097e+00 1.864996e+00 -6.740264e-01 -8.518473e+00 -6.484410e-01 -4.166490e-01 -2.747055e+00 -6.470690e-01 -1.131926e-02 3.436912e-02 -5.162694e-03 -4.358292e-02 8.291966e-04 1.691768e-02 -1.060302e-02 -1.007306e-02 3.762308e-02 2.487003e-02 -1.804003e-02 -2.326480e-02 -5.725313e-03 -6.828070e-04 -3.462648e-04 -4.000152e-03 2.383129e-03 3.367473e-03 2.922784e-04 -2.306161e-04 -2.068845e-03 3.103486e-03 -6.348671e-05 -1.221643e-03 7.774105e-04 -1.066849e-03
<VARIANCE> 39
 3.203753e+01 6.273052e+01 7.251874e+01 5.290072e+01 5.595005e+01 9.373520e+01 6.824071e+01 5.866747e+01 5.253080e+01 3.482091e+01 3.450531e+01 2.067565e+01 2.048781e+01 1.208341e+00 2.044380e+00 1.623575e+00 1.916968e+00 2.598862e+00 3.836997e+00 2.350824e+00 2.100099e+00 2.072622e+00 2.096211e+00 1.778644e+00 1.436540e+00 1.152667e+00 1.760049e-01 2.940447e-01 2.182212e-01 3.457229e-01 4.392844e-01 5.349837e-01 3.920557e-01 3.178307e-01 3.746363e-01 3.646431e-01 3.099680e-01 2.629661e-01 1.983124e-01
<GCONST> 1.147900e+02
<MIXTURE> 2 5.000000e-01
<MEAN> 39
 -1.722452e+00 -1.483194e+00 -3.288830e+00 -1.623129e+00 -1.676309e+00 -7.032097e+00 1.864996e+00 -6.740264e-01 -8.518473e+00 -6.484410e-01 -4.166490e-01 -2.747055e+00 -6.470690e-01 -1.131926e-02 3.436912e-02 -5.162694e-03 -4.358292e-02 8.291966e-04 1.691768e-02 -1.060302e-02 -1.007306e-02 3.762308e-02 2.487003e-02 -1.804003e-02 -2.326480e-02 -5.725313e-03 -6.828070e-04 -3.462648e-04 -4.000152e-03 2.383129e-03 3.367473e-03 2.922784e-04 -2.306161e-04 -2.068845e-03 3.103486e-03 -6.348671e-05 -1.221643e-03 7.774105e-04 -1.066849e-03
<VARIANCE> 39
 3.203753e+01 6.273052e+01 7.251874e+01 5.290072e+01 5.595005e+01 9.373520e+01 6.824071e+01 5.866747e+01 5.253080e+01 3.482091e+01 3.450531e+01 2.067565e+01 2.048781e+01 1.208341e+00 2.044380e+00 1.623575e+00 1.916968e+00 2.598862e+00 3.836997e+00 2.350824e+00 2.100099e+00 2.072622e+00 2.096211e+00 1.778644e+00 1.436540e+00 1.152667e+00 1.760049e-01 2.940447e-01 2.182212e-01 3.457229e-01 4.392844e-01 5.349837e-01 3.920557e-01 3.178307e-01 3.746363e-01 3.646431e-01 3.099680e-01 2.629661e-01 1.983124e-01
<GCONST> 1.147900e+02
<STATE> 3
<NUMMIXES> 2
<MIXTURE> 1 5.000000e-01
<MEAN> 39
 -1.835236e+00 -1.206667e+00 -3.414257e+00 -1.932770e+00 -1.578370e+00 -6.917629e+00 1.787917e+00 -7.796135e-01 -8.177217e+00 -4.404378e-01 -5.820598e-01 -2.929410e+00 -7.141362e-01 -1.704632e-02 2.961521e-02 -4.056139e-02 -2.143102e-02 2.966977e-02 2.007676e-02 -1.092159e-02 -2.815062e-02 6.170198e-02 2.385280e-02 -2.709137e-02 -1.654837e-02 -1.593613e-02 -1.569779e-04 -9.999726e-04 -4.042973e-03 2.922290e-03 3.530873e-03 8.890465e-04 -1.288883e-04 -2.265862e-03 2.372160e-03 -1.596381e-04 -8.293288e-04 1.018798e-03 -1.176049e-03
<VARIANCE> 39
 3.180499e+01 6.264663e+01 7.497320e+01 5.881532e+01 5.568562e+01 9.724327e+01 6.893671e+01 6.193914e+01 5.272652e+01 3.413656e+01 3.656070e+01 2.086788e+01 2.105454e+01 1.175101e+00 2.034027e+00 1.550504e+00 1.897675e+00 2.588739e+00 3.920950e+00 2.333295e+00 2.057233e+00 2.047771e+00 2.099930e+00 1.864849e+00 1.448198e+00 1.166456e+00 1.724046e-01 2.934287e-01 2.108867e-01 3.378823e-01 4.424781e-01 5.345643e-01 3.926229e-01 3.098873e-01 3.725614e-01 3.730299e-01 3.313074e-01 2.671006e-01 2.018886e-01
<GCONST> 1.150729e+02
<MIXTURE> 2 5.000000e-01
<MEAN> 39
 -1.835236e+00 -1.206667e+00 -3.414257e+00 -1.932770e+00 -1.578370e+00 -6.917629e+00 1.787917e+00 -7.796135e-01 -8.177217e+00 -4.404378e-01 -5.820598e-01 -2.929410e+00 -7.141362e-01 -1.704632e-02 2.961521e-02 -4.056139e-02 -2.143102e-02 2.966977e-02 2.007676e-02 -1.092159e-02 -2.815062e-02 6.170198e-02 2.385280e-02 -2.709137e-02 -1.654837e-02 -1.593613e-02 -1.569779e-04 -9.999726e-04 -4.042973e-03 2.922290e-03 3.530873e-03 8.890465e-04 -1.288883e-04 -2.265862e-03 2.372160e-03 -1.596381e-04 -8.293288e-04 1.018798e-03 -1.176049e-03
<VARIANCE> 39
 3.180499e+01 6.264663e+01 7.497320e+01 5.881532e+01 5.568562e+01 9.724327e+01 6.893671e+01 6.193914e+01 5.272652e+01 3.413656e+01 3.656070e+01 2.086788e+01 2.105454e+01 1.175101e+00 2.034027e+00 1.550504e+00 1.897675e+00 2.588739e+00 3.920950e+00 2.333295e+00 2.057233e+00 2.047771e+00 2.099930e+00 1.864849e+00 1.448198e+00 1.166456e+00 1.724046e-01 2.934287e-01 2.108867e-01 3.378823e-01 4.424781e-01 5.345643e-01 3.926229e-01 3.098873e-01 3.725614e-01 3.730299e-01 3.313074e-01 2.671006e-01 2.018886e-01
<GCONST> 1.150729e+02
<STATE> 4
<NUMMIXES> 2
<MIXTURE> 1 5.000000e-01
<MEAN> 39
 -1.995952e+00 -9.823853e-01 -3.844865e+00 -2.040948e+00 -1.238342e+00 -6.770347e+00 1.715462e+00 -1.042198e+00 -7.648000e+00 -2.448292e-01 -8.124499e-01 -3.053571e+00 -8.762356e-01 -1.814970e-02 2.013192e-02 -7.443786e-02 4.203824e-03 5.856517e-02 2.841773e-02 -1.150686e-02 -4.723972e-02 7.976693e-02 2.210500e-02 -3.266167e-02 -8.108376e-03 -2.667458e-02 5.970013e-04 -1.068615e-03 -3.095784e-03 2.863799e-03 3.016982e-03 1.124384e-03 -3.613247e-04 -1.879532e-03 1.566450e-03 -8.580879e-05 -3.419612e-04 1.000799e-03 -9.982472e-04
<VARIANCE> 39
 3.173978e+01 6.266540e+01 7.981036e+01 6.652653e+01 5.555941e+01 9.902247e+01 7.011677e+01 6.529797e+01 5.523793e+01 3.381876e+01 3.921614e+01 2.107807e+01 2.221620e+01 1.132389e+00 1.977422e+00 1.493427e+00 1.826874e+00 2.522033e+00 3.906712e+00 2.286392e+00 1.990213e+00 2.056395e+00 2.108044e+00 1.992228e+00 1.469435e+00 1.210348e+00 1.681138e-01 2.869145e-01 2.081170e-01 3.195954e-01 4.347306e-01 5.258755e-01 3.882273e-01 3.008252e-01 3.774140e-01 3.820666e-01 3.650562e-01 2.742930e-01 2.132547e-01
<GCONST> 1.154388e+02
<MIXTURE> 2 5.000000e-01
<MEAN> 39
 -1.995952e+00 -9.823853e-01 -3.844865e+00 -2.040948e+00 -1.238342e+00 -6.770347e+00 1.715462e+00 -1.042198e+00 -7.648000e+00 -2.448292e-01 -8.124499e-01 -3.053571e+00 -8.762356e-01 -1.814970e-02 2.013192e-02 -7.443786e-02 4.203824e-03 5.856517e-02 2.841773e-02 -1.150686e-02 -4.723972e-02 7.976693e-02 2.210500e-02 -3.266167e-02 -8.108376e-03 -2.667458e-02 5.970013e-04 -1.068615e-03 -3.095784e-03 2.863799e-03 3.016982e-03 1.124384e-03 -3.613247e-04 -1.879532e-03 1.566450e-03 -8.580879e-05 -3.419612e-04 1.000799e-03 -9.982472e-04
<VARIANCE> 39
 3.173978e+01 6.266540e+01 7.981036e+01 6.652653e+01 5.555941e+01 9.902247e+01 7.011677e+01 6.529797e+01 5.523793e+01 3.381876e+01 3.921614e+01 2.107807e+01 2.221620e+01 1.132389e+00 1.977422e+00 1.493427e+00 1.826874e+00 2.522033e+00 3.906712e+00 2.286392e+00 1.990213e+00 2.056395e+00 2.108044e+00 1.992228e+00 1.469435e+00 1.210348e+00 1.681138e-01 2.869145e-01 2.081170e-01 3.195954e-01 4.347306e-01 5.258755e-01 3.882273e-01 3.008252e-01 3.774140e-01 3.820666e-01 3.650562e-01 2.742930e-01 2.132547e-01
<GCONST> 1.154388e+02
<TRANSP> 5
 0.000000e+00 1.000000e+00 0.000000e+00 0.000000e+00 0.000000e+00
 0.000000e+00 8.761897e-01 1.238103e-01 0.000000e+00 0.000000e+00
 0.000000e+00 0.000000e+00 8.761902e-01 1.238098e-01 0.000000e+00
 0.000000e+00 0.000000e+00 0.000000e+00 8.761919e-01 1.238081e-01
 0.000000e+00 0.000000e+00 0.000000e+00 0.000000e+00 0.000000e+00
<ENDHMM>
~h "h"
<BEGINHMM>
<NUMSTATES> 5
<STATE> 2
<NUMMIXES> 2
<MIXTURE> 1 5.000000e-01
<MEAN> 39
 -4.212865e+00 8.143733e-01 -3.991939e+00 -2.198939e+00 1.038703e+00 -2.531336e+00 -1.860632e+00 -4.339108e-01 -1.448135e+00 -1.878513e+00 -3.262768e+00 -1.329974e+00 -1.678271e-01 1.062621e-02 1.639355e-02 -4.438563e-03 2.982806e-02 4.662551e-03 -2.917257e-02 -1.367127e-02 2.999246e-03 6.829367e-03 -7.094725e-04 -6.437733e-03 9.327016e-03 1.232199e-03 -1.132685e-03 -1.763740e-04 1.644641e-03 -6.812461e-04 -5.365780e-04 6.011383e-04 3.735299e-04 -4.861437e-04 -1.184525e-03 -1.348283e-04 4.413626e-04 -3.242437e-04 -3.782082e-04
<VARIANCE> 39
 3.402876e+01 5.353627e+01 8.342834e+01 1.140457e+02 4.596676e+01 5.288997e+01 4.919784e+01 6.553511e+01 6.203016e+01 3.183752e+01 2.755459e+01 2.713890e+01 2.324091e+01 9.806829e-01 1.121102e+00 1.492562e+00 1.980218e+00 2.082205e+00 2.280092e+00 2.493905e+00 2.989225e+00 2.990668e+00 2.488085e+00 2.218164e+00 1.950207e+00 1.675013e+00 1.661110e-01 1.878944e-01 2.569878e-01 3.644061e-01 4.071840e-01 4.353187e-01 4.921811e-01 6.012871e-01 5.820246e-01 4.951142e-01 4.469078e-01 3.980823e-01 3.455978e-01
<GCONST> 1.174876e+02
<MIXTURE> 2 5.000000e-01
<MEAN> 39
 -4.212865e+00 8.143733e-01 -3.991939e+00 -2.198939e+00 1.038703e+00 -2.531336e+00 -1.860632e+00 -4.339108e-01 -1.448135e+00 -1.878513e+00 -3.262768e+00 -1.329974e+00 -1.678271e-01 1.062621e-02 1.639355e-02 -4.438563e-03 2.982806e-02 4.662551e-03 -2.917257e-02 -1.367127e-02 2.999246e-03 6.829367e-03 -7.094725e-04 -6.437733e-03 9.327016e-03 1.232199e-03 -1.132685e-03 -1.763740e-04 1.644641e-03 -6.812461e-04 -5.365780e-04 6.011383e-04 3.735299e-04 -4.861437e-04 -1.184525e-03 -1.348283e-04 4.413626e-04 -3.242437e-04 -3.782082e-04
<VARIANCE> 39
 3.402876e+01 5.353627e+01 8.342834e+01 1.140457e+02 4.596676e+01 5.288997e+01 4.919784e+01 6.553511e+01 6.203016e+01 3.183752e+01 2.755459e+01 2.713890e+01 2.324091e+01 9.806829e-01 1.121102e+00 1.492562e+00 1.980218e+00 2.082205e+00 2.280092e+00 2.493905e+00 2.989225e+00 2.990668e+00 2.488085e+00 2.218164e+00 1.950207e+00 1.675013e+00 1.661110e-01 1.878944e-01 2.569878e-01 3.644061e-01 4.071840e-01 4.353187e-01 4.921811e-01 6.012871e-01 5.820246e-01 4.951142e-01 4.469078e-01 3.980823e-01 3.455978e-01
<GCONST> 1.174876e+02
<STATE> 3
<NUMMIXES> 2
<MIXTURE> 1 5.000000e-01
<MEAN> 39
 -4.115964e+00 9.689916e-01 -4.024030e+00 -1.962504e+00 1.069084e+00 -2.768291e+00 -1.974774e+00 -4.119112e-01 -1.379775e+00 -1.872456e+00 -3.316888e+00 -1.275995e+00 -1.502249e-01 2.436659e-03 1.520930e-02 8.055711e-03 2.539627e-02 5.047002e-04 -2.494385e-02 -1.061439e-02 -1.539024e-03 -2.393947e-03 -1.291840e-03 -3.155854e-03 6.780349e-03 -1.677996e-03 -1.311859e-03 -1.362725e-04 1.619603e-03 -1.474806e-03 -5.026254e-04 1.122573e-03 3.522631e-04 -5.468528e-04 -9.488452e-04 -3.972922e-06 5.038743e-04 -6.834825e-04 -5.179053e-04
<VARIANCE> 39
 3.435109e+01 5.351230e+01 8.319658e+01 1.133408e+02 4.501825e+01 5.356647e+01 4.772658e+01 6.665768e+01 6.108120e+01 3.266529e+01 2.804542e+01 2.707789e+01 2.321032e+01 9.929171e-01 1.122276e+00 1.501627e+00 2.024788e+00 2.079778e+00 2.259900e+00 2.486497e+00 3.053915e+00 3.016324e+00 2.523627e+00 2.246882e+00 1.960445e+00 1.690984e+00 1.688651e-01 1.897402e-01 2.578179e-01 3.739638e-01 4.076547e-01 4.303798e-01 4.938380e-01 6.135548e-01 5.891967e-01 5.026981e-01 4.542688e-01 4.017863e-01 3.505963e-01
<GCONST> 1.177269e+02
<MIXTURE> 2 5.000000e-01
<MEAN> 39
 -4.115964e+00 9.689916e-01 -4.024030e+00 -1.962504e+00 1.069084e+00 -2.768291e+00 -1.974774e+00 -4.119112e-01 -1.379775e+00 -1.872456e+00 -3.316888e+00 -1.275995e+00 -1.502249e-01 2.436659e-03 1.520930e-02 8.055711e-03 2.539627e-02 5.047002e-04 -2.494385e-02 -1.061439e-02 -1.539024e-03 -2.393947e-03 -1.291840e-03 -3.155854e-03 6.780349e-03 -1.677996e-03 -1.311859e-03 -1.362725e-04 1.619603e-03 -1.474806e-03 -5.026254e-04 1.122573e-03 3.522631e-04 -5.468528e-04 -9.488452e-04 -3.972922e-06 5.038743e-04 -6.834825e-04 -5.179053e-04
<VARIANCE> 39
 3.435109e+01 5.351230e+01 8.319658e+01 1.133408e+02 4.501825e+01 5.356647e+01 4.772658e+01 6.665768e+01 6.108120e+01 3.266529e+01 2.804542e+01 2.707789e+01 2.321032e+01 9.929171e-01 1.122276e+00 1.501627e+00 2.024788e+00 2.079778e+00 2.259900e+00 2.486497e+00 3.053915e+00 3.016324e+00 2.523627e+00 2.246882e+00 1.960445e+00 1.690984e+00 1.688651e-01 1.897402e-01 2.578179e-01 3.739638e-01 4.076547e-01 4.303798e-01 4.938380e-01 6.135548e-01 5.891967e-01 5.026981e-01 4.542688e-01 4.017863e-01 3.505963e-01
<GCONST> 1.177269e+02
<STATE> 4
<NUMMIXES> 2
<MIXTURE> 1 5.000000e-01
<MEAN> 39
 -4.080052e+00 1.116483e+00 -3.958240e+00 -1.754323e+00 1.066493e+00 -2.975659e+00 -2.064316e+00 -4.311668e-01 -1.383842e+00 -1.867047e+00 -3.346762e+00 -1.242012e+00 -1.547545e-01 -7.526716e-03 1.437647e-02 2.049230e-02 1.457415e-02 -3.370638e-03 -1.674105e-02 -7.910142e-03 -6.358008e-03 -9.780552e-03 -1.095374e-03 6.295425e-04 1.540906e-03 -5.589310e-03 -1.363400e-03 -2.233829e-05 1.306782e-03 -2.311219e-03 -4.390596e-04 1.525496e-03 2.124241e-04 -5.038293e-04 -5.203374e-04 1.312440e-04 5.075691e-04 -1.011853e-03 -6.089315e-04
<VARIANCE> 39
 3.434919e+01 5.357289e+01 8.246709e+01 1.123220e+02 4.414465e+01 5.425217e+01 4.644344e+01 6.747159e+01 5.980655e+01 3.352103e+01 2.873021e+01 2.700940e+01 2.321172e+01 1.009184e+00 1.125616e+00 1.503980e+00 2.076840e+00 2.077507e+00 2.245871e+00 2.477749e+00 3.111603e+00 3.026492e+00 2.554746e+00 2.281573e+00 1.967972e+00 1.706598e+00 1.724573e-01 1.917459e-01 2.575749e-01 3.829882e-01 4.076829e-01 4.257275e-01 4.951091e-01 6.239075e-01 5.928010e-01 5.099836e-01 4.630835e-01 4.048741e-01 3.555894e-01
<GCONST> 1.179370e+02
<MIXTURE> 2 5.000000e-01
<MEAN> 39
 -4.080052e+00 1.116483e+00 -3.958240e+00 -1.754323e+00 1.066493e+00 -2.975659e+00 -2.064316e+00 -4.311668e-01 -1.383842e+00 -1.867047e+00 -3.346762e+00 -1.242012e+00 -1.547545e-01 -7.526716e-03 1.437647e-02 2.049230e-02 1.457415e-02 -3.370638e-03 -1.674105e-02 -7.910142e-03 -6.358008e-03 -9.780552e-03 -1.095374e-03 6.295425e-04 1.540906e-03 -5.589310e-03 -1.363400e-03 -2.233829e-05 1.306782e-03 -2.311219e-03 -4.390596e-04 1.525496e-03 2.124241e-04 -5.038293e-04 -5.203374e-04 1.312440e-04 5.075691e-04 -1.011853e-03 -6.089315e-04
<VARIANCE> 39
 3.434919e+01 5.357289e+01 8.246709e+01 1.123220e+02 4.414465e+01 5.425217e+01 4.644344e+01 6.747159e+01 5.980655e+01 3.352103e+01 2.873021e+01 2.700940e+01 2.321172e+01 1.009184e+00 1.125616e+00 1.503980e+00 2.076840e+00 2.077507e+00 2.245871e+00 2.477749e+00 3.111603e+00 3.026492e+00 2.554746e+00 2.281573e+00 1.967972e+00 1.706598e+00 1.724573e-01 1.917459e-01 2.575749e-01 3.829882e-01 4.076829e-01 4.257275e-01 4.951091e-01 6.239075e-01 5.928010e-01 5.099836e-01 4.630835e-01 4.048741e-01 3.555894e-01
<GCONST> 1.179370e+02
<TRANSP> 5
 0.000000e+00 1.000000e+00 0.000000e+00 0.000000e+00 0.000000e+00
 0.000000e+00 8.833787e-01 1.166213e-01 0.000000e+00 0.000000e+00
 0.000000e+00 0.000000e+00 8.833789e-01 1.166211e-01 0.000000e+00
 0.000000e+00 0.000000e+00 0.000000e+00 8.833799e-01 1.166201e-01
 0.000000e+00 0.000000e+00 0.000000e+00 0.000000e+00 0.000000e+00
<ENDHMM>
~h "i"
<BEGINHMM>
<NUMSTATES> 7
<STATE> 2
<NUMMIXES> 2
<MIXTURE> 1 5.000000e-01
<MEAN> 39
 -5.929370e+00 1.775075e+00 8.101550e-01 -5.210835e+00 -1.380932e+00 -3.210818e+00 -2.731957e+00 -3.781358e+00 -2.065535e+00 -1.873350e+00 -4.432959e+00 -1.857266e+00 4.313806e-01 1.641938e-02 -1.897397e-02 -6.208364e-03 -5.319580e-03 8.390860e-03 9.738730e-03 3.634135e-02 3.855206e-03 -2.499845e-02 1.244503e-02 -1.318748e-02 5.807713e-04 7.480935e-04 4.093551e-04 2.781508e-04 2.109616e-04 -2.141207e-04 -1.192493e-04 -5.544434e-04 -6.051170e-04 4.746872e-04 1.608808e-04 -3.363982e-06 3.112273e-04 3.201661e-04 -3.737648e-04
<VARIANCE> 39
 5.406093e+01 5.637045e+01 9.149421e+01 7.961169e+01 4.752004e+01 6.288200e+01 7.621448e+01 3.695585e+01 5.481363e+01 3.265867e+01 4.093520e+01 2.493550e+01 2.210130e+01 1.127341e+00 1.052123e+00 1.560098e+00 1.709904e+00 1.774791e+00 2.620173e+00 2.161932e+00 2.235790e+00 2.614429e+00 2.197949e+00 2.257129e+00 1.903863e+00 1.510161e+00 1.735930e-01 1.590833e-01 2.508185e-01 2.792030e-01 3.221523e-01 4.369807e-01 3.833775e-01 4.433593e-01 5.076709e-01 4.298786e-01 4.359734e-01 3.932408e-01 2.848352e-01
<GCONST> 1.154130e+02
<MIXTURE> 2 5.000000e-01
<MEAN> 39
 -5.929370e+00 1.775075e+00 8.101550e-01 -5.210835e+00 -1.380932e+00 -3.210818e+00 -2.731957e+00 -3.781358e+00 -2.065535e+00 -1.873350e+00 -4.432959e+00 -1.857266e+00 4.313806e-01 1.641938e-02 -1.897397e-02 -6.208364e-03 -5.319580e-03 8.390860e-03 9.738730e-03 3.634135e-02 3.855206e-03 -2.499845e-02 1.244503e-02 -1.318748e-02 5.807713e-04 7.480935e-04 4.093551e-04 2.781508e-04 2.109616e-04 -2.141207e-04 -1.192493e-04 -5.544434e-04 -6.051170e-04 4.746872e-04 1.608808e-04 -3.363982e-06 3.112273e-04 3.201661e-04 -3.737648e-04
<VARIANCE> 39
 5.406093e+01 5.637045e+01 9.149421e+01 7.961169e+01 4.752004e+01 6.288200e+01 7.621448e+01 3.695585e+01 5.481363e+01 3.265867e+01 4.093520e+01 2.493550e+01 2.210130e+01 1.127341e+00 1.052123e+00 1.560098e+00 1.709904e+00 1.774791e+00 2.620173e+00 2.161932e+00 2.235790e+00 2.614429e+00 2.197949e+00 2.257129e+00 1.903863e+00 1.510161e+00 1.735930e-01 1.590833e-01 2.508185e-01 2.792030e-01 3.221523e-01 4.369807e-01 3.833775e-01 4.433593e-01 5.076709e-01 4.298786e-01 4.359734e-01 3.932408e-01 2.848352e-01
<GCONST> 1.154130e+02
<STATE> 3
<NUMMIXES> 2
<MIXTURE> 1 5.000000e-01
<MEAN> 39
 -5.784008e+00 1.605966e+00 7.601004e-01 -5.260074e+00 -1.337924e+00 -3.162919e+00 -2.452081e+00 -3.715263e+00 -2.249268e+00 -1.790870e+00 -4.519597e+00 -1.844200e+00 4.265049e-01 1.997986e-02 -1.599472e-02 -5.425576e-03 -5.604413e-03 7.104272e-03 3.287879e-03 2.901119e-02 7.306322e-03 -2.309384e-02 1.176725e-02 -8.710599e-03 3.202451e-03 -2.423514e-03 2.760345e-04 4.304955e-04 1.142188e-04 5.054082e-05 -1.343677e-04 -8.034472e-04 -9.448389e-04 4.561228e-04 4.263238e-04 -1.144434e-04 5.924709e-04 3.330652e-04 -3.959875e-04
<VARIANCE> 39
 5.371069e+01 5.499515e+01 9.488911e+01 8.265230e+01 4.920305e+01 6.301183e+01 7.608567e+01 3.782946e+01 5.612891e+01 3.440357e+01 4.186580e+01 2.532648e+01 2.313805e+01 1.129935e+00 1.060794e+00 1.565163e+00 1.731446e+00 1.765045e+00 2.639215e+00 2.143323e+00 2.191874e+00 2.613211e+00 2.220231e+00 2.246025e+00 1.869968e+00 1.501234e+00 1.756358e-01 1.597854e-01 2.491086e-01 2.803242e-01 3.194333e-01 4.345122e-01 3.776723e-01 4.304336e-01 5.053989e-01 4.301845e-01 4.280466e-01 3.838482e-01 2.782997e-01
<GCONST> 1.155393e+02
<MIXTURE> 2 5.000000e-01
<MEAN> 39
 -5.784008e+00 1.605966e+00 7.601004e-01 -5.260074e+00 -1.337924e+00 -3.162919e+00 -2.452081e+00 -3.715263e+00 -2.249268e+00 -1.790870e+00 -4.519597e+00 -1.844200e+00 4.265049e-01 1.997986e-02 -1.599472e-02 -5.425576e-03 -5.604413e-03 7.104272e-03 3.287879e-03 2.901119e-02 7.306322e-03 -2.309384e-02 1.176725e-02 -8.710599e-03 3.202451e-03 -2.423514e-03 2.760345e-04 4.304955e-04 1.142188e-04 5.054082e-05 -1.343677e-04 -8.034472e-04 -9.448389e-04 4.561228e-04 4.263238e-04 -1.144434e-04 5.924709e-04 3.330652e-04 -3.959875e-04
<VARIANCE> 39
 5.371069e+01 5.499515e+01 9.488911e+01 8.265230e+01 4.920305e+01 6.301183e+01 7.608567e+01 3.782946e+01 5.612891e+01 3.440357e+01 4.186580e+01 2.532648e+01 2.313805e+01 1.129935e+00 1.060794e+00 1.565163e+00 1.731446e+00 1.765045e+00 2.639215e+00 2.143323e+00 2.191874e+00 2.613211e+00 2.220231e+00 2.246025e+00 1.869968e+00 1.501234e+00 1.756358e-01 1.597854e-01 2.491086e-01 2.803242e-01 3.194333e-01 4.345122e-01 3.776723e-01 4.304336e-01 5.053989e-01 4.301845e-01 4.280466e-01 3.838482e-01 2.782997e-01
<GCONST> 1.155393e+02
<STATE> 4
<NUMMIXES> 2
<MIXTURE> 1 5.000000e-01
<MEAN> 39
 -5.605705e+00 1.463284e+00 7.032028e-01 -5.292932e+00 -1.301876e+00 -3.176908e+00 -2.241288e+00 -3.629038e+00 -2.423167e+00 -1.713805e+00 -4.559856e+00 -1.808930e+00 3.959800e-01 2.244308e-02 -1.234406e-02 -5.956664e-03 -3.096799e-03 6.293940e-03 -4.205357e-03 2.044909e-02 1.008436e-02 -2.037987e-02 1.096385e-02 -2.821515e-03 5.866165e-03 -5.495219e-03 1.202558e-04 4.824684e-04 -4.018243e-05 3.716541e-04 -9.058687e-05 -9.138952e-04 -1.051565e-03 3.832634e-04 5.095056e-04 -1.226935e-04 7.442268e-04 3.157001e-04 -3.649530e-04
<VARIANCE> 39
 5.307578e+01 5.422451e+01 9.821571e+01 8.595728e+01 5.086677e+01 6.347910e+01 7.614270e+01 3.895614e+01 5.682288e+01 3.637139e+01 4.282100e+01 2.572822e+01 2.427606e+01 1.133669e+00 1.080627e+00 1.570725e+00 1.759533e+00 1.755634e+00 2.652601e+00 2.123668e+00 2.153022e+00 2.600639e+00 2.241332e+00 2.240354e+00 1.828900e+00 1.494069e+00 1.772310e-01 1.623338e-01 2.478125e-01 2.825852e-01 3.170488e-01 4.315124e-01 3.720258e-01 4.187591e-01 5.011094e-01 4.303245e-01 4.225259e-01 3.726616e-01 2.724842e-01
<GCONST> 1.156999e+02
<MIXTURE> 2 5.000000e-01
<MEAN> 39
 -5.605705e+00 1.463284e+00 7.032028e-01 -5.292932e+00 -1.301876e+00 -3.176908e+00 -2.241288e+00 -3.629038e+00 -2.423167e+00 -1.713805e+00 -4.559856e+00 -1.808930e+00 3.959800e-01 2.244308e-02 -1.234406e-02 -5.956664e-03 -3.096799e-03 6.293940e-03 -4.205357e-03 2.044909e-02 1.008436e-02 -2.037987e-02 1.096385e-02 -2.821515e-03 5.866165e-03 -5.495219e-03 1.202558e-04 4.824684e-04 -4.018243e-05 3.716541e-04 -9.058687e-05 -9.138952e-04 -1.051565e-03 3.832634e-04 5.095056e-04 -1.226935e-04 7.442268e-04 3.157001e-04 -3.649530e-04
<VARIANCE> 39
 5.307578e+01 5.422451e+01 9.821571e+01 8.595728e+01 5.086677e+01 6.347910e+01 7.614270e+01 3.895614e+01 5.682288e+01 3.637139e+01 4.282100e+01 2.572822e+01 2.427606e+01 1.133669e+00 1.080627e+00 1.570725e+00 1.759533e+00 1.755634e+00 2.652601e+00 2.123668e+00 2.153022e+00 2.600639e+00 2.241332e+00 2.240354e+00 1.828900e+00 1.494069e+00 1.772310e-01 1.623338e-01 2.478125e-01 2.825852e-01 3.170488e-01 4.315124e-01 3.720258e-01 4.187591e-01 5.011094e-01 4.303245e-01 4.225259e-01 3.726616e-01 2.724842e-01
<GCONST> 1.156999e+02
<STATE> 5
<NUMMIXES> 2
<MIXTURE> 1 5.000000e-01
<MEAN> 39
 -5.410340e+00 1.347734e+00 6.270427e-01 -5.288165e+00 -1.266716e+00 -3.249017e+00 -2.095955e+00 -3.531377e+00 -2.588278e+00 -1.637630e+00 -4.550366e+00 -1.751678e+00 3.435271e-01 2.293325e-02 -8.863493e-03 -8.126038e-03 1.736943e-03 6.081359e-03 -1.107138e-02 1.265788e-02 1.173913e-02 -1.814669e-02 1.074246e-02 3.290043e-03 8.265214e-03 -7.860404e-03 -1.125741e-04 4.318088e-04 -2.660958e-04 6.234266e-04 -4.765994e-05 -8.294965e-04 -9.251732e-04 2.292823e-04 4.023026e-04 -4.554225e-05 7.571938e-04 2.466088e-04 -2.529250e-04
<VARIANCE> 39
 5.221882e+01 5.416576e+01 1.013715e+02 8.926305e+01 5.245247e+01 6.425732e+01 7.646777e+01 4.024656e+01 5.700278e+01 3.844217e+01 4.372363e+01 2.612538e+01 2.544712e+01 1.140773e+00 1.110339e+00 1.578065e+00 1.791797e+00 1.748256e+00 2.660136e+00 2.107244e+00 2.120283e+00 2.577347e+00 2.258170e+00 2.239160e+00 1.784986e+00 1.488891e+00 1.785999e-01 1.665620e-01 2.471815e-01 2.860042e-01 3.153321e-01 4.280202e-01 3.672913e-01 4.087363e-01 4.949995e-01 4.297981e-01 4.192184e-01 3.608414e-01 2.678048e-01
<GCONST> 1.158968e+02
<MIXTURE> 2 5.000000e-01
<MEAN> 39
 -5.410340e+00 1.347734e+00 6.270427e-01 -5.288165e+00 -1.266716e+00 -3.249017e+00 -2.095955e+00 -3.531377e+00 -2.588278e+00 -1.637630e+00 -4.550366e+00 -1.751678e+00 3.435271e-01 2.293325e-02 -8.863493e-03 -8.126038e-03 1.736943e-03 6.081359e-03 -1.107138e-02 1.265788e-02 1.173913e-02 -1.814669e-02 1.074246e-02 3.290043e-03 8.265214e-03 -7.860404e-03 -1.125741e-04 4.318088e-04 -2.660958e-04 6.234266e-04 -4.765994e-05 -8.294965e-04 -9.251732e-04 2.292823e-04 4.023026e-04 -4.554225e-05 7.571938e-04 2.466088e-04 -2.529250e-04
<VARIANCE> 39
 5.221882e+01 5.416576e+01 1.013715e+02 8.926305e+01 5.245247e+01 6.425732e+01 7.646777e+01 4.024656e+01 5.700278e+01 3.844217e+01 4.372363e+01 2.612538e+01 2.544712e+01 1.140773e+00 1.110339e+00 1.578065e+00 1.791797e+00 1.748256e+00 2.660136e+00 2.107244e+00 2.120283e+00 2.577347e+00 2.258170e+00 2.239160e+00 1.784986e+00 1.488891e+00 1.785999e-01 1.665620e-01 2.471815e-01 2.860042e-01 3.153321e-01 4.280202e-01 3.672913e-01 4.087363e-01 4.949995e-01 4.297981e-01 4.192184e-01 3.608414e-01 2.678048e-01
<GCONST> 1.158968e+02
<STATE> 6
<NUMMIXES> 2
<MIXTURE> 1 5.000000e-01
<MEAN> 39
 -5.221509e+00 1.255830e+00 5.201412e-01 -5.236068e+00 -1.228053e+00 -3.363180e+00 -2.001639e+00 -3.433105e+00 -2.750542e+00 -1.553695e+00 -4.496083e+00 -1.675961e+00 2.770405e-01 2.077255e-02 -6.023669e-03 -1.186145e-02 7.467991e-03 6.316129e-03 -1.595774e-02 6.801188e-03 1.201535e-02 -1.690004e-02 1.154601e-02 8.669987e-03 1.002747e-02 -9.111793e-03 -4.042612e-04 3.245606e-04 -4.668005e-04 6.979920e-04 4.203830e-06 -5.773014e-04 -6.469149e-04 4.825816e-05 2.294529e-04 7.566590e-05 6.303471e-04 1.452935e-04 -9.549408e-05
<VARIANCE> 39
 5.122932e+01 5.480327e+01 1.041392e+02 9.232705e+01 5.388639e+01 6.525368e+01 7.702048e+01 4.159692e+01 5.682709e+01 4.048621e+01 4.449880e+01 2.649157e+01 2.658494e+01 1.151398e+00 1.147577e+00 1.586790e+00 1.825123e+00 1.744106e+00 2.662646e+00 2.096614e+00 2.093530e+00 2.545006e+00 2.268425e+00 2.240987e+00 1.741532e+00 1.486069e+00 1.797958e-01 1.721138e-01 2.471577e-01 2.904066e-01 3.144546e-01 4.241595e-01 3.640737e-01 4.004953e-01 4.874372e-01 4.282687e-01 4.176708e-01 3.493225e-01 2.645220e-01
<GCONST> 1.161160e+02
<MIXTURE> 2 5.000000e-01
<MEAN> 39
 -5.221509e+00 1.255830e+00 5.201412e-01 -5.236068e+00 -1.228053e+00 -3.363180e+00 -2.001639e+00 -3.433105e+00 -2.750542e+00 -1.553695e+00 -4.496083e+00 -1.675961e+00 2.770405e-01 2.077255e-02 -6.023669e-03 -1.186145e-02 7.467991e-03 6.316129e-03 -1.595774e-02 6.801188e-03 1.201535e-02 -1.690004e-02 1.154601e-02 8.669987e-03 1.002747e-02 -9.111793e-03 -4.042612e-04 3.245606e-04 -4.668005e-04 6.979920e-04 4.203830e-06 -5.773014e-04 -6.469149e-04 4.825816e-05 2.294529e-04 7.566590e-05 6.303471e-04 1.452935e-04 -9.549408e-05
<VARIANCE> 39
 5.122932e+01 5.480327e+01 1.041392e+02 9.232705e+01 5.388639e+01 6.525368e+01 7.702048e+01 4.159692e+01 5.682709e+01 4.048621e+01 4.449880e+01 2.649157e+01 2.658494e+01 1.151398e+00 1.147577e+00 1.586790e+00 1.825123e+00 1.744106e+00 2.662646e+00 2.096614e+00 2.093530e+00 2.545006e+00 2.268425e+00 2.240987e+00 1.741532e+00 1.486069e+00 1.797958e-01 1.721138e-01 2.471577e-01 2.904066e-01 3.144546e-01 4.241595e-01 3.640737e-01 4.004953e-01 4.874372e-01 4.282687e-01 4.176708e-01 3.493225e-01 2.645220e-01
<GCONST> 1.161160e+02
<TRANSP> 7
 0.000000e+00 1.000000e+00 0.000000e+00 0.000000e+00 0.000000e+00 0.000000e+00 0.000000e+00
 0.000000e+00 8.777492e-01 1.222508e-01 0.000000e+00 0.000000e+00 0.000000e+00 0.000000e+00
 0.000000e+00 0.000000e+00 8.777491e-01 1.222509e-01 0.000000e+00 0.000000e+00 0.000000e+00
 0.000000e+00 0.000000e+00 0.000000e+00 8.777495e-01 1.222505e-01 0.000000e+00 0.000000e+00
 0.000000e+00 0.000000e+00 0.000000e+00 0.000000e+00 8.777498e-01 1.222502e-01 0.000000e+00
 0.000000e+00 0.000000e+00 0.000000e+00 0.000000e+00 0.000000e+00 8.777503e-01 1.222497e-01
 0.000000e+00 0.000000e+00 0.000000e+00 0.000000e+00 0.000000e+00 0.000000e+00 0.000000e+00
<ENDHMM>
~h "j"
<BEGINHMM>
<NUMSTATES> 5
<STATE> 2
<NUMMIXES> 2
<MIXTURE> 1 5.000000e-01
<MEAN> 39
 -5.010300e+00 1.051730e+00 -6.064682e-01 -3.446865e+00 -2.563291e+00 -1.589543e+00 1.516401e+00 -4.215679e+00 -2.636481e+00 -8.828676e-01 -4.022631e+00 -1.938848e+00 9.364816e-02 -1.193130e-02 6.554972e-04 -1.032198e-02 1.206344e-02 -5.054021e-03 1.990894e-02 -2.612633e-02 6.660286e-03 4.371501e-02 -1.389428e-02 6.738089e-04 -3.203100e-03 5.386658e-03 -4.878554e-05 -2.285142e-04 -4.503480e-04 5.618371e-04 3.405636e-04 -3.177406e-04 -1.004532e-04 -2.852663e-04 -7.238524e-04 -1.093621e-04 1.490299e-04 3.803995e-04 -1.523869e-04
<VARIANCE> 39
 3.814428e+01 6.698232e+01 7.959987e+01 7.509724e+01 5.341517e+01 8.944177e+01 8.880256e+01 4.869633e+01 7.241820e+01 4.656652e+01 3.620559e+01 2.354596e+01 2.414263e+01 1.257926e+00 1.475798e+00 1.715923e+00 1.788769e+00 1.969343e+00 2.445355e+00 3.024510e+00 2.208447e+00 2.799155e+00 3.150867e+00 2.718940e+00 1.794626e+00 1.956919e+00 1.615856e-01 2.268399e-01 2.844940e-01 2.859409e-01 3.482899e-01 4.460467e-01 5.890653e-01 4.141833e-01 5.297356e-01 5.437515e-01 5.188535e-01 3.777176e-01 3.910588e-01
<GCONST> 1.198612e+02
<MIXTURE> 2 5.000000e-01
<MEAN> 39
 -5.010300e+00 1.051730e+00 -6.064682e-01 -3.446865e+00 -2.563291e+00 -1.589543e+00 1.516401e+00 -4.215679e+00 -2.636481e+00 -8.828676e-01 -4.022631e+00 -1.938848e+00 9.364816e-02 -1.193130e-02 6.554972e-04 -1.032198e-02 1.206344e-02 -5.054021e-03 1.990894e-02 -2.612633e-02 6.660286e-03 4.371501e-02 -1.389428e-02 6.738089e-04 -3.203100e-03 5.386658e-03 -4.878554e-05 -2.285142e-04 -4.503480e-04 5.618371e-04 3.405636e-04 -3.177406e-04 -1.004532e-04 -2.852663e-04 -7.238524e-04 -1.093621e-04 1.490299e-04 3.803995e-04 -1.523869e-04
<VARIANCE> 39
 3.814428e+01 6.698232e+01 7.959987e+01 7.509724e+01 5.341517e+01 8.944177e+01 8.880256e+01 4.869633e+01 7.241820e+01 4.656652e+01 3.620559e+01 2.354596e+01 2.414263e+01 1.257926e+00 1.475798e+00 1.715923e+00 1.788769e+00 1.969343e+00 2.445355e+00 3.024510e+00 2.208447e+00 2.799155e+00 3.150867e+00 2.718940e+00 1.794626e+00 1.956919e+00 1.615856e-01 2.268399e-01 2.844940e-01 2.859409e-01 3.482899e-01 4.460467e-01 5.890653e-01 4.141833e-01 5.297356e-01 5.437515e-01 5.188535e-01 3.777176e-01 3.910588e-01
<GCONST> 1.198612e+02
<STATE> 3
<NUMMIXES> 2
<MIXTURE> 1 5.000000e-01
<MEAN> 39
 -5.099004e+00 1.055192e+00 -6.943765e-01 -3.328106e+00 -2.570480e+00 -1.443236e+00 1.270617e+00 -4.179657e+00 -2.267146e+00 -1.001996e+00 -4.012354e+00 -1.951588e+00 1.383864e-01 -1.168112e-02 -1.572195e-03 -1.501168e-02 1.694112e-02 -1.588825e-03 1.559065e-02 -2.606978e-02 4.222432e-03 3.722524e-02 -1.481858e-02 1.558252e-03 -1.878294e-04 3.870284e-03 -3.339448e-05 -2.413099e-04 -4.663214e-04 5.165180e-04 3.588698e-04 -4.059514e-04 4.047543e-05 -2.775757e-04 -8.067645e-04 -9.790202e-05 1.391748e-04 3.773838e-04 -2.212758e-04
<VARIANCE> 39
 3.821236e+01 6.616847e+01 8.126299e+01 7.636923e+01 5.315348e+01 9.055663e+01 8.544843e+01 4.841460e+01 6.880658e+01 4.622886e+01 3.619680e+01 2.381667e+01 2.437546e+01 1.254839e+00 1.476672e+00 1.778819e+00 1.805828e+00 1.975142e+00 2.420725e+00 3.012012e+00 2.219322e+00 2.775120e+00 3.177583e+00 2.722618e+00 1.837696e+00 1.972053e+00 1.603061e-01 2.276714e-01 2.951250e-01 2.902459e-01 3.507118e-01 4.428126e-01 5.879141e-01 4.176331e-01 5.257019e-01 5.470378e-01 5.188798e-01 3.863477e-01 3.931289e-01
<GCONST> 1.199632e+02
<MIXTURE> 2 5.000000e-01
<MEAN> 39
 -5.099004e+00 1.055192e+00 -6.943765e-01 -3.328106e+00 -2.570480e+00 -1.443236e+00 1.270617e+00 -4.179657e+00 -2.267146e+00 -1.001996e+00 -4.012354e+00 -1.951588e+00 1.383864e-01 -1.168112e-02 -1.572195e-03 -1.501168e-02 1.694112e-02 -1.588825e-03 1.559065e-02 -2.606978e-02 4.222432e-03 3.722524e-02 -1.481858e-02 1.558252e-03 -1.878294e-04 3.870284e-03 -3.339448e-05 -2.413099e-04 -4.663214e-04 5.165180e-04 3.588698e-04 -4.059514e-04 4.047543e-05 -2.775757e-04 -8.067645e-04 -9.790202e-05 1.391748e-04 3.773838e-04 -2.212758e-04
<VARIANCE> 39
 3.821236e+01 6.616847e+01 8.126299e+01 7.636923e+01 5.315348e+01 9.055663e+01 8.544843e+01 4.841460e+01 6.880658e+01 4.622886e+01 3.619680e+01 2.381667e+01 2.437546e+01 1.254839e+00 1.476672e+00 1.778819e+00 1.805828e+00 1.975142e+00 2.420725e+00 3.012012e+00 2.219322e+00 2.775120e+00 3.177583e+00 2.722618e+00 1.837696e+00 1.972053e+00 1.603061e-01 2.276714e-01 2.951250e-01 2.902459e-01 3.507118e-01 4.428126e-01 5.879141e-01 4.176331e-01 5.257019e-01 5.470378e-01 5.188798e-01 3.863477e-01 3.931289e-01
<GCONST> 1.199632e+02
<STATE> 4
<NUMMIXES> 2
<MIXTURE> 1 5.000000e-01
<MEAN> 39
 -5.180542e+00 1.037320e+00 -8.288364e-01 -3.166286e+00 -2.546144e+00 -1.344804e+00 1.034433e+00 -4.163574e+00 -1.957871e+00 -1.127960e+00 -3.995028e+00 -1.940755e+00 1.686423e-01 -1.140444e-02 -4.002001e-03 -1.990130e-02 2.133717e-02 1.716873e-03 1.094510e-02 -2.458067e-02 1.982443e-03 2.992540e-02 -1.560373e-02 2.692971e-03 2.664841e-03 2.033713e-03 -2.790318e-05 -2.509181e-04 -4.742345e-04 4.290168e-04 3.666548e-04 -4.283375e-04 1.769847e-04 -2.438141e-04 -8.527543e-04 -9.596645e-05 1.759326e-04 3.565141e-04 -2.318702e-04
<VARIANCE> 39
 3.825494e+01 6.525960e+01 8.316141e+01 7.752629e+01 5.276646e+01 9.161862e+01 8.170870e+01 4.796519e+01 6.530650e+01 4.596578e+01 3.615001e+01 2.406094e+01 2.464183e+01 1.251477e+00 1.472867e+00 1.841040e+00 1.822023e+00 1.977389e+00 2.393603e+00 2.991928e+00 2.228233e+00 2.745463e+00 3.195883e+00 2.720199e+00 1.879336e+00 1.981521e+00 1.592327e-01 2.279079e-01 3.056854e-01 2.946798e-01 3.524641e-01 4.386314e-01 5.853923e-01 4.209503e-01 5.200505e-01 5.489197e-01 5.180847e-01 3.945338e-01 3.937113e-01
<GCONST> 1.200046e+02
<MIXTURE> 2 5.000000e-01
<MEAN> 39
 -5.180542e+00 1.037320e+00 -8.288364e-01 -3.166286e+00 -2.546144e+00 -1.344804e+00 1.034433e+00 -4.163574e+00 -1.957871e+00 -1.127960e+00 -3.995028e+00 -1.940755e+00 1.686423e-01 -1.140444e-02 -4.002001e-03 -1.990130e-02 2.133717e-02 1.716873e-03 1.094510e-02 -2.458067e-02 1.982443e-03 2.992540e-02 -1.560373e-02 2.692971e-03 2.664841e-03 2.033713e-03 -2.790318e-05 -2.509181e-04 -4.742345e-04 4.290168e-04 3.666548e-04 -4.283375e-04 1.769847e-04 -2.438141e-04 -8.527543e-04 -9.596645e-05 1.759326e-04 3.565141e-04 -2.318702e-04
<VARIANCE> 39
 3.825494e+01 6.525960e+01 8.316141e+01 7.752629e+01 5.276646e+01 9.161862e+01 8.170870e+01 4.796519e+01 6.530650e+01 4.596578e+01 3.615001e+01 2.406094e+01 2.464183e+01 1.251477e+00 1.472867e+00 1.841040e+00 1.822023e+00 1.977389e+00 2.393603e+00 2.991928e+00 2.228233e+00 2.745463e+00 3.195883e+00 2.720199e+00 1.879336e+00 1.981521e+00 1.592327e-01 2.279079e-01 3.056854e-01 2.946798e-01 3.524641e-01 4.386314e-01 5.853923e-01 4.209503e-01 5.200505e-01 5.489197e-01 5.180847e-01 3.945338e-01 3.937113e-01
<GCONST> 1.200046e+02
<TRANSP> 5
 0.000000e+00 1.000000e+00 0.000000e+00 0.000000e+00 0.000000e+00
 0.000000e+00 8.824752e-01 1.175248e-01 0.000000e+00 0.000000e+00
 0.000000e+00 0.000000e+00 8.824755e-01 1.175245e-01 0.000000e+00
 0.000000e+00 0.000000e+00 0.000000e+00 8.824767e-01 1.175232e-01
 0.000000e+00 0.000000e+00 0.000000e+00 0.000000e+00 0.000000e+00
<ENDHMM>
~h "k"
<BEGINHMM>
<NUMSTATES> 5
<STATE> 2
<NUMMIXES> 2
<MIXTURE> 1 5.000000e-01
<MEAN> 39
 -5.190479e+00 1.028394e+00 -1.355642e+00 -2.432429e+00 -9.450761e-01 -3.478571e+00 -7.688087e-01 -2.737153e+00 -3.758885e+00 -1.898739e+00 -3.350219e+00 -2.557702e+00 -3.298987e-01 7.616970e-03 -1.805388e-02 1.372904e-02 1.851815e-02 6.885788e-03 2.109156e-03 1.145395e-02 -1.943487e-03 -1.173886e-03 -6.572140e-03 6.338326e-03 -5.021365e-03 1.115347e-02 -1.393717e-04 -1.539687e-04 -8.390545e-04 2.020817e-04 -2.277680e-04 -4.615460e-04 3.616958e-04 -2.190824e-04 -9.990176e-05 3.972216e-06 4.245105e-05 2.600310e-04 -2.295822e-04
<VARIANCE> 39
 3.909348e+01 5.909861e+01 8.098636e+01 7.899505e+01 4.222112e+01 6.328182e+01 7.209737e+01 4.659111e+01 6.717107e+01 3.915232e+01 3.155561e+01 2.546069e+01 2.178170e+01 1.098264e+00 1.587322e+00 1.497623e+00 1.909512e+00 1.958185e+00 2.507843e+00 2.559711e+00 2.407350e+00 2.684825e+00 2.548804e+00 2.223013e+00 1.918444e+00 1.619583e+00 1.724013e-01 2.563439e-01 2.432512e-01 3.449324e-01 3.566735e-01 4.468630e-01 4.820561e-01 4.658116e-01 5.310807e-01 5.072578e-01 4.318648e-01 3.818957e-01 3.134797e-01
<GCONST> 1.175116e+02
<MIXTURE> 2 5.000000e-01
<MEAN> 39
 -5.190479e+00 1.028394e+00 -1.355642e+00 -2.432429e+00 -9.450761e-01 -3.478571e+00 -7.688087e-01 -2.737153e+00 -3.758885e+00 -1.898739e+00 -3.350219e+00 -2.557702e+00 -3.298987e-01 7.616970e-03 -1.805388e-02 1.372904e-02 1.851815e-02 6.885788e-03 2.109156e-03 1.145395e-02 -1.943487e-03 -1.173886e-03 -6.572140e-03 6.338326e-03 -5.021365e-03 1.115347e-02 -1.393717e-04 -1.539687e-04 -8.390545e-04 2.020817e-04 -2.277680e-04 -4.615460e-04 3.616958e-04 -2.190824e-04 -9.990176e-05 3.972216e-06 4.245105e-05 2.600310e-04 -2.295822e-04
<VARIANCE> 39
 3.909348e+01 5.909861e+01 8.098636e+01 7.899505e+01 4.222112e+01 6.328182e+01 7.209737e+01 4.659111e+01 6.717107e+01 3.915232e+01 3.155561e+01 2.546069e+01 2.178170e+01 1.098264e+00 1.587322e+00 1.497623e+00 1.909512e+00 1.958185e+00 2.507843e+00 2.559711e+00 2.407350e+00 2.684825e+00 2.548804e+00 2.223013e+00 1.918444e+00 1.619583e+00 1.724013e-01 2.563439e-01 2.432512e-01 3.449324e-01 3.566735e-01 4.468630e-01 4.820561e-01 4.658116e-01 5.310807e-01 5.072578e-01 4.318648e-01 3.818957e-01 3.134797e-01
<GCONST> 1.175116e+02
<STATE> 3
<NUMMIXES> 2
<MIXTURE> 1 5.000000e-01
<MEAN> 39
 -5.134529e+00 8.898094e-01 -1.266010e+00 -2.306395e+00 -9.155813e-01 -3.477258e+00 -6.885611e-01 -2.763521e+00 -3.755548e+00 -1.948634e+00 -3.307801e+00 -2.585261e+00 -2.543119e-01 6.583392e-03 -1.627940e-02 8.038439e-03 1.607170e-02 4.847232e-03 -2.325234e-03 1.076359e-02 -3.490187e-03 -1.433050e-03 -6.258777e-03 6.026838e-03 -2.969251e-03 8.538486e-03 -1.528219e-04 1.337887e-04 -7.860656e-04 -3.429915e-04 -2.450567e-04 -5.559615e-04 3.961122e-05 -2.266702e-04 -6.408089e-05 8.780036e-05 -7.398045e-05 2.678928e-04 -3.265369e-04
<VARIANCE> 39
 3.964471e+01 5.917060e+01 8.018591e+01 7.842316e+01 4.279370e+01 6.297072e+01 7.117553e+01 4.640053e+01 6.701849e+01 3.817818e+01 3.218321e+01 2.535141e+01 2.150080e+01 1.121097e+00 1.639382e+00 1.500596e+00 1.953254e+00 2.005514e+00 2.544854e+00 2.573034e+00 2.414836e+00 2.717304e+00 2.546272e+00 2.242354e+00 1.932437e+00 1.626598e+00 1.740787e-01 2.653693e-01 2.433674e-01 3.520744e-01 3.650832e-01 4.543663e-01 4.835516e-01 4.651752e-01 5.372956e-01 5.075977e-01 4.346853e-01 3.856508e-01 3.150832e-01
<GCONST> 1.177724e+02
<MIXTURE> 2 5.000000e-01
<MEAN> 39
 -5.134529e+00 8.898094e-01 -1.266010e+00 -2.306395e+00 -9.155813e-01 -3.477258e+00 -6.885611e-01 -2.763521e+00 -3.755548e+00 -1.948634e+00 -3.307801e+00 -2.585261e+00 -2.543119e-01 6.583392e-03 -1.627940e-02 8.038439e-03 1.607170e-02 4.847232e-03 -2.325234e-03 1.076359e-02 -3.490187e-03 -1.433050e-03 -6.258777e-03 6.026838e-03 -2.969251e-03 8.538486e-03 -1.528219e-04 1.337887e-04 -7.860656e-04 -3.429915e-04 -2.450567e-04 -5.559615e-04 3.961122e-05 -2.266702e-04 -6.408089e-05 8.780036e-05 -7.398045e-05 2.678928e-04 -3.265369e-04
<VARIANCE> 39
 3.964471e+01 5.917060e+01 8.018591e+01 7.842316e+01 4.279370e+01 6.297072e+01 7.117553e+01 4.640053e+01 6.701849e+01 3.817818e+01 3.218321e+01 2.535141e+01 2.150080e+01 1.121097e+00 1.639382e+00 1.500596e+00 1.953254e+00 2.005514e+00 2.544854e+00 2.573034e+00 2.414836e+00 2.717304e+00 2.546272e+00 2.242354e+00 1.932437e+00 1.626598e+00 1.740787e-01 2.653693e-01 2.433674e-01 3.520744e-01 3.650832e-01 4.543663e-01 4.835516e-01 4.651752e-01 5.372956e-01 5.075977e-01 4.346853e-01 3.856508e-01 3.150832e-01
<GCONST> 1.177724e+02
<STATE> 4
<NUMMIXES> 2
<MIXTURE> 1 5.000000e-01
<MEAN> 39
 -5.086614e+00 7.843060e-01 -1.209356e+00 -2.226017e+00 -9.008166e-01 -3.510691e+00 -6.351913e-01 -2.798665e+00 -3.749692e+00 -1.998269e+00 -3.272136e+00 -2.598455e+00 -2.017499e-01 5.463087e-03 -1.295596e-02 3.403978e-03 1.019310e-02 3.095994e-03 -6.405537e-03 8.548999e-03 -4.662988e-03 -1.367106e-03 -5.786399e-03 4.884102e-03 -1.127145e-03 5.801329e-03 -1.609030e-04 2.872920e-04 -6.211509e-04 -7.852501e-04 -2.103928e-04 -4.520292e-04 -1.387496e-04 -1.246597e-04 -8.695120e-07 9.238417e-05 -1.884697e-04 2.247398e-04 -3.252345e-04
<VARIANCE> 39
 4.004739e+01 5.954700e+01 7.924618e+01 7.858695e+01 4.350774e+01 6.281895e+01 7.059850e+01 4.625748e+01 6.677627e+01 3.713427e+01 3.281871e+01 2.510639e+01 2.126969e+01 1.135519e+00 1.674757e+00 1.493966e+00 1.990525e+00 2.046787e+00 2.580619e+00 2.570127e+00 2.410527e+00 2.733703e+00 2.522511e+00 2.244203e+00 1.927945e+00 1.628321e+00 1.744282e-01 2.714879e-01 2.414371e-01 3.578210e-01 3.725262e-01 4.609607e-01 4.813720e-01 4.620163e-01 5.395638e-01 5.019913e-01 4.334281e-01 3.856220e-01 3.154466e-01
<GCONST> 1.178735e+02
<MIXTURE> 2 5.000000e-01
<MEAN> 39
 -5.086614e+00 7.843060e-01 -1.209356e+00 -2.226017e+00 -9.008166e-01 -3.510691e+00 -6.351913e-01 -2.798665e+00 -3.749692e+00 -1.998269e+00 -3.272136e+00 -2.598455e+00 -2.017499e-01 5.463087e-03 -1.295596e-02 3.403978e-03 1.019310e-02 3.095994e-03 -6.405537e-03 8.548999e-03 -4.662988e-03 -1.367106e-03 -5.786399e-03 4.884102e-03 -1.127145e-03 5.801329e-03 -1.609030e-04 2.872920e-04 -6.211509e-04 -7.852501e-04 -2.103928e-04 -4.520292e-04 -1.387496e-04 -1.246597e-04 -8.695120e-07 9.238417e-05 -1.884697e-04 2.247398e-04 -3.252345e-04
<VARIANCE> 39
 4.004739e+01 5.954700e+01 7.924618e+01 7.858695e+01 4.350774e+01 6.281895e+01 7.059850e+01 4.625748e+01 6.677627e+01 3.713427e+01 3.281871e+01 2.510639e+01 2.126969e+01 1.135519e+00 1.674757e+00 1.493966e+00 1.990525e+00 2.046787e+00 2.580619e+00 2.570127e+00 2.410527e+00 2.733703e+00 2.522511e+00 2.244203e+00 1.927945e+00 1.628321e+00 1.744282e-01 2.714879e-01 2.414371e-01 3.578210e-01 3.725262e-01 4.609607e-01 4.813720e-01 4.620163e-01 5.395638e-01 5.019913e-01 4.334281e-01 3.856220e-01 3.154466e-01
<GCONST> 1.178735e+02
<TRANSP> 5
 0.000000e+00 1.000000e+00 0.000000e+00 0.000000e+00 0.000000e+00
 0.000000e+00 8.824005e-01 1.175994e-01 0.000000e+00 0.000000e+00
 0.000000e+00 0.000000e+00 8.824005e-01 1.175996e-01 0.000000e+00
 0.000000e+00 0.000000e+00 0.000000e+00 8.824015e-01 1.175985e-01
 0.000000e+00 0.000000e+00 0.000000e+00 0.000000e+00 0.000000e+00
<ENDHMM>
~h "l"
<BEGINHMM>
<NUMSTATES> 5
<STATE> 2
<NUMMIXES> 2
<MIXTURE> 1 5.000000e-01
<MEAN> 39
 -3.559527e+00 -6.007606e-01 -5.446136e+00 -7.645151e-01 -1.625481e+00 -6.640452e+00 1.842783e+00 -1.908820e+00 -5.045662e+00 -1.728066e+00 -2.169637e+00 -2.597780e+00 -9.672750e-01 -6.494383e-03 -2.354738e-02 -4.268775e-02 1.111713e-02 1.062427e-02 1.913507e-02 3.741129e-02 3.558936e-03 -3.025292e-03 -4.378987e-03 -2.965781e-03 -4.194720e-03 -1.162540e-02 2.250717e-04 -9.081804e-05 9.097210e-04 3.658479e-04 1.370611e-03 7.153906e-04 -6.520171e-04 -1.189450e-03 3.857973e-04 6.459045e-04 1.556418e-04 2.905603e-04 -5.515799e-07
<VARIANCE> 39
 3.766651e+01 6.221601e+01 7.695839e+01 7.062386e+01 5.611691e+01 7.740827e+01 7.729623e+01 5.828270e+01 7.320918e+01 4.472202e+01 3.958680e+01 2.523991e+01 2.310625e+01 9.158080e-01 1.543943e+00 1.502718e+00 1.682110e+00 1.959066e+00 2.901307e+00 2.298225e+00 2.153364e+00 2.300433e+00 2.192516e+00 2.176395e+00 1.541990e+00 1.372807e+00 1.329868e-01 2.320403e-01 2.217285e-01 2.946595e-01 3.291855e-01 4.608741e-01 4.038764e-01 3.721631e-01 4.029145e-01 3.932278e-01 4.073097e-01 3.015692e-01 2.516754e-01
<GCONST> 1.154174e+02
<MIXTURE> 2 5.000000e-01
<MEAN> 39
 -3.559527e+00 -6.007606e-01 -5.446136e+00 -7.645151e-01 -1.625481e+00 -6.640452e+00 1.842783e+00 -1.908820e+00 -5.045662e+00 -1.728066e+00 -2.169637e+00 -2.597780e+00 -9.672750e-01 -6.494383e-03 -2.354738e-02 -4.268775e-02 1.111713e-02 1.062427e-02 1.913507e-02 3.741129e-02 3.558936e-03 -3.025292e-03 -4.378987e-03 -2.965781e-03 -4.194720e-03 -1.162540e-02 2.250717e-04 -9.081804e-05 9.097210e-04 3.658479e-04 1.370611e-03 7.153906e-04 -6.520171e-04 -1.189450e-03 3.857973e-04 6.459045e-04 1.556418e-04 2.905603e-04 -5.515799e-07
<VARIANCE> 39
 3.766651e+01 6.221601e+01 7.695839e+01 7.062386e+01 5.611691e+01 7.740827e+01 7.729623e+01 5.828270e+01 7.320918e+01 4.472202e+01 3.958680e+01 2.523991e+01 2.310625e+01 9.158080e-01 1.543943e+00 1.502718e+00 1.682110e+00 1.959066e+00 2.901307e+00 2.298225e+00 2.153364e+00 2.300433e+00 2.192516e+00 2.176395e+00 1.541990e+00 1.372807e+00 1.329868e-01 2.320403e-01 2.217285e-01 2.946595e-01 3.291855e-01 4.608741e-01 4.038764e-01 3.721631e-01 4.029145e-01 3.932278e-01 4.073097e-01 3.015692e-01 2.516754e-01
<GCONST> 1.154174e+02
<STATE> 3
<NUMMIXES> 2
<MIXTURE> 1 5.000000e-01
<MEAN> 39
 -3.619041e+00 -7.903434e-01 -5.774117e+00 -6.642309e-01 -1.468731e+00 -6.462833e+00 2.107944e+00 -1.919974e+00 -5.040949e+00 -1.738643e+00 -2.186172e+00 -2.611513e+00 -1.063344e+00 -4.448792e-03 -2.412591e-02 -3.476601e-02 1.355355e-02 2.091680e-02 2.654813e-02 3.125582e-02 -4.568771e-03 2.121608e-06 -2.634165e-04 -2.002013e-03 -1.429756e-03 -1.059836e-02 3.814703e-04 2.653251e-04 1.566592e-03 3.925770e-05 8.846811e-04 7.044938e-04 -1.042199e-03 -7.725882e-04 3.327079e-04 5.302654e-04 1.064315e-04 2.374497e-04 4.154714e-04
<VARIANCE> 39
 3.693720e+01 6.208681e+01 7.747858e+01 7.281500e+01 5.530287e+01 7.495300e+01 7.627609e+01 5.870986e+01 7.571283e+01 4.414206e+01 4.027044e+01 2.481988e+01 2.332338e+01 9.005421e-01 1.505006e+00 1.506240e+00 1.636110e+00 1.920725e+00 2.813149e+00 2.291296e+00 2.121033e+00 2.356319e+00 2.189960e+00 2.220169e+00 1.547199e+00 1.400416e+00 1.316800e-01 2.265327e-01 2.243725e-01 2.872286e-01 3.221407e-01 4.517825e-01 4.058265e-01 3.703256e-01 4.175454e-01 3.970844e-01 4.230820e-01 3.040544e-01 2.615413e-01
<GCONST> 1.153809e+02
<MIXTURE> 2 5.000000e-01
<MEAN> 39
 -3.619041e+00 -7.903434e-01 -5.774117e+00 -6.642309e-01 -1.468731e+00 -6.462833e+00 2.107944e+00 -1.919974e+00 -5.040949e+00 -1.738643e+00 -2.186172e+00 -2.611513e+00 -1.063344e+00 -4.448792e-03 -2.412591e-02 -3.476601e-02 1.355355e-02 2.091680e-02 2.654813e-02 3.125582e-02 -4.568771e-03 2.121608e-06 -2.634165e-04 -2.002013e-03 -1.429756e-03 -1.059836e-02 3.814703e-04 2.653251e-04 1.566592e-03 3.925770e-05 8.846811e-04 7.044938e-04 -1.042199e-03 -7.725882e-04 3.327079e-04 5.302654e-04 1.064315e-04 2.374497e-04 4.154714e-04
<VARIANCE> 39
 3.693720e+01 6.208681e+01 7.747858e+01 7.281500e+01 5.530287e+01 7.495300e+01 7.627609e+01 5.870986e+01 7.571283e+01 4.414206e+01 4.027044e+01 2.481988e+01 2.332338e+01 9.005421e-01 1.505006e+00 1.506240e+00 1.636110e+00 1.920725e+00 2.813149e+00 2.291296e+00 2.121033e+00 2.356319e+00 2.189960e+00 2.220169e+00 1.547199e+00 1.400416e+00 1.316800e-01 2.265327e-01 2.243725e-01 2.872286e-01 3.221407e-01 4.517825e-01 4.058265e-01 3.703256e-01 4.175454e-01 3.970844e-01 4.230820e-01 3.040544e-01 2.615413e-01
<GCONST> 1.153809e+02
<STATE> 4
<NUMMIXES> 2
<MIXTURE> 1 5.000000e-01
<MEAN> 39
 -3.661705e+00 -9.816066e-01 -6.030988e+00 -5.480637e-01 -1.245180e+00 -6.217242e+00 2.321867e+00 -1.984054e+00 -5.015141e+00 -1.724861e+00 -2.196416e+00 -2.604960e+00 -1.146458e+00 -1.486820e-03 -2.147230e-02 -2.098133e-02 1.324172e-02 2.566735e-02 3.293820e-02 2.262991e-02 -8.994075e-03 2.264735e-03 2.915703e-03 -1.461808e-03 7.752552e-05 -6.591232e-03 2.635251e-04 5.292162e-04 2.163407e-03 -3.023465e-04 2.041267e-04 5.320737e-04 -1.297066e-03 -3.086323e-04 2.328327e-04 3.264033e-04 -7.627130e-06 1.222683e-04 7.885926e-04
<VARIANCE> 39
 3.652011e+01 6.224900e+01 7.819152e+01 7.504168e+01 5.495575e+01 7.214358e+01 7.486048e+01 5.895295e+01 7.877345e+01 4.366445e+01 4.119877e+01 2.458918e+01 2.382603e+01 8.929533e-01 1.485042e+00 1.526118e+00 1.607474e+00 1.889132e+00 2.720668e+00 2.298997e+00 2.103896e+00 2.449116e+00 2.219624e+00 2.286670e+00 1.572483e+00 1.451906e+00 1.315930e-01 2.247822e-01 2.298879e-01 2.844366e-01 3.171903e-01 4.441488e-01 4.114501e-01 3.732289e-01 4.409848e-01 4.078364e-01 4.439505e-01 3.108273e-01 2.766455e-01
<GCONST> 1.156714e+02
<MIXTURE> 2 5.000000e-01
<MEAN> 39
 -3.661705e+00 -9.816066e-01 -6.030988e+00 -5.480637e-01 -1.245180e+00 -6.217242e+00 2.321867e+00 -1.984054e+00 -5.015141e+00 -1.724861e+00 -2.196416e+00 -2.604960e+00 -1.146458e+00 -1.486820e-03 -2.147230e-02 -2.098133e-02 1.324172e-02 2.566735e-02 3.293820e-02 2.262991e-02 -8.994075e-03 2.264735e-03 2.915703e-03 -1.461808e-03 7.752552e-05 -6.591232e-03 2.635251e-04 5.292162e-04 2.163407e-03 -3.023465e-04 2.041267e-04 5.320737e-04 -1.297066e-03 -3.086323e-04 2.328327e-04 3.264033e-04 -7.627130e-06 1.222683e-04 7.885926e-04
<VARIANCE> 39
 3.652011e+01 6.224900e+01 7.819152e+01 7.504168e+01 5.495575e+01 7.214358e+01 7.486048e+01 5.895295e+01 7.877345e+01 4.366445e+01 4.119877e+01 2.458918e+01 2.382603e+01 8.929533e-01 1.485042e+00 1.526118e+00 1.607474e+00 1.889132e+00 2.720668e+00 2.298997e+00 2.103896e+00 2.449116e+00 2.219624e+00 2.286670e+00 1.572483e+00 1.451906e+00 1.315930e-01 2.247822e-01 2.298879e-01 2.844366e-01 3.171903e-01 4.441488e-01 4.114501e-01 3.732289e-01 4.409848e-01 4.078364e-01 4.439505e-01 3.108273e-01 2.766455e-01
<GCONST> 1.156714e+02
<TRANSP> 5
 0.000000e+00 1.000000e+00 0.000000e+00 0.000000e+00 0.000000e+00
 0.000000e+00 8.829636e-01 1.170364e-01 0.000000e+00 0.000000e+00
 0.000000e+00 0.000000e+00 8.829642e-01 1.170358e-01 0.000000e+00
 0.000000e+00 0.000000e+00 0.000000e+00 8.829653e-01 1.170348e-01
 0.000000e+00 0.000000e+00 0.000000e+00 0.000000e+00 0.000000e+00
<ENDHMM>
~h "m"
<BEGINHMM>
<NUMSTATES> 5
<STATE> 2
<NUMMIXES> 2
<MIXTURE> 1 5.000000e-01
<MEAN> 39
 -3.411009e+00 4.141028e+00 -7.997181e-01 -1.874016e+00 1.029358e+00 -9.315643e+00 -4.979209e+00 -2.951611e+00 -4.485094e+00 -1.354678e+00 -8.996032e-01 -5.157591e-01 -2.275599e+00 1.480973e-02 5.010353e-02 -3.380259e-03 2.813992e-02 4.347105e-02 -1.933880e-01 -6.682196e-02 -5.083065e-02 -8.939848e-02 3.147477e-02 6.687871e-03 2.066384e-02 -4.961862e-02 1.692536e-03 -3.709591e-04 -1.331536e-03 -8.733119e-04 1.393541e-03 -6.417256e-04 -4.627297e-04 -1.422626e-04 1.946771e-03 -3.729730e-04 1.263690e-03 1.096031e-03 5.339569e-04
<VARIANCE> 39
 2.618527e+01 6.168317e+01 4.555341e+01 6.532694e+01 4.220857e+01 1.114988e+02 6.229704e+01 4.942833e+01 4.969908e+01 4.294894e+01 2.821797e+01 2.007350e+01 2.367833e+01 8.715999e-01 9.903632e-01 1.094177e+00 1.396527e+00 1.783320e+00 2.967376e+00 1.813398e+00 1.842465e+00 2.050239e+00 2.202554e+00 1.729101e+00 1.500430e+00 1.362366e+00 1.340032e-01 1.377818e-01 1.825643e-01 2.543006e-01 3.227306e-01 4.615830e-01 3.397813e-01 3.139480e-01 3.632404e-01 3.965743e-01 3.174260e-01 3.057721e-01 2.564679e-01
<GCONST> 1.098065e+02
<MIXTURE> 2 5.000000e-01
<MEAN> 39
 -3.411009e+00 4.141028e+00 -7.997181e-01 -1.874016e+00 1.029358e+00 -9.315643e+00 -4.979209e+00 -2.951611e+00 -4.485094e+00 -1.354678e+00 -8.996032e-01 -5.157591e-01 -2.275599e+00 1.480973e-02 5.010353e-02 -3.380259e-03 2.813992e-02 4.347105e-02 -1.933880e-01 -6.682196e-02 -5.083065e-02 -8.939848e-02 3.147477e-02 6.687871e-03 2.066384e-02 -4.961862e-02 1.692536e-03 -3.709591e-04 -1.331536e-03 -8.733119e-04 1.393541e-03 -6.417256e-04 -4.627297e-04 -1.422626e-04 1.946771e-03 -3.729730e-04 1.263690e-03 1.096031e-03 5.339569e-04
<VARIANCE> 39
 2.618527e+01 6.168317e+01 4.555341e+01 6.532694e+01 4.220857e+01 1.114988e+02 6.229704e+01 4.942833e+01 4.969908e+01 4.294894e+01 2.821797e+01 2.007350e+01 2.367833e+01 8.715999e-01 9.903632e-01 1.094177e+00 1.396527e+00 1.783320e+00 2.967376e+00 1.813398e+00 1.842465e+00 2.050239e+00 2.202554e+00 1.729101e+00 1.500430e+00 1.362366e+00 1.340032e-01 1.377818e-01 1.825643e-01 2.543006e-01 3.227306e-01 4.615830e-01 3.397813e-01 3.139480e-01 3.632404e-01 3.965743e-01 3.174260e-01 3.057721e-01 2.564679e-01
<GCONST> 1.098065e+02
<STATE> 3
<NUMMIXES> 2
<MIXTURE> 1 5.000000e-01
<MEAN> 39
 -3.300163e+00 4.471672e+00 -1.011303e+00 -1.817433e+00 1.373798e+00 -1.055928e+01 -5.478754e+00 -3.299982e+00 -4.919471e+00 -1.278816e+00 -8.217334e-01 -3.082274e-01 -2.514753e+00 1.220668e-02 3.387138e-02 -2.921437e-02 8.160547e-03 4.058840e-02 -1.366845e-01 -5.283597e-02 -4.387471e-02 -4.886113e-02 5.486409e-03 8.672705e-03 2.539502e-02 -2.478270e-02 -4.156036e-04 -1.997631e-03 -3.047900e-03 -2.400221e-03 -5.498987e-04 7.045610e-03 1.753700e-03 1.083214e-03 4.577621e-03 -3.039601e-03 1.434128e-04 4.562836e-04 3.005394e-03
<VARIANCE> 39
 2.628799e+01 6.458170e+01 5.023259e+01 6.725759e+01 4.553224e+01 1.148412e+02 6.585202e+01 5.352771e+01 5.128195e+01 4.478066e+01 3.000852e+01 2.148164e+01 2.590705e+01 8.111853e-01 9.938504e-01 1.094770e+00 1.403019e+00 1.775045e+00 3.036526e+00 1.838931e+00 1.872645e+00 2.050432e+00 2.128787e+00 1.739935e+00 1.514989e+00 1.405628e+00 1.218514e-01 1.340580e-01 1.773487e-01 2.485735e-01 3.145457e-01 4.622827e-01 3.409119e-01 3.159640e-01 3.619258e-01 3.719985e-01 3.143167e-01 3.055347e-01 2.590430e-01
<GCONST> 1.102579e+02
<MIXTURE> 2 5.000000e-01
<MEAN> 39
 -3.300163e+00 4.471672e+00 -1.011303e+00 -1.817433e+00 1.373798e+00 -1.055928e+01 -5.478754e+00 -3.299982e+00 -4.919471e+00 -1.278816e+00 -8.217334e-01 -3.082274e-01 -2.514753e+00 1.220668e-02 3.387138e-02 -2.921437e-02 8.160547e-03 4.058840e-02 -1.366845e-01 -5.283597e-02 -4.387471e-02 -4.886113e-02 5.486409e-03 8.672705e-03 2.539502e-02 -2.478270e-02 -4.156036e-04 -1.997631e-03 -3.047900e-03 -2.400221e-03 -5.498987e-04 7.045610e-03 1.753700e-03 1.083214e-03 4.577621e-03 -3.039601e-03 1.434128e-04 4.562836e-04 3.005394e-03
<VARIANCE> 39
 2.628799e+01 6.458170e+01 5.023259e+01 6.725759e+01 4.553224e+01 1.148412e+02 6.585202e+01 5.352771e+01 5.128195e+01 4.478066e+01 3.000852e+01 2.148164e+01 2.590705e+01 8.111853e-01 9.938504e-01 1.094770e+00 1.403019e+00 1.775045e+00 3.036526e+00 1.838931e+00 1.872645e+00 2.050432e+00 2.128787e+00 1.739935e+00 1.514989e+00 1.405628e+00 1.218514e-01 1.340580e-01 1.773487e-01 2.485735e-01 3.145457e-01 4.622827e-01 3.409119e-01 3.159640e-01 3.619258e-01 3.719985e-01 3.143167e-01 3.055347e-01 2.590430e-01
<GCONST> 1.102579e+02
<STATE> 4
<NUMMIXES> 2
<MIXTURE> 1 5.000000e-01
<MEAN> 39
 -3.356797e+00 4.659030e+00 -1.460272e+00 -1.948207e+00 1.580149e+00 -1.107495e+01 -5.766987e+00 -3.571820e+00 -5.013867e+00 -1.508272e+00 -8.130112e-01 -1.200091e-01 -2.500152e+00 -7.652649e-03 1.689323e-02 -5.532384e-02 -1.368845e-02 2.215490e-02 -5.128067e-02 -2.762234e-02 -3.205256e-02 -1.201258e-02 -2.920450e-02 -1.780310e-04 2.205243e-02 4.356388e-03 -2.341208e-03 -2.035592e-03 -2.848238e-03 -2.556112e-03 -2.449995e-03 1.000750e-02 3.006706e-03 1.781191e-03 3.968291e-03 -3.945214e-03 -1.140541e-03 -5.314366e-04 3.341766e-03
<VARIANCE> 39
 2.604060e+01 7.024270e+01 5.514050e+01 6.959299e+01 4.732718e+01 1.127858e+02 7.062273e+01 5.426614e+01 5.179941e+01 4.498567e+01 3.091164e+01 2.241333e+01 2.713355e+01 7.371759e-01 9.759704e-01 1.081450e+00 1.398984e+00 1.699119e+00 2.954287e+00 1.818053e+00 1.847507e+00 2.005099e+00 1.989066e+00 1.713398e+00 1.494366e+00 1.419959e+00 1.073131e-01 1.266094e-01 1.690548e-01 2.404630e-01 2.934412e-01 4.432524e-01 3.331422e-01 3.113250e-01 3.521904e-01 3.355415e-01 3.037015e-01 2.972274e-01 2.565742e-01
<GCONST> 1.097464e+02
<MIXTURE> 2 5.000000e-01
<MEAN> 39
 -3.356797e+00 4.659030e+00 -1.460272e+00 -1.948207e+00 1.580149e+00 -1.107495e+01 -5.766987e+00 -3.571820e+00 -5.013867e+00 -1.508272e+00 -8.130112e-01 -1.200091e-01 -2.500152e+00 -7.652649e-03 1.689323e-02 -5.532384e-02 -1.368845e-02 2.215490e-02 -5.128067e-02 -2.762234e-02 -3.205256e-02 -1.201258e-02 -2.920450e-02 -1.780310e-04 2.205243e-02 4.356388e-03 -2.341208e-03 -2.035592e-03 -2.848238e-03 -2.556112e-03 -2.449995e-03 1.000750e-02 3.006706e-03 1.781191e-03 3.968291e-03 -3.945214e-03 -1.140541e-03 -5.314366e-04 3.341766e-03
<VARIANCE> 39
 2.604060e+01 7.024270e+01 5.514050e+01 6.959299e+01 4.732718e+01 1.127858e+02 7.062273e+01 5.426614e+01 5.179941e+01 4.498567e+01 3.091164e+01 2.241333e+01 2.713355e+01 7.371759e-01 9.759704e-01 1.081450e+00 1.398984e+00 1.699119e+00 2.954287e+00 1.818053e+00 1.847507e+00 2.005099e+00 1.989066e+00 1.713398e+00 1.494366e+00 1.419959e+00 1.073131e-01 1.266094e-01 1.690548e-01 2.404630e-01 2.934412e-01 4.432524e-01 3.331422e-01 3.113250e-01 3.521904e-01 3.355415e-01 3.037015e-01 2.972274e-01 2.565742e-01
<GCONST> 1.097464e+02
<TRANSP> 5
 0.000000e+00 1.000000e+00 0.000000e+00 0.000000e+00 0.000000e+00
 0.000000e+00 8.811882e-01 1.188118e-01 0.000000e+00 0.000000e+00
 0.000000e+00 0.000000e+00 8.811883e-01 1.188117e-01 0.000000e+00
 0.000000e+00 0.000000e+00 0.000000e+00 8.811888e-01 1.188112e-01
 0.000000e+00 0.000000e+00 0.000000e+00 0.000000e+00 0.000000e+00
<ENDHMM>
~h "n"
<BEGINHMM>
<NUMSTATES> 5
<STATE> 2
<NUMMIXES> 2
<MIXTURE> 1 5.000000e-01
<MEAN> 39
 -4.418599e+00 6.061295e-01 -1.240455e+00 -3.939077e+00 -5.210835e-01 -2.534366e+00 -1.384465e+00 -2.962247e+00 -4.420630e+00 -1.074394e+00 -4.519792e+00 -1.261137e+00 -9.366920e-02 -1.244548e-03 -1.860374e-02 -8.433935e-03 2.912668e-02 6.872523e-03 -2.905288e-03 2.298187e-02 -6.394220e-03 -2.357085e-03 -7.586816e-03 9.923399e-03 -2.432255e-03 -8.671110e-03 2.947012e-04 -5.982290e-06 -2.663971e-04 5.931067e-04 3.870620e-05 -7.363263e-04 1.187443e-04 -1.903060e-04 -1.120434e-04 1.315581e-04 2.480050e-04 -1.728047e-04 -6.463859e-05
<VARIANCE> 39
 4.018044e+01 4.798742e+01 7.950890e+01 7.373468e+01 4.586652e+01 8.053954e+01 7.286066e+01 4.497988e+01 7.074876e+01 3.868752e+01 3.310581e+01 2.622916e+01 2.755918e+01 9.985243e-01 1.290441e+00 1.490432e+00 1.625916e+00 1.801276e+00 2.932802e+00 2.543582e+00 2.272813e+00 2.333978e+00 2.262932e+00 2.130967e+00 1.950002e+00 1.716735e+00 1.466770e-01 1.989369e-01 2.202779e-01 2.997043e-01 3.372407e-01 5.159230e-01 4.795578e-01 4.356161e-01 4.539677e-01 4.289375e-01 4.139315e-01 3.873424e-01 3.371765e-01
<GCONST> 1.162909e+02
<MIXTURE> 2 5.000000e-01
<MEAN> 39
 -4.418599e+00 6.061295e-01 -1.240455e+00 -3.939077e+00 -5.210835e-01 -2.534366e+00 -1.384465e+00 -2.962247e+00 -4.420630e+00 -1.074394e+00 -4.519792e+00 -1.261137e+00 -9.366920e-02 -1.244548e-03 -1.860374e-02 -8.433935e-03 2.912668e-02 6.872523e-03 -2.905288e-03 2.298187e-02 -6.394220e-03 -2.357085e-03 -7.586816e-03 9.923399e-03 -2.432255e-03 -8.671110e-03 2.947012e-04 -5.982290e-06 -2.663971e-04 5.931067e-04 3.870620e-05 -7.363263e-04 1.187443e-04 -1.903060e-04 -1.120434e-04 1.315581e-04 2.480050e-04 -1.728047e-04 -6.463859e-05
<VARIANCE> 39
 4.018044e+01 4.798742e+01 7.950890e+01 7.373468e+01 4.586652e+01 8.053954e+01 7.286066e+01 4.497988e+01 7.074876e+01 3.868752e+01 3.310581e+01 2.622916e+01 2.755918e+01 9.985243e-01 1.290441e+00 1.490432e+00 1.625916e+00 1.801276e+00 2.932802e+00 2.543582e+00 2.272813e+00 2.333978e+00 2.262932e+00 2.130967e+00 1.950002e+00 1.716735e+00 1.466770e-01 1.989369e-01 2.202779e-01 2.997043e-01 3.372407e-01 5.159230e-01 4.795578e-01 4.356161e-01 4.539677e-01 4.289375e-01 4.139315e-01 3.873424e-01 3.371765e-01
<GCONST> 1.162909e+02
<STATE> 3
<NUMMIXES> 2
<MIXTURE> 1 5.000000e-01
<MEAN> 39
 -4.408522e+00 4.567657e-01 -1.318237e+00 -3.676545e+00 -4.641821e-01 -2.605846e+00 -1.193912e+00 -3.030794e+00 -4.446181e+00 -1.125658e+00 -4.432349e+00 -1.284671e+00 -1.724698e-01 1.705246e-03 -1.856570e-02 -1.042775e-02 3.348029e-02 7.303291e-03 -9.359646e-03 2.400094e-02 -8.344207e-03 -3.754928e-03 -6.099132e-03 1.103107e-02 -3.262711e-03 -8.781952e-03 3.258418e-04 -1.125877e-05 -2.722960e-04 4.833038e-04 6.582973e-05 -7.054462e-04 1.118905e-04 -2.171770e-04 -1.736575e-04 1.671140e-04 1.342990e-04 -1.022366e-04 -4.131150e-06
<VARIANCE> 39
 3.913849e+01 4.818080e+01 7.920813e+01 7.352753e+01 4.569764e+01 7.972256e+01 7.241262e+01 4.554915e+01 7.125677e+01 3.899232e+01 3.301716e+01 2.597598e+01 2.788279e+01 9.799339e-01 1.299642e+00 1.501022e+00 1.645944e+00 1.825273e+00 2.919487e+00 2.563067e+00 2.314354e+00 2.377804e+00 2.283139e+00 2.154028e+00 1.950137e+00 1.718276e+00 1.458991e-01 2.011250e-01 2.235749e-01 3.041516e-01 3.423849e-01 5.193708e-01 4.866899e-01 4.461573e-01 4.633758e-01 4.356442e-01 4.206230e-01 3.893217e-01 3.383836e-01
<GCONST> 1.165065e+02
<MIXTURE> 2 5.000000e-01
<MEAN> 39
 -4.408522e+00 4.567657e-01 -1.318237e+00 -3.676545e+00 -4.641821e-01 -2.605846e+00 -1.193912e+00 -3.030794e+00 -4.446181e+00 -1.125658e+00 -4.432349e+00 -1.284671e+00 -1.724698e-01 1.705246e-03 -1.856570e-02 -1.042775e-02 3.348029e-02 7.303291e-03 -9.359646e-03 2.400094e-02 -8.344207e-03 -3.754928e-03 -6.099132e-03 1.103107e-02 -3.262711e-03 -8.781952e-03 3.258418e-04 -1.125877e-05 -2.722960e-04 4.833038e-04 6.582973e-05 -7.054462e-04 1.118905e-04 -2.171770e-04 -1.736575e-04 1.671140e-04 1.342990e-04 -1.022366e-04 -4.131150e-06
<VARIANCE> 39
 3.913849e+01 4.818080e+01 7.920813e+01 7.352753e+01 4.569764e+01 7.972256e+01 7.241262e+01 4.554915e+01 7.125677e+01 3.899232e+01 3.301716e+01 2.597598e+01 2.788279e+01 9.799339e-01 1.299642e+00 1.501022e+00 1.645944e+00 1.825273e+00 2.919487e+00 2.563067e+00 2.314354e+00 2.377804e+00 2.283139e+00 2.154028e+00 1.950137e+00 1.718276e+00 1.458991e-01 2.011250e-01 2.235749e-01 3.041516e-01 3.423849e-01 5.193708e-01 4.866899e-01 4.461573e-01 4.633758e-01 4.356442e-01 4.206230e-01 3.893217e-01 3.383836e-01
<GCONST> 1.165065e+02
<STATE> 4
<NUMMIXES> 2
<MIXTURE> 1 5.000000e-01
<MEAN> 39
 -4.371456e+00 3.087924e-01 -1.409311e+00 -3.386253e+00 -4.032135e-01 -2.729938e+00 -9.951823e-01 -3.116978e+00 -4.486708e+00 -1.164026e+00 -4.342929e+00 -1.310509e+00 -2.493546e-01 4.627692e-03 -1.846406e-02 -1.225527e-02 3.644552e-02 7.877073e-03 -1.498727e-02 2.486422e-02 -1.024354e-02 -5.484338e-03 -4.644593e-03 1.132144e-02 -3.612743e-03 -8.481201e-03 3.055754e-04 4.824340e-06 -2.450818e-04 3.002001e-04 8.265545e-05 -5.962234e-04 8.228245e-05 -2.060134e-04 -1.910900e-04 1.626740e-04 4.814906e-05 -4.625053e-05 4.001835e-05
<VARIANCE> 39
 3.804666e+01 4.839323e+01 7.840169e+01 7.284388e+01 4.555893e+01 7.957560e+01 7.194109e+01 4.612183e+01 7.155140e+01 3.948495e+01 3.304708e+01 2.572134e+01 2.821904e+01 9.585512e-01 1.310042e+00 1.505988e+00 1.665534e+00 1.854141e+00 2.912261e+00 2.574638e+00 2.358454e+00 2.426838e+00 2.303831e+00 2.178537e+00 1.945983e+00 1.717282e+00 1.447642e-01 2.036359e-01 2.264700e-01 3.086839e-01 3.482420e-01 5.219005e-01 4.924063e-01 4.569154e-01 4.737988e-01 4.421096e-01 4.274320e-01 3.904332e-01 3.387133e-01
<GCONST> 1.167060e+02
<MIXTURE> 2 5.000000e-01
<MEAN> 39
 -4.371456e+00 3.087924e-01 -1.409311e+00 -3.386253e+00 -4.032135e-01 -2.729938e+00 -9.951823e-01 -3.116978e+00 -4.486708e+00 -1.164026e+00 -4.342929e+00 -1.310509e+00 -2.493546e-01 4.627692e-03 -1.846406e-02 -1.225527e-02 3.644552e-02 7.877073e-03 -1.498727e-02 2.486422e-02 -1.024354e-02 -5.484338e-03 -4.644593e-03 1.132144e-02 -3.612743e-03 -8.481201e-03 3.055754e-04 4.824340e-06 -2.450818e-04 3.002001e-04 8.265545e-05 -5.962234e-04 8.228245e-05 -2.060134e-04 -1.910900e-04 1.626740e-04 4.814906e-05 -4.625053e-05 4.001835e-05
<VARIANCE> 39
 3.804666e+01 4.839323e+01 7.840169e+01 7.284388e+01 4.555893e+01 7.957560e+01 7.194109e+01 4.612183e+01 7.155140e+01 3.948495e+01 3.304708e+01 2.572134e+01 2.821904e+01 9.585512e-01 1.310042e+00 1.505988e+00 1.665534e+00 1.854141e+00 2.912261e+00 2.574638e+00 2.358454e+00 2.426838e+00 2.303831e+00 2.178537e+00 1.945983e+00 1.717282e+00 1.447642e-01 2.036359e-01 2.264700e-01 3.086839e-01 3.482420e-01 5.219005e-01 4.924063e-01 4.569154e-01 4.737988e-01 4.421096e-01 4.274320e-01 3.904332e-01 3.387133e-01
<GCONST> 1.167060e+02
<TRANSP> 5
 0.000000e+00 1.000000e+00 0.000000e+00 0.000000e+00 0.000000e+00
 0.000000e+00 8.843102e-01 1.156898e-01 0.000000e+00 0.000000e+00
 0.000000e+00 0.000000e+00 8.843107e-01 1.156893e-01 0.000000e+00
 0.000000e+00 0.000000e+00 0.000000e+00 8.843111e-01 1.156889e-01
 0.000000e+00 0.000000e+00 0.000000e+00 0.000000e+00 0.000000e+00
<ENDHMM>
~h "o"
<BEGINHMM>
<NUMSTATES> 7
<STATE> 2
<NUMMIXES> 2
<MIXTURE> 1 5.000000e-01
<MEAN> 39
 -3.113517e+00 1.539667e+00 -4.659445e+00 -1.732509e+00 -2.441099e-01 -5.272336e+00 -1.719230e+00 -1.254009e+00 -6.000677e-01 -1.571717e+00 -4.203626e+00 -2.132479e+00 -1.888203e-01 -1.265365e-02 1.518872e-02 5.300459e-03 -1.784479e-02 -2.999286e-03 8.724040e-03 -1.633095e-02 7.116416e-03 1.749768e-02 1.038169e-03 -1.147807e-03 -5.804204e-03 -1.511502e-02 -1.052977e-03 3.773544e-05 1.690582e-03 -2.307009e-03 -5.692747e-04 1.425541e-03 3.336669e-05 1.841661e-05 -7.320541e-04 7.093320e-05 1.015063e-03 -4.844271e-04 -5.378206e-04
<VARIANCE> 39
 4.967688e+01 4.888227e+01 9.974258e+01 8.078605e+01 4.668991e+01 7.309345e+01 5.356869e+01 5.638253e+01 6.944814e+01 3.985136e+01 3.297843e+01 2.845058e+01 2.264016e+01 1.210600e+00 1.153310e+00 1.638092e+00 1.876666e+00 1.977472e+00 2.320589e+00 2.414881e+00 2.687184e+00 2.825813e+00 2.696215e+00 2.245414e+00 1.919139e+00 1.606545e+00 1.900879e-01 1.838894e-01 2.619090e-01 3.338307e-01 3.656753e-01 4.017126e-01 4.553494e-01 5.110777e-01 5.191562e-01 5.192302e-01 4.402160e-01 3.912463e-01 3.137856e-01
<GCONST> 1.179251e+02
<MIXTURE> 2 5.000000e-01
<MEAN> 39
 -3.113517e+00 1.539667e+00 -4.659445e+00 -1.732509e+00 -2.441099e-01 -5.272336e+00 -1.719230e+00 -1.254009e+00 -6.000677e-01 -1.571717e+00 -4.203626e+00 -2.132479e+00 -1.888203e-01 -1.265365e-02 1.518872e-02 5.300459e-03 -1.784479e-02 -2.999286e-03 8.724040e-03 -1.633095e-02 7.116416e-03 1.749768e-02 1.038169e-03 -1.147807e-03 -5.804204e-03 -1.511502e-02 -1.052977e-03 3.773544e-05 1.690582e-03 -2.307009e-03 -5.692747e-04 1.425541e-03 3.336669e-05 1.841661e-05 -7.320541e-04 7.093320e-05 1.015063e-03 -4.844271e-04 -5.378206e-04
<VARIANCE> 39
 4.967688e+01 4.888227e+01 9.974258e+01 8.078605e+01 4.668991e+01 7.309345e+01 5.356869e+01 5.638253e+01 6.944814e+01 3.985136e+01 3.297843e+01 2.845058e+01 2.264016e+01 1.210600e+00 1.153310e+00 1.638092e+00 1.876666e+00 1.977472e+00 2.320589e+00 2.414881e+00 2.687184e+00 2.825813e+00 2.696215e+00 2.245414e+00 1.919139e+00 1.606545e+00 1.900879e-01 1.838894e-01 2.619090e-01 3.338307e-01 3.656753e-01 4.017126e-01 4.553494e-01 5.110777e-01 5.191562e-01 5.192302e-01 4.402160e-01 3.912463e-01 3.137856e-01
<GCONST> 1.179251e+02
<STATE> 3
<NUMMIXES> 2
<MIXTURE> 1 5.000000e-01
<MEAN> 39
 -3.197070e+00 1.668119e+00 -4.626168e+00 -1.874665e+00 -2.586815e-01 -5.197601e+00 -1.855939e+00 -1.200446e+00 -4.528262e-01 -1.544794e+00 -4.207241e+00 -2.183609e+00 -3.107390e-01 -2.146382e-02 1.494948e-02 1.974642e-02 -3.504103e-02 -7.433223e-03 1.935035e-02 -1.587849e-02 6.932193e-03 1.012945e-02 9.779783e-04 7.680527e-03 -8.703296e-03 -1.926526e-02 -9.405879e-04 8.909837e-06 1.574562e-03 -1.992127e-03 -4.274868e-04 1.264997e-03 1.938722e-04 4.706076e-05 -9.532296e-04 -2.105711e-04 1.172729e-03 -2.691014e-04 -2.836783e-04
<VARIANCE> 39
 5.023268e+01 4.852533e+01 9.878954e+01 8.422462e+01 4.636105e+01 7.246361e+01 5.257442e+01 5.657514e+01 6.904375e+01 4.097977e+01 3.313297e+01 2.851286e+01 2.281302e+01 1.233105e+00 1.133910e+00 1.648198e+00 1.914177e+00 1.976954e+00 2.303874e+00 2.391364e+00 2.717651e+00 2.882243e+00 2.768398e+00 2.260937e+00 1.947370e+00 1.617796e+00 1.942162e-01 1.811217e-01 2.660223e-01 3.384902e-01 3.673938e-01 3.997417e-01 4.541028e-01 5.192578e-01 5.351021e-01 5.332426e-01 4.481501e-01 3.988252e-01 3.174676e-01
<GCONST> 1.182168e+02
<MIXTURE> 2 5.000000e-01
<MEAN> 39
 -3.197070e+00 1.668119e+00 -4.626168e+00 -1.874665e+00 -2.586815e-01 -5.197601e+00 -1.855939e+00 -1.200446e+00 -4.528262e-01 -1.544794e+00 -4.207241e+00 -2.183609e+00 -3.107390e-01 -2.146382e-02 1.494948e-02 1.974642e-02 -3.504103e-02 -7.433223e-03 1.935035e-02 -1.587849e-02 6.932193e-03 1.012945e-02 9.779783e-04 7.680527e-03 -8.703296e-03 -1.926526e-02 -9.405879e-04 8.909837e-06 1.574562e-03 -1.992127e-03 -4.274868e-04 1.264997e-03 1.938722e-04 4.706076e-05 -9.532296e-04 -2.105711e-04 1.172729e-03 -2.691014e-04 -2.836783e-04
<VARIANCE> 39
 5.023268e+01 4.852533e+01 9.878954e+01 8.422462e+01 4.636105e+01 7.246361e+01 5.257442e+01 5.657514e+01 6.904375e+01 4.097977e+01 3.313297e+01 2.851286e+01 2.281302e+01 1.233105e+00 1.133910e+00 1.648198e+00 1.914177e+00 1.976954e+00 2.303874e+00 2.391364e+00 2.717651e+00 2.882243e+00 2.768398e+00 2.260937e+00 1.947370e+00 1.617796e+00 1.942162e-01 1.811217e-01 2.660223e-01 3.384902e-01 3.673938e-01 3.997417e-01 4.541028e-01 5.192578e-01 5.351021e-01 5.332426e-01 4.481501e-01 3.988252e-01 3.174676e-01
<GCONST> 1.182168e+02
<STATE> 4
<NUMMIXES> 2
<MIXTURE> 1 5.000000e-01
<MEAN> 39
