~o
<STREAMINFO> 1 39
<VECSIZE> 39<NULLD><MFCC_D_A><DIAGC>
~h "a"
<BEGINHMM>
<NUMSTATES> 7
<STATE> 2
<NUMMIXES> 2
<MIXTURE> 1 5.000000e-01
<MEAN> 39
 -2.902648e+00 1.404210e+00 -2.107529e+00 -1.949965e+00 -2.071036e+00 -2.610615e+00 2.795228e+00 -3.125652e+00 -5.243286e+00 -1.524791e+00 -4.909110e+00 -1.901273e+00 6.026099e-01 3.995496e-02 1.213351e-02 -2.325478e-02 3.946526e-03 5.532899e-02 1.525195e-01 1.077078e-01 5.102434e-02 -2.653136e-02 -2.497817e-01 -5.977059e-02 -3.881936e-02 2.113117e-01 -6.385849e-02 -2.306202e-02 -3.810717e-02 3.255824e-02 4.212601e-02 -4.522834e-02 -2.031120e-02 4.118451e-02 1.960600e-02 9.349026e-03 -4.338023e-03 1.509880e-03 6.050286e-02
<VARIANCE> 39
 3.386969e+01 3.604823e+01 7.101311e+01 4.657174e+01 8.208708e+01 1.020311e+02 8.366108e+01 7.280241e+01 4.717221e+01 7.288733e+01 4.075407e+01 2.899143e+01 3.872841e+01 1.379526e+00 1.636372e+00 2.605657e+00 2.680059e+00 2.567352e+00 4.268449e+00 3.798491e+00 4.314896e+00 4.368237e+00 3.773542e+00 3.651899e+00 2.490376e+00 3.170413e+00 2.183854e-01 2.968457e-01 3.977251e-01 4.687509e-01 4.590741e-01 7.273065e-01 7.357268e-01 8.329214e-01 8.545217e-01 7.176096e-01 6.321154e-01 4.931975e-01 5.965740e-01
<GCONST> 1.294488e+02
<MIXTURE> 2 5.000000e-01
<MEAN> 39
 -2.902648e+00 1.404210e+00 -2.107529e+00 -1.949965e+00 -2.071036e+00 -2.610615e+00 2.795228e+00 -3.125652e+00 -5.243286e+00 -1.524791e+00 -4.909110e+00 -1.901273e+00 6.026099e-01 3.995496e-02 1.213351e-02 -2.325478e-02 3.946526e-03 5.532899e-02 1.525195e-01 1.077078e-01 5.102434e-02 -2.653136e-02 -2.497817e-01 -5.977059e-02 -3.881936e-02 2.113117e-01 -6.385849e-02 -2.306202e-02 -3.810717e-02 3.255824e-02 4.212601e-02 -4.522834e-02 -2.031120e-02 4.118451e-02 1.960600e-02 9.349026e-03 -4.338023e-03 1.509880e-03 6.050286e-02
<VARIANCE> 39
 3.386969e+01 3.604823e+01 7.101311e+01 4.657174e+01 8.208708e+01 1.020311e+02 8.366108e+01 7.280241e+01 4.717221e+01 7.288733e+01 4.075407e+01 2.899143e+01 3.872841e+01 1.379526e+00 1.636372e+00 2.605657e+00 2.680059e+00 2.567352e+00 4.268449e+00 3.798491e+00 4.314896e+00 4.368237e+00 3.773542e+00 3.651899e+00 2.490376e+00 3.170413e+00 2.183854e-01 2.968457e-01 3.977251e-01 4.687509e-01 4.590741e-01 7.273065e-01 7.357268e-01 8.329214e-01 8.545217e-01 7.176096e-01 6.321154e-01 4.931975e-01 5.965740e-01
<GCONST> 1.294488e+02
<STATE> 3
<NUMMIXES> 2
<MIXTURE> 1 5.000000e-01
<MEAN> 39
 -3.669930e+00 6.399559e-01 -2.701030e+00 -1.141017e+00 -1.551043e+00 -2.150197e+00 2.955934e+00 -2.926913e+00 -4.854748e+00 -2.018903e+00 -5.145645e+00 -2.136797e+00 9.224092e-01 -9.823075e-02 -1.609284e-01 -1.072339e-01 1.018750e-01 1.424039e-01 5.575470e-02 1.679969e-02 7.106459e-02 4.448683e-02 -6.859781e-02 -1.000179e-01 -7.007407e-03 2.106013e-01 -5.126502e-02 -2.769833e-02 -5.430281e-03 3.172770e-02 1.634256e-02 -2.961325e-02 -2.133118e-02 7.954245e-03 3.629395e-03 1.588619e-02 2.929797e-02 2.638079e-02 -1.027080e-02
<VARIANCE> 39
 3.686633e+01 3.480199e+01 8.201302e+01 4.102302e+01 6.201597e+01 7.003751e+01 7.660551e+01 5.390587e+01 5.062836e+01 5.464005e+01 4.402914e+01 2.820163e+01 2.761935e+01 1.375525e+00 1.805251e+00 2.384557e+00 2.472061e+00 2.626013e+00 3.837640e+00 3.495546e+00 4.417470e+00 4.068201e+00 4.316122e+00 3.525305e+00 2.700999e+00 2.992864e+00 2.271455e-01 2.918948e-01 4.128344e-01 4.755339e-01 5.048495e-01 6.418462e-01 6.934990e-01 8.337172e-01 8.286360e-01 7.174389e-01 6.748677e-01 5.451032e-01 5.331647e-01
<GCONST> 1.278066e+02
<MIXTURE> 2 5.000000e-01
<MEAN> 39
 -3.669930e+00 6.399559e-01 -2.701030e+00 -1.141017e+00 -1.551043e+00 -2.150197e+00 2.955934e+00 -2.926913e+00 -4.854748e+00 -2.018903e+00 -5.145645e+00 -2.136797e+00 9.224092e-01 -9.823075e-02 -1.609284e-01 -1.072339e-01 1.018750e-01 1.424039e-01 5.575470e-02 1.679969e-02 7.106459e-02 4.448683e-02 -6.859781e-02 -1.000179e-01 -7.007407e-03 2.106013e-01 -5.126502e-02 -2.769833e-02 -5.430281e-03 3.172770e-02 1.634256e-02 -2.961325e-02 -2.133118e-02 7.954245e-03 3.629395e-03 1.588619e-02 2.929797e-02 2.638079e-02 -1.027080e-02
<VARIANCE> 39
 3.686633e+01 3.480199e+01 8.201302e+01 4.102302e+01 6.201597e+01 7.003751e+01 7.660551e+01 5.390587e+01 5.062836e+01 5.464005e+01 4.402914e+01 2.820163e+01 2.761935e+01 1.375525e+00 1.805251e+00 2.384557e+00 2.472061e+00 2.626013e+00 3.837640e+00 3.495546e+00 4.417470e+00 4.068201e+00 4.316122e+00 3.525305e+00 2.700999e+00 2.992864e+00 2.271455e-01 2.918948e-01 4.128344e-01 4.755339e-01 5.048495e-01 6.418462e-01 6.934990e-01 8.337172e-01 8.286360e-01 7.174389e-01 6.748677e-01 5.451032e-01 5.331647e-01
<GCONST> 1.278066e+02
<STATE> 4
<NUMMIXES> 2
<MIXTURE> 1 5.000000e-01
<MEAN> 39
 -4.308618e+00 -6.554388e-01 -3.327615e+00 -2.812417e-01 -1.051020e+00 -1.955141e+00 2.811786e+00 -2.797723e+00 -4.416939e+00 -1.962227e+00 -5.101003e+00 -2.285016e+00 9.763434e-01 -9.202243e-02 -1.871103e-01 -6.733746e-02 1.087745e-01 9.703191e-02 1.139502e-02 -1.407066e-02 5.080568e-02 3.200616e-03 -5.945902e-02 -4.103050e-02 3.853420e-02 1.173342e-01 -3.222844e-02 1.471474e-02 3.067036e-02 2.450290e-03 -2.516537e-02 -2.098103e-02 9.673555e-03 -1.067079e-02 -2.664859e-02 -8.723991e-03 6.244833e-02 1.120897e-02 -5.895936e-02
<VARIANCE> 39
 3.290590e+01 3.702417e+01 8.132072e+01 3.656702e+01 5.551992e+01 5.577393e+01 6.966862e+01 3.984304e+01 5.342069e+01 4.772296e+01 3.712051e+01 2.813485e+01 2.412980e+01 1.353279e+00 1.828082e+00 2.145993e+00 2.167781e+00 2.652648e+00 3.143115e+00 3.524818e+00 3.887960e+00 3.952731e+00 4.141760e+00 3.113935e+00 2.643003e+00 2.455237e+00 2.262550e-01 2.898417e-01 3.854462e-01 4.043356e-01 5.102039e-01 5.958565e-01 6.928639e-01 7.648616e-01 7.929780e-01 7.170843e-01 6.550982e-01 5.586931e-01 4.797597e-01
<GCONST> 1.249949e+02
<MIXTURE> 2 5.000000e-01
<MEAN> 39
 -4.308618e+00 -6.554388e-01 -3.327615e+00 -2.812417e-01 -1.051020e+00 -1.955141e+00 2.811786e+00 -2.797723e+00 -4.416939e+00 -1.962227e+00 -5.101003e+00 -2.285016e+00 9.763434e-01 -9.202243e-02 -1.871103e-01 -6.733746e-02 1.087745e-01 9.703191e-02 1.139502e-02 -1.407066e-02 5.080568e-02 3.200616e-03 -5.945902e-02 -4.103050e-02 3.853420e-02 1.173342e-01 -3.222844e-02 1.471474e-02 3.067036e-02 2.450290e-03 -2.516537e-02 -2.098103e-02 9.673555e-03 -1.067079e-02 -2.664859e-02 -8.723991e-03 6.244833e-02 1.120897e-02 -5.895936e-02
<VARIANCE> 39
 3.290590e+01 3.702417e+01 8.132072e+01 3.656702e+01 5.551992e+01 5.577393e+01 6.966862e+01 3.984304e+01 5.342069e+01 4.772296e+01 3.712051e+01 2.813485e+01 2.412980e+01 1.353279e+00 1.828082e+00 2.145993e+00 2.167781e+00 2.652648e+00 3.143115e+00 3.524818e+00 3.887960e+00 3.952731e+00 4.141760e+00 3.113935e+00 2.643003e+00 2.455237e+00 2.262550e-01 2.898417e-01 3.854462e-01 4.043356e-01 5.102039e-01 5.958565e-01 6.928639e-01 7.648616e-01 7.929780e-01 7.170843e-01 6.550982e-01 5.586931e-01 4.797597e-01
<GCONST> 1.249949e+02
<STATE> 5
<NUMMIXES> 2
<MIXTURE> 1 5.000000e-01
<MEAN> 39
 -4.404867e+00 -1.700869e+00 -3.260620e+00 1.664032e-01 -1.112401e+00 -1.726737e+00 2.647270e+00 -2.806359e+00 -4.733674e+00 -2.015008e+00 -5.020406e+00 -2.254019e+00 1.219741e+00 -8.864479e-02 -6.400071e-02 3.372028e-02 3.710911e-02 1.576564e-02 2.074616e-02 3.991005e-02 4.028775e-03 -1.206198e-01 -8.734873e-02 6.565788e-02 1.071014e-02 -4.954805e-04 -3.703745e-02 2.909382e-02 2.790958e-02 -2.088273e-02 -1.919601e-02 -1.621607e-02 1.368788e-02 -2.656260e-02 -2.015114e-02 8.295326e-03 7.071501e-02 -1.010348e-02 -7.437278e-02
<VARIANCE> 39
 2.789417e+01 3.671821e+01 7.172186e+01 3.428123e+01 5.508973e+01 5.530045e+01 6.089413e+01 3.393682e+01 6.293374e+01 4.878098e+01 3.365616e+01 2.657481e+01 2.446474e+01 1.423375e+00 1.859027e+00 2.178377e+00 1.952097e+00 2.660737e+00 2.796709e+00 3.645631e+00 3.418142e+00 3.844157e+00 3.853478e+00 3.043350e+00 2.422795e+00 2.161757e+00 2.308899e-01 2.900961e-01 3.424271e-01 3.642534e-01 4.963979e-01 5.444121e-01 7.019136e-01 6.966672e-01 7.401597e-01 7.239186e-01 6.108984e-01 5.224209e-01 4.503752e-01
<GCONST> 1.231365e+02
<MIXTURE> 2 5.000000e-01
<MEAN> 39
 -4.404867e+00 -1.700869e+00 -3.260620e+00 1.664032e-01 -1.112401e+00 -1.726737e+00 2.647270e+00 -2.806359e+00 -4.733674e+00 -2.015008e+00 -5.020406e+00 -2.254019e+00 1.219741e+00 -8.864479e-02 -6.400071e-02 3.372028e-02 3.710911e-02 1.576564e-02 2.074616e-02 3.991005e-02 4.028775e-03 -1.206198e-01 -8.734873e-02 6.565788e-02 1.071014e-02 -4.954805e-04 -3.703745e-02 2.909382e-02 2.790958e-02 -2.088273e-02 -1.919601e-02 -1.621607e-02 1.368788e-02 -2.656260e-02 -2.015114e-02 8.295326e-03 7.071501e-02 -1.010348e-02 -7.437278e-02
<VARIANCE> 39
 2.789417e+01 3.671821e+01 7.172186e+01 3.428123e+01 5.508973e+01 5.530045e+01 6.089413e+01 3.393682e+01 6.293374e+01 4.878098e+01 3.365616e+01 2.657481e+01 2.446474e+01 1.423375e+00 1.859027e+00 2.178377e+00 1.952097e+00 2.660737e+00 2.796709e+00 3.645631e+00 3.418142e+00 3.844157e+00 3.853478e+00 3.043350e+00 2.422795e+00 2.161757e+00 2.308899e-01 2.900961e-01 3.424271e-01 3.642534e-01 4.963979e-01 5.444121e-01 7.019136e-01 6.966672e-01 7.401597e-01 7.239186e-01 6.108984e-01 5.224209e-01 4.503752e-01
<GCONST> 1.231365e+02
<STATE> 6
<NUMMIXES> 2
<MIXTURE> 1 5.000000e-01
<MEAN> 39
 -4.397663e+00 -1.947647e+00 -2.672498e+00 1.479427e-01 -1.571818e+00 -1.172062e+00 3.190595e+00 -3.114838e+00 -6.079516e+00 -2.149035e+00 -5.065298e+00 -2.151562e+00 1.362132e+00 -1.973747e-01 6.469277e-02 1.065863e-01 -5.275606e-02 4.304626e-02 2.180810e-02 2.158559e-02 -7.963152e-02 -1.086297e-01 -8.412950e-02 1.831231e-01 1.600638e-02 -1.424041e-01 -3.010437e-02 -2.395128e-03 4.930437e-03 -2.891433e-02 -3.868233e-03 -2.707726e-02 -4.389132e-02 -3.508849e-02 3.408405e-02 1.936616e-02 2.257539e-02 1.487478e-03 -3.667985e-02
<VARIANCE> 39
 2.479128e+01 3.602607e+01 5.695344e+01 3.493997e+01 5.115045e+01 5.826643e+01 5.366993e+01 3.317257e+01 6.663235e+01 5.040934e+01 3.513904e+01 2.636864e+01 2.518188e+01 1.596933e+00 1.776796e+00 2.169785e+00 1.923462e+00 2.632050e+00 3.076017e+00 3.755039e+00 3.286340e+00 3.566808e+00 3.579418e+00 3.273540e+00 2.251927e+00 2.211235e+00 2.636335e-01 2.764214e-01 3.020132e-01 3.683106e-01 4.637253e-01 5.551792e-01 7.046267e-01 6.511446e-01 6.630893e-01 6.901938e-01 5.792945e-01 4.720863e-01 4.380618e-01
<GCONST> 1.222885e+02
<MIXTURE> 2 5.000000e-01
<MEAN> 39
 -4.397663e+00 -1.947647e+00 -2.672498e+00 1.479427e-01 -1.571818e+00 -1.172062e+00 3.190595e+00 -3.114838e+00 -6.079516e+00 -2.149035e+00 -5.065298e+00 -2.151562e+00 1.362132e+00 -1.973747e-01 6.469277e-02 1.065863e-01 -5.275606e-02 4.304626e-02 2.180810e-02 2.158559e-02 -7.963152e-02 -1.086297e-01 -8.412950e-02 1.831231e-01 1.600638e-02 -1.424041e-01 -3.010437e-02 -2.395128e-03 4.930437e-03 -2.891433e-02 -3.868233e-03 -2.707726e-02 -4.389132e-02 -3.508849e-02 3.408405e-02 1.936616e-02 2.257539e-02 1.487478e-03 -3.667985e-02
<VARIANCE> 39
 2.479128e+01 3.602607e+01 5.695344e+01 3.493997e+01 5.115045e+01 5.826643e+01 5.366993e+01 3.317257e+01 6.663235e+01 5.040934e+01 3.513904e+01 2.636864e+01 2.518188e+01 1.596933e+00 1.776796e+00 2.169785e+00 1.923462e+00 2.632050e+00 3.076017e+00 3.755039e+00 3.286340e+00 3.566808e+00 3.579418e+00 3.273540e+00 2.251927e+00 2.211235e+00 2.636335e-01 2.764214e-01 3.020132e-01 3.683106e-01 4.637253e-01 5.551792e-01 7.046267e-01 6.511446e-01 6.630893e-01 6.901938e-01 5.792945e-01 4.720863e-01 4.380618e-01
<GCONST> 1.222885e+02
<TRANSP> 7
 0.000000e+00 1.000000e+00 0.000000e+00 0.000000e+00 0.000000e+00 0.000000e+00 0.000000e+00
 0.000000e+00 7.067432e-01 2.932568e-01 0.000000e+00 0.000000e+00 0.000000e+00 0.000000e+00
 0.000000e+00 0.000000e+00 7.160711e-01 2.839289e-01 0.000000e+00 0.000000e+00 0.000000e+00
 0.000000e+00 0.000000e+00 0.000000e+00 7.384127e-01 2.615874e-01 0.000000e+00 0.000000e+00
 0.000000e+00 0.000000e+00 0.000000e+00 0.000000e+00 7.567373e-01 2.432627e-01 0.000000e+00
 0.000000e+00 0.000000e+00 0.000000e+00 0.000000e+00 0.000000e+00 7.646496e-01 2.353504e-01
 0.000000e+00 0.000000e+00 0.000000e+00 0.000000e+00 0.000000e+00 0.000000e+00 0.000000e+00
<ENDHMM>
~h "b"
<BEGINHMM>
<NUMSTATES> 5
<STATE> 2
<NUMMIXES> 2
<MIXTURE> 1 5.000000e-01
<MEAN> 39
 2.958937e+00 2.061321e+00 1.029354e+00 -7.252405e-01 -2.615901e+00 -9.485894e+00 -6.058016e+00 1.143301e+00 -4.336158e+00 -4.159862e+00 -3.682822e+00 -1.501836e+00 1.879662e+00 9.968798e-01 5.271170e-01 6.231695e-01 7.197105e-01 8.128220e-01 -1.232435e+00 -1.015796e+00 -3.706286e-01 1.582366e-01 -5.747862e-02 -1.208702e-01 4.906176e-01 2.217601e-01 -1.135124e-01 6.488312e-02 -7.988928e-02 -7.632748e-02 -1.138024e-02 1.181638e-01 5.415126e-02 -1.361847e-01 9.455220e-02 6.590118e-04 -2.961821e-02 -2.848441e-02 -3.208166e-02
<VARIANCE> 39
 2.810887e+01 2.053485e+01 1.293744e+02 3.542675e+01 1.986131e+01 3.318077e+01 1.044199e+02 2.550113e+01 3.655570e+01 2.271324e+01 2.127343e+01 1.306437e+01 2.179406e+01 7.105352e-01 9.362555e-01 2.294639e+00 1.235897e+00 1.934218e+00 2.209835e+00 1.904193e+00 3.248082e+00 2.545281e+00 2.156531e+00 2.277048e+00 2.120471e+00 1.246382e+00 7.425069e-02 1.247919e-01 3.049093e-01 1.746624e-01 4.998002e-01 3.528549e-01 2.985602e-01 5.552309e-01 3.999598e-01 4.234221e-01 5.026755e-01 3.809569e-01 2.078290e-01
<GCONST> 1.075351e+02
<MIXTURE> 2 5.000000e-01
<MEAN> 39
 2.958937e+00 2.061321e+00 1.029354e+00 -7.252405e-01 -2.615901e+00 -9.485894e+00 -6.058016e+00 1.143301e+00 -4.336158e+00 -4.159862e+00 -3.682822e+00 -1.501836e+00 1.879662e+00 9.968798e-01 5.271170e-01 6.231695e-01 7.197105e-01 8.128220e-01 -1.232435e+00 -1.015796e+00 -3.706286e-01 1.582366e-01 -5.747862e-02 -1.208702e-01 4.906176e-01 2.217601e-01 -1.135124e-01 6.488312e-02 -7.988928e-02 -7.632748e-02 -1.138024e-02 1.181638e-01 5.415126e-02 -1.361847e-01 9.455220e-02 6.590118e-04 -2.961821e-02 -2.848441e-02 -3.208166e-02
<VARIANCE> 39
 2.810887e+01 2.053485e+01 1.293744e+02 3.542675e+01 1.986131e+01 3.318077e+01 1.044199e+02 2.550113e+01 3.655570e+01 2.271324e+01 2.127343e+01 1.306437e+01 2.179406e+01 7.105352e-01 9.362555e-01 2.294639e+00 1.235897e+00 1.934218e+00 2.209835e+00 1.904193e+00 3.248082e+00 2.545281e+00 2.156531e+00 2.277048e+00 2.120471e+00 1.246382e+00 7.425069e-02 1.247919e-01 3.049093e-01 1.746624e-01 4.998002e-01 3.528549e-01 2.985602e-01 5.552309e-01 3.999598e-01 4.234221e-01 5.026755e-01 3.809569e-01 2.078290e-01
<GCONST> 1.075351e+02
<STATE> 3
<NUMMIXES> 2
<MIXTURE> 1 5.000000e-01
<MEAN> 39
 6.340028e+00 4.589293e+00 7.380757e-01 2.642975e+00 1.047240e+00 -1.499104e+01 -7.393732e+00 -7.052944e-01 -2.438989e+00 -4.147918e+00 -5.494584e+00 6.652408e-03 1.919261e+00 5.832231e-01 5.284614e-01 1.097014e-01 4.275388e-01 7.494144e-01 -8.445525e-01 -3.162625e-01 -4.163184e-01 3.726547e-01 2.192244e-01 -3.112419e-01 2.079446e-01 -1.836167e-01 -1.028011e-01 -2.196922e-02 -4.799228e-02 -3.885708e-02 -8.516298e-03 9.654570e-02 1.141148e-01 -5.077520e-03 2.657038e-02 4.125166e-02 -3.361368e-02 -6.171768e-02 -7.940101e-02
<VARIANCE> 39
 3.039330e+01 2.731887e+01 1.319995e+02 3.134515e+01 2.876789e+01 3.399446e+01 8.582651e+01 2.749277e+01 2.718914e+01 3.733318e+01 2.488169e+01 1.192675e+01 2.630077e+01 4.710753e-01 5.308864e-01 1.579457e+00 1.104075e+00 1.502663e+00 1.659399e+00 1.839637e+00 1.938954e+00 3.164757e+00 2.225381e+00 1.705843e+00 1.511524e+00 1.045696e+00 5.953025e-02 8.232711e-02 2.834569e-01 1.946549e-01 2.272370e-01 2.836569e-01 2.693463e-01 3.282368e-01 5.373760e-01 4.201664e-01 3.196079e-01 3.129290e-01 1.705658e-01
<GCONST> 1.026209e+02
<MIXTURE> 2 5.000000e-01
<MEAN> 39
 6.340028e+00 4.589293e+00 7.380757e-01 2.642975e+00 1.047240e+00 -1.499104e+01 -7.393732e+00 -7.052944e-01 -2.438989e+00 -4.147918e+00 -5.494584e+00 6.652408e-03 1.919261e+00 5.832231e-01 5.284614e-01 1.097014e-01 4.275388e-01 7.494144e-01 -8.445525e-01 -3.162625e-01 -4.163184e-01 3.726547e-01 2.192244e-01 -3.112419e-01 2.079446e-01 -1.836167e-01 -1.028011e-01 -2.196922e-02 -4.799228e-02 -3.885708e-02 -8.516298e-03 9.654570e-02 1.141148e-01 -5.077520e-03 2.657038e-02 4.125166e-02 -3.361368e-02 -6.171768e-02 -7.940101e-02
<VARIANCE> 39
 3.039330e+01 2.731887e+01 1.319995e+02 3.134515e+01 2.876789e+01 3.399446e+01 8.582651e+01 2.749277e+01 2.718914e+01 3.733318e+01 2.488169e+01 1.192675e+01 2.630077e+01 4.710753e-01 5.308864e-01 1.579457e+00 1.104075e+00 1.502663e+00 1.659399e+00 1.839637e+00 1.938954e+00 3.164757e+00 2.225381e+00 1.705843e+00 1.511524e+00 1.045696e+00 5.953025e-02 8.232711e-02 2.834569e-01 1.946549e-01 2.272370e-01 2.836569e-01 2.693463e-01 3.282368e-01 5.373760e-01 4.201664e-01 3.196079e-01 3.129290e-01 1.705658e-01
<GCONST> 1.026209e+02
<STATE> 4
<NUMMIXES> 2
<MIXTURE> 1 5.000000e-01
<MEAN> 39
 6.496469e+00 5.151438e+00 -5.817723e+00 4.187940e+00 4.230364e+00 -1.466433e+01 -4.455511e+00 -2.960147e+00 2.593122e+00 -4.283771e+00 -7.865254e+00 1.280200e-01 1.396719e+00 -2.124042e-01 -2.028555e-01 -6.086662e-01 -7.794103e-02 -2.127768e-02 3.039361e-01 3.250362e-01 -1.037941e-01 1.604864e-01 -7.269772e-02 9.456351e-02 -3.513597e-02 -8.453389e-02 -3.817590e-02 -3.067409e-02 -5.010340e-03 -3.401442e-02 -4.635468e-02 6.625018e-02 1.338933e-02 -1.398847e-02 -4.267099e-02 1.991640e-02 5.263367e-02 -2.360360e-02 5.758501e-04
<VARIANCE> 39
 3.422503e+01 4.326354e+01 1.274381e+02 2.049545e+01 3.483390e+01 4.185927e+01 5.952505e+01 3.859155e+01 4.100082e+01 6.481063e+01 2.543849e+01 1.872428e+01 1.943932e+01 2.105002e+00 1.902386e+00 4.115495e+00 1.493641e+00 3.302671e+00 2.806940e+00 2.082219e+00 1.892710e+00 3.397864e+00 2.663152e+00 1.654001e+00 1.199171e+00 1.230671e+00 3.326876e-01 3.131803e-01 4.945889e-01 2.687014e-01 5.800309e-01 4.166511e-01 2.599009e-01 3.223866e-01 5.487236e-01 3.914033e-01 2.867756e-01 2.198828e-01 1.575288e-01
<GCONST> 1.144554e+02
<MIXTURE> 2 5.000000e-01
<MEAN> 39
 6.496469e+00 5.151438e+00 -5.817723e+00 4.187940e+00 4.230364e+00 -1.466433e+01 -4.455511e+00 -2.960147e+00 2.593122e+00 -4.283771e+00 -7.865254e+00 1.280200e-01 1.396719e+00 -2.124042e-01 -2.028555e-01 -6.086662e-01 -7.794103e-02 -2.127768e-02 3.039361e-01 3.250362e-01 -1.037941e-01 1.604864e-01 -7.269772e-02 9.456351e-02 -3.513597e-02 -8.453389e-02 -3.817590e-02 -3.067409e-02 -5.010340e-03 -3.401442e-02 -4.635468e-02 6.625018e-02 1.338933e-02 -1.398847e-02 -4.267099e-02 1.991640e-02 5.263367e-02 -2.360360e-02 5.758501e-04
<VARIANCE> 39
 3.422503e+01 4.326354e+01 1.274381e+02 2.049545e+01 3.483390e+01 4.185927e+01 5.952505e+01 3.859155e+01 4.100082e+01 6.481063e+01 2.543849e+01 1.872428e+01 1.943932e+01 2.105002e+00 1.902386e+00 4.115495e+00 1.493641e+00 3.302671e+00 2.806940e+00 2.082219e+00 1.892710e+00 3.397864e+00 2.663152e+00 1.654001e+00 1.199171e+00 1.230671e+00 3.326876e-01 3.131803e-01 4.945889e-01 2.687014e-01 5.800309e-01 4.166511e-01 2.599009e-01 3.223866e-01 5.487236e-01 3.914033e-01 2.867756e-01 2.198828e-01 1.575288e-01
<GCONST> 1.144554e+02
<TRANSP> 5
 0.000000e+00 1.000000e+00 0.000000e+00 0.000000e+00 0.000000e+00
 0.000000e+00 7.301937e-01 2.698063e-01 0.000000e+00 0.000000e+00
 0.000000e+00 0.000000e+00 8.002848e-01 1.997152e-01 0.000000e+00
 0.000000e+00 0.000000e+00 0.000000e+00 9.529750e-01 4.702495e-02
 0.000000e+00 0.000000e+00 0.000000e+00 0.000000e+00 0.000000e+00
<ENDHMM>
~h "c"
<BEGINHMM>
<NUMSTATES> 5
<STATE> 2
<NUMMIXES> 2
<MIXTURE> 1 5.000000e-01
<MEAN> 39
 -1.361874e+01 1.402761e+00 -2.055920e+00 -1.321225e+00 -3.826233e+00 7.122338e-01 -1.253706e-01 -4.092497e+00 -7.522045e-01 -2.766147e+00 -2.283987e+00 -1.861914e+00 2.092129e+00 -1.007690e+00 -1.054364e-01 -5.005435e-01 -3.275016e-01 -4.440629e-02 -1.770087e-01 -3.672156e-01 -5.800210e-04 4.119341e-01 -1.562198e-01 1.930395e-01 -2.630697e-02 -7.392122e-02 8.616940e-02 2.023726e-02 4.480041e-02 -2.570499e-02 -5.916680e-03 -1.299886e-02 -1.378560e-03 1.662355e-02 -3.363772e-02 7.274687e-02 -2.954315e-02 3.247050e-02 -1.709106e-02
<VARIANCE> 39
 8.349402e+01 3.861299e+01 4.042538e+01 2.052881e+01 2.133530e+01 2.681951e+01 4.280521e+01 2.432678e+01 2.710340e+01 2.429500e+01 3.393443e+01 2.955561e+01 2.438934e+01 3.769670e+00 2.722423e+00 3.166708e+00 2.057587e+00 2.465831e+00 2.867844e+00 3.392657e+00 3.229370e+00 2.294050e+00 3.024738e+00 3.527551e+00 3.655039e+00 2.480652e+00 5.488823e-01 5.001516e-01 4.950547e-01 4.470364e-01 4.762629e-01 6.162230e-01 5.569184e-01 6.780179e-01 4.210268e-01 5.395760e-01 6.691124e-01 6.839090e-01 4.770157e-01
<GCONST> 1.223197e+02
<MIXTURE> 2 5.000000e-01
<MEAN> 39
 -1.361874e+01 1.402761e+00 -2.055920e+00 -1.321225e+00 -3.826233e+00 7.122338e-01 -1.253706e-01 -4.092497e+00 -7.522045e-01 -2.766147e+00 -2.283987e+00 -1.861914e+00 2.092129e+00 -1.007690e+00 -1.054364e-01 -5.005435e-01 -3.275016e-01 -4.440629e-02 -1.770087e-01 -3.672156e-01 -5.800210e-04 4.119341e-01 -1.562198e-01 1.930395e-01 -2.630697e-02 -7.392122e-02 8.616940e-02 2.023726e-02 4.480041e-02 -2.570499e-02 -5.916680e-03 -1.299886e-02 -1.378560e-03 1.662355e-02 -3.363772e-02 7.274687e-02 -2.954315e-02 3.247050e-02 -1.709106e-02
<VARIANCE> 39
 8.349402e+01 3.861299e+01 4.042538e+01 2.052881e+01 2.133530e+01 2.681951e+01 4.280521e+01 2.432678e+01 2.710340e+01 2.429500e+01 3.393443e+01 2.955561e+01 2.438934e+01 3.769670e+00 2.722423e+00 3.166708e+00 2.057587e+00 2.465831e+00 2.867844e+00 3.392657e+00 3.229370e+00 2.294050e+00 3.024738e+00 3.527551e+00 3.655039e+00 2.480652e+00 5.488823e-01 5.001516e-01 4.950547e-01 4.470364e-01 4.762629e-01 6.162230e-01 5.569184e-01 6.780179e-01 4.210268e-01 5.395760e-01 6.691124e-01 6.839090e-01 4.770157e-01
<GCONST> 1.223197e+02
<STATE> 3
<NUMMIXES> 2
<MIXTURE> 1 5.000000e-01
<MEAN> 39
 -1.568594e+01 1.010783e+00 -2.923880e+00 -4.614452e+00 -4.168792e+00 3.767843e-01 -2.708000e+00 -3.355647e+00 1.873192e+00 -2.192733e+00 -3.054735e+00 -1.052147e+00 -1.427323e-01 6.085356e-01 1.787508e-01 3.252123e-01 -4.476117e-01 -2.710677e-01 7.553973e-02 -1.197007e-01 5.111395e-02 1.014443e-01 1.471564e-01 -4.616390e-01 -1.870392e-02 -2.866923e-01 1.505299e-01 -1.103595e-02 5.271284e-02 -1.959443e-02 -5.853350e-02 1.332197e-02 5.262015e-02 -1.201143e-03 -4.943198e-02 -3.179853e-04 -2.435573e-02 -1.713054e-02 3.995589e-03
<VARIANCE> 39
 5.711128e+01 3.025689e+01 2.744955e+01 2.086746e+01 1.821830e+01 2.664733e+01 2.547716e+01 2.067648e+01 2.324718e+01 2.633041e+01 3.719524e+01 2.277135e+01 2.140969e+01 3.783689e+00 1.827205e+00 2.672091e+00 2.113779e+00 2.395041e+00 2.770744e+00 2.727828e+00 2.479397e+00 2.570974e+00 3.240280e+00 3.540819e+00 2.922085e+00 1.864689e+00 4.656918e-01 3.686521e-01 4.472293e-01 4.688376e-01 4.670291e-01 6.195646e-01 5.238890e-01 5.111351e-01 5.041405e-01 6.239483e-01 6.993052e-01 6.025900e-01 3.908073e-01
<GCONST> 1.178630e+02
<MIXTURE> 2 5.000000e-01
<MEAN> 39
 -1.568594e+01 1.010783e+00 -2.923880e+00 -4.614452e+00 -4.168792e+00 3.767843e-01 -2.708000e+00 -3.355647e+00 1.873192e+00 -2.192733e+00 -3.054735e+00 -1.052147e+00 -1.427323e-01 6.085356e-01 1.787508e-01 3.252123e-01 -4.476117e-01 -2.710677e-01 7.553973e-02 -1.197007e-01 5.111395e-02 1.014443e-01 1.471564e-01 -4.616390e-01 -1.870392e-02 -2.866923e-01 1.505299e-01 -1.103595e-02 5.271284e-02 -1.959443e-02 -5.853350e-02 1.332197e-02 5.262015e-02 -1.201143e-03 -4.943198e-02 -3.179853e-04 -2.435573e-02 -1.713054e-02 3.995589e-03
<VARIANCE> 39
 5.711128e+01 3.025689e+01 2.744955e+01 2.086746e+01 1.821830e+01 2.664733e+01 2.547716e+01 2.067648e+01 2.324718e+01 2.633041e+01 3.719524e+01 2.277135e+01 2.140969e+01 3.783689e+00 1.827205e+00 2.672091e+00 2.113779e+00 2.395041e+00 2.770744e+00 2.727828e+00 2.479397e+00 2.570974e+00 3.240280e+00 3.540819e+00 2.922085e+00 1.864689e+00 4.656918e-01 3.686521e-01 4.472293e-01 4.688376e-01 4.670291e-01 6.195646e-01 5.238890e-01 5.111351e-01 5.041405e-01 6.239483e-01 6.993052e-01 6.025900e-01 3.908073e-01
<GCONST> 1.178630e+02
<STATE> 4
<NUMMIXES> 2
<MIXTURE> 1 5.000000e-01
<MEAN> 39
 -9.014161e+00 1.952367e+00 3.742793e-01 -7.804052e+00 -6.641334e+00 1.545221e+00 -2.987425e+00 -2.935395e+00 2.166278e+00 -1.519051e+00 -6.828228e+00 -1.436133e+00 -2.301952e+00 1.013445e+00 6.753771e-03 4.921402e-01 -5.991787e-01 -6.262585e-01 -2.943773e-02 1.042656e-01 1.030132e-01 -1.768291e-01 7.064406e-02 -2.943762e-01 -3.634682e-03 -7.657013e-02 -2.439907e-01 -7.577926e-02 -1.211299e-01 1.691953e-02 3.980592e-02 -4.383478e-02 1.413461e-02 4.780054e-02 -2.564676e-03 -9.205582e-02 1.171545e-01 5.432946e-02 8.868972e-02
<VARIANCE> 39
 5.100824e+01 2.789582e+01 2.958376e+01 2.604681e+01 1.939814e+01 2.401481e+01 3.416244e+01 1.759611e+01 2.516200e+01 3.273188e+01 2.462384e+01 1.556674e+01 1.939767e+01 3.150065e+00 1.944861e+00 2.600636e+00 2.775238e+00 1.978388e+00 2.190958e+00 2.563321e+00 1.971047e+00 2.558383e+00 3.636389e+00 2.706383e+00 1.965212e+00 2.091583e+00 5.470116e-01 3.299331e-01 4.474847e-01 5.137033e-01 3.744500e-01 4.546439e-01 4.528857e-01 4.075572e-01 4.520765e-01 6.105770e-01 5.285104e-01 4.112269e-01 3.774579e-01
<GCONST> 1.148398e+02
<MIXTURE> 2 5.000000e-01
<MEAN> 39
 -9.014161e+00 1.952367e+00 3.742793e-01 -7.804052e+00 -6.641334e+00 1.545221e+00 -2.987425e+00 -2.935395e+00 2.166278e+00 -1.519051e+00 -6.828228e+00 -1.436133e+00 -2.301952e+00 1.013445e+00 6.753771e-03 4.921402e-01 -5.991787e-01 -6.262585e-01 -2.943773e-02 1.042656e-01 1.030132e-01 -1.768291e-01 7.064406e-02 -2.943762e-01 -3.634682e-03 -7.657013e-02 -2.439907e-01 -7.577926e-02 -1.211299e-01 1.691953e-02 3.980592e-02 -4.383478e-02 1.413461e-02 4.780054e-02 -2.564676e-03 -9.205582e-02 1.171545e-01 5.432946e-02 8.868972e-02
<VARIANCE> 39
 5.100824e+01 2.789582e+01 2.958376e+01 2.604681e+01 1.939814e+01 2.401481e+01 3.416244e+01 1.759611e+01 2.516200e+01 3.273188e+01 2.462384e+01 1.556674e+01 1.939767e+01 3.150065e+00 1.944861e+00 2.600636e+00 2.775238e+00 1.978388e+00 2.190958e+00 2.563321e+00 1.971047e+00 2.558383e+00 3.636389e+00 2.706383e+00 1.965212e+00 2.091583e+00 5.470116e-01 3.299331e-01 4.474847e-01 5.137033e-01 3.744500e-01 4.546439e-01 4.528857e-01 4.075572e-01 4.520765e-01 6.105770e-01 5.285104e-01 4.112269e-01 3.774579e-01
<GCONST> 1.148398e+02
<TRANSP> 5
 0.000000e+00 1.000000e+00 0.000000e+00 0.000000e+00 0.000000e+00
 0.000000e+00 9.148875e-01 8.511249e-02 0.000000e+00 0.000000e+00
 0.000000e+00 0.000000e+00 8.804545e-01 1.195454e-01 0.000000e+00
 0.000000e+00 0.000000e+00 0.000000e+00 8.322963e-01 1.677038e-01
 0.000000e+00 0.000000e+00 0.000000e+00 0.000000e+00 0.000000e+00
<ENDHMM>
~h "d"
<BEGINHMM>
<NUMSTATES> 5
<STATE> 2
<NUMMIXES> 2
<MIXTURE> 1 5.000000e-01
<MEAN> 39
 1.387235e+00 9.795467e+00 3.646970e+00 -4.368432e+00 1.922646e+00 -1.690483e+01 -9.461679e-01 -7.700844e+00 -7.300411e+00 1.013913e+01 -4.419654e+00 -7.992742e-01 -4.497815e+00 4.629275e-01 4.192220e-01 1.693213e-01 -2.134778e-01 -2.572699e-01 -2.806789e-01 1.958440e-02 -2.013724e-01 -1.044987e-01 3.050749e-01 -1.948070e-02 1.313261e-01 1.806357e-01 4.278861e-02 -5.094807e-02 1.199834e-02 3.391744e-02 -1.197808e-02 5.063730e-02 5.595118e-02 1.563451e-02 -5.248834e-02 -3.252926e-02 -4.397313e-02 2.512213e-02 2.464581e-02
<VARIANCE> 39
 3.890849e+01 2.811186e+01 1.094688e+01 1.846087e+01 3.820434e+01 7.092419e+01 1.661202e+01 2.216978e+01 2.113235e+01 4.900654e+01 1.524257e+01 1.826028e+01 1.943207e+01 1.753980e+00 1.090549e+00 7.873886e-01 1.168731e+00 1.831738e+00 2.196155e+00 1.704088e+00 1.255934e+00 1.712153e+00 2.768076e+00 1.328026e+00 1.038328e+00 9.418357e-01 4.274663e-01 1.746831e-01 1.617778e-01 1.814986e-01 2.586566e-01 4.590806e-01 3.459581e-01 2.381778e-01 3.105615e-01 5.377103e-01 2.306081e-01 1.690734e-01 1.788676e-01
<GCONST> 1.003658e+02
<MIXTURE> 2 5.000000e-01
<MEAN> 39
 1.387235e+00 9.795467e+00 3.646970e+00 -4.368432e+00 1.922646e+00 -1.690483e+01 -9.461679e-01 -7.700844e+00 -7.300411e+00 1.013913e+01 -4.419654e+00 -7.992742e-01 -4.497815e+00 4.629275e-01 4.192220e-01 1.693213e-01 -2.134778e-01 -2.572699e-01 -2.806789e-01 1.958440e-02 -2.013724e-01 -1.044987e-01 3.050749e-01 -1.948070e-02 1.313261e-01 1.806357e-01 4.278861e-02 -5.094807e-02 1.199834e-02 3.391744e-02 -1.197808e-02 5.063730e-02 5.595118e-02 1.563451e-02 -5.248834e-02 -3.252926e-02 -4.397313e-02 2.512213e-02 2.464581e-02
<VARIANCE> 39
 3.890849e+01 2.811186e+01 1.094688e+01 1.846087e+01 3.820434e+01 7.092419e+01 1.661202e+01 2.216978e+01 2.113235e+01 4.900654e+01 1.524257e+01 1.826028e+01 1.943207e+01 1.753980e+00 1.090549e+00 7.873886e-01 1.168731e+00 1.831738e+00 2.196155e+00 1.704088e+00 1.255934e+00 1.712153e+00 2.768076e+00 1.328026e+00 1.038328e+00 9.418357e-01 4.274663e-01 1.746831e-01 1.617778e-01 1.814986e-01 2.586566e-01 4.590806e-01 3.459581e-01 2.381778e-01 3.105615e-01 5.377103e-01 2.306081e-01 1.690734e-01 1.788676e-01
<GCONST> 1.003658e+02
<STATE> 3
<NUMMIXES> 2
<MIXTURE> 1 5.000000e-01
<MEAN> 39
 4.244120e+00 8.829395e+00 4.297223e+00 -3.228927e+00 -4.435107e+00 -1.131680e+01 1.898161e+00 -4.541351e+00 -5.986617e+00 6.124397e+00 -5.094346e+00 -2.404087e+00 3.411999e-02 1.523099e-01 -2.041185e-02 1.562649e-01 2.371128e-01 -5.273479e-01 4.239120e-01 1.389188e-01 2.767710e-01 4.911942e-02 -4.073880e-01 -3.180018e-02 -1.974265e-01 1.790866e-01 -8.643225e-02 -3.276683e-02 -6.114946e-03 7.417356e-03 5.609668e-02 7.415067e-02 -2.770879e-02 -1.764053e-03 -5.555504e-03 -1.501444e-02 1.340402e-02 -9.942614e-03 9.198281e-03
<VARIANCE> 39
 5.381544e+01 6.917861e+01 2.065372e+01 3.212849e+01 6.473588e+01 9.116981e+01 2.828428e+01 3.165093e+01 3.166414e+01 4.933789e+01 2.502263e+01 3.244138e+01 1.630908e+01 1.547624e+00 9.563429e-01 7.326311e-01 1.091139e+00 1.982923e+00 2.807393e+00 2.100866e+00 1.419879e+00 2.930634e+00 4.061117e+00 2.151867e+00 1.762352e+00 1.312581e+00 3.227799e-01 1.577388e-01 1.228989e-01 2.186559e-01 3.607601e-01 4.915122e-01 4.315602e-01 2.266832e-01 5.419656e-01 8.125132e-01 3.824848e-01 3.031594e-01 2.716287e-01
<GCONST> 1.108549e+02
<MIXTURE> 2 5.000000e-01
<MEAN> 39
 4.244120e+00 8.829395e+00 4.297223e+00 -3.228927e+00 -4.435107e+00 -1.131680e+01 1.898161e+00 -4.541351e+00 -5.986617e+00 6.124397e+00 -5.094346e+00 -2.404087e+00 3.411999e-02 1.523099e-01 -2.041185e-02 1.562649e-01 2.371128e-01 -5.273479e-01 4.239120e-01 1.389188e-01 2.767710e-01 4.911942e-02 -4.073880e-01 -3.180018e-02 -1.974265e-01 1.790866e-01 -8.643225e-02 -3.276683e-02 -6.114946e-03 7.417356e-03 5.609668e-02 7.415067e-02 -2.770879e-02 -1.764053e-03 -5.555504e-03 -1.501444e-02 1.340402e-02 -9.942614e-03 9.198281e-03
<VARIANCE> 39
 5.381544e+01 6.917861e+01 2.065372e+01 3.212849e+01 6.473588e+01 9.116981e+01 2.828428e+01 3.165093e+01 3.166414e+01 4.933789e+01 2.502263e+01 3.244138e+01 1.630908e+01 1.547624e+00 9.563429e-01 7.326311e-01 1.091139e+00 1.982923e+00 2.807393e+00 2.100866e+00 1.419879e+00 2.930634e+00 4.061117e+00 2.151867e+00 1.762352e+00 1.312581e+00 3.227799e-01 1.577388e-01 1.228989e-01 2.186559e-01 3.607601e-01 4.915122e-01 4.315602e-01 2.266832e-01 5.419656e-01 8.125132e-01 3.824848e-01 3.031594e-01 2.716287e-01
<GCONST> 1.108549e+02
<STATE> 4
<NUMMIXES> 2
<MIXTURE> 1 5.000000e-01
<MEAN> 39
 -8.515919e-01 4.638760e+00 3.519542e+00 -7.753290e-01 -1.019954e+01 -5.891533e+00 1.865226e-01 -6.638237e-01 -7.446971e+00 3.168190e+00 -4.798596e+00 -3.895226e+00 1.393335e+00 -4.033954e-01 -3.354699e-01 -3.057166e-01 -5.986916e-02 -1.503666e-02 3.827300e-03 -3.291882e-02 2.583385e-01 1.872148e-02 1.865525e-02 9.637754e-02 -1.450763e-02 -1.501853e-01 3.308104e-02 3.444391e-02 -1.018451e-02 -1.863676e-02 -2.894774e-05 -8.768189e-02 -3.659390e-02 4.138533e-02 3.656238e-02 1.120709e-02 -6.480017e-02 1.764715e-02 -1.268195e-02
<VARIANCE> 39
 5.714908e+01 5.899466e+01 5.806119e+01 4.219471e+01 4.550913e+01 6.740897e+01 4.061217e+01 3.816339e+01 3.558959e+01 3.238710e+01 4.210960e+01 2.203798e+01 3.121406e+01 5.652292e+00 3.025731e+00 2.757400e+00 2.439517e+00 3.003271e+00 5.340600e+00 2.939335e+00 2.173709e+00 2.367920e+00 2.845461e+00 2.620176e+00 1.874442e+00 1.898617e+00 9.806697e-01 5.364406e-01 4.593308e-01 4.373692e-01 5.574443e-01 7.765427e-01 5.849392e-01 2.752738e-01 4.738886e-01 5.658216e-01 4.920123e-01 3.063682e-01 3.627409e-01
<GCONST> 1.246845e+02
<MIXTURE> 2 5.000000e-01
<MEAN> 39
 -8.515919e-01 4.638760e+00 3.519542e+00 -7.753290e-01 -1.019954e+01 -5.891533e+00 1.865226e-01 -6.638237e-01 -7.446971e+00 3.168190e+00 -4.798596e+00 -3.895226e+00 1.393335e+00 -4.033954e-01 -3.354699e-01 -3.057166e-01 -5.986916e-02 -1.503666e-02 3.827300e-03 -3.291882e-02 2.583385e-01 1.872148e-02 1.865525e-02 9.637754e-02 -1.450763e-02 -1.501853e-01 3.308104e-02 3.444391e-02 -1.018451e-02 -1.863676e-02 -2.894774e-05 -8.768189e-02 -3.659390e-02 4.138533e-02 3.656238e-02 1.120709e-02 -6.480017e-02 1.764715e-02 -1.268195e-02
<VARIANCE> 39
 5.714908e+01 5.899466e+01 5.806119e+01 4.219471e+01 4.550913e+01 6.740897e+01 4.061217e+01 3.816339e+01 3.558959e+01 3.238710e+01 4.210960e+01 2.203798e+01 3.121406e+01 5.652292e+00 3.025731e+00 2.757400e+00 2.439517e+00 3.003271e+00 5.340600e+00 2.939335e+00 2.173709e+00 2.367920e+00 2.845461e+00 2.620176e+00 1.874442e+00 1.898617e+00 9.806697e-01 5.364406e-01 4.593308e-01 4.373692e-01 5.574443e-01 7.765427e-01 5.849392e-01 2.752738e-01 4.738886e-01 5.658216e-01 4.920123e-01 3.063682e-01 3.627409e-01
<GCONST> 1.246845e+02
<TRANSP> 5
 0.000000e+00 1.000000e+00 0.000000e+00 0.000000e+00 0.000000e+00
 0.000000e+00 9.222932e-01 7.770673e-02 0.000000e+00 0.000000e+00
 0.000000e+00 0.000000e+00 9.127348e-01 8.726518e-02 0.000000e+00
 0.000000e+00 0.000000e+00 0.000000e+00 9.545443e-01 4.545565e-02
 0.000000e+00 0.000000e+00 0.000000e+00 0.000000e+00 0.000000e+00
<ENDHMM>
~h "g"
<BEGINHMM>
<NUMSTATES> 5
<STATE> 2
<NUMMIXES> 2
<MIXTURE> 1 5.000000e-01
<MEAN> 39
 6.070788e-01 -4.137808e+00 -3.442368e+00 -9.958885e-02 -3.225120e+00 -6.630744e+00 4.620011e+00 9.113093e-01 -1.291634e+01 -2.325906e-01 2.577298e+00 -3.367597e+00 -1.904122e-01 1.884362e-01 4.495673e-02 2.225281e-01 -8.608937e-02 -2.333824e-01 4.333600e-02 -1.340202e-01 8.683972e-02 6.818197e-02 1.624152e-01 -8.431708e-02 -1.093138e-01 1.431563e-02 -3.099279e-02 -7.154403e-03 2.051426e-02 -3.157931e-02 2.449317e-02 1.424754e-02 -1.990146e-02 1.959701e-03 5.233882e-02 -1.015715e-02 -1.948172e-02 1.603513e-02 -9.942652e-03
<VARIANCE> 39
 2.710475e+01 5.451571e+01 5.016224e+01 1.924384e+01 5.202594e+01 5.573409e+01 4.704258e+01 3.543570e+01 1.813038e+01 2.617655e+01 1.996402e+01 1.605041e+01 1.195332e+01 1.097175e+00 2.122575e+00 1.274216e+00 2.224223e+00 2.382408e+00 3.149463e+00 2.029188e+00 2.433514e+00 1.507384e+00 1.839772e+00 1.183875e+00 1.392357e+00 7.596914e-01 1.458297e-01 3.128029e-01 1.461750e-01 4.468428e-01 3.729314e-01 4.571964e-01 3.153211e-01 3.550869e-01 2.827765e-01 2.984342e-01 2.051158e-01 2.130594e-01 1.396461e-01
<GCONST> 1.050506e+02
<MIXTURE> 2 5.000000e-01
<MEAN> 39
 6.070788e-01 -4.137808e+00 -3.442368e+00 -9.958885e-02 -3.225120e+00 -6.630744e+00 4.620011e+00 9.113093e-01 -1.291634e+01 -2.325906e-01 2.577298e+00 -3.367597e+00 -1.904122e-01 1.884362e-01 4.495673e-02 2.225281e-01 -8.608937e-02 -2.333824e-01 4.333600e-02 -1.340202e-01 8.683972e-02 6.818197e-02 1.624152e-01 -8.431708e-02 -1.093138e-01 1.431563e-02 -3.099279e-02 -7.154403e-03 2.051426e-02 -3.157931e-02 2.449317e-02 1.424754e-02 -1.990146e-02 1.959701e-03 5.233882e-02 -1.015715e-02 -1.948172e-02 1.603513e-02 -9.942652e-03
<VARIANCE> 39
 2.710475e+01 5.451571e+01 5.016224e+01 1.924384e+01 5.202594e+01 5.573409e+01 4.704258e+01 3.543570e+01 1.813038e+01 2.617655e+01 1.996402e+01 1.605041e+01 1.195332e+01 1.097175e+00 2.122575e+00 1.274216e+00 2.224223e+00 2.382408e+00 3.149463e+00 2.029188e+00 2.433514e+00 1.507384e+00 1.839772e+00 1.183875e+00 1.392357e+00 7.596914e-01 1.458297e-01 3.128029e-01 1.461750e-01 4.468428e-01 3.729314e-01 4.571964e-01 3.153211e-01 3.550869e-01 2.827765e-01 2.984342e-01 2.051158e-01 2.130594e-01 1.396461e-01
<GCONST> 1.050506e+02
<STATE> 3
<NUMMIXES> 2
<MIXTURE> 1 5.000000e-01
<MEAN> 39
 1.440656e+00 2.440646e+00 -1.900370e-01 -3.884491e+00 -5.329786e+00 -1.098504e+01 1.885738e-01 3.773535e+00 -8.780343e+00 2.415130e+00 1.109655e+00 -5.961255e+00 -8.780975e-01 -3.900959e-01 4.165287e-01 -2.504761e-01 1.377802e-02 3.519908e-01 -4.570586e-01 -4.317605e-02 2.265391e-01 2.188343e-01 -3.786881e-01 1.051591e-01 1.215186e-01 -1.416311e-01 -2.841722e-02 -1.908288e-02 2.878580e-02 7.456055e-02 2.171421e-03 -7.788370e-03 -8.595257e-03 -7.381417e-02 5.981696e-03 -5.406454e-02 1.244380e-02 4.734216e-02 2.376477e-02
<VARIANCE> 39
 1.853083e+01 3.739326e+01 4.967643e+01 2.293217e+01 3.784205e+01 9.519956e+01 5.303047e+01 4.485751e+01 1.604119e+01 2.147989e+01 2.819379e+01 1.303948e+01 7.448142e+00 1.052764e+00 3.081315e+00 1.666779e+00 2.305058e+00 4.329144e+00 7.301028e+00 3.134021e+00 2.368252e+00 2.175829e+00 3.063747e+00 2.686208e+00 1.754232e+00 7.650555e-01 1.650916e-01 4.689468e-01 2.142813e-01 4.549036e-01 8.472537e-01 9.198571e-01 5.993357e-01 3.291498e-01 4.285910e-01 5.932328e-01 4.878361e-01 3.384703e-01 1.438614e-01
<GCONST> 1.142688e+02
<MIXTURE> 2 5.000000e-01
<MEAN> 39
 1.440656e+00 2.440646e+00 -1.900370e-01 -3.884491e+00 -5.329786e+00 -1.098504e+01 1.885738e-01 3.773535e+00 -8.780343e+00 2.415130e+00 1.109655e+00 -5.961255e+00 -8.780975e-01 -3.900959e-01 4.165287e-01 -2.504761e-01 1.377802e-02 3.519908e-01 -4.570586e-01 -4.317605e-02 2.265391e-01 2.188343e-01 -3.786881e-01 1.051591e-01 1.215186e-01 -1.416311e-01 -2.841722e-02 -1.908288e-02 2.878580e-02 7.456055e-02 2.171421e-03 -7.788370e-03 -8.595257e-03 -7.381417e-02 5.981696e-03 -5.406454e-02 1.244380e-02 4.734216e-02 2.376477e-02
<VARIANCE> 39
 1.853083e+01 3.739326e+01 4.967643e+01 2.293217e+01 3.784205e+01 9.519956e+01 5.303047e+01 4.485751e+01 1.604119e+01 2.147989e+01 2.819379e+01 1.303948e+01 7.448142e+00 1.052764e+00 3.081315e+00 1.666779e+00 2.305058e+00 4.329144e+00 7.301028e+00 3.134021e+00 2.368252e+00 2.175829e+00 3.063747e+00 2.686208e+00 1.754232e+00 7.650555e-01 1.650916e-01 4.689468e-01 2.142813e-01 4.549036e-01 8.472537e-01 9.198571e-01 5.993357e-01 3.291498e-01 4.285910e-01 5.932328e-01 4.878361e-01 3.384703e-01 1.438614e-01
<GCONST> 1.142688e+02
<STATE> 4
<NUMMIXES> 2
<MIXTURE> 1 5.000000e-01
<MEAN> 39
 -1.240653e+00 3.143061e+00 -3.612755e+00 -2.252886e+00 -3.481223e+00 -1.473611e+01 4.012768e+00 3.433869e+00 -8.046417e+00 6.967527e-01 1.825611e+00 -5.212036e+00 -1.905386e+00 -4.219845e-01 -4.710201e-01 -1.390621e-01 1.406415e-01 4.290664e-02 6.255602e-01 5.071920e-01 -4.345134e-01 3.011503e-02 -2.935874e-01 -3.101417e-01 2.231469e-01 1.874744e-02 3.341468e-02 -2.911431e-02 -9.893873e-03 -1.566866e-02 3.508391e-02 9.444670e-02 -2.287700e-02 -2.409469e-02 -5.347947e-02 1.508247e-01 -6.158362e-02 3.318241e-03 2.566384e-03
<VARIANCE> 39
 1.278693e+01 4.909286e+01 6.788975e+01 1.835302e+01 4.241922e+01 1.279921e+02 9.087060e+01 4.351456e+01 2.680237e+01 2.421320e+01 2.990806e+01 1.185017e+01 9.215235e+00 9.528334e-01 3.051596e+00 1.659868e+00 1.539827e+00 4.056268e+00 8.623508e+00 2.911628e+00 2.024839e+00 3.411523e+00 3.471466e+00 2.628380e+00 9.124716e-01 1.363488e+00 1.670243e-01 4.323155e-01 2.678384e-01 2.939928e-01 7.349048e-01 9.998772e-01 5.535610e-01 2.711461e-01 6.308990e-01 8.184439e-01 4.996999e-01 1.952776e-01 2.253792e-01
<GCONST> 1.158347e+02
<MIXTURE> 2 5.000000e-01
<MEAN> 39
 -1.240653e+00 3.143061e+00 -3.612755e+00 -2.252886e+00 -3.481223e+00 -1.473611e+01 4.012768e+00 3.433869e+00 -8.046417e+00 6.967527e-01 1.825611e+00 -5.212036e+00 -1.905386e+00 -4.219845e-01 -4.710201e-01 -1.390621e-01 1.406415e-01 4.290664e-02 6.255602e-01 5.071920e-01 -4.345134e-01 3.011503e-02 -2.935874e-01 -3.101417e-01 2.231469e-01 1.874744e-02 3.341468e-02 -2.911431e-02 -9.893873e-03 -1.566866e-02 3.508391e-02 9.444670e-02 -2.287700e-02 -2.409469e-02 -5.347947e-02 1.508247e-01 -6.158362e-02 3.318241e-03 2.566384e-03
<VARIANCE> 39
 1.278693e+01 4.909286e+01 6.788975e+01 1.835302e+01 4.241922e+01 1.279921e+02 9.087060e+01 4.351456e+01 2.680237e+01 2.421320e+01 2.990806e+01 1.185017e+01 9.215235e+00 9.528334e-01 3.051596e+00 1.659868e+00 1.539827e+00 4.056268e+00 8.623508e+00 2.911628e+00 2.024839e+00 3.411523e+00 3.471466e+00 2.628380e+00 9.124716e-01 1.363488e+00 1.670243e-01 4.323155e-01 2.678384e-01 2.939928e-01 7.349048e-01 9.998772e-01 5.535610e-01 2.711461e-01 6.308990e-01 8.184439e-01 4.996999e-01 1.952776e-01 2.253792e-01
<GCONST> 1.158347e+02
<TRANSP> 5
 0.000000e+00 1.000000e+00 0.000000e+00 0.000000e+00 0.000000e+00
 0.000000e+00 9.621689e-01 3.783110e-02 0.000000e+00 0.000000e+00
 0.000000e+00 0.000000e+00 8.781972e-01 1.218027e-01 0.000000e+00
 0.000000e+00 0.000000e+00 0.000000e+00 8.448452e-01 1.551548e-01
 0.000000e+00 0.000000e+00 0.000000e+00 0.000000e+00 0.000000e+00
<ENDHMM>
~h "h"
<BEGINHMM>
<NUMSTATES> 5
<STATE> 2
<NUMMIXES> 2
<MIXTURE> 1 5.000000e-01
<MEAN> 39
 -5.090050e+00 -3.132016e+00 -4.519029e+00 1.789225e+00 3.616889e+00 -4.408761e-01 1.673689e+00 5.049670e-01 -1.650945e-02 -1.335778e+00 -2.759099e+00 -3.085839e-01 1.605005e+00 9.980403e-02 2.289960e-01 -5.371964e-01 4.395728e-01 6.608328e-01 -2.594480e-01 -6.455560e-01 8.814689e-02 5.219240e-01 -1.838933e-01 -2.107596e-01 7.849548e-02 -1.254752e-02 -6.072904e-02 6.819303e-02 2.033402e-02 -1.877637e-02 -8.974164e-02 3.996017e-02 1.852546e-02 -1.220950e-01 -4.987483e-02 -3.185609e-02 -4.226857e-02 -9.573055e-02 -7.834294e-02
<VARIANCE> 39
 2.761402e+01 3.894276e+01 7.319194e+01 1.074934e+02 3.871531e+01 4.561697e+01 3.734266e+01 3.917739e+01 3.850289e+01 4.477729e+01 2.209546e+01 2.466010e+01 2.403730e+01 5.352018e-01 8.736524e-01 2.249395e+00 3.158384e+00 2.385038e+00 2.640400e+00 2.942434e+00 3.316729e+00 3.781344e+00 4.304943e+00 3.243412e+00 2.794055e+00 3.104408e+00 1.038613e-01 1.295913e-01 3.126009e-01 6.626844e-01 3.995391e-01 6.025038e-01 6.710893e-01 6.668081e-01 6.782132e-01 8.850514e-01 6.830887e-01 5.424033e-01 6.112794e-01
<GCONST> 1.206652e+02
<MIXTURE> 2 5.000000e-01
<MEAN> 39
 -5.090050e+00 -3.132016e+00 -4.519029e+00 1.789225e+00 3.616889e+00 -4.408761e-01 1.673689e+00 5.049670e-01 -1.650945e-02 -1.335778e+00 -2.759099e+00 -3.085839e-01 1.605005e+00 9.980403e-02 2.289960e-01 -5.371964e-01 4.395728e-01 6.608328e-01 -2.594480e-01 -6.455560e-01 8.814689e-02 5.219240e-01 -1.838933e-01 -2.107596e-01 7.849548e-02 -1.254752e-02 -6.072904e-02 6.819303e-02 2.033402e-02 -1.877637e-02 -8.974164e-02 3.996017e-02 1.852546e-02 -1.220950e-01 -4.987483e-02 -3.185609e-02 -4.226857e-02 -9.573055e-02 -7.834294e-02
<VARIANCE> 39
 2.761402e+01 3.894276e+01 7.319194e+01 1.074934e+02 3.871531e+01 4.561697e+01 3.734266e+01 3.917739e+01 3.850289e+01 4.477729e+01 2.209546e+01 2.466010e+01 2.403730e+01 5.352018e-01 8.736524e-01 2.249395e+00 3.158384e+00 2.385038e+00 2.640400e+00 2.942434e+00 3.316729e+00 3.781344e+00 4.304943e+00 3.243412e+00 2.794055e+00 3.104408e+00 1.038613e-01 1.295913e-01 3.126009e-01 6.626844e-01 3.995391e-01 6.025038e-01 6.710893e-01 6.668081e-01 6.782132e-01 8.850514e-01 6.830887e-01 5.424033e-01 6.112794e-01
<GCONST> 1.206652e+02
<STATE> 3
<NUMMIXES> 2
<MIXTURE> 1 5.000000e-01
<MEAN> 39
 -5.565612e+00 -1.456781e+00 -5.149118e+00 2.802754e+00 4.905485e+00 -6.384275e-01 -6.067228e-01 -9.619564e-01 1.095161e+00 -1.893765e+00 -3.527333e+00 -1.395891e+00 6.321178e-01 -4.543775e-02 1.942067e-01 -2.824523e-01 2.165950e-01 1.520957e-01 -1.331158e-02 -3.317830e-01 -2.688073e-01 1.432708e-01 -1.237888e-01 -1.074599e-01 -1.879676e-01 -8.079671e-02 -2.012747e-02 -1.881878e-02 3.534419e-02 -5.570656e-02 -6.151551e-02 2.592282e-02 8.247463e-02 -1.589496e-02 -2.105136e-02 -3.912082e-02 1.833724e-02 -2.010216e-02 1.428476e-02
<VARIANCE> 39
 2.381735e+01 4.220994e+01 9.576620e+01 9.571516e+01 2.945913e+01 3.869088e+01 3.107914e+01 3.386280e+01 3.578527e+01 3.129542e+01 2.318118e+01 2.271930e+01 1.801114e+01 5.714468e-01 7.837918e-01 1.774459e+00 3.412077e+00 2.131941e+00 2.880882e+00 3.152134e+00 3.396368e+00 3.256447e+00 4.102397e+00 3.091880e+00 2.716350e+00 2.259033e+00 1.234435e-01 1.487505e-01 2.877896e-01 7.087346e-01 3.729635e-01 5.494472e-01 6.943896e-01 6.579805e-01 7.230719e-01 8.659385e-01 6.812552e-01 5.876856e-01 4.979333e-01
<GCONST> 1.185718e+02
<MIXTURE> 2 5.000000e-01
<MEAN> 39
 -5.565612e+00 -1.456781e+00 -5.149118e+00 2.802754e+00 4.905485e+00 -6.384275e-01 -6.067228e-01 -9.619564e-01 1.095161e+00 -1.893765e+00 -3.527333e+00 -1.395891e+00 6.321178e-01 -4.543775e-02 1.942067e-01 -2.824523e-01 2.165950e-01 1.520957e-01 -1.331158e-02 -3.317830e-01 -2.688073e-01 1.432708e-01 -1.237888e-01 -1.074599e-01 -1.879676e-01 -8.079671e-02 -2.012747e-02 -1.881878e-02 3.534419e-02 -5.570656e-02 -6.151551e-02 2.592282e-02 8.247463e-02 -1.589496e-02 -2.105136e-02 -3.912082e-02 1.833724e-02 -2.010216e-02 1.428476e-02
<VARIANCE> 39
 2.381735e+01 4.220994e+01 9.576620e+01 9.571516e+01 2.945913e+01 3.869088e+01 3.107914e+01 3.386280e+01 3.578527e+01 3.129542e+01 2.318118e+01 2.271930e+01 1.801114e+01 5.714468e-01 7.837918e-01 1.774459e+00 3.412077e+00 2.131941e+00 2.880882e+00 3.152134e+00 3.396368e+00 3.256447e+00 4.102397e+00 3.091880e+00 2.716350e+00 2.259033e+00 1.234435e-01 1.487505e-01 2.877896e-01 7.087346e-01 3.729635e-01 5.494472e-01 6.943896e-01 6.579805e-01 7.230719e-01 8.659385e-01 6.812552e-01 5.876856e-01 4.979333e-01
<GCONST> 1.185718e+02
<STATE> 4
<NUMMIXES> 2
<MIXTURE> 1 5.000000e-01
<MEAN> 39
 -6.666996e+00 6.698897e-01 -2.532287e+00 1.508333e+00 4.430338e+00 4.978019e-01 -1.970122e+00 -2.093871e+00 7.986607e-01 -2.174818e+00 -3.101830e+00 -2.575189e+00 9.754410e-02 5.731831e-02 2.250348e-01 -1.268069e-01 -1.188808e-01 -3.545211e-02 -2.298256e-02 -2.405065e-01 -2.627623e-02 1.042453e-01 -1.122351e-01 1.249417e-02 -1.418860e-01 -2.028363e-02 3.754895e-02 1.108897e-02 -1.961494e-02 -4.654989e-02 -1.266387e-02 -3.869715e-02 2.620950e-02 3.247830e-02 3.895814e-02 1.699419e-03 -1.752518e-03 -4.029443e-03 -1.292334e-02
<VARIANCE> 39
 1.915845e+01 5.293718e+01 8.867453e+01 8.764632e+01 2.222876e+01 3.112104e+01 3.911190e+01 2.971579e+01 2.779986e+01 2.348902e+01 2.281505e+01 1.972984e+01 1.370038e+01 8.822005e-01 1.184386e+00 1.177633e+00 3.387864e+00 1.967313e+00 2.419653e+00 4.100690e+00 3.994566e+00 3.336504e+00 3.836189e+00 2.757365e+00 2.599483e+00 1.906550e+00 1.580408e-01 2.104731e-01 2.139588e-01 7.269461e-01 3.954033e-01 4.457471e-01 8.280079e-01 8.244653e-01 7.363677e-01 8.356062e-01 6.286353e-01 5.771518e-01 4.126277e-01
<GCONST> 1.175451e+02
<MIXTURE> 2 5.000000e-01
<MEAN> 39
 -6.666996e+00 6.698897e-01 -2.532287e+00 1.508333e+00 4.430338e+00 4.978019e-01 -1.970122e+00 -2.093871e+00 7.986607e-01 -2.174818e+00 -3.101830e+00 -2.575189e+00 9.754410e-02 5.731831e-02 2.250348e-01 -1.268069e-01 -1.188808e-01 -3.545211e-02 -2.298256e-02 -2.405065e-01 -2.627623e-02 1.042453e-01 -1.122351e-01 1.249417e-02 -1.418860e-01 -2.028363e-02 3.754895e-02 1.108897e-02 -1.961494e-02 -4.654989e-02 -1.266387e-02 -3.869715e-02 2.620950e-02 3.247830e-02 3.895814e-02 1.699419e-03 -1.752518e-03 -4.029443e-03 -1.292334e-02
<VARIANCE> 39
 1.915845e+01 5.293718e+01 8.867453e+01 8.764632e+01 2.222876e+01 3.112104e+01 3.911190e+01 2.971579e+01 2.779986e+01 2.348902e+01 2.281505e+01 1.972984e+01 1.370038e+01 8.822005e-01 1.184386e+00 1.177633e+00 3.387864e+00 1.967313e+00 2.419653e+00 4.100690e+00 3.994566e+00 3.336504e+00 3.836189e+00 2.757365e+00 2.599483e+00 1.906550e+00 1.580408e-01 2.104731e-01 2.139588e-01 7.269461e-01 3.954033e-01 4.457471e-01 8.280079e-01 8.244653e-01 7.363677e-01 8.356062e-01 6.286353e-01 5.771518e-01 4.126277e-01
<GCONST> 1.175451e+02
<TRANSP> 5
 0.000000e+00 1.000000e+00 0.000000e+00 0.000000e+00 0.000000e+00
 0.000000e+00 7.670694e-01 2.329306e-01 0.000000e+00 0.000000e+00
 0.000000e+00 0.000000e+00 8.102549e-01 1.897451e-01 0.000000e+00
 0.000000e+00 0.000000e+00 0.000000e+00 8.742823e-01 1.257177e-01
 0.000000e+00 0.000000e+00 0.000000e+00 0.000000e+00 0.000000e+00
<ENDHMM>
~h "i"
<BEGINHMM>
<NUMSTATES> 7
<STATE> 2
<NUMMIXES> 2
<MIXTURE> 1 5.000000e-01
<MEAN> 39
 -4.369523e+00 5.054614e+00 5.105686e+00 -1.063274e+01 -6.437374e+00 -1.792226e+00 -6.994228e+00 -2.202690e+00 -1.399823e+00 -3.717251e-01 -7.624457e+00 -1.555334e-01 1.228625e+00 3.728487e-02 2.676401e-01 3.141522e-01 -3.519554e-01 -1.739175e-01 3.038719e-01 -3.779940e-01 1.858913e-01 3.529350e-01 -1.622404e-02 -2.217672e-01 3.445799e-02 1.913028e-01 -1.609761e-02 -2.816114e-02 -3.420272e-02 5.601031e-02 1.285650e-01 -6.014628e-02 3.968228e-03 -1.035259e-02 -6.216337e-03 -2.126215e-02 1.579036e-02 3.341347e-02 -4.917137e-02
<VARIANCE> 39
 4.081448e+01 4.082907e+01 1.872751e+01 4.761286e+01 3.480344e+01 5.419510e+01 7.512906e+01 2.423019e+01 3.347085e+01 3.453492e+01 3.573276e+01 1.345936e+01 2.147205e+01 8.796653e-01 8.505945e-01 7.919366e-01 1.936100e+00 1.398513e+00 2.693555e+00 1.941447e+00 1.722884e+00 2.061400e+00 1.912843e+00 2.060149e+00 1.062242e+00 1.178105e+00 1.153131e-01 1.275248e-01 1.274592e-01 2.475122e-01 2.330800e-01 3.621226e-01 2.957229e-01 3.521033e-01 3.468089e-01 3.353094e-01 3.848437e-01 2.085898e-01 1.890665e-01
<GCONST> 1.034734e+02
<MIXTURE> 2 5.000000e-01
<MEAN> 39
 -4.369523e+00 5.054614e+00 5.105686e+00 -1.063274e+01 -6.437374e+00 -1.792226e+00 -6.994228e+00 -2.202690e+00 -1.399823e+00 -3.717251e-01 -7.624457e+00 -1.555334e-01 1.228625e+00 3.728487e-02 2.676401e-01 3.141522e-01 -3.519554e-01 -1.739175e-01 3.038719e-01 -3.779940e-01 1.858913e-01 3.529350e-01 -1.622404e-02 -2.217672e-01 3.445799e-02 1.913028e-01 -1.609761e-02 -2.816114e-02 -3.420272e-02 5.601031e-02 1.285650e-01 -6.014628e-02 3.968228e-03 -1.035259e-02 -6.216337e-03 -2.126215e-02 1.579036e-02 3.341347e-02 -4.917137e-02
<VARIANCE> 39
 4.081448e+01 4.082907e+01 1.872751e+01 4.761286e+01 3.480344e+01 5.419510e+01 7.512906e+01 2.423019e+01 3.347085e+01 3.453492e+01 3.573276e+01 1.345936e+01 2.147205e+01 8.796653e-01 8.505945e-01 7.919366e-01 1.936100e+00 1.398513e+00 2.693555e+00 1.941447e+00 1.722884e+00 2.061400e+00 1.912843e+00 2.060149e+00 1.062242e+00 1.178105e+00 1.153131e-01 1.275248e-01 1.274592e-01 2.475122e-01 2.330800e-01 3.621226e-01 2.957229e-01 3.521033e-01 3.468089e-01 3.353094e-01 3.848437e-01 2.085898e-01 1.890665e-01
<GCONST> 1.034734e+02
<STATE> 3
<NUMMIXES> 2
<MIXTURE> 1 5.000000e-01
<MEAN> 39
 -4.323081e+00 4.264930e+00 5.594937e+00 -1.220653e+01 -6.016152e+00 -8.620199e-01 -6.238567e+00 -2.124456e+00 -6.393816e-01 -1.199019e+00 -8.490749e+00 -5.827698e-01 1.996383e+00 -5.371920e-02 1.591571e-01 2.172281e-01 -2.502844e-01 6.950603e-02 7.556208e-02 -2.914718e-01 1.312233e-01 3.156881e-01 -1.446970e-01 7.659218e-03 8.717120e-02 -9.769910e-02 1.464066e-02 -1.667468e-02 -1.006333e-02 4.948385e-02 4.089521e-02 -7.497700e-02 2.603208e-02 2.677925e-04 -3.826779e-02 2.122995e-02 4.946473e-02 7.452410e-03 -4.694719e-02
<VARIANCE> 39
 2.303808e+01 3.223418e+01 2.191967e+01 6.513039e+01 3.424689e+01 4.399825e+01 8.023573e+01 2.781991e+01 2.633805e+01 3.439898e+01 4.866221e+01 1.882521e+01 1.538454e+01 5.124756e-01 5.802961e-01 6.729996e-01 1.315004e+00 8.081988e-01 1.926812e+00 1.191730e+00 1.853659e+00 1.644320e+00 1.212634e+00 1.579852e+00 1.122626e+00 9.814371e-01 5.659280e-02 7.510402e-02 1.103971e-01 1.920589e-01 1.394252e-01 2.563832e-01 1.396770e-01 3.555005e-01 2.604294e-01 2.329334e-01 2.518150e-01 1.978147e-01 1.696234e-01
<GCONST> 9.486269e+01
<MIXTURE> 2 5.000000e-01
<MEAN> 39
 -4.323081e+00 4.264930e+00 5.594937e+00 -1.220653e+01 -6.016152e+00 -8.620199e-01 -6.238567e+00 -2.124456e+00 -6.393816e-01 -1.199019e+00 -8.490749e+00 -5.827698e-01 1.996383e+00 -5.371920e-02 1.591571e-01 2.172281e-01 -2.502844e-01 6.950603e-02 7.556208e-02 -2.914718e-01 1.312233e-01 3.156881e-01 -1.446970e-01 7.659218e-03 8.717120e-02 -9.769910e-02 1.464066e-02 -1.667468e-02 -1.006333e-02 4.948385e-02 4.089521e-02 -7.497700e-02 2.603208e-02 2.677925e-04 -3.826779e-02 2.122995e-02 4.946473e-02 7.452410e-03 -4.694719e-02
<VARIANCE> 39
 2.303808e+01 3.223418e+01 2.191967e+01 6.513039e+01 3.424689e+01 4.399825e+01 8.023573e+01 2.781991e+01 2.633805e+01 3.439898e+01 4.866221e+01 1.882521e+01 1.538454e+01 5.124756e-01 5.802961e-01 6.729996e-01 1.315004e+00 8.081988e-01 1.926812e+00 1.191730e+00 1.853659e+00 1.644320e+00 1.212634e+00 1.579852e+00 1.122626e+00 9.814371e-01 5.659280e-02 7.510402e-02 1.103971e-01 1.920589e-01 1.394252e-01 2.563832e-01 1.396770e-01 3.555005e-01 2.604294e-01 2.329334e-01 2.518150e-01 1.978147e-01 1.696234e-01
<GCONST> 9.486269e+01
<STATE> 4
<NUMMIXES> 2
<MIXTURE> 1 5.000000e-01
<MEAN> 39
 -4.394504e+00 4.744745e+00 6.961108e+00 -1.386693e+01 -5.019004e+00 -1.744873e+00 -7.721339e+00 -1.995114e+00 6.498721e-01 -1.785935e+00 -7.189858e+00 -5.681211e-01 1.126449e+00 1.876839e-02 1.646151e-01 2.413317e-01 -5.334347e-02 1.230100e-01 -1.589942e-01 -3.130261e-01 1.161366e-01 1.343812e-01 6.419303e-02 1.761261e-01 9.051129e-02 -2.060397e-01 1.998080e-02 -8.571491e-03 -2.843749e-03 6.467084e-02 1.783109e-02 -5.805426e-02 2.327779e-02 -8.391048e-03 -6.027025e-02 5.787453e-02 3.682170e-02 -2.114849e-02 -1.344725e-02
<VARIANCE> 39
 1.829330e+01 2.340190e+01 2.547079e+01 7.357453e+01 4.274643e+01 4.290466e+01 6.655222e+01 2.985735e+01 2.128597e+01 3.068339e+01 5.024045e+01 2.152090e+01 1.480093e+01 5.431867e-01 4.295286e-01 7.359655e-01 1.323348e+00 8.311200e-01 1.518896e+00 1.200866e+00 1.639799e+00 1.399644e+00 1.280316e+00 1.045000e+00 1.017139e+00 7.457033e-01 5.575313e-02 5.785432e-02 1.247457e-01 1.951219e-01 1.320046e-01 2.406701e-01 1.187026e-01 2.782266e-01 2.275849e-01 2.456889e-01 1.638313e-01 1.796110e-01 1.227821e-01
<GCONST> 9.150402e+01
<MIXTURE> 2 5.000000e-01
<MEAN> 39
 -4.394504e+00 4.744745e+00 6.961108e+00 -1.386693e+01 -5.019004e+00 -1.744873e+00 -7.721339e+00 -1.995114e+00 6.498721e-01 -1.785935e+00 -7.189858e+00 -5.681211e-01 1.126449e+00 1.876839e-02 1.646151e-01 2.413317e-01 -5.334347e-02 1.230100e-01 -1.589942e-01 -3.130261e-01 1.161366e-01 1.343812e-01 6.419303e-02 1.761261e-01 9.051129e-02 -2.060397e-01 1.998080e-02 -8.571491e-03 -2.843749e-03 6.467084e-02 1.783109e-02 -5.805426e-02 2.327779e-02 -8.391048e-03 -6.027025e-02 5.787453e-02 3.682170e-02 -2.114849e-02 -1.344725e-02
<VARIANCE> 39
 1.829330e+01 2.340190e+01 2.547079e+01 7.357453e+01 4.274643e+01 4.290466e+01 6.655222e+01 2.985735e+01 2.128597e+01 3.068339e+01 5.024045e+01 2.152090e+01 1.480093e+01 5.431867e-01 4.295286e-01 7.359655e-01 1.323348e+00 8.311200e-01 1.518896e+00 1.200866e+00 1.639799e+00 1.399644e+00 1.280316e+00 1.045000e+00 1.017139e+00 7.457033e-01 5.575313e-02 5.785432e-02 1.247457e-01 1.951219e-01 1.320046e-01 2.406701e-01 1.187026e-01 2.782266e-01 2.275849e-01 2.456889e-01 1.638313e-01 1.796110e-01 1.227821e-01
<GCONST> 9.150402e+01
<STATE> 5
<NUMMIXES> 2
<MIXTURE> 1 5.000000e-01
<MEAN> 39
 -3.514577e+00 6.164388e+00 9.118909e+00 -1.411954e+01 -3.150265e+00 -3.446670e+00 -1.078195e+01 -1.813091e+00 6.734515e-01 -1.213547e+00 -5.259692e+00 2.961899e-01 -1.888523e-01 1.031075e-01 1.573010e-01 1.957691e-01 3.237163e-01 1.994026e-01 -1.848124e-01 -1.453565e-01 6.041690e-02 -1.803886e-01 2.436979e-01 1.725554e-01 6.432675e-03 -1.684683e-01 2.012765e-02 5.753543e-03 -2.896431e-02 1.011322e-01 3.549590e-02 -2.960317e-02 3.890692e-02 -2.642528e-02 -6.539510e-02 1.378276e-02 2.902843e-02 -4.201587e-02 -9.536850e-04
<VARIANCE> 39
 2.303899e+01 2.237737e+01 3.143041e+01 7.624859e+01 4.996922e+01 5.367210e+01 4.491950e+01 3.031376e+01 2.188554e+01 2.792524e+01 4.844116e+01 2.632424e+01 1.451984e+01 1.011049e+00 4.579694e-01 1.021104e+00 1.854959e+00 1.055014e+00 2.165883e+00 1.331233e+00 1.445129e+00 1.721546e+00 1.380335e+00 9.869345e-01 1.127878e+00 7.734116e-01 1.075010e-01 7.197002e-02 1.752745e-01 2.239328e-01 1.545332e-01 3.085113e-01 1.285301e-01 2.504742e-01 3.006367e-01 2.492035e-01 1.628976e-01 2.184766e-01 1.180772e-01
<GCONST> 9.647958e+01
<MIXTURE> 2 5.000000e-01
<MEAN> 39
 -3.514577e+00 6.164388e+00 9.118909e+00 -1.411954e+01 -3.150265e+00 -3.446670e+00 -1.078195e+01 -1.813091e+00 6.734515e-01 -1.213547e+00 -5.259692e+00 2.961899e-01 -1.888523e-01 1.031075e-01 1.573010e-01 1.957691e-01 3.237163e-01 1.994026e-01 -1.848124e-01 -1.453565e-01 6.041690e-02 -1.803886e-01 2.436979e-01 1.725554e-01 6.432675e-03 -1.684683e-01 2.012765e-02 5.753543e-03 -2.896431e-02 1.011322e-01 3.549590e-02 -2.960317e-02 3.890692e-02 -2.642528e-02 -6.539510e-02 1.378276e-02 2.902843e-02 -4.201587e-02 -9.536850e-04
<VARIANCE> 39
 2.303899e+01 2.237737e+01 3.143041e+01 7.624859e+01 4.996922e+01 5.367210e+01 4.491950e+01 3.031376e+01 2.188554e+01 2.792524e+01 4.844116e+01 2.632424e+01 1.451984e+01 1.011049e+00 4.579694e-01 1.021104e+00 1.854959e+00 1.055014e+00 2.165883e+00 1.331233e+00 1.445129e+00 1.721546e+00 1.380335e+00 9.869345e-01 1.127878e+00 7.734116e-01 1.075010e-01 7.197002e-02 1.752745e-01 2.239328e-01 1.545332e-01 3.085113e-01 1.285301e-01 2.504742e-01 3.006367e-01 2.492035e-01 1.628976e-01 2.184766e-01 1.180772e-01
<GCONST> 9.647958e+01
<STATE> 6
<NUMMIXES> 2
<MIXTURE> 1 5.000000e-01
<MEAN> 39
 -2.307700e+00 7.543579e+00 1.024091e+01 -1.102419e+01 -1.187054e+00 -3.810643e+00 -1.107643e+01 -2.280403e+00 -1.202482e+00 1.569348e-01 -4.826160e+00 8.080031e-01 -6.678625e-01 3.207975e-02 1.188227e-01 -3.724652e-03 7.302142e-01 2.756919e-01 9.216108e-02 2.302769e-01 9.717549e-02 -4.616619e-01 9.959445e-02 1.093571e-01 -2.398514e-01 -7.870184e-02 -4.103714e-03 -3.256066e-03 -7.755893e-02 1.238632e-02 3.159732e-02 -3.610450e-02 3.956540e-02 5.041265e-02 -1.787679e-03 -7.702237e-02 4.962918e-03 4.992868e-02 1.746978e-02
<VARIANCE> 39
 2.811719e+01 2.812308e+01 4.002992e+01 6.938611e+01 5.345042e+01 7.251154e+01 3.381292e+01 3.173425e+01 2.205635e+01 2.816549e+01 4.608038e+01 3.070354e+01 1.419785e+01 1.894539e+00 9.130611e-01 1.475756e+00 2.677320e+00 1.890100e+00 4.789969e+00 1.257420e+00 1.778104e+00 1.968382e+00 2.139812e+00 1.510789e+00 1.839771e+00 1.129241e+00 1.996846e-01 1.441538e-01 2.388395e-01 3.269536e-01 2.759397e-01 5.334889e-01 1.454029e-01 3.585886e-01 3.734485e-01 3.390349e-01 2.825675e-01 3.757642e-01 1.694016e-01
<GCONST> 1.083191e+02
<MIXTURE> 2 5.000000e-01
<MEAN> 39
 -2.307700e+00 7.543579e+00 1.024091e+01 -1.102419e+01 -1.187054e+00 -3.810643e+00 -1.107643e+01 -2.280403e+00 -1.202482e+00 1.569348e-01 -4.826160e+00 8.080031e-01 -6.678625e-01 3.207975e-02 1.188227e-01 -3.724652e-03 7.302142e-01 2.756919e-01 9.216108e-02 2.302769e-01 9.717549e-02 -4.616619e-01 9.959445e-02 1.093571e-01 -2.398514e-01 -7.870184e-02 -4.103714e-03 -3.256066e-03 -7.755893e-02 1.238632e-02 3.159732e-02 -3.610450e-02 3.956540e-02 5.041265e-02 -1.787679e-03 -7.702237e-02 4.962918e-03 4.992868e-02 1.746978e-02
<VARIANCE> 39
 2.811719e+01 2.812308e+01 4.002992e+01 6.938611e+01 5.345042e+01 7.251154e+01 3.381292e+01 3.173425e+01 2.205635e+01 2.816549e+01 4.608038e+01 3.070354e+01 1.419785e+01 1.894539e+00 9.130611e-01 1.475756e+00 2.677320e+00 1.890100e+00 4.789969e+00 1.257420e+00 1.778104e+00 1.968382e+00 2.139812e+00 1.510789e+00 1.839771e+00 1.129241e+00 1.996846e-01 1.441538e-01 2.388395e-01 3.269536e-01 2.759397e-01 5.334889e-01 1.454029e-01 3.585886e-01 3.734485e-01 3.390349e-01 2.825675e-01 3.757642e-01 1.694016e-01
<GCONST> 1.083191e+02
<TRANSP> 7
 0.000000e+00 1.000000e+00 0.000000e+00 0.000000e+00 0.000000e+00 0.000000e+00 0.000000e+00
 0.000000e+00 8.091553e-01 1.908447e-01 0.000000e+00 0.000000e+00 0.000000e+00 0.000000e+00
 0.000000e+00 0.000000e+00 8.068745e-01 1.931256e-01 0.000000e+00 0.000000e+00 0.000000e+00
 0.000000e+00 0.000000e+00 0.000000e+00 8.127232e-01 1.872768e-01 0.000000e+00 0.000000e+00
 0.000000e+00 0.000000e+00 0.000000e+00 0.000000e+00 8.014718e-01 1.985282e-01 0.000000e+00
 0.000000e+00 0.000000e+00 0.000000e+00 0.000000e+00 0.000000e+00 7.968937e-01 2.031063e-01
 0.000000e+00 0.000000e+00 0.000000e+00 0.000000e+00 0.000000e+00 0.000000e+00 0.000000e+00
<ENDHMM>
~h "j"
<BEGINHMM>
<NUMSTATES> 5
<STATE> 2
<NUMMIXES> 2
<MIXTURE> 1 5.000000e-01
<MEAN> 39
 -3.059270e+00 2.900527e+00 1.340195e+00 -2.280009e+00 -3.518157e+00 -2.857258e+00 9.062103e+00 -8.708408e+00 -8.104430e+00 2.649328e+00 -4.887228e+00 -2.408675e+00 7.891545e-01 -1.118292e-01 -1.593841e-02 1.158930e-01 -4.870083e-03 -1.280502e-03 1.023381e-01 -1.480963e-01 -1.717074e-02 3.045828e-01 4.847191e-02 4.117083e-02 1.304403e-02 4.343291e-04 -1.909540e-02 -7.417642e-03 -4.316360e-03 9.634519e-03 1.623177e-02 -8.880381e-04 -7.164899e-03 8.646674e-03 -9.584448e-06 1.016647e-03 2.031961e-02 -1.850027e-02 -1.831744e-02
<VARIANCE> 39
 3.672354e+01 8.152938e+01 8.824599e+01 2.983686e+01 3.727987e+01 8.098087e+01 1.600824e+02 2.684727e+01 7.206029e+01 7.135403e+01 3.459626e+01 2.995861e+01 1.395353e+01 2.334195e+00 1.798633e+00 2.038020e+00 1.633735e+00 2.089548e+00 4.604842e+00 6.416118e+00 2.438312e+00 3.891102e+00 5.009018e+00 3.526073e+00 1.460691e+00 2.198379e+00 2.890478e-01 3.246935e-01 3.551532e-01 2.439895e-01 4.438248e-01 9.376247e-01 1.471196e+00 5.297191e-01 7.844313e-01 8.856852e-01 6.859157e-01 2.815968e-01 5.160387e-01
<GCONST> 1.265009e+02
<MIXTURE> 2 5.000000e-01
<MEAN> 39
 -3.059270e+00 2.900527e+00 1.340195e+00 -2.280009e+00 -3.518157e+00 -2.857258e+00 9.062103e+00 -8.708408e+00 -8.104430e+00 2.649328e+00 -4.887228e+00 -2.408675e+00 7.891545e-01 -1.118292e-01 -1.593841e-02 1.158930e-01 -4.870083e-03 -1.280502e-03 1.023381e-01 -1.480963e-01 -1.717074e-02 3.045828e-01 4.847191e-02 4.117083e-02 1.304403e-02 4.343291e-04 -1.909540e-02 -7.417642e-03 -4.316360e-03 9.634519e-03 1.623177e-02 -8.880381e-04 -7.164899e-03 8.646674e-03 -9.584448e-06 1.016647e-03 2.031961e-02 -1.850027e-02 -1.831744e-02
<VARIANCE> 39
 3.672354e+01 8.152938e+01 8.824599e+01 2.983686e+01 3.727987e+01 8.098087e+01 1.600824e+02 2.684727e+01 7.206029e+01 7.135403e+01 3.459626e+01 2.995861e+01 1.395353e+01 2.334195e+00 1.798633e+00 2.038020e+00 1.633735e+00 2.089548e+00 4.604842e+00 6.416118e+00 2.438312e+00 3.891102e+00 5.009018e+00 3.526073e+00 1.460691e+00 2.198379e+00 2.890478e-01 3.246935e-01 3.551532e-01 2.439895e-01 4.438248e-01 9.376247e-01 1.471196e+00 5.297191e-01 7.844313e-01 8.856852e-01 6.859157e-01 2.815968e-01 5.160387e-01
<GCONST> 1.265009e+02
<STATE> 3
<NUMMIXES> 2
<MIXTURE> 1 5.000000e-01
<MEAN> 39
 -5.648710e+00 1.448926e+00 3.507794e+00 2.972164e-01 -2.790913e+00 1.642503e+00 1.194605e+00 -8.691079e+00 -1.127050e+00 1.297369e+00 -3.723105e+00 -1.538472e+00 1.443843e+00 -1.746854e-01 -3.344079e-01 -2.759480e-01 -3.199523e-02 -1.626946e-01 2.676068e-01 1.553555e-01 2.785537e-01 7.044419e-02 -7.967407e-02 -1.038080e-01 -5.009895e-02 -6.126473e-02 4.731028e-02 -7.461553e-03 -1.921224e-02 -3.155658e-02 -7.412372e-03 -3.657217e-02 4.764787e-02 1.533357e-02 -3.516630e-02 2.209623e-02 -1.954228e-02 -9.270345e-03 -1.112383e-02
<VARIANCE> 39
 2.248243e+01 7.954524e+01 3.433113e+01 2.968118e+01 3.523995e+01 6.587761e+01 5.827353e+01 3.037600e+01 4.674865e+01 3.805120e+01 3.403485e+01 2.579963e+01 1.403494e+01 1.520576e+00 1.475653e+00 1.596815e+00 1.243331e+00 2.272263e+00 2.588873e+00 3.175013e+00 2.475279e+00 4.279265e+00 3.229577e+00 3.288954e+00 1.953146e+00 2.377146e+00 1.933034e-01 2.705351e-01 2.581085e-01 2.020321e-01 3.770426e-01 4.898861e-01 5.746873e-01 4.651028e-01 9.161993e-01 5.691535e-01 6.661375e-01 3.983434e-01 5.604008e-01
<GCONST> 1.174344e+02
<MIXTURE> 2 5.000000e-01
<MEAN> 39
 -5.648710e+00 1.448926e+00 3.507794e+00 2.972164e-01 -2.790913e+00 1.642503e+00 1.194605e+00 -8.691079e+00 -1.127050e+00 1.297369e+00 -3.723105e+00 -1.538472e+00 1.443843e+00 -1.746854e-01 -3.344079e-01 -2.759480e-01 -3.199523e-02 -1.626946e-01 2.676068e-01 1.553555e-01 2.785537e-01 7.044419e-02 -7.967407e-02 -1.038080e-01 -5.009895e-02 -6.126473e-02 4.731028e-02 -7.461553e-03 -1.921224e-02 -3.155658e-02 -7.412372e-03 -3.657217e-02 4.764787e-02 1.533357e-02 -3.516630e-02 2.209623e-02 -1.954228e-02 -9.270345e-03 -1.112383e-02
<VARIANCE> 39
 2.248243e+01 7.954524e+01 3.433113e+01 2.968118e+01 3.523995e+01 6.587761e+01 5.827353e+01 3.037600e+01 4.674865e+01 3.805120e+01 3.403485e+01 2.579963e+01 1.403494e+01 1.520576e+00 1.475653e+00 1.596815e+00 1.243331e+00 2.272263e+00 2.588873e+00 3.175013e+00 2.475279e+00 4.279265e+00 3.229577e+00 3.288954e+00 1.953146e+00 2.377146e+00 1.933034e-01 2.705351e-01 2.581085e-01 2.020321e-01 3.770426e-01 4.898861e-01 5.746873e-01 4.651028e-01 9.161993e-01 5.691535e-01 6.661375e-01 3.983434e-01 5.604008e-01
<GCONST> 1.174344e+02
<STATE> 4
<NUMMIXES> 2
<MIXTURE> 1 5.000000e-01
<MEAN> 39
 -6.127073e+00 9.496606e-01 2.267863e+00 -1.256407e-02 -2.343162e+00 4.783572e+00 -6.775631e-01 -6.055864e+00 6.294152e-01 -5.899178e-01 -3.736936e+00 1.559888e-03 1.853170e+00 9.145409e-02 -6.095805e-02 -1.879943e-01 -1.248380e-01 -7.056817e-02 -2.470004e-01 1.369643e-01 1.062354e-01 -1.462941e-01 5.384080e-02 9.041012e-04 -6.069591e-02 -7.555614e-02 1.641982e-02 -1.904690e-04 -7.809688e-03 3.474903e-03 3.855041e-02 -4.172680e-02 -1.658630e-02 -5.768967e-03 -3.573671e-03 -3.697125e-02 1.311142e-02 1.470739e-02 -3.412995e-03
<VARIANCE> 39
 1.061860e+01 3.251051e+01 1.907689e+01 2.764375e+01 3.685604e+01 4.328377e+01 4.241346e+01 2.467116e+01 3.420548e+01 2.944059e+01 2.547497e+01 2.678597e+01 1.890122e+01 5.315138e-01 7.370260e-01 1.748940e+00 2.121845e+00 2.913204e+00 2.459276e+00 4.650573e+00 2.317542e+00 3.305264e+00 3.110404e+00 3.319981e+00 2.623907e+00 2.782260e+00 6.550503e-02 1.350212e-01 3.322571e-01 3.856686e-01 5.922177e-01 4.294765e-01 1.005959e+00 5.297430e-01 7.368860e-01 5.675239e-01 7.779084e-01 6.208295e-01 6.609362e-01
<GCONST> 1.139408e+02
<MIXTURE> 2 5.000000e-01
<MEAN> 39
 -6.127073e+00 9.496606e-01 2.267863e+00 -1.256407e-02 -2.343162e+00 4.783572e+00 -6.775631e-01 -6.055864e+00 6.294152e-01 -5.899178e-01 -3.736936e+00 1.559888e-03 1.853170e+00 9.145409e-02 -6.095805e-02 -1.879943e-01 -1.248380e-01 -7.056817e-02 -2.470004e-01 1.369643e-01 1.062354e-01 -1.462941e-01 5.384080e-02 9.041012e-04 -6.069591e-02 -7.555614e-02 1.641982e-02 -1.904690e-04 -7.809688e-03 3.474903e-03 3.855041e-02 -4.172680e-02 -1.658630e-02 -5.768967e-03 -3.573671e-03 -3.697125e-02 1.311142e-02 1.470739e-02 -3.412995e-03
<VARIANCE> 39
 1.061860e+01 3.251051e+01 1.907689e+01 2.764375e+01 3.685604e+01 4.328377e+01 4.241346e+01 2.467116e+01 3.420548e+01 2.944059e+01 2.547497e+01 2.678597e+01 1.890122e+01 5.315138e-01 7.370260e-01 1.748940e+00 2.121845e+00 2.913204e+00 2.459276e+00 4.650573e+00 2.317542e+00 3.305264e+00 3.110404e+00 3.319981e+00 2.623907e+00 2.782260e+00 6.550503e-02 1.350212e-01 3.322571e-01 3.856686e-01 5.922177e-01 4.294765e-01 1.005959e+00 5.297430e-01 7.368860e-01 5.675239e-01 7.779084e-01 6.208295e-01 6.609362e-01
<GCONST> 1.139408e+02
<TRANSP> 5
 0.000000e+00 1.000000e+00 0.000000e+00 0.000000e+00 0.000000e+00
 0.000000e+00 9.609787e-01 3.902129e-02 0.000000e+00 0.000000e+00
 0.000000e+00 0.000000e+00 9.265403e-01 7.345966e-02 0.000000e+00
 0.000000e+00 0.000000e+00 0.000000e+00 9.680908e-01 3.190918e-02
 0.000000e+00 0.000000e+00 0.000000e+00 0.000000e+00 0.000000e+00
<ENDHMM>
~h "k"
<BEGINHMM>
<NUMSTATES> 5
<STATE> 2
<NUMMIXES> 2
<MIXTURE> 1 5.000000e-01
<MEAN> 39
 -6.132808e+00 2.964868e-01 1.381943e+00 -7.522175e-01 -1.906437e+00 -9.424854e-01 -2.308225e+00 -3.306155e+00 -4.844687e+00 -2.634053e+00 -3.031566e+00 -3.048697e+00 3.935896e-01 -2.384171e-01 -1.232100e-01 -4.202241e-03 2.721715e-01 -6.622171e-02 -8.104881e-02 1.990256e-01 -1.449172e-01 -1.035862e-02 -2.473442e-01 -4.977248e-02 2.652253e-02 -1.064548e-02 -4.388751e-02 -1.191865e-01 -4.430819e-02 -4.295484e-02 -9.160767e-03 9.661634e-03 9.047569e-02 -2.471460e-02 9.569503e-02 7.100168e-02 2.959379e-02 8.240572e-03 -5.721691e-03
<VARIANCE> 39
 1.442188e+01 4.134482e+01 3.255612e+01 4.082850e+01 2.861427e+01 3.314585e+01 6.367656e+01 3.915400e+01 2.997588e+01 2.461790e+01 2.790672e+01 2.540418e+01 2.193290e+01 6.200001e-01 2.045459e+00 1.402701e+00 2.702362e+00 2.346386e+00 2.744706e+00 3.713744e+00 3.397426e+00 2.542944e+00 2.875680e+00 2.992790e+00 2.469772e+00 2.343909e+00 1.140553e-01 3.893026e-01 2.265361e-01 5.885805e-01 4.835801e-01 6.045630e-01 8.191433e-01 6.471760e-01 5.655598e-01 5.681084e-01 5.866255e-01 5.349401e-01 4.634347e-01
<GCONST> 1.169443e+02
<MIXTURE> 2 5.000000e-01
<MEAN> 39
 -6.132808e+00 2.964868e-01 1.381943e+00 -7.522175e-01 -1.906437e+00 -9.424854e-01 -2.308225e+00 -3.306155e+00 -4.844687e+00 -2.634053e+00 -3.031566e+00 -3.048697e+00 3.935896e-01 -2.384171e-01 -1.232100e-01 -4.202241e-03 2.721715e-01 -6.622171e-02 -8.104881e-02 1.990256e-01 -1.449172e-01 -1.035862e-02 -2.473442e-01 -4.977248e-02 2.652253e-02 -1.064548e-02 -4.388751e-02 -1.191865e-01 -4.430819e-02 -4.295484e-02 -9.160767e-03 9.661634e-03 9.047569e-02 -2.471460e-02 9.569503e-02 7.100168e-02 2.959379e-02 8.240572e-03 -5.721691e-03
<VARIANCE> 39
 1.442188e+01 4.134482e+01 3.255612e+01 4.082850e+01 2.861427e+01 3.314585e+01 6.367656e+01 3.915400e+01 2.997588e+01 2.461790e+01 2.790672e+01 2.540418e+01 2.193290e+01 6.200001e-01 2.045459e+00 1.402701e+00 2.702362e+00 2.346386e+00 2.744706e+00 3.713744e+00 3.397426e+00 2.542944e+00 2.875680e+00 2.992790e+00 2.469772e+00 2.343909e+00 1.140553e-01 3.893026e-01 2.265361e-01 5.885805e-01 4.835801e-01 6.045630e-01 8.191433e-01 6.471760e-01 5.655598e-01 5.681084e-01 5.866255e-01 5.349401e-01 4.634347e-01
<GCONST> 1.169443e+02
<STATE> 3
<NUMMIXES> 2
<MIXTURE> 1 5.000000e-01
<MEAN> 39
 -7.114178e+00 -1.812220e+00 1.444928e+00 -4.369782e-01 -2.722306e+00 -1.056939e+00 -1.327464e+00 -4.036033e+00 -3.295575e+00 -3.528224e+00 -3.470174e+00 -2.024854e+00 7.250365e-01 -1.382743e-01 -2.599585e-01 -7.370240e-02 -3.235317e-02 -5.924885e-02 -7.098717e-02 2.108004e-01 -8.754161e-02 1.292229e-01 9.903784e-03 2.473362e-02 -5.578386e-03 -3.897377e-02 1.936510e-02 -1.629808e-02 -1.195008e-02 -5.112154e-02 -1.486662e-02 -8.664901e-04 1.202546e-03 2.852920e-02 3.235753e-02 2.920872e-02 1.277159e-02 -1.148203e-02 5.772552e-04
<VARIANCE> 39
 1.682343e+01 5.037021e+01 2.611557e+01 4.690665e+01 3.423634e+01 3.350518e+01 5.474545e+01 4.618855e+01 2.992406e+01 2.458875e+01 2.793511e+01 2.583615e+01 1.975484e+01 1.070003e+00 3.444010e+00 1.760282e+00 2.628888e+00 2.952744e+00 3.259558e+00 4.048861e+00 3.591296e+00 2.858707e+00 2.993627e+00 3.194432e+00 2.625782e+00 2.280494e+00 1.706079e-01 5.532575e-01 3.283972e-01 5.041784e-01 6.201667e-01 7.171813e-01 7.346750e-01 7.307771e-01 6.139567e-01 6.357093e-01 6.823448e-01 5.801695e-01 4.857606e-01
<GCONST> 1.212718e+02
<MIXTURE> 2 5.000000e-01
<MEAN> 39
 -7.114178e+00 -1.812220e+00 1.444928e+00 -4.369782e-01 -2.722306e+00 -1.056939e+00 -1.327464e+00 -4.036033e+00 -3.295575e+00 -3.528224e+00 -3.470174e+00 -2.024854e+00 7.250365e-01 -1.382743e-01 -2.599585e-01 -7.370240e-02 -3.235317e-02 -5.924885e-02 -7.098717e-02 2.108004e-01 -8.754161e-02 1.292229e-01 9.903784e-03 2.473362e-02 -5.578386e-03 -3.897377e-02 1.936510e-02 -1.629808e-02 -1.195008e-02 -5.112154e-02 -1.486662e-02 -8.664901e-04 1.202546e-03 2.852920e-02 3.235753e-02 2.920872e-02 1.277159e-02 -1.148203e-02 5.772552e-04
<VARIANCE> 39
 1.682343e+01 5.037021e+01 2.611557e+01 4.690665e+01 3.423634e+01 3.350518e+01 5.474545e+01 4.618855e+01 2.992406e+01 2.458875e+01 2.793511e+01 2.583615e+01 1.975484e+01 1.070003e+00 3.444010e+00 1.760282e+00 2.628888e+00 2.952744e+00 3.259558e+00 4.048861e+00 3.591296e+00 2.858707e+00 2.993627e+00 3.194432e+00 2.625782e+00 2.280494e+00 1.706079e-01 5.532575e-01 3.283972e-01 5.041784e-01 6.201667e-01 7.171813e-01 7.346750e-01 7.307771e-01 6.139567e-01 6.357093e-01 6.823448e-01 5.801695e-01 4.857606e-01
<GCONST> 1.212718e+02
<STATE> 4
<NUMMIXES> 2
<MIXTURE> 1 5.000000e-01
<MEAN> 39
 -7.622802e+00 -7.647037e-01 1.667433e+00 -1.325271e+00 -2.561650e+00 -2.156658e+00 -3.979930e-01 -3.882939e+00 -2.692130e+00 -3.248933e+00 -3.092983e+00 -2.720591e+00 7.493690e-02 1.907816e-01 1.984781e-01 -8.656336e-02 -2.782110e-01 6.817158e-02 -1.691930e-01 -6.932381e-03 6.493377e-02 2.621803e-02 5.869744e-02 1.711119e-02 -1.066513e-02 -2.406799e-03 1.709070e-04 5.459686e-02 1.339274e-02 -2.219105e-02 2.667153e-02 -1.024452e-03 -6.412778e-02 2.490231e-02 -7.853045e-03 -1.041487e-02 2.946534e-02 1.368660e-02 1.972188e-02
<VARIANCE> 39
 2.976958e+01 6.225429e+01 2.888009e+01 5.407087e+01 4.094454e+01 3.151126e+01 5.207339e+01 3.541532e+01 2.767199e+01 2.417235e+01 2.310451e+01 2.166604e+01 1.838226e+01 2.042608e+00 3.643587e+00 1.894146e+00 3.032718e+00 3.907957e+00 3.015836e+00 3.658094e+00 3.154366e+00 3.277951e+00 3.050775e+00 2.779105e+00 2.707002e+00 2.098671e+00 3.305112e-01 6.189720e-01 3.445351e-01 5.855153e-01 7.690554e-01 6.453539e-01 6.132367e-01 6.148450e-01 6.773438e-01 6.737221e-01 6.035188e-01 5.953520e-01 4.566808e-01
<GCONST> 1.231450e+02
<MIXTURE> 2 5.000000e-01
<MEAN> 39
 -7.622802e+00 -7.647037e-01 1.667433e+00 -1.325271e+00 -2.561650e+00 -2.156658e+00 -3.979930e-01 -3.882939e+00 -2.692130e+00 -3.248933e+00 -3.092983e+00 -2.720591e+00 7.493690e-02 1.907816e-01 1.984781e-01 -8.656336e-02 -2.782110e-01 6.817158e-02 -1.691930e-01 -6.932381e-03 6.493377e-02 2.621803e-02 5.869744e-02 1.711119e-02 -1.066513e-02 -2.406799e-03 1.709070e-04 5.459686e-02 1.339274e-02 -2.219105e-02 2.667153e-02 -1.024452e-03 -6.412778e-02 2.490231e-02 -7.853045e-03 -1.041487e-02 2.946534e-02 1.368660e-02 1.972188e-02
<VARIANCE> 39
 2.976958e+01 6.225429e+01 2.888009e+01 5.407087e+01 4.094454e+01 3.151126e+01 5.207339e+01 3.541532e+01 2.767199e+01 2.417235e+01 2.310451e+01 2.166604e+01 1.838226e+01 2.042608e+00 3.643587e+00 1.894146e+00 3.032718e+00 3.907957e+00 3.015836e+00 3.658094e+00 3.154366e+00 3.277951e+00 3.050775e+00 2.779105e+00 2.707002e+00 2.098671e+00 3.305112e-01 6.189720e-01 3.445351e-01 5.855153e-01 7.690554e-01 6.453539e-01 6.132367e-01 6.148450e-01 6.773438e-01 6.737221e-01 6.035188e-01 5.953520e-01 4.566808e-01
<GCONST> 1.231450e+02
<TRANSP> 5
 0.000000e+00 1.000000e+00 0.000000e+00 0.000000e+00 0.000000e+00
 0.000000e+00 7.857195e-01 2.142805e-01 0.000000e+00 0.000000e+00
 0.000000e+00 0.000000e+00 8.862820e-01 1.137180e-01 0.000000e+00
 0.000000e+00 0.000000e+00 0.000000e+00 9.299046e-01 7.009533e-02
 0.000000e+00 0.000000e+00 0.000000e+00 0.000000e+00 0.000000e+00
<ENDHMM>
~h "l"
<BEGINHMM>
<NUMSTATES> 5
<STATE> 2
<NUMMIXES> 2
<MIXTURE> 1 5.000000e-01
<MEAN> 39
 -2.623518e+00 1.220193e+00 -6.422870e+00 5.970594e-01 -6.013236e+00 -1.335745e+01 3.448825e+00 -8.289422e-01 -7.820288e+00 -4.275399e-01 -2.746147e+00 -1.961758e+00 -3.658285e-01 -4.066259e-02 -8.641336e-04 -1.783907e-01 9.648842e-02 -1.179512e-01 -3.601654e-02 3.063909e-01 3.279500e-02 -2.236076e-01 7.529786e-02 1.359365e-01 -2.354917e-01 -1.181281e-01 1.257523e-02 -5.002776e-02 -1.983053e-02 -3.628093e-02 3.060195e-02 1.015526e-01 -1.840931e-02 1.802117e-02 5.241315e-02 -5.213507e-02 -4.444322e-02 4.504532e-03 -2.917473e-05
<VARIANCE> 39
 1.808014e+01 6.831449e+01 4.299655e+01 1.997433e+01 6.676906e+01 5.966212e+01 5.881376e+01 4.679559e+01 6.142212e+01 8.335678e+01 2.252017e+01 2.629169e+01 1.917026e+01 3.426502e-01 1.136199e+00 7.662910e-01 9.959989e-01 1.660149e+00 2.590532e+00 1.909754e+00 1.421588e+00 2.281989e+00 1.490808e+00 1.524446e+00 1.065903e+00 6.181369e-01 4.549031e-02 1.354879e-01 8.133963e-02 1.715643e-01 2.264705e-01 3.357926e-01 2.977989e-01 1.860391e-01 2.822297e-01 2.159975e-01 2.191229e-01 1.780426e-01 9.683977e-02
<GCONST> 9.890583e+01
<MIXTURE> 2 5.000000e-01
<MEAN> 39
 -2.623518e+00 1.220193e+00 -6.422870e+00 5.970594e-01 -6.013236e+00 -1.335745e+01 3.448825e+00 -8.289422e-01 -7.820288e+00 -4.275399e-01 -2.746147e+00 -1.961758e+00 -3.658285e-01 -4.066259e-02 -8.641336e-04 -1.783907e-01 9.648842e-02 -1.179512e-01 -3.601654e-02 3.063909e-01 3.279500e-02 -2.236076e-01 7.529786e-02 1.359365e-01 -2.354917e-01 -1.181281e-01 1.257523e-02 -5.002776e-02 -1.983053e-02 -3.628093e-02 3.060195e-02 1.015526e-01 -1.840931e-02 1.802117e-02 5.241315e-02 -5.213507e-02 -4.444322e-02 4.504532e-03 -2.917473e-05
<VARIANCE> 39
 1.808014e+01 6.831449e+01 4.299655e+01 1.997433e+01 6.676906e+01 5.966212e+01 5.881376e+01 4.679559e+01 6.142212e+01 8.335678e+01 2.252017e+01 2.629169e+01 1.917026e+01 3.426502e-01 1.136199e+00 7.662910e-01 9.959989e-01 1.660149e+00 2.590532e+00 1.909754e+00 1.421588e+00 2.281989e+00 1.490808e+00 1.524446e+00 1.065903e+00 6.181369e-01 4.549031e-02 1.354879e-01 8.133963e-02 1.715643e-01 2.264705e-01 3.357926e-01 2.977989e-01 1.860391e-01 2.822297e-01 2.159975e-01 2.191229e-01 1.780426e-01 9.683977e-02
<GCONST> 9.890583e+01
<STATE> 3
<NUMMIXES> 2
<MIXTURE> 1 5.000000e-01
<MEAN> 39
 -3.478119e+00 -2.997178e+00 -1.092387e+01 1.722304e+00 -3.530877e+00 -9.429686e+00 7.924390e+00 -1.161036e+00 -1.043363e+01 -4.198676e+00 -2.457372e+00 -1.742095e+00 -2.463301e+00 3.352128e-02 -1.768868e-01 -1.236210e-01 4.019457e-02 1.311923e-01 1.234862e-01 1.472362e-01 -1.210015e-02 4.098331e-02 -1.012149e-01 -1.381781e-02 4.165158e-02 -7.794120e-02 1.458565e-02 -1.716682e-02 2.558949e-02 -2.230748e-02 1.011166e-02 1.596290e-02 -3.296691e-02 2.308528e-03 3.802717e-02 -1.437222e-02 -1.814216e-02 2.596122e-02 7.583558e-03
<VARIANCE> 39
 1.321805e+01 5.314403e+01 2.691751e+01 1.562651e+01 5.764109e+01 3.381313e+01 6.130279e+01 4.922186e+01 4.860674e+01 5.267240e+01 2.021804e+01 1.809636e+01 1.337393e+01 3.263534e-01 1.010440e+00 5.606874e-01 8.022059e-01 1.811667e+00 1.415679e+00 1.303938e+00 9.585551e-01 1.927867e+00 9.682958e-01 1.031246e+00 8.447857e-01 4.695798e-01 4.387375e-02 1.220657e-01 6.416507e-02 1.362426e-01 2.088358e-01 1.889555e-01 2.065130e-01 1.324126e-01 2.354917e-01 1.307856e-01 1.449670e-01 1.337044e-01 7.426051e-02
<GCONST> 8.836640e+01
<MIXTURE> 2 5.000000e-01
<MEAN> 39
 -3.478119e+00 -2.997178e+00 -1.092387e+01 1.722304e+00 -3.530877e+00 -9.429686e+00 7.924390e+00 -1.161036e+00 -1.043363e+01 -4.198676e+00 -2.457372e+00 -1.742095e+00 -2.463301e+00 3.352128e-02 -1.768868e-01 -1.236210e-01 4.019457e-02 1.311923e-01 1.234862e-01 1.472362e-01 -1.210015e-02 4.098331e-02 -1.012149e-01 -1.381781e-02 4.165158e-02 -7.794120e-02 1.458565e-02 -1.716682e-02 2.558949e-02 -2.230748e-02 1.011166e-02 1.596290e-02 -3.296691e-02 2.308528e-03 3.802717e-02 -1.437222e-02 -1.814216e-02 2.596122e-02 7.583558e-03
<VARIANCE> 39
 1.321805e+01 5.314403e+01 2.691751e+01 1.562651e+01 5.764109e+01 3.381313e+01 6.130279e+01 4.922186e+01 4.860674e+01 5.267240e+01 2.021804e+01 1.809636e+01 1.337393e+01 3.263534e-01 1.010440e+00 5.606874e-01 8.022059e-01 1.811667e+00 1.415679e+00 1.303938e+00 9.585551e-01 1.927867e+00 9.682958e-01 1.031246e+00 8.447857e-01 4.695798e-01 4.387375e-02 1.220657e-01 6.416507e-02 1.362426e-01 2.088358e-01 1.889555e-01 2.065130e-01 1.324126e-01 2.354917e-01 1.307856e-01 1.449670e-01 1.337044e-01 7.426051e-02
<GCONST> 8.836640e+01
<STATE> 4
<NUMMIXES> 2
<MIXTURE> 1 5.000000e-01
<MEAN> 39
 -3.419242e+00 -5.537478e+00 -1.342001e+01 4.031062e+00 1.162197e+00 -7.610516e+00 7.861903e+00 -3.984584e+00 -8.076353e+00 -4.248201e+00 -1.537423e+00 -5.482866e-01 -3.191438e+00 1.052099e-01 -2.212172e-02 1.071173e-01 -8.649100e-04 7.814007e-02 4.652346e-02 -8.023679e-02 2.749892e-02 1.545445e-01 4.299197e-02 -1.012362e-01 6.941465e-02 4.896145e-03 -1.318745e-03 1.317562e-02 3.107731e-02 -1.226876e-02 -1.303235e-02 2.621330e-02 -3.070628e-02 8.580278e-03 4.047527e-03 -1.678006e-02 -2.387122e-03 1.999280e-02 1.648566e-02
<VARIANCE> 39
 1.705353e+01 4.517359e+01 4.574209e+01 2.980727e+01 5.272417e+01 2.096519e+01 3.858525e+01 4.892558e+01 8.682912e+01 4.333847e+01 3.430690e+01 2.204187e+01 1.818535e+01 4.497305e-01 8.506601e-01 7.735615e-01 7.654452e-01 1.190018e+00 1.133431e+00 9.417986e-01 8.852339e-01 1.960925e+00 1.493646e+00 1.148040e+00 1.190030e+00 7.780076e-01 6.045223e-02 9.790160e-02 7.755248e-02 1.164609e-01 1.383874e-01 1.406057e-01 1.546739e-01 1.450572e-01 2.401682e-01 1.840250e-01 1.757447e-01 1.842246e-01 1.280229e-01
<GCONST> 9.144475e+01
<MIXTURE> 2 5.000000e-01
<MEAN> 39
 -3.419242e+00 -5.537478e+00 -1.342001e+01 4.031062e+00 1.162197e+00 -7.610516e+00 7.861903e+00 -3.984584e+00 -8.076353e+00 -4.248201e+00 -1.537423e+00 -5.482866e-01 -3.191438e+00 1.052099e-01 -2.212172e-02 1.071173e-01 -8.649100e-04 7.814007e-02 4.652346e-02 -8.023679e-02 2.749892e-02 1.545445e-01 4.299197e-02 -1.012362e-01 6.941465e-02 4.896145e-03 -1.318745e-03 1.317562e-02 3.107731e-02 -1.226876e-02 -1.303235e-02 2.621330e-02 -3.070628e-02 8.580278e-03 4.047527e-03 -1.678006e-02 -2.387122e-03 1.999280e-02 1.648566e-02
<VARIANCE> 39
 1.705353e+01 4.517359e+01 4.574209e+01 2.980727e+01 5.272417e+01 2.096519e+01 3.858525e+01 4.892558e+01 8.682912e+01 4.333847e+01 3.430690e+01 2.204187e+01 1.818535e+01 4.497305e-01 8.506601e-01 7.735615e-01 7.654452e-01 1.190018e+00 1.133431e+00 9.417986e-01 8.852339e-01 1.960925e+00 1.493646e+00 1.148040e+00 1.190030e+00 7.780076e-01 6.045223e-02 9.790160e-02 7.755248e-02 1.164609e-01 1.383874e-01 1.406057e-01 1.546739e-01 1.450572e-01 2.401682e-01 1.840250e-01 1.757447e-01 1.842246e-01 1.280229e-01
<GCONST> 9.144475e+01
<TRANSP> 5
 0.000000e+00 1.000000e+00 0.000000e+00 0.000000e+00 0.000000e+00
 0.000000e+00 9.062274e-01 9.377261e-02 0.000000e+00 0.000000e+00
 0.000000e+00 0.000000e+00 8.989422e-01 1.010578e-01 0.000000e+00
 0.000000e+00 0.000000e+00 0.000000e+00 9.036540e-01 9.634595e-02
 0.000000e+00 0.000000e+00 0.000000e+00 0.000000e+00 0.000000e+00
<ENDHMM>
~h "m"
<BEGINHMM>
<NUMSTATES> 5
<STATE> 2
<NUMMIXES> 2
<MIXTURE> 1 5.000000e-01
<MEAN> 39
 -7.113431e-01 5.656176e+00 2.319754e+00 1.004623e+00 -2.523737e-01 -1.563951e+01 -7.319670e+00 -2.501497e+00 -7.475729e+00 2.037513e+00 -9.710307e-01 2.693352e-01 -3.704546e+00 6.867923e-01 4.913680e-01 2.580812e-01 3.083365e-01 7.042775e-01 -2.500457e+00 -8.235163e-01 -2.110668e-01 -4.936938e-01 9.330470e-01 1.744409e-01 8.462378e-01 -7.665402e-01 -1.572073e-01 -1.636723e-02 -7.880101e-02 -2.383000e-02 1.256170e-01 7.758914e-02 7.201150e-02 -7.101370e-02 2.212836e-01 -4.831345e-02 -1.100986e-01 -5.100948e-02 1.507651e-02
<VARIANCE> 39
 2.224442e+01 1.270975e+01 1.358181e+01 2.189560e+01 3.493934e+01 6.212401e+01 2.821368e+01 5.931288e+01 2.922256e+01 3.801306e+01 2.757897e+01 2.663428e+01 2.074757e+01 1.306838e+00 1.115874e+00 1.480436e+00 1.911468e+00 3.540437e+00 5.813019e+00 2.427317e+00 3.997634e+00 2.581801e+00 4.015364e+00 2.806394e+00 3.211061e+00 2.070988e+00 2.098515e-01 2.401733e-01 3.601220e-01 3.604358e-01 5.750245e-01 1.082154e+00 4.632613e-01 6.576405e-01 3.956572e-01 7.796583e-01 4.478906e-01 6.605313e-01 4.073041e-01
<GCONST> 1.167614e+02
<MIXTURE> 2 5.000000e-01
<MEAN> 39
 -7.113431e-01 5.656176e+00 2.319754e+00 1.004623e+00 -2.523737e-01 -1.563951e+01 -7.319670e+00 -2.501497e+00 -7.475729e+00 2.037513e+00 -9.710307e-01 2.693352e-01 -3.704546e+00 6.867923e-01 4.913680e-01 2.580812e-01 3.083365e-01 7.042775e-01 -2.500457e+00 -8.235163e-01 -2.110668e-01 -4.936938e-01 9.330470e-01 1.744409e-01 8.462378e-01 -7.665402e-01 -1.572073e-01 -1.636723e-02 -7.880101e-02 -2.383000e-02 1.256170e-01 7.758914e-02 7.201150e-02 -7.101370e-02 2.212836e-01 -4.831345e-02 -1.100986e-01 -5.100948e-02 1.507651e-02
<VARIANCE> 39
 2.224442e+01 1.270975e+01 1.358181e+01 2.189560e+01 3.493934e+01 6.212401e+01 2.821368e+01 5.931288e+01 2.922256e+01 3.801306e+01 2.757897e+01 2.663428e+01 2.074757e+01 1.306838e+00 1.115874e+00 1.480436e+00 1.911468e+00 3.540437e+00 5.813019e+00 2.427317e+00 3.997634e+00 2.581801e+00 4.015364e+00 2.806394e+00 3.211061e+00 2.070988e+00 2.098515e-01 2.401733e-01 3.601220e-01 3.604358e-01 5.750245e-01 1.082154e+00 4.632613e-01 6.576405e-01 3.956572e-01 7.796583e-01 4.478906e-01 6.605313e-01 4.073041e-01
<GCONST> 1.167614e+02
<STATE> 3
<NUMMIXES> 2
<MIXTURE> 1 5.000000e-01
<MEAN> 39
 8.063902e-01 6.467289e+00 2.122520e+00 3.986255e+00 5.397895e+00 -2.389410e+01 -8.446597e+00 -6.274696e+00 -5.475878e+00 3.766726e+00 -1.647968e+00 2.634222e+00 -6.943557e+00 2.644135e-01 1.329100e-01 -6.844441e-02 2.351941e-01 6.289915e-01 -8.362325e-01 -3.167880e-01 -4.249534e-01 2.529448e-01 3.073526e-01 2.841609e-01 2.043195e-01 -3.575402e-01 -7.859041e-02 -7.285015e-02 -4.555738e-02 -4.590547e-02 -8.185384e-02 3.093905e-01 1.013668e-01 1.909628e-02 5.195440e-02 -1.172753e-01 -6.639976e-03 -9.796821e-02 1.094824e-01
<VARIANCE> 39
 1.733338e+01 9.022529e+00 1.732641e+01 3.724871e+01 4.186649e+01 3.710541e+01 2.917379e+01 7.959109e+01 5.481543e+01 3.049088e+01 3.251066e+01 2.002045e+01 1.604830e+01 7.878852e-01 7.402006e-01 1.326939e+00 1.237775e+00 2.579852e+00 3.329379e+00 2.293669e+00 1.997251e+00 2.181115e+00 2.089417e+00 1.758231e+00 1.641177e+00 1.236130e+00 1.463954e-01 1.432043e-01 2.616772e-01 2.354070e-01 5.017086e-01 5.440109e-01 4.856326e-01 4.120812e-01 4.713605e-01 4.107201e-01 2.874471e-01 3.207837e-01 2.335300e-01
<GCONST> 1.063515e+02
<MIXTURE> 2 5.000000e-01
<MEAN> 39
 8.063902e-01 6.467289e+00 2.122520e+00 3.986255e+00 5.397895e+00 -2.389410e+01 -8.446597e+00 -6.274696e+00 -5.475878e+00 3.766726e+00 -1.647968e+00 2.634222e+00 -6.943557e+00 2.644135e-01 1.329100e-01 -6.844441e-02 2.351941e-01 6.289915e-01 -8.362325e-01 -3.167880e-01 -4.249534e-01 2.529448e-01 3.073526e-01 2.841609e-01 2.043195e-01 -3.575402e-01 -7.859041e-02 -7.285015e-02 -4.555738e-02 -4.590547e-02 -8.185384e-02 3.093905e-01 1.013668e-01 1.909628e-02 5.195440e-02 -1.172753e-01 -6.639976e-03 -9.796821e-02 1.094824e-01
<VARIANCE> 39
 1.733338e+01 9.022529e+00 1.732641e+01 3.724871e+01 4.186649e+01 3.710541e+01 2.917379e+01 7.959109e+01 5.481543e+01 3.049088e+01 3.251066e+01 2.002045e+01 1.604830e+01 7.878852e-01 7.402006e-01 1.326939e+00 1.237775e+00 2.579852e+00 3.329379e+00 2.293669e+00 1.997251e+00 2.181115e+00 2.089417e+00 1.758231e+00 1.641177e+00 1.236130e+00 1.463954e-01 1.432043e-01 2.616772e-01 2.354070e-01 5.017086e-01 5.440109e-01 4.856326e-01 4.120812e-01 4.713605e-01 4.107201e-01 2.874471e-01 3.207837e-01 2.335300e-01
<GCONST> 1.063515e+02
<STATE> 4
<NUMMIXES> 2
<MIXTURE> 1 5.000000e-01
<MEAN> 39
 1.939523e+00 4.660964e+00 -3.054237e+00 2.673902e+00 7.445557e+00 -2.045999e+01 -7.474918e+00 -9.310291e+00 -6.247319e+00 2.530450e+00 4.601886e-01 2.770967e+00 -6.577392e+00 -1.833359e-02 -6.093787e-02 -1.358132e-01 -1.192978e-01 -3.158754e-02 2.260933e-01 1.776325e-01 -5.713535e-02 -2.770548e-02 -1.221896e-01 -2.809355e-02 -3.271368e-02 1.234459e-01 -1.532170e-02 -3.715760e-02 -4.594442e-02 -4.628078e-02 -6.892604e-02 1.484803e-01 6.011924e-02 3.576430e-02 4.744684e-03 -5.884638e-02 -5.857874e-02 -4.546862e-02 7.985748e-02
<VARIANCE> 39
 9.406083e+00 4.358225e+01 6.128313e+01 2.776664e+01 4.221239e+01 8.963779e+01 4.081138e+01 8.879633e+01 4.378270e+01 4.417393e+01 2.335400e+01 1.954095e+01 2.340692e+01 2.070590e-01 6.344979e-01 9.217187e-01 7.220435e-01 7.914571e-01 2.335762e+00 8.907858e-01 1.144462e+00 8.144323e-01 1.063760e+00 9.000449e-01 8.240954e-01 1.206559e+00 3.577698e-02 8.268850e-02 1.237544e-01 1.242661e-01 1.179212e-01 3.146312e-01 1.452690e-01 1.892100e-01 1.246985e-01 1.452345e-01 1.649953e-01 1.333859e-01 2.108554e-01
<GCONST> 9.008219e+01
<MIXTURE> 2 5.000000e-01
<MEAN> 39
 1.939523e+00 4.660964e+00 -3.054237e+00 2.673902e+00 7.445557e+00 -2.045999e+01 -7.474918e+00 -9.310291e+00 -6.247319e+00 2.530450e+00 4.601886e-01 2.770967e+00 -6.577392e+00 -1.833359e-02 -6.093787e-02 -1.358132e-01 -1.192978e-01 -3.158754e-02 2.260933e-01 1.776325e-01 -5.713535e-02 -2.770548e-02 -1.221896e-01 -2.809355e-02 -3.271368e-02 1.234459e-01 -1.532170e-02 -3.715760e-02 -4.594442e-02 -4.628078e-02 -6.892604e-02 1.484803e-01 6.011924e-02 3.576430e-02 4.744684e-03 -5.884638e-02 -5.857874e-02 -4.546862e-02 7.985748e-02
<VARIANCE> 39
 9.406083e+00 4.358225e+01 6.128313e+01 2.776664e+01 4.221239e+01 8.963779e+01 4.081138e+01 8.879633e+01 4.378270e+01 4.417393e+01 2.335400e+01 1.954095e+01 2.340692e+01 2.070590e-01 6.344979e-01 9.217187e-01 7.220435e-01 7.914571e-01 2.335762e+00 8.907858e-01 1.144462e+00 8.144323e-01 1.063760e+00 9.000449e-01 8.240954e-01 1.206559e+00 3.577698e-02 8.268850e-02 1.237544e-01 1.242661e-01 1.179212e-01 3.146312e-01 1.452690e-01 1.892100e-01 1.246985e-01 1.452345e-01 1.649953e-01 1.333859e-01 2.108554e-01
<GCONST> 9.008219e+01
<TRANSP> 5
 0.000000e+00 1.000000e+00 0.000000e+00 0.000000e+00 0.000000e+00
 0.000000e+00 7.346646e-01 2.653354e-01 0.000000e+00 0.000000e+00
 0.000000e+00 0.000000e+00 8.373528e-01 1.626471e-01 0.000000e+00
 0.000000e+00 0.000000e+00 0.000000e+00 9.579982e-01 4.200182e-02
 0.000000e+00 0.000000e+00 0.000000e+00 0.000000e+00 0.000000e+00
<ENDHMM>
~h "n"
<BEGINHMM>
<NUMSTATES> 5
<STATE> 2
<NUMMIXES> 2
<MIXTURE> 1 5.000000e-01
<MEAN> 39
 -1.911206e+00 3.357995e-01 1.397446e+00 -6.575514e+00 -4.094265e-01 -4.434525e+00 -6.872359e-01 -4.040057e+00 -1.299442e+01 1.654340e+00 -7.427293e+00 7.156780e-01 6.498817e-01 2.649222e-02 2.533581e-01 7.514267e-02 -2.354368e-01 1.157241e-01 -1.216468e-02 -3.441555e-01 6.245929e-02 2.029293e-01 1.121774e-01 -1.087716e-01 6.565326e-02 9.074012e-02 -1.443043e-02 -6.775415e-02 -1.432608e-02 8.961619e-03 1.459281e-02 4.504811e-02 -1.977043e-02 -4.336797e-02 2.642616e-02 -1.399494e-02 -1.262503e-02 1.946274e-02 1.320188e-02
<VARIANCE> 39
 1.649814e+01 2.818311e+01 3.607205e+01 4.866682e+01 1.996412e+01 1.170963e+02 9.357098e+01 4.374754e+01 3.214392e+01 5.703514e+01 2.730597e+01 1.519349e+01 3.307262e+01 5.667851e-01 1.758530e+00 9.162964e-01 9.158198e-01 1.432033e+00 7.282276e+00 2.727923e+00 1.506866e+00 1.219915e+00 2.436883e+00 2.163103e+00 1.226337e+00 2.603612e+00 6.675854e-02 2.292926e-01 1.387462e-01 1.849761e-01 2.487461e-01 8.363436e-01 4.877519e-01 2.628445e-01 2.088335e-01 3.795375e-01 4.245569e-01 2.363832e-01 4.229327e-01
<GCONST> 1.078450e+02
<MIXTURE> 2 5.000000e-01
<MEAN> 39
 -1.911206e+00 3.357995e-01 1.397446e+00 -6.575514e+00 -4.094265e-01 -4.434525e+00 -6.872359e-01 -4.040057e+00 -1.299442e+01 1.654340e+00 -7.427293e+00 7.156780e-01 6.498817e-01 2.649222e-02 2.533581e-01 7.514267e-02 -2.354368e-01 1.157241e-01 -1.216468e-02 -3.441555e-01 6.245929e-02 2.029293e-01 1.121774e-01 -1.087716e-01 6.565326e-02 9.074012e-02 -1.443043e-02 -6.775415e-02 -1.432608e-02 8.961619e-03 1.459281e-02 4.504811e-02 -1.977043e-02 -4.336797e-02 2.642616e-02 -1.399494e-02 -1.262503e-02 1.946274e-02 1.320188e-02
<VARIANCE> 39
 1.649814e+01 2.818311e+01 3.607205e+01 4.866682e+01 1.996412e+01 1.170963e+02 9.357098e+01 4.374754e+01 3.214392e+01 5.703514e+01 2.730597e+01 1.519349e+01 3.307262e+01 5.667851e-01 1.758530e+00 9.162964e-01 9.158198e-01 1.432033e+00 7.282276e+00 2.727923e+00 1.506866e+00 1.219915e+00 2.436883e+00 2.163103e+00 1.226337e+00 2.603612e+00 6.675854e-02 2.292926e-01 1.387462e-01 1.849761e-01 2.487461e-01 8.363436e-01 4.877519e-01 2.628445e-01 2.088335e-01 3.795375e-01 4.245569e-01 2.363832e-01 4.229327e-01
<GCONST> 1.078450e+02
<STATE> 3
<NUMMIXES> 2
<MIXTURE> 1 5.000000e-01
<MEAN> 39
 -1.626982e+00 -1.318349e-01 4.893978e-01 -4.203203e+00 -1.470073e-01 -5.072676e+00 1.342530e+00 -5.146890e+00 -1.217969e+01 2.914010e+00 -6.668357e+00 3.458954e-01 1.045890e+00 6.103175e-03 -2.663434e-02 6.136001e-02 -1.059651e-01 -1.463527e-02 3.385326e-02 -2.609611e-01 2.157523e-02 2.349089e-01 -5.081813e-02 -1.077681e-01 1.699682e-01 1.285959e-01 -1.739919e-02 -2.200756e-02 -7.685173e-03 1.289720e-02 -2.606490e-02 3.448770e-02 -8.171977e-03 4.762727e-03 9.229002e-03 -5.472052e-02 1.400624e-02 -1.237758e-02 4.841215e-03
<VARIANCE> 39
 2.006691e+01 3.136043e+01 4.067207e+01 3.450277e+01 2.885685e+01 1.180227e+02 8.616564e+01 4.496628e+01 4.261625e+01 4.752385e+01 2.210859e+01 2.331116e+01 3.578826e+01 6.907308e-01 1.658940e+00 1.194316e+00 1.164043e+00 1.708683e+00 5.095613e+00 3.826691e+00 1.832710e+00 1.493340e+00 2.895837e+00 1.629505e+00 1.600751e+00 2.094687e+00 9.153080e-02 2.035039e-01 2.132235e-01 2.339989e-01 3.131292e-01 7.018510e-01 7.886114e-01 3.000089e-01 2.714915e-01 5.133773e-01 3.220310e-01 3.079610e-01 4.337717e-01
<GCONST> 1.118855e+02
<MIXTURE> 2 5.000000e-01
<MEAN> 39
 -1.626982e+00 -1.318349e-01 4.893978e-01 -4.203203e+00 -1.470073e-01 -5.072676e+00 1.342530e+00 -5.146890e+00 -1.217969e+01 2.914010e+00 -6.668357e+00 3.458954e-01 1.045890e+00 6.103175e-03 -2.663434e-02 6.136001e-02 -1.059651e-01 -1.463527e-02 3.385326e-02 -2.609611e-01 2.157523e-02 2.349089e-01 -5.081813e-02 -1.077681e-01 1.699682e-01 1.285959e-01 -1.739919e-02 -2.200756e-02 -7.685173e-03 1.289720e-02 -2.606490e-02 3.448770e-02 -8.171977e-03 4.762727e-03 9.229002e-03 -5.472052e-02 1.400624e-02 -1.237758e-02 4.841215e-03
<VARIANCE> 39
 2.006691e+01 3.136043e+01 4.067207e+01 3.450277e+01 2.885685e+01 1.180227e+02 8.616564e+01 4.496628e+01 4.261625e+01 4.752385e+01 2.210859e+01 2.331116e+01 3.578826e+01 6.907308e-01 1.658940e+00 1.194316e+00 1.164043e+00 1.708683e+00 5.095613e+00 3.826691e+00 1.832710e+00 1.493340e+00 2.895837e+00 1.629505e+00 1.600751e+00 2.094687e+00 9.153080e-02 2.035039e-01 2.132235e-01 2.339989e-01 3.131292e-01 7.018510e-01 7.886114e-01 3.000089e-01 2.714915e-01 5.133773e-01 3.220310e-01 3.079610e-01 4.337717e-01
<GCONST> 1.118855e+02
<STATE> 4
<NUMMIXES> 2
<MIXTURE> 1 5.000000e-01
<MEAN> 39
 -3.426229e+00 -3.297171e+00 1.558830e-01 -2.356560e+00 -1.950312e+00 -2.274964e+00 -9.258251e-01 -6.977025e+00 -6.558126e+00 1.662844e+00 -6.737266e+00 -1.906908e-01 2.356753e+00 -1.017935e-01 -1.222937e-01 -1.612659e-02 -7.447144e-02 -1.035078e-01 2.326690e-01 -1.362000e-01 6.510281e-02 2.060982e-01 -2.357390e-01 -2.468665e-02 2.953122e-02 9.383430e-02 -1.834454e-02 3.880045e-03 -1.963904e-02 1.920582e-02 1.906745e-02 1.454795e-02 1.774519e-02 -2.118102e-02 -2.317637e-03 -3.750276e-03 4.616679e-02 -3.490284e-02 -1.580807e-02
<VARIANCE> 39
 1.654171e+01 3.584530e+01 2.745174e+01 3.240533e+01 2.510860e+01 7.557239e+01 6.146774e+01 4.611864e+01 7.292152e+01 4.080951e+01 2.824772e+01 2.514360e+01 2.977745e+01 6.997583e-01 1.524358e+00 1.857892e+00 2.053073e+00 2.023555e+00 3.534986e+00 3.366256e+00 3.167340e+00 2.615185e+00 3.388589e+00 3.318547e+00 1.855277e+00 2.025985e+00 1.172979e-01 1.893540e-01 3.357420e-01 4.322099e-01 4.339829e-01 6.452696e-01 6.791794e-01 6.115093e-01 4.640462e-01 6.365107e-01 7.550472e-01 3.921812e-01 4.347961e-01
<GCONST> 1.175933e+02
<MIXTURE> 2 5.000000e-01
<MEAN> 39
 -3.426229e+00 -3.297171e+00 1.558830e-01 -2.356560e+00 -1.950312e+00 -2.274964e+00 -9.258251e-01 -6.977025e+00 -6.558126e+00 1.662844e+00 -6.737266e+00 -1.906908e-01 2.356753e+00 -1.017935e-01 -1.222937e-01 -1.612659e-02 -7.447144e-02 -1.035078e-01 2.326690e-01 -1.362000e-01 6.510281e-02 2.060982e-01 -2.357390e-01 -2.468665e-02 2.953122e-02 9.383430e-02 -1.834454e-02 3.880045e-03 -1.963904e-02 1.920582e-02 1.906745e-02 1.454795e-02 1.774519e-02 -2.118102e-02 -2.317637e-03 -3.750276e-03 4.616679e-02 -3.490284e-02 -1.580807e-02
<VARIANCE> 39
 1.654171e+01 3.584530e+01 2.745174e+01 3.240533e+01 2.510860e+01 7.557239e+01 6.146774e+01 4.611864e+01 7.292152e+01 4.080951e+01 2.824772e+01 2.514360e+01 2.977745e+01 6.997583e-01 1.524358e+00 1.857892e+00 2.053073e+00 2.023555e+00 3.534986e+00 3.366256e+00 3.167340e+00 2.615185e+00 3.388589e+00 3.318547e+00 1.855277e+00 2.025985e+00 1.172979e-01 1.893540e-01 3.357420e-01 4.322099e-01 4.339829e-01 6.452696e-01 6.791794e-01 6.115093e-01 4.640462e-01 6.365107e-01 7.550472e-01 3.921812e-01 4.347961e-01
<GCONST> 1.175933e+02
<TRANSP> 5
 0.000000e+00 1.000000e+00 0.000000e+00 0.000000e+00 0.000000e+00
 0.000000e+00 8.600031e-01 1.399969e-01 0.000000e+00 0.000000e+00
 0.000000e+00 0.000000e+00 8.178200e-01 1.821799e-01 0.000000e+00
 0.000000e+00 0.000000e+00 0.000000e+00 9.023158e-01 9.768424e-02
 0.000000e+00 0.000000e+00 0.000000e+00 0.000000e+00 0.000000e+00
<ENDHMM>
~h "o"
<BEGINHMM>
<NUMSTATES> 7
<STATE> 2
<NUMMIXES> 2
<MIXTURE> 1 5.000000e-01
<MEAN> 39
 2.947414e+00 2.044192e+00 -1.821192e+01 1.492140e+00 1.929695e+00 -9.585498e+00 -9.180926e-01 -1.606550e+00 8.014329e+00 -3.804770e-01 -6.959653e+00 -5.589480e+00 6.031055e-01 1.986519e-01 1.465994e-01 -1.983973e-01 -4.815457e-02 6.922203e-02 -2.243396e-01 -5.737923e-02 3.142731e-02 1.005601e-01 1.034399e-01 -1.727237e-01 1.638237e-02 3.886164e-02 -5.550530e-02 -2.214059e-02 6.045285e-02 2.160474e-02 -2.467183e-02 2.514295e-02 6.501764e-03 4.769910e-03 -5.690521e-02 -5.875349e-03 2.241918e-02 1.449016e-02 3.795247e-03
<VARIANCE> 39
 2.034235e+01 1.594718e+01 7.182534e+01 1.887635e+01 2.484478e+01 3.670680e+01 1.661786e+01 5.318414e+01 3.314419e+01 2.347295e+01 2.686236e+01 3.124942e+01 1.422513e+01 1.008689e+00 7.330515e-01 1.355200e+00 1.005219e+00 1.395962e+00 1.459585e+00 1.383973e+00 1.890429e+00 2.104532e+00 1.640739e+00 1.587641e+00 1.409670e+00 1.131327e+00 1.458394e-01 1.080619e-01 1.877655e-01 1.811773e-01 2.099983e-01 2.408492e-01 2.775570e-01 2.658968e-01 3.450615e-01 2.770694e-01 2.268800e-01 2.660811e-01 1.994578e-01
<GCONST> 9.827592e+01
<MIXTURE> 2 5.000000e-01
<MEAN> 39
 2.947414e+00 2.044192e+00 -1.821192e+01 1.492140e+00 1.929695e+00 -9.585498e+00 -9.180926e-01 -1.606550e+00 8.014329e+00 -3.804770e-01 -6.959653e+00 -5.589480e+00 6.031055e-01 1.986519e-01 1.465994e-01 -1.983973e-01 -4.815457e-02 6.922203e-02 -2.243396e-01 -5.737923e-02 3.142731e-02 1.005601e-01 1.034399e-01 -1.727237e-01 1.638237e-02 3.886164e-02 -5.550530e-02 -2.214059e-02 6.045285e-02 2.160474e-02 -2.467183e-02 2.514295e-02 6.501764e-03 4.769910e-03 -5.690521e-02 -5.875349e-03 2.241918e-02 1.449016e-02 3.795247e-03
<VARIANCE> 39
 2.034235e+01 1.594718e+01 7.182534e+01 1.887635e+01 2.484478e+01 3.670680e+01 1.661786e+01 5.318414e+01 3.314419e+01 2.347295e+01 2.686236e+01 3.124942e+01 1.422513e+01 1.008689e+00 7.330515e-01 1.355200e+00 1.005219e+00 1.395962e+00 1.459585e+00 1.383973e+00 1.890429e+00 2.104532e+00 1.640739e+00 1.587641e+00 1.409670e+00 1.131327e+00 1.458394e-01 1.080619e-01 1.877655e-01 1.811773e-01 2.099983e-01 2.408492e-01 2.775570e-01 2.658968e-01 3.450615e-01 2.770694e-01 2.268800e-01 2.660811e-01 1.994578e-01
<GCONST> 9.827592e+01
<STATE> 3
<NUMMIXES> 2
<MIXTURE> 1 5.000000e-01
<MEAN> 39
 3.718035e+00 2.554215e+00 -1.536035e+01 2.722033e+00 1.686566e+00 -1.050780e+01 -1.990186e+00 7.896293e-01 5.684141e+00 -5.524723e-01 -7.347407e+00 -3.529842e+00 1.198377e+00 -9.290940e-02 -4.898269e-02 4.426298e-01 2.163043e-01 5.108904e-04 -1.130556e-01 -1.116653e-01 3.352569e-01 -1.839976e-01 -1.849964e-01 -1.896725e-02 2.668510e-01 1.612845e-01 -4.100198e-02 -2.862897e-02 2.911700e-02 -8.691331e-03 9.951712e-03 3.461977e-02 5.708070e-03 1.027270e-02 2.804863e-02 8.783324e-06 5.262537e-03 -1.124129e-02 -3.498717e-02
<VARIANCE> 39
 2.458226e+01 2.122039e+01 1.190717e+02 3.860316e+01 2.906246e+01 4.798472e+01 2.416458e+01 6.244636e+01 7.707163e+01 3.712160e+01 2.923962e+01 6.551490e+01 2.671919e+01 9.829883e-01 1.033138e+00 1.819150e+00 1.450578e+00 1.603717e+00 1.459401e+00 2.144489e+00 3.107034e+00 4.539401e+00 2.101974e+00 1.686678e+00 2.321733e+00 1.628951e+00 1.448263e-01 1.639555e-01 2.949897e-01 2.726294e-01 3.034602e-01 2.545691e-01 4.532557e-01 5.259005e-01 8.596523e-01 4.305031e-01 2.968313e-01 4.320609e-01 2.820049e-01
<GCONST> 1.130012e+02
<MIXTURE> 2 5.000000e-01
<MEAN> 39
 3.718035e+00 2.554215e+00 -1.536035e+01 2.722033e+00 1.686566e+00 -1.050780e+01 -1.990186e+00 7.896293e-01 5.684141e+00 -5.524723e-01 -7.347407e+00 -3.529842e+00 1.198377e+00 -9.290940e-02 -4.898269e-02 4.426298e-01 2.163043e-01 5.108904e-04 -1.130556e-01 -1.116653e-01 3.352569e-01 -1.839976e-01 -1.849964e-01 -1.896725e-02 2.668510e-01 1.612845e-01 -4.100198e-02 -2.862897e-02 2.911700e-02 -8.691331e-03 9.951712e-03 3.461977e-02 5.708070e-03 1.027270e-02 2.804863e-02 8.783324e-06 5.262537e-03 -1.124129e-02 -3.498717e-02
<VARIANCE> 39
 2.458226e+01 2.122039e+01 1.190717e+02 3.860316e+01 2.906246e+01 4.798472e+01 2.416458e+01 6.244636e+01 7.707163e+01 3.712160e+01 2.923962e+01 6.551490e+01 2.671919e+01 9.829883e-01 1.033138e+00 1.819150e+00 1.450578e+00 1.603717e+00 1.459401e+00 2.144489e+00 3.107034e+00 4.539401e+00 2.101974e+00 1.686678e+00 2.321733e+00 1.628951e+00 1.448263e-01 1.639555e-01 2.949897e-01 2.726294e-01 3.034602e-01 2.545691e-01 4.532557e-01 5.259005e-01 8.596523e-01 4.305031e-01 2.968313e-01 4.320609e-01 2.820049e-01
<GCONST> 1.130012e+02
<STATE> 4
<NUMMIXES> 2
<MIXTURE> 1 5.000000e-01
<MEAN> 39
