~o
<STREAMINFO> 1 39
<VECSIZE> 39<NULLD><MFCC_D_A><DIAGC>
~h "a"
<BEGINHMM>
<NUMSTATES> 7
<STATE> 2
<NUMMIXES> 2
<MIXTURE> 1 5.000000e-01
<MEAN> 39
 -2.034264e+00 -4.439236e+00 -8.643742e-01 -8.837494e-02 -3.877252e+00 -4.117325e+00 4.764638e+00 -1.210989e+00 -3.554094e+00 -1.050901e+00 -4.781652e+00 -5.046494e+00 3.753881e-01 1.752293e-01 -1.699626e-01 -8.124043e-01 -2.575216e-01 5.538662e-01 8.880999e-02 6.798636e-01 1.758842e-01 -2.505040e-01 -4.102572e-01 -7.392775e-02 -3.084934e-01 6.169602e-01 -2.424986e-02 4.188502e-03 -1.175924e-01 1.134337e-01 1.706133e-01 -9.834129e-02 -3.426866e-02 6.462920e-02 3.557939e-02 -1.358426e-01 -2.141649e-03 1.759985e-01 6.368326e-02
<VARIANCE> 39
 2.223915e+01 3.198847e+01 7.211694e+01 4.392972e+01 6.424520e+01 7.235825e+01 6.555909e+01 5.392270e+01 5.259503e+01 4.353056e+01 3.091714e+01 2.736318e+01 4.022238e+01 2.142936e+00 3.590024e+00 3.799562e+00 2.706543e+00 3.369543e+00 4.865312e+00 3.892598e+00 4.960638e+00 4.427191e+00 3.238452e+00 3.599234e+00 1.296594e+00 2.847436e+00 5.295237e-01 6.861877e-01 4.879215e-01 4.010210e-01 5.275065e-01 7.523420e-01 7.603028e-01 9.224146e-01 7.426881e-01 5.431560e-01 6.594597e-01 2.334532e-01 5.681836e-01
<GCONST> 1.292024e+02
<MIXTURE> 2 5.000000e-01
<MEAN> 39
 -2.034264e+00 -4.439236e+00 -8.643742e-01 -8.837494e-02 -3.877252e+00 -4.117325e+00 4.764638e+00 -1.210989e+00 -3.554094e+00 -1.050901e+00 -4.781652e+00 -5.046494e+00 3.753881e-01 1.752293e-01 -1.699626e-01 -8.124043e-01 -2.575216e-01 5.538662e-01 8.880999e-02 6.798636e-01 1.758842e-01 -2.505040e-01 -4.102572e-01 -7.392775e-02 -3.084934e-01 6.169602e-01 -2.424986e-02 4.188502e-03 -1.175924e-01 1.134337e-01 1.706133e-01 -9.834129e-02 -3.426866e-02 6.462920e-02 3.557939e-02 -1.358426e-01 -2.141649e-03 1.759985e-01 6.368326e-02
<VARIANCE> 39
 2.223915e+01 3.198847e+01 7.211694e+01 4.392972e+01 6.424520e+01 7.235825e+01 6.555909e+01 5.392270e+01 5.259503e+01 4.353056e+01 3.091714e+01 2.736318e+01 4.022238e+01 2.142936e+00 3.590024e+00 3.799562e+00 2.706543e+00 3.369543e+00 4.865312e+00 3.892598e+00 4.960638e+00 4.427191e+00 3.238452e+00 3.599234e+00 1.296594e+00 2.847436e+00 5.295237e-01 6.861877e-01 4.879215e-01 4.010210e-01 5.275065e-01 7.523420e-01 7.603028e-01 9.224146e-01 7.426881e-01 5.431560e-01 6.594597e-01 2.334532e-01 5.681836e-01
<GCONST> 1.292024e+02
<STATE> 3
<NUMMIXES> 2
<MIXTURE> 1 5.000000e-01
<MEAN> 39
 -1.080142e+00 -5.620777e+00 -1.452152e+01 4.737608e+00 5.648113e+00 -4.542403e+00 4.775652e+00 -3.220810e-01 -3.620493e+00 -1.108365e+01 -5.917102e+00 2.227762e+00 3.082157e+00 -5.912716e-02 -1.668734e-01 -1.366094e-01 3.074299e-02 -4.854875e-03 -1.386729e-01 3.701052e-01 3.875162e-01 -2.564953e-01 -2.279382e-01 1.868180e-01 6.074029e-02 -2.430968e-01 -2.053134e-02 1.153263e-01 1.562387e-01 -1.278485e-01 -1.223081e-01 7.677577e-02 -7.250237e-02 -1.290557e-01 -1.549187e-01 2.026564e-01 1.569608e-01 -1.373245e-01 -4.628716e-02
<VARIANCE> 39
 6.064189e+00 8.940972e+00 8.033277e+01 5.743534e+01 4.957276e+01 3.880255e+01 5.402638e+01 2.028696e+01 3.988455e+01 6.360097e+01 2.340432e+01 3.691001e+01 2.520450e+01 4.418547e-01 1.072674e+00 1.239476e+00 1.573687e+00 1.435984e+00 2.176253e+00 2.695067e+00 1.056972e+00 2.829992e+00 2.272815e+00 2.299408e+00 2.194078e+00 2.749714e+00 7.991069e-02 1.606677e-01 2.109535e-01 3.101627e-01 2.890685e-01 3.964858e-01 4.295870e-01 2.513883e-01 4.228077e-01 3.747429e-01 4.993780e-01 4.330376e-01 6.167371e-01
<GCONST> 1.077636e+02
<MIXTURE> 2 5.000000e-01
<MEAN> 39
 -1.080142e+00 -5.620777e+00 -1.452152e+01 4.737608e+00 5.648113e+00 -4.542403e+00 4.775652e+00 -3.220810e-01 -3.620493e+00 -1.108365e+01 -5.917102e+00 2.227762e+00 3.082157e+00 -5.912716e-02 -1.668734e-01 -1.366094e-01 3.074299e-02 -4.854875e-03 -1.386729e-01 3.701052e-01 3.875162e-01 -2.564953e-01 -2.279382e-01 1.868180e-01 6.074029e-02 -2.430968e-01 -2.053134e-02 1.153263e-01 1.562387e-01 -1.278485e-01 -1.223081e-01 7.677577e-02 -7.250237e-02 -1.290557e-01 -1.549187e-01 2.026564e-01 1.569608e-01 -1.373245e-01 -4.628716e-02
<VARIANCE> 39
 6.064189e+00 8.940972e+00 8.033277e+01 5.743534e+01 4.957276e+01 3.880255e+01 5.402638e+01 2.028696e+01 3.988455e+01 6.360097e+01 2.340432e+01 3.691001e+01 2.520450e+01 4.418547e-01 1.072674e+00 1.239476e+00 1.573687e+00 1.435984e+00 2.176253e+00 2.695067e+00 1.056972e+00 2.829992e+00 2.272815e+00 2.299408e+00 2.194078e+00 2.749714e+00 7.991069e-02 1.606677e-01 2.109535e-01 3.101627e-01 2.890685e-01 3.964858e-01 4.295870e-01 2.513883e-01 4.228077e-01 3.747429e-01 4.993780e-01 4.330376e-01 6.167371e-01
<GCONST> 1.077636e+02
<STATE> 4
<NUMMIXES> 2
<MIXTURE> 1 5.000000e-01
<MEAN> 39
 -1.865483e+00 -7.233420e+00 -3.593410e+00 -5.340847e+00 -1.015584e+00 -5.707735e+00 1.045328e+01 -1.093031e+00 -9.004490e+00 -4.950998e+00 -3.666631e+00 -5.352670e+00 1.227228e+00 -1.127166e-02 -2.597893e-02 8.317074e-01 -4.862632e-01 -8.350955e-01 3.124158e-01 -5.274520e-02 -2.465813e-01 -3.103257e-01 6.591709e-01 -1.709744e-02 -1.930078e-01 -3.646984e-01 5.324614e-02 1.019649e-01 1.112311e-01 2.125634e-02 -3.340929e-02 -2.310387e-02 -1.759399e-01 -7.367712e-02 2.426108e-01 9.944482e-02 -1.580527e-01 1.560053e-01 -6.022119e-02
<VARIANCE> 39
 5.055254e+00 1.538316e+01 3.790931e+01 4.617284e+01 4.816017e+01 4.089688e+01 2.035949e+01 2.901624e+01 2.596924e+01 6.323315e+01 2.861567e+01 2.452911e+01 1.294638e+01 2.763136e-01 3.659141e-01 9.908190e-01 9.618437e-01 1.557658e+00 1.134317e+00 1.363968e+00 1.342484e+00 1.728620e+00 1.821548e+00 1.551887e+00 1.246618e+00 9.925054e-01 3.459654e-02 6.094663e-02 1.126008e-01 1.888658e-01 2.325390e-01 1.894027e-01 2.353189e-01 2.353110e-01 1.913593e-01 2.364603e-01 2.195048e-01 2.018444e-01 1.225104e-01
<GCONST> 9.027731e+01
<MIXTURE> 2 5.000000e-01
<MEAN> 39
 -1.865483e+00 -7.233420e+00 -3.593410e+00 -5.340847e+00 -1.015584e+00 -5.707735e+00 1.045328e+01 -1.093031e+00 -9.004490e+00 -4.950998e+00 -3.666631e+00 -5.352670e+00 1.227228e+00 -1.127166e-02 -2.597893e-02 8.317074e-01 -4.862632e-01 -8.350955e-01 3.124158e-01 -5.274520e-02 -2.465813e-01 -3.103257e-01 6.591709e-01 -1.709744e-02 -1.930078e-01 -3.646984e-01 5.324614e-02 1.019649e-01 1.112311e-01 2.125634e-02 -3.340929e-02 -2.310387e-02 -1.759399e-01 -7.367712e-02 2.426108e-01 9.944482e-02 -1.580527e-01 1.560053e-01 -6.022119e-02
<VARIANCE> 39
 5.055254e+00 1.538316e+01 3.790931e+01 4.617284e+01 4.816017e+01 4.089688e+01 2.035949e+01 2.901624e+01 2.596924e+01 6.323315e+01 2.861567e+01 2.452911e+01 1.294638e+01 2.763136e-01 3.659141e-01 9.908190e-01 9.618437e-01 1.557658e+00 1.134317e+00 1.363968e+00 1.342484e+00 1.728620e+00 1.821548e+00 1.551887e+00 1.246618e+00 9.925054e-01 3.459654e-02 6.094663e-02 1.126008e-01 1.888658e-01 2.325390e-01 1.894027e-01 2.353189e-01 2.353110e-01 1.913593e-01 2.364603e-01 2.195048e-01 2.018444e-01 1.225104e-01
<GCONST> 9.027731e+01
<STATE> 5
<NUMMIXES> 2
<MIXTURE> 1 5.000000e-01
<MEAN> 39
 4.664930e-01 -2.833135e+00 1.554549e+00 -5.062040e+00 -4.028375e+00 -5.089545e+00 6.926345e+00 -2.585427e+00 -8.457860e+00 1.110917e+00 -5.210531e+00 -4.058979e+00 -1.666109e+00 -1.160835e-01 1.256963e+00 8.028045e-01 -7.104611e-02 1.635938e-01 -1.138851e+00 -9.442174e-01 -3.810284e-01 5.075321e-01 1.288691e+00 1.705760e-01 4.598495e-01 -5.115896e-01 -1.960784e-01 1.722754e-02 7.856066e-02 8.973406e-02 1.572937e-01 -1.127078e-01 -2.078670e-01 2.274793e-03 1.262638e-01 -2.427392e-01 6.842869e-02 -7.165148e-03 1.065145e-01
<VARIANCE> 39
 1.263025e+01 2.567191e+01 4.790929e+01 3.305092e+01 4.566168e+01 7.715720e+01 2.119111e+01 2.475252e+01 4.535593e+01 5.854668e+01 3.676115e+01 3.561499e+01 2.098260e+01 2.259498e+00 1.796342e+00 1.790124e+00 2.226687e+00 2.451666e+00 5.723304e+00 1.412059e+00 1.954045e+00 1.872690e+00 2.798603e+00 2.977188e+00 1.659669e+00 1.440217e+00 1.637498e-01 3.016793e-01 2.920198e-01 3.062566e-01 2.558652e-01 7.491006e-01 2.579547e-01 3.667833e-01 2.219469e-01 5.854647e-01 5.679801e-01 2.882444e-01 2.686965e-01
<GCONST> 1.128233e+02
<MIXTURE> 2 5.000000e-01
<MEAN> 39
 4.664930e-01 -2.833135e+00 1.554549e+00 -5.062040e+00 -4.028375e+00 -5.089545e+00 6.926345e+00 -2.585427e+00 -8.457860e+00 1.110917e+00 -5.210531e+00 -4.058979e+00 -1.666109e+00 -1.160835e-01 1.256963e+00 8.028045e-01 -7.104611e-02 1.635938e-01 -1.138851e+00 -9.442174e-01 -3.810284e-01 5.075321e-01 1.288691e+00 1.705760e-01 4.598495e-01 -5.115896e-01 -1.960784e-01 1.722754e-02 7.856066e-02 8.973406e-02 1.572937e-01 -1.127078e-01 -2.078670e-01 2.274793e-03 1.262638e-01 -2.427392e-01 6.842869e-02 -7.165148e-03 1.065145e-01
<VARIANCE> 39
 1.263025e+01 2.567191e+01 4.790929e+01 3.305092e+01 4.566168e+01 7.715720e+01 2.119111e+01 2.475252e+01 4.535593e+01 5.854668e+01 3.676115e+01 3.561499e+01 2.098260e+01 2.259498e+00 1.796342e+00 1.790124e+00 2.226687e+00 2.451666e+00 5.723304e+00 1.412059e+00 1.954045e+00 1.872690e+00 2.798603e+00 2.977188e+00 1.659669e+00 1.440217e+00 1.637498e-01 3.016793e-01 2.920198e-01 3.062566e-01 2.558652e-01 7.491006e-01 2.579547e-01 3.667833e-01 2.219469e-01 5.854647e-01 5.679801e-01 2.882444e-01 2.686965e-01
<GCONST> 1.128233e+02
<STATE> 6
<NUMMIXES> 2
<MIXTURE> 1 5.000000e-01
<MEAN> 39
 -6.395227e+00 -1.327040e+00 -5.719577e+00 -4.409317e+00 -6.124887e-01 -1.996832e+00 2.053094e+00 -2.004769e+00 8.974264e-01 -7.151628e-01 -4.421103e+00 -5.660011e+00 -7.516387e-02 -1.048701e-01 9.199794e-02 2.897303e-01 -3.436299e-02 -1.007340e-01 -1.222139e-01 -3.260839e-01 -8.403374e-02 1.213968e-01 3.037375e-02 4.661717e-02 3.514740e-01 -7.300891e-02 5.514669e-02 2.699428e-02 3.716583e-02 6.986080e-02 3.001898e-02 8.797707e-02 5.918632e-02 -3.875843e-02 -1.121856e-01 -5.954188e-02 -4.881561e-03 -1.938926e-03 8.562366e-03
<VARIANCE> 39
 1.195612e+02 2.517654e+01 1.962228e+02 2.990501e+01 6.372231e+01 3.160933e+01 4.909146e+01 2.964586e+01 4.767231e+01 4.278224e+01 2.321686e+01 2.496392e+01 2.050570e+01 2.087086e+00 1.242907e+00 2.644859e+00 1.942827e+00 1.949383e+00 2.517373e+00 2.520838e+00 4.400005e+00 3.880554e+00 4.815017e+00 2.156165e+00 2.105458e+00 1.620890e+00 3.771234e-01 2.068982e-01 4.080915e-01 2.694384e-01 4.059524e-01 3.929522e-01 5.627010e-01 9.394646e-01 8.078243e-01 1.159080e+00 4.658884e-01 4.064250e-01 3.956563e-01
<GCONST> 1.218806e+02
<MIXTURE> 2 5.000000e-01
<MEAN> 39
 -6.395227e+00 -1.327040e+00 -5.719577e+00 -4.409317e+00 -6.124887e-01 -1.996832e+00 2.053094e+00 -2.004769e+00 8.974264e-01 -7.151628e-01 -4.421103e+00 -5.660011e+00 -7.516387e-02 -1.048701e-01 9.199794e-02 2.897303e-01 -3.436299e-02 -1.007340e-01 -1.222139e-01 -3.260839e-01 -8.403374e-02 1.213968e-01 3.037375e-02 4.661717e-02 3.514740e-01 -7.300891e-02 5.514669e-02 2.699428e-02 3.716583e-02 6.986080e-02 3.001898e-02 8.797707e-02 5.918632e-02 -3.875843e-02 -1.121856e-01 -5.954188e-02 -4.881561e-03 -1.938926e-03 8.562366e-03
<VARIANCE> 39
 1.195612e+02 2.517654e+01 1.962228e+02 2.990501e+01 6.372231e+01 3.160933e+01 4.909146e+01 2.964586e+01 4.767231e+01 4.278224e+01 2.321686e+01 2.496392e+01 2.050570e+01 2.087086e+00 1.242907e+00 2.644859e+00 1.942827e+00 1.949383e+00 2.517373e+00 2.520838e+00 4.400005e+00 3.880554e+00 4.815017e+00 2.156165e+00 2.105458e+00 1.620890e+00 3.771234e-01 2.068982e-01 4.080915e-01 2.694384e-01 4.059524e-01 3.929522e-01 5.627010e-01 9.394646e-01 8.078243e-01 1.159080e+00 4.658884e-01 4.064250e-01 3.956563e-01
<GCONST> 1.218806e+02
<TRANSP> 7
 0.000000e+00 1.000000e+00 0.000000e+00 0.000000e+00 0.000000e+00 0.000000e+00 0.000000e+00
 0.000000e+00 6.891341e-01 3.108659e-01 0.000000e+00 0.000000e+00 0.000000e+00 0.000000e+00
 0.000000e+00 0.000000e+00 7.429368e-01 2.570631e-01 0.000000e+00 0.000000e+00 0.000000e+00
 0.000000e+00 0.000000e+00 0.000000e+00 7.964872e-01 2.035128e-01 0.000000e+00 0.000000e+00
 0.000000e+00 0.000000e+00 0.000000e+00 0.000000e+00 4.845422e-01 5.154577e-01 0.000000e+00
 0.000000e+00 0.000000e+00 0.000000e+00 0.000000e+00 0.000000e+00 7.724988e-01 2.275012e-01
 0.000000e+00 0.000000e+00 0.000000e+00 0.000000e+00 0.000000e+00 0.000000e+00 0.000000e+00
<ENDHMM>
~h "i"
<BEGINHMM>
<NUMSTATES> 7
<STATE> 2
<NUMMIXES> 2
<MIXTURE> 1 5.000000e-01
<MEAN> 39
 -6.509822e+00 9.157810e+00 3.079474e+00 -7.252924e+00 -1.701267e+00 -4.249050e+00 -7.011786e+00 -3.786879e+00 -3.590347e+00 -7.065189e-01 -1.197672e+01 3.274518e+00 -1.805995e+00 1.247315e+00 1.266787e+00 1.017139e+00 -9.228559e-01 -1.637751e+00 3.880337e-03 -1.533389e+00 -3.081206e-01 -7.558814e-01 -7.396414e-01 -1.648024e-01 2.573641e-01 -9.686282e-01 -2.562414e-01 -5.278872e-01 -8.582328e-03 -4.617045e-01 -6.654608e-01 -2.100461e-01 -3.301087e-02 4.655771e-02 7.738366e-01 5.251431e-01 1.068081e+00 -3.227586e-01 1.335232e-02
<VARIANCE> 39
 3.590592e+01 1.481837e+01 1.570787e+01 9.556261e+00 2.520773e+01 2.160013e+01 8.320543e+00 3.279977e+01 3.083784e+01 1.917050e+01 1.829004e+01 1.556509e+01 3.890731e+01 4.488528e+00 3.693711e+00 2.762572e+00 1.241298e+00 2.970239e+00 4.368678e+00 2.154963e+00 8.347363e-01 3.169960e+00 1.733344e+00 4.952758e+00 4.686837e+00 4.266423e-01 3.016236e-01 1.887588e-01 4.003820e-01 1.439320e-01 9.080917e-01 2.584052e-01 2.612363e-01 4.023169e-01 6.010494e-01 2.873245e-01 1.034619e+00 3.276896e-01 3.602659e-01
<GCONST> 1.084755e+02
<MIXTURE> 2 5.000000e-01
<MEAN> 39
 -6.509822e+00 9.157810e+00 3.079474e+00 -7.252924e+00 -1.701267e+00 -4.249050e+00 -7.011786e+00 -3.786879e+00 -3.590347e+00 -7.065189e-01 -1.197672e+01 3.274518e+00 -1.805995e+00 1.247315e+00 1.266787e+00 1.017139e+00 -9.228559e-01 -1.637751e+00 3.880337e-03 -1.533389e+00 -3.081206e-01 -7.558814e-01 -7.396414e-01 -1.648024e-01 2.573641e-01 -9.686282e-01 -2.562414e-01 -5.278872e-01 -8.582328e-03 -4.617045e-01 -6.654608e-01 -2.100461e-01 -3.301087e-02 4.655771e-02 7.738366e-01 5.251431e-01 1.068081e+00 -3.227586e-01 1.335232e-02
<VARIANCE> 39
 3.590592e+01 1.481837e+01 1.570787e+01 9.556261e+00 2.520773e+01 2.160013e+01 8.320543e+00 3.279977e+01 3.083784e+01 1.917050e+01 1.829004e+01 1.556509e+01 3.890731e+01 4.488528e+00 3.693711e+00 2.762572e+00 1.241298e+00 2.970239e+00 4.368678e+00 2.154963e+00 8.347363e-01 3.169960e+00 1.733344e+00 4.952758e+00 4.686837e+00 4.266423e-01 3.016236e-01 1.887588e-01 4.003820e-01 1.439320e-01 9.080917e-01 2.584052e-01 2.612363e-01 4.023169e-01 6.010494e-01 2.873245e-01 1.034619e+00 3.276896e-01 3.602659e-01
<GCONST> 1.084755e+02
<STATE> 3
<NUMMIXES> 2
<MIXTURE> 1 5.000000e-01
<MEAN> 39
 -4.866465e+00 8.189324e+00 5.730671e+00 -1.309573e+01 -7.104510e+00 -3.746424e+00 -1.048478e+01 -3.867708e+00 6.425916e-01 5.006024e-01 -7.192625e+00 1.848429e+00 -2.565826e+00 -2.717185e-01 -3.716450e-01 5.724617e-02 -1.558177e+00 -1.036211e+00 5.261452e-01 -4.370637e-01 2.805743e-01 1.888979e+00 2.660164e-01 8.230964e-01 1.554145e-01 -2.879409e-01 -1.582455e-01 -1.318458e-01 -1.902070e-01 1.525757e-01 5.368891e-01 -1.191386e-01 3.922796e-01 2.320789e-01 9.498225e-03 1.135145e-01 -4.016747e-01 5.672474e-02 8.033677e-02
<VARIANCE> 39
 8.774624e+00 1.594178e+01 1.045902e+01 1.424117e+01 3.124075e+01 1.213006e+01 9.927305e+00 8.657766e+00 1.748242e+01 9.578043e+00 1.645835e+01 1.050439e+01 2.199505e+01 3.978391e-01 5.805301e-01 2.254952e-01 6.015806e-01 2.723443e+00 8.807763e-01 7.659830e-01 9.325442e-01 7.983733e-01 1.442317e+00 3.171233e+00 1.603255e+00 1.570551e+00 4.160145e-01 2.336856e-01 3.142760e-01 1.051009e-01 8.638507e-02 3.133689e-01 1.250597e-01 1.701522e-01 3.500133e-01 2.943113e-01 2.962861e-01 4.053542e-01 1.220042e-01
<GCONST> 8.497438e+01
<MIXTURE> 2 5.000000e-01
<MEAN> 39
 -4.866465e+00 8.189324e+00 5.730671e+00 -1.309573e+01 -7.104510e+00 -3.746424e+00 -1.048478e+01 -3.867708e+00 6.425916e-01 5.006024e-01 -7.192625e+00 1.848429e+00 -2.565826e+00 -2.717185e-01 -3.716450e-01 5.724617e-02 -1.558177e+00 -1.036211e+00 5.261452e-01 -4.370637e-01 2.805743e-01 1.888979e+00 2.660164e-01 8.230964e-01 1.554145e-01 -2.879409e-01 -1.582455e-01 -1.318458e-01 -1.902070e-01 1.525757e-01 5.368891e-01 -1.191386e-01 3.922796e-01 2.320789e-01 9.498225e-03 1.135145e-01 -4.016747e-01 5.672474e-02 8.033677e-02
<VARIANCE> 39
 8.774624e+00 1.594178e+01 1.045902e+01 1.424117e+01 3.124075e+01 1.213006e+01 9.927305e+00 8.657766e+00 1.748242e+01 9.578043e+00 1.645835e+01 1.050439e+01 2.199505e+01 3.978391e-01 5.805301e-01 2.254952e-01 6.015806e-01 2.723443e+00 8.807763e-01 7.659830e-01 9.325442e-01 7.983733e-01 1.442317e+00 3.171233e+00 1.603255e+00 1.570551e+00 4.160145e-01 2.336856e-01 3.142760e-01 1.051009e-01 8.638507e-02 3.133689e-01 1.250597e-01 1.701522e-01 3.500133e-01 2.943113e-01 2.962861e-01 4.053542e-01 1.220042e-01
<GCONST> 8.497438e+01
<STATE> 4
<NUMMIXES> 2
<MIXTURE> 1 5.000000e-01
<MEAN> 39
 2.726733e+00 7.994991e+00 5.669520e+00 -1.107774e+01 1.862281e+00 -1.102725e+01 -7.351073e+00 -8.059053e+00 -1.588013e+00 5.785473e+00 -1.050728e+01 7.699258e+00 -1.874766e+00 -4.753119e-01 -3.528742e-01 1.420128e-01 -6.089984e-01 -3.620407e-01 9.475837e-01 2.344941e-01 6.504617e-01 4.529053e-02 -3.214759e-01 -3.685022e-01 -1.944380e-01 -1.191113e-01 -4.312648e-02 1.882503e-02 -1.867018e-02 6.326297e-02 4.068229e-02 7.891061e-02 7.144600e-02 4.013418e-02 -9.930062e-02 -6.337743e-02 -3.459484e-02 -1.784636e-01 8.187577e-02
<VARIANCE> 39
 2.919812e+01 7.085590e+00 2.416738e+00 1.090651e+01 5.688905e+01 8.565710e+01 4.810027e+00 1.518121e+01 8.325993e+00 1.390605e+01 1.249695e+01 2.283806e+01 6.551104e+00 1.065551e+00 4.306808e-01 3.641080e-01 4.651329e-01 2.561478e+00 4.989878e+00 2.249389e-01 1.130764e+00 3.977414e-01 1.156074e+00 5.506918e-01 1.670808e+00 7.623468e-01 1.180726e-01 8.183533e-02 5.758975e-02 9.462994e-02 4.642444e-01 6.767564e-01 4.501286e-02 2.003594e-01 1.189008e-01 1.120430e-01 1.342901e-01 2.092923e-01 5.337115e-02
<GCONST> 7.630286e+01
<MIXTURE> 2 5.000000e-01
<MEAN> 39
 2.726733e+00 7.994991e+00 5.669520e+00 -1.107774e+01 1.862281e+00 -1.102725e+01 -7.351073e+00 -8.059053e+00 -1.588013e+00 5.785473e+00 -1.050728e+01 7.699258e+00 -1.874766e+00 -4.753119e-01 -3.528742e-01 1.420128e-01 -6.089984e-01 -3.620407e-01 9.475837e-01 2.344941e-01 6.504617e-01 4.529053e-02 -3.214759e-01 -3.685022e-01 -1.944380e-01 -1.191113e-01 -4.312648e-02 1.882503e-02 -1.867018e-02 6.326297e-02 4.068229e-02 7.891061e-02 7.144600e-02 4.013418e-02 -9.930062e-02 -6.337743e-02 -3.459484e-02 -1.784636e-01 8.187577e-02
<VARIANCE> 39
 2.919812e+01 7.085590e+00 2.416738e+00 1.090651e+01 5.688905e+01 8.565710e+01 4.810027e+00 1.518121e+01 8.325993e+00 1.390605e+01 1.249695e+01 2.283806e+01 6.551104e+00 1.065551e+00 4.306808e-01 3.641080e-01 4.651329e-01 2.561478e+00 4.989878e+00 2.249389e-01 1.130764e+00 3.977414e-01 1.156074e+00 5.506918e-01 1.670808e+00 7.623468e-01 1.180726e-01 8.183533e-02 5.758975e-02 9.462994e-02 4.642444e-01 6.767564e-01 4.501286e-02 2.003594e-01 1.189008e-01 1.120430e-01 1.342901e-01 2.092923e-01 5.337115e-02
<GCONST> 7.630286e+01
<STATE> 5
<NUMMIXES> 2
<MIXTURE> 1 5.000000e-01
<MEAN> 39
 -5.083453e+00 3.591328e+00 9.747866e+00 -2.039391e+01 -1.227423e+00 -1.202918e+00 -6.103489e+00 -3.439008e+00 1.868133e+00 -3.361141e+00 -1.023354e+01 7.001845e-01 -1.353691e+00 -5.622998e-02 9.503984e-03 3.486219e-01 -2.889757e-01 9.064841e-02 -3.046186e-01 2.518404e-02 9.050522e-02 2.907919e-01 -2.225187e-01 3.970128e-01 -4.564748e-01 5.979195e-02 4.679055e-02 5.260169e-02 1.812949e-02 1.412299e-01 -1.380548e-02 -1.274499e-01 -3.893979e-02 -1.386266e-01 -1.266018e-01 -5.303377e-02 1.284606e-01 -6.030175e-03 1.319203e-01
<VARIANCE> 39
 1.187527e+00 6.524717e+00 1.824527e+01 2.718625e+01 4.476461e+01 1.739036e+01 1.401135e+01 8.729045e+00 9.275964e+00 2.046699e+01 1.466397e+01 5.462714e+00 3.331494e+00 1.331082e-01 1.799343e-01 2.169246e-01 1.216796e-01 1.533773e-01 4.705769e-01 1.345608e+00 1.399791e+00 2.299691e-01 8.022701e-01 5.811331e-01 2.782216e-01 4.789927e-01 1.367410e-02 1.915533e-02 1.648661e-02 2.596136e-02 6.291803e-02 8.478667e-02 4.987583e-02 1.363024e-01 3.754072e-02 1.068870e-01 7.716253e-02 3.997699e-02 8.382543e-02
<GCONST> 4.861100e+01
<MIXTURE> 2 5.000000e-01
<MEAN> 39
 -5.083453e+00 3.591328e+00 9.747866e+00 -2.039391e+01 -1.227423e+00 -1.202918e+00 -6.103489e+00 -3.439008e+00 1.868133e+00 -3.361141e+00 -1.023354e+01 7.001845e-01 -1.353691e+00 -5.622998e-02 9.503984e-03 3.486219e-01 -2.889757e-01 9.064841e-02 -3.046186e-01 2.518404e-02 9.050522e-02 2.907919e-01 -2.225187e-01 3.970128e-01 -4.564748e-01 5.979195e-02 4.679055e-02 5.260169e-02 1.812949e-02 1.412299e-01 -1.380548e-02 -1.274499e-01 -3.893979e-02 -1.386266e-01 -1.266018e-01 -5.303377e-02 1.284606e-01 -6.030175e-03 1.319203e-01
<VARIANCE> 39
 1.187527e+00 6.524717e+00 1.824527e+01 2.718625e+01 4.476461e+01 1.739036e+01 1.401135e+01 8.729045e+00 9.275964e+00 2.046699e+01 1.466397e+01 5.462714e+00 3.331494e+00 1.331082e-01 1.799343e-01 2.169246e-01 1.216796e-01 1.533773e-01 4.705769e-01 1.345608e+00 1.399791e+00 2.299691e-01 8.022701e-01 5.811331e-01 2.782216e-01 4.789927e-01 1.367410e-02 1.915533e-02 1.648661e-02 2.596136e-02 6.291803e-02 8.478667e-02 4.987583e-02 1.363024e-01 3.754072e-02 1.068870e-01 7.716253e-02 3.997699e-02 8.382543e-02
<GCONST> 4.861100e+01
<STATE> 6
<NUMMIXES> 2
<MIXTURE> 1 5.000000e-01
<MEAN> 39
 -7.321280e+00 1.073371e+01 5.444963e+00 -1.460061e+01 -1.074201e+01 -2.260709e+00 -1.434342e+01 1.288394e+00 -7.121060e-01 1.617446e+00 -5.121954e+00 -1.002652e+00 -2.302137e-01 2.188241e-01 1.157460e-01 2.452253e-01 1.010073e-01 1.432232e-01 -2.440023e-02 -2.255341e-01 -1.148405e-01 -4.785565e-01 2.481483e-01 1.229983e-01 -8.555225e-02 4.460626e-01 1.097736e-01 -2.000128e-02 9.297782e-02 8.497445e-02 8.086858e-02 5.404948e-02 2.137953e-02 -7.720996e-02 1.107766e-02 8.623562e-02 2.994364e-02 -4.155594e-02 -6.947703e-02
<VARIANCE> 39
 2.839783e+00 1.739474e+01 6.499764e+00 6.593856e+00 1.750341e+01 9.699602e+00 2.788798e+01 7.977100e+00 1.615125e+01 7.908759e+00 1.805777e+01 2.364048e+00 7.012100e+00 2.327365e-01 5.059990e-02 1.946867e-01 2.732895e-01 1.786997e-01 3.196699e-01 4.051065e-01 4.198057e-01 5.638064e-01 6.476987e-01 4.194215e-01 2.396877e-01 2.979692e-01 1.229947e-02 9.517049e-03 2.076392e-02 2.881248e-02 5.278485e-02 5.919707e-02 4.072617e-02 2.909577e-02 9.002351e-02 6.857631e-02 3.644391e-02 4.393249e-02 4.092534e-02
<GCONST> 4.019967e+01
<MIXTURE> 2 5.000000e-01
<MEAN> 39
 -7.321280e+00 1.073371e+01 5.444963e+00 -1.460061e+01 -1.074201e+01 -2.260709e+00 -1.434342e+01 1.288394e+00 -7.121060e-01 1.617446e+00 -5.121954e+00 -1.002652e+00 -2.302137e-01 2.188241e-01 1.157460e-01 2.452253e-01 1.010073e-01 1.432232e-01 -2.440023e-02 -2.255341e-01 -1.148405e-01 -4.785565e-01 2.481483e-01 1.229983e-01 -8.555225e-02 4.460626e-01 1.097736e-01 -2.000128e-02 9.297782e-02 8.497445e-02 8.086858e-02 5.404948e-02 2.137953e-02 -7.720996e-02 1.107766e-02 8.623562e-02 2.994364e-02 -4.155594e-02 -6.947703e-02
<VARIANCE> 39
 2.839783e+00 1.739474e+01 6.499764e+00 6.593856e+00 1.750341e+01 9.699602e+00 2.788798e+01 7.977100e+00 1.615125e+01 7.908759e+00 1.805777e+01 2.364048e+00 7.012100e+00 2.327365e-01 5.059990e-02 1.946867e-01 2.732895e-01 1.786997e-01 3.196699e-01 4.051065e-01 4.198057e-01 5.638064e-01 6.476987e-01 4.194215e-01 2.396877e-01 2.979692e-01 1.229947e-02 9.517049e-03 2.076392e-02 2.881248e-02 5.278485e-02 5.919707e-02 4.072617e-02 2.909577e-02 9.002351e-02 6.857631e-02 3.644391e-02 4.393249e-02 4.092534e-02
<GCONST> 4.019967e+01
<TRANSP> 7
 0.000000e+00 1.000000e+00 0.000000e+00 0.000000e+00 0.000000e+00 0.000000e+00 0.000000e+00
 0.000000e+00 4.998287e-01 5.001713e-01 0.000000e+00 0.000000e+00 0.000000e+00 0.000000e+00
 0.000000e+00 0.000000e+00 5.003408e-01 4.996592e-01 0.000000e+00 0.000000e+00 0.000000e+00
 0.000000e+00 0.000000e+00 0.000000e+00 7.619798e-01 2.380203e-01 0.000000e+00 0.000000e+00
 0.000000e+00 0.000000e+00 0.000000e+00 0.000000e+00 8.203330e-01 1.796670e-01 0.000000e+00
 0.000000e+00 0.000000e+00 0.000000e+00 0.000000e+00 0.000000e+00 8.646536e-01 1.353463e-01
 0.000000e+00 0.000000e+00 0.000000e+00 0.000000e+00 0.000000e+00 0.000000e+00 0.000000e+00
<ENDHMM>
~h "o"
<BEGINHMM>
<NUMSTATES> 7
<STATE> 2
<NUMMIXES> 2
<MIXTURE> 1 5.000000e-01
<MEAN> 39
 3.709524e+00 2.956259e+00 -1.930514e+01 -1.199335e+00 2.198804e+00 -7.675453e+00 -1.483560e+00 -4.187513e+00 7.265298e+00 9.377295e-01 -5.012412e+00 -7.180612e+00 -1.470786e+00 1.842717e-01 -3.172981e-02 7.339777e-05 -5.423728e-02 -1.967353e-01 2.798367e-01 -3.673540e-01 4.805580e-02 -2.619013e-01 1.596788e-01 1.509710e-01 2.898847e-01 -1.502575e-01 -5.851280e-04 1.316153e-03 5.384654e-02 5.733278e-02 -5.734031e-02 -6.319226e-03 3.751718e-03 2.726295e-02 -4.076566e-02 -4.004297e-02 1.509134e-02 4.490101e-02 4.019080e-03
<VARIANCE> 39
 8.244144e+00 1.992085e+01 1.120253e+02 1.357376e+01 1.552086e+01 4.003813e+01 1.550135e+01 5.079103e+01 1.472733e+01 3.240181e+01 1.883406e+01 2.037103e+01 2.433170e+01 1.228283e-01 1.386226e-01 5.929283e-01 4.985506e-01 5.552951e-01 5.722709e-01 6.641811e-01 1.277238e+00 1.067437e+00 1.466192e+00 9.788144e-01 1.606506e+00 4.231602e-01 1.076981e-02 2.153374e-02 5.904838e-02 9.496288e-02 6.150379e-02 1.173121e-01 9.679916e-02 1.196500e-01 1.234076e-01 2.429150e-01 2.077905e-01 1.584258e-01 6.427623e-02
<GCONST> 7.334520e+01
<MIXTURE> 2 5.000000e-01
<MEAN> 39
 3.709524e+00 2.956259e+00 -1.930514e+01 -1.199335e+00 2.198804e+00 -7.675453e+00 -1.483560e+00 -4.187513e+00 7.265298e+00 9.377295e-01 -5.012412e+00 -7.180612e+00 -1.470786e+00 1.842717e-01 -3.172981e-02 7.339777e-05 -5.423728e-02 -1.967353e-01 2.798367e-01 -3.673540e-01 4.805580e-02 -2.619013e-01 1.596788e-01 1.509710e-01 2.898847e-01 -1.502575e-01 -5.851280e-04 1.316153e-03 5.384654e-02 5.733278e-02 -5.734031e-02 -6.319226e-03 3.751718e-03 2.726295e-02 -4.076566e-02 -4.004297e-02 1.509134e-02 4.490101e-02 4.019080e-03
<VARIANCE> 39
 8.244144e+00 1.992085e+01 1.120253e+02 1.357376e+01 1.552086e+01 4.003813e+01 1.550135e+01 5.079103e+01 1.472733e+01 3.240181e+01 1.883406e+01 2.037103e+01 2.433170e+01 1.228283e-01 1.386226e-01 5.929283e-01 4.985506e-01 5.552951e-01 5.722709e-01 6.641811e-01 1.277238e+00 1.067437e+00 1.466192e+00 9.788144e-01 1.606506e+00 4.231602e-01 1.076981e-02 2.153374e-02 5.904838e-02 9.496288e-02 6.150379e-02 1.173121e-01 9.679916e-02 1.196500e-01 1.234076e-01 2.429150e-01 2.077905e-01 1.584258e-01 6.427623e-02
<GCONST> 7.334520e+01
<STATE> 3
<NUMMIXES> 2
<MIXTURE> 1 5.000000e-01
<MEAN> 39
 -6.766000e-01 4.340357e+00 -5.367259e+00 -7.290398e-01 2.959857e+00 2.340067e+00 -1.232919e+00 -4.051222e+00 -2.253867e+00 2.259389e+00 -8.395945e-01 -2.950033e+00 -2.766194e+00 -4.465305e-01 -9.393498e-02 6.328751e-01 2.610950e-01 -1.375908e-01 -7.943579e-02 4.509372e-02 1.482257e-01 1.931369e-02 -4.360510e-01 -1.879975e-01 9.903376e-03 2.949435e-01 -4.870727e-02 -4.822882e-02 4.979909e-03 -1.002987e-02 -1.481933e-02 -7.494079e-02 5.527138e-02 -4.558603e-02 -5.488885e-04 9.091261e-03 -3.913143e-02 -5.268339e-02 2.852329e-02
<VARIANCE> 39
 6.178420e+01 1.582199e+01 8.376188e+01 1.464157e+01 2.114154e+01 2.403760e+01 2.926402e+01 3.842316e+01 1.897352e+01 3.151834e+01 1.570502e+01 1.745440e+01 2.879140e+01 6.533079e-01 6.808199e-01 1.571608e+00 1.332738e+00 1.660333e+00 1.158270e+00 3.418978e+00 3.209416e+00 1.780309e+00 1.613634e+00 1.689607e+00 1.188238e+00 2.927955e+00 1.180766e-01 8.915408e-02 2.969174e-01 2.786355e-01 3.516815e-01 2.125721e-01 7.462955e-01 6.072245e-01 3.260315e-01 2.716359e-01 3.488746e-01 2.131168e-01 6.210146e-01
<GCONST> 1.041720e+02
<MIXTURE> 2 5.000000e-01
<MEAN> 39
 -6.766000e-01 4.340357e+00 -5.367259e+00 -7.290398e-01 2.959857e+00 2.340067e+00 -1.232919e+00 -4.051222e+00 -2.253867e+00 2.259389e+00 -8.395945e-01 -2.950033e+00 -2.766194e+00 -4.465305e-01 -9.393498e-02 6.328751e-01 2.610950e-01 -1.375908e-01 -7.943579e-02 4.509372e-02 1.482257e-01 1.931369e-02 -4.360510e-01 -1.879975e-01 9.903376e-03 2.949435e-01 -4.870727e-02 -4.822882e-02 4.979909e-03 -1.002987e-02 -1.481933e-02 -7.494079e-02 5.527138e-02 -4.558603e-02 -5.488885e-04 9.091261e-03 -3.913143e-02 -5.268339e-02 2.852329e-02
<VARIANCE> 39
 6.178420e+01 1.582199e+01 8.376188e+01 1.464157e+01 2.114154e+01 2.403760e+01 2.926402e+01 3.842316e+01 1.897352e+01 3.151834e+01 1.570502e+01 1.745440e+01 2.879140e+01 6.533079e-01 6.808199e-01 1.571608e+00 1.332738e+00 1.660333e+00 1.158270e+00 3.418978e+00 3.209416e+00 1.780309e+00 1.613634e+00 1.689607e+00 1.188238e+00 2.927955e+00 1.180766e-01 8.915408e-02 2.969174e-01 2.786355e-01 3.516815e-01 2.125721e-01 7.462955e-01 6.072245e-01 3.260315e-01 2.716359e-01 3.488746e-01 2.131168e-01 6.210146e-01
<GCONST> 1.041720e+02
<STATE> 4
<NUMMIXES> 2
<MIXTURE> 1 5.000000e-01
<MEAN> 39
 -2.231048e+00 7.466070e-01 5.700503e+00 1.446948e+00 -5.588988e+00 -6.270642e-01 -2.926512e+00 -5.517499e+00 2.477318e+00 -4.800584e+00 -5.227445e+00 -1.259460e+00 2.175013e+00 -2.199125e+00 -2.438339e+00 -1.267662e+00 -3.780989e-01 -2.980203e-01 -1.321362e-01 9.997798e-01 3.898258e-01 -7.992932e-01 -1.296591e+00 1.482976e+00 -1.271159e+00 -1.854746e-01 -3.731474e-02 -2.083174e-01 -1.082227e-01 -2.897647e-01 5.517139e-02 -2.034598e-01 2.443608e-01 3.509484e-01 -1.011720e-01 1.651863e-01 3.895205e-01 -3.205806e-01 -1.890132e-01
<VARIANCE> 39
 1.204660e+02 6.583914e+01 1.369483e+02 9.978470e+00 1.945910e+01 4.256902e+01 4.627842e+01 1.372209e+02 2.886036e+01 4.001958e+01 2.268280e+01 2.272597e+01 2.297774e+01 4.352335e+00 6.851574e+00 3.402633e+00 1.710948e+00 1.434973e+00 4.004497e+00 3.481635e+00 1.530688e+01 1.690534e+00 2.102094e+00 3.801438e+00 3.700433e+00 2.777767e+00 1.127143e+00 2.042800e+00 4.178275e-01 4.006928e-01 3.903053e-01 7.441580e-01 6.441493e-01 1.858881e+00 5.730781e-01 9.185773e-01 4.917602e-01 4.542803e-01 3.978299e-01
<GCONST> 1.305260e+02
<MIXTURE> 2 5.000000e-01
<MEAN> 39
 -2.231048e+00 7.466070e-01 5.700503e+00 1.446948e+00 -5.588988e+00 -6.270642e-01 -2.926512e+00 -5.517499e+00 2.477318e+00 -4.800584e+00 -5.227445e+00 -1.259460e+00 2.175013e+00 -2.199125e+00 -2.438339e+00 -1.267662e+00 -3.780989e-01 -2.980203e-01 -1.321362e-01 9.997798e-01 3.898258e-01 -7.992932e-01 -1.296591e+00 1.482976e+00 -1.271159e+00 -1.854746e-01 -3.731474e-02 -2.083174e-01 -1.082227e-01 -2.897647e-01 5.517139e-02 -2.034598e-01 2.443608e-01 3.509484e-01 -1.011720e-01 1.651863e-01 3.895205e-01 -3.205806e-01 -1.890132e-01
<VARIANCE> 39
 1.204660e+02 6.583914e+01 1.369483e+02 9.978470e+00 1.945910e+01 4.256902e+01 4.627842e+01 1.372209e+02 2.886036e+01 4.001958e+01 2.268280e+01 2.272597e+01 2.297774e+01 4.352335e+00 6.851574e+00 3.402633e+00 1.710948e+00 1.434973e+00 4.004497e+00 3.481635e+00 1.530688e+01 1.690534e+00 2.102094e+00 3.801438e+00 3.700433e+00 2.777767e+00 1.127143e+00 2.042800e+00 4.178275e-01 4.006928e-01 3.903053e-01 7.441580e-01 6.441493e-01 1.858881e+00 5.730781e-01 9.185773e-01 4.917602e-01 4.542803e-01 3.978299e-01
<GCONST> 1.305260e+02
<STATE> 5
<NUMMIXES> 2
<MIXTURE> 1 5.000000e-01
<MEAN> 39
 6.336243e-01 -8.186451e+00 5.327926e-01 2.620789e+00 -4.927523e+00 -8.988182e+00 -2.677450e+00 4.229505e+00 -5.070430e-01 -5.987271e+00 -1.978605e+00 -5.603578e-01 4.109468e-01 5.091447e-01 -5.261851e-02 1.327549e-01 4.036987e-01 -4.135727e-01 -9.920919e-01 6.006868e-01 4.701781e-01 -8.726869e-01 1.984303e-03 5.005991e-01 -2.270480e-01 -1.428894e-01 -4.243936e-02 3.167262e-01 1.416834e-01 -3.628137e-02 1.164450e-01 1.434826e-01 1.279760e-02 -1.513733e-01 7.537294e-02 1.680147e-01 -4.447618e-02 -1.262470e-01 8.571606e-02
<VARIANCE> 39
 5.618560e+01 3.965043e+01 6.159615e+01 4.756891e+01 2.345214e+01 5.204796e+01 3.088858e+01 3.410807e+01 2.521670e+01 2.401015e+01 2.333391e+01 4.223667e+01 8.022305e+00 7.148621e-01 5.197741e+00 6.036400e+00 4.070434e+00 2.588079e+00 6.844985e+00 2.874965e+00 2.925065e+00 3.793187e+00 3.152608e+00 2.225349e+00 2.070003e+00 1.154285e+00 3.555188e-01 8.917882e-01 6.691748e-01 6.723443e-01 3.326832e-01 1.368948e+00 5.885496e-01 6.752086e-01 8.764403e-01 6.640219e-01 6.096096e-01 5.847226e-01 1.404919e-01
<GCONST> 1.232952e+02
<MIXTURE> 2 5.000000e-01
<MEAN> 39
 6.336243e-01 -8.186451e+00 5.327926e-01 2.620789e+00 -4.927523e+00 -8.988182e+00 -2.677450e+00 4.229505e+00 -5.070430e-01 -5.987271e+00 -1.978605e+00 -5.603578e-01 4.109468e-01 5.091447e-01 -5.261851e-02 1.327549e-01 4.036987e-01 -4.135727e-01 -9.920919e-01 6.006868e-01 4.701781e-01 -8.726869e-01 1.984303e-03 5.005991e-01 -2.270480e-01 -1.428894e-01 -4.243936e-02 3.167262e-01 1.416834e-01 -3.628137e-02 1.164450e-01 1.434826e-01 1.279760e-02 -1.513733e-01 7.537294e-02 1.680147e-01 -4.447618e-02 -1.262470e-01 8.571606e-02
<VARIANCE> 39
 5.618560e+01 3.965043e+01 6.159615e+01 4.756891e+01 2.345214e+01 5.204796e+01 3.088858e+01 3.410807e+01 2.521670e+01 2.401015e+01 2.333391e+01 4.223667e+01 8.022305e+00 7.148621e-01 5.197741e+00 6.036400e+00 4.070434e+00 2.588079e+00 6.844985e+00 2.874965e+00 2.925065e+00 3.793187e+00 3.152608e+00 2.225349e+00 2.070003e+00 1.154285e+00 3.555188e-01 8.917882e-01 6.691748e-01 6.723443e-01 3.326832e-01 1.368948e+00 5.885496e-01 6.752086e-01 8.764403e-01 6.640219e-01 6.096096e-01 5.847226e-01 1.404919e-01
<GCONST> 1.232952e+02
<STATE> 6
<NUMMIXES> 2
<MIXTURE> 1 5.000000e-01
<MEAN> 39
 -8.279384e+00 -4.374310e+00 5.166452e+00 1.681857e+00 -7.064722e+00 -1.721126e+00 4.180521e+00 5.346039e-01 -1.611991e+00 -2.760217e+00 -2.433227e+00 -3.652390e+00 6.602814e-01 -1.395318e-01 2.231491e-01 2.118361e-02 -1.862621e-01 1.657373e-01 2.941779e-01 -7.316410e-03 -3.695979e-01 5.069109e-02 9.407100e-02 -7.838905e-02 -1.585893e-01 1.228547e-01 4.935416e-02 -2.218592e-02 -1.172604e-01 2.406076e-02 8.858128e-02 -2.322128e-02 -1.087607e-01 7.809298e-02 9.895013e-03 -9.398261e-02 1.926572e-02 6.170564e-02 2.949384e-03
<VARIANCE> 39
 6.990211e+01 1.749984e+01 4.519981e+01 5.482151e+01 4.174110e+01 4.244025e+01 4.157853e+01 5.562567e+01 3.200682e+01 4.031833e+01 2.200627e+01 2.383582e+01 2.826086e+01 1.919460e+00 7.747602e-01 2.443534e+00 2.097621e+00 2.371235e+00 3.180419e+00 3.979986e+00 3.506624e+00 2.013697e+00 3.644200e+00 2.430502e+00 1.916919e+00 3.276907e+00 1.578873e-01 1.239253e-01 4.650795e-01 3.281510e-01 4.440722e-01 6.060597e-01 7.336225e-01 7.770416e-01 3.124108e-01 7.496494e-01 4.992792e-01 3.957023e-01 7.203802e-01
<GCONST> 1.189110e+02
<MIXTURE> 2 5.000000e-01
<MEAN> 39
 -8.279384e+00 -4.374310e+00 5.166452e+00 1.681857e+00 -7.064722e+00 -1.721126e+00 4.180521e+00 5.346039e-01 -1.611991e+00 -2.760217e+00 -2.433227e+00 -3.652390e+00 6.602814e-01 -1.395318e-01 2.231491e-01 2.118361e-02 -1.862621e-01 1.657373e-01 2.941779e-01 -7.316410e-03 -3.695979e-01 5.069109e-02 9.407100e-02 -7.838905e-02 -1.585893e-01 1.228547e-01 4.935416e-02 -2.218592e-02 -1.172604e-01 2.406076e-02 8.858128e-02 -2.322128e-02 -1.087607e-01 7.809298e-02 9.895013e-03 -9.398261e-02 1.926572e-02 6.170564e-02 2.949384e-03
<VARIANCE> 39
 6.990211e+01 1.749984e+01 4.519981e+01 5.482151e+01 4.174110e+01 4.244025e+01 4.157853e+01 5.562567e+01 3.200682e+01 4.031833e+01 2.200627e+01 2.383582e+01 2.826086e+01 1.919460e+00 7.747602e-01 2.443534e+00 2.097621e+00 2.371235e+00 3.180419e+00 3.979986e+00 3.506624e+00 2.013697e+00 3.644200e+00 2.430502e+00 1.916919e+00 3.276907e+00 1.578873e-01 1.239253e-01 4.650795e-01 3.281510e-01 4.440722e-01 6.060597e-01 7.336225e-01 7.770416e-01 3.124108e-01 7.496494e-01 4.992792e-01 3.957023e-01 7.203802e-01
<GCONST> 1.189110e+02
<TRANSP> 7
 0.000000e+00 1.000000e+00 0.000000e+00 0.000000e+00 0.000000e+00 0.000000e+00 0.000000e+00
 0.000000e+00 9.298983e-01 7.010174e-02 0.000000e+00 0.000000e+00 0.000000e+00 0.000000e+00
 0.000000e+00 0.000000e+00 8.810930e-01 1.189069e-01 0.000000e+00 0.000000e+00 0.000000e+00
 0.000000e+00 0.000000e+00 0.000000e+00 5.839309e-01 4.160691e-01 0.000000e+00 0.000000e+00
 0.000000e+00 0.000000e+00 0.000000e+00 0.000000e+00 8.246741e-01 1.753259e-01 0.000000e+00
 0.000000e+00 0.000000e+00 0.000000e+00 0.000000e+00 0.000000e+00 9.330704e-01 6.692959e-02
 0.000000e+00 0.000000e+00 0.000000e+00 0.000000e+00 0.000000e+00 0.000000e+00 0.000000e+00
<ENDHMM>
~h "q"
<BEGINHMM>
<NUMSTATES> 5
<STATE> 2
<NUMMIXES> 2
<MIXTURE> 1 5.000000e-01
<MEAN> 39
 1.674910e+00 6.090620e-01 4.847417e+00 -4.660657e+00 9.648728e-01 -1.732060e+01 6.368703e+00 -6.153655e+00 -1.506660e+01 6.420590e+00 -5.791569e+00 1.289225e+00 -7.841653e+00 3.646334e-01 2.087367e+00 1.380045e+00 -1.134278e-01 8.592346e-01 -3.073557e+00 -1.395663e+00 -1.650143e+00 7.569137e-01 2.207710e+00 1.544474e+00 -1.645239e-01 -1.541438e+00 -1.540613e-01 -5.403834e-02 -3.834642e-01 7.827038e-02 -6.039090e-02 5.702294e-01 1.133469e-02 -3.269089e-01 7.633234e-02 -1.680910e-01 4.468056e-02 -1.626134e-01 3.199309e-01
<VARIANCE> 39
 2.330276e+00 2.590539e+01 1.223159e+01 5.325267e+00 1.187284e+01 5.768803e+01 1.348133e+01 3.682421e+01 8.531427e+00 3.448579e+01 2.845126e+01 1.648168e+01 1.493664e+01 3.325611e-01 1.060109e+00 1.519423e+00 6.788711e-01 1.603126e+00 3.610519e+00 5.703677e-01 1.176871e+00 4.374905e-01 1.408877e+00 8.541721e-01 8.637217e-01 7.022947e-01 6.057789e-02 3.591627e-01 1.546977e-01 1.352359e-01 2.696157e-01 7.290469e-01 2.099082e-01 4.983878e-01 1.151324e-01 4.223801e-01 4.270763e-01 1.257456e-01 1.202899e-01
<GCONST> 8.678893e+01
<MIXTURE> 2 5.000000e-01
<MEAN> 39
 1.674910e+00 6.090620e-01 4.847417e+00 -4.660657e+00 9.648728e-01 -1.732060e+01 6.368703e+00 -6.153655e+00 -1.506660e+01 6.420590e+00 -5.791569e+00 1.289225e+00 -7.841653e+00 3.646334e-01 2.087367e+00 1.380045e+00 -1.134278e-01 8.592346e-01 -3.073557e+00 -1.395663e+00 -1.650143e+00 7.569137e-01 2.207710e+00 1.544474e+00 -1.645239e-01 -1.541438e+00 -1.540613e-01 -5.403834e-02 -3.834642e-01 7.827038e-02 -6.039090e-02 5.702294e-01 1.133469e-02 -3.269089e-01 7.633234e-02 -1.680910e-01 4.468056e-02 -1.626134e-01 3.199309e-01
<VARIANCE> 39
 2.330276e+00 2.590539e+01 1.223159e+01 5.325267e+00 1.187284e+01 5.768803e+01 1.348133e+01 3.682421e+01 8.531427e+00 3.448579e+01 2.845126e+01 1.648168e+01 1.493664e+01 3.325611e-01 1.060109e+00 1.519423e+00 6.788711e-01 1.603126e+00 3.610519e+00 5.703677e-01 1.176871e+00 4.374905e-01 1.408877e+00 8.541721e-01 8.637217e-01 7.022947e-01 6.057789e-02 3.591627e-01 1.546977e-01 1.352359e-01 2.696157e-01 7.290469e-01 2.099082e-01 4.983878e-01 1.151324e-01 4.223801e-01 4.270763e-01 1.257456e-01 1.202899e-01
<GCONST> 8.678893e+01
<STATE> 3
<NUMMIXES> 2
<MIXTURE> 1 5.000000e-01
<MEAN> 39
 2.681973e+00 8.707198e+00 5.187963e+00 -5.598273e+00 4.353779e+00 -2.211073e+01 -2.133405e-01 -1.230169e+01 -1.038887e+01 1.316421e+01 -3.795084e+00 2.235883e-01 -7.795236e+00 3.272317e-01 3.255625e-01 -3.933013e-02 -7.047063e-02 9.409273e-02 2.922937e-02 -2.603330e-01 -1.997461e-01 7.521264e-03 3.150919e-01 -8.501827e-02 1.394213e-01 4.695544e-01 2.815596e-02 -6.028434e-02 8.819991e-03 7.538006e-02 -9.090649e-02 5.615781e-02 5.335049e-02 1.135146e-01 -9.186164e-02 -6.486902e-02 -3.291008e-02 3.098470e-02 7.798801e-02
<VARIANCE> 39
 8.616818e+00 6.590361e+00 3.819584e+00 2.565276e+00 2.408958e+00 5.968706e+00 6.476664e+00 1.752032e+01 9.915765e+00 8.050658e+00 9.765944e+00 5.637626e+00 7.419371e+00 1.562345e-01 1.542987e-01 3.078282e-01 3.027329e-01 4.176121e-01 4.438682e-01 4.569986e-01 5.109218e-01 6.066105e-01 6.135853e-01 4.842859e-01 4.691775e-01 1.929344e-01 1.721993e-02 3.661146e-02 6.814654e-02 5.585616e-02 6.589095e-02 1.262576e-01 9.520279e-02 1.439420e-01 7.805037e-02 1.304162e-01 1.232140e-01 7.264587e-02 4.712399e-02
<GCONST> 4.805656e+01
<MIXTURE> 2 5.000000e-01
<MEAN> 39
 2.681973e+00 8.707198e+00 5.187963e+00 -5.598273e+00 4.353779e+00 -2.211073e+01 -2.133405e-01 -1.230169e+01 -1.038887e+01 1.316421e+01 -3.795084e+00 2.235883e-01 -7.795236e+00 3.272317e-01 3.255625e-01 -3.933013e-02 -7.047063e-02 9.409273e-02 2.922937e-02 -2.603330e-01 -1.997461e-01 7.521264e-03 3.150919e-01 -8.501827e-02 1.394213e-01 4.695544e-01 2.815596e-02 -6.028434e-02 8.819991e-03 7.538006e-02 -9.090649e-02 5.615781e-02 5.335049e-02 1.135146e-01 -9.186164e-02 -6.486902e-02 -3.291008e-02 3.098470e-02 7.798801e-02
<VARIANCE> 39
 8.616818e+00 6.590361e+00 3.819584e+00 2.565276e+00 2.408958e+00 5.968706e+00 6.476664e+00 1.752032e+01 9.915765e+00 8.050658e+00 9.765944e+00 5.637626e+00 7.419371e+00 1.562345e-01 1.542987e-01 3.078282e-01 3.027329e-01 4.176121e-01 4.438682e-01 4.569986e-01 5.109218e-01 6.066105e-01 6.135853e-01 4.842859e-01 4.691775e-01 1.929344e-01 1.721993e-02 3.661146e-02 6.814654e-02 5.585616e-02 6.589095e-02 1.262576e-01 9.520279e-02 1.439420e-01 7.805037e-02 1.304162e-01 1.232140e-01 7.264587e-02 4.712399e-02
<GCONST> 4.805656e+01
<STATE> 4
<NUMMIXES> 2
<MIXTURE> 1 5.000000e-01
<MEAN> 39
 6.157420e+00 1.018367e+01 5.268416e+00 -1.871128e+00 1.868300e+00 -1.983708e+01 -3.098315e+00 -1.297250e+01 -1.148996e+01 1.239361e+01 -1.112654e+00 1.568244e+00 -1.349505e+00 -5.737339e-01 -3.080079e-01 -3.634143e-01 9.527028e-01 -4.408165e-01 1.483818e+00 -6.009830e-01 2.981007e-01 8.591009e-01 -1.671375e+00 3.818519e-01 1.127029e-01 7.460244e-01 -3.311190e-01 -2.443979e-01 -1.355673e-01 9.259411e-04 6.973192e-02 4.097237e-01 -6.149326e-02 4.920538e-02 3.038289e-01 -3.009691e-01 -1.440754e-02 -9.371570e-03 -1.091320e-01
<VARIANCE> 39
 5.721774e+00 4.401104e+00 8.776227e+00 6.423886e+00 6.500453e+00 1.745697e+01 1.366864e+01 1.135810e+01 2.381478e+01 3.666216e+01 1.014895e+01 1.535789e+01 7.564076e+00 1.450515e+00 1.548901e+00 7.737170e-01 6.827151e-01 1.259400e+00 3.120283e+00 3.110994e+00 1.367382e+00 3.672441e+00 3.409436e+00 1.139515e+00 1.644994e+00 8.486515e-01 1.637230e-01 2.487363e-01 1.248578e-01 1.156212e-01 2.077709e-01 4.079345e-01 6.613234e-01 2.902638e-01 6.919796e-01 6.439809e-01 3.117450e-01 3.454679e-01 2.243097e-01
<GCONST> 9.244694e+01
<MIXTURE> 2 5.000000e-01
<MEAN> 39
 6.157420e+00 1.018367e+01 5.268416e+00 -1.871128e+00 1.868300e+00 -1.983708e+01 -3.098315e+00 -1.297250e+01 -1.148996e+01 1.239361e+01 -1.112654e+00 1.568244e+00 -1.349505e+00 -5.737339e-01 -3.080079e-01 -3.634143e-01 9.527028e-01 -4.408165e-01 1.483818e+00 -6.009830e-01 2.981007e-01 8.591009e-01 -1.671375e+00 3.818519e-01 1.127029e-01 7.460244e-01 -3.311190e-01 -2.443979e-01 -1.355673e-01 9.259411e-04 6.973192e-02 4.097237e-01 -6.149326e-02 4.920538e-02 3.038289e-01 -3.009691e-01 -1.440754e-02 -9.371570e-03 -1.091320e-01
<VARIANCE> 39
 5.721774e+00 4.401104e+00 8.776227e+00 6.423886e+00 6.500453e+00 1.745697e+01 1.366864e+01 1.135810e+01 2.381478e+01 3.666216e+01 1.014895e+01 1.535789e+01 7.564076e+00 1.450515e+00 1.548901e+00 7.737170e-01 6.827151e-01 1.259400e+00 3.120283e+00 3.110994e+00 1.367382e+00 3.672441e+00 3.409436e+00 1.139515e+00 1.644994e+00 8.486515e-01 1.637230e-01 2.487363e-01 1.248578e-01 1.156212e-01 2.077709e-01 4.079345e-01 6.613234e-01 2.902638e-01 6.919796e-01 6.439809e-01 3.117450e-01 3.454679e-01 2.243097e-01
<GCONST> 9.244694e+01
<TRANSP> 5
 0.000000e+00 1.000000e+00 0.000000e+00 0.000000e+00 0.000000e+00
 0.000000e+00 7.978147e-01 2.021853e-01 0.000000e+00 0.000000e+00
 0.000000e+00 0.000000e+00 9.275166e-01 7.248336e-02 0.000000e+00
 0.000000e+00 0.000000e+00 0.000000e+00 8.530803e-01 1.469197e-01
 0.000000e+00 0.000000e+00 0.000000e+00 0.000000e+00 0.000000e+00
<ENDHMM>
~h "r"
<BEGINHMM>
<NUMSTATES> 5
<STATE> 2
<NUMMIXES> 2
<MIXTURE> 1 5.000000e-01
<MEAN> 39
 -2.410792e+01 3.913643e+00 4.078865e-02 -1.089883e+01 1.836495e+00 -5.466546e+00 3.608953e+00 -3.085200e+00 1.365855e+00 6.142227e-01 -4.222182e+00 -3.012794e+00 -2.893681e+00 -3.443053e-01 -7.168719e-02 4.409427e-01 -1.362770e-01 -3.829424e-02 5.820420e-02 -2.646835e-01 -1.916604e-02 1.046234e-01 1.217559e-01 8.943212e-02 9.768062e-02 -3.029283e-02 1.038164e-01 -4.439911e-02 1.915182e-02 7.630992e-02 -4.877534e-02 3.735532e-03 -2.696493e-02 -4.018048e-02 -4.660496e-02 -7.365922e-02 3.885490e-02 3.218726e-02 9.570134e-02
<VARIANCE> 39
 2.236151e+01 7.802291e+00 8.766032e+00 2.176571e+01 1.259173e+01 2.708409e+01 4.479946e+01 2.858072e+01 2.542708e+01 2.449172e+01 2.258345e+01 1.909217e+01 1.399611e+01 6.079771e-01 7.355167e-01 1.353198e+00 2.037666e+00 1.829926e+00 3.322399e+00 2.620731e+00 5.390061e+00 3.212295e+00 4.341316e+00 2.754135e+00 3.246588e+00 1.995281e+00 8.461243e-02 1.040101e-01 1.629381e-01 5.243213e-01 4.262730e-01 5.729722e-01 4.294123e-01 1.131204e+00 5.105152e-01 1.034063e+00 5.447550e-01 7.665680e-01 2.929535e-01
<GCONST> 1.083312e+02
<MIXTURE> 2 5.000000e-01
<MEAN> 39
 -2.410792e+01 3.913643e+00 4.078865e-02 -1.089883e+01 1.836495e+00 -5.466546e+00 3.608953e+00 -3.085200e+00 1.365855e+00 6.142227e-01 -4.222182e+00 -3.012794e+00 -2.893681e+00 -3.443053e-01 -7.168719e-02 4.409427e-01 -1.362770e-01 -3.829424e-02 5.820420e-02 -2.646835e-01 -1.916604e-02 1.046234e-01 1.217559e-01 8.943212e-02 9.768062e-02 -3.029283e-02 1.038164e-01 -4.439911e-02 1.915182e-02 7.630992e-02 -4.877534e-02 3.735532e-03 -2.696493e-02 -4.018048e-02 -4.660496e-02 -7.365922e-02 3.885490e-02 3.218726e-02 9.570134e-02
<VARIANCE> 39
 2.236151e+01 7.802291e+00 8.766032e+00 2.176571e+01 1.259173e+01 2.708409e+01 4.479946e+01 2.858072e+01 2.542708e+01 2.449172e+01 2.258345e+01 1.909217e+01 1.399611e+01 6.079771e-01 7.355167e-01 1.353198e+00 2.037666e+00 1.829926e+00 3.322399e+00 2.620731e+00 5.390061e+00 3.212295e+00 4.341316e+00 2.754135e+00 3.246588e+00 1.995281e+00 8.461243e-02 1.040101e-01 1.629381e-01 5.243213e-01 4.262730e-01 5.729722e-01 4.294123e-01 1.131204e+00 5.105152e-01 1.034063e+00 5.447550e-01 7.665680e-01 2.929535e-01
<GCONST> 1.083312e+02
<STATE> 3
<NUMMIXES> 2
<MIXTURE> 1 5.000000e-01
<MEAN> 39
 -6.711665e+00 -2.781372e+00 3.916008e+00 -4.411717e+00 -5.735225e+00 -6.026206e+00 4.186347e+00 -1.099196e+00 -1.169768e-01 -7.255593e+00 2.402263e+00 -4.871885e+00 -1.380751e+00 1.827334e+00 -6.245697e-01 -8.339236e-01 2.592045e-01 -8.917161e-01 -8.908600e-01 4.950759e-01 5.844520e-01 -3.017280e-01 -1.334105e+00 3.160654e-02 -3.860813e-01 3.230810e-03 -1.134943e-03 -7.625048e-02 -4.018236e-01 -1.204996e-01 1.965859e-01 2.376283e-02 -2.695728e-01 2.099654e-01 3.213770e-02 9.567054e-03 -1.842982e-01 9.808148e-02 1.388374e-01
<VARIANCE> 39
 7.597250e+01 1.432255e+01 2.373805e+01 1.158853e+01 1.845894e+01 2.168543e+01 4.857247e+01 4.804377e+01 3.440903e+01 4.377835e+01 1.893198e+01 1.348642e+01 1.276114e+01 4.434461e+00 2.418215e+00 3.915338e+00 1.971636e+00 1.894686e+00 1.490653e+00 6.193497e+00 6.614798e+00 5.650663e+00 2.318751e+00 2.135525e+00 1.388328e+00 1.323369e+00 1.146827e+00 4.939338e-01 6.652388e-01 2.111630e-01 3.564501e-01 3.558693e-01 9.685879e-01 1.096314e+00 1.564206e+00 3.984266e-01 3.680051e-01 2.565064e-01 2.573486e-01
<GCONST> 1.178211e+02
<MIXTURE> 2 5.000000e-01
<MEAN> 39
 -6.711665e+00 -2.781372e+00 3.916008e+00 -4.411717e+00 -5.735225e+00 -6.026206e+00 4.186347e+00 -1.099196e+00 -1.169768e-01 -7.255593e+00 2.402263e+00 -4.871885e+00 -1.380751e+00 1.827334e+00 -6.245697e-01 -8.339236e-01 2.592045e-01 -8.917161e-01 -8.908600e-01 4.950759e-01 5.844520e-01 -3.017280e-01 -1.334105e+00 3.160654e-02 -3.860813e-01 3.230810e-03 -1.134943e-03 -7.625048e-02 -4.018236e-01 -1.204996e-01 1.965859e-01 2.376283e-02 -2.695728e-01 2.099654e-01 3.213770e-02 9.567054e-03 -1.842982e-01 9.808148e-02 1.388374e-01
<VARIANCE> 39
 7.597250e+01 1.432255e+01 2.373805e+01 1.158853e+01 1.845894e+01 2.168543e+01 4.857247e+01 4.804377e+01 3.440903e+01 4.377835e+01 1.893198e+01 1.348642e+01 1.276114e+01 4.434461e+00 2.418215e+00 3.915338e+00 1.971636e+00 1.894686e+00 1.490653e+00 6.193497e+00 6.614798e+00 5.650663e+00 2.318751e+00 2.135525e+00 1.388328e+00 1.323369e+00 1.146827e+00 4.939338e-01 6.652388e-01 2.111630e-01 3.564501e-01 3.558693e-01 9.685879e-01 1.096314e+00 1.564206e+00 3.984266e-01 3.680051e-01 2.565064e-01 2.573486e-01
<GCONST> 1.178211e+02
<STATE> 4
<NUMMIXES> 2
<MIXTURE> 1 5.000000e-01
<MEAN> 39
 -2.542761e+00 -6.225525e+00 -2.984000e+00 -6.866134e+00 -1.030347e+01 -2.521230e+00 1.023661e+01 3.668955e-01 -1.126546e+01 -3.827796e+00 -7.576930e+00 -3.203362e+00 1.475706e+00 -2.386291e-02 9.295981e-02 -2.118547e-01 -5.663200e-03 -4.534341e-02 6.111848e-01 -1.283959e-01 1.111295e-01 -5.375140e-01 5.667019e-01 -5.506533e-01 1.567629e-01 2.342928e-01 9.479161e-02 1.635416e-01 1.261008e-01 1.467106e-01 7.857201e-02 -2.996129e-02 -2.685356e-03 -1.302493e-01 7.998656e-02 1.289000e-01 7.477511e-02 -1.088143e-01 -1.966903e-02
<VARIANCE> 39
 3.362093e+00 1.391052e+00 3.290647e+00 2.267221e+00 4.550632e+00 1.690326e+01 2.806312e+01 1.007208e+01 2.934543e+01 2.879502e+01 2.567101e+01 1.655472e+00 3.791991e+00 3.468744e-01 1.044445e-01 5.407372e-01 3.437610e-01 5.987662e-01 1.045119e+00 7.941996e-01 2.400288e-01 1.777017e+00 9.258736e-01 2.399602e-01 3.206108e-01 5.336206e-01 3.946977e-02 3.863853e-02 5.679860e-02 1.267752e-01 6.298870e-02 1.406797e-01 1.114089e-01 9.321860e-02 1.656044e-01 1.280517e-01 6.251905e-02 4.430099e-02 6.842377e-02
<GCONST> 5.407921e+01
<MIXTURE> 2 5.000000e-01
<MEAN> 39
 -2.542761e+00 -6.225525e+00 -2.984000e+00 -6.866134e+00 -1.030347e+01 -2.521230e+00 1.023661e+01 3.668955e-01 -1.126546e+01 -3.827796e+00 -7.576930e+00 -3.203362e+00 1.475706e+00 -2.386291e-02 9.295981e-02 -2.118547e-01 -5.663200e-03 -4.534341e-02 6.111848e-01 -1.283959e-01 1.111295e-01 -5.375140e-01 5.667019e-01 -5.506533e-01 1.567629e-01 2.342928e-01 9.479161e-02 1.635416e-01 1.261008e-01 1.467106e-01 7.857201e-02 -2.996129e-02 -2.685356e-03 -1.302493e-01 7.998656e-02 1.289000e-01 7.477511e-02 -1.088143e-01 -1.966903e-02
<VARIANCE> 39
 3.362093e+00 1.391052e+00 3.290647e+00 2.267221e+00 4.550632e+00 1.690326e+01 2.806312e+01 1.007208e+01 2.934543e+01 2.879502e+01 2.567101e+01 1.655472e+00 3.791991e+00 3.468744e-01 1.044445e-01 5.407372e-01 3.437610e-01 5.987662e-01 1.045119e+00 7.941996e-01 2.400288e-01 1.777017e+00 9.258736e-01 2.399602e-01 3.206108e-01 5.336206e-01 3.946977e-02 3.863853e-02 5.679860e-02 1.267752e-01 6.298870e-02 1.406797e-01 1.114089e-01 9.321860e-02 1.656044e-01 1.280517e-01 6.251905e-02 4.430099e-02 6.842377e-02
<GCONST> 5.407921e+01
<TRANSP> 5
 0.000000e+00 1.000000e+00 0.000000e+00 0.000000e+00 0.000000e+00
 0.000000e+00 9.210414e-01 7.895864e-02 0.000000e+00 0.000000e+00
 0.000000e+00 0.000000e+00 8.750317e-01 1.249683e-01 0.000000e+00
 0.000000e+00 0.000000e+00 0.000000e+00 8.235293e-01 1.764707e-01
 0.000000e+00 0.000000e+00 0.000000e+00 0.000000e+00 0.000000e+00
<ENDHMM>
~h "u"
<BEGINHMM>
<NUMSTATES> 7
<STATE> 2
<NUMMIXES> 2
<MIXTURE> 1 5.000000e-01
<MEAN> 39
 -4.391891e-01 5.718184e+00 -9.774768e+00 -1.547867e+00 4.586308e-02 -4.750940e+00 -1.395519e+00 -1.040867e+01 -3.887756e+00 -1.684510e+00 1.109214e+00 7.663997e-01 -2.930293e+00 1.452496e-02 -2.676754e-01 -2.066585e+00 -1.409946e+00 -1.266715e+00 8.827469e-01 1.687581e+00 6.788638e-01 -2.700337e-01 7.443666e-01 4.230117e-01 -7.195382e-01 -8.521518e-02 4.810814e-01 1.809239e-01 2.774127e-01 2.134661e-01 -2.171146e-01 -4.881034e-01 -2.150630e-01 2.668169e-01 -1.703051e-01 8.520980e-02 -4.545052e-02 -1.316670e-01 -8.820748e-02
<VARIANCE> 39
 1.031695e+02 1.449040e+01 7.464429e+01 3.454930e+01 2.951706e+01 5.540355e+01 2.798816e+01 4.326675e+01 1.765866e+01 2.131315e+01 2.671655e+01 3.148454e+01 1.323264e+01 6.636308e+00 6.730843e+00 4.484995e+00 1.702173e+00 3.481194e+00 2.980310e+00 1.615311e+00 2.064648e+00 2.710318e+00 2.945214e+00 1.801874e+00 3.239594e+00 1.304260e+00 1.813170e+00 7.684742e-01 8.307273e-01 4.511117e-01 6.893510e-01 9.155936e-01 6.328231e-01 4.205299e-01 5.419534e-01 3.058795e-01 3.677998e-01 4.987132e-01 1.368054e-01
<GCONST> 1.221559e+02
<MIXTURE> 2 5.000000e-01
<MEAN> 39
 -4.391891e-01 5.718184e+00 -9.774768e+00 -1.547867e+00 4.586308e-02 -4.750940e+00 -1.395519e+00 -1.040867e+01 -3.887756e+00 -1.684510e+00 1.109214e+00 7.663997e-01 -2.930293e+00 1.452496e-02 -2.676754e-01 -2.066585e+00 -1.409946e+00 -1.266715e+00 8.827469e-01 1.687581e+00 6.788638e-01 -2.700337e-01 7.443666e-01 4.230117e-01 -7.195382e-01 -8.521518e-02 4.810814e-01 1.809239e-01 2.774127e-01 2.134661e-01 -2.171146e-01 -4.881034e-01 -2.150630e-01 2.668169e-01 -1.703051e-01 8.520980e-02 -4.545052e-02 -1.316670e-01 -8.820748e-02
<VARIANCE> 39
 1.031695e+02 1.449040e+01 7.464429e+01 3.454930e+01 2.951706e+01 5.540355e+01 2.798816e+01 4.326675e+01 1.765866e+01 2.131315e+01 2.671655e+01 3.148454e+01 1.323264e+01 6.636308e+00 6.730843e+00 4.484995e+00 1.702173e+00 3.481194e+00 2.980310e+00 1.615311e+00 2.064648e+00 2.710318e+00 2.945214e+00 1.801874e+00 3.239594e+00 1.304260e+00 1.813170e+00 7.684742e-01 8.307273e-01 4.511117e-01 6.893510e-01 9.155936e-01 6.328231e-01 4.205299e-01 5.419534e-01 3.058795e-01 3.677998e-01 4.987132e-01 1.368054e-01
<GCONST> 1.221559e+02
<STATE> 3
<NUMMIXES> 2
<MIXTURE> 1 5.000000e-01
<MEAN> 39
 -1.855253e+00 3.848916e+00 -3.737049e+00 -1.517967e+00 -9.771610e+00 -1.028925e+01 -1.457716e+00 -1.453385e-01 -5.461064e+00 2.678795e+00 2.787698e-01 -4.835537e+00 -2.311433e+00 1.263020e+00 1.908019e-01 -9.907774e-01 2.402632e-01 -2.866410e-01 -2.963515e+00 -7.496228e-01 1.927597e+00 3.672089e-02 7.024740e-01 -1.274421e-01 8.001933e-02 -2.509185e-01 -3.767673e-01 -1.234249e-01 -1.078331e-01 1.350020e-01 5.011418e-01 6.640653e-02 -2.298016e-01 -8.552872e-02 5.075927e-01 -3.339944e-01 -2.992072e-01 3.162017e-01 1.938914e-01
<VARIANCE> 39
 2.914534e+01 9.760541e+00 7.501667e+01 2.499163e+01 2.551370e+01 6.680205e+01 1.284454e+01 5.429185e+01 4.039834e+00 2.087891e+01 3.467460e+01 2.061959e+01 9.852703e+00 2.454572e+00 6.770025e-01 1.510467e+00 2.610697e+00 3.687748e+00 5.713182e+00 1.131334e+00 1.467833e+00 8.786944e-01 1.666858e+00 4.341687e+00 1.301041e+00 1.079294e+00 3.120246e-01 3.694136e-01 3.082196e-01 2.659102e-01 3.441620e-01 1.096036e+00 2.135307e-01 4.265964e-01 1.354811e-01 3.813599e-01 7.928463e-01 1.327406e-01 1.579761e-01
<GCONST> 1.046789e+02
<MIXTURE> 2 5.000000e-01
<MEAN> 39
 -1.855253e+00 3.848916e+00 -3.737049e+00 -1.517967e+00 -9.771610e+00 -1.028925e+01 -1.457716e+00 -1.453385e-01 -5.461064e+00 2.678795e+00 2.787698e-01 -4.835537e+00 -2.311433e+00 1.263020e+00 1.908019e-01 -9.907774e-01 2.402632e-01 -2.866410e-01 -2.963515e+00 -7.496228e-01 1.927597e+00 3.672089e-02 7.024740e-01 -1.274421e-01 8.001933e-02 -2.509185e-01 -3.767673e-01 -1.234249e-01 -1.078331e-01 1.350020e-01 5.011418e-01 6.640653e-02 -2.298016e-01 -8.552872e-02 5.075927e-01 -3.339944e-01 -2.992072e-01 3.162017e-01 1.938914e-01
<VARIANCE> 39
 2.914534e+01 9.760541e+00 7.501667e+01 2.499163e+01 2.551370e+01 6.680205e+01 1.284454e+01 5.429185e+01 4.039834e+00 2.087891e+01 3.467460e+01 2.061959e+01 9.852703e+00 2.454572e+00 6.770025e-01 1.510467e+00 2.610697e+00 3.687748e+00 5.713182e+00 1.131334e+00 1.467833e+00 8.786944e-01 1.666858e+00 4.341687e+00 1.301041e+00 1.079294e+00 3.120246e-01 3.694136e-01 3.082196e-01 2.659102e-01 3.441620e-01 1.096036e+00 2.135307e-01 4.265964e-01 1.354811e-01 3.813599e-01 7.928463e-01 1.327406e-01 1.579761e-01
<GCONST> 1.046789e+02
<STATE> 4
<NUMMIXES> 2
<MIXTURE> 1 5.000000e-01
<MEAN> 39
 3.397652e+00 6.777998e+00 -1.755091e+01 -2.011339e+00 -4.664097e+00 -1.197801e+01 -4.859816e+00 -4.294261e+00 -2.024820e+00 4.948825e+00 -3.312096e+00 -3.409413e+00 -5.498822e+00 -1.093774e-01 -2.288035e-01 -1.442641e-01 2.990234e-01 2.621595e-01 -3.786531e-01 -5.265760e-01 -3.369547e-02 9.756734e-01 5.705500e-02 -8.071087e-01 -3.691345e-01 7.743372e-02 -1.294196e-02 -5.909332e-02 1.870236e-01 1.067743e-01 -5.422262e-02 -1.593745e-02 1.258143e-02 1.563219e-02 6.867862e-02 -1.643362e-01 -4.612553e-02 1.339054e-01 7.412700e-02
<VARIANCE> 39
 1.467130e+01 4.737576e+00 4.933321e+01 2.911495e+01 3.600798e+01 5.891136e+01 1.813857e+01 7.999591e+01 8.296250e+00 1.726637e+01 1.101256e+01 2.511774e+01 5.951347e+00 1.406078e-01 1.123494e-01 4.380405e-01 2.653835e-01 2.371030e-01 7.149358e-01 5.580831e-01 3.701926e-01 4.991615e-01 8.687592e-01 5.485123e-01 1.229847e+00 1.915582e-01 1.039596e-02 1.159370e-02 5.115248e-02 5.650294e-02 6.056998e-02 1.779073e-01 6.616624e-02 1.538149e-01 1.222506e-01 1.377470e-01 8.411430e-02 2.137052e-01 3.564223e-02
<GCONST> 6.254051e+01
<MIXTURE> 2 5.000000e-01
<MEAN> 39
 3.397652e+00 6.777998e+00 -1.755091e+01 -2.011339e+00 -4.664097e+00 -1.197801e+01 -4.859816e+00 -4.294261e+00 -2.024820e+00 4.948825e+00 -3.312096e+00 -3.409413e+00 -5.498822e+00 -1.093774e-01 -2.288035e-01 -1.442641e-01 2.990234e-01 2.621595e-01 -3.786531e-01 -5.265760e-01 -3.369547e-02 9.756734e-01 5.705500e-02 -8.071087e-01 -3.691345e-01 7.743372e-02 -1.294196e-02 -5.909332e-02 1.870236e-01 1.067743e-01 -5.422262e-02 -1.593745e-02 1.258143e-02 1.563219e-02 6.867862e-02 -1.643362e-01 -4.612553e-02 1.339054e-01 7.412700e-02
<VARIANCE> 39
 1.467130e+01 4.737576e+00 4.933321e+01 2.911495e+01 3.600798e+01 5.891136e+01 1.813857e+01 7.999591e+01 8.296250e+00 1.726637e+01 1.101256e+01 2.511774e+01 5.951347e+00 1.406078e-01 1.123494e-01 4.380405e-01 2.653835e-01 2.371030e-01 7.149358e-01 5.580831e-01 3.701926e-01 4.991615e-01 8.687592e-01 5.485123e-01 1.229847e+00 1.915582e-01 1.039596e-02 1.159370e-02 5.115248e-02 5.650294e-02 6.056998e-02 1.779073e-01 6.616624e-02 1.538149e-01 1.222506e-01 1.377470e-01 8.411430e-02 2.137052e-01 3.564223e-02
<GCONST> 6.254051e+01
<STATE> 5
<NUMMIXES> 2
<MIXTURE> 1 5.000000e-01
<MEAN> 39
 1.798214e+00 3.931376e+00 -1.472066e+01 1.393733e+00 -3.251857e+00 -1.721692e+01 -8.483857e+00 2.651077e+00 3.548578e+00 1.272528e+00 -9.107308e+00 -2.471293e+00 1.301938e+00 1.056696e-01 -1.218969e-01 2.985763e-01 3.304803e-01 4.262221e-04 -5.204317e-02 -3.227871e-01 4.881443e-01 7.693563e-02 -4.097331e-01 -6.250917e-01 4.436882e-01 4.855568e-01 1.051639e-02 1.503861e-02 2.374448e-01 -9.032588e-02 -1.037285e-02 1.315611e-01 8.504481e-02 -8.952797e-02 -2.736070e-01 1.692396e-02 1.901462e-01 -5.045809e-02 -9.375790e-02
<VARIANCE> 39
 5.805394e+00 2.737263e+00 1.953906e+01 1.024828e+01 1.938940e+01 1.833317e+01 1.388490e+01 4.559700e+01 5.135015e+00 3.257101e+01 1.505438e+01 2.872402e+01 1.828355e+01 1.893083e-01 1.590046e-01 6.965796e-01 4.298020e-01 6.370010e-01 9.734680e-01 3.717164e-01 2.535819e+00 1.134143e+00 1.434640e+00 7.179216e-01 1.007080e+00 5.829235e-01 1.653248e-02 5.729725e-02 7.557756e-02 1.254522e-01 9.044983e-02 8.957445e-02 5.702584e-02 3.051386e-01 1.128670e-01 1.776759e-01 1.224305e-01 1.960379e-01 1.211256e-01
<GCONST> 7.030089e+01
<MIXTURE> 2 5.000000e-01
<MEAN> 39
 1.798214e+00 3.931376e+00 -1.472066e+01 1.393733e+00 -3.251857e+00 -1.721692e+01 -8.483857e+00 2.651077e+00 3.548578e+00 1.272528e+00 -9.107308e+00 -2.471293e+00 1.301938e+00 1.056696e-01 -1.218969e-01 2.985763e-01 3.304803e-01 4.262221e-04 -5.204317e-02 -3.227871e-01 4.881443e-01 7.693563e-02 -4.097331e-01 -6.250917e-01 4.436882e-01 4.855568e-01 1.051639e-02 1.503861e-02 2.374448e-01 -9.032588e-02 -1.037285e-02 1.315611e-01 8.504481e-02 -8.952797e-02 -2.736070e-01 1.692396e-02 1.901462e-01 -5.045809e-02 -9.375790e-02
<VARIANCE> 39
 5.805394e+00 2.737263e+00 1.953906e+01 1.024828e+01 1.938940e+01 1.833317e+01 1.388490e+01 4.559700e+01 5.135015e+00 3.257101e+01 1.505438e+01 2.872402e+01 1.828355e+01 1.893083e-01 1.590046e-01 6.965796e-01 4.298020e-01 6.370010e-01 9.734680e-01 3.717164e-01 2.535819e+00 1.134143e+00 1.434640e+00 7.179216e-01 1.007080e+00 5.829235e-01 1.653248e-02 5.729725e-02 7.557756e-02 1.254522e-01 9.044983e-02 8.957445e-02 5.702584e-02 3.051386e-01 1.128670e-01 1.776759e-01 1.224305e-01 1.960379e-01 1.211256e-01
<GCONST> 7.030089e+01
<STATE> 6
<NUMMIXES> 2
<MIXTURE> 1 5.000000e-01
<MEAN> 39
 5.631107e+00 1.025247e+00 -3.412911e+00 2.288150e+00 -4.006122e-01 -1.935607e+01 -4.400321e+00 -1.946179e+00 2.098450e+00 -9.199687e-01 -8.917472e+00 1.109312e+00 -7.946059e-01 3.000128e-01 4.504190e-02 6.702514e-01 2.064161e-01 2.328240e-01 6.479686e-02 2.125620e-01 -4.459818e-01 3.218459e-01 -1.445538e-01 1.721083e-01 1.756291e-01 -2.440423e-01 -6.204497e-02 7.842413e-02 -1.414648e-01 -2.190165e-02 3.682333e-03 6.097066e-02 2.951821e-02 -3.706626e-02 1.247499e-01 2.275274e-02 2.794364e-02 -3.791882e-02 -5.949831e-02
<VARIANCE> 39
 1.150879e+01 6.430910e+01 3.096751e+01 2.717156e+01 4.803043e+01 3.732245e+01 3.738628e+01 4.192019e+01 8.436341e+01 1.861552e+01 1.668808e+01 2.706350e+01 1.217724e+01 4.209229e-01 1.633201e+00 2.737686e+00 3.690799e+00 2.969658e+00 1.987871e+00 2.160333e+00 3.832446e+00 4.617560e+00 2.273085e+00 1.677870e+00 2.192367e+00 1.887931e+00 7.234115e-02 1.771677e-01 2.550809e-01 8.577448e-01 5.915309e-01 4.446985e-01 3.537604e-01 7.228113e-01 6.741586e-01 3.652769e-01 3.009835e-01 3.509152e-01 3.848265e-01
<GCONST> 1.127756e+02
<MIXTURE> 2 5.000000e-01
<MEAN> 39
 5.631107e+00 1.025247e+00 -3.412911e+00 2.288150e+00 -4.006122e-01 -1.935607e+01 -4.400321e+00 -1.946179e+00 2.098450e+00 -9.199687e-01 -8.917472e+00 1.109312e+00 -7.946059e-01 3.000128e-01 4.504190e-02 6.702514e-01 2.064161e-01 2.328240e-01 6.479686e-02 2.125620e-01 -4.459818e-01 3.218459e-01 -1.445538e-01 1.721083e-01 1.756291e-01 -2.440423e-01 -6.204497e-02 7.842413e-02 -1.414648e-01 -2.190165e-02 3.682333e-03 6.097066e-02 2.951821e-02 -3.706626e-02 1.247499e-01 2.275274e-02 2.794364e-02 -3.791882e-02 -5.949831e-02
<VARIANCE> 39
 1.150879e+01 6.430910e+01 3.096751e+01 2.717156e+01 4.803043e+01 3.732245e+01 3.738628e+01 4.192019e+01 8.436341e+01 1.861552e+01 1.668808e+01 2.706350e+01 1.217724e+01 4.209229e-01 1.633201e+00 2.737686e+00 3.690799e+00 2.969658e+00 1.987871e+00 2.160333e+00 3.832446e+00 4.617560e+00 2.273085e+00 1.677870e+00 2.192367e+00 1.887931e+00 7.234115e-02 1.771677e-01 2.550809e-01 8.577448e-01 5.915309e-01 4.446985e-01 3.537604e-01 7.228113e-01 6.741586e-01 3.652769e-01 3.009835e-01 3.509152e-01 3.848265e-01
<GCONST> 1.127756e+02
<TRANSP> 7
 0.000000e+00 1.000000e+00 0.000000e+00 0.000000e+00 0.000000e+00 0.000000e+00 0.000000e+00
 0.000000e+00 7.131503e-01 2.868497e-01 0.000000e+00 0.000000e+00 0.000000e+00 0.000000e+00
 0.000000e+00 0.000000e+00 6.938187e-01 3.061813e-01 0.000000e+00 0.000000e+00 0.000000e+00
 0.000000e+00 0.000000e+00 0.000000e+00 8.344463e-01 1.655537e-01 0.000000e+00 0.000000e+00
 0.000000e+00 0.000000e+00 0.000000e+00 0.000000e+00 8.342624e-01 1.657376e-01 0.000000e+00
 0.000000e+00 0.000000e+00 0.000000e+00 0.000000e+00 0.000000e+00 9.106536e-01 8.934635e-02
 0.000000e+00 0.000000e+00 0.000000e+00 0.000000e+00 0.000000e+00 0.000000e+00 0.000000e+00
<ENDHMM>
~h "w"
<BEGINHMM>
<NUMSTATES> 5
<STATE> 2
<NUMMIXES> 2
<MIXTURE> 1 5.000000e-01
<MEAN> 39
 -4.707683e+00 5.947248e-01 -2.359022e+00 -2.529116e+00 -5.807150e-01 -3.899058e+00 -5.879866e-01 -2.546733e+00 -3.359112e+00 -1.947479e+00 -3.053110e+00 -1.799553e+00 -4.706514e-01 1.247701e-09 -4.053445e-10 -2.286396e-09 1.722714e-09 -5.066806e-10 -6.986651e-10 -9.397343e-10 7.695212e-10 2.444734e-09 -2.052057e-09 1.449384e-09 -3.641767e-11 9.025249e-11 -2.731325e-10 1.630878e-10 -4.259284e-10 2.525486e-10 -2.501736e-10 -3.847606e-10 1.820884e-11 2.755076e-10 2.565071e-10 -8.213769e-11 2.446812e-10 1.888177e-10 2.335481e-11
<VARIANCE> 39
 4.187243e+01 6.009408e+01 7.595177e+01 8.282796e+01 4.778630e+01 7.154459e+01 6.832973e+01 5.119468e+01 6.434221e+01 4.010469e+01 3.493262e+01 2.457936e+01 2.416324e+01 1.116265e+00 1.316838e+00 1.507257e+00 1.792183e+00 1.916434e+00 2.495733e+00 2.350824e+00 2.436618e+00 2.611890e+00 2.416298e+00 2.200972e+00 1.782301e+00 1.603670e+00 1.702006e-01 2.106898e-01 2.371141e-01 3.148418e-01 3.490519e-01 4.393112e-01 4.396379e-01 4.711943e-01 4.942226e-01 4.599516e-01 4.256383e-01 3.576615e-01 3.133541e-01
<GCONST> 1.168217e+02
<MIXTURE> 2 5.000000e-01
<MEAN> 39
 -4.707683e+00 5.947248e-01 -2.359022e+00 -2.529116e+00 -5.807150e-01 -3.899058e+00 -5.879866e-01 -2.546733e+00 -3.359112e+00 -1.947479e+00 -3.053110e+00 -1.799553e+00 -4.706514e-01 1.247701e-09 -4.053445e-10 -2.286396e-09 1.722714e-09 -5.066806e-10 -6.986651e-10 -9.397343e-10 7.695212e-10 2.444734e-09 -2.052057e-09 1.449384e-09 -3.641767e-11 9.025249e-11 -2.731325e-10 1.630878e-10 -4.259284e-10 2.525486e-10 -2.501736e-10 -3.847606e-10 1.820884e-11 2.755076e-10 2.565071e-10 -8.213769e-11 2.446812e-10 1.888177e-10 2.335481e-11
<VARIANCE> 39
 4.187243e+01 6.009408e+01 7.595177e+01 8.282796e+01 4.778630e+01 7.154459e+01 6.832973e+01 5.119468e+01 6.434221e+01 4.010469e+01 3.493262e+01 2.457936e+01 2.416324e+01 1.116265e+00 1.316838e+00 1.507257e+00 1.792183e+00 1.916434e+00 2.495733e+00 2.350824e+00 2.436618e+00 2.611890e+00 2.416298e+00 2.200972e+00 1.782301e+00 1.603670e+00 1.702006e-01 2.106898e-01 2.371141e-01 3.148418e-01 3.490519e-01 4.393112e-01 4.396379e-01 4.711943e-01 4.942226e-01 4.599516e-01 4.256383e-01 3.576615e-01 3.133541e-01
<GCONST> 1.168217e+02
<STATE> 3
<NUMMIXES> 2
<MIXTURE> 1 5.000000e-01
<MEAN> 39
 -4.707683e+00 5.947248e-01 -2.359022e+00 -2.529116e+00 -5.807150e-01 -3.899058e+00 -5.879866e-01 -2.546733e+00 -3.359112e+00 -1.947479e+00 -3.053110e+00 -1.799553e+00 -4.706514e-01 1.247701e-09 -4.053445e-10 -2.286396e-09 1.722714e-09 -5.066806e-10 -6.986651e-10 -9.397343e-10 7.695212e-10 2.444734e-09 -2.052057e-09 1.449384e-09 -3.641767e-11 9.025249e-11 -2.731325e-10 1.630878e-10 -4.259284e-10 2.525486e-10 -2.501736e-10 -3.847606e-10 1.820884e-11 2.755076e-10 2.565071e-10 -8.213769e-11 2.446812e-10 1.888177e-10 2.335481e-11
<VARIANCE> 39
 4.187243e+01 6.009408e+01 7.595177e+01 8.282796e+01 4.778630e+01 7.154459e+01 6.832973e+01 5.119468e+01 6.434221e+01 4.010469e+01 3.493262e+01 2.457936e+01 2.416324e+01 1.116265e+00 1.316838e+00 1.507257e+00 1.792183e+00 1.916434e+00 2.495733e+00 2.350824e+00 2.436618e+00 2.611890e+00 2.416298e+00 2.200972e+00 1.782301e+00 1.603670e+00 1.702006e-01 2.106898e-01 2.371141e-01 3.148418e-01 3.490519e-01 4.393112e-01 4.396379e-01 4.711943e-01 4.942226e-01 4.599516e-01 4.256383e-01 3.576615e-01 3.133541e-01
<GCONST> 1.168217e+02
<MIXTURE> 2 5.000000e-01
<MEAN> 39
 -4.707683e+00 5.947248e-01 -2.359022e+00 -2.529116e+00 -5.807150e-01 -3.899058e+00 -5.879866e-01 -2.546733e+00 -3.359112e+00 -1.947479e+00 -3.053110e+00 -1.799553e+00 -4.706514e-01 1.247701e-09 -4.053445e-10 -2.286396e-09 1.722714e-09 -5.066806e-10 -6.986651e-10 -9.397343e-10 7.695212e-10 2.444734e-09 -2.052057e-09 1.449384e-09 -3.641767e-11 9.025249e-11 -2.731325e-10 1.630878e-10 -4.259284e-10 2.525486e-10 -2.501736e-10 -3.847606e-10 1.820884e-11 2.755076e-10 2.565071e-10 -8.213769e-11 2.446812e-10 1.888177e-10 2.335481e-11
<VARIANCE> 39
 4.187243e+01 6.009408e+01 7.595177e+01 8.282796e+01 4.778630e+01 7.154459e+01 6.832973e+01 5.119468e+01 6.434221e+01 4.010469e+01 3.493262e+01 2.457936e+01 2.416324e+01 1.116265e+00 1.316838e+00 1.507257e+00 1.792183e+00 1.916434e+00 2.495733e+00 2.350824e+00 2.436618e+00 2.611890e+00 2.416298e+00 2.200972e+00 1.782301e+00 1.603670e+00 1.702006e-01 2.106898e-01 2.371141e-01 3.148418e-01 3.490519e-01 4.393112e-01 4.396379e-01 4.711943e-01 4.942226e-01 4.599516e-01 4.256383e-01 3.576615e-01 3.133541e-01
<GCONST> 1.168217e+02
<STATE> 4
<NUMMIXES> 2
<MIXTURE> 1 5.000000e-01
<MEAN> 39
 -4.707683e+00 5.947248e-01 -2.359022e+00 -2.529116e+00 -5.807150e-01 -3.899058e+00 -5.879866e-01 -2.546733e+00 -3.359112e+00 -1.947479e+00 -3.053110e+00 -1.799553e+00 -4.706514e-01 1.247701e-09 -4.053445e-10 -2.286396e-09 1.722714e-09 -5.066806e-10 -6.986651e-10 -9.397343e-10 7.695212e-10 2.444734e-09 -2.052057e-09 1.449384e-09 -3.641767e-11 9.025249e-11 -2.731325e-10 1.630878e-10 -4.259284e-10 2.525486e-10 -2.501736e-10 -3.847606e-10 1.820884e-11 2.755076e-10 2.565071e-10 -8.213769e-11 2.446812e-10 1.888177e-10 2.335481e-11
<VARIANCE> 39
 4.187243e+01 6.009408e+01 7.595177e+01 8.282796e+01 4.778630e+01 7.154459e+01 6.832973e+01 5.119468e+01 6.434221e+01 4.010469e+01 3.493262e+01 2.457936e+01 2.416324e+01 1.116265e+00 1.316838e+00 1.507257e+00 1.792183e+00 1.916434e+00 2.495733e+00 2.350824e+00 2.436618e+00 2.611890e+00 2.416298e+00 2.200972e+00 1.782301e+00 1.603670e+00 1.702006e-01 2.106898e-01 2.371141e-01 3.148418e-01 3.490519e-01 4.393112e-01 4.396379e-01 4.711943e-01 4.942226e-01 4.599516e-01 4.256383e-01 3.576615e-01 3.133541e-01
<GCONST> 1.168217e+02
<MIXTURE> 2 5.000000e-01
<MEAN> 39
 -4.707683e+00 5.947248e-01 -2.359022e+00 -2.529116e+00 -5.807150e-01 -3.899058e+00 -5.879866e-01 -2.546733e+00 -3.359112e+00 -1.947479e+00 -3.053110e+00 -1.799553e+00 -4.706514e-01 1.247701e-09 -4.053445e-10 -2.286396e-09 1.722714e-09 -5.066806e-10 -6.986651e-10 -9.397343e-10 7.695212e-10 2.444734e-09 -2.052057e-09 1.449384e-09 -3.641767e-11 9.025249e-11 -2.731325e-10 1.630878e-10 -4.259284e-10 2.525486e-10 -2.501736e-10 -3.847606e-10 1.820884e-11 2.755076e-10 2.565071e-10 -8.213769e-11 2.446812e-10 1.888177e-10 2.335481e-11
<VARIANCE> 39
 4.187243e+01 6.009408e+01 7.595177e+01 8.282796e+01 4.778630e+01 7.154459e+01 6.832973e+01 5.119468e+01 6.434221e+01 4.010469e+01 3.493262e+01 2.457936e+01 2.416324e+01 1.116265e+00 1.316838e+00 1.507257e+00 1.792183e+00 1.916434e+00 2.495733e+00 2.350824e+00 2.436618e+00 2.611890e+00 2.416298e+00 2.200972e+00 1.782301e+00 1.603670e+00 1.702006e-01 2.106898e-01 2.371141e-01 3.148418e-01 3.490519e-01 4.393112e-01 4.396379e-01 4.711943e-01 4.942226e-01 4.599516e-01 4.256383e-01 3.576615e-01 3.133541e-01
<GCONST> 1.168217e+02
<TRANSP> 5
 0.000000e+00 1.000000e+00 0.000000e+00 0.000000e+00 0.000000e+00
 0.000000e+00 6.000000e-01 4.000000e-01 0.000000e+00 0.000000e+00
 0.000000e+00 0.000000e+00 6.000000e-01 4.000000e-01 0.000000e+00
 0.000000e+00 0.000000e+00 0.000000e+00 6.000000e-01 4.000000e-01
 0.000000e+00 0.000000e+00 0.000000e+00 0.000000e+00 0.000000e+00
<ENDHMM>
~h "y"
<BEGINHMM>
<NUMSTATES> 5
<STATE> 2
<NUMMIXES> 2
<MIXTURE> 1 5.000000e-01
<MEAN> 39
 -6.238706e+00 2.186989e+01 8.049603e-01 -6.413406e+00 -5.640117e+00 -1.067821e+01 -1.523589e+01 -5.161037e+00 1.198456e+00 5.107706e-01 5.004538e+00 -6.301534e+00 -4.106936e-02 -7.269700e-02 -4.016410e-01 2.930932e-02 -1.802139e-01 -3.783432e-01 -8.672591e-02 3.076260e-01 -9.378100e-02 4.722809e-01 -1.177791e-02 -1.245775e-01 2.993912e-01 -7.794730e-02 -4.850778e-03 -1.038939e-01 7.021351e-04 -2.069463e-02 -7.051480e-03 1.332478e-01 2.035920e-01 3.791664e-02 -6.081966e-02 -1.062506e-01 -1.159780e-01 5.991430e-02 1.809350e-02
<VARIANCE> 39
 2.291184e+00 3.135720e+01 1.190872e+01 2.126814e+01 1.117789e+01 9.836411e+00 1.864913e+01 3.412557e+01 2.011392e+01 2.112502e+01 2.378321e+01 1.156431e+01 8.966364e+00 4.043586e-01 4.820475e-01 9.586685e-01 1.110892e+00 6.345014e-01 1.131633e+00 1.004329e+00 2.472725e+00 9.937795e-01 2.437575e+00 1.192966e+00 1.711525e+00 6.672284e-01 9.252482e-02 5.670278e-02 1.596304e-01 1.558472e-01 1.961069e-01 1.708626e-01 3.135590e-01 4.295841e-01 2.273417e-01 4.969493e-01 1.388039e-01 4.483775e-01 1.408552e-01
<GCONST> 8.544238e+01
<MIXTURE> 2 5.000000e-01
<MEAN> 39
 -6.238706e+00 2.186989e+01 8.049603e-01 -6.413406e+00 -5.640117e+00 -1.067821e+01 -1.523589e+01 -5.161037e+00 1.198456e+00 5.107706e-01 5.004538e+00 -6.301534e+00 -4.106936e-02 -7.269700e-02 -4.016410e-01 2.930932e-02 -1.802139e-01 -3.783432e-01 -8.672591e-02 3.076260e-01 -9.378100e-02 4.722809e-01 -1.177791e-02 -1.245775e-01 2.993912e-01 -7.794730e-02 -4.850778e-03 -1.038939e-01 7.021351e-04 -2.069463e-02 -7.051480e-03 1.332478e-01 2.035920e-01 3.791664e-02 -6.081966e-02 -1.062506e-01 -1.159780e-01 5.991430e-02 1.809350e-02
<VARIANCE> 39
 2.291184e+00 3.135720e+01 1.190872e+01 2.126814e+01 1.117789e+01 9.836411e+00 1.864913e+01 3.412557e+01 2.011392e+01 2.112502e+01 2.378321e+01 1.156431e+01 8.966364e+00 4.043586e-01 4.820475e-01 9.586685e-01 1.110892e+00 6.345014e-01 1.131633e+00 1.004329e+00 2.472725e+00 9.937795e-01 2.437575e+00 1.192966e+00 1.711525e+00 6.672284e-01 9.252482e-02 5.670278e-02 1.596304e-01 1.558472e-01 1.961069e-01 1.708626e-01 3.135590e-01 4.295841e-01 2.273417e-01 4.969493e-01 1.388039e-01 4.483775e-01 1.408552e-01
<GCONST> 8.544238e+01
<STATE> 3
<NUMMIXES> 2
<MIXTURE> 1 5.000000e-01
<MEAN> 39
 -7.868882e+00 6.034044e+00 8.524958e-01 -1.642201e+01 -1.292193e+01 5.917169e-01 -3.914147e+00 1.358274e+00 5.910221e+00 -4.943531e+00 -9.473074e+00 -9.951529e-01 -2.409223e+00 -2.687645e-02 -1.262616e+00 -9.699967e-01 2.915697e-01 -2.555711e-01 1.457420e+00 2.382758e+00 -5.622724e-01 -7.945149e-01 -1.030898e+00 -1.534779e+00 1.762330e-01 9.038847e-01 1.039356e-01 -1.202644e-01 -2.776353e-02 2.182543e-01 2.753438e-01 1.345699e-01 1.342061e-01 -3.253493e-01 -4.634128e-01 3.952603e-02 1.881091e-01 -6.062366e-02 2.208050e-01
<VARIANCE> 39
 4.187242e-01 7.368672e+00 6.205660e+00 4.201060e+00 2.159190e+00 9.021743e+00 2.988173e+01 1.002590e+01 4.924660e+00 7.857908e+00 1.370176e+01 6.186250e-01 5.185534e+00 7.425141e-02 1.625024e-01 1.575495e-01 4.338610e-01 6.469912e-01 6.289061e-01 4.029545e-01 9.871218e-01 1.417954e+00 2.168508e-01 9.151940e-01 1.371908e-01 4.245858e-01 9.939726e-03 9.871216e-03 3.069090e-02 6.550876e-02 7.532920e-02 5.761904e-02 2.009029e-01 9.321677e-02 1.494537e-01 1.161074e-01 1.761899e-01 2.645328e-02 3.170802e-02
<GCONST> 4.141291e+01
<MIXTURE> 2 5.000000e-01
<MEAN> 39
 -7.868882e+00 6.034044e+00 8.524958e-01 -1.642201e+01 -1.292193e+01 5.917169e-01 -3.914147e+00 1.358274e+00 5.910221e+00 -4.943531e+00 -9.473074e+00 -9.951529e-01 -2.409223e+00 -2.687645e-02 -1.262616e+00 -9.699967e-01 2.915697e-01 -2.555711e-01 1.457420e+00 2.382758e+00 -5.622724e-01 -7.945149e-01 -1.030898e+00 -1.534779e+00 1.762330e-01 9.038847e-01 1.039356e-01 -1.202644e-01 -2.776353e-02 2.182543e-01 2.753438e-01 1.345699e-01 1.342061e-01 -3.253493e-01 -4.634128e-01 3.952603e-02 1.881091e-01 -6.062366e-02 2.208050e-01
<VARIANCE> 39
 4.187242e-01 7.368672e+00 6.205660e+00 4.201060e+00 2.159190e+00 9.021743e+00 2.988173e+01 1.002590e+01 4.924660e+00 7.857908e+00 1.370176e+01 6.186250e-01 5.185534e+00 7.425141e-02 1.625024e-01 1.575495e-01 4.338610e-01 6.469912e-01 6.289061e-01 4.029545e-01 9.871218e-01 1.417954e+00 2.168508e-01 9.151940e-01 1.371908e-01 4.245858e-01 9.939726e-03 9.871216e-03 3.069090e-02 6.550876e-02 7.532920e-02 5.761904e-02 2.009029e-01 9.321677e-02 1.494537e-01 1.161074e-01 1.761899e-01 2.645328e-02 3.170802e-02
<GCONST> 4.141291e+01
<STATE> 4
<NUMMIXES> 2
<MIXTURE> 1 5.000000e-01
<MEAN> 39
 -7.592541e+00 -4.252584e+00 -4.354617e+00 -9.467170e+00 -6.930740e+00 7.596694e+00 7.666409e+00 -6.879677e+00 -7.791850e+00 -5.020317e+00 -1.006524e+01 -2.755688e+00 7.391856e+00 -6.231966e-02 -9.487947e-01 -5.241480e-01 1.128173e+00 1.162589e+00 -9.894691e-02 6.526477e-01 -1.102173e+00 -1.759820e+00 8.429202e-01 8.979853e-01 -3.426653e-01 5.556173e-01 -9.446634e-03 1.434136e-01 8.361811e-03 2.824127e-02 1.401806e-02 -2.359895e-01 -1.763810e-01 6.399865e-02 1.484355e-01 8.713974e-02 1.790893e-01 4.047641e-02 -3.057445e-01
<VARIANCE> 39
 5.593705e-01 9.801352e+00 3.859836e+00 1.539056e+01 1.927604e+01 6.124626e+00 1.338045e+01 1.364052e+01 3.469738e+01 1.369059e+01 1.700714e+01 6.080962e+00 9.479379e+00 1.014603e-01 2.838892e-01 3.023522e-01 1.533979e-01 3.182701e-01 9.309880e-01 3.027853e-01 2.490998e-01 1.182968e+00 1.147750e+00 6.686950e-01 4.327919e-01 1.938845e+00 2.217145e-02 2.129261e-02 8.645516e-02 4.078898e-02 6.403327e-02 9.446692e-02 9.143811e-02 6.478319e-02 1.314155e-01 2.511732e-01 8.129380e-02 1.013654e-01 1.494810e-01
<GCONST> 5.614856e+01
<MIXTURE> 2 5.000000e-01
<MEAN> 39
 -7.592541e+00 -4.252584e+00 -4.354617e+00 -9.467170e+00 -6.930740e+00 7.596694e+00 7.666409e+00 -6.879677e+00 -7.791850e+00 -5.020317e+00 -1.006524e+01 -2.755688e+00 7.391856e+00 -6.231966e-02 -9.487947e-01 -5.241480e-01 1.128173e+00 1.162589e+00 -9.894691e-02 6.526477e-01 -1.102173e+00 -1.759820e+00 8.429202e-01 8.979853e-01 -3.426653e-01 5.556173e-01 -9.446634e-03 1.434136e-01 8.361811e-03 2.824127e-02 1.401806e-02 -2.359895e-01 -1.763810e-01 6.399865e-02 1.484355e-01 8.713974e-02 1.790893e-01 4.047641e-02 -3.057445e-01
<VARIANCE> 39
 5.593705e-01 9.801352e+00 3.859836e+00 1.539056e+01 1.927604e+01 6.124626e+00 1.338045e+01 1.364052e+01 3.469738e+01 1.369059e+01 1.700714e+01 6.080962e+00 9.479379e+00 1.014603e-01 2.838892e-01 3.023522e-01 1.533979e-01 3.182701e-01 9.309880e-01 3.027853e-01 2.490998e-01 1.182968e+00 1.147750e+00 6.686950e-01 4.327919e-01 1.938845e+00 2.217145e-02 2.129261e-02 8.645516e-02 4.078898e-02 6.403327e-02 9.446692e-02 9.143811e-02 6.478319e-02 1.314155e-01 2.511732e-01 8.129380e-02 1.013654e-01 1.494810e-01
<GCONST> 5.614856e+01
<TRANSP> 5
 0.000000e+00 1.000000e+00 0.000000e+00 0.000000e+00 0.000000e+00
 0.000000e+00 9.032263e-01 9.677367e-02 0.000000e+00 0.000000e+00
 0.000000e+00 0.000000e+00 8.421064e-01 1.578936e-01 0.000000e+00
 0.000000e+00 0.000000e+00 0.000000e+00 8.919309e-01 1.080691e-01
 0.000000e+00 0.000000e+00 0.000000e+00 0.000000e+00 0.000000e+00
<ENDHMM>
~h "aa"
<BEGINHMM>
<NUMSTATES> 7
<STATE> 2
<NUMMIXES> 2
<MIXTURE> 1 5.000000e-01
<MEAN> 39
 -3.522590e+00 -5.491168e+00 -1.147930e+01 5.882943e+00 5.190822e+00 -6.584469e+00 3.781936e+00 -3.490299e+00 -1.715644e+00 -5.315514e+00 -3.684928e+00 -2.579384e+00 9.135388e-01 -1.563644e-01 -6.241232e-01 -5.698777e-01 1.778856e-01 5.627927e-01 4.050800e-01 2.290216e-01 -2.461490e-01 -6.101941e-01 -3.978945e-01 2.289776e-02 3.718649e-01 1.608340e-01 -6.670808e-02 4.403733e-02 1.323771e-01 -5.593379e-02 1.278717e-02 1.797966e-02 -1.635886e-01 2.807652e-02 -5.723162e-02 4.182389e-03 1.397947e-01 -1.580025e-02 -5.528720e-04
<VARIANCE> 39
 2.994447e+01 1.613532e+01 3.645087e+01 7.702885e+01 5.136050e+01 3.556063e+01 3.901696e+01 4.568287e+01 5.848360e+01 5.588436e+01 2.294719e+01 2.536865e+01 3.081546e+01 7.588450e-01 8.173879e-01 1.527286e+00 1.036045e+00 1.709423e+00 3.062723e+00 1.539075e+00 2.053639e+00 2.117842e+00 1.897434e+00 1.691244e+00 1.861250e+00 1.905676e+00 1.192512e-01 1.151478e-01 2.483762e-01 1.781208e-01 3.267465e-01 5.115606e-01 3.343125e-01 3.292989e-01 3.715948e-01 3.888126e-01 2.582919e-01 3.542637e-01 3.485041e-01
<GCONST> 1.078687e+02
<MIXTURE> 2 5.000000e-01
<MEAN> 39
 -3.522590e+00 -5.491168e+00 -1.147930e+01 5.882943e+00 5.190822e+00 -6.584469e+00 3.781936e+00 -3.490299e+00 -1.715644e+00 -5.315514e+00 -3.684928e+00 -2.579384e+00 9.135388e-01 -1.563644e-01 -6.241232e-01 -5.698777e-01 1.778856e-01 5.627927e-01 4.050800e-01 2.290216e-01 -2.461490e-01 -6.101941e-01 -3.978945e-01 2.289776e-02 3.718649e-01 1.608340e-01 -6.670808e-02 4.403733e-02 1.323771e-01 -5.593379e-02 1.278717e-02 1.797966e-02 -1.635886e-01 2.807652e-02 -5.723162e-02 4.182389e-03 1.397947e-01 -1.580025e-02 -5.528720e-04
<VARIANCE> 39
 2.994447e+01 1.613532e+01 3.645087e+01 7.702885e+01 5.136050e+01 3.556063e+01 3.901696e+01 4.568287e+01 5.848360e+01 5.588436e+01 2.294719e+01 2.536865e+01 3.081546e+01 7.588450e-01 8.173879e-01 1.527286e+00 1.036045e+00 1.709423e+00 3.062723e+00 1.539075e+00 2.053639e+00 2.117842e+00 1.897434e+00 1.691244e+00 1.861250e+00 1.905676e+00 1.192512e-01 1.151478e-01 2.483762e-01 1.781208e-01 3.267465e-01 5.115606e-01 3.343125e-01 3.292989e-01 3.715948e-01 3.888126e-01 2.582919e-01 3.542637e-01 3.485041e-01
<GCONST> 1.078687e+02
<STATE> 3
<NUMMIXES> 2
<MIXTURE> 1 5.000000e-01
<MEAN> 39
 -4.026299e+00 -9.708841e+00 -1.198611e+01 2.220986e+00 4.017483e+00 -2.889685e+00 7.314720e+00 -4.927584e+00 -1.231843e+01 -7.184174e+00 -2.263640e-01 1.104164e+00 -3.114803e-01 -3.364653e-01 -4.532528e-01 -2.291587e-01 5.895904e-01 8.318661e-01 -7.078941e-02 -3.827471e-01 -4.710648e-01 -5.214630e-01 3.529390e-01 8.307164e-01 3.623587e-02 -3.619306e-01 4.657735e-02 1.214631e-01 6.778588e-02 -5.150396e-03 -1.460710e-01 -1.272124e-01 -3.033420e-02 8.882524e-02 1.919680e-01 1.070371e-01 -6.911843e-02 -1.202518e-01 -8.322059e-02
<VARIANCE> 39
 4.641946e+00 4.781090e+00 2.727400e+01 1.704525e+01 4.350275e+01 1.866144e+01 2.854476e+01 2.195250e+01 5.233874e+01 4.658528e+01 2.665743e+01 1.337856e+01 1.869063e+01 1.880136e-01 2.563988e-01 2.977888e-01 2.086670e-01 7.356632e-01 7.044584e-01 5.244807e-01 1.098304e+00 1.147015e+00 5.379969e-01 7.700627e-01 7.756135e-01 5.208979e-01 2.549409e-02 4.928048e-02 4.730106e-02 3.190850e-02 7.694660e-02 1.062535e-01 1.148682e-01 1.421451e-01 1.513631e-01 1.047948e-01 9.637502e-02 1.357739e-01 9.336000e-02
<GCONST> 6.904384e+01
<MIXTURE> 2 5.000000e-01
<MEAN> 39
 -4.026299e+00 -9.708841e+00 -1.198611e+01 2.220986e+00 4.017483e+00 -2.889685e+00 7.314720e+00 -4.927584e+00 -1.231843e+01 -7.184174e+00 -2.263640e-01 1.104164e+00 -3.114803e-01 -3.364653e-01 -4.532528e-01 -2.291587e-01 5.895904e-01 8.318661e-01 -7.078941e-02 -3.827471e-01 -4.710648e-01 -5.214630e-01 3.529390e-01 8.307164e-01 3.623587e-02 -3.619306e-01 4.657735e-02 1.214631e-01 6.778588e-02 -5.150396e-03 -1.460710e-01 -1.272124e-01 -3.033420e-02 8.882524e-02 1.919680e-01 1.070371e-01 -6.911843e-02 -1.202518e-01 -8.322059e-02
<VARIANCE> 39
 4.641946e+00 4.781090e+00 2.727400e+01 1.704525e+01 4.350275e+01 1.866144e+01 2.854476e+01 2.195250e+01 5.233874e+01 4.658528e+01 2.665743e+01 1.337856e+01 1.869063e+01 1.880136e-01 2.563988e-01 2.977888e-01 2.086670e-01 7.356632e-01 7.044584e-01 5.244807e-01 1.098304e+00 1.147015e+00 5.379969e-01 7.700627e-01 7.756135e-01 5.208979e-01 2.549409e-02 4.928048e-02 4.730106e-02 3.190850e-02 7.694660e-02 1.062535e-01 1.148682e-01 1.421451e-01 1.513631e-01 1.047948e-01 9.637502e-02 1.357739e-01 9.336000e-02
<GCONST> 6.904384e+01
<STATE> 4
<NUMMIXES> 2
<MIXTURE> 1 5.000000e-01
<MEAN> 39
 -6.069209e+00 -1.102676e+01 -1.276765e+01 6.112626e+00 7.058096e+00 -5.386233e+00 4.896863e+00 -6.075775e+00 -1.312760e+01 -5.458839e+00 2.764501e+00 1.056982e+00 -3.683013e+00 -8.353681e-03 -1.775501e-02 1.726156e-01 -9.825946e-02 -1.742294e-01 5.821341e-02 1.891771e-01 4.820087e-02 -2.406394e-01 9.567263e-02 6.579817e-02 -1.328404e-01 6.800651e-04 4.256488e-02 1.920705e-02 4.464611e-02 -7.634337e-02 -6.119730e-02 4.910374e-02 3.497315e-02 2.563864e-02 1.892385e-02 -4.428955e-03 -6.719326e-02 -1.154866e-02 6.457437e-02
<VARIANCE> 39
 2.689248e+00 3.088934e+00 1.831698e+01 1.626438e+01 1.862672e+01 1.421601e+01 1.930197e+01 1.764373e+01 3.318959e+01 2.538100e+01 1.404437e+01 1.241833e+01 1.053954e+01 1.362541e-01 9.333386e-02 1.926382e-01 2.875231e-01 2.710848e-01 2.938817e-01 2.929462e-01 2.970100e-01 4.659081e-01 3.985272e-01 3.869998e-01 4.028667e-01 3.517532e-01 1.531074e-02 1.484707e-02 1.851600e-02 1.993141e-02 2.764833e-02 2.988194e-02 3.354919e-02 4.145866e-02 4.374404e-02 4.470411e-02 4.750096e-02 5.640240e-02 2.931480e-02
<GCONST> 4.267728e+01
<MIXTURE> 2 5.000000e-01
<MEAN> 39
 -6.069209e+00 -1.102676e+01 -1.276765e+01 6.112626e+00 7.058096e+00 -5.386233e+00 4.896863e+00 -6.075775e+00 -1.312760e+01 -5.458839e+00 2.764501e+00 1.056982e+00 -3.683013e+00 -8.353681e-03 -1.775501e-02 1.726156e-01 -9.825946e-02 -1.742294e-01 5.821341e-02 1.891771e-01 4.820087e-02 -2.406394e-01 9.567263e-02 6.579817e-02 -1.328404e-01 6.800651e-04 4.256488e-02 1.920705e-02 4.464611e-02 -7.634337e-02 -6.119730e-02 4.910374e-02 3.497315e-02 2.563864e-02 1.892385e-02 -4.428955e-03 -6.719326e-02 -1.154866e-02 6.457437e-02
<VARIANCE> 39
 2.689248e+00 3.088934e+00 1.831698e+01 1.626438e+01 1.862672e+01 1.421601e+01 1.930197e+01 1.764373e+01 3.318959e+01 2.538100e+01 1.404437e+01 1.241833e+01 1.053954e+01 1.362541e-01 9.333386e-02 1.926382e-01 2.875231e-01 2.710848e-01 2.938817e-01 2.929462e-01 2.970100e-01 4.659081e-01 3.985272e-01 3.869998e-01 4.028667e-01 3.517532e-01 1.531074e-02 1.484707e-02 1.851600e-02 1.993141e-02 2.764833e-02 2.988194e-02 3.354919e-02 4.145866e-02 4.374404e-02 4.470411e-02 4.750096e-02 5.640240e-02 2.931480e-02
<GCONST> 4.267728e+01
<STATE> 5
<NUMMIXES> 2
<MIXTURE> 1 5.000000e-01
<MEAN> 39
 -4.962393e+00 -1.104451e+01 -8.428367e+00 1.422821e+00 3.666655e+00 -1.305092e+00 9.126698e+00 -5.401253e+00 -1.648225e+01 -2.539890e+00 1.651589e+00 -1.387514e+00 -4.610789e-01 4.275491e-01 2.375524e-01 8.371128e-01 -1.032378e+00 -7.882091e-01 4.335652e-01 2.407849e-01 4.727831e-01 1.149029e-01 3.422968e-01 -6.391379e-01 -2.890048e-01 4.076471e-01 9.727712e-02 1.190200e-01 1.016562e-01 -6.406994e-02 -1.434683e-01 -1.223651e-01 -1.207159e-01 1.327526e-01 2.069569e-01 7.765198e-02 -1.388618e-01 1.128700e-02 -7.664146e-02
<VARIANCE> 39
 5.017956e+00 5.072481e+00 1.596195e+01 2.855834e+01 1.341886e+01 1.523069e+01 1.054786e+01 3.434926e+01 2.027159e+01 2.691527e+01 2.809838e+01 2.083053e+01 2.789118e+01 3.097048e-01 3.912758e-01 2.741342e-01 6.693374e-01 1.136076e+00 1.127654e+00 9.762796e-01 1.388816e+00 1.968225e+00 8.372942e-01 1.811481e+00 1.089999e+00 1.080275e+00 3.644520e-02 6.199629e-02 4.462384e-02 1.461228e-01 1.655881e-01 1.758312e-01 2.234807e-01 1.604445e-01 4.191484e-01 1.598646e-01 4.658758e-01 2.308527e-01 2.023318e-01
<GCONST> 8.173349e+01
<MIXTURE> 2 5.000000e-01
<MEAN> 39
 -4.962393e+00 -1.104451e+01 -8.428367e+00 1.422821e+00 3.666655e+00 -1.305092e+00 9.126698e+00 -5.401253e+00 -1.648225e+01 -2.539890e+00 1.651589e+00 -1.387514e+00 -4.610789e-01 4.275491e-01 2.375524e-01 8.371128e-01 -1.032378e+00 -7.882091e-01 4.335652e-01 2.407849e-01 4.727831e-01 1.149029e-01 3.422968e-01 -6.391379e-01 -2.890048e-01 4.076471e-01 9.727712e-02 1.190200e-01 1.016562e-01 -6.406994e-02 -1.434683e-01 -1.223651e-01 -1.207159e-01 1.327526e-01 2.069569e-01 7.765198e-02 -1.388618e-01 1.128700e-02 -7.664146e-02
<VARIANCE> 39
 5.017956e+00 5.072481e+00 1.596195e+01 2.855834e+01 1.341886e+01 1.523069e+01 1.054786e+01 3.434926e+01 2.027159e+01 2.691527e+01 2.809838e+01 2.083053e+01 2.789118e+01 3.097048e-01 3.912758e-01 2.741342e-01 6.693374e-01 1.136076e+00 1.127654e+00 9.762796e-01 1.388816e+00 1.968225e+00 8.372942e-01 1.811481e+00 1.089999e+00 1.080275e+00 3.644520e-02 6.199629e-02 4.462384e-02 1.461228e-01 1.655881e-01 1.758312e-01 2.234807e-01 1.604445e-01 4.191484e-01 1.598646e-01 4.658758e-01 2.308527e-01 2.023318e-01
<GCONST> 8.173349e+01
<STATE> 6
<NUMMIXES> 2
<MIXTURE> 1 5.000000e-01
<MEAN> 39
 -1.487196e+00 -6.794286e+00 -4.088495e+00 5.047134e-01 -2.107629e+00 -4.016016e+00 7.949742e+00 -1.902887e+00 -9.344622e+00 -1.652423e+00 -3.074372e+00 -3.197364e+00 -4.321021e-01 6.085429e-01 8.160900e-01 7.516440e-01 -2.635210e-01 -9.109561e-01 -5.302502e-01 -5.579727e-01 2.614689e-01 5.657924e-01 7.573844e-01 -1.936832e-01 -1.556401e-01 -1.893839e-01 -4.806536e-02 1.222334e-01 -2.999710e-02 2.025393e-01 1.450441e-01 -6.567810e-02 -1.205026e-01 -2.269563e-01 -5.277592e-02 -7.083148e-02 1.751743e-01 1.412480e-01 6.899586e-02
<VARIANCE> 39
 1.772487e+01 1.415804e+01 3.044364e+01 1.011486e+02 4.939708e+01 3.350140e+01 2.645754e+01 7.338008e+01 5.837722e+01 4.145269e+01 2.653424e+01 1.125923e+01 1.385916e+01 7.961743e-01 1.163795e+00 8.337363e-01 1.540679e+00 1.952696e+00 2.882663e+00 2.142127e+00 1.879097e+00 2.857006e+00 1.966854e+00 2.655542e+00 1.365593e+00 1.213620e+00 1.046585e-01 1.631744e-01 7.926085e-02 2.424092e-01 3.103608e-01 4.478623e-01 3.350739e-01 3.900422e-01 4.001306e-01 3.827346e-01 3.082730e-01 1.828679e-01 2.117488e-01
<GCONST> 1.045056e+02
<MIXTURE> 2 5.000000e-01
<MEAN> 39
 -1.487196e+00 -6.794286e+00 -4.088495e+00 5.047134e-01 -2.107629e+00 -4.016016e+00 7.949742e+00 -1.902887e+00 -9.344622e+00 -1.652423e+00 -3.074372e+00 -3.197364e+00 -4.321021e-01 6.085429e-01 8.160900e-01 7.516440e-01 -2.635210e-01 -9.109561e-01 -5.302502e-01 -5.579727e-01 2.614689e-01 5.657924e-01 7.573844e-01 -1.936832e-01 -1.556401e-01 -1.893839e-01 -4.806536e-02 1.222334e-01 -2.999710e-02 2.025393e-01 1.450441e-01 -6.567810e-02 -1.205026e-01 -2.269563e-01 -5.277592e-02 -7.083148e-02 1.751743e-01 1.412480e-01 6.899586e-02
<VARIANCE> 39
 1.772487e+01 1.415804e+01 3.044364e+01 1.011486e+02 4.939708e+01 3.350140e+01 2.645754e+01 7.338008e+01 5.837722e+01 4.145269e+01 2.653424e+01 1.125923e+01 1.385916e+01 7.961743e-01 1.163795e+00 8.337363e-01 1.540679e+00 1.952696e+00 2.882663e+00 2.142127e+00 1.879097e+00 2.857006e+00 1.966854e+00 2.655542e+00 1.365593e+00 1.213620e+00 1.046585e-01 1.631744e-01 7.926085e-02 2.424092e-01 3.103608e-01 4.478623e-01 3.350739e-01 3.900422e-01 4.001306e-01 3.827346e-01 3.082730e-01 1.828679e-01 2.117488e-01
<GCONST> 1.045056e+02
<TRANSP> 7
 0.000000e+00 1.000000e+00 0.000000e+00 0.000000e+00 0.000000e+00 0.000000e+00 0.000000e+00
 0.000000e+00 7.706978e-01 2.293022e-01 0.000000e+00 0.000000e+00 0.000000e+00 0.000000e+00
 0.000000e+00 0.000000e+00 7.859511e-01 2.140490e-01 0.000000e+00 0.000000e+00 0.000000e+00
 0.000000e+00 0.000000e+00 0.000000e+00 9.175525e-01 8.244751e-02 0.000000e+00 0.000000e+00
 0.000000e+00 0.000000e+00 0.000000e+00 0.000000e+00 7.816890e-01 2.183110e-01 0.000000e+00
 0.000000e+00 0.000000e+00 0.000000e+00 0.000000e+00 0.000000e+00 7.968853e-01 2.031146e-01
 0.000000e+00 0.000000e+00 0.000000e+00 0.000000e+00 0.000000e+00 0.000000e+00 0.000000e+00
<ENDHMM>
~h "ee"
<BEGINHMM>
<NUMSTATES> 7
<STATE> 2
<NUMMIXES> 2
<MIXTURE> 1 5.000000e-01
<MEAN> 39
 -6.715289e+00 5.639072e+00 3.389116e+00 -1.518085e+01 -1.022321e+00 1.289872e+00 -8.282934e+00 4.436207e+00 1.238388e+00 -5.087935e-01 -2.147532e+00 -7.569971e-01 -3.491526e+00 3.193381e-01 3.477837e-01 1.772594e-01 -7.948227e-01 -3.708578e-01 2.572570e-01 -3.112123e-01 9.968802e-01 1.245050e-01 -1.334341e-01 1.235345e-03 -9.761686e-02 -1.376849e-01 -3.883529e-02 4.550125e-02 -4.617840e-02 5.859243e-02 2.223042e-01 -1.968569e-01 1.098625e-01 1.793584e-02 -4.982400e-02 2.413152e-02 -9.836331e-02 -1.252063e-01 1.104354e-01
<VARIANCE> 39
 1.926416e+01 1.912496e+01 8.937407e+00 1.999174e+01 4.509626e+01 5.501318e+01 1.324966e+01 3.151052e+01 1.326472e+01 1.961530e+01 2.106700e+01 2.269090e+01 1.080475e+01 8.415127e-01 8.272913e-01 7.335307e-01 2.057025e+00 2.970606e+00 4.733090e+00 1.544098e+00 1.668126e+00 1.981832e+00 2.694981e+00 1.606492e+00 1.067639e+00 1.942710e+00 9.290206e-02 7.758753e-02 7.970610e-02 4.094990e-01 7.300633e-01 7.773327e-01 2.772555e-01 3.358872e-01 4.238651e-01 4.689040e-01 3.438840e-01 1.966373e-01 3.607174e-01
<GCONST> 1.006272e+02
<MIXTURE> 2 5.000000e-01
<MEAN> 39
 -6.715289e+00 5.639072e+00 3.389116e+00 -1.518085e+01 -1.022321e+00 1.289872e+00 -8.282934e+00 4.436207e+00 1.238388e+00 -5.087935e-01 -2.147532e+00 -7.569971e-01 -3.491526e+00 3.193381e-01 3.477837e-01 1.772594e-01 -7.948227e-01 -3.708578e-01 2.572570e-01 -3.112123e-01 9.968802e-01 1.245050e-01 -1.334341e-01 1.235345e-03 -9.761686e-02 -1.376849e-01 -3.883529e-02 4.550125e-02 -4.617840e-02 5.859243e-02 2.223042e-01 -1.968569e-01 1.098625e-01 1.793584e-02 -4.982400e-02 2.413152e-02 -9.836331e-02 -1.252063e-01 1.104354e-01
<VARIANCE> 39
 1.926416e+01 1.912496e+01 8.937407e+00 1.999174e+01 4.509626e+01 5.501318e+01 1.324966e+01 3.151052e+01 1.326472e+01 1.961530e+01 2.106700e+01 2.269090e+01 1.080475e+01 8.415127e-01 8.272913e-01 7.335307e-01 2.057025e+00 2.970606e+00 4.733090e+00 1.544098e+00 1.668126e+00 1.981832e+00 2.694981e+00 1.606492e+00 1.067639e+00 1.942710e+00 9.290206e-02 7.758753e-02 7.970610e-02 4.094990e-01 7.300633e-01 7.773327e-01 2.772555e-01 3.358872e-01 4.238651e-01 4.689040e-01 3.438840e-01 1.966373e-01 3.607174e-01
<GCONST> 1.006272e+02
<STATE> 3
<NUMMIXES> 2
<MIXTURE> 1 5.000000e-01
<MEAN> 39
 -6.407105e+00 8.400515e+00 2.267053e+00 -1.966928e+01 -3.907809e+00 -4.519579e-01 -8.010565e+00 1.042042e+01 2.313152e+00 -2.025781e+00 -1.392316e+00 -5.216900e+00 -2.713175e+00 -1.613199e-01 8.749973e-03 -7.618005e-02 -2.216177e-01 -3.065692e-01 1.520809e-01 -1.384368e-02 1.582797e-01 4.999173e-02 -3.181710e-02 -4.587811e-03 -8.319071e-02 -1.571885e-01 3.062696e-03 -2.064751e-03 6.302733e-03 1.014361e-01 1.940491e-02 4.585407e-02 -2.224361e-02 -4.902228e-02 -2.583434e-02 1.087741e-02 -1.856916e-02 3.597375e-02 2.146731e-03
<VARIANCE> 39
 1.100515e+01 1.011146e+01 6.784882e+00 7.825172e+00 1.192280e+01 7.152348e+00 4.108669e+00 1.391127e+01 6.813039e+00 5.133747e+00 8.400554e+00 7.258361e+00 6.471368e+00 6.325334e-01 6.151581e-01 3.251225e-01 4.144134e-01 3.886516e-01 5.748116e-01 5.266063e-01 4.576439e-01 5.670018e-01 4.599896e-01 4.072842e-01 4.170418e-01 2.734239e-01 1.264732e-01 1.305252e-01 7.962116e-02 6.604184e-02 7.619841e-02 1.952113e-01 8.327991e-02 9.377623e-02 1.378840e-01 1.015922e-01 7.339893e-02 3.724928e-02 5.255849e-02
<GCONST> 5.657364e+01
<MIXTURE> 2 5.000000e-01
<MEAN> 39
 -6.407105e+00 8.400515e+00 2.267053e+00 -1.966928e+01 -3.907809e+00 -4.519579e-01 -8.010565e+00 1.042042e+01 2.313152e+00 -2.025781e+00 -1.392316e+00 -5.216900e+00 -2.713175e+00 -1.613199e-01 8.749973e-03 -7.618005e-02 -2.216177e-01 -3.065692e-01 1.520809e-01 -1.384368e-02 1.582797e-01 4.999173e-02 -3.181710e-02 -4.587811e-03 -8.319071e-02 -1.571885e-01 3.062696e-03 -2.064751e-03 6.302733e-03 1.014361e-01 1.940491e-02 4.585407e-02 -2.224361e-02 -4.902228e-02 -2.583434e-02 1.087741e-02 -1.856916e-02 3.597375e-02 2.146731e-03
<VARIANCE> 39
 1.100515e+01 1.011146e+01 6.784882e+00 7.825172e+00 1.192280e+01 7.152348e+00 4.108669e+00 1.391127e+01 6.813039e+00 5.133747e+00 8.400554e+00 7.258361e+00 6.471368e+00 6.325334e-01 6.151581e-01 3.251225e-01 4.144134e-01 3.886516e-01 5.748116e-01 5.266063e-01 4.576439e-01 5.670018e-01 4.599896e-01 4.072842e-01 4.170418e-01 2.734239e-01 1.264732e-01 1.305252e-01 7.962116e-02 6.604184e-02 7.619841e-02 1.952113e-01 8.327991e-02 9.377623e-02 1.378840e-01 1.015922e-01 7.339893e-02 3.724928e-02 5.255849e-02
<GCONST> 5.657364e+01
<STATE> 4
<NUMMIXES> 2
<MIXTURE> 1 5.000000e-01
<MEAN> 39
 -6.481772e+00 9.066454e+00 2.519657e+00 -1.839392e+01 -5.280656e+00 -2.480687e+00 -1.470343e+01 3.107096e+00 -4.419048e-01 -1.146481e+00 -4.441669e+00 -4.925780e-01 -5.517309e+00 1.158260e-02 1.182396e-01 8.083972e-02 -5.738129e-02 4.650687e-02 -4.504725e-02 -8.635880e-02 2.722361e-02 -7.287505e-02 7.936010e-02 2.094457e-01 -1.244010e-01 -2.767700e-02 4.021007e-02 -1.881078e-02 5.525289e-02 7.114600e-02 -1.845770e-02 -1.754203e-03 5.901572e-02 -9.118704e-02 1.601915e-02 8.588978e-03 -8.044016e-02 5.777512e-02 6.223815e-02
<VARIANCE> 39
 6.072492e+00 5.731845e+00 6.002928e+00 7.566793e+00 5.298346e+01 5.810039e+00 2.019208e+01 3.059598e+01 2.246120e+01 2.661188e+01 6.342307e+00 1.298655e+01 1.239183e+01 7.587118e-02 8.583289e-02 2.443519e-01 1.866831e-01 2.574310e-01 1.717100e-01 3.588798e-01 2.259599e-01 1.545695e-01 4.745645e-01 2.068389e-01 3.691446e-01 1.268459e-01 4.827166e-03 1.604316e-02 1.390611e-02 1.965802e-02 2.295094e-02 2.753087e-02 3.566712e-02 4.631548e-02 2.404244e-02 4.127920e-02 3.827304e-02 2.443607e-02 2.515141e-02
<GCONST> 3.450158e+01
<MIXTURE> 2 5.000000e-01
<MEAN> 39
 -6.481772e+00 9.066454e+00 2.519657e+00 -1.839392e+01 -5.280656e+00 -2.480687e+00 -1.470343e+01 3.107096e+00 -4.419048e-01 -1.146481e+00 -4.441669e+00 -4.925780e-01 -5.517309e+00 1.158260e-02 1.182396e-01 8.083972e-02 -5.738129e-02 4.650687e-02 -4.504725e-02 -8.635880e-02 2.722361e-02 -7.287505e-02 7.936010e-02 2.094457e-01 -1.244010e-01 -2.767700e-02 4.021007e-02 -1.881078e-02 5.525289e-02 7.114600e-02 -1.845770e-02 -1.754203e-03 5.901572e-02 -9.118704e-02 1.601915e-02 8.588978e-03 -8.044016e-02 5.777512e-02 6.223815e-02
<VARIANCE> 39
 6.072492e+00 5.731845e+00 6.002928e+00 7.566793e+00 5.298346e+01 5.810039e+00 2.019208e+01 3.059598e+01 2.246120e+01 2.661188e+01 6.342307e+00 1.298655e+01 1.239183e+01 7.587118e-02 8.583289e-02 2.443519e-01 1.866831e-01 2.574310e-01 1.717100e-01 3.588798e-01 2.259599e-01 1.545695e-01 4.745645e-01 2.068389e-01 3.691446e-01 1.268459e-01 4.827166e-03 1.604316e-02 1.390611e-02 1.965802e-02 2.295094e-02 2.753087e-02 3.566712e-02 4.631548e-02 2.404244e-02 4.127920e-02 3.827304e-02 2.443607e-02 2.515141e-02
<GCONST> 3.450158e+01
<STATE> 5
<NUMMIXES> 2
<MIXTURE> 1 5.000000e-01
<MEAN> 39
 -5.352362e+00 3.875323e+00 3.615203e+00 -1.686114e+01 -2.056993e+00 5.727743e+00 -4.825483e+00 5.476492e+00 6.938481e-01 -1.857586e+00 -5.467649e+00 -1.813170e+00 -8.515960e-01 2.650525e-02 -4.472706e-02 1.090141e-01 9.950236e-02 -9.010018e-02 1.084596e-01 1.165882e-01 -1.087839e-01 -8.976122e-02 1.309041e-01 -2.960351e-01 1.164367e-01 8.542991e-02 3.659682e-02 2.895633e-02 1.824268e-02 5.655026e-02 -4.116195e-02 -5.207358e-02 6.507802e-03 -7.128279e-02 -6.028392e-04 6.055240e-02 -3.193007e-02 -6.754951e-03 5.239759e-02
<VARIANCE> 39
 3.774311e+00 1.114276e+01 5.753684e+00 7.773729e+00 3.864097e+01 2.051672e+01 1.792060e+01 1.161579e+01 2.145508e+01 1.018685e+01 1.105092e+01 1.140556e+01 6.217960e+00 2.304014e-01 4.851353e-01 7.127820e-01 8.779101e-01 1.181976e+00 7.248003e-01 9.279267e-01 8.834106e-01 1.372111e+00 1.300777e+00 9.624705e-01 8.321658e-01 5.475209e-01 4.025286e-02 9.828972e-02 1.098869e-01 1.472566e-01 1.032192e-01 1.218873e-01 1.558909e-01 1.009323e-01 3.028100e-01 2.812077e-01 2.080800e-01 1.500585e-01 1.360739e-01
<GCONST> 7.391508e+01
<MIXTURE> 2 5.000000e-01
<MEAN> 39
 -5.352362e+00 3.875323e+00 3.615203e+00 -1.686114e+01 -2.056993e+00 5.727743e+00 -4.825483e+00 5.476492e+00 6.938481e-01 -1.857586e+00 -5.467649e+00 -1.813170e+00 -8.515960e-01 2.650525e-02 -4.472706e-02 1.090141e-01 9.950236e-02 -9.010018e-02 1.084596e-01 1.165882e-01 -1.087839e-01 -8.976122e-02 1.309041e-01 -2.960351e-01 1.164367e-01 8.542991e-02 3.659682e-02 2.895633e-02 1.824268e-02 5.655026e-02 -4.116195e-02 -5.207358e-02 6.507802e-03 -7.128279e-02 -6.028392e-04 6.055240e-02 -3.193007e-02 -6.754951e-03 5.239759e-02
<VARIANCE> 39
 3.774311e+00 1.114276e+01 5.753684e+00 7.773729e+00 3.864097e+01 2.051672e+01 1.792060e+01 1.161579e+01 2.145508e+01 1.018685e+01 1.105092e+01 1.140556e+01 6.217960e+00 2.304014e-01 4.851353e-01 7.127820e-01 8.779101e-01 1.181976e+00 7.248003e-01 9.279267e-01 8.834106e-01 1.372111e+00 1.300777e+00 9.624705e-01 8.321658e-01 5.475209e-01 4.025286e-02 9.828972e-02 1.098869e-01 1.472566e-01 1.032192e-01 1.218873e-01 1.558909e-01 1.009323e-01 3.028100e-01 2.812077e-01 2.080800e-01 1.500585e-01 1.360739e-01
<GCONST> 7.391508e+01
<STATE> 6
<NUMMIXES> 2
<MIXTURE> 1 5.000000e-01
<MEAN> 39
 -4.833652e+00 9.011428e+00 4.251291e+00 -1.631668e+01 -8.654284e+00 1.825199e+00 -8.912364e+00 6.429635e+00 4.259626e+00 2.127195e+00 -5.571575e+00 7.151676e-01 -5.904579e+00 4.812429e-01 2.255273e-01 5.344318e-01 1.053888e+00 -9.786798e-02 -1.794926e-01 1.228387e-01 -8.252838e-01 1.163739e-01 2.495501e-01 -2.866854e-01 4.907157e-02 5.267476e-01 -6.325830e-04 7.006343e-02 1.477198e-01 1.797511e-01 1.894415e-01 -1.031054e-01 -1.034499e-01 -4.121546e-02 -2.980399e-01 -7.512704e-02 1.516857e-01 -9.097195e-02 1.973193e-01
<VARIANCE> 39
 1.236718e+01 2.120375e+01 7.279171e+00 3.833045e+01 2.409322e+01 2.275039e+01 1.824155e+01 8.138580e+01 4.451640e+01 2.357152e+01 1.404689e+01 3.103834e+01 2.344598e+01 1.209327e+00 1.431555e+00 8.322373e-01 4.190211e+00 2.735366e+00 1.017396e+00 1.099529e+00 6.557981e+00 7.147224e+00 3.192341e+00 1.221045e+00 2.540229e+00 2.665922e+00 2.916777e-01 3.167572e-01 1.960106e-01 8.634941e-01 5.125712e-01 1.989280e-01 1.903412e-01 1.582025e+00 1.924514e+00 7.058325e-01 3.112494e-01 4.326787e-01 5.468478e-01
<GCONST> 1.127687e+02
<MIXTURE> 2 5.000000e-01
<MEAN> 39
 -4.833652e+00 9.011428e+00 4.251291e+00 -1.631668e+01 -8.654284e+00 1.825199e+00 -8.912364e+00 6.429635e+00 4.259626e+00 2.127195e+00 -5.571575e+00 7.151676e-01 -5.904579e+00 4.812429e-01 2.255273e-01 5.344318e-01 1.053888e+00 -9.786798e-02 -1.794926e-01 1.228387e-01 -8.252838e-01 1.163739e-01 2.495501e-01 -2.866854e-01 4.907157e-02 5.267476e-01 -6.325830e-04 7.006343e-02 1.477198e-01 1.797511e-01 1.894415e-01 -1.031054e-01 -1.034499e-01 -4.121546e-02 -2.980399e-01 -7.512704e-02 1.516857e-01 -9.097195e-02 1.973193e-01
<VARIANCE> 39
 1.236718e+01 2.120375e+01 7.279171e+00 3.833045e+01 2.409322e+01 2.275039e+01 1.824155e+01 8.138580e+01 4.451640e+01 2.357152e+01 1.404689e+01 3.103834e+01 2.344598e+01 1.209327e+00 1.431555e+00 8.322373e-01 4.190211e+00 2.735366e+00 1.017396e+00 1.099529e+00 6.557981e+00 7.147224e+00 3.192341e+00 1.221045e+00 2.540229e+00 2.665922e+00 2.916777e-01 3.167572e-01 1.960106e-01 8.634941e-01 5.125712e-01 1.989280e-01 1.903412e-01 1.582025e+00 1.924514e+00 7.058325e-01 3.112494e-01 4.326787e-01 5.468478e-01
<GCONST> 1.127687e+02
<TRANSP> 7
 0.000000e+00 1.000000e+00 0.000000e+00 0.000000e+00 0.000000e+00 0.000000e+00 0.000000e+00
 0.000000e+00 8.002568e-01 1.997432e-01 0.000000e+00 0.000000e+00 0.000000e+00 0.000000e+00
 0.000000e+00 0.000000e+00 8.734454e-01 1.265546e-01 0.000000e+00 0.000000e+00 0.000000e+00
 0.000000e+00 0.000000e+00 0.000000e+00 8.791292e-01 1.208709e-01 0.000000e+00 0.000000e+00
 0.000000e+00 0.000000e+00 0.000000e+00 0.000000e+00 8.630664e-01 1.369336e-01 0.000000e+00
 0.000000e+00 0.000000e+00 0.000000e+00 0.000000e+00 0.000000e+00 7.931655e-01 2.068345e-01
 0.000000e+00 0.000000e+00 0.000000e+00 0.000000e+00 0.000000e+00 0.000000e+00 0.000000e+00
<ENDHMM>
~h "ii"
<BEGINHMM>
<NUMSTATES> 7
<STATE> 2
<NUMMIXES> 2
<MIXTURE> 1 5.000000e-01
<MEAN> 39
