~o
<STREAMINFO> 1 39
<VECSIZE> 39<NULLD><MFCC_D_A><DIAGC>
~h "proto_3s_2m"
<BEGINHMM>
<NUMSTATES> 5
<STATE> 2
<NUMMIXES> 2
<MIXTURE> 1 5.000000e-01
<MEAN> 39
 -4.707683e+00 5.947248e-01 -2.359022e+00 -2.529116e+00 -5.807150e-01 -3.899058e+00 -5.879866e-01 -2.546733e+00 -3.359112e+00 -1.947479e+00 -3.053110e+00 -1.799553e+00 -4.706514e-01 1.247701e-09 -4.053445e-10 -2.286396e-09 1.722714e-09 -5.066806e-10 -6.986651e-10 -9.397343e-10 7.695212e-10 2.444734e-09 -2.052057e-09 1.449384e-09 -3.641767e-11 9.025249e-11 -2.731325e-10 1.630878e-10 -4.259284e-10 2.525486e-10 -2.501736e-10 -3.847606e-10 1.820884e-11 2.755076e-10 2.565071e-10 -8.213769e-11 2.446812e-10 1.888177e-10 2.335481e-11
<VARIANCE> 39
 4.187243e+01 6.009408e+01 7.595177e+01 8.282796e+01 4.778630e+01 7.154459e+01 6.832973e+01 5.119468e+01 6.434221e+01 4.010469e+01 3.493262e+01 2.457936e+01 2.416324e+01 1.116265e+00 1.316838e+00 1.507257e+00 1.792183e+00 1.916434e+00 2.495733e+00 2.350824e+00 2.436618e+00 2.611890e+00 2.416298e+00 2.200972e+00 1.782301e+00 1.603670e+00 1.702006e-01 2.106898e-01 2.371141e-01 3.148418e-01 3.490519e-01 4.393112e-01 4.396379e-01 4.711943e-01 4.942226e-01 4.599516e-01 4.256383e-01 3.576615e-01 3.133541e-01
<GCONST> 1.168217e+02
<MIXTURE> 2 5.000000e-01
<MEAN> 39
 -4.707683e+00 5.947248e-01 -2.359022e+00 -2.529116e+00 -5.807150e-01 -3.899058e+00 -5.879866e-01 -2.546733e+00 -3.359112e+00 -1.947479e+00 -3.053110e+00 -1.799553e+00 -4.706514e-01 1.247701e-09 -4.053445e-10 -2.286396e-09 1.722714e-09 -5.066806e-10 -6.986651e-10 -9.397343e-10 7.695212e-10 2.444734e-09 -2.052057e-09 1.449384e-09 -3.641767e-11 9.025249e-11 -2.731325e-10 1.630878e-10 -4.259284e-10 2.525486e-10 -2.501736e-10 -3.847606e-10 1.820884e-11 2.755076e-10 2.565071e-10 -8.213769e-11 2.446812e-10 1.888177e-10 2.335481e-11
<VARIANCE> 39
 4.187243e+01 6.009408e+01 7.595177e+01 8.282796e+01 4.778630e+01 7.154459e+01 6.832973e+01 5.119468e+01 6.434221e+01 4.010469e+01 3.493262e+01 2.457936e+01 2.416324e+01 1.116265e+00 1.316838e+00 1.507257e+00 1.792183e+00 1.916434e+00 2.495733e+00 2.350824e+00 2.436618e+00 2.611890e+00 2.416298e+00 2.200972e+00 1.782301e+00 1.603670e+00 1.702006e-01 2.106898e-01 2.371141e-01 3.148418e-01 3.490519e-01 4.393112e-01 4.396379e-01 4.711943e-01 4.942226e-01 4.599516e-01 4.256383e-01 3.576615e-01 3.133541e-01
<GCONST> 1.168217e+02
<STATE> 3
<NUMMIXES> 2
<MIXTURE> 1 5.000000e-01
<MEAN> 39
 -4.707683e+00 5.947248e-01 -2.359022e+00 -2.529116e+00 -5.807150e-01 -3.899058e+00 -5.879866e-01 -2.546733e+00 -3.359112e+00 -1.947479e+00 -3.053110e+00 -1.799553e+00 -4.706514e-01 1.247701e-09 -4.053445e-10 -2.286396e-09 1.722714e-09 -5.066806e-10 -6.986651e-10 -9.397343e-10 7.695212e-10 2.444734e-09 -2.052057e-09 1.449384e-09 -3.641767e-11 9.025249e-11 -2.731325e-10 1.630878e-10 -4.259284e-10 2.525486e-10 -2.501736e-10 -3.847606e-10 1.820884e-11 2.755076e-10 2.565071e-10 -8.213769e-11 2.446812e-10 1.888177e-10 2.335481e-11
<VARIANCE> 39
 4.187243e+01 6.009408e+01 7.595177e+01 8.282796e+01 4.778630e+01 7.154459e+01 6.832973e+01 5.119468e+01 6.434221e+01 4.010469e+01 3.493262e+01 2.457936e+01 2.416324e+01 1.116265e+00 1.316838e+00 1.507257e+00 1.792183e+00 1.916434e+00 2.495733e+00 2.350824e+00 2.436618e+00 2.611890e+00 2.416298e+00 2.200972e+00 1.782301e+00 1.603670e+00 1.702006e-01 2.106898e-01 2.371141e-01 3.148418e-01 3.490519e-01 4.393112e-01 4.396379e-01 4.711943e-01 4.942226e-01 4.599516e-01 4.256383e-01 3.576615e-01 3.133541e-01
<GCONST> 1.168217e+02
<MIXTURE> 2 5.000000e-01
<MEAN> 39
 -4.707683e+00 5.947248e-01 -2.359022e+00 -2.529116e+00 -5.807150e-01 -3.899058e+00 -5.879866e-01 -2.546733e+00 -3.359112e+00 -1.947479e+00 -3.053110e+00 -1.799553e+00 -4.706514e-01 1.247701e-09 -4.053445e-10 -2.286396e-09 1.722714e-09 -5.066806e-10 -6.986651e-10 -9.397343e-10 7.695212e-10 2.444734e-09 -2.052057e-09 1.449384e-09 -3.641767e-11 9.025249e-11 -2.731325e-10 1.630878e-10 -4.259284e-10 2.525486e-10 -2.501736e-10 -3.847606e-10 1.820884e-11 2.755076e-10 2.565071e-10 -8.213769e-11 2.446812e-10 1.888177e-10 2.335481e-11
<VARIANCE> 39
 4.187243e+01 6.009408e+01 7.595177e+01 8.282796e+01 4.778630e+01 7.154459e+01 6.832973e+01 5.119468e+01 6.434221e+01 4.010469e+01 3.493262e+01 2.457936e+01 2.416324e+01 1.116265e+00 1.316838e+00 1.507257e+00 1.792183e+00 1.916434e+00 2.495733e+00 2.350824e+00 2.436618e+00 2.611890e+00 2.416298e+00 2.200972e+00 1.782301e+00 1.603670e+00 1.702006e-01 2.106898e-01 2.371141e-01 3.148418e-01 3.490519e-01 4.393112e-01 4.396379e-01 4.711943e-01 4.942226e-01 4.599516e-01 4.256383e-01 3.576615e-01 3.133541e-01
<GCONST> 1.168217e+02
<STATE> 4
<NUMMIXES> 2
<MIXTURE> 1 5.000000e-01
<MEAN> 39
 -4.707683e+00 5.947248e-01 -2.359022e+00 -2.529116e+00 -5.807150e-01 -3.899058e+00 -5.879866e-01 -2.546733e+00 -3.359112e+00 -1.947479e+00 -3.053110e+00 -1.799553e+00 -4.706514e-01 1.247701e-09 -4.053445e-10 -2.286396e-09 1.722714e-09 -5.066806e-10 -6.986651e-10 -9.397343e-10 7.695212e-10 2.444734e-09 -2.052057e-09 1.449384e-09 -3.641767e-11 9.025249e-11 -2.731325e-10 1.630878e-10 -4.259284e-10 2.525486e-10 -2.501736e-10 -3.847606e-10 1.820884e-11 2.755076e-10 2.565071e-10 -8.213769e-11 2.446812e-10 1.888177e-10 2.335481e-11
<VARIANCE> 39
 4.187243e+01 6.009408e+01 7.595177e+01 8.282796e+01 4.778630e+01 7.154459e+01 6.832973e+01 5.119468e+01 6.434221e+01 4.010469e+01 3.493262e+01 2.457936e+01 2.416324e+01 1.116265e+00 1.316838e+00 1.507257e+00 1.792183e+00 1.916434e+00 2.495733e+00 2.350824e+00 2.436618e+00 2.611890e+00 2.416298e+00 2.200972e+00 1.782301e+00 1.603670e+00 1.702006e-01 2.106898e-01 2.371141e-01 3.148418e-01 3.490519e-01 4.393112e-01 4.396379e-01 4.711943e-01 4.942226e-01 4.599516e-01 4.256383e-01 3.576615e-01 3.133541e-01
<GCONST> 1.168217e+02
<MIXTURE> 2 5.000000e-01
<MEAN> 39
 -4.707683e+00 5.947248e-01 -2.359022e+00 -2.529116e+00 -5.807150e-01 -3.899058e+00 -5.879866e-01 -2.546733e+00 -3.359112e+00 -1.947479e+00 -3.053110e+00 -1.799553e+00 -4.706514e-01 1.247701e-09 -4.053445e-10 -2.286396e-09 1.722714e-09 -5.066806e-10 -6.986651e-10 -9.397343e-10 7.695212e-10 2.444734e-09 -2.052057e-09 1.449384e-09 -3.641767e-11 9.025249e-11 -2.731325e-10 1.630878e-10 -4.259284e-10 2.525486e-10 -2.501736e-10 -3.847606e-10 1.820884e-11 2.755076e-10 2.565071e-10 -8.213769e-11 2.446812e-10 1.888177e-10 2.335481e-11
<VARIANCE> 39
 4.187243e+01 6.009408e+01 7.595177e+01 8.282796e+01 4.778630e+01 7.154459e+01 6.832973e+01 5.119468e+01 6.434221e+01 4.010469e+01 3.493262e+01 2.457936e+01 2.416324e+01 1.116265e+00 1.316838e+00 1.507257e+00 1.792183e+00 1.916434e+00 2.495733e+00 2.350824e+00 2.436618e+00 2.611890e+00 2.416298e+00 2.200972e+00 1.782301e+00 1.603670e+00 1.702006e-01 2.106898e-01 2.371141e-01 3.148418e-01 3.490519e-01 4.393112e-01 4.396379e-01 4.711943e-01 4.942226e-01 4.599516e-01 4.256383e-01 3.576615e-01 3.133541e-01
<GCONST> 1.168217e+02
<TRANSP> 5
 0.000000e+00 1.000000e+00 0.000000e+00 0.000000e+00 0.000000e+00
 0.000000e+00 6.000000e-01 4.000000e-01 0.000000e+00 0.000000e+00
 0.000000e+00 0.000000e+00 6.000000e-01 4.000000e-01 0.000000e+00
 0.000000e+00 0.000000e+00 0.000000e+00 6.000000e-01 4.000000e-01
 0.000000e+00 0.000000e+00 0.000000e+00 0.000000e+00 0.000000e+00
<ENDHMM>
