~o
<STREAMINFO> 1 39
<VECSIZE> 39<NULLD><MFCC_D_A><DIAGC>
~h "a"
<BEGINHMM>
<NUMSTATES> 7
<STATE> 2
<NUMMIXES> 2
<MIXTURE> 1 5.000000e-01
<MEAN> 39
 -1.811534e+00 1.349931e+00 -2.030579e+00 -3.395277e+00 -3.399689e+00 -3.044065e+00 3.534363e+00 -2.643337e+00 -5.254683e+00 3.169543e-01 -4.770492e+00 -1.865050e+00 6.067678e-01 2.220466e-01 1.292213e-01 -8.222114e-02 -1.852290e-02 1.210885e-01 1.272862e-01 5.518261e-02 2.581816e-01 3.034706e-03 -3.418078e-01 2.600322e-02 -1.610464e-01 2.871778e-01 -1.330608e-01 -9.299237e-02 -7.488804e-02 1.628613e-01 1.063294e-01 -7.410489e-02 -3.273843e-02 7.678241e-02 1.586876e-02 -9.823150e-02 3.102203e-02 3.898852e-02 7.627349e-02
<VARIANCE> 39
 2.778951e+01 3.816873e+01 6.400982e+01 5.145486e+01 9.147220e+01 1.269893e+02 1.167347e+02 9.923619e+01 4.737817e+01 9.228117e+01 3.749104e+01 2.972025e+01 4.447239e+01 1.655813e+00 1.951265e+00 3.266649e+00 3.095295e+00 2.697636e+00 5.543166e+00 4.919247e+00 4.550170e+00 4.854523e+00 4.480541e+00 3.907584e+00 2.584621e+00 4.003730e+00 2.264427e-01 3.612463e-01 4.278174e-01 5.049953e-01 4.326279e-01 8.895035e-01 1.042303e+00 9.121538e-01 9.808872e-01 7.948872e-01 6.424310e-01 5.039299e-01 7.211260e-01
<GCONST> 1.339892e+02
<MIXTURE> 2 5.000000e-01
<MEAN> 39
 -1.811534e+00 1.349931e+00 -2.030579e+00 -3.395277e+00 -3.399689e+00 -3.044065e+00 3.534363e+00 -2.643337e+00 -5.254683e+00 3.169543e-01 -4.770492e+00 -1.865050e+00 6.067678e-01 2.220466e-01 1.292213e-01 -8.222114e-02 -1.852290e-02 1.210885e-01 1.272862e-01 5.518261e-02 2.581816e-01 3.034706e-03 -3.418078e-01 2.600322e-02 -1.610464e-01 2.871778e-01 -1.330608e-01 -9.299237e-02 -7.488804e-02 1.628613e-01 1.063294e-01 -7.410489e-02 -3.273843e-02 7.678241e-02 1.586876e-02 -9.823150e-02 3.102203e-02 3.898852e-02 7.627349e-02
<VARIANCE> 39
 2.778951e+01 3.816873e+01 6.400982e+01 5.145486e+01 9.147220e+01 1.269893e+02 1.167347e+02 9.923619e+01 4.737817e+01 9.228117e+01 3.749104e+01 2.972025e+01 4.447239e+01 1.655813e+00 1.951265e+00 3.266649e+00 3.095295e+00 2.697636e+00 5.543166e+00 4.919247e+00 4.550170e+00 4.854523e+00 4.480541e+00 3.907584e+00 2.584621e+00 4.003730e+00 2.264427e-01 3.612463e-01 4.278174e-01 5.049953e-01 4.326279e-01 8.895035e-01 1.042303e+00 9.121538e-01 9.808872e-01 7.948872e-01 6.424310e-01 5.039299e-01 7.211260e-01
<GCONST> 1.339892e+02
<STATE> 3
<NUMMIXES> 2
<MIXTURE> 1 5.000000e-01
<MEAN> 39
 -3.783385e+00 -5.418606e-01 -2.841100e+00 -2.886626e+00 -2.065118e+00 -6.973034e-01 2.123971e+00 -2.906051e+00 -3.915734e+00 -1.520590e+00 -6.689593e+00 -2.234387e+00 1.242773e+00 -6.362583e-02 -4.600156e-01 -5.076160e-01 3.505518e-01 4.495147e-01 9.124422e-02 2.664864e-01 2.092462e-01 -1.730822e-01 -1.759023e-01 -2.371496e-01 1.694327e-01 5.002407e-01 -1.536508e-01 -1.216690e-01 2.983310e-02 1.141054e-01 -1.663734e-02 -1.100445e-01 8.838227e-02 1.113841e-02 -6.123947e-02 -2.440545e-02 8.771435e-02 1.252131e-01 -7.342502e-03
<VARIANCE> 39
 3.790025e+01 3.297496e+01 7.363802e+01 4.971550e+01 6.570562e+01 6.452630e+01 7.307637e+01 5.829471e+01 5.266437e+01 4.931630e+01 5.715680e+01 3.986435e+01 2.588957e+01 1.932404e+00 2.474251e+00 3.444318e+00 2.499464e+00 2.710011e+00 5.003027e+00 3.734011e+00 4.685815e+00 4.668463e+00 5.037604e+00 4.095354e+00 3.468982e+00 4.078954e+00 2.975428e-01 3.758896e-01 5.698607e-01 5.387552e-01 4.879327e-01 7.021438e-01 7.532853e-01 8.282288e-01 9.486153e-01 7.338898e-01 7.004056e-01 7.588750e-01 7.048376e-01
<GCONST> 1.327154e+02
<MIXTURE> 2 5.000000e-01
<MEAN> 39
 -3.783385e+00 -5.418606e-01 -2.841100e+00 -2.886626e+00 -2.065118e+00 -6.973034e-01 2.123971e+00 -2.906051e+00 -3.915734e+00 -1.520590e+00 -6.689593e+00 -2.234387e+00 1.242773e+00 -6.362583e-02 -4.600156e-01 -5.076160e-01 3.505518e-01 4.495147e-01 9.124422e-02 2.664864e-01 2.092462e-01 -1.730822e-01 -1.759023e-01 -2.371496e-01 1.694327e-01 5.002407e-01 -1.536508e-01 -1.216690e-01 2.983310e-02 1.141054e-01 -1.663734e-02 -1.100445e-01 8.838227e-02 1.113841e-02 -6.123947e-02 -2.440545e-02 8.771435e-02 1.252131e-01 -7.342502e-03
<VARIANCE> 39
 3.790025e+01 3.297496e+01 7.363802e+01 4.971550e+01 6.570562e+01 6.452630e+01 7.307637e+01 5.829471e+01 5.266437e+01 4.931630e+01 5.715680e+01 3.986435e+01 2.588957e+01 1.932404e+00 2.474251e+00 3.444318e+00 2.499464e+00 2.710011e+00 5.003027e+00 3.734011e+00 4.685815e+00 4.668463e+00 5.037604e+00 4.095354e+00 3.468982e+00 4.078954e+00 2.975428e-01 3.758896e-01 5.698607e-01 5.387552e-01 4.879327e-01 7.021438e-01 7.532853e-01 8.282288e-01 9.486153e-01 7.338898e-01 7.004056e-01 7.588750e-01 7.048376e-01
<GCONST> 1.327154e+02
<STATE> 4
<NUMMIXES> 2
<MIXTURE> 1 5.000000e-01
<MEAN> 39
 -2.310873e+00 -1.667215e+00 -1.072701e+01 6.441246e-01 2.338291e+00 -1.806069e+00 1.983478e+00 -1.507074e+00 -2.334137e+00 -4.488804e+00 -5.541368e+00 -1.933527e+00 1.779999e+00 -1.254209e-01 -3.214672e-01 -1.730444e-01 1.746347e-01 1.081720e-01 -8.942683e-02 2.234667e-01 1.526702e-01 -1.175616e-01 -1.011956e-01 -8.859260e-02 1.119920e-01 1.637189e-01 -3.297672e-02 4.758405e-02 1.274094e-01 2.072870e-02 -7.236220e-02 -5.634503e-02 -9.461775e-03 -8.054846e-02 -8.901515e-02 1.386602e-02 1.045056e-01 1.820829e-02 -1.166938e-01
<VARIANCE> 39
 4.166141e+01 2.843909e+01 1.264579e+02 4.604524e+01 6.836856e+01 3.821812e+01 6.112488e+01 3.091914e+01 5.370084e+01 5.926231e+01 3.135948e+01 4.202971e+01 2.541774e+01 1.636181e+00 1.825319e+00 1.994933e+00 2.363275e+00 2.053598e+00 2.589708e+00 3.300003e+00 3.573899e+00 4.442838e+00 4.162375e+00 2.656676e+00 2.890934e+00 2.594396e+00 3.014765e-01 2.927741e-01 4.364215e-01 3.758259e-01 3.792794e-01 5.332982e-01 6.075224e-01 7.128682e-01 8.209625e-01 7.261985e-01 6.251846e-01 5.132197e-01 5.935422e-01
<GCONST> 1.251684e+02
<MIXTURE> 2 5.000000e-01
<MEAN> 39
 -2.310873e+00 -1.667215e+00 -1.072701e+01 6.441246e-01 2.338291e+00 -1.806069e+00 1.983478e+00 -1.507074e+00 -2.334137e+00 -4.488804e+00 -5.541368e+00 -1.933527e+00 1.779999e+00 -1.254209e-01 -3.214672e-01 -1.730444e-01 1.746347e-01 1.081720e-01 -8.942683e-02 2.234667e-01 1.526702e-01 -1.175616e-01 -1.011956e-01 -8.859260e-02 1.119920e-01 1.637189e-01 -3.297672e-02 4.758405e-02 1.274094e-01 2.072870e-02 -7.236220e-02 -5.634503e-02 -9.461775e-03 -8.054846e-02 -8.901515e-02 1.386602e-02 1.045056e-01 1.820829e-02 -1.166938e-01
<VARIANCE> 39
 4.166141e+01 2.843909e+01 1.264579e+02 4.604524e+01 6.836856e+01 3.821812e+01 6.112488e+01 3.091914e+01 5.370084e+01 5.926231e+01 3.135948e+01 4.202971e+01 2.541774e+01 1.636181e+00 1.825319e+00 1.994933e+00 2.363275e+00 2.053598e+00 2.589708e+00 3.300003e+00 3.573899e+00 4.442838e+00 4.162375e+00 2.656676e+00 2.890934e+00 2.594396e+00 3.014765e-01 2.927741e-01 4.364215e-01 3.758259e-01 3.792794e-01 5.332982e-01 6.075224e-01 7.128682e-01 8.209625e-01 7.261985e-01 6.251846e-01 5.132197e-01 5.935422e-01
<GCONST> 1.251684e+02
<STATE> 5
<NUMMIXES> 2
<MIXTURE> 1 5.000000e-01
<MEAN> 39
 -3.563938e+00 -3.923103e+00 -6.325792e+00 1.018522e+00 -4.469470e-01 -3.558229e+00 5.001692e+00 -1.362979e+00 -6.215945e+00 -3.664470e+00 -5.099504e+00 -9.513634e-01 1.608140e+00 1.047365e-02 -1.782821e-01 6.959243e-02 3.062122e-01 -4.778112e-02 -2.108779e-01 4.247065e-01 -7.173210e-02 -7.374925e-01 -1.761913e-01 2.380001e-01 4.033577e-02 -1.735417e-01 5.306978e-03 1.257273e-01 1.190844e-01 -8.220606e-02 -5.432628e-02 -2.218134e-02 -6.113999e-03 -7.216281e-02 -2.642671e-02 7.914670e-02 1.084966e-01 -7.582371e-02 -1.908453e-01
<VARIANCE> 39
 2.452064e+01 3.133031e+01 7.730216e+01 3.557788e+01 7.048542e+01 5.232012e+01 6.190366e+01 2.849562e+01 6.400536e+01 7.333243e+01 3.378131e+01 3.028600e+01 2.566883e+01 1.353112e+00 1.846066e+00 2.308490e+00 1.676177e+00 2.271483e+00 2.257983e+00 3.204244e+00 2.753352e+00 3.678870e+00 3.403404e+00 2.470983e+00 2.240616e+00 1.719877e+00 1.939294e-01 3.130231e-01 3.159889e-01 2.953117e-01 3.490995e-01 4.450214e-01 6.145233e-01 4.640147e-01 7.010208e-01 5.798024e-01 5.155835e-01 4.241846e-01 3.807109e-01
<GCONST> 1.197442e+02
<MIXTURE> 2 5.000000e-01
<MEAN> 39
 -3.563938e+00 -3.923103e+00 -6.325792e+00 1.018522e+00 -4.469470e-01 -3.558229e+00 5.001692e+00 -1.362979e+00 -6.215945e+00 -3.664470e+00 -5.099504e+00 -9.513634e-01 1.608140e+00 1.047365e-02 -1.782821e-01 6.959243e-02 3.062122e-01 -4.778112e-02 -2.108779e-01 4.247065e-01 -7.173210e-02 -7.374925e-01 -1.761913e-01 2.380001e-01 4.033577e-02 -1.735417e-01 5.306978e-03 1.257273e-01 1.190844e-01 -8.220606e-02 -5.432628e-02 -2.218134e-02 -6.113999e-03 -7.216281e-02 -2.642671e-02 7.914670e-02 1.084966e-01 -7.582371e-02 -1.908453e-01
<VARIANCE> 39
 2.452064e+01 3.133031e+01 7.730216e+01 3.557788e+01 7.048542e+01 5.232012e+01 6.190366e+01 2.849562e+01 6.400536e+01 7.333243e+01 3.378131e+01 3.028600e+01 2.566883e+01 1.353112e+00 1.846066e+00 2.308490e+00 1.676177e+00 2.271483e+00 2.257983e+00 3.204244e+00 2.753352e+00 3.678870e+00 3.403404e+00 2.470983e+00 2.240616e+00 1.719877e+00 1.939294e-01 3.130231e-01 3.159889e-01 2.953117e-01 3.490995e-01 4.450214e-01 6.145233e-01 4.640147e-01 7.010208e-01 5.798024e-01 5.155835e-01 4.241846e-01 3.807109e-01
<GCONST> 1.197442e+02
<STATE> 6
<NUMMIXES> 2
<MIXTURE> 1 5.000000e-01
<MEAN> 39
 -2.852232e+00 -3.903754e+00 -3.753352e+00 3.731909e-01 -3.557940e+00 -1.787383e+00 7.343997e+00 -2.412378e+00 -9.967042e+00 -1.507723e+00 -5.080858e+00 -2.593691e+00 1.476731e+00 -3.566752e-02 2.556372e-01 3.948070e-01 -5.578046e-02 -8.891771e-02 -8.741316e-02 3.869420e-02 -7.619638e-02 -1.494260e-01 1.386686e-02 1.342646e-01 -3.892789e-02 -1.849474e-01 -5.490296e-02 3.573340e-02 -7.371781e-03 -7.927524e-02 2.900709e-02 -2.411148e-02 -1.396842e-01 -2.879739e-02 1.450519e-01 1.553167e-02 -3.505515e-02 7.980848e-03 -4.042768e-03
<VARIANCE> 39
 1.516096e+01 2.728370e+01 4.919250e+01 3.018480e+01 5.101492e+01 5.251731e+01 4.580999e+01 2.871012e+01 4.084529e+01 6.098256e+01 3.606841e+01 2.715878e+01 3.000149e+01 9.347529e-01 1.384884e+00 1.782669e+00 1.604699e+00 2.023787e+00 2.348781e+00 2.919812e+00 2.089451e+00 2.426834e+00 3.628765e+00 2.807386e+00 1.661251e+00 1.866367e+00 1.515296e-01 1.809067e-01 2.172972e-01 2.909745e-01 2.781581e-01 4.036771e-01 5.204198e-01 3.830602e-01 3.931844e-01 6.665526e-01 4.883322e-01 3.542160e-01 3.237284e-01
<GCONST> 1.128261e+02
<MIXTURE> 2 5.000000e-01
<MEAN> 39
 -2.852232e+00 -3.903754e+00 -3.753352e+00 3.731909e-01 -3.557940e+00 -1.787383e+00 7.343997e+00 -2.412378e+00 -9.967042e+00 -1.507723e+00 -5.080858e+00 -2.593691e+00 1.476731e+00 -3.566752e-02 2.556372e-01 3.948070e-01 -5.578046e-02 -8.891771e-02 -8.741316e-02 3.869420e-02 -7.619638e-02 -1.494260e-01 1.386686e-02 1.342646e-01 -3.892789e-02 -1.849474e-01 -5.490296e-02 3.573340e-02 -7.371781e-03 -7.927524e-02 2.900709e-02 -2.411148e-02 -1.396842e-01 -2.879739e-02 1.450519e-01 1.553167e-02 -3.505515e-02 7.980848e-03 -4.042768e-03
<VARIANCE> 39
 1.516096e+01 2.728370e+01 4.919250e+01 3.018480e+01 5.101492e+01 5.251731e+01 4.580999e+01 2.871012e+01 4.084529e+01 6.098256e+01 3.606841e+01 2.715878e+01 3.000149e+01 9.347529e-01 1.384884e+00 1.782669e+00 1.604699e+00 2.023787e+00 2.348781e+00 2.919812e+00 2.089451e+00 2.426834e+00 3.628765e+00 2.807386e+00 1.661251e+00 1.866367e+00 1.515296e-01 1.809067e-01 2.172972e-01 2.909745e-01 2.781581e-01 4.036771e-01 5.204198e-01 3.830602e-01 3.931844e-01 6.665526e-01 4.883322e-01 3.542160e-01 3.237284e-01
<GCONST> 1.128261e+02
<TRANSP> 7
 0.000000e+00 1.000000e+00 0.000000e+00 0.000000e+00 0.000000e+00 0.000000e+00 0.000000e+00
 0.000000e+00 6.814296e-01 3.185704e-01 0.000000e+00 0.000000e+00 0.000000e+00 0.000000e+00
 0.000000e+00 0.000000e+00 5.695639e-01 4.304361e-01 0.000000e+00 0.000000e+00 0.000000e+00
 0.000000e+00 0.000000e+00 0.000000e+00 6.971346e-01 3.028654e-01 0.000000e+00 0.000000e+00
 0.000000e+00 0.000000e+00 0.000000e+00 0.000000e+00 6.112381e-01 3.887619e-01 0.000000e+00
 0.000000e+00 0.000000e+00 0.000000e+00 0.000000e+00 0.000000e+00 7.714046e-01 2.285955e-01
 0.000000e+00 0.000000e+00 0.000000e+00 0.000000e+00 0.000000e+00 0.000000e+00 0.000000e+00
<ENDHMM>
~h "b"
<BEGINHMM>
<NUMSTATES> 5
<STATE> 2
<NUMMIXES> 2
<MIXTURE> 1 5.000000e-01
<MEAN> 39
 2.704213e+00 7.456579e-01 7.088284e-01 -7.469678e-01 -3.483108e+00 -8.911250e+00 -4.446661e+00 2.859266e+00 -5.820467e+00 -4.113131e+00 -2.448202e+00 -2.830845e+00 1.220646e+00 1.189579e+00 6.259902e-01 7.267287e-01 1.049937e+00 1.167199e+00 -1.515105e+00 -1.563101e+00 -1.588367e-01 1.530072e-01 -4.978063e-01 -4.999088e-01 1.146325e+00 1.881821e-01 -1.813622e-01 1.900511e-01 4.623917e-02 -1.927834e-01 -1.738156e-01 1.689709e-01 -8.565214e-02 -2.758951e-01 2.114129e-01 7.698317e-02 -7.926430e-02 5.306819e-02 8.607393e-02
<VARIANCE> 39
 2.455254e+01 1.415658e+01 1.098032e+02 1.781517e+01 1.243076e+01 2.163324e+01 1.007720e+02 2.562400e+01 3.404109e+01 1.663331e+01 2.443054e+01 1.403268e+01 1.783209e+01 6.493884e-01 7.590737e-01 1.995012e+00 1.045097e+00 2.052776e+00 2.682636e+00 1.855171e+00 3.453382e+00 1.808183e+00 1.807089e+00 2.164361e+00 2.157473e+00 1.462591e+00 4.371413e-02 1.263326e-01 3.716693e-01 1.659954e-01 5.298302e-01 4.428950e-01 3.148343e-01 8.858657e-01 2.411811e-01 3.150022e-01 7.627518e-01 3.884043e-01 2.372607e-01
<GCONST> 1.043674e+02
<MIXTURE> 2 5.000000e-01
<MEAN> 39
 2.704213e+00 7.456579e-01 7.088284e-01 -7.469678e-01 -3.483108e+00 -8.911250e+00 -4.446661e+00 2.859266e+00 -5.820467e+00 -4.113131e+00 -2.448202e+00 -2.830845e+00 1.220646e+00 1.189579e+00 6.259902e-01 7.267287e-01 1.049937e+00 1.167199e+00 -1.515105e+00 -1.563101e+00 -1.588367e-01 1.530072e-01 -4.978063e-01 -4.999088e-01 1.146325e+00 1.881821e-01 -1.813622e-01 1.900511e-01 4.623917e-02 -1.927834e-01 -1.738156e-01 1.689709e-01 -8.565214e-02 -2.758951e-01 2.114129e-01 7.698317e-02 -7.926430e-02 5.306819e-02 8.607393e-02
<VARIANCE> 39
 2.455254e+01 1.415658e+01 1.098032e+02 1.781517e+01 1.243076e+01 2.163324e+01 1.007720e+02 2.562400e+01 3.404109e+01 1.663331e+01 2.443054e+01 1.403268e+01 1.783209e+01 6.493884e-01 7.590737e-01 1.995012e+00 1.045097e+00 2.052776e+00 2.682636e+00 1.855171e+00 3.453382e+00 1.808183e+00 1.807089e+00 2.164361e+00 2.157473e+00 1.462591e+00 4.371413e-02 1.263326e-01 3.716693e-01 1.659954e-01 5.298302e-01 4.428950e-01 3.148343e-01 8.858657e-01 2.411811e-01 3.150022e-01 7.627518e-01 3.884043e-01 2.372607e-01
<GCONST> 1.043674e+02
<STATE> 3
<NUMMIXES> 2
<MIXTURE> 1 5.000000e-01
<MEAN> 39
 8.608891e+00 6.874520e+00 5.336630e-01 4.641635e+00 3.330832e+00 -1.778411e+01 -6.912900e+00 -1.870642e+00 -1.375365e+00 -4.092113e+00 -7.105976e+00 5.038761e-01 1.993076e+00 4.918028e-01 5.303133e-01 9.834677e-02 2.830309e-01 5.790886e-01 -4.284417e-01 -2.244523e-01 -3.338241e-01 3.031179e-01 4.202544e-01 -1.919122e-01 7.555136e-02 -3.310097e-01 -6.665213e-02 -3.307230e-02 -5.061795e-02 -4.964991e-02 -1.312415e-02 1.425605e-01 4.992843e-02 -2.482893e-02 -4.438883e-02 4.387322e-02 -1.430323e-03 -2.779535e-02 -5.235264e-02
<VARIANCE> 39
 2.343078e+01 2.525479e+01 9.623762e+01 2.571473e+01 3.316253e+01 2.255995e+01 6.988796e+01 2.308168e+01 2.722169e+01 4.232966e+01 2.183197e+01 1.203577e+01 2.497368e+01 2.194064e-01 3.430747e-01 1.344047e+00 9.922349e-01 9.135005e-01 1.557466e+00 1.433054e+00 1.408036e+00 3.479701e+00 1.682743e+00 1.370995e+00 1.198532e+00 1.037769e+00 3.718362e-02 7.034809e-02 1.577701e-01 1.869481e-01 1.508172e-01 2.779895e-01 2.327844e-01 2.768250e-01 6.312089e-01 3.390740e-01 2.313668e-01 2.730693e-01 1.492810e-01
<GCONST> 9.518423e+01
<MIXTURE> 2 5.000000e-01
<MEAN> 39
 8.608891e+00 6.874520e+00 5.336630e-01 4.641635e+00 3.330832e+00 -1.778411e+01 -6.912900e+00 -1.870642e+00 -1.375365e+00 -4.092113e+00 -7.105976e+00 5.038761e-01 1.993076e+00 4.918028e-01 5.303133e-01 9.834677e-02 2.830309e-01 5.790886e-01 -4.284417e-01 -2.244523e-01 -3.338241e-01 3.031179e-01 4.202544e-01 -1.919122e-01 7.555136e-02 -3.310097e-01 -6.665213e-02 -3.307230e-02 -5.061795e-02 -4.964991e-02 -1.312415e-02 1.425605e-01 4.992843e-02 -2.482893e-02 -4.438883e-02 4.387322e-02 -1.430323e-03 -2.779535e-02 -5.235264e-02
<VARIANCE> 39
 2.343078e+01 2.525479e+01 9.623762e+01 2.571473e+01 3.316253e+01 2.255995e+01 6.988796e+01 2.308168e+01 2.722169e+01 4.232966e+01 2.183197e+01 1.203577e+01 2.497368e+01 2.194064e-01 3.430747e-01 1.344047e+00 9.922349e-01 9.135005e-01 1.557466e+00 1.433054e+00 1.408036e+00 3.479701e+00 1.682743e+00 1.370995e+00 1.198532e+00 1.037769e+00 3.718362e-02 7.034809e-02 1.577701e-01 1.869481e-01 1.508172e-01 2.779895e-01 2.327844e-01 2.768250e-01 6.312089e-01 3.390740e-01 2.313668e-01 2.730693e-01 1.492810e-01
<GCONST> 9.518423e+01
<STATE> 4
<NUMMIXES> 2
<MIXTURE> 1 5.000000e-01
<MEAN> 39
 4.321604e+00 3.580589e+00 -8.262020e+00 3.230307e+00 3.146137e+00 -1.202209e+01 -3.673317e+00 -3.206781e+00 4.328433e+00 -4.175453e+00 -7.880332e+00 -1.020883e-01 1.488682e+00 -7.680278e-01 -7.952650e-01 -1.099582e+00 -5.549147e-01 -5.821577e-01 8.308432e-01 7.363657e-01 7.315119e-02 2.355735e-01 -4.269652e-01 2.415559e-01 -1.552462e-01 3.008591e-01 2.242352e-02 -3.444159e-02 -1.942974e-02 -2.556633e-02 3.308010e-02 -2.304635e-02 2.887414e-02 3.021921e-02 3.244676e-02 -5.820218e-02 2.193592e-02 -2.771313e-02 1.637292e-02
<VARIANCE> 39
 3.466740e+01 4.898415e+01 1.212345e+02 1.826081e+01 5.300462e+01 4.009622e+01 5.688404e+01 4.760375e+01 3.696623e+01 6.878059e+01 3.209282e+01 1.464260e+01 1.753766e+01 3.097883e+00 2.438205e+00 5.552475e+00 2.384634e+00 5.118917e+00 3.534825e+00 2.256161e+00 2.711859e+00 3.733663e+00 3.775486e+00 1.834143e+00 1.291591e+00 1.128720e+00 5.862704e-01 5.115919e-01 7.651472e-01 3.495463e-01 9.755907e-01 6.136093e-01 3.186277e-01 4.797995e-01 5.756555e-01 5.802165e-01 3.568520e-01 2.214236e-01 1.758758e-01
<GCONST> 1.218951e+02
<MIXTURE> 2 5.000000e-01
<MEAN> 39
 4.321604e+00 3.580589e+00 -8.262020e+00 3.230307e+00 3.146137e+00 -1.202209e+01 -3.673317e+00 -3.206781e+00 4.328433e+00 -4.175453e+00 -7.880332e+00 -1.020883e-01 1.488682e+00 -7.680278e-01 -7.952650e-01 -1.099582e+00 -5.549147e-01 -5.821577e-01 8.308432e-01 7.363657e-01 7.315119e-02 2.355735e-01 -4.269652e-01 2.415559e-01 -1.552462e-01 3.008591e-01 2.242352e-02 -3.444159e-02 -1.942974e-02 -2.556633e-02 3.308010e-02 -2.304635e-02 2.887414e-02 3.021921e-02 3.244676e-02 -5.820218e-02 2.193592e-02 -2.771313e-02 1.637292e-02
<VARIANCE> 39
 3.466740e+01 4.898415e+01 1.212345e+02 1.826081e+01 5.300462e+01 4.009622e+01 5.688404e+01 4.760375e+01 3.696623e+01 6.878059e+01 3.209282e+01 1.464260e+01 1.753766e+01 3.097883e+00 2.438205e+00 5.552475e+00 2.384634e+00 5.118917e+00 3.534825e+00 2.256161e+00 2.711859e+00 3.733663e+00 3.775486e+00 1.834143e+00 1.291591e+00 1.128720e+00 5.862704e-01 5.115919e-01 7.651472e-01 3.495463e-01 9.755907e-01 6.136093e-01 3.186277e-01 4.797995e-01 5.756555e-01 5.802165e-01 3.568520e-01 2.214236e-01 1.758758e-01
<GCONST> 1.218951e+02
<TRANSP> 5
 0.000000e+00 1.000000e+00 0.000000e+00 0.000000e+00 0.000000e+00
 0.000000e+00 7.617849e-01 2.382151e-01 0.000000e+00 0.000000e+00
 0.000000e+00 0.000000e+00 9.263132e-01 7.368681e-02 0.000000e+00
 0.000000e+00 0.000000e+00 0.000000e+00 9.162843e-01 8.371571e-02
 0.000000e+00 0.000000e+00 0.000000e+00 0.000000e+00 0.000000e+00
<ENDHMM>
~h "c"
<BEGINHMM>
<NUMSTATES> 5
<STATE> 2
<NUMMIXES> 2
<MIXTURE> 1 5.000000e-01
<MEAN> 39
 -1.118161e+01 1.997439e+00 -1.443701e+00 4.763941e-01 -3.015673e+00 -2.972366e-01 1.630680e+00 -5.021632e+00 -1.582416e+00 -4.337965e+00 -1.937250e+00 -2.721593e+00 2.655246e+00 -1.666507e+00 -2.450420e-01 -8.603126e-01 -3.506720e-01 1.600091e-02 -4.492324e-01 -4.228383e-01 -1.213275e-02 6.508197e-01 -3.432406e-01 6.334763e-01 -7.111916e-02 8.467457e-02 2.972301e-02 -1.755212e-02 4.467210e-02 -5.803389e-02 -4.221021e-02 -2.984627e-02 -6.898964e-02 -5.622673e-03 -2.029276e-02 1.281354e-01 -5.983375e-03 1.068617e-01 1.614185e-03
<VARIANCE> 39
 8.366790e+01 3.504035e+01 4.059653e+01 1.786448e+01 2.302440e+01 2.220564e+01 3.914084e+01 2.564422e+01 1.978282e+01 2.023017e+01 2.826668e+01 2.823735e+01 1.895752e+01 3.464769e+00 3.104501e+00 3.471368e+00 2.679825e+00 2.281556e+00 3.008866e+00 3.757190e+00 3.297022e+00 2.428161e+00 2.988063e+00 3.357652e+00 3.862149e+00 2.562081e+00 6.679718e-01 5.744233e-01 6.670648e-01 5.290814e-01 4.969530e-01 5.964237e-01 4.338273e-01 7.102984e-01 3.777567e-01 5.762212e-01 6.274532e-01 7.160586e-01 4.642786e-01
<GCONST> 1.220612e+02
<MIXTURE> 2 5.000000e-01
<MEAN> 39
 -1.118161e+01 1.997439e+00 -1.443701e+00 4.763941e-01 -3.015673e+00 -2.972366e-01 1.630680e+00 -5.021632e+00 -1.582416e+00 -4.337965e+00 -1.937250e+00 -2.721593e+00 2.655246e+00 -1.666507e+00 -2.450420e-01 -8.603126e-01 -3.506720e-01 1.600091e-02 -4.492324e-01 -4.228383e-01 -1.213275e-02 6.508197e-01 -3.432406e-01 6.334763e-01 -7.111916e-02 8.467457e-02 2.972301e-02 -1.755212e-02 4.467210e-02 -5.803389e-02 -4.221021e-02 -2.984627e-02 -6.898964e-02 -5.622673e-03 -2.029276e-02 1.281354e-01 -5.983375e-03 1.068617e-01 1.614185e-03
<VARIANCE> 39
 8.366790e+01 3.504035e+01 4.059653e+01 1.786448e+01 2.302440e+01 2.220564e+01 3.914084e+01 2.564422e+01 1.978282e+01 2.023017e+01 2.826668e+01 2.823735e+01 1.895752e+01 3.464769e+00 3.104501e+00 3.471368e+00 2.679825e+00 2.281556e+00 3.008866e+00 3.757190e+00 3.297022e+00 2.428161e+00 2.988063e+00 3.357652e+00 3.862149e+00 2.562081e+00 6.679718e-01 5.744233e-01 6.670648e-01 5.290814e-01 4.969530e-01 5.964237e-01 4.338273e-01 7.102984e-01 3.777567e-01 5.762212e-01 6.274532e-01 7.160586e-01 4.642786e-01
<GCONST> 1.220612e+02
<STATE> 3
<NUMMIXES> 2
<MIXTURE> 1 5.000000e-01
<MEAN> 39
 -2.017129e+01 1.287005e+00 -4.459705e+00 -4.668798e+00 -2.837555e+00 -9.723309e-01 -2.690922e+00 -3.846247e+00 2.554780e+00 -1.973194e+00 -1.423964e+00 -3.100792e-01 9.464532e-01 7.430570e-01 3.567636e-01 4.899468e-01 -3.305585e-01 -1.809658e-01 2.972845e-01 -1.626535e-01 8.265138e-02 2.184598e-02 3.213920e-01 -8.740848e-01 2.591263e-02 -3.177944e-01 3.445227e-01 5.725534e-02 1.585661e-01 8.804614e-04 -1.178955e-01 5.953657e-02 5.313342e-02 -2.176915e-03 -1.312763e-01 1.341879e-02 -1.399598e-01 -1.174981e-01 -7.065040e-02
<VARIANCE> 39
 1.955008e+01 2.465398e+01 1.949922e+01 1.694996e+01 1.841921e+01 2.260578e+01 1.729149e+01 1.925315e+01 2.356588e+01 2.309392e+01 3.240789e+01 2.370689e+01 1.621753e+01 2.329699e+00 1.388470e+00 2.231406e+00 2.121879e+00 2.226807e+00 2.736392e+00 2.038724e+00 2.236483e+00 2.811246e+00 2.963681e+00 3.069042e+00 3.063954e+00 1.468945e+00 2.536170e-01 2.684073e-01 3.724736e-01 5.466964e-01 4.547812e-01 6.478123e-01 5.248125e-01 4.606431e-01 5.810144e-01 6.172701e-01 7.393987e-01 5.935287e-01 3.206587e-01
<GCONST> 1.121169e+02
<MIXTURE> 2 5.000000e-01
<MEAN> 39
 -2.017129e+01 1.287005e+00 -4.459705e+00 -4.668798e+00 -2.837555e+00 -9.723309e-01 -2.690922e+00 -3.846247e+00 2.554780e+00 -1.973194e+00 -1.423964e+00 -3.100792e-01 9.464532e-01 7.430570e-01 3.567636e-01 4.899468e-01 -3.305585e-01 -1.809658e-01 2.972845e-01 -1.626535e-01 8.265138e-02 2.184598e-02 3.213920e-01 -8.740848e-01 2.591263e-02 -3.177944e-01 3.445227e-01 5.725534e-02 1.585661e-01 8.804614e-04 -1.178955e-01 5.953657e-02 5.313342e-02 -2.176915e-03 -1.312763e-01 1.341879e-02 -1.399598e-01 -1.174981e-01 -7.065040e-02
<VARIANCE> 39
 1.955008e+01 2.465398e+01 1.949922e+01 1.694996e+01 1.841921e+01 2.260578e+01 1.729149e+01 1.925315e+01 2.356588e+01 2.309392e+01 3.240789e+01 2.370689e+01 1.621753e+01 2.329699e+00 1.388470e+00 2.231406e+00 2.121879e+00 2.226807e+00 2.736392e+00 2.038724e+00 2.236483e+00 2.811246e+00 2.963681e+00 3.069042e+00 3.063954e+00 1.468945e+00 2.536170e-01 2.684073e-01 3.724736e-01 5.466964e-01 4.547812e-01 6.478123e-01 5.248125e-01 4.606431e-01 5.810144e-01 6.172701e-01 7.393987e-01 5.935287e-01 3.206587e-01
<GCONST> 1.121169e+02
<STATE> 4
<NUMMIXES> 2
<MIXTURE> 1 5.000000e-01
<MEAN> 39
 -5.443674e+00 4.818842e+00 2.864553e+00 -8.804022e+00 -7.918731e+00 1.565054e+00 -3.953302e+00 -3.555485e+00 9.317276e-01 1.318784e+00 -8.913033e+00 -1.948671e+00 -3.971827e+00 1.969249e+00 -4.460590e-01 7.243084e-01 -1.200335e+00 -1.373796e+00 -4.595114e-01 2.682266e-01 1.607407e-01 -3.070028e-01 4.622930e-01 -7.531270e-04 -1.471029e-01 -1.549308e-01 -7.799356e-01 -3.798263e-01 -4.795757e-01 2.412166e-02 7.427862e-02 -2.264007e-01 1.593306e-01 1.685472e-01 2.322624e-01 -2.540267e-01 3.752889e-01 1.977856e-01 4.085628e-01
<VARIANCE> 39
 2.346015e+01 2.244911e+01 1.952612e+01 2.380661e+01 1.371613e+01 1.887071e+01 3.089067e+01 1.677499e+01 1.617650e+01 2.008480e+01 1.537803e+01 1.264743e+01 1.470491e+01 3.683376e+00 2.422104e+00 2.978931e+00 2.419993e+00 1.853491e+00 2.617803e+00 3.435637e+00 2.412460e+00 2.281167e+00 4.346909e+00 2.437926e+00 1.407650e+00 2.461339e+00 5.108170e-01 3.764037e-01 3.335449e-01 4.541572e-01 3.038970e-01 5.189751e-01 4.500162e-01 3.520240e-01 3.237738e-01 6.044066e-01 4.585856e-01 2.430080e-01 2.755556e-01
<GCONST> 1.095800e+02
<MIXTURE> 2 5.000000e-01
<MEAN> 39
 -5.443674e+00 4.818842e+00 2.864553e+00 -8.804022e+00 -7.918731e+00 1.565054e+00 -3.953302e+00 -3.555485e+00 9.317276e-01 1.318784e+00 -8.913033e+00 -1.948671e+00 -3.971827e+00 1.969249e+00 -4.460590e-01 7.243084e-01 -1.200335e+00 -1.373796e+00 -4.595114e-01 2.682266e-01 1.607407e-01 -3.070028e-01 4.622930e-01 -7.531270e-04 -1.471029e-01 -1.549308e-01 -7.799356e-01 -3.798263e-01 -4.795757e-01 2.412166e-02 7.427862e-02 -2.264007e-01 1.593306e-01 1.685472e-01 2.322624e-01 -2.540267e-01 3.752889e-01 1.977856e-01 4.085628e-01
<VARIANCE> 39
 2.346015e+01 2.244911e+01 1.952612e+01 2.380661e+01 1.371613e+01 1.887071e+01 3.089067e+01 1.677499e+01 1.617650e+01 2.008480e+01 1.537803e+01 1.264743e+01 1.470491e+01 3.683376e+00 2.422104e+00 2.978931e+00 2.419993e+00 1.853491e+00 2.617803e+00 3.435637e+00 2.412460e+00 2.281167e+00 4.346909e+00 2.437926e+00 1.407650e+00 2.461339e+00 5.108170e-01 3.764037e-01 3.335449e-01 4.541572e-01 3.038970e-01 5.189751e-01 4.500162e-01 3.520240e-01 3.237738e-01 6.044066e-01 4.585856e-01 2.430080e-01 2.755556e-01
<GCONST> 1.095800e+02
<TRANSP> 5
 0.000000e+00 1.000000e+00 0.000000e+00 0.000000e+00 0.000000e+00
 0.000000e+00 9.023807e-01 9.761923e-02 0.000000e+00 0.000000e+00
 0.000000e+00 0.000000e+00 9.174083e-01 8.259175e-02 0.000000e+00
 0.000000e+00 0.000000e+00 0.000000e+00 7.612996e-01 2.387004e-01
 0.000000e+00 0.000000e+00 0.000000e+00 0.000000e+00 0.000000e+00
<ENDHMM>
~h "d"
<BEGINHMM>
<NUMSTATES> 5
<STATE> 2
<NUMMIXES> 2
<MIXTURE> 1 5.000000e-01
<MEAN> 39
 2.667363e+00 1.130713e+01 4.180700e+00 -4.663591e+00 4.025133e+00 -1.878525e+01 -1.212300e+00 -8.841239e+00 -8.375889e+00 1.170046e+01 -4.645850e+00 -4.886353e-01 -5.056253e+00 5.703236e-01 3.591138e-01 1.325171e-01 -9.187716e-02 -8.926998e-02 -3.113452e-01 1.796294e-02 -1.059078e-01 -1.828869e-01 5.023862e-01 -6.761533e-03 2.830521e-01 2.432681e-01 -1.121292e-02 -5.880830e-02 -1.058025e-02 4.697741e-02 -8.590827e-02 2.018186e-02 3.443332e-02 2.123531e-02 1.442621e-02 -4.411444e-02 -5.040263e-03 4.398348e-02 2.552654e-02
<VARIANCE> 39
 2.375089e+01 1.484504e+01 6.670701e+00 1.520022e+01 2.385748e+01 3.299479e+01 1.182158e+01 1.898701e+01 1.197750e+01 3.153963e+01 1.277518e+01 1.971425e+01 1.452435e+01 1.276165e+00 1.028077e+00 5.829834e-01 1.118152e+00 1.581068e+00 1.788158e+00 1.595825e+00 1.072457e+00 1.558331e+00 1.940378e+00 1.050070e+00 8.810272e-01 7.616417e-01 2.498739e-01 1.687047e-01 1.089093e-01 1.564272e-01 2.707349e-01 3.606932e-01 3.137120e-01 1.956618e-01 3.323895e-01 4.433270e-01 1.670363e-01 1.449860e-01 1.517033e-01
<GCONST> 9.068211e+01
<MIXTURE> 2 5.000000e-01
<MEAN> 39
 2.667363e+00 1.130713e+01 4.180700e+00 -4.663591e+00 4.025133e+00 -1.878525e+01 -1.212300e+00 -8.841239e+00 -8.375889e+00 1.170046e+01 -4.645850e+00 -4.886353e-01 -5.056253e+00 5.703236e-01 3.591138e-01 1.325171e-01 -9.187716e-02 -8.926998e-02 -3.113452e-01 1.796294e-02 -1.059078e-01 -1.828869e-01 5.023862e-01 -6.761533e-03 2.830521e-01 2.432681e-01 -1.121292e-02 -5.880830e-02 -1.058025e-02 4.697741e-02 -8.590827e-02 2.018186e-02 3.443332e-02 2.123531e-02 1.442621e-02 -4.411444e-02 -5.040263e-03 4.398348e-02 2.552654e-02
<VARIANCE> 39
 2.375089e+01 1.484504e+01 6.670701e+00 1.520022e+01 2.385748e+01 3.299479e+01 1.182158e+01 1.898701e+01 1.197750e+01 3.153963e+01 1.277518e+01 1.971425e+01 1.452435e+01 1.276165e+00 1.028077e+00 5.829834e-01 1.118152e+00 1.581068e+00 1.788158e+00 1.595825e+00 1.072457e+00 1.558331e+00 1.940378e+00 1.050070e+00 8.810272e-01 7.616417e-01 2.498739e-01 1.687047e-01 1.089093e-01 1.564272e-01 2.707349e-01 3.606932e-01 3.137120e-01 1.956618e-01 3.323895e-01 4.433270e-01 1.670363e-01 1.449860e-01 1.517033e-01
<GCONST> 9.068211e+01
<STATE> 3
<NUMMIXES> 2
<MIXTURE> 1 5.000000e-01
<MEAN> 39
 3.960621e+00 7.678659e+00 4.091913e+00 -2.479223e+00 -7.061716e+00 -9.091695e+00 3.109371e+00 -2.274601e+00 -5.599957e+00 4.262967e+00 -5.781073e+00 -4.119907e+00 1.009956e+00 -2.935226e-02 8.605345e-02 2.681731e-01 2.775509e-01 -5.607151e-01 4.693850e-01 -8.021638e-03 3.066013e-01 2.746732e-01 -5.466796e-01 1.542155e-01 -1.915210e-01 2.211340e-01 -4.923825e-02 2.806466e-02 9.334770e-03 1.019185e-02 1.220772e-01 2.716283e-02 -6.144218e-02 -9.858006e-02 -7.992053e-02 1.906701e-02 1.978176e-02 6.933627e-02 2.475556e-02
<VARIANCE> 39
 5.705007e+01 8.795879e+01 2.759704e+01 4.008226e+01 4.785452e+01 7.565018e+01 3.260028e+01 2.182590e+01 2.603309e+01 3.455127e+01 2.709580e+01 3.193222e+01 1.232435e+01 5.679590e-01 7.087266e-01 6.122443e-01 7.899451e-01 1.679534e+00 2.401806e+00 2.184300e+00 9.077748e-01 2.468181e+00 3.580625e+00 1.691981e+00 1.754781e+00 1.361688e+00 1.000697e-01 7.123164e-02 8.833174e-02 1.544751e-01 2.796632e-01 3.998817e-01 4.031964e-01 1.344270e-01 4.119705e-01 6.681741e-01 3.254530e-01 3.128803e-01 2.517089e-01
<GCONST> 1.027657e+02
<MIXTURE> 2 5.000000e-01
<MEAN> 39
 3.960621e+00 7.678659e+00 4.091913e+00 -2.479223e+00 -7.061716e+00 -9.091695e+00 3.109371e+00 -2.274601e+00 -5.599957e+00 4.262967e+00 -5.781073e+00 -4.119907e+00 1.009956e+00 -2.935226e-02 8.605345e-02 2.681731e-01 2.775509e-01 -5.607151e-01 4.693850e-01 -8.021638e-03 3.066013e-01 2.746732e-01 -5.466796e-01 1.542155e-01 -1.915210e-01 2.211340e-01 -4.923825e-02 2.806466e-02 9.334770e-03 1.019185e-02 1.220772e-01 2.716283e-02 -6.144218e-02 -9.858006e-02 -7.992053e-02 1.906701e-02 1.978176e-02 6.933627e-02 2.475556e-02
<VARIANCE> 39
 5.705007e+01 8.795879e+01 2.759704e+01 4.008226e+01 4.785452e+01 7.565018e+01 3.260028e+01 2.182590e+01 2.603309e+01 3.455127e+01 2.709580e+01 3.193222e+01 1.232435e+01 5.679590e-01 7.087266e-01 6.122443e-01 7.899451e-01 1.679534e+00 2.401806e+00 2.184300e+00 9.077748e-01 2.468181e+00 3.580625e+00 1.691981e+00 1.754781e+00 1.361688e+00 1.000697e-01 7.123164e-02 8.833174e-02 1.544751e-01 2.796632e-01 3.998817e-01 4.031964e-01 1.344270e-01 4.119705e-01 6.681741e-01 3.254530e-01 3.128803e-01 2.517089e-01
<GCONST> 1.027657e+02
<STATE> 4
<NUMMIXES> 2
<MIXTURE> 1 5.000000e-01
<MEAN> 39
 -3.595561e-01 6.150177e+00 6.609717e+00 1.402908e+00 -9.022410e+00 -3.636288e+00 -1.785225e+00 -3.581323e+00 -8.099283e+00 2.051811e+00 -3.817283e+00 -2.064579e+00 2.855852e+00 -8.830490e-01 -6.613742e-01 -5.525078e-01 -1.793783e-01 1.392218e-01 3.916270e-01 -1.472839e-01 1.307313e-01 2.104830e-01 5.556104e-02 4.841435e-01 -9.649024e-02 -2.843789e-01 8.213644e-02 1.594463e-02 -8.507088e-02 -8.764590e-02 -7.945900e-02 -2.266920e-01 -5.494666e-02 1.996686e-01 7.564855e-02 1.146951e-01 -1.387096e-01 -7.483423e-02 -5.250825e-02
<VARIANCE> 39
 7.916359e+01 5.374714e+01 5.707381e+01 3.138523e+01 5.889302e+01 5.018917e+01 2.779282e+01 3.537905e+01 4.852598e+01 3.919270e+01 5.505325e+01 1.724623e+01 3.980437e+01 1.006095e+01 5.171995e+00 4.248762e+00 3.969987e+00 4.370195e+00 8.906743e+00 3.957860e+00 3.446802e+00 2.895397e+00 3.540576e+00 3.596253e+00 2.476796e+00 2.864470e+00 1.844642e+00 9.985225e-01 7.625263e-01 7.221827e-01 8.770976e-01 1.281108e+00 8.653662e-01 3.589858e-01 7.137815e-01 7.083997e-01 7.728090e-01 3.921898e-01 5.773156e-01
<GCONST> 1.356520e+02
<MIXTURE> 2 5.000000e-01
<MEAN> 39
 -3.595561e-01 6.150177e+00 6.609717e+00 1.402908e+00 -9.022410e+00 -3.636288e+00 -1.785225e+00 -3.581323e+00 -8.099283e+00 2.051811e+00 -3.817283e+00 -2.064579e+00 2.855852e+00 -8.830490e-01 -6.613742e-01 -5.525078e-01 -1.793783e-01 1.392218e-01 3.916270e-01 -1.472839e-01 1.307313e-01 2.104830e-01 5.556104e-02 4.841435e-01 -9.649024e-02 -2.843789e-01 8.213644e-02 1.594463e-02 -8.507088e-02 -8.764590e-02 -7.945900e-02 -2.266920e-01 -5.494666e-02 1.996686e-01 7.564855e-02 1.146951e-01 -1.387096e-01 -7.483423e-02 -5.250825e-02
<VARIANCE> 39
 7.916359e+01 5.374714e+01 5.707381e+01 3.138523e+01 5.889302e+01 5.018917e+01 2.779282e+01 3.537905e+01 4.852598e+01 3.919270e+01 5.505325e+01 1.724623e+01 3.980437e+01 1.006095e+01 5.171995e+00 4.248762e+00 3.969987e+00 4.370195e+00 8.906743e+00 3.957860e+00 3.446802e+00 2.895397e+00 3.540576e+00 3.596253e+00 2.476796e+00 2.864470e+00 1.844642e+00 9.985225e-01 7.625263e-01 7.221827e-01 8.770976e-01 1.281108e+00 8.653662e-01 3.589858e-01 7.137815e-01 7.083997e-01 7.728090e-01 3.921898e-01 5.773156e-01
<GCONST> 1.356520e+02
<TRANSP> 5
 0.000000e+00 1.000000e+00 0.000000e+00 0.000000e+00 0.000000e+00
 0.000000e+00 9.232876e-01 7.671245e-02 0.000000e+00 0.000000e+00
 0.000000e+00 0.000000e+00 9.272859e-01 7.271408e-02 0.000000e+00
 0.000000e+00 0.000000e+00 0.000000e+00 9.121131e-01 8.788695e-02
 0.000000e+00 0.000000e+00 0.000000e+00 0.000000e+00 0.000000e+00
<ENDHMM>
~h "g"
<BEGINHMM>
<NUMSTATES> 5
<STATE> 2
<NUMMIXES> 2
<MIXTURE> 1 5.000000e-01
<MEAN> 39
 4.482460e+00 -3.493224e+00 1.175818e+00 -2.348694e+00 -7.064903e+00 -5.583347e+00 6.643766e-01 3.670366e+00 -1.312602e+01 1.957305e+00 1.336556e+00 -4.859706e+00 1.459916e+00 9.682305e-01 1.071089e+00 1.121295e+00 2.396519e-01 -2.151458e-01 -1.069027e+00 -1.009407e+00 -4.647455e-01 2.577699e-01 6.857438e-01 1.662229e-01 1.456088e-01 1.843110e-01 -7.244283e-02 -1.928710e-02 -8.622766e-02 5.756329e-02 2.008370e-01 2.903853e-02 -3.426541e-04 -8.520386e-02 -7.923627e-03 -1.067795e-01 -1.199193e-02 3.380908e-02 2.193411e-02
<VARIANCE> 39
 1.423615e+01 2.059452e+01 2.179493e+01 1.432436e+01 1.570119e+01 4.549082e+01 3.248866e+01 4.230370e+01 1.654616e+01 2.277843e+01 1.265233e+01 1.849237e+01 1.413104e+01 3.260455e-01 1.100972e+00 7.934114e-01 1.908219e+00 1.866837e+00 1.368641e+00 2.181070e+00 3.060302e+00 1.805102e+00 2.124428e+00 9.003643e-01 1.684004e+00 1.242229e+00 5.839983e-02 2.462789e-01 1.744267e-01 4.722517e-01 3.281790e-01 3.339531e-01 3.840593e-01 5.706645e-01 3.882301e-01 2.709902e-01 1.756546e-01 3.442072e-01 2.435797e-01
<GCONST> 9.820110e+01
<MIXTURE> 2 5.000000e-01
<MEAN> 39
 4.482460e+00 -3.493224e+00 1.175818e+00 -2.348694e+00 -7.064903e+00 -5.583347e+00 6.643766e-01 3.670366e+00 -1.312602e+01 1.957305e+00 1.336556e+00 -4.859706e+00 1.459916e+00 9.682305e-01 1.071089e+00 1.121295e+00 2.396519e-01 -2.151458e-01 -1.069027e+00 -1.009407e+00 -4.647455e-01 2.577699e-01 6.857438e-01 1.662229e-01 1.456088e-01 1.843110e-01 -7.244283e-02 -1.928710e-02 -8.622766e-02 5.756329e-02 2.008370e-01 2.903853e-02 -3.426541e-04 -8.520386e-02 -7.923627e-03 -1.067795e-01 -1.199193e-02 3.380908e-02 2.193411e-02
<VARIANCE> 39
 1.423615e+01 2.059452e+01 2.179493e+01 1.432436e+01 1.570119e+01 4.549082e+01 3.248866e+01 4.230370e+01 1.654616e+01 2.277843e+01 1.265233e+01 1.849237e+01 1.413104e+01 3.260455e-01 1.100972e+00 7.934114e-01 1.908219e+00 1.866837e+00 1.368641e+00 2.181070e+00 3.060302e+00 1.805102e+00 2.124428e+00 9.003643e-01 1.684004e+00 1.242229e+00 5.839983e-02 2.462789e-01 1.744267e-01 4.722517e-01 3.281790e-01 3.339531e-01 3.840593e-01 5.706645e-01 3.882301e-01 2.709902e-01 1.756546e-01 3.442072e-01 2.435797e-01
<GCONST> 9.820110e+01
<STATE> 3
<NUMMIXES> 2
<MIXTURE> 1 5.000000e-01
<MEAN> 39
 3.256640e+00 1.801049e+00 3.179444e+00 -3.939833e+00 -6.730554e+00 -8.656883e+00 -1.903866e+00 1.915101e+00 -8.562645e+00 2.807479e+00 8.815016e-01 -5.373619e+00 4.134265e-01 -4.758691e-01 5.193022e-01 -4.237159e-01 -1.436754e-01 3.921422e-01 -4.180096e-01 -9.053920e-02 5.286274e-01 2.161366e-01 -3.175165e-01 3.534470e-01 -1.487152e-01 -2.429320e-01 -8.718961e-02 -4.571884e-02 -1.134723e-02 8.285667e-02 2.030069e-03 -2.646923e-02 1.524485e-02 -1.811913e-02 -1.169795e-02 -5.473977e-02 3.886121e-02 5.053527e-02 8.895081e-03
<VARIANCE> 39
 2.383272e+01 3.330043e+01 2.086339e+01 3.169835e+01 3.568375e+01 5.698640e+01 3.403943e+01 4.928986e+01 1.174362e+01 2.781125e+01 2.468746e+01 1.757989e+01 8.307766e+00 1.552614e+00 3.739051e+00 1.128344e+00 4.422486e+00 4.922112e+00 6.105020e+00 2.936744e+00 2.673969e+00 1.421884e+00 2.697678e+00 2.587425e+00 2.348977e+00 4.987226e-01 3.226691e-01 6.982939e-01 2.316994e-01 9.726139e-01 1.008873e+00 8.012808e-01 6.541582e-01 4.623785e-01 3.165703e-01 7.337269e-01 5.001066e-01 4.406636e-01 9.579736e-02
<GCONST> 1.154465e+02
<MIXTURE> 2 5.000000e-01
<MEAN> 39
 3.256640e+00 1.801049e+00 3.179444e+00 -3.939833e+00 -6.730554e+00 -8.656883e+00 -1.903866e+00 1.915101e+00 -8.562645e+00 2.807479e+00 8.815016e-01 -5.373619e+00 4.134265e-01 -4.758691e-01 5.193022e-01 -4.237159e-01 -1.436754e-01 3.921422e-01 -4.180096e-01 -9.053920e-02 5.286274e-01 2.161366e-01 -3.175165e-01 3.534470e-01 -1.487152e-01 -2.429320e-01 -8.718961e-02 -4.571884e-02 -1.134723e-02 8.285667e-02 2.030069e-03 -2.646923e-02 1.524485e-02 -1.811913e-02 -1.169795e-02 -5.473977e-02 3.886121e-02 5.053527e-02 8.895081e-03
<VARIANCE> 39
 2.383272e+01 3.330043e+01 2.086339e+01 3.169835e+01 3.568375e+01 5.698640e+01 3.403943e+01 4.928986e+01 1.174362e+01 2.781125e+01 2.468746e+01 1.757989e+01 8.307766e+00 1.552614e+00 3.739051e+00 1.128344e+00 4.422486e+00 4.922112e+00 6.105020e+00 2.936744e+00 2.673969e+00 1.421884e+00 2.697678e+00 2.587425e+00 2.348977e+00 4.987226e-01 3.226691e-01 6.982939e-01 2.316994e-01 9.726139e-01 1.008873e+00 8.012808e-01 6.541582e-01 4.623785e-01 3.165703e-01 7.337269e-01 5.001066e-01 4.406636e-01 9.579736e-02
<GCONST> 1.154465e+02
<STATE> 4
<NUMMIXES> 2
<MIXTURE> 1 5.000000e-01
<MEAN> 39
 -1.456568e+00 5.616741e+00 -2.728066e+00 -2.256664e+00 -4.679730e+00 -1.541881e+01 1.991948e+00 3.604016e+00 -6.590921e+00 1.368390e-01 2.314706e+00 -5.141743e+00 -2.191549e+00 -4.922324e-01 -1.018563e+00 1.613205e-01 1.534344e-02 -6.210876e-01 1.615509e+00 9.932113e-01 -9.408107e-01 2.972671e-01 -2.395183e-01 -8.608555e-01 6.231940e-02 2.696494e-01 3.672692e-02 -4.493366e-02 -3.230883e-02 -8.719084e-02 1.352208e-01 1.734193e-01 -2.950012e-02 3.399752e-03 -1.106299e-01 1.626475e-01 -1.488286e-01 2.514873e-02 3.449860e-02
<VARIANCE> 39
 9.367656e+00 4.252746e+01 9.231071e+01 1.653542e+01 5.101789e+01 1.398372e+02 9.484629e+01 4.578453e+01 3.331977e+01 2.695703e+01 2.924612e+01 1.566752e+01 1.367625e+01 1.250367e+00 2.698558e+00 2.491187e+00 2.092100e+00 4.744636e+00 7.727834e+00 2.219655e+00 1.422364e+00 4.413917e+00 4.058738e+00 2.257461e+00 1.122707e+00 1.609987e+00 1.759191e-01 5.036662e-01 3.571433e-01 3.136860e-01 9.418333e-01 1.117770e+00 6.407952e-01 3.358057e-01 7.847127e-01 8.383526e-01 6.026680e-01 2.290417e-01 2.524530e-01
<GCONST> 1.198250e+02
<MIXTURE> 2 5.000000e-01
<MEAN> 39
 -1.456568e+00 5.616741e+00 -2.728066e+00 -2.256664e+00 -4.679730e+00 -1.541881e+01 1.991948e+00 3.604016e+00 -6.590921e+00 1.368390e-01 2.314706e+00 -5.141743e+00 -2.191549e+00 -4.922324e-01 -1.018563e+00 1.613205e-01 1.534344e-02 -6.210876e-01 1.615509e+00 9.932113e-01 -9.408107e-01 2.972671e-01 -2.395183e-01 -8.608555e-01 6.231940e-02 2.696494e-01 3.672692e-02 -4.493366e-02 -3.230883e-02 -8.719084e-02 1.352208e-01 1.734193e-01 -2.950012e-02 3.399752e-03 -1.106299e-01 1.626475e-01 -1.488286e-01 2.514873e-02 3.449860e-02
<VARIANCE> 39
 9.367656e+00 4.252746e+01 9.231071e+01 1.653542e+01 5.101789e+01 1.398372e+02 9.484629e+01 4.578453e+01 3.331977e+01 2.695703e+01 2.924612e+01 1.566752e+01 1.367625e+01 1.250367e+00 2.698558e+00 2.491187e+00 2.092100e+00 4.744636e+00 7.727834e+00 2.219655e+00 1.422364e+00 4.413917e+00 4.058738e+00 2.257461e+00 1.122707e+00 1.609987e+00 1.759191e-01 5.036662e-01 3.571433e-01 3.136860e-01 9.418333e-01 1.117770e+00 6.407952e-01 3.358057e-01 7.847127e-01 8.383526e-01 6.026680e-01 2.290417e-01 2.524530e-01
<GCONST> 1.198250e+02
<TRANSP> 5
 0.000000e+00 1.000000e+00 0.000000e+00 0.000000e+00 0.000000e+00
 0.000000e+00 8.675445e-01 1.324555e-01 0.000000e+00 0.000000e+00
 0.000000e+00 0.000000e+00 9.141866e-01 8.581339e-02 0.000000e+00
 0.000000e+00 0.000000e+00 0.000000e+00 8.751462e-01 1.248538e-01
 0.000000e+00 0.000000e+00 0.000000e+00 0.000000e+00 0.000000e+00
<ENDHMM>
~h "h"
<BEGINHMM>
<NUMSTATES> 5
<STATE> 2
<NUMMIXES> 2
<MIXTURE> 1 5.000000e-01
<MEAN> 39
 -3.832363e+00 -4.998505e+00 -4.705953e+00 3.814837e+00 2.827799e+00 -2.615093e+00 4.900999e+00 2.576347e+00 -1.170725e+00 7.062597e-01 -2.792099e+00 -1.488519e-01 2.254905e+00 -1.120136e-03 1.335279e-01 -9.811783e-01 6.347935e-01 1.205501e+00 -3.977459e-01 -8.909332e-01 2.273331e-01 9.115105e-01 -9.219881e-01 -3.531776e-01 2.844518e-01 1.042587e-01 -4.559712e-02 1.141637e-01 -3.598370e-02 -1.160305e-01 -1.200032e-01 2.521917e-02 -1.880219e-01 -2.700038e-01 9.445679e-02 7.248396e-03 -2.295552e-02 -1.434162e-01 -1.237448e-01
<VARIANCE> 39
 3.486111e+01 2.554404e+01 3.571945e+01 8.808267e+01 4.506124e+01 6.170473e+01 3.879258e+01 3.821449e+01 3.992317e+01 3.361847e+01 2.281825e+01 2.233775e+01 1.885081e+01 3.250890e-01 7.903713e-01 1.940858e+00 1.655305e+00 2.288967e+00 2.261783e+00 2.850499e+00 3.218003e+00 4.303864e+00 3.167708e+00 2.913388e+00 2.349148e+00 3.371727e+00 5.436819e-02 1.066108e-01 2.300398e-01 3.004076e-01 3.805226e-01 5.200874e-01 6.528124e-01 6.591383e-01 8.202720e-01 6.184707e-01 5.051130e-01 4.548287e-01 7.001711e-01
<GCONST> 1.147554e+02
<MIXTURE> 2 5.000000e-01
<MEAN> 39
 -3.832363e+00 -4.998505e+00 -4.705953e+00 3.814837e+00 2.827799e+00 -2.615093e+00 4.900999e+00 2.576347e+00 -1.170725e+00 7.062597e-01 -2.792099e+00 -1.488519e-01 2.254905e+00 -1.120136e-03 1.335279e-01 -9.811783e-01 6.347935e-01 1.205501e+00 -3.977459e-01 -8.909332e-01 2.273331e-01 9.115105e-01 -9.219881e-01 -3.531776e-01 2.844518e-01 1.042587e-01 -4.559712e-02 1.141637e-01 -3.598370e-02 -1.160305e-01 -1.200032e-01 2.521917e-02 -1.880219e-01 -2.700038e-01 9.445679e-02 7.248396e-03 -2.295552e-02 -1.434162e-01 -1.237448e-01
<VARIANCE> 39
 3.486111e+01 2.554404e+01 3.571945e+01 8.808267e+01 4.506124e+01 6.170473e+01 3.879258e+01 3.821449e+01 3.992317e+01 3.361847e+01 2.281825e+01 2.233775e+01 1.885081e+01 3.250890e-01 7.903713e-01 1.940858e+00 1.655305e+00 2.288967e+00 2.261783e+00 2.850499e+00 3.218003e+00 4.303864e+00 3.167708e+00 2.913388e+00 2.349148e+00 3.371727e+00 5.436819e-02 1.066108e-01 2.300398e-01 3.004076e-01 3.805226e-01 5.200874e-01 6.528124e-01 6.591383e-01 8.202720e-01 6.184707e-01 5.051130e-01 4.548287e-01 7.001711e-01
<GCONST> 1.147554e+02
<STATE> 3
<NUMMIXES> 2
<MIXTURE> 1 5.000000e-01
<MEAN> 39
 -6.831155e+00 -6.184637e+00 -1.344003e+01 4.924618e+00 5.210279e+00 -1.726869e+00 -1.647160e+00 -2.187262e+00 3.688384e+00 -2.859659e+00 -4.248155e+00 -2.931653e+00 1.565406e+00 -7.309700e-02 2.779618e-01 -3.171309e-01 3.607761e-02 -5.049619e-02 1.302379e-01 -4.409854e-01 -6.584843e-01 1.153675e-01 9.060089e-02 2.272197e-01 -4.733321e-01 -2.495871e-01 7.147368e-02 1.804825e-02 1.712969e-01 3.998451e-02 -8.913299e-02 6.955248e-02 1.174778e-01 1.923528e-01 3.971485e-02 -1.128496e-03 5.957374e-02 1.044714e-01 3.962051e-02
<VARIANCE> 39
 2.170144e+01 3.090592e+01 8.328167e+01 7.611761e+01 3.807016e+01 3.461213e+01 2.753222e+01 3.255766e+01 2.808678e+01 3.142235e+01 2.158570e+01 2.017262e+01 9.194900e+00 3.766217e-01 5.810465e-01 2.087381e+00 1.803613e+00 1.846747e+00 2.990952e+00 2.962970e+00 3.495143e+00 3.239812e+00 3.638009e+00 3.275877e+00 2.417901e+00 1.694738e+00 9.383249e-02 1.035132e-01 3.139250e-01 3.622157e-01 3.982003e-01 5.477008e-01 6.191658e-01 6.374148e-01 7.146999e-01 7.179591e-01 6.692985e-01 4.998534e-01 2.903162e-01
<GCONST> 1.126567e+02
<MIXTURE> 2 5.000000e-01
<MEAN> 39
 -6.831155e+00 -6.184637e+00 -1.344003e+01 4.924618e+00 5.210279e+00 -1.726869e+00 -1.647160e+00 -2.187262e+00 3.688384e+00 -2.859659e+00 -4.248155e+00 -2.931653e+00 1.565406e+00 -7.309700e-02 2.779618e-01 -3.171309e-01 3.607761e-02 -5.049619e-02 1.302379e-01 -4.409854e-01 -6.584843e-01 1.153675e-01 9.060089e-02 2.272197e-01 -4.733321e-01 -2.495871e-01 7.147368e-02 1.804825e-02 1.712969e-01 3.998451e-02 -8.913299e-02 6.955248e-02 1.174778e-01 1.923528e-01 3.971485e-02 -1.128496e-03 5.957374e-02 1.044714e-01 3.962051e-02
<VARIANCE> 39
 2.170144e+01 3.090592e+01 8.328167e+01 7.611761e+01 3.807016e+01 3.461213e+01 2.753222e+01 3.255766e+01 2.808678e+01 3.142235e+01 2.158570e+01 2.017262e+01 9.194900e+00 3.766217e-01 5.810465e-01 2.087381e+00 1.803613e+00 1.846747e+00 2.990952e+00 2.962970e+00 3.495143e+00 3.239812e+00 3.638009e+00 3.275877e+00 2.417901e+00 1.694738e+00 9.383249e-02 1.035132e-01 3.139250e-01 3.622157e-01 3.982003e-01 5.477008e-01 6.191658e-01 6.374148e-01 7.146999e-01 7.179591e-01 6.692985e-01 4.998534e-01 2.903162e-01
<GCONST> 1.126567e+02
<STATE> 4
<NUMMIXES> 2
<MIXTURE> 1 5.000000e-01
<MEAN> 39
 -5.587283e+00 3.374305e+00 -3.709856e+00 -1.582649e+00 6.516102e+00 -3.036035e-01 -3.662256e+00 -4.157204e-01 1.453168e+00 -5.804928e-01 -2.491375e+00 -3.103892e+00 1.404803e-01 7.367781e-01 7.259031e-01 -2.233725e-01 -4.463655e-01 -4.016230e-01 -4.181482e-01 -2.038461e-02 4.599349e-01 2.561474e-01 3.519689e-02 3.064292e-04 -1.657954e-01 -1.995573e-01 1.088918e-01 -1.613721e-02 -5.123922e-02 -1.531907e-01 -5.553058e-02 -5.700503e-02 2.411896e-02 -4.521832e-02 -3.321990e-02 1.056345e-01 -7.948370e-02 3.374481e-03 -2.404408e-03
<VARIANCE> 39
 2.446095e+01 6.827016e+01 9.830743e+01 1.559532e+02 3.488620e+01 4.078660e+01 3.919587e+01 3.567582e+01 3.651157e+01 2.581371e+01 1.684036e+01 2.334267e+01 9.813584e+00 1.737180e+00 1.364569e+00 1.687552e+00 2.539963e+00 2.136111e+00 2.466645e+00 4.944894e+00 3.067037e+00 3.702338e+00 2.188443e+00 2.206487e+00 2.785436e+00 1.035952e+00 1.999997e-01 2.326252e-01 3.629396e-01 4.534567e-01 4.472767e-01 5.601812e-01 8.849261e-01 6.768220e-01 8.001790e-01 5.955248e-01 4.738482e-01 6.585946e-01 2.322804e-01
<GCONST> 1.188536e+02
<MIXTURE> 2 5.000000e-01
<MEAN> 39
 -5.587283e+00 3.374305e+00 -3.709856e+00 -1.582649e+00 6.516102e+00 -3.036035e-01 -3.662256e+00 -4.157204e-01 1.453168e+00 -5.804928e-01 -2.491375e+00 -3.103892e+00 1.404803e-01 7.367781e-01 7.259031e-01 -2.233725e-01 -4.463655e-01 -4.016230e-01 -4.181482e-01 -2.038461e-02 4.599349e-01 2.561474e-01 3.519689e-02 3.064292e-04 -1.657954e-01 -1.995573e-01 1.088918e-01 -1.613721e-02 -5.123922e-02 -1.531907e-01 -5.553058e-02 -5.700503e-02 2.411896e-02 -4.521832e-02 -3.321990e-02 1.056345e-01 -7.948370e-02 3.374481e-03 -2.404408e-03
<VARIANCE> 39
 2.446095e+01 6.827016e+01 9.830743e+01 1.559532e+02 3.488620e+01 4.078660e+01 3.919587e+01 3.567582e+01 3.651157e+01 2.581371e+01 1.684036e+01 2.334267e+01 9.813584e+00 1.737180e+00 1.364569e+00 1.687552e+00 2.539963e+00 2.136111e+00 2.466645e+00 4.944894e+00 3.067037e+00 3.702338e+00 2.188443e+00 2.206487e+00 2.785436e+00 1.035952e+00 1.999997e-01 2.326252e-01 3.629396e-01 4.534567e-01 4.472767e-01 5.601812e-01 8.849261e-01 6.768220e-01 8.001790e-01 5.955248e-01 4.738482e-01 6.585946e-01 2.322804e-01
<GCONST> 1.188536e+02
<TRANSP> 5
 0.000000e+00 1.000000e+00 0.000000e+00 0.000000e+00 0.000000e+00
 0.000000e+00 7.600020e-01 2.399981e-01 0.000000e+00 0.000000e+00
 0.000000e+00 0.000000e+00 7.624710e-01 2.375290e-01 0.000000e+00
 0.000000e+00 0.000000e+00 0.000000e+00 8.201178e-01 1.798822e-01
 0.000000e+00 0.000000e+00 0.000000e+00 0.000000e+00 0.000000e+00
<ENDHMM>
~h "i"
<BEGINHMM>
<NUMSTATES> 7
<STATE> 2
<NUMMIXES> 2
<MIXTURE> 1 5.000000e-01
<MEAN> 39
 -3.602812e+00 5.212686e+00 6.603548e+00 -1.053692e+01 -4.919009e+00 -3.284623e+00 -8.230084e+00 -4.522768e+00 -4.738447e+00 1.153363e+00 -7.543055e+00 1.420510e-02 1.861882e+00 -2.421875e-01 3.864738e-01 1.407175e-01 -1.071041e+00 -7.835038e-01 8.362212e-01 -1.201522e+00 5.297692e-01 6.234802e-01 2.693030e-01 -9.852052e-02 4.974906e-01 3.090553e-01 -1.439461e-01 -1.161033e-01 -1.880395e-01 5.083155e-02 4.612503e-01 1.014445e-01 1.516364e-01 4.699994e-02 1.573974e-01 -3.634273e-01 -1.737833e-01 1.982237e-01 -1.494226e-01
<VARIANCE> 39
 1.783865e+01 3.409563e+01 1.778641e+01 3.747888e+01 2.783882e+01 4.583414e+01 4.477284e+01 2.264316e+01 3.125377e+01 2.483933e+01 3.574477e+01 1.271433e+01 2.820685e+01 1.145467e+00 9.859076e-01 1.122074e+00 4.051670e+00 1.721684e+00 6.549793e+00 3.174642e+00 2.419736e+00 2.325235e+00 4.992344e+00 3.769331e+00 1.472120e+00 1.704714e+00 2.157169e-01 1.789901e-01 1.876931e-01 6.840499e-01 1.999372e-01 7.950081e-01 3.554891e-01 2.512753e-01 3.884776e-01 6.010014e-01 4.908963e-01 2.500031e-01 2.873449e-01
<GCONST> 1.112113e+02
<MIXTURE> 2 5.000000e-01
<MEAN> 39
 -3.602812e+00 5.212686e+00 6.603548e+00 -1.053692e+01 -4.919009e+00 -3.284623e+00 -8.230084e+00 -4.522768e+00 -4.738447e+00 1.153363e+00 -7.543055e+00 1.420510e-02 1.861882e+00 -2.421875e-01 3.864738e-01 1.407175e-01 -1.071041e+00 -7.835038e-01 8.362212e-01 -1.201522e+00 5.297692e-01 6.234802e-01 2.693030e-01 -9.852052e-02 4.974906e-01 3.090553e-01 -1.439461e-01 -1.161033e-01 -1.880395e-01 5.083155e-02 4.612503e-01 1.014445e-01 1.516364e-01 4.699994e-02 1.573974e-01 -3.634273e-01 -1.737833e-01 1.982237e-01 -1.494226e-01
<VARIANCE> 39
 1.783865e+01 3.409563e+01 1.778641e+01 3.747888e+01 2.783882e+01 4.583414e+01 4.477284e+01 2.264316e+01 3.125377e+01 2.483933e+01 3.574477e+01 1.271433e+01 2.820685e+01 1.145467e+00 9.859076e-01 1.122074e+00 4.051670e+00 1.721684e+00 6.549793e+00 3.174642e+00 2.419736e+00 2.325235e+00 4.992344e+00 3.769331e+00 1.472120e+00 1.704714e+00 2.157169e-01 1.789901e-01 1.876931e-01 6.840499e-01 1.999372e-01 7.950081e-01 3.554891e-01 2.512753e-01 3.884776e-01 6.010014e-01 4.908963e-01 2.500031e-01 2.873449e-01
<GCONST> 1.112113e+02
<STATE> 3
<NUMMIXES> 2
<MIXTURE> 1 5.000000e-01
<MEAN> 39
 -5.609466e+00 1.628549e+00 2.189212e+00 -1.134596e+01 -8.145351e+00 2.006227e+00 -1.985010e-01 -3.847809e+00 -1.812758e+00 -1.103119e+00 -1.166308e+01 -1.450744e+00 3.495376e+00 -7.338758e-02 3.345191e-01 2.023134e-01 -5.129395e-01 1.537485e-01 -1.156921e-03 -5.761098e-01 2.759882e-01 7.512304e-01 -3.870601e-01 1.181539e-01 1.785518e-01 -3.595747e-01 4.662208e-02 1.583358e-02 -3.441212e-02 1.248334e-01 5.606468e-02 -1.587185e-01 1.870673e-02 6.662149e-02 -1.061722e-01 6.805096e-02 9.089443e-02 -8.211263e-02 -6.240041e-02
<VARIANCE> 39
 1.117987e+01 2.758540e+01 1.765245e+01 3.281409e+01 2.419934e+01 3.841359e+01 9.392245e+01 1.179313e+01 1.849422e+01 2.720778e+01 3.862984e+01 1.927160e+01 1.436219e+01 2.965760e-01 3.796221e-01 3.732552e-01 1.258224e+00 5.614913e-01 1.455460e+00 1.405880e+00 1.283344e+00 1.107984e+00 1.185001e+00 1.102189e+00 1.325293e+00 1.154416e+00 4.056275e-02 5.604229e-02 7.540080e-02 1.837519e-01 9.766845e-02 2.316455e-01 1.913051e-01 2.290218e-01 1.786880e-01 2.761768e-01 2.270476e-01 1.954309e-01 1.029664e-01
<GCONST> 8.567702e+01
<MIXTURE> 2 5.000000e-01
<MEAN> 39
 -5.609466e+00 1.628549e+00 2.189212e+00 -1.134596e+01 -8.145351e+00 2.006227e+00 -1.985010e-01 -3.847809e+00 -1.812758e+00 -1.103119e+00 -1.166308e+01 -1.450744e+00 3.495376e+00 -7.338758e-02 3.345191e-01 2.023134e-01 -5.129395e-01 1.537485e-01 -1.156921e-03 -5.761098e-01 2.759882e-01 7.512304e-01 -3.870601e-01 1.181539e-01 1.785518e-01 -3.595747e-01 4.662208e-02 1.583358e-02 -3.441212e-02 1.248334e-01 5.606468e-02 -1.587185e-01 1.870673e-02 6.662149e-02 -1.061722e-01 6.805096e-02 9.089443e-02 -8.211263e-02 -6.240041e-02
<VARIANCE> 39
 1.117987e+01 2.758540e+01 1.765245e+01 3.281409e+01 2.419934e+01 3.841359e+01 9.392245e+01 1.179313e+01 1.849422e+01 2.720778e+01 3.862984e+01 1.927160e+01 1.436219e+01 2.965760e-01 3.796221e-01 3.732552e-01 1.258224e+00 5.614913e-01 1.455460e+00 1.405880e+00 1.283344e+00 1.107984e+00 1.185001e+00 1.102189e+00 1.325293e+00 1.154416e+00 4.056275e-02 5.604229e-02 7.540080e-02 1.837519e-01 9.766845e-02 2.316455e-01 1.913051e-01 2.290218e-01 1.786880e-01 2.761768e-01 2.270476e-01 1.954309e-01 1.029664e-01
<GCONST> 8.567702e+01
<STATE> 4
<NUMMIXES> 2
<MIXTURE> 1 5.000000e-01
<MEAN> 39
 -6.290114e+00 8.571908e+00 6.627041e+00 -1.710845e+01 -5.649673e+00 -2.924273e+00 -1.322146e+01 9.146618e-01 4.814389e-01 -1.853771e+00 -4.291190e+00 -7.594578e-01 -6.672699e-01 1.069456e-01 1.714193e-01 1.968464e-01 -1.070562e-01 9.856693e-02 -2.567550e-01 -3.025936e-01 8.694696e-02 2.544602e-03 1.651459e-01 2.436481e-01 -1.393121e-01 -1.330607e-02 4.600940e-02 -3.425943e-02 3.080759e-02 7.309564e-02 1.968070e-03 2.075144e-02 6.591883e-02 -7.545059e-02 -4.007534e-02 3.297501e-02 -1.310152e-02 -1.347602e-02 3.856894e-02
<VARIANCE> 39
 4.865783e+00 2.302330e+01 1.845824e+01 2.630749e+01 3.512809e+01 2.485221e+01 4.548252e+01 1.487921e+01 1.237702e+01 2.898732e+01 3.580738e+01 1.105197e+01 8.145161e+00 1.322144e-01 2.480490e-01 2.880037e-01 2.320124e-01 3.965721e-01 5.976872e-01 5.517980e-01 7.445407e-01 5.134749e-01 5.448472e-01 4.063697e-01 3.185737e-01 4.390198e-01 1.370449e-02 2.087011e-02 3.436118e-02 4.857277e-02 5.968189e-02 6.385357e-02 6.691538e-02 1.001023e-01 9.113362e-02 9.225558e-02 4.848163e-02 5.559178e-02 5.542404e-02
<GCONST> 5.851926e+01
<MIXTURE> 2 5.000000e-01
<MEAN> 39
 -6.290114e+00 8.571908e+00 6.627041e+00 -1.710845e+01 -5.649673e+00 -2.924273e+00 -1.322146e+01 9.146618e-01 4.814389e-01 -1.853771e+00 -4.291190e+00 -7.594578e-01 -6.672699e-01 1.069456e-01 1.714193e-01 1.968464e-01 -1.070562e-01 9.856693e-02 -2.567550e-01 -3.025936e-01 8.694696e-02 2.544602e-03 1.651459e-01 2.436481e-01 -1.393121e-01 -1.330607e-02 4.600940e-02 -3.425943e-02 3.080759e-02 7.309564e-02 1.968070e-03 2.075144e-02 6.591883e-02 -7.545059e-02 -4.007534e-02 3.297501e-02 -1.310152e-02 -1.347602e-02 3.856894e-02
<VARIANCE> 39
 4.865783e+00 2.302330e+01 1.845824e+01 2.630749e+01 3.512809e+01 2.485221e+01 4.548252e+01 1.487921e+01 1.237702e+01 2.898732e+01 3.580738e+01 1.105197e+01 8.145161e+00 1.322144e-01 2.480490e-01 2.880037e-01 2.320124e-01 3.965721e-01 5.976872e-01 5.517980e-01 7.445407e-01 5.134749e-01 5.448472e-01 4.063697e-01 3.185737e-01 4.390198e-01 1.370449e-02 2.087011e-02 3.436118e-02 4.857277e-02 5.968189e-02 6.385357e-02 6.691538e-02 1.001023e-01 9.113362e-02 9.225558e-02 4.848163e-02 5.559178e-02 5.542404e-02
<GCONST> 5.851926e+01
<STATE> 5
<NUMMIXES> 2
<MIXTURE> 1 5.000000e-01
<MEAN> 39
 -1.900139e+00 8.778662e+00 9.000589e+00 -1.555143e+01 -2.050665e-01 -6.583328e+00 -1.331948e+01 -2.759201e+00 8.502973e-01 2.720895e-01 -2.636408e+00 1.208013e+00 -1.428033e+00 4.389136e-01 3.339712e-02 2.019742e-01 5.360990e-01 1.403641e-01 1.404831e-01 1.408661e-01 -1.480466e-01 1.869243e-02 3.150713e-01 1.398745e-01 -9.238005e-02 -3.321179e-02 5.876686e-03 7.796458e-03 -6.533398e-02 1.699589e-01 -1.554086e-03 5.135044e-02 9.026220e-02 4.573151e-02 -5.401346e-02 2.123388e-03 -1.374766e-02 -1.172774e-01 4.167484e-02
<VARIANCE> 39
 2.185812e+01 1.061599e+01 5.954865e+01 5.134368e+01 6.498579e+01 6.849380e+01 3.470127e+01 1.902383e+01 1.825207e+01 2.759097e+01 3.799760e+01 3.276249e+01 1.398711e+01 3.148967e-01 3.750300e-01 7.796986e-01 1.180262e+00 9.007235e-01 9.555607e-01 1.519246e+00 9.874321e-01 1.771575e+00 1.083198e+00 5.079284e-01 6.755013e-01 6.461495e-01 5.805961e-02 5.980702e-02 9.732486e-02 1.795940e-01 1.434995e-01 2.429656e-01 1.412750e-01 1.930055e-01 3.286040e-01 1.564969e-01 1.047363e-01 1.224997e-01 1.238160e-01
<GCONST> 8.713055e+01
<MIXTURE> 2 5.000000e-01
<MEAN> 39
 -1.900139e+00 8.778662e+00 9.000589e+00 -1.555143e+01 -2.050665e-01 -6.583328e+00 -1.331948e+01 -2.759201e+00 8.502973e-01 2.720895e-01 -2.636408e+00 1.208013e+00 -1.428033e+00 4.389136e-01 3.339712e-02 2.019742e-01 5.360990e-01 1.403641e-01 1.404831e-01 1.408661e-01 -1.480466e-01 1.869243e-02 3.150713e-01 1.398745e-01 -9.238005e-02 -3.321179e-02 5.876686e-03 7.796458e-03 -6.533398e-02 1.699589e-01 -1.554086e-03 5.135044e-02 9.026220e-02 4.573151e-02 -5.401346e-02 2.123388e-03 -1.374766e-02 -1.172774e-01 4.167484e-02
<VARIANCE> 39
 2.185812e+01 1.061599e+01 5.954865e+01 5.134368e+01 6.498579e+01 6.849380e+01 3.470127e+01 1.902383e+01 1.825207e+01 2.759097e+01 3.799760e+01 3.276249e+01 1.398711e+01 3.148967e-01 3.750300e-01 7.796986e-01 1.180262e+00 9.007235e-01 9.555607e-01 1.519246e+00 9.874321e-01 1.771575e+00 1.083198e+00 5.079284e-01 6.755013e-01 6.461495e-01 5.805961e-02 5.980702e-02 9.732486e-02 1.795940e-01 1.434995e-01 2.429656e-01 1.412750e-01 1.930055e-01 3.286040e-01 1.564969e-01 1.047363e-01 1.224997e-01 1.238160e-01
<GCONST> 8.713055e+01
<STATE> 6
<NUMMIXES> 2
<MIXTURE> 1 5.000000e-01
<MEAN> 39
 -2.177153e+00 9.405335e+00 1.076882e+01 -9.499582e+00 1.329543e+00 -2.659198e+00 -1.177847e+01 -3.657139e-01 -1.299368e-01 9.947447e-01 -2.869426e+00 1.100767e-03 8.920921e-02 -4.797315e-01 -7.884411e-02 -3.703426e-02 7.727070e-01 1.777809e-01 7.567479e-01 5.954183e-01 3.004129e-01 -6.706427e-01 2.752513e-02 8.489879e-02 -3.493020e-01 2.164763e-01 -8.014928e-02 -1.603011e-02 -6.225080e-02 -6.728622e-02 4.490381e-02 -8.681205e-02 9.183066e-02 4.921873e-02 -3.878928e-02 -1.318594e-01 2.543558e-02 8.936521e-02 -3.122018e-03
<VARIANCE> 39
 2.187495e+01 2.837134e+01 4.996355e+01 6.595856e+01 6.996260e+01 4.258975e+01 2.740221e+01 2.941056e+01 2.937048e+01 3.454463e+01 3.085830e+01 2.449724e+01 1.620096e+01 2.073901e+00 1.331326e+00 1.865959e+00 3.388589e+00 2.375337e+00 2.862650e+00 1.419272e+00 2.906401e+00 2.724968e+00 2.592984e+00 1.765785e+00 2.065281e+00 1.882434e+00 2.009902e-01 2.219476e-01 3.675863e-01 3.861066e-01 5.136672e-01 5.099720e-01 2.373677e-01 5.802486e-01 5.363560e-01 5.144622e-01 2.762634e-01 4.319320e-01 3.559049e-01
<GCONST> 1.144797e+02
<MIXTURE> 2 5.000000e-01
<MEAN> 39
 -2.177153e+00 9.405335e+00 1.076882e+01 -9.499582e+00 1.329543e+00 -2.659198e+00 -1.177847e+01 -3.657139e-01 -1.299368e-01 9.947447e-01 -2.869426e+00 1.100767e-03 8.920921e-02 -4.797315e-01 -7.884411e-02 -3.703426e-02 7.727070e-01 1.777809e-01 7.567479e-01 5.954183e-01 3.004129e-01 -6.706427e-01 2.752513e-02 8.489879e-02 -3.493020e-01 2.164763e-01 -8.014928e-02 -1.603011e-02 -6.225080e-02 -6.728622e-02 4.490381e-02 -8.681205e-02 9.183066e-02 4.921873e-02 -3.878928e-02 -1.318594e-01 2.543558e-02 8.936521e-02 -3.122018e-03
<VARIANCE> 39
 2.187495e+01 2.837134e+01 4.996355e+01 6.595856e+01 6.996260e+01 4.258975e+01 2.740221e+01 2.941056e+01 2.937048e+01 3.454463e+01 3.085830e+01 2.449724e+01 1.620096e+01 2.073901e+00 1.331326e+00 1.865959e+00 3.388589e+00 2.375337e+00 2.862650e+00 1.419272e+00 2.906401e+00 2.724968e+00 2.592984e+00 1.765785e+00 2.065281e+00 1.882434e+00 2.009902e-01 2.219476e-01 3.675863e-01 3.861066e-01 5.136672e-01 5.099720e-01 2.373677e-01 5.802486e-01 5.363560e-01 5.144622e-01 2.762634e-01 4.319320e-01 3.559049e-01
<GCONST> 1.144797e+02
<TRANSP> 7
 0.000000e+00 1.000000e+00 0.000000e+00 0.000000e+00 0.000000e+00 0.000000e+00 0.000000e+00
 0.000000e+00 6.174192e-01 3.825808e-01 0.000000e+00 0.000000e+00 0.000000e+00 0.000000e+00
 0.000000e+00 0.000000e+00 7.429493e-01 2.570507e-01 0.000000e+00 0.000000e+00 0.000000e+00
 0.000000e+00 0.000000e+00 0.000000e+00 9.079286e-01 9.207135e-02 0.000000e+00 0.000000e+00
 0.000000e+00 0.000000e+00 0.000000e+00 0.000000e+00 7.335390e-01 2.664610e-01 0.000000e+00
 0.000000e+00 0.000000e+00 0.000000e+00 0.000000e+00 0.000000e+00 8.289942e-01 1.710058e-01
 0.000000e+00 0.000000e+00 0.000000e+00 0.000000e+00 0.000000e+00 0.000000e+00 0.000000e+00
<ENDHMM>
~h "j"
<BEGINHMM>
<NUMSTATES> 5
<STATE> 2
<NUMMIXES> 2
<MIXTURE> 1 5.000000e-01
<MEAN> 39
 -2.001574e+00 2.956217e+00 1.211954e+00 -3.688956e+00 -3.463016e+00 -4.201154e+00 1.083904e+01 -8.883737e+00 -9.419644e+00 3.608991e+00 -5.635797e+00 -3.029572e+00 4.038993e-01 -1.770558e-02 4.909093e-02 2.139459e-01 4.924452e-02 -1.437595e-02 1.462750e-01 -3.672462e-01 4.149645e-04 4.158837e-01 1.863924e-02 3.265824e-02 -4.697333e-02 6.461898e-02 -9.535563e-02 -3.434058e-02 2.389856e-02 5.944489e-02 6.041784e-02 2.961792e-02 -5.006421e-02 -2.137297e-03 8.746583e-02 -4.736717e-02 2.195866e-02 -2.670154e-02 1.542810e-02
<VARIANCE> 39
 4.140551e+01 8.234264e+01 9.003004e+01 2.206214e+01 3.880136e+01 9.380180e+01 1.594202e+02 2.557766e+01 6.013584e+01 8.142760e+01 3.173540e+01 3.542191e+01 1.347026e+01 2.804035e+00 1.988452e+00 2.235492e+00 1.851703e+00 2.345291e+00 5.389299e+00 7.438864e+00 2.267865e+00 4.060639e+00 6.016787e+00 3.469866e+00 1.408709e+00 2.155936e+00 3.297147e-01 3.395780e-01 3.812972e-01 2.663899e-01 5.025018e-01 1.061611e+00 1.675624e+00 5.299420e-01 8.101078e-01 9.805164e-01 6.599652e-01 2.688467e-01 5.021624e-01
<GCONST> 1.282202e+02
<MIXTURE> 2 5.000000e-01
<MEAN> 39
 -2.001574e+00 2.956217e+00 1.211954e+00 -3.688956e+00 -3.463016e+00 -4.201154e+00 1.083904e+01 -8.883737e+00 -9.419644e+00 3.608991e+00 -5.635797e+00 -3.029572e+00 4.038993e-01 -1.770558e-02 4.909093e-02 2.139459e-01 4.924452e-02 -1.437595e-02 1.462750e-01 -3.672462e-01 4.149645e-04 4.158837e-01 1.863924e-02 3.265824e-02 -4.697333e-02 6.461898e-02 -9.535563e-02 -3.434058e-02 2.389856e-02 5.944489e-02 6.041784e-02 2.961792e-02 -5.006421e-02 -2.137297e-03 8.746583e-02 -4.736717e-02 2.195866e-02 -2.670154e-02 1.542810e-02
<VARIANCE> 39
 4.140551e+01 8.234264e+01 9.003004e+01 2.206214e+01 3.880136e+01 9.380180e+01 1.594202e+02 2.557766e+01 6.013584e+01 8.142760e+01 3.173540e+01 3.542191e+01 1.347026e+01 2.804035e+00 1.988452e+00 2.235492e+00 1.851703e+00 2.345291e+00 5.389299e+00 7.438864e+00 2.267865e+00 4.060639e+00 6.016787e+00 3.469866e+00 1.408709e+00 2.155936e+00 3.297147e-01 3.395780e-01 3.812972e-01 2.663899e-01 5.025018e-01 1.061611e+00 1.675624e+00 5.299420e-01 8.101078e-01 9.805164e-01 6.599652e-01 2.688467e-01 5.021624e-01
<GCONST> 1.282202e+02
<STATE> 3
<NUMMIXES> 2
<MIXTURE> 1 5.000000e-01
<MEAN> 39
 -6.486030e+00 8.837862e+00 7.719443e+00 4.030066e+00 -2.866796e+00 -2.164368e+00 -1.664829e+00 -8.332586e+00 -1.841116e+00 3.815490e-01 -9.912043e-03 -1.481985e+00 2.188833e+00 -3.405856e-01 -5.520431e-01 -5.166298e-01 -4.593569e-02 -3.927424e-01 2.749716e-01 6.520168e-01 3.482061e-01 1.814964e-03 2.947261e-01 -1.696376e-01 -3.310383e-02 -7.887785e-02 1.544402e-01 -6.112641e-02 -1.158491e-01 -1.261725e-01 -4.899266e-02 -7.144509e-02 1.034526e-01 -1.361526e-02 -1.656984e-01 1.290389e-01 -1.318804e-01 -2.086843e-02 -1.213980e-01
<VARIANCE> 39
 2.974866e+01 4.775331e+01 2.885657e+01 2.272038e+01 2.803325e+01 2.579516e+01 3.825377e+01 2.297142e+01 1.913396e+01 3.437884e+01 2.615412e+01 1.810047e+01 1.009165e+01 2.160234e+00 1.595942e+00 1.649922e+00 1.263629e+00 2.612095e+00 2.781584e+00 2.358339e+00 2.718898e+00 3.164728e+00 2.852411e+00 4.340946e+00 2.164163e+00 1.834995e+00 2.740394e-01 3.368582e-01 2.804939e-01 1.993640e-01 3.583889e-01 5.826006e-01 4.808377e-01 4.664671e-01 6.269807e-01 5.357518e-01 8.216453e-01 3.846772e-01 4.274218e-01
<GCONST> 1.131851e+02
<MIXTURE> 2 5.000000e-01
<MEAN> 39
 -6.486030e+00 8.837862e+00 7.719443e+00 4.030066e+00 -2.866796e+00 -2.164368e+00 -1.664829e+00 -8.332586e+00 -1.841116e+00 3.815490e-01 -9.912043e-03 -1.481985e+00 2.188833e+00 -3.405856e-01 -5.520431e-01 -5.166298e-01 -4.593569e-02 -3.927424e-01 2.749716e-01 6.520168e-01 3.482061e-01 1.814964e-03 2.947261e-01 -1.696376e-01 -3.310383e-02 -7.887785e-02 1.544402e-01 -6.112641e-02 -1.158491e-01 -1.261725e-01 -4.899266e-02 -7.144509e-02 1.034526e-01 -1.361526e-02 -1.656984e-01 1.290389e-01 -1.318804e-01 -2.086843e-02 -1.213980e-01
<VARIANCE> 39
 2.974866e+01 4.775331e+01 2.885657e+01 2.272038e+01 2.803325e+01 2.579516e+01 3.825377e+01 2.297142e+01 1.913396e+01 3.437884e+01 2.615412e+01 1.810047e+01 1.009165e+01 2.160234e+00 1.595942e+00 1.649922e+00 1.263629e+00 2.612095e+00 2.781584e+00 2.358339e+00 2.718898e+00 3.164728e+00 2.852411e+00 4.340946e+00 2.164163e+00 1.834995e+00 2.740394e-01 3.368582e-01 2.804939e-01 1.993640e-01 3.583889e-01 5.826006e-01 4.808377e-01 4.664671e-01 6.269807e-01 5.357518e-01 8.216453e-01 3.846772e-01 4.274218e-01
<GCONST> 1.131851e+02
<STATE> 4
<NUMMIXES> 2
<MIXTURE> 1 5.000000e-01
<MEAN> 39
 -6.209881e+00 -8.168103e-01 2.123774e+00 -3.920226e-01 -1.534713e+00 6.966537e+00 -1.087508e+00 -7.011088e+00 2.003548e+00 -9.415697e-01 -4.142560e+00 5.871583e-01 2.113586e+00 7.740460e-02 3.745492e-02 -4.755922e-02 -1.147429e-01 -1.112768e-01 -2.047155e-01 3.216619e-02 7.537759e-02 -5.213497e-02 1.037188e-01 1.908553e-03 -7.380582e-02 -6.295704e-02 6.347551e-03 3.242875e-03 -1.232321e-02 -2.735105e-03 2.341518e-02 -4.913196e-02 -1.127190e-02 2.986566e-03 -3.449042e-02 -1.032127e-02 1.030219e-02 7.229484e-03 1.188599e-02
<VARIANCE> 39
 8.891583e+00 3.490771e+01 1.430480e+01 2.415909e+01 2.542193e+01 2.704932e+01 3.406787e+01 2.763730e+01 3.158492e+01 2.472849e+01 2.272988e+01 2.493161e+01 1.962980e+01 3.419446e-01 6.555002e-01 1.617109e+00 2.067963e+00 2.669370e+00 2.365644e+00 4.665742e+00 2.453665e+00 3.800979e+00 2.761409e+00 3.190931e+00 2.608342e+00 3.123781e+00 4.686772e-02 1.421763e-01 3.203020e-01 3.658806e-01 5.800169e-01 4.291302e-01 1.060070e+00 5.727342e-01 8.678323e-01 4.945819e-01 7.555063e-01 6.254566e-01 7.401134e-01
<GCONST> 1.112790e+02
<MIXTURE> 2 5.000000e-01
<MEAN> 39
 -6.209881e+00 -8.168103e-01 2.123774e+00 -3.920226e-01 -1.534713e+00 6.966537e+00 -1.087508e+00 -7.011088e+00 2.003548e+00 -9.415697e-01 -4.142560e+00 5.871583e-01 2.113586e+00 7.740460e-02 3.745492e-02 -4.755922e-02 -1.147429e-01 -1.112768e-01 -2.047155e-01 3.216619e-02 7.537759e-02 -5.213497e-02 1.037188e-01 1.908553e-03 -7.380582e-02 -6.295704e-02 6.347551e-03 3.242875e-03 -1.232321e-02 -2.735105e-03 2.341518e-02 -4.913196e-02 -1.127190e-02 2.986566e-03 -3.449042e-02 -1.032127e-02 1.030219e-02 7.229484e-03 1.188599e-02
<VARIANCE> 39
 8.891583e+00 3.490771e+01 1.430480e+01 2.415909e+01 2.542193e+01 2.704932e+01 3.406787e+01 2.763730e+01 3.158492e+01 2.472849e+01 2.272988e+01 2.493161e+01 1.962980e+01 3.419446e-01 6.555002e-01 1.617109e+00 2.067963e+00 2.669370e+00 2.365644e+00 4.665742e+00 2.453665e+00 3.800979e+00 2.761409e+00 3.190931e+00 2.608342e+00 3.123781e+00 4.686772e-02 1.421763e-01 3.203020e-01 3.658806e-01 5.800169e-01 4.291302e-01 1.060070e+00 5.727342e-01 8.678323e-01 4.945819e-01 7.555063e-01 6.254566e-01 7.401134e-01
<GCONST> 1.112790e+02
<TRANSP> 5
 0.000000e+00 1.000000e+00 0.000000e+00 0.000000e+00 0.000000e+00
 0.000000e+00 9.539034e-01 4.609659e-02 0.000000e+00 0.000000e+00
 0.000000e+00 0.000000e+00 9.267462e-01 7.325379e-02 0.000000e+00
 0.000000e+00 0.000000e+00 0.000000e+00 9.693273e-01 3.067272e-02
 0.000000e+00 0.000000e+00 0.000000e+00 0.000000e+00 0.000000e+00
<ENDHMM>
~h "k"
<BEGINHMM>
<NUMSTATES> 5
<STATE> 2
<NUMMIXES> 2
<MIXTURE> 1 5.000000e-01
<MEAN> 39
 -5.852676e+00 8.106483e-01 1.178245e+00 2.328494e+00 -1.158827e+00 -1.228418e-01 1.590424e-01 -2.564188e+00 -5.483381e+00 -2.869031e+00 -2.123373e+00 -4.207052e+00 3.983165e-01 -3.415897e-01 -7.326357e-02 9.647595e-02 2.556120e-01 -8.547018e-03 3.544302e-02 4.560559e-03 -1.436812e-01 1.581799e-01 -1.985045e-01 -3.696162e-01 1.173472e-02 2.521244e-02 -4.559078e-02 -1.916241e-01 -7.075520e-02 -9.345625e-02 -4.356482e-02 -1.712946e-02 6.642510e-02 -2.530904e-02 8.183153e-02 5.914973e-02 -2.944796e-02 7.135544e-02 4.349110e-02
<VARIANCE> 39
 7.879849e+00 2.614657e+01 2.537956e+01 2.634085e+01 2.388438e+01 1.745170e+01 4.902726e+01 3.296950e+01 2.288163e+01 3.161313e+01 2.616140e+01 1.842541e+01 2.615985e+01 5.432063e-01 1.199954e+00 1.155727e+00 2.014248e+00 2.296315e+00 2.280033e+00 3.759898e+00 3.043008e+00 2.222784e+00 2.899157e+00 3.039410e+00 1.947891e+00 2.811456e+00 1.128308e-01 3.173988e-01 2.167010e-01 4.002194e-01 5.242344e-01 5.487824e-01 9.191440e-01 6.135369e-01 5.283546e-01 5.743239e-01 5.433868e-01 4.605661e-01 5.784500e-01
<GCONST> 1.114238e+02
<MIXTURE> 2 5.000000e-01
<MEAN> 39
 -5.852676e+00 8.106483e-01 1.178245e+00 2.328494e+00 -1.158827e+00 -1.228418e-01 1.590424e-01 -2.564188e+00 -5.483381e+00 -2.869031e+00 -2.123373e+00 -4.207052e+00 3.983165e-01 -3.415897e-01 -7.326357e-02 9.647595e-02 2.556120e-01 -8.547018e-03 3.544302e-02 4.560559e-03 -1.436812e-01 1.581799e-01 -1.985045e-01 -3.696162e-01 1.173472e-02 2.521244e-02 -4.559078e-02 -1.916241e-01 -7.075520e-02 -9.345625e-02 -4.356482e-02 -1.712946e-02 6.642510e-02 -2.530904e-02 8.183153e-02 5.914973e-02 -2.944796e-02 7.135544e-02 4.349110e-02
<VARIANCE> 39
 7.879849e+00 2.614657e+01 2.537956e+01 2.634085e+01 2.388438e+01 1.745170e+01 4.902726e+01 3.296950e+01 2.288163e+01 3.161313e+01 2.616140e+01 1.842541e+01 2.615985e+01 5.432063e-01 1.199954e+00 1.155727e+00 2.014248e+00 2.296315e+00 2.280033e+00 3.759898e+00 3.043008e+00 2.222784e+00 2.899157e+00 3.039410e+00 1.947891e+00 2.811456e+00 1.128308e-01 3.173988e-01 2.167010e-01 4.002194e-01 5.242344e-01 5.487824e-01 9.191440e-01 6.135369e-01 5.283546e-01 5.743239e-01 5.433868e-01 4.605661e-01 5.784500e-01
<GCONST> 1.114238e+02
<STATE> 3
<NUMMIXES> 2
<MIXTURE> 1 5.000000e-01
<MEAN> 39
 -7.256212e+00 -2.236683e+00 1.950937e+00 2.403155e-02 -2.800287e+00 5.107484e-01 -1.103538e+00 -4.421996e+00 -2.218895e+00 -4.154052e+00 -4.244567e+00 -1.562840e+00 1.163628e+00 -1.323154e-01 -4.203865e-01 -9.273560e-02 -5.274864e-02 -1.047273e-01 -3.385260e-02 1.193733e-01 -3.730180e-02 1.966005e-01 5.528063e-02 1.024533e-01 1.023999e-01 -3.408432e-02 3.052418e-04 -5.319428e-02 -2.964230e-02 -2.997103e-02 -2.902964e-02 -2.935037e-02 3.034230e-02 1.894156e-02 -9.773255e-04 2.243062e-02 4.549444e-02 -3.457924e-02 1.544738e-03
<VARIANCE> 39
 8.081418e+00 4.357505e+01 2.211951e+01 3.988594e+01 3.715012e+01 2.845021e+01 4.847969e+01 4.564381e+01 2.364108e+01 2.482071e+01 2.557657e+01 2.398202e+01 1.952991e+01 6.854641e-01 3.704833e+00 1.886890e+00 2.118195e+00 3.506357e+00 3.315672e+00 4.035410e+00 3.836802e+00 2.989052e+00 3.288141e+00 3.189273e+00 2.705107e+00 2.379150e+00 1.181670e-01 4.906080e-01 3.469567e-01 4.410231e-01 7.266678e-01 7.109718e-01 6.733207e-01 7.744655e-01 6.245126e-01 7.044639e-01 7.194864e-01 6.245761e-01 5.222707e-01
<GCONST> 1.192648e+02
<MIXTURE> 2 5.000000e-01
<MEAN> 39
 -7.256212e+00 -2.236683e+00 1.950937e+00 2.403155e-02 -2.800287e+00 5.107484e-01 -1.103538e+00 -4.421996e+00 -2.218895e+00 -4.154052e+00 -4.244567e+00 -1.562840e+00 1.163628e+00 -1.323154e-01 -4.203865e-01 -9.273560e-02 -5.274864e-02 -1.047273e-01 -3.385260e-02 1.193733e-01 -3.730180e-02 1.966005e-01 5.528063e-02 1.024533e-01 1.023999e-01 -3.408432e-02 3.052418e-04 -5.319428e-02 -2.964230e-02 -2.997103e-02 -2.902964e-02 -2.935037e-02 3.034230e-02 1.894156e-02 -9.773255e-04 2.243062e-02 4.549444e-02 -3.457924e-02 1.544738e-03
<VARIANCE> 39
 8.081418e+00 4.357505e+01 2.211951e+01 3.988594e+01 3.715012e+01 2.845021e+01 4.847969e+01 4.564381e+01 2.364108e+01 2.482071e+01 2.557657e+01 2.398202e+01 1.952991e+01 6.854641e-01 3.704833e+00 1.886890e+00 2.118195e+00 3.506357e+00 3.315672e+00 4.035410e+00 3.836802e+00 2.989052e+00 3.288141e+00 3.189273e+00 2.705107e+00 2.379150e+00 1.181670e-01 4.906080e-01 3.469567e-01 4.410231e-01 7.266678e-01 7.109718e-01 6.733207e-01 7.744655e-01 6.245126e-01 7.044639e-01 7.194864e-01 6.245761e-01 5.222707e-01
<GCONST> 1.192648e+02
<STATE> 4
<NUMMIXES> 2
<MIXTURE> 1 5.000000e-01
<MEAN> 39
 -1.005867e+01 -3.461580e+00 8.721329e-01 -3.973735e+00 -4.180199e+00 -3.970633e+00 8.421853e-01 -3.001333e+00 -1.223365e+00 -2.545697e+00 -1.864301e+00 -3.420140e+00 -8.334512e-01 5.382699e-01 5.035028e-01 -1.984018e-01 -7.026025e-01 -1.240717e-01 -4.067353e-01 4.249430e-02 1.406343e-01 -2.331604e-01 2.341598e-01 -8.629853e-02 -2.158438e-01 -1.125024e-01 1.350636e-01 3.199730e-01 8.423143e-02 -2.816482e-02 1.369651e-01 6.686331e-02 -1.838269e-01 9.708630e-02 -1.306876e-01 -8.924637e-03 -1.131887e-03 5.843836e-03 3.818888e-02
<VARIANCE> 39
 4.239706e+01 9.002325e+01 3.210336e+01 8.516546e+01 4.829832e+01 2.599106e+01 4.802417e+01 3.051653e+01 2.693228e+01 1.841884e+01 2.377341e+01 1.742717e+01 1.493023e+01 3.759010e+00 6.316885e+00 2.585968e+00 4.163974e+00 4.929751e+00 3.221432e+00 4.036157e+00 3.145846e+00 3.469347e+00 2.713342e+00 3.075754e+00 2.634919e+00 1.688432e+00 6.171616e-01 1.208239e+00 4.208345e-01 7.460557e-01 8.913330e-01 7.130271e-01 6.510242e-01 6.485729e-01 6.922115e-01 5.877547e-01 6.504306e-01 5.356031e-01 3.448359e-01
<GCONST> 1.271227e+02
<MIXTURE> 2 5.000000e-01
<MEAN> 39
 -1.005867e+01 -3.461580e+00 8.721329e-01 -3.973735e+00 -4.180199e+00 -3.970633e+00 8.421853e-01 -3.001333e+00 -1.223365e+00 -2.545697e+00 -1.864301e+00 -3.420140e+00 -8.334512e-01 5.382699e-01 5.035028e-01 -1.984018e-01 -7.026025e-01 -1.240717e-01 -4.067353e-01 4.249430e-02 1.406343e-01 -2.331604e-01 2.341598e-01 -8.629853e-02 -2.158438e-01 -1.125024e-01 1.350636e-01 3.199730e-01 8.423143e-02 -2.816482e-02 1.369651e-01 6.686331e-02 -1.838269e-01 9.708630e-02 -1.306876e-01 -8.924637e-03 -1.131887e-03 5.843836e-03 3.818888e-02
<VARIANCE> 39
 4.239706e+01 9.002325e+01 3.210336e+01 8.516546e+01 4.829832e+01 2.599106e+01 4.802417e+01 3.051653e+01 2.693228e+01 1.841884e+01 2.377341e+01 1.742717e+01 1.493023e+01 3.759010e+00 6.316885e+00 2.585968e+00 4.163974e+00 4.929751e+00 3.221432e+00 4.036157e+00 3.145846e+00 3.469347e+00 2.713342e+00 3.075754e+00 2.634919e+00 1.688432e+00 6.171616e-01 1.208239e+00 4.208345e-01 7.460557e-01 8.913330e-01 7.130271e-01 6.510242e-01 6.485729e-01 6.922115e-01 5.877547e-01 6.504306e-01 5.356031e-01 3.448359e-01
<GCONST> 1.271227e+02
<TRANSP> 5
 0.000000e+00 1.000000e+00 0.000000e+00 0.000000e+00 0.000000e+00
 0.000000e+00 8.348893e-01 1.651107e-01 0.000000e+00 0.000000e+00
 0.000000e+00 0.000000e+00 9.348695e-01 6.513056e-02 0.000000e+00
 0.000000e+00 0.000000e+00 0.000000e+00 8.875573e-01 1.124427e-01
 0.000000e+00 0.000000e+00 0.000000e+00 0.000000e+00 0.000000e+00
<ENDHMM>
~h "l"
<BEGINHMM>
<NUMSTATES> 5
<STATE> 2
<NUMMIXES> 2
<MIXTURE> 1 5.000000e-01
<MEAN> 39
 -3.390179e+00 6.715876e+00 -2.568774e+00 -3.349285e-01 -8.851882e+00 -1.629216e+01 2.722341e+00 -1.399505e+00 -7.579144e+00 4.199186e+00 -1.357631e+00 -2.965359e+00 1.163461e+00 -1.523184e-01 -4.101465e-01 -3.436360e-01 1.661512e-02 -4.783688e-02 4.240415e-01 7.270534e-01 1.090473e-01 -5.436667e-01 -1.070271e-01 8.188923e-02 -2.757071e-01 -8.585165e-02 -5.555072e-03 -1.087149e-01 -3.218208e-02 -5.033533e-02 9.809399e-02 1.965297e-01 -1.457050e-02 9.470305e-03 3.933549e-02 -1.222341e-01 -4.152961e-02 4.989341e-02 -4.269417e-02
<VARIANCE> 39
 9.758102e+00 4.687777e+01 3.294449e+01 2.072947e+01 4.102095e+01 7.405074e+01 3.985811e+01 4.919297e+01 3.082257e+01 6.720215e+01 3.686081e+01 2.250194e+01 1.905427e+01 2.304530e-01 1.606400e+00 1.040977e+00 1.009364e+00 1.541548e+00 4.279535e+00 2.447334e+00 1.613944e+00 2.128276e+00 1.972753e+00 2.292969e+00 1.282266e+00 9.334347e-01 3.229325e-02 1.702688e-01 9.573428e-02 1.982197e-01 2.305539e-01 5.297531e-01 4.096872e-01 2.271354e-01 3.301261e-01 2.817412e-01 3.578115e-01 2.232256e-01 1.685837e-01
<GCONST> 1.016658e+02
<MIXTURE> 2 5.000000e-01
<MEAN> 39
 -3.390179e+00 6.715876e+00 -2.568774e+00 -3.349285e-01 -8.851882e+00 -1.629216e+01 2.722341e+00 -1.399505e+00 -7.579144e+00 4.199186e+00 -1.357631e+00 -2.965359e+00 1.163461e+00 -1.523184e-01 -4.101465e-01 -3.436360e-01 1.661512e-02 -4.783688e-02 4.240415e-01 7.270534e-01 1.090473e-01 -5.436667e-01 -1.070271e-01 8.188923e-02 -2.757071e-01 -8.585165e-02 -5.555072e-03 -1.087149e-01 -3.218208e-02 -5.033533e-02 9.809399e-02 1.965297e-01 -1.457050e-02 9.470305e-03 3.933549e-02 -1.222341e-01 -4.152961e-02 4.989341e-02 -4.269417e-02
<VARIANCE> 39
 9.758102e+00 4.687777e+01 3.294449e+01 2.072947e+01 4.102095e+01 7.405074e+01 3.985811e+01 4.919297e+01 3.082257e+01 6.720215e+01 3.686081e+01 2.250194e+01 1.905427e+01 2.304530e-01 1.606400e+00 1.040977e+00 1.009364e+00 1.541548e+00 4.279535e+00 2.447334e+00 1.613944e+00 2.128276e+00 1.972753e+00 2.292969e+00 1.282266e+00 9.334347e-01 3.229325e-02 1.702688e-01 9.573428e-02 1.982197e-01 2.305539e-01 5.297531e-01 4.096872e-01 2.271354e-01 3.301261e-01 2.817412e-01 3.578115e-01 2.232256e-01 1.685837e-01
<GCONST> 1.016658e+02
<STATE> 3
<NUMMIXES> 2
<MIXTURE> 1 5.000000e-01
<MEAN> 39
 -3.292008e+00 -3.862064e+00 -1.174080e+01 1.814341e+00 -4.703267e+00 -8.809123e+00 9.370947e+00 2.208547e-01 -1.113644e+01 -6.844596e+00 -2.924966e+00 -1.368964e+00 -2.922917e+00 -5.940664e-03 -1.415927e-01 -1.731837e-02 -1.197273e-03 1.152707e-01 7.301612e-02 1.372283e-01 -1.573077e-01 -1.635020e-01 6.454252e-02 6.869138e-02 5.307153e-02 -1.182743e-01 1.665730e-02 2.269426e-02 2.087821e-03 4.739202e-04 1.933438e-02 -3.321332e-02 -5.756601e-02 -1.402743e-02 5.393727e-02 1.931571e-02 -1.026936e-02 1.933121e-02 4.691645e-03
<VARIANCE> 39
 8.624703e+00 2.761777e+01 1.303173e+01 1.643032e+01 5.844935e+01 3.019611e+01 4.740121e+01 3.636445e+01 4.141042e+01 2.736435e+01 1.410078e+01 1.992904e+01 8.362556e+00 3.199253e-01 9.225859e-01 4.132666e-01 7.854700e-01 2.328551e+00 8.754712e-01 1.235898e+00 1.070519e+00 2.310001e+00 9.170344e-01 8.190466e-01 8.165284e-01 3.519629e-01 4.543815e-02 1.118491e-01 6.096771e-02 1.230657e-01 2.344018e-01 1.612357e-01 2.217624e-01 1.410926e-01 2.638016e-01 1.033930e-01 1.101131e-01 1.012259e-01 4.850431e-02
<GCONST> 8.215174e+01
<MIXTURE> 2 5.000000e-01
<MEAN> 39
 -3.292008e+00 -3.862064e+00 -1.174080e+01 1.814341e+00 -4.703267e+00 -8.809123e+00 9.370947e+00 2.208547e-01 -1.113644e+01 -6.844596e+00 -2.924966e+00 -1.368964e+00 -2.922917e+00 -5.940664e-03 -1.415927e-01 -1.731837e-02 -1.197273e-03 1.152707e-01 7.301612e-02 1.372283e-01 -1.573077e-01 -1.635020e-01 6.454252e-02 6.869138e-02 5.307153e-02 -1.182743e-01 1.665730e-02 2.269426e-02 2.087821e-03 4.739202e-04 1.933438e-02 -3.321332e-02 -5.756601e-02 -1.402743e-02 5.393727e-02 1.931571e-02 -1.026936e-02 1.933121e-02 4.691645e-03
<VARIANCE> 39
 8.624703e+00 2.761777e+01 1.303173e+01 1.643032e+01 5.844935e+01 3.019611e+01 4.740121e+01 3.636445e+01 4.141042e+01 2.736435e+01 1.410078e+01 1.992904e+01 8.362556e+00 3.199253e-01 9.225859e-01 4.132666e-01 7.854700e-01 2.328551e+00 8.754712e-01 1.235898e+00 1.070519e+00 2.310001e+00 9.170344e-01 8.190466e-01 8.165284e-01 3.519629e-01 4.543815e-02 1.118491e-01 6.096771e-02 1.230657e-01 2.344018e-01 1.612357e-01 2.217624e-01 1.410926e-01 2.638016e-01 1.033930e-01 1.101131e-01 1.012259e-01 4.850431e-02
<GCONST> 8.215174e+01
<STATE> 4
<NUMMIXES> 2
<MIXTURE> 1 5.000000e-01
<MEAN> 39
 -5.510079e+00 -8.645721e+00 -1.333977e+01 4.212072e+00 2.981770e+00 -6.249703e+00 8.007020e+00 -5.122945e+00 -1.334068e+01 -5.429339e+00 7.393420e-01 1.168002e+00 -4.193418e+00 7.493432e-04 2.534153e-02 -3.627751e-02 2.134902e-02 9.466866e-02 -6.483835e-02 -1.322330e-01 2.231723e-02 2.841697e-01 5.345798e-03 -7.071066e-02 -7.279166e-03 4.127428e-02 4.050771e-02 2.536537e-02 1.798722e-02 -4.376937e-02 -6.386758e-02 -8.903869e-03 -8.920457e-03 5.668689e-02 5.428918e-02 -1.724792e-02 -3.512079e-02 -3.522855e-02 7.609625e-03
<VARIANCE> 39
 6.175931e+00 2.528332e+01 2.080045e+01 2.898598e+01 2.699457e+01 1.821409e+01 3.077692e+01 3.135642e+01 2.394426e+01 3.213604e+01 2.517140e+01 1.086578e+01 1.319467e+01 2.387315e-01 3.250902e-01 3.470807e-01 4.210615e-01 4.752800e-01 3.796299e-01 4.403798e-01 4.231019e-01 8.185172e-01 8.348996e-01 6.250131e-01 4.831581e-01 5.076708e-01 3.605528e-02 5.466916e-02 4.784539e-02 4.465618e-02 5.099758e-02 8.229904e-02 7.379907e-02 6.185060e-02 1.323534e-01 9.660067e-02 6.347954e-02 8.518065e-02 6.492716e-02
<GCONST> 6.535426e+01
<MIXTURE> 2 5.000000e-01
<MEAN> 39
 -5.510079e+00 -8.645721e+00 -1.333977e+01 4.212072e+00 2.981770e+00 -6.249703e+00 8.007020e+00 -5.122945e+00 -1.334068e+01 -5.429339e+00 7.393420e-01 1.168002e+00 -4.193418e+00 7.493432e-04 2.534153e-02 -3.627751e-02 2.134902e-02 9.466866e-02 -6.483835e-02 -1.322330e-01 2.231723e-02 2.841697e-01 5.345798e-03 -7.071066e-02 -7.279166e-03 4.127428e-02 4.050771e-02 2.536537e-02 1.798722e-02 -4.376937e-02 -6.386758e-02 -8.903869e-03 -8.920457e-03 5.668689e-02 5.428918e-02 -1.724792e-02 -3.512079e-02 -3.522855e-02 7.609625e-03
<VARIANCE> 39
 6.175931e+00 2.528332e+01 2.080045e+01 2.898598e+01 2.699457e+01 1.821409e+01 3.077692e+01 3.135642e+01 2.394426e+01 3.213604e+01 2.517140e+01 1.086578e+01 1.319467e+01 2.387315e-01 3.250902e-01 3.470807e-01 4.210615e-01 4.752800e-01 3.796299e-01 4.403798e-01 4.231019e-01 8.185172e-01 8.348996e-01 6.250131e-01 4.831581e-01 5.076708e-01 3.605528e-02 5.466916e-02 4.784539e-02 4.465618e-02 5.099758e-02 8.229904e-02 7.379907e-02 6.185060e-02 1.323534e-01 9.660067e-02 6.347954e-02 8.518065e-02 6.492716e-02
<GCONST> 6.535426e+01
<TRANSP> 5
 0.000000e+00 1.000000e+00 0.000000e+00 0.000000e+00 0.000000e+00
 0.000000e+00 8.695229e-01 1.304772e-01 0.000000e+00 0.000000e+00
 0.000000e+00 0.000000e+00 9.132205e-01 8.677953e-02 0.000000e+00
 0.000000e+00 0.000000e+00 0.000000e+00 8.612054e-01 1.387946e-01
 0.000000e+00 0.000000e+00 0.000000e+00 0.000000e+00 0.000000e+00
<ENDHMM>
~h "m"
<BEGINHMM>
<NUMSTATES> 5
<STATE> 2
<NUMMIXES> 2
<MIXTURE> 1 5.000000e-01
<MEAN> 39
 -1.722051e+00 4.858076e+00 2.105222e+00 1.700254e+00 -3.209424e-01 -1.305632e+01 -5.415360e+00 -2.829734e+00 -6.139809e+00 8.429559e-01 -1.924936e+00 -5.393150e-01 -2.591514e+00 9.305214e-01 5.272264e-01 2.736791e-01 2.480582e-01 8.767164e-01 -2.612677e+00 -9.075406e-01 -5.217403e-02 -6.305190e-01 9.727093e-01 3.792897e-01 9.429662e-01 -8.144380e-01 -1.277051e-01 3.585543e-03 -6.986180e-02 -7.703683e-02 9.148549e-02 -1.009877e-01 -1.375722e-01 -6.841242e-02 2.238555e-01 2.741475e-02 8.228484e-03 6.719774e-02 -4.464660e-02
<VARIANCE> 39
 2.397549e+01 1.234103e+01 1.551172e+01 2.043411e+01 3.131287e+01 6.081127e+01 2.947241e+01 5.317494e+01 2.631149e+01 4.090403e+01 2.481727e+01 2.728294e+01 2.205645e+01 1.656835e+00 1.633162e+00 1.932434e+00 2.055326e+00 3.819045e+00 5.551619e+00 3.213978e+00 5.245928e+00 2.939195e+00 4.445113e+00 2.853742e+00 3.343044e+00 2.549306e+00 3.019669e-01 2.999676e-01 3.792605e-01 4.165840e-01 5.605605e-01 1.053945e+00 5.972684e-01 7.070187e-01 4.931650e-01 8.621627e-01 5.484672e-01 7.298166e-01 4.387917e-01
<GCONST> 1.204128e+02
<MIXTURE> 2 5.000000e-01
<MEAN> 39
 -1.722051e+00 4.858076e+00 2.105222e+00 1.700254e+00 -3.209424e-01 -1.305632e+01 -5.415360e+00 -2.829734e+00 -6.139809e+00 8.429559e-01 -1.924936e+00 -5.393150e-01 -2.591514e+00 9.305214e-01 5.272264e-01 2.736791e-01 2.480582e-01 8.767164e-01 -2.612677e+00 -9.075406e-01 -5.217403e-02 -6.305190e-01 9.727093e-01 3.792897e-01 9.429662e-01 -8.144380e-01 -1.277051e-01 3.585543e-03 -6.986180e-02 -7.703683e-02 9.148549e-02 -1.009877e-01 -1.375722e-01 -6.841242e-02 2.238555e-01 2.741475e-02 8.228484e-03 6.719774e-02 -4.464660e-02
<VARIANCE> 39
 2.397549e+01 1.234103e+01 1.551172e+01 2.043411e+01 3.131287e+01 6.081127e+01 2.947241e+01 5.317494e+01 2.631149e+01 4.090403e+01 2.481727e+01 2.728294e+01 2.205645e+01 1.656835e+00 1.633162e+00 1.932434e+00 2.055326e+00 3.819045e+00 5.551619e+00 3.213978e+00 5.245928e+00 2.939195e+00 4.445113e+00 2.853742e+00 3.343044e+00 2.549306e+00 3.019669e-01 2.999676e-01 3.792605e-01 4.165840e-01 5.605605e-01 1.053945e+00 5.972684e-01 7.070187e-01 4.931650e-01 8.621627e-01 5.484672e-01 7.298166e-01 4.387917e-01
<GCONST> 1.204128e+02
<STATE> 3
<NUMMIXES> 2
<MIXTURE> 1 5.000000e-01
<MEAN> 39
 6.540387e-01 6.191703e+00 1.310347e+00 6.182850e+00 7.942552e+00 -2.583045e+01 -8.449717e+00 -9.304860e+00 -3.018614e+00 4.076368e+00 -2.479803e+00 3.834119e+00 -8.056846e+00 2.927382e-01 3.160703e-01 -1.656045e-01 2.040334e-01 7.209011e-01 -6.270214e-01 -5.830051e-01 -7.060303e-01 2.473472e-01 4.445129e-01 5.922969e-01 2.032716e-01 -4.295752e-01 -8.154373e-02 -1.294656e-01 -6.524876e-02 -3.431752e-02 -1.388564e-01 3.936435e-01 1.740928e-01 5.592863e-02 3.605119e-02 -2.110786e-01 -7.306273e-02 -1.276335e-01 1.906126e-01
<VARIANCE> 39
 1.693059e+01 9.239336e+00 1.835515e+01 3.878603e+01 3.708465e+01 2.561016e+01 2.950979e+01 6.669769e+01 5.263235e+01 2.478479e+01 3.172121e+01 1.541204e+01 1.384811e+01 1.010130e+00 6.649606e-01 1.734925e+00 1.788421e+00 2.783803e+00 2.539356e+00 2.837757e+00 2.067495e+00 2.589908e+00 1.899662e+00 2.083411e+00 1.904121e+00 1.147796e+00 1.889915e-01 1.608870e-01 3.406695e-01 3.203771e-01 6.125513e-01 5.661745e-01 6.049818e-01 4.642852e-01 5.978239e-01 4.193069e-01 2.981783e-01 2.884189e-01 2.653712e-01
<GCONST> 1.081007e+02
<MIXTURE> 2 5.000000e-01
<MEAN> 39
 6.540387e-01 6.191703e+00 1.310347e+00 6.182850e+00 7.942552e+00 -2.583045e+01 -8.449717e+00 -9.304860e+00 -3.018614e+00 4.076368e+00 -2.479803e+00 3.834119e+00 -8.056846e+00 2.927382e-01 3.160703e-01 -1.656045e-01 2.040334e-01 7.209011e-01 -6.270214e-01 -5.830051e-01 -7.060303e-01 2.473472e-01 4.445129e-01 5.922969e-01 2.032716e-01 -4.295752e-01 -8.154373e-02 -1.294656e-01 -6.524876e-02 -3.431752e-02 -1.388564e-01 3.936435e-01 1.740928e-01 5.592863e-02 3.605119e-02 -2.110786e-01 -7.306273e-02 -1.276335e-01 1.906126e-01
<VARIANCE> 39
 1.693059e+01 9.239336e+00 1.835515e+01 3.878603e+01 3.708465e+01 2.561016e+01 2.950979e+01 6.669769e+01 5.263235e+01 2.478479e+01 3.172121e+01 1.541204e+01 1.384811e+01 1.010130e+00 6.649606e-01 1.734925e+00 1.788421e+00 2.783803e+00 2.539356e+00 2.837757e+00 2.067495e+00 2.589908e+00 1.899662e+00 2.083411e+00 1.904121e+00 1.147796e+00 1.889915e-01 1.608870e-01 3.406695e-01 3.203771e-01 6.125513e-01 5.661745e-01 6.049818e-01 4.642852e-01 5.978239e-01 4.193069e-01 2.981783e-01 2.884189e-01 2.653712e-01
<GCONST> 1.081007e+02
<STATE> 4
<NUMMIXES> 2
<MIXTURE> 1 5.000000e-01
<MEAN> 39
 2.602859e+00 7.076833e+00 -1.667096e+00 2.214938e+00 7.621461e+00 -2.282849e+01 -9.952826e+00 -9.017385e+00 -5.651106e+00 4.034957e+00 1.509156e+00 2.426990e+00 -7.222607e+00 -5.156267e-03 -1.529850e-01 -2.665148e-01 -8.263449e-02 3.726897e-02 2.991137e-01 1.459471e-01 -4.647559e-02 4.332544e-02 -2.648873e-01 -9.325892e-02 -4.133571e-03 1.686469e-01 -1.495467e-02 -4.674345e-02 -5.897995e-02 -5.082433e-02 -7.550410e-02 1.754044e-01 6.776360e-02 6.168300e-02 1.422746e-02 -8.063765e-02 -5.683050e-02 -5.446884e-02 9.404148e-02
<VARIANCE> 39
 6.064033e+00 5.372829e+00 5.031080e+01 2.072804e+01 4.369917e+01 6.115469e+01 1.645124e+01 1.110210e+02 3.747989e+01 1.508000e+01 2.198733e+01 2.050631e+01 1.539977e+01 1.147339e-01 3.781961e-01 6.582252e-01 4.500233e-01 6.059162e-01 1.895939e+00 7.582833e-01 9.108697e-01 5.651044e-01 7.198271e-01 6.565160e-01 6.998500e-01 8.317207e-01 2.111255e-02 5.609877e-02 1.003292e-01 9.462257e-02 9.660699e-02 2.227012e-01 1.184745e-01 1.932430e-01 9.903459e-02 1.189037e-01 1.334199e-01 1.222933e-01 1.368157e-01
<GCONST> 7.668928e+01
<MIXTURE> 2 5.000000e-01
<MEAN> 39
 2.602859e+00 7.076833e+00 -1.667096e+00 2.214938e+00 7.621461e+00 -2.282849e+01 -9.952826e+00 -9.017385e+00 -5.651106e+00 4.034957e+00 1.509156e+00 2.426990e+00 -7.222607e+00 -5.156267e-03 -1.529850e-01 -2.665148e-01 -8.263449e-02 3.726897e-02 2.991137e-01 1.459471e-01 -4.647559e-02 4.332544e-02 -2.648873e-01 -9.325892e-02 -4.133571e-03 1.686469e-01 -1.495467e-02 -4.674345e-02 -5.897995e-02 -5.082433e-02 -7.550410e-02 1.754044e-01 6.776360e-02 6.168300e-02 1.422746e-02 -8.063765e-02 -5.683050e-02 -5.446884e-02 9.404148e-02
<VARIANCE> 39
 6.064033e+00 5.372829e+00 5.031080e+01 2.072804e+01 4.369917e+01 6.115469e+01 1.645124e+01 1.110210e+02 3.747989e+01 1.508000e+01 2.198733e+01 2.050631e+01 1.539977e+01 1.147339e-01 3.781961e-01 6.582252e-01 4.500233e-01 6.059162e-01 1.895939e+00 7.582833e-01 9.108697e-01 5.651044e-01 7.198271e-01 6.565160e-01 6.998500e-01 8.317207e-01 2.111255e-02 5.609877e-02 1.003292e-01 9.462257e-02 9.660699e-02 2.227012e-01 1.184745e-01 1.932430e-01 9.903459e-02 1.189037e-01 1.334199e-01 1.222933e-01 1.368157e-01
<GCONST> 7.668928e+01
<TRANSP> 5
 0.000000e+00 1.000000e+00 0.000000e+00 0.000000e+00 0.000000e+00
 0.000000e+00 8.158678e-01 1.841321e-01 0.000000e+00 0.000000e+00
 0.000000e+00 0.000000e+00 7.897975e-01 2.102025e-01 0.000000e+00
 0.000000e+00 0.000000e+00 0.000000e+00 9.479067e-01 5.209320e-02
 0.000000e+00 0.000000e+00 0.000000e+00 0.000000e+00 0.000000e+00
<ENDHMM>
~h "n"
<BEGINHMM>
<NUMSTATES> 5
<STATE> 2
<NUMMIXES> 2
<MIXTURE> 1 5.000000e-01
<MEAN> 39
 -1.379976e+00 1.271797e+00 2.253638e+00 -6.815193e+00 -7.177343e-02 -8.650314e+00 -1.302316e+00 -3.437598e+00 -1.344106e+01 1.470719e+00 -6.302061e+00 1.473968e+00 -2.045216e+00 1.086329e-01 4.470628e-01 1.571064e-01 -1.970783e-01 5.266191e-02 -4.831067e-01 -4.139664e-01 1.044600e-02 2.231058e-01 2.675707e-01 -8.199318e-02 5.634932e-02 -2.460457e-01 -5.967242e-02 -1.429664e-01 -9.511108e-02 1.339455e-02 -4.369564e-02 2.599755e-01 4.423507e-02 -1.366080e-02 -1.511944e-02 -5.291656e-02 -1.213566e-01 -3.961545e-03 1.076837e-01
<VARIANCE> 39
 1.544535e+01 2.715130e+01 1.971085e+01 4.719201e+01 1.076409e+01 1.318290e+02 8.111537e+01 4.886459e+01 2.110820e+01 5.172905e+01 2.615281e+01 1.101375e+01 4.208529e+01 3.982354e-01 1.684889e+00 6.887107e-01 6.760324e-01 8.551301e-01 6.470383e+00 1.683953e+00 1.085052e+00 9.884160e-01 1.413005e+00 1.789619e+00 8.497638e-01 2.145569e+00 4.893478e-02 2.294896e-01 7.475101e-02 1.121456e-01 1.695624e-01 7.776452e-01 3.269579e-01 1.836948e-01 1.699152e-01 2.041669e-01 3.125673e-01 1.260761e-01 3.235773e-01
<GCONST> 9.732664e+01
<MIXTURE> 2 5.000000e-01
<MEAN> 39
 -1.379976e+00 1.271797e+00 2.253638e+00 -6.815193e+00 -7.177343e-02 -8.650314e+00 -1.302316e+00 -3.437598e+00 -1.344106e+01 1.470719e+00 -6.302061e+00 1.473968e+00 -2.045216e+00 1.086329e-01 4.470628e-01 1.571064e-01 -1.970783e-01 5.266191e-02 -4.831067e-01 -4.139664e-01 1.044600e-02 2.231058e-01 2.675707e-01 -8.199318e-02 5.634932e-02 -2.460457e-01 -5.967242e-02 -1.429664e-01 -9.511108e-02 1.339455e-02 -4.369564e-02 2.599755e-01 4.423507e-02 -1.366080e-02 -1.511944e-02 -5.291656e-02 -1.213566e-01 -3.961545e-03 1.076837e-01
<VARIANCE> 39
 1.544535e+01 2.715130e+01 1.971085e+01 4.719201e+01 1.076409e+01 1.318290e+02 8.111537e+01 4.886459e+01 2.110820e+01 5.172905e+01 2.615281e+01 1.101375e+01 4.208529e+01 3.982354e-01 1.684889e+00 6.887107e-01 6.760324e-01 8.551301e-01 6.470383e+00 1.683953e+00 1.085052e+00 9.884160e-01 1.413005e+00 1.789619e+00 8.497638e-01 2.145569e+00 4.893478e-02 2.294896e-01 7.475101e-02 1.121456e-01 1.695624e-01 7.776452e-01 3.269579e-01 1.836948e-01 1.699152e-01 2.041669e-01 3.125673e-01 1.260761e-01 3.235773e-01
<GCONST> 9.732664e+01
<STATE> 3
<NUMMIXES> 2
<MIXTURE> 1 5.000000e-01
<MEAN> 39
 2.001595e+00 2.336027e+00 2.661838e+00 -3.422915e+00 5.279930e-01 -1.079692e+01 7.782820e-01 -6.887953e+00 -1.143434e+01 5.446810e+00 -4.828143e+00 4.465432e-01 -2.050674e+00 -1.773906e-01 -1.019169e-01 -1.531262e-01 1.320573e-01 -1.503602e-01 5.215589e-01 -1.737188e-01 5.732356e-02 1.025802e-01 -2.956511e-01 -1.599196e-02 7.570305e-02 5.043913e-01 -7.833731e-02 -7.534120e-02 -6.462596e-02 -3.753063e-03 -4.808887e-02 1.525209e-01 4.385061e-02 1.697689e-02 -7.689315e-03 -1.107273e-01 -5.057342e-03 -1.806431e-02 4.363428e-02
<VARIANCE> 39
 2.475251e+01 4.051905e+01 1.985471e+01 1.780156e+01 2.727399e+01 1.303122e+02 8.125257e+01 4.114715e+01 5.176566e+01 3.884433e+01 2.895251e+01 2.716854e+01 5.412881e+01 6.600930e-01 1.328244e+00 9.620409e-01 1.022637e+00 1.394768e+00 4.394114e+00 3.925000e+00 1.876077e+00 1.340305e+00 2.971085e+00 1.515467e+00 9.660143e-01 1.613127e+00 7.825202e-02 1.647985e-01 1.579639e-01 2.176867e-01 2.212416e-01 5.863344e-01 7.481170e-01 3.095073e-01 2.015542e-01 5.457268e-01 2.834195e-01 1.926997e-01 2.842163e-01
<GCONST> 1.073154e+02
<MIXTURE> 2 5.000000e-01
<MEAN> 39
 2.001595e+00 2.336027e+00 2.661838e+00 -3.422915e+00 5.279930e-01 -1.079692e+01 7.782820e-01 -6.887953e+00 -1.143434e+01 5.446810e+00 -4.828143e+00 4.465432e-01 -2.050674e+00 -1.773906e-01 -1.019169e-01 -1.531262e-01 1.320573e-01 -1.503602e-01 5.215589e-01 -1.737188e-01 5.732356e-02 1.025802e-01 -2.956511e-01 -1.599196e-02 7.570305e-02 5.043913e-01 -7.833731e-02 -7.534120e-02 -6.462596e-02 -3.753063e-03 -4.808887e-02 1.525209e-01 4.385061e-02 1.697689e-02 -7.689315e-03 -1.107273e-01 -5.057342e-03 -1.806431e-02 4.363428e-02
<VARIANCE> 39
 2.475251e+01 4.051905e+01 1.985471e+01 1.780156e+01 2.727399e+01 1.303122e+02 8.125257e+01 4.114715e+01 5.176566e+01 3.884433e+01 2.895251e+01 2.716854e+01 5.412881e+01 6.600930e-01 1.328244e+00 9.620409e-01 1.022637e+00 1.394768e+00 4.394114e+00 3.925000e+00 1.876077e+00 1.340305e+00 2.971085e+00 1.515467e+00 9.660143e-01 1.613127e+00 7.825202e-02 1.647985e-01 1.579639e-01 2.176867e-01 2.212416e-01 5.863344e-01 7.481170e-01 3.095073e-01 2.015542e-01 5.457268e-01 2.834195e-01 1.926997e-01 2.842163e-01
<GCONST> 1.073154e+02
<STATE> 4
<NUMMIXES> 2
<MIXTURE> 1 5.000000e-01
<MEAN> 39
 -4.514679e+00 -3.512094e+00 6.380009e-02 -1.889042e+00 -2.195201e+00 -1.160993e+00 -1.953711e+00 -8.823330e+00 -4.068935e+00 1.238040e+00 -6.829031e+00 -5.340826e-01 2.983654e+00 -2.440584e-01 -2.137393e-01 -1.605383e-01 -1.074310e-01 -6.784337e-02 6.012013e-01 -3.909378e-03 6.003821e-02 2.086004e-01 -4.053203e-01 -1.197561e-01 1.012265e-02 1.371046e-01 2.379749e-02 3.811448e-02 3.911439e-02 9.371789e-03 7.262333e-02 -5.703721e-02 1.620125e-02 -4.296702e-02 2.687307e-03 3.045038e-02 5.424523e-02 -1.588768e-02 -5.420927e-02
<VARIANCE> 39
 8.851686e+00 4.013958e+01 1.756853e+01 2.961461e+01 2.353826e+01 4.555440e+01 4.357215e+01 3.390339e+01 5.708974e+01 3.690616e+01 3.134356e+01 1.940573e+01 2.055243e+01 7.832217e-01 1.613741e+00 2.032506e+00 2.378055e+00 2.563937e+00 3.417330e+00 2.922620e+00 3.240913e+00 2.924580e+00 3.991406e+00 3.788806e+00 2.231679e+00 2.278665e+00 1.377007e-01 2.047782e-01 3.888231e-01 5.088492e-01 5.723494e-01 5.630128e-01 4.815736e-01 6.767171e-01 5.143265e-01 7.577218e-01 8.496785e-01 4.647187e-01 4.555920e-01
<GCONST> 1.167107e+02
<MIXTURE> 2 5.000000e-01
<MEAN> 39
 -4.514679e+00 -3.512094e+00 6.380009e-02 -1.889042e+00 -2.195201e+00 -1.160993e+00 -1.953711e+00 -8.823330e+00 -4.068935e+00 1.238040e+00 -6.829031e+00 -5.340826e-01 2.983654e+00 -2.440584e-01 -2.137393e-01 -1.605383e-01 -1.074310e-01 -6.784337e-02 6.012013e-01 -3.909378e-03 6.003821e-02 2.086004e-01 -4.053203e-01 -1.197561e-01 1.012265e-02 1.371046e-01 2.379749e-02 3.811448e-02 3.911439e-02 9.371789e-03 7.262333e-02 -5.703721e-02 1.620125e-02 -4.296702e-02 2.687307e-03 3.045038e-02 5.424523e-02 -1.588768e-02 -5.420927e-02
<VARIANCE> 39
 8.851686e+00 4.013958e+01 1.756853e+01 2.961461e+01 2.353826e+01 4.555440e+01 4.357215e+01 3.390339e+01 5.708974e+01 3.690616e+01 3.134356e+01 1.940573e+01 2.055243e+01 7.832217e-01 1.613741e+00 2.032506e+00 2.378055e+00 2.563937e+00 3.417330e+00 2.922620e+00 3.240913e+00 2.924580e+00 3.991406e+00 3.788806e+00 2.231679e+00 2.278665e+00 1.377007e-01 2.047782e-01 3.888231e-01 5.088492e-01 5.723494e-01 5.630128e-01 4.815736e-01 6.767171e-01 5.143265e-01 7.577218e-01 8.496785e-01 4.647187e-01 4.555920e-01
<GCONST> 1.167107e+02
<TRANSP> 5
 0.000000e+00 1.000000e+00 0.000000e+00 0.000000e+00 0.000000e+00
 0.000000e+00 8.748234e-01 1.251767e-01 0.000000e+00 0.000000e+00
 0.000000e+00 0.000000e+00 8.930427e-01 1.069573e-01 0.000000e+00
 0.000000e+00 0.000000e+00 0.000000e+00 8.989877e-01 1.010123e-01
 0.000000e+00 0.000000e+00 0.000000e+00 0.000000e+00 0.000000e+00
<ENDHMM>
~h "o"
<BEGINHMM>
<NUMSTATES> 7
<STATE> 2
<NUMMIXES> 2
<MIXTURE> 1 5.000000e-01
<MEAN> 39
 4.147477e+00 2.626565e+00 -1.964438e+01 5.715055e-01 2.289726e+00 -1.020416e+01 -1.041904e+00 -2.394373e+00 8.757764e+00 9.525275e-01 -7.249720e+00 -6.149637e+00 3.292147e-01 8.244424e-02 7.012661e-02 -2.211450e-01 -4.304165e-02 3.114358e-02 -1.668752e-01 -1.237457e-01 1.121956e-01 9.993915e-03 9.798647e-02 -1.456322e-01 4.299390e-02 -2.691831e-02 -5.349199e-02 -2.146127e-02 1.072015e-01 4.048331e-02 -5.147142e-02 3.751915e-02 1.477439e-02 3.805840e-02 -8.011683e-02 -3.948762e-02 4.496768e-02 2.051255e-02 -7.670003e-03
<VARIANCE> 39
 9.272706e+00 9.286328e+00 4.946339e+01 1.233972e+01 1.755535e+01 2.888980e+01 1.401322e+01 5.224606e+01 2.229891e+01 2.329954e+01 2.298588e+01 2.590772e+01 1.409850e+01 4.901903e-01 4.258779e-01 1.060697e+00 6.904572e-01 1.028764e+00 9.692953e-01 8.507793e-01 1.590163e+00 1.646608e+00 1.469180e+00 1.477530e+00 1.221006e+00 8.660337e-01 7.850492e-02 6.743514e-02 1.335167e-01 1.257152e-01 1.248355e-01 1.334198e-01 1.641323e-01 1.913550e-01 2.439599e-01 2.143965e-01 2.011729e-01 1.979389e-01 1.350798e-01
<GCONST> 8.535104e+01
<MIXTURE> 2 5.000000e-01
<MEAN> 39
 4.147477e+00 2.626565e+00 -1.964438e+01 5.715055e-01 2.289726e+00 -1.020416e+01 -1.041904e+00 -2.394373e+00 8.757764e+00 9.525275e-01 -7.249720e+00 -6.149637e+00 3.292147e-01 8.244424e-02 7.012661e-02 -2.211450e-01 -4.304165e-02 3.114358e-02 -1.668752e-01 -1.237457e-01 1.121956e-01 9.993915e-03 9.798647e-02 -1.456322e-01 4.299390e-02 -2.691831e-02 -5.349199e-02 -2.146127e-02 1.072015e-01 4.048331e-02 -5.147142e-02 3.751915e-02 1.477439e-02 3.805840e-02 -8.011683e-02 -3.948762e-02 4.496768e-02 2.051255e-02 -7.670003e-03
<VARIANCE> 39
 9.272706e+00 9.286328e+00 4.946339e+01 1.233972e+01 1.755535e+01 2.888980e+01 1.401322e+01 5.224606e+01 2.229891e+01 2.329954e+01 2.298588e+01 2.590772e+01 1.409850e+01 4.901903e-01 4.258779e-01 1.060697e+00 6.904572e-01 1.028764e+00 9.692953e-01 8.507793e-01 1.590163e+00 1.646608e+00 1.469180e+00 1.477530e+00 1.221006e+00 8.660337e-01 7.850492e-02 6.743514e-02 1.335167e-01 1.257152e-01 1.248355e-01 1.334198e-01 1.641323e-01 1.913550e-01 2.439599e-01 2.143965e-01 2.011729e-01 1.979389e-01 1.350798e-01
<GCONST> 8.535104e+01
<STATE> 3
<NUMMIXES> 2
<MIXTURE> 1 5.000000e-01
<MEAN> 39
 5.322220e+00 3.255002e+00 -1.452159e+01 1.663840e+00 -1.346094e-01 -9.711175e+00 -2.730778e+00 2.864188e+00 4.343688e+00 1.070605e-01 -8.633708e+00 -2.473621e+00 8.384870e-01 2.238569e-01 9.788888e-02 1.087448e+00 5.356699e-01 -1.605216e-01 1.803499e-01 -1.773298e-01 5.853466e-02 -6.442394e-01 -4.371400e-01 7.608856e-02 6.932371e-01 3.792140e-01 1.328772e-02 5.579976e-03 7.115350e-02 6.573045e-02 1.183703e-01 3.104837e-02 9.025303e-03 -2.348278e-01 -9.666482e-02 4.633563e-03 6.061004e-02 -2.529278e-02 5.258487e-02
<VARIANCE> 39
 1.784019e+01 3.337053e+01 1.596975e+02 3.712198e+01 4.571111e+01 7.065333e+01 2.915638e+01 6.979445e+01 7.356155e+01 5.692245e+01 4.541291e+01 4.357608e+01 4.194628e+01 4.901888e-01 8.331683e-01 1.520543e+00 9.390765e-01 1.421166e+00 1.324531e+00 2.234797e+00 2.458876e+00 3.239462e+00 2.511781e+00 1.837891e+00 2.017652e+00 1.539666e+00 9.703171e-02 1.141844e-01 2.503516e-01 1.433614e-01 2.568562e-01 1.953909e-01 4.622118e-01 3.636850e-01 7.191243e-01 5.267939e-01 3.882232e-01 3.392204e-01 2.999607e-01
<GCONST> 1.109472e+02
<MIXTURE> 2 5.000000e-01
<MEAN> 39
 5.322220e+00 3.255002e+00 -1.452159e+01 1.663840e+00 -1.346094e-01 -9.711175e+00 -2.730778e+00 2.864188e+00 4.343688e+00 1.070605e-01 -8.633708e+00 -2.473621e+00 8.384870e-01 2.238569e-01 9.788888e-02 1.087448e+00 5.356699e-01 -1.605216e-01 1.803499e-01 -1.773298e-01 5.853466e-02 -6.442394e-01 -4.371400e-01 7.608856e-02 6.932371e-01 3.792140e-01 1.328772e-02 5.579976e-03 7.115350e-02 6.573045e-02 1.183703e-01 3.104837e-02 9.025303e-03 -2.348278e-01 -9.666482e-02 4.633563e-03 6.061004e-02 -2.529278e-02 5.258487e-02
<VARIANCE> 39
 1.784019e+01 3.337053e+01 1.596975e+02 3.712198e+01 4.571111e+01 7.065333e+01 2.915638e+01 6.979445e+01 7.356155e+01 5.692245e+01 4.541291e+01 4.357608e+01 4.194628e+01 4.901888e-01 8.331683e-01 1.520543e+00 9.390765e-01 1.421166e+00 1.324531e+00 2.234797e+00 2.458876e+00 3.239462e+00 2.511781e+00 1.837891e+00 2.017652e+00 1.539666e+00 9.703171e-02 1.141844e-01 2.503516e-01 1.433614e-01 2.568562e-01 1.953909e-01 4.622118e-01 3.636850e-01 7.191243e-01 5.267939e-01 3.882232e-01 3.392204e-01 2.999607e-01
<GCONST> 1.109472e+02
<STATE> 4
<NUMMIXES> 2
<MIXTURE> 1 5.000000e-01
<MEAN> 39
 4.702850e+00 3.771410e+00 -9.823443e+00 4.967170e+00 2.302138e+00 -9.496382e+00 -4.068535e+00 9.680243e-01 3.283650e+00 -9.960641e-01 -7.030919e+00 -9.648597e-01 2.659623e+00 -5.070925e-01 -5.093491e-01 3.613002e-01 1.517589e-01 3.779716e-01 2.369652e-01 1.919911e-01 4.716732e-01 1.702559e-01 -3.929215e-02 3.419308e-01 -1.271406e-01 -1.206741e-01 -1.795004e-01 -1.364267e-01 -9.918274e-02 -1.433539e-01 -9.820590e-03 6.892627e-02 1.068062e-01 2.148819e-01 2.201046e-01 -1.276049e-02 1.444653e-02 -1.466623e-01 -1.752252e-01
<VARIANCE> 39
