~o
<STREAMINFO> 1 39
<VECSIZE> 39<NULLD><MFCC_D_A><DIAGC>
~h "a"
<BEGINHMM>
<NUMSTATES> 7
<STATE> 2
<NUMMIXES> 2
<MIXTURE> 1 5.000000e-01
<MEAN> 39
 -2.152605e+00 9.898783e-01 -2.256434e+00 -3.140663e+00 -1.300808e+00 -1.990246e+00 3.469295e+00 -2.553559e+00 -5.439181e+00 -1.437372e+00 -3.764907e+00 -1.752572e+00 5.827230e-01 1.901401e-01 8.962880e-02 -1.470894e-01 1.214853e-01 9.489758e-02 5.422217e-02 4.394406e-02 2.160919e-01 6.437570e-02 -1.858660e-01 3.506309e-02 -3.002211e-01 3.148121e-01 -1.587538e-01 -1.099625e-01 -8.653199e-02 1.525094e-01 6.056738e-02 -7.745159e-02 -3.903631e-02 1.508556e-01 4.619907e-02 -9.874661e-02 4.711173e-02 5.502103e-02 5.951402e-02
<VARIANCE> 39
 3.233229e+01 3.488194e+01 8.114197e+01 4.586870e+01 7.017606e+01 1.476166e+02 1.312844e+02 9.984000e+01 4.619351e+01 7.774854e+01 3.313210e+01 2.754179e+01 4.083392e+01 1.923139e+00 1.924168e+00 3.364636e+00 3.052993e+00 3.105496e+00 5.652763e+00 5.430400e+00 4.800013e+00 4.172725e+00 4.530451e+00 4.150974e+00 2.235681e+00 3.543789e+00 2.383929e-01 4.029290e-01 4.328491e-01 4.443381e-01 4.180939e-01 9.083517e-01 1.190343e+00 9.083419e-01 8.502955e-01 7.738807e-01 5.843576e-01 4.145778e-01 6.515960e-01
<GCONST> 1.334161e+02
<MIXTURE> 2 5.000000e-01
<MEAN> 39
 -2.152605e+00 9.898783e-01 -2.256434e+00 -3.140663e+00 -1.300808e+00 -1.990246e+00 3.469295e+00 -2.553559e+00 -5.439181e+00 -1.437372e+00 -3.764907e+00 -1.752572e+00 5.827230e-01 1.901401e-01 8.962880e-02 -1.470894e-01 1.214853e-01 9.489758e-02 5.422217e-02 4.394406e-02 2.160919e-01 6.437570e-02 -1.858660e-01 3.506309e-02 -3.002211e-01 3.148121e-01 -1.587538e-01 -1.099625e-01 -8.653199e-02 1.525094e-01 6.056738e-02 -7.745159e-02 -3.903631e-02 1.508556e-01 4.619907e-02 -9.874661e-02 4.711173e-02 5.502103e-02 5.951402e-02
<VARIANCE> 39
 3.233229e+01 3.488194e+01 8.114197e+01 4.586870e+01 7.017606e+01 1.476166e+02 1.312844e+02 9.984000e+01 4.619351e+01 7.774854e+01 3.313210e+01 2.754179e+01 4.083392e+01 1.923139e+00 1.924168e+00 3.364636e+00 3.052993e+00 3.105496e+00 5.652763e+00 5.430400e+00 4.800013e+00 4.172725e+00 4.530451e+00 4.150974e+00 2.235681e+00 3.543789e+00 2.383929e-01 4.029290e-01 4.328491e-01 4.443381e-01 4.180939e-01 9.083517e-01 1.190343e+00 9.083419e-01 8.502955e-01 7.738807e-01 5.843576e-01 4.145778e-01 6.515960e-01
<GCONST> 1.334161e+02
<STATE> 3
<NUMMIXES> 2
<MIXTURE> 1 5.000000e-01
<MEAN> 39
 -5.117238e+00 -2.326826e+00 -3.745692e+00 -2.962121e+00 -2.151903e+00 -3.431406e-01 1.943972e+00 -2.906482e+00 -3.745716e+00 -8.161561e-01 -4.896261e+00 -4.197578e+00 1.553611e+00 -9.060119e-02 -5.290444e-01 -6.171931e-01 2.310070e-01 1.724732e-01 2.320395e-01 3.167099e-01 2.402255e-01 1.028573e-03 -3.973849e-01 -3.721750e-01 1.493467e-01 4.278024e-01 -1.376024e-01 -7.110056e-02 6.648736e-02 1.506379e-01 3.651544e-02 -1.501178e-01 7.557337e-02 -5.026952e-02 -1.050828e-01 -8.427820e-02 8.576079e-02 2.344865e-01 -6.110458e-02
<VARIANCE> 39
 4.149826e+01 3.463884e+01 5.840703e+01 4.461893e+01 6.677869e+01 5.429510e+01 7.764273e+01 4.604666e+01 6.077810e+01 5.222575e+01 3.919878e+01 3.059779e+01 3.156517e+01 2.467480e+00 3.170053e+00 3.435587e+00 2.461472e+00 3.039009e+00 5.472566e+00 3.751815e+00 4.005520e+00 4.618269e+00 4.720110e+00 4.878085e+00 3.193347e+00 4.267484e+00 3.620450e-01 4.417054e-01 5.726687e-01 5.479770e-01 5.035000e-01 7.566868e-01 8.347153e-01 7.302450e-01 1.040479e+00 6.785908e-01 8.976277e-01 7.313576e-01 6.613365e-01
<GCONST> 1.331527e+02
<MIXTURE> 2 5.000000e-01
<MEAN> 39
 -5.117238e+00 -2.326826e+00 -3.745692e+00 -2.962121e+00 -2.151903e+00 -3.431406e-01 1.943972e+00 -2.906482e+00 -3.745716e+00 -8.161561e-01 -4.896261e+00 -4.197578e+00 1.553611e+00 -9.060119e-02 -5.290444e-01 -6.171931e-01 2.310070e-01 1.724732e-01 2.320395e-01 3.167099e-01 2.402255e-01 1.028573e-03 -3.973849e-01 -3.721750e-01 1.493467e-01 4.278024e-01 -1.376024e-01 -7.110056e-02 6.648736e-02 1.506379e-01 3.651544e-02 -1.501178e-01 7.557337e-02 -5.026952e-02 -1.050828e-01 -8.427820e-02 8.576079e-02 2.344865e-01 -6.110458e-02
<VARIANCE> 39
 4.149826e+01 3.463884e+01 5.840703e+01 4.461893e+01 6.677869e+01 5.429510e+01 7.764273e+01 4.604666e+01 6.077810e+01 5.222575e+01 3.919878e+01 3.059779e+01 3.156517e+01 2.467480e+00 3.170053e+00 3.435587e+00 2.461472e+00 3.039009e+00 5.472566e+00 3.751815e+00 4.005520e+00 4.618269e+00 4.720110e+00 4.878085e+00 3.193347e+00 4.267484e+00 3.620450e-01 4.417054e-01 5.726687e-01 5.479770e-01 5.035000e-01 7.566868e-01 8.347153e-01 7.302450e-01 1.040479e+00 6.785908e-01 8.976277e-01 7.313576e-01 6.613365e-01
<GCONST> 1.331527e+02
<STATE> 4
<NUMMIXES> 2
<MIXTURE> 1 5.000000e-01
<MEAN> 39
 -2.166747e+00 -1.408247e+00 -1.179764e+01 1.781523e+00 3.970714e+00 -2.592644e+00 5.885264e-02 -2.313742e+00 -7.512043e-01 -6.266732e+00 -4.954225e+00 -1.674610e+00 1.697263e+00 -2.101564e-02 -2.625224e-01 -1.142578e-01 2.036153e-01 6.623797e-02 -1.266906e-01 1.621755e-01 2.753630e-01 -1.059596e-01 -2.047165e-01 -1.101376e-01 3.077627e-01 1.488235e-01 -2.233715e-02 9.668754e-02 1.849002e-01 1.560034e-02 -8.126822e-02 -8.344766e-02 3.941343e-02 -5.993117e-02 -2.260628e-01 7.419519e-02 1.378323e-01 3.687829e-02 -1.393103e-01
<VARIANCE> 39
 4.498515e+01 2.368572e+01 1.230434e+02 4.497878e+01 4.848391e+01 3.224788e+01 4.717446e+01 2.365994e+01 5.416196e+01 4.967639e+01 3.448479e+01 3.808004e+01 2.454687e+01 1.657788e+00 1.918602e+00 2.557366e+00 2.248940e+00 1.697951e+00 2.128038e+00 3.395381e+00 3.666266e+00 4.316562e+00 4.241491e+00 2.438012e+00 2.730982e+00 2.322041e+00 3.718643e-01 2.964121e-01 4.769185e-01 3.941873e-01 3.314392e-01 5.181878e-01 6.256967e-01 6.328002e-01 8.377116e-01 7.093943e-01 6.029365e-01 4.647234e-01 5.983810e-01
<GCONST> 1.234052e+02
<MIXTURE> 2 5.000000e-01
<MEAN> 39
 -2.166747e+00 -1.408247e+00 -1.179764e+01 1.781523e+00 3.970714e+00 -2.592644e+00 5.885264e-02 -2.313742e+00 -7.512043e-01 -6.266732e+00 -4.954225e+00 -1.674610e+00 1.697263e+00 -2.101564e-02 -2.625224e-01 -1.142578e-01 2.036153e-01 6.623797e-02 -1.266906e-01 1.621755e-01 2.753630e-01 -1.059596e-01 -2.047165e-01 -1.101376e-01 3.077627e-01 1.488235e-01 -2.233715e-02 9.668754e-02 1.849002e-01 1.560034e-02 -8.126822e-02 -8.344766e-02 3.941343e-02 -5.993117e-02 -2.260628e-01 7.419519e-02 1.378323e-01 3.687829e-02 -1.393103e-01
<VARIANCE> 39
 4.498515e+01 2.368572e+01 1.230434e+02 4.497878e+01 4.848391e+01 3.224788e+01 4.717446e+01 2.365994e+01 5.416196e+01 4.967639e+01 3.448479e+01 3.808004e+01 2.454687e+01 1.657788e+00 1.918602e+00 2.557366e+00 2.248940e+00 1.697951e+00 2.128038e+00 3.395381e+00 3.666266e+00 4.316562e+00 4.241491e+00 2.438012e+00 2.730982e+00 2.322041e+00 3.718643e-01 2.964121e-01 4.769185e-01 3.941873e-01 3.314392e-01 5.181878e-01 6.256967e-01 6.328002e-01 8.377116e-01 7.093943e-01 6.029365e-01 4.647234e-01 5.983810e-01
<GCONST> 1.234052e+02
<STATE> 5
<NUMMIXES> 2
<MIXTURE> 1 5.000000e-01
<MEAN> 39
 -3.510195e+00 -4.633462e+00 -8.601819e+00 1.186211e+00 1.451572e+00 -5.792993e+00 4.904248e+00 -8.306283e-01 -5.725891e+00 -7.230477e+00 -4.989738e+00 8.308042e-01 1.174291e+00 5.763248e-02 -2.245596e-01 1.196657e-01 2.869144e-01 -2.342576e-01 -2.563552e-01 6.030740e-01 1.512270e-01 -1.327656e+00 -2.109135e-01 5.053898e-01 2.021594e-01 -3.439265e-01 1.664482e-02 1.398716e-01 7.930472e-02 -1.048783e-01 -7.845333e-02 3.811326e-02 -2.685822e-02 -7.664890e-02 -9.255098e-04 2.702130e-01 1.196861e-01 -2.041743e-01 -1.246273e-01
<VARIANCE> 39
 2.042620e+01 2.746903e+01 8.578153e+01 3.653704e+01 7.077529e+01 5.699781e+01 5.418515e+01 2.288463e+01 5.828630e+01 7.950021e+01 3.052102e+01 3.075084e+01 2.431815e+01 1.353125e+00 1.759776e+00 2.259878e+00 1.379645e+00 2.278399e+00 1.839699e+00 2.964828e+00 2.071069e+00 3.511423e+00 3.110598e+00 2.508065e+00 1.820509e+00 1.614651e+00 1.881317e-01 2.921497e-01 2.544522e-01 2.204783e-01 2.959943e-01 3.595529e-01 4.474727e-01 3.963985e-01 5.054881e-01 4.870323e-01 4.610282e-01 2.871513e-01 2.816338e-01
<GCONST> 1.151582e+02
<MIXTURE> 2 5.000000e-01
<MEAN> 39
 -3.510195e+00 -4.633462e+00 -8.601819e+00 1.186211e+00 1.451572e+00 -5.792993e+00 4.904248e+00 -8.306283e-01 -5.725891e+00 -7.230477e+00 -4.989738e+00 8.308042e-01 1.174291e+00 5.763248e-02 -2.245596e-01 1.196657e-01 2.869144e-01 -2.342576e-01 -2.563552e-01 6.030740e-01 1.512270e-01 -1.327656e+00 -2.109135e-01 5.053898e-01 2.021594e-01 -3.439265e-01 1.664482e-02 1.398716e-01 7.930472e-02 -1.048783e-01 -7.845333e-02 3.811326e-02 -2.685822e-02 -7.664890e-02 -9.255098e-04 2.702130e-01 1.196861e-01 -2.041743e-01 -1.246273e-01
<VARIANCE> 39
 2.042620e+01 2.746903e+01 8.578153e+01 3.653704e+01 7.077529e+01 5.699781e+01 5.418515e+01 2.288463e+01 5.828630e+01 7.950021e+01 3.052102e+01 3.075084e+01 2.431815e+01 1.353125e+00 1.759776e+00 2.259878e+00 1.379645e+00 2.278399e+00 1.839699e+00 2.964828e+00 2.071069e+00 3.511423e+00 3.110598e+00 2.508065e+00 1.820509e+00 1.614651e+00 1.881317e-01 2.921497e-01 2.544522e-01 2.204783e-01 2.959943e-01 3.595529e-01 4.474727e-01 3.963985e-01 5.054881e-01 4.870323e-01 4.610282e-01 2.871513e-01 2.816338e-01
<GCONST> 1.151582e+02
<STATE> 6
<NUMMIXES> 2
<MIXTURE> 1 5.000000e-01
<MEAN> 39
 -2.317854e+00 -4.504576e+00 -4.423995e+00 -6.588634e-01 -4.359354e+00 -2.745121e+00 8.956989e+00 -1.885721e+00 -1.139476e+01 -9.153364e-01 -5.064936e+00 -2.785733e+00 1.243396e+00 4.913911e-02 1.812924e-01 3.591921e-01 -1.078788e-01 -1.734426e-01 -6.466786e-02 6.438955e-02 -2.943882e-02 -2.795858e-02 1.777824e-01 -1.775666e-02 -7.445423e-02 -8.404001e-02 -2.342983e-02 4.960367e-02 3.182689e-02 -3.964027e-02 4.449397e-02 -9.940438e-03 -1.311249e-01 -4.015713e-02 1.564954e-01 -4.792696e-02 -5.251772e-02 1.416268e-02 1.682370e-02
<VARIANCE> 39
 1.235564e+01 2.031322e+01 4.742855e+01 2.669527e+01 4.601560e+01 4.446813e+01 3.879841e+01 2.799062e+01 3.559261e+01 5.675180e+01 3.457210e+01 2.531735e+01 2.607141e+01 7.001060e-01 1.003944e+00 1.449846e+00 1.315878e+00 1.696192e+00 2.081309e+00 2.087885e+00 1.699391e+00 2.085571e+00 3.394433e+00 2.089881e+00 1.467827e+00 1.335710e+00 9.696370e-02 1.201235e-01 1.589741e-01 2.181945e-01 2.165368e-01 3.120497e-01 3.712409e-01 3.067797e-01 3.137473e-01 5.520669e-01 3.729616e-01 2.802244e-01 2.252463e-01
<GCONST> 1.046118e+02
<MIXTURE> 2 5.000000e-01
<MEAN> 39
 -2.317854e+00 -4.504576e+00 -4.423995e+00 -6.588634e-01 -4.359354e+00 -2.745121e+00 8.956989e+00 -1.885721e+00 -1.139476e+01 -9.153364e-01 -5.064936e+00 -2.785733e+00 1.243396e+00 4.913911e-02 1.812924e-01 3.591921e-01 -1.078788e-01 -1.734426e-01 -6.466786e-02 6.438955e-02 -2.943882e-02 -2.795858e-02 1.777824e-01 -1.775666e-02 -7.445423e-02 -8.404001e-02 -2.342983e-02 4.960367e-02 3.182689e-02 -3.964027e-02 4.449397e-02 -9.940438e-03 -1.311249e-01 -4.015713e-02 1.564954e-01 -4.792696e-02 -5.251772e-02 1.416268e-02 1.682370e-02
<VARIANCE> 39
 1.235564e+01 2.031322e+01 4.742855e+01 2.669527e+01 4.601560e+01 4.446813e+01 3.879841e+01 2.799062e+01 3.559261e+01 5.675180e+01 3.457210e+01 2.531735e+01 2.607141e+01 7.001060e-01 1.003944e+00 1.449846e+00 1.315878e+00 1.696192e+00 2.081309e+00 2.087885e+00 1.699391e+00 2.085571e+00 3.394433e+00 2.089881e+00 1.467827e+00 1.335710e+00 9.696370e-02 1.201235e-01 1.589741e-01 2.181945e-01 2.165368e-01 3.120497e-01 3.712409e-01 3.067797e-01 3.137473e-01 5.520669e-01 3.729616e-01 2.802244e-01 2.252463e-01
<GCONST> 1.046118e+02
<TRANSP> 7
 0.000000e+00 1.000000e+00 0.000000e+00 0.000000e+00 0.000000e+00 0.000000e+00 0.000000e+00
 0.000000e+00 6.597261e-01 3.402739e-01 0.000000e+00 0.000000e+00 0.000000e+00 0.000000e+00
 0.000000e+00 0.000000e+00 5.909181e-01 4.090819e-01 0.000000e+00 0.000000e+00 0.000000e+00
 0.000000e+00 0.000000e+00 0.000000e+00 7.151405e-01 2.848595e-01 0.000000e+00 0.000000e+00
 0.000000e+00 0.000000e+00 0.000000e+00 0.000000e+00 5.825735e-01 4.174265e-01 0.000000e+00
 0.000000e+00 0.000000e+00 0.000000e+00 0.000000e+00 0.000000e+00 8.394939e-01 1.605060e-01
 0.000000e+00 0.000000e+00 0.000000e+00 0.000000e+00 0.000000e+00 0.000000e+00 0.000000e+00
<ENDHMM>
~h "b"
<BEGINHMM>
<NUMSTATES> 5
<STATE> 2
<NUMMIXES> 2
<MIXTURE> 1 5.000000e-01
<MEAN> 39
 4.332582e+00 1.830464e+00 3.210072e+00 -6.277332e-02 -3.164467e+00 -9.078356e+00 -7.671937e+00 4.191826e+00 -4.110458e+00 -3.395053e+00 -2.486304e+00 -3.253011e+00 2.241395e+00 1.370325e+00 7.293511e-01 9.314762e-01 1.231840e+00 1.263289e+00 -1.691681e+00 -1.911249e+00 -5.282824e-02 -5.786626e-02 -4.694745e-01 -6.198977e-01 1.451172e+00 2.174107e-01 -2.269415e-01 2.334250e-01 6.307614e-02 -2.091486e-01 -2.353419e-01 2.085209e-01 -9.140466e-02 -3.863936e-01 2.607107e-01 9.426542e-02 -4.075904e-02 5.954875e-02 4.233656e-02
<VARIANCE> 39
 1.314815e+01 8.665308e+00 8.275860e+01 1.779045e+01 1.279598e+01 2.374701e+01 4.332211e+01 2.319114e+01 1.891112e+01 1.844691e+01 2.880867e+01 1.983661e+01 1.457838e+01 5.647702e-01 8.145987e-01 1.857972e+00 1.023813e+00 2.507967e+00 3.085326e+00 1.671647e+00 4.126230e+00 1.596802e+00 2.089219e+00 2.395995e+00 2.189724e+00 1.630047e+00 4.129185e-02 1.282561e-01 4.578353e-01 1.901429e-01 5.745790e-01 5.328788e-01 3.858898e-01 9.561080e-01 2.404493e-01 3.534418e-01 9.004360e-01 4.320690e-01 2.538012e-01
<GCONST> 1.037705e+02
<MIXTURE> 2 5.000000e-01
<MEAN> 39
 4.332582e+00 1.830464e+00 3.210072e+00 -6.277332e-02 -3.164467e+00 -9.078356e+00 -7.671937e+00 4.191826e+00 -4.110458e+00 -3.395053e+00 -2.486304e+00 -3.253011e+00 2.241395e+00 1.370325e+00 7.293511e-01 9.314762e-01 1.231840e+00 1.263289e+00 -1.691681e+00 -1.911249e+00 -5.282824e-02 -5.786626e-02 -4.694745e-01 -6.198977e-01 1.451172e+00 2.174107e-01 -2.269415e-01 2.334250e-01 6.307614e-02 -2.091486e-01 -2.353419e-01 2.085209e-01 -9.140466e-02 -3.863936e-01 2.607107e-01 9.426542e-02 -4.075904e-02 5.954875e-02 4.233656e-02
<VARIANCE> 39
 1.314815e+01 8.665308e+00 8.275860e+01 1.779045e+01 1.279598e+01 2.374701e+01 4.332211e+01 2.319114e+01 1.891112e+01 1.844691e+01 2.880867e+01 1.983661e+01 1.457838e+01 5.647702e-01 8.145987e-01 1.857972e+00 1.023813e+00 2.507967e+00 3.085326e+00 1.671647e+00 4.126230e+00 1.596802e+00 2.089219e+00 2.395995e+00 2.189724e+00 1.630047e+00 4.129185e-02 1.282561e-01 4.578353e-01 1.901429e-01 5.745790e-01 5.328788e-01 3.858898e-01 9.561080e-01 2.404493e-01 3.534418e-01 9.004360e-01 4.320690e-01 2.538012e-01
<GCONST> 1.037705e+02
<STATE> 3
<NUMMIXES> 2
<MIXTURE> 1 5.000000e-01
<MEAN> 39
 9.185166e+00 7.580171e+00 1.055503e+00 4.885299e+00 3.860939e+00 -1.810817e+01 -7.799706e+00 -2.255619e+00 -9.312437e-01 -3.278279e+00 -7.336154e+00 5.750335e-01 1.935286e+00 4.770398e-01 5.361732e-01 1.039539e-01 2.851128e-01 5.281049e-01 -3.534482e-01 -2.018550e-01 -3.926429e-01 2.395423e-01 4.565939e-01 -1.084021e-01 4.778059e-02 -3.865658e-01 -8.159312e-02 -4.561576e-02 -3.926851e-02 -5.500053e-02 -3.124330e-02 1.623596e-01 7.712521e-02 -2.240892e-02 -6.975795e-02 1.364259e-02 2.239093e-02 -2.784797e-02 -3.931216e-02
<VARIANCE> 39
 1.841380e+01 2.319450e+01 8.495601e+01 2.385405e+01 3.458434e+01 2.273796e+01 6.174516e+01 2.455606e+01 2.665994e+01 4.546677e+01 2.192267e+01 1.260839e+01 2.458468e+01 2.190118e-01 3.281771e-01 1.348610e+00 1.006020e+00 9.578727e-01 1.572873e+00 1.389686e+00 1.378155e+00 3.353716e+00 1.615392e+00 1.415204e+00 1.205525e+00 1.034543e+00 4.219811e-02 6.949957e-02 1.554583e-01 1.867557e-01 1.587109e-01 2.994856e-01 2.379559e-01 2.784818e-01 6.251032e-01 3.466537e-01 2.377273e-01 2.723161e-01 1.527964e-01
<GCONST> 9.497669e+01
<MIXTURE> 2 5.000000e-01
<MEAN> 39
 9.185166e+00 7.580171e+00 1.055503e+00 4.885299e+00 3.860939e+00 -1.810817e+01 -7.799706e+00 -2.255619e+00 -9.312437e-01 -3.278279e+00 -7.336154e+00 5.750335e-01 1.935286e+00 4.770398e-01 5.361732e-01 1.039539e-01 2.851128e-01 5.281049e-01 -3.534482e-01 -2.018550e-01 -3.926429e-01 2.395423e-01 4.565939e-01 -1.084021e-01 4.778059e-02 -3.865658e-01 -8.159312e-02 -4.561576e-02 -3.926851e-02 -5.500053e-02 -3.124330e-02 1.623596e-01 7.712521e-02 -2.240892e-02 -6.975795e-02 1.364259e-02 2.239093e-02 -2.784797e-02 -3.931216e-02
<VARIANCE> 39
 1.841380e+01 2.319450e+01 8.495601e+01 2.385405e+01 3.458434e+01 2.273796e+01 6.174516e+01 2.455606e+01 2.665994e+01 4.546677e+01 2.192267e+01 1.260839e+01 2.458468e+01 2.190118e-01 3.281771e-01 1.348610e+00 1.006020e+00 9.578727e-01 1.572873e+00 1.389686e+00 1.378155e+00 3.353716e+00 1.615392e+00 1.415204e+00 1.205525e+00 1.034543e+00 4.219811e-02 6.949957e-02 1.554583e-01 1.867557e-01 1.587109e-01 2.994856e-01 2.379559e-01 2.784818e-01 6.251032e-01 3.466537e-01 2.377273e-01 2.723161e-01 1.527964e-01
<GCONST> 9.497669e+01
<STATE> 4
<NUMMIXES> 2
<MIXTURE> 1 5.000000e-01
<MEAN> 39
 3.836329e+00 4.290908e+00 -5.735804e+00 3.036587e+00 1.030769e+00 -1.033312e+01 -4.717738e+00 -4.862290e+00 3.632194e+00 -3.258491e+00 -6.481319e+00 -6.768282e-01 9.202307e-01 -1.156643e+00 -1.135611e+00 -1.569438e+00 -9.021859e-01 -6.449467e-01 1.268004e+00 9.975724e-01 -3.561545e-02 6.924505e-01 -7.118809e-01 2.076196e-01 -2.734572e-01 5.914192e-01 8.491536e-02 -1.676098e-02 -1.712128e-01 -5.280971e-02 1.823136e-01 -1.484374e-01 4.386360e-02 6.334618e-02 1.298971e-01 -7.903883e-02 -7.745276e-02 -2.289668e-02 -3.452413e-03
<VARIANCE> 39
 3.858910e+01 4.448907e+01 1.250634e+02 2.976044e+01 6.496461e+01 4.201939e+01 4.886754e+01 3.246674e+01 3.902364e+01 6.619879e+01 3.478252e+01 1.848675e+01 1.764057e+01 3.500522e+00 2.775525e+00 6.122353e+00 2.693907e+00 6.085885e+00 3.557640e+00 2.437422e+00 3.477069e+00 4.028071e+00 4.114875e+00 2.021155e+00 1.425837e+00 9.570928e-01 7.507574e-01 6.673132e-01 9.284451e-01 4.152368e-01 1.173108e+00 7.045876e-01 3.989390e-01 6.135855e-01 6.588477e-01 7.052013e-01 3.860057e-01 2.458117e-01 2.201065e-01
<GCONST> 1.260558e+02
<MIXTURE> 2 5.000000e-01
<MEAN> 39
 3.836329e+00 4.290908e+00 -5.735804e+00 3.036587e+00 1.030769e+00 -1.033312e+01 -4.717738e+00 -4.862290e+00 3.632194e+00 -3.258491e+00 -6.481319e+00 -6.768282e-01 9.202307e-01 -1.156643e+00 -1.135611e+00 -1.569438e+00 -9.021859e-01 -6.449467e-01 1.268004e+00 9.975724e-01 -3.561545e-02 6.924505e-01 -7.118809e-01 2.076196e-01 -2.734572e-01 5.914192e-01 8.491536e-02 -1.676098e-02 -1.712128e-01 -5.280971e-02 1.823136e-01 -1.484374e-01 4.386360e-02 6.334618e-02 1.298971e-01 -7.903883e-02 -7.745276e-02 -2.289668e-02 -3.452413e-03
<VARIANCE> 39
 3.858910e+01 4.448907e+01 1.250634e+02 2.976044e+01 6.496461e+01 4.201939e+01 4.886754e+01 3.246674e+01 3.902364e+01 6.619879e+01 3.478252e+01 1.848675e+01 1.764057e+01 3.500522e+00 2.775525e+00 6.122353e+00 2.693907e+00 6.085885e+00 3.557640e+00 2.437422e+00 3.477069e+00 4.028071e+00 4.114875e+00 2.021155e+00 1.425837e+00 9.570928e-01 7.507574e-01 6.673132e-01 9.284451e-01 4.152368e-01 1.173108e+00 7.045876e-01 3.989390e-01 6.135855e-01 6.588477e-01 7.052013e-01 3.860057e-01 2.458117e-01 2.201065e-01
<GCONST> 1.260558e+02
<TRANSP> 5
 0.000000e+00 1.000000e+00 0.000000e+00 0.000000e+00 0.000000e+00
 0.000000e+00 7.187681e-01 2.812319e-01 0.000000e+00 0.000000e+00
 0.000000e+00 0.000000e+00 9.291087e-01 7.089136e-02 0.000000e+00
 0.000000e+00 0.000000e+00 0.000000e+00 8.861475e-01 1.138525e-01
 0.000000e+00 0.000000e+00 0.000000e+00 0.000000e+00 0.000000e+00
<ENDHMM>
~h "c"
<BEGINHMM>
<NUMSTATES> 5
<STATE> 2
<NUMMIXES> 2
<MIXTURE> 1 5.000000e-01
<MEAN> 39
 -1.027518e+01 1.485945e+00 -6.938460e-01 7.529607e-01 -2.971799e+00 3.889398e-01 2.062014e+00 -4.723817e+00 -1.981492e+00 -4.036119e+00 -2.686059e+00 -3.318892e+00 2.650388e+00 -1.948645e+00 -4.402475e-01 -1.055432e+00 -4.293660e-01 1.054077e-01 -4.967395e-01 -4.654254e-01 1.036426e-02 7.851357e-01 -4.368840e-01 7.018159e-01 -2.566432e-01 9.608581e-02 -8.428567e-03 1.398872e-02 3.807083e-02 -7.782388e-02 -6.845947e-02 -4.912420e-02 -1.102016e-01 -1.650230e-02 9.993866e-03 1.444642e-01 6.433091e-02 1.375259e-01 6.025993e-03
<VARIANCE> 39
 7.130668e+01 3.717112e+01 3.645188e+01 1.928429e+01 2.029035e+01 2.048886e+01 3.806642e+01 2.512416e+01 1.886488e+01 1.852371e+01 2.775371e+01 3.101314e+01 2.143598e+01 3.449631e+00 2.992489e+00 3.491684e+00 2.845442e+00 2.141273e+00 2.679907e+00 3.827254e+00 3.150918e+00 2.413239e+00 2.739637e+00 3.576561e+00 4.061794e+00 2.899900e+00 7.517275e-01 5.843059e-01 6.459789e-01 5.629650e-01 4.196454e-01 5.484793e-01 3.650434e-01 6.865457e-01 3.783402e-01 4.843217e-01 6.897031e-01 7.850699e-01 5.072309e-01
<GCONST> 1.215082e+02
<MIXTURE> 2 5.000000e-01
<MEAN> 39
 -1.027518e+01 1.485945e+00 -6.938460e-01 7.529607e-01 -2.971799e+00 3.889398e-01 2.062014e+00 -4.723817e+00 -1.981492e+00 -4.036119e+00 -2.686059e+00 -3.318892e+00 2.650388e+00 -1.948645e+00 -4.402475e-01 -1.055432e+00 -4.293660e-01 1.054077e-01 -4.967395e-01 -4.654254e-01 1.036426e-02 7.851357e-01 -4.368840e-01 7.018159e-01 -2.566432e-01 9.608581e-02 -8.428567e-03 1.398872e-02 3.807083e-02 -7.782388e-02 -6.845947e-02 -4.912420e-02 -1.102016e-01 -1.650230e-02 9.993866e-03 1.444642e-01 6.433091e-02 1.375259e-01 6.025993e-03
<VARIANCE> 39
 7.130668e+01 3.717112e+01 3.645188e+01 1.928429e+01 2.029035e+01 2.048886e+01 3.806642e+01 2.512416e+01 1.886488e+01 1.852371e+01 2.775371e+01 3.101314e+01 2.143598e+01 3.449631e+00 2.992489e+00 3.491684e+00 2.845442e+00 2.141273e+00 2.679907e+00 3.827254e+00 3.150918e+00 2.413239e+00 2.739637e+00 3.576561e+00 4.061794e+00 2.899900e+00 7.517275e-01 5.843059e-01 6.459789e-01 5.629650e-01 4.196454e-01 5.484793e-01 3.650434e-01 6.865457e-01 3.783402e-01 4.843217e-01 6.897031e-01 7.850699e-01 5.072309e-01
<GCONST> 1.215082e+02
<STATE> 3
<NUMMIXES> 2
<MIXTURE> 1 5.000000e-01
<MEAN> 39
 -2.063820e+01 1.319344e+00 -5.061262e+00 -4.612359e+00 -3.129196e+00 -1.195465e+00 -2.653481e+00 -3.977636e+00 2.682675e+00 -2.290329e+00 -1.101449e+00 -1.603058e-01 1.109178e+00 6.266302e-01 4.840165e-01 5.467445e-01 -2.883292e-01 -1.621156e-01 3.043974e-01 -1.890042e-01 5.470778e-02 5.898333e-02 4.065586e-01 -8.266934e-01 1.769851e-01 -3.453319e-01 3.657106e-01 6.120249e-02 1.933020e-01 -3.491703e-03 -7.846898e-02 6.949963e-02 5.410105e-02 1.870083e-02 -1.690736e-01 2.640099e-02 -1.622166e-01 -1.362386e-01 -9.203913e-02
<VARIANCE> 39
 1.955669e+01 2.469171e+01 1.825445e+01 1.643731e+01 1.946571e+01 2.396910e+01 1.811216e+01 2.082019e+01 2.266846e+01 2.347129e+01 3.240374e+01 2.013628e+01 1.633309e+01 2.024826e+00 1.549165e+00 2.115585e+00 2.089089e+00 2.232321e+00 2.932625e+00 2.112280e+00 2.291341e+00 2.659936e+00 2.763525e+00 3.034694e+00 2.959036e+00 1.497625e+00 2.216087e-01 2.845380e-01 3.278234e-01 5.598082e-01 4.919676e-01 6.838550e-01 5.504699e-01 4.915632e-01 5.455223e-01 5.962254e-01 6.799173e-01 5.716005e-01 3.148717e-01
<GCONST> 1.117888e+02
<MIXTURE> 2 5.000000e-01
<MEAN> 39
 -2.063820e+01 1.319344e+00 -5.061262e+00 -4.612359e+00 -3.129196e+00 -1.195465e+00 -2.653481e+00 -3.977636e+00 2.682675e+00 -2.290329e+00 -1.101449e+00 -1.603058e-01 1.109178e+00 6.266302e-01 4.840165e-01 5.467445e-01 -2.883292e-01 -1.621156e-01 3.043974e-01 -1.890042e-01 5.470778e-02 5.898333e-02 4.065586e-01 -8.266934e-01 1.769851e-01 -3.453319e-01 3.657106e-01 6.120249e-02 1.933020e-01 -3.491703e-03 -7.846898e-02 6.949963e-02 5.410105e-02 1.870083e-02 -1.690736e-01 2.640099e-02 -1.622166e-01 -1.362386e-01 -9.203913e-02
<VARIANCE> 39
 1.955669e+01 2.469171e+01 1.825445e+01 1.643731e+01 1.946571e+01 2.396910e+01 1.811216e+01 2.082019e+01 2.266846e+01 2.347129e+01 3.240374e+01 2.013628e+01 1.633309e+01 2.024826e+00 1.549165e+00 2.115585e+00 2.089089e+00 2.232321e+00 2.932625e+00 2.112280e+00 2.291341e+00 2.659936e+00 2.763525e+00 3.034694e+00 2.959036e+00 1.497625e+00 2.216087e-01 2.845380e-01 3.278234e-01 5.598082e-01 4.919676e-01 6.838550e-01 5.504699e-01 4.915632e-01 5.455223e-01 5.962254e-01 6.799173e-01 5.716005e-01 3.148717e-01
<GCONST> 1.117888e+02
<STATE> 4
<NUMMIXES> 2
<MIXTURE> 1 5.000000e-01
<MEAN> 39
 -4.950860e+00 4.886298e+00 3.232137e+00 -9.056321e+00 -8.178563e+00 1.175038e+00 -3.418291e+00 -3.628430e+00 2.457692e-01 2.042370e+00 -9.189225e+00 -1.833526e+00 -4.051847e+00 1.780031e+00 -5.188578e-01 4.207427e-01 -1.213810e+00 -1.434388e+00 -4.666041e-01 2.399381e-01 1.387840e-01 -3.688482e-01 2.459841e-01 1.173345e-01 -1.615739e-01 -7.535807e-02 -7.851644e-01 -3.486919e-01 -4.964207e-01 7.147013e-02 9.583940e-02 -1.703586e-01 9.126472e-02 1.761692e-01 3.109374e-01 -3.492417e-01 4.036373e-01 2.127376e-01 3.849018e-01
<VARIANCE> 39
 1.949399e+01 2.365102e+01 1.877532e+01 2.517512e+01 1.709723e+01 1.940327e+01 4.149102e+01 1.680881e+01 1.854993e+01 1.892390e+01 1.473651e+01 1.640362e+01 1.325965e+01 4.940248e+00 1.856076e+00 2.427822e+00 2.134121e+00 1.783847e+00 2.559513e+00 3.443713e+00 2.680332e+00 2.288701e+00 4.605490e+00 2.150393e+00 1.576805e+00 2.344963e+00 4.189357e-01 3.995354e-01 2.544982e-01 3.658940e-01 2.909031e-01 5.173584e-01 5.096596e-01 3.605678e-01 2.496229e-01 5.576609e-01 4.908338e-01 2.547999e-01 2.768842e-01
<GCONST> 1.092007e+02
<MIXTURE> 2 5.000000e-01
<MEAN> 39
 -4.950860e+00 4.886298e+00 3.232137e+00 -9.056321e+00 -8.178563e+00 1.175038e+00 -3.418291e+00 -3.628430e+00 2.457692e-01 2.042370e+00 -9.189225e+00 -1.833526e+00 -4.051847e+00 1.780031e+00 -5.188578e-01 4.207427e-01 -1.213810e+00 -1.434388e+00 -4.666041e-01 2.399381e-01 1.387840e-01 -3.688482e-01 2.459841e-01 1.173345e-01 -1.615739e-01 -7.535807e-02 -7.851644e-01 -3.486919e-01 -4.964207e-01 7.147013e-02 9.583940e-02 -1.703586e-01 9.126472e-02 1.761692e-01 3.109374e-01 -3.492417e-01 4.036373e-01 2.127376e-01 3.849018e-01
<VARIANCE> 39
 1.949399e+01 2.365102e+01 1.877532e+01 2.517512e+01 1.709723e+01 1.940327e+01 4.149102e+01 1.680881e+01 1.854993e+01 1.892390e+01 1.473651e+01 1.640362e+01 1.325965e+01 4.940248e+00 1.856076e+00 2.427822e+00 2.134121e+00 1.783847e+00 2.559513e+00 3.443713e+00 2.680332e+00 2.288701e+00 4.605490e+00 2.150393e+00 1.576805e+00 2.344963e+00 4.189357e-01 3.995354e-01 2.544982e-01 3.658940e-01 2.909031e-01 5.173584e-01 5.096596e-01 3.605678e-01 2.496229e-01 5.576609e-01 4.908338e-01 2.547999e-01 2.768842e-01
<GCONST> 1.092007e+02
<TRANSP> 5
 0.000000e+00 1.000000e+00 0.000000e+00 0.000000e+00 0.000000e+00
 0.000000e+00 8.863019e-01 1.136981e-01 0.000000e+00 0.000000e+00
 0.000000e+00 0.000000e+00 9.218407e-01 7.815932e-02 0.000000e+00
 0.000000e+00 0.000000e+00 0.000000e+00 7.810255e-01 2.189745e-01
 0.000000e+00 0.000000e+00 0.000000e+00 0.000000e+00 0.000000e+00
<ENDHMM>
~h "d"
<BEGINHMM>
<NUMSTATES> 5
<STATE> 2
<NUMMIXES> 2
<MIXTURE> 1 5.000000e-01
<MEAN> 39
 3.866588e+00 1.181668e+01 4.544950e+00 -4.547478e+00 5.028258e+00 -1.837939e+01 -4.937274e-01 -9.436185e+00 -9.591449e+00 1.191318e+01 -4.979637e+00 -3.910014e-01 -4.106565e+00 5.941222e-01 3.173997e-01 1.853805e-01 1.842114e-01 -2.494280e-01 -3.498994e-01 3.602899e-03 1.000463e-02 -1.172445e-01 3.228894e-01 8.511574e-02 2.153326e-01 3.070557e-01 -7.550951e-02 -6.749191e-02 -1.564856e-02 6.468431e-02 -1.671368e-01 1.638077e-01 -7.744423e-02 1.249836e-01 2.700621e-01 -1.983056e-01 7.493781e-02 -2.388913e-02 -1.965843e-02
<VARIANCE> 39
 2.688074e+01 1.551052e+01 4.790900e+00 1.851740e+01 3.360733e+01 2.448294e+01 1.394880e+01 2.164304e+01 1.555521e+01 3.179598e+01 1.527041e+01 2.679689e+01 1.472157e+01 1.150272e+00 1.053360e+00 5.158479e-01 1.574638e+00 2.137632e+00 2.129194e+00 1.728361e+00 1.563021e+00 2.465000e+00 2.348104e+00 1.476353e+00 1.240666e+00 8.884779e-01 2.913574e-01 2.125092e-01 1.115683e-01 1.854692e-01 3.452833e-01 4.291349e-01 3.324564e-01 2.875434e-01 6.751434e-01 5.668520e-01 2.385655e-01 1.995574e-01 1.589021e-01
<GCONST> 9.749998e+01
<MIXTURE> 2 5.000000e-01
<MEAN> 39
 3.866588e+00 1.181668e+01 4.544950e+00 -4.547478e+00 5.028258e+00 -1.837939e+01 -4.937274e-01 -9.436185e+00 -9.591449e+00 1.191318e+01 -4.979637e+00 -3.910014e-01 -4.106565e+00 5.941222e-01 3.173997e-01 1.853805e-01 1.842114e-01 -2.494280e-01 -3.498994e-01 3.602899e-03 1.000463e-02 -1.172445e-01 3.228894e-01 8.511574e-02 2.153326e-01 3.070557e-01 -7.550951e-02 -6.749191e-02 -1.564856e-02 6.468431e-02 -1.671368e-01 1.638077e-01 -7.744423e-02 1.249836e-01 2.700621e-01 -1.983056e-01 7.493781e-02 -2.388913e-02 -1.965843e-02
<VARIANCE> 39
 2.688074e+01 1.551052e+01 4.790900e+00 1.851740e+01 3.360733e+01 2.448294e+01 1.394880e+01 2.164304e+01 1.555521e+01 3.179598e+01 1.527041e+01 2.679689e+01 1.472157e+01 1.150272e+00 1.053360e+00 5.158479e-01 1.574638e+00 2.137632e+00 2.129194e+00 1.728361e+00 1.563021e+00 2.465000e+00 2.348104e+00 1.476353e+00 1.240666e+00 8.884779e-01 2.913574e-01 2.125092e-01 1.115683e-01 1.854692e-01 3.452833e-01 4.291349e-01 3.324564e-01 2.875434e-01 6.751434e-01 5.668520e-01 2.385655e-01 1.995574e-01 1.589021e-01
<GCONST> 9.749998e+01
<STATE> 3
<NUMMIXES> 2
<MIXTURE> 1 5.000000e-01
<MEAN> 39
 3.379546e+00 6.776596e+00 3.727864e+00 -2.973049e+00 -8.362369e+00 -8.322829e+00 3.097715e+00 -1.579980e+00 -5.746544e+00 3.757404e+00 -6.407186e+00 -4.671220e+00 1.248280e+00 -3.246520e-03 1.207961e-01 3.013781e-01 2.967334e-01 -4.333369e-01 3.769033e-01 -2.101677e-03 2.082431e-01 1.323386e-01 -4.443563e-01 1.600901e-01 -7.903473e-02 2.131308e-01 -1.541182e-02 4.369751e-02 3.270058e-02 5.246584e-02 1.463875e-01 -5.078822e-03 -4.245654e-02 -1.227632e-01 -1.438750e-01 6.812572e-02 6.269585e-03 9.328439e-02 -5.658014e-03
<VARIANCE> 39
 5.868131e+01 9.265412e+01 2.881070e+01 4.373556e+01 5.073719e+01 7.001977e+01 3.394447e+01 1.934223e+01 2.456646e+01 2.571548e+01 3.050962e+01 2.802578e+01 1.180779e+01 5.616181e-01 7.009480e-01 6.753303e-01 8.791030e-01 1.684449e+00 2.356455e+00 2.069673e+00 9.270350e-01 2.469362e+00 3.301039e+00 1.588653e+00 1.730012e+00 1.346586e+00 7.590669e-02 5.806841e-02 8.119095e-02 1.625486e-01 2.622674e-01 3.190815e-01 3.826815e-01 1.358541e-01 3.185765e-01 5.588412e-01 3.025467e-01 2.999515e-01 2.483817e-01
<GCONST> 1.010235e+02
<MIXTURE> 2 5.000000e-01
<MEAN> 39
 3.379546e+00 6.776596e+00 3.727864e+00 -2.973049e+00 -8.362369e+00 -8.322829e+00 3.097715e+00 -1.579980e+00 -5.746544e+00 3.757404e+00 -6.407186e+00 -4.671220e+00 1.248280e+00 -3.246520e-03 1.207961e-01 3.013781e-01 2.967334e-01 -4.333369e-01 3.769033e-01 -2.101677e-03 2.082431e-01 1.323386e-01 -4.443563e-01 1.600901e-01 -7.903473e-02 2.131308e-01 -1.541182e-02 4.369751e-02 3.270058e-02 5.246584e-02 1.463875e-01 -5.078822e-03 -4.245654e-02 -1.227632e-01 -1.438750e-01 6.812572e-02 6.269585e-03 9.328439e-02 -5.658014e-03
<VARIANCE> 39
 5.868131e+01 9.265412e+01 2.881070e+01 4.373556e+01 5.073719e+01 7.001977e+01 3.394447e+01 1.934223e+01 2.456646e+01 2.571548e+01 3.050962e+01 2.802578e+01 1.180779e+01 5.616181e-01 7.009480e-01 6.753303e-01 8.791030e-01 1.684449e+00 2.356455e+00 2.069673e+00 9.270350e-01 2.469362e+00 3.301039e+00 1.588653e+00 1.730012e+00 1.346586e+00 7.590669e-02 5.806841e-02 8.119095e-02 1.625486e-01 2.622674e-01 3.190815e-01 3.826815e-01 1.358541e-01 3.185765e-01 5.588412e-01 3.025467e-01 2.999515e-01 2.483817e-01
<GCONST> 1.010235e+02
<STATE> 4
<NUMMIXES> 2
<MIXTURE> 1 5.000000e-01
<MEAN> 39
 5.196165e-02 7.288312e+00 7.451442e+00 2.167510e+00 -8.407631e+00 -3.481593e+00 -2.221753e+00 -4.562313e+00 -8.391878e+00 9.719976e-01 -3.707256e+00 -1.452613e+00 3.093671e+00 -1.120174e+00 -7.902798e-01 -6.607599e-01 -3.554736e-01 6.965770e-02 7.971449e-01 -1.222171e-01 5.424197e-02 3.855737e-01 -2.659149e-02 5.730129e-01 -9.455559e-02 -2.858041e-01 9.227799e-02 -6.179414e-02 -1.232607e-01 -1.750106e-01 -1.257044e-01 -2.837188e-01 -3.608146e-02 2.876517e-01 1.265322e-01 2.393940e-01 -1.342351e-01 -1.447799e-01 -5.215987e-02
<VARIANCE> 39
 8.800299e+01 5.070206e+01 5.804658e+01 2.657484e+01 5.696003e+01 4.659949e+01 2.276521e+01 3.025691e+01 5.149910e+01 3.266969e+01 5.400887e+01 1.649389e+01 4.096935e+01 1.089741e+01 5.598929e+00 4.443126e+00 3.989306e+00 4.714035e+00 8.404628e+00 4.187727e+00 3.523591e+00 2.946854e+00 3.652361e+00 3.823610e+00 2.371468e+00 3.005062e+00 2.036396e+00 1.079777e+00 8.378239e-01 7.330039e-01 9.283513e-01 1.335819e+00 9.390816e-01 3.210821e-01 7.177771e-01 6.670499e-01 8.316682e-01 4.064092e-01 6.425065e-01
<GCONST> 1.358649e+02
<MIXTURE> 2 5.000000e-01
<MEAN> 39
 5.196165e-02 7.288312e+00 7.451442e+00 2.167510e+00 -8.407631e+00 -3.481593e+00 -2.221753e+00 -4.562313e+00 -8.391878e+00 9.719976e-01 -3.707256e+00 -1.452613e+00 3.093671e+00 -1.120174e+00 -7.902798e-01 -6.607599e-01 -3.554736e-01 6.965770e-02 7.971449e-01 -1.222171e-01 5.424197e-02 3.855737e-01 -2.659149e-02 5.730129e-01 -9.455559e-02 -2.858041e-01 9.227799e-02 -6.179414e-02 -1.232607e-01 -1.750106e-01 -1.257044e-01 -2.837188e-01 -3.608146e-02 2.876517e-01 1.265322e-01 2.393940e-01 -1.342351e-01 -1.447799e-01 -5.215987e-02
<VARIANCE> 39
 8.800299e+01 5.070206e+01 5.804658e+01 2.657484e+01 5.696003e+01 4.659949e+01 2.276521e+01 3.025691e+01 5.149910e+01 3.266969e+01 5.400887e+01 1.649389e+01 4.096935e+01 1.089741e+01 5.598929e+00 4.443126e+00 3.989306e+00 4.714035e+00 8.404628e+00 4.187727e+00 3.523591e+00 2.946854e+00 3.652361e+00 3.823610e+00 2.371468e+00 3.005062e+00 2.036396e+00 1.079777e+00 8.378239e-01 7.330039e-01 9.283513e-01 1.335819e+00 9.390816e-01 3.210821e-01 7.177771e-01 6.670499e-01 8.316682e-01 4.064092e-01 6.425065e-01
<GCONST> 1.358649e+02
<TRANSP> 5
 0.000000e+00 1.000000e+00 0.000000e+00 0.000000e+00 0.000000e+00
 0.000000e+00 9.030973e-01 9.690271e-02 0.000000e+00 0.000000e+00
 0.000000e+00 0.000000e+00 9.300785e-01 6.992143e-02 0.000000e+00
 0.000000e+00 0.000000e+00 0.000000e+00 9.002493e-01 9.975073e-02
 0.000000e+00 0.000000e+00 0.000000e+00 0.000000e+00 0.000000e+00
<ENDHMM>
~h "g"
<BEGINHMM>
<NUMSTATES> 5
<STATE> 2
<NUMMIXES> 2
<MIXTURE> 1 5.000000e-01
<MEAN> 39
 4.816003e+00 -3.000596e+00 1.575476e+00 -2.723002e+00 -7.252785e+00 -5.908680e+00 3.587480e-01 3.706604e+00 -1.297716e+01 2.924916e+00 9.645641e-01 -4.684213e+00 1.109612e+00 1.009160e+00 1.225737e+00 1.228147e+00 4.335209e-01 -4.495157e-02 -1.205450e+00 -1.158826e+00 -9.210027e-01 2.532409e-01 9.119303e-01 1.711737e-01 3.317833e-01 2.398003e-01 -6.343315e-02 -2.216907e-02 -1.716700e-01 3.994973e-02 2.390366e-01 3.032721e-02 5.740305e-02 -1.045659e-01 -7.468598e-02 -1.516790e-01 -4.833325e-02 6.206846e-02 5.175380e-02
<VARIANCE> 39
 1.319441e+01 2.196556e+01 2.098009e+01 1.949026e+01 2.025220e+01 4.900070e+01 3.093744e+01 4.323169e+01 1.509806e+01 1.769238e+01 1.319271e+01 2.150744e+01 1.727320e+01 2.460743e-01 8.795920e-01 7.474276e-01 1.706070e+00 1.607281e+00 1.096536e+00 2.209239e+00 2.453339e+00 1.862187e+00 1.702689e+00 8.420124e-01 1.518724e+00 1.256561e+00 4.952487e-02 2.019598e-01 2.160943e-01 4.850194e-01 2.511236e-01 2.808950e-01 4.316027e-01 5.757467e-01 4.132782e-01 2.099963e-01 1.730217e-01 3.316566e-01 2.837054e-01
<GCONST> 9.667463e+01
<MIXTURE> 2 5.000000e-01
<MEAN> 39
 4.816003e+00 -3.000596e+00 1.575476e+00 -2.723002e+00 -7.252785e+00 -5.908680e+00 3.587480e-01 3.706604e+00 -1.297716e+01 2.924916e+00 9.645641e-01 -4.684213e+00 1.109612e+00 1.009160e+00 1.225737e+00 1.228147e+00 4.335209e-01 -4.495157e-02 -1.205450e+00 -1.158826e+00 -9.210027e-01 2.532409e-01 9.119303e-01 1.711737e-01 3.317833e-01 2.398003e-01 -6.343315e-02 -2.216907e-02 -1.716700e-01 3.994973e-02 2.390366e-01 3.032721e-02 5.740305e-02 -1.045659e-01 -7.468598e-02 -1.516790e-01 -4.833325e-02 6.206846e-02 5.175380e-02
<VARIANCE> 39
 1.319441e+01 2.196556e+01 2.098009e+01 1.949026e+01 2.025220e+01 4.900070e+01 3.093744e+01 4.323169e+01 1.509806e+01 1.769238e+01 1.319271e+01 2.150744e+01 1.727320e+01 2.460743e-01 8.795920e-01 7.474276e-01 1.706070e+00 1.607281e+00 1.096536e+00 2.209239e+00 2.453339e+00 1.862187e+00 1.702689e+00 8.420124e-01 1.518724e+00 1.256561e+00 4.952487e-02 2.019598e-01 2.160943e-01 4.850194e-01 2.511236e-01 2.808950e-01 4.316027e-01 5.757467e-01 4.132782e-01 2.099963e-01 1.730217e-01 3.316566e-01 2.837054e-01
<GCONST> 9.667463e+01
<STATE> 3
<NUMMIXES> 2
<MIXTURE> 1 5.000000e-01
<MEAN> 39
 3.642330e+00 1.402966e+00 3.676446e+00 -4.062821e+00 -6.963884e+00 -7.649284e+00 -1.994544e+00 5.024905e-01 -8.373173e+00 3.340970e+00 2.376161e-01 -4.755205e+00 5.645213e-01 -4.407887e-01 4.705827e-01 -4.388720e-01 -1.524499e-01 3.636386e-01 -4.829350e-01 -1.336801e-01 6.409903e-01 2.246750e-01 -3.661403e-01 3.684635e-01 -1.599602e-01 -2.755118e-01 -8.906908e-02 -2.638073e-02 -6.652312e-02 6.545177e-02 5.375190e-03 -2.700580e-02 -1.079594e-04 8.325933e-02 -5.163615e-02 -8.272849e-02 8.799682e-02 -1.679569e-02 2.440527e-02
<VARIANCE> 39
 2.343580e+01 3.251012e+01 1.941972e+01 3.119390e+01 3.272461e+01 4.448907e+01 3.445382e+01 5.506256e+01 1.102710e+01 2.619117e+01 1.960162e+01 1.853034e+01 9.244080e+00 1.550633e+00 3.800833e+00 9.555193e-01 4.470801e+00 4.902442e+00 6.061831e+00 2.909805e+00 2.793821e+00 1.221294e+00 2.547322e+00 2.656250e+00 2.299615e+00 4.938652e-01 3.337893e-01 7.223231e-01 2.159865e-01 9.501747e-01 9.957922e-01 8.197578e-01 6.180404e-01 4.763308e-01 2.816909e-01 7.373448e-01 4.580604e-01 4.192095e-01 9.323774e-02
<GCONST> 1.142617e+02
<MIXTURE> 2 5.000000e-01
<MEAN> 39
 3.642330e+00 1.402966e+00 3.676446e+00 -4.062821e+00 -6.963884e+00 -7.649284e+00 -1.994544e+00 5.024905e-01 -8.373173e+00 3.340970e+00 2.376161e-01 -4.755205e+00 5.645213e-01 -4.407887e-01 4.705827e-01 -4.388720e-01 -1.524499e-01 3.636386e-01 -4.829350e-01 -1.336801e-01 6.409903e-01 2.246750e-01 -3.661403e-01 3.684635e-01 -1.599602e-01 -2.755118e-01 -8.906908e-02 -2.638073e-02 -6.652312e-02 6.545177e-02 5.375190e-03 -2.700580e-02 -1.079594e-04 8.325933e-02 -5.163615e-02 -8.272849e-02 8.799682e-02 -1.679569e-02 2.440527e-02
<VARIANCE> 39
 2.343580e+01 3.251012e+01 1.941972e+01 3.119390e+01 3.272461e+01 4.448907e+01 3.445382e+01 5.506256e+01 1.102710e+01 2.619117e+01 1.960162e+01 1.853034e+01 9.244080e+00 1.550633e+00 3.800833e+00 9.555193e-01 4.470801e+00 4.902442e+00 6.061831e+00 2.909805e+00 2.793821e+00 1.221294e+00 2.547322e+00 2.656250e+00 2.299615e+00 4.938652e-01 3.337893e-01 7.223231e-01 2.159865e-01 9.501747e-01 9.957922e-01 8.197578e-01 6.180404e-01 4.763308e-01 2.816909e-01 7.373448e-01 4.580604e-01 4.192095e-01 9.323774e-02
<GCONST> 1.142617e+02
<STATE> 4
<NUMMIXES> 2
<MIXTURE> 1 5.000000e-01
<MEAN> 39
 -1.041564e+00 6.538757e+00 -2.149554e+00 -2.683233e+00 -4.272074e+00 -1.627972e+01 9.332205e-01 3.898916e+00 -6.946667e+00 6.551786e-01 2.548223e+00 -5.005697e+00 -2.417354e+00 -4.606929e-01 -9.479817e-01 5.077749e-02 9.326249e-03 -6.251361e-01 1.476753e+00 1.027758e+00 -7.974402e-01 2.246648e-01 -2.682630e-01 -8.503786e-01 -2.256384e-02 3.328537e-01 2.747435e-02 -9.773079e-02 -2.689169e-03 -1.035371e-01 9.465708e-02 2.558142e-01 1.521095e-02 -3.869643e-02 -7.817803e-02 1.146129e-01 -1.682090e-01 2.815764e-02 5.059624e-02
<VARIANCE> 39
 1.214457e+01 3.851191e+01 9.618251e+01 1.573124e+01 5.585669e+01 1.337170e+02 8.540295e+01 5.240452e+01 2.966455e+01 2.430003e+01 3.376674e+01 1.816593e+01 1.173557e+01 1.372729e+00 2.715617e+00 2.624906e+00 1.861975e+00 4.643798e+00 7.749210e+00 2.076623e+00 1.405497e+00 4.624944e+00 4.186071e+00 2.168543e+00 1.255205e+00 1.632504e+00 1.836743e-01 4.741549e-01 3.843423e-01 2.708907e-01 9.839118e-01 9.980969e-01 6.172286e-01 3.539078e-01 7.575809e-01 8.042735e-01 5.805784e-01 2.392359e-01 2.245815e-01
<GCONST> 1.197399e+02
<MIXTURE> 2 5.000000e-01
<MEAN> 39
 -1.041564e+00 6.538757e+00 -2.149554e+00 -2.683233e+00 -4.272074e+00 -1.627972e+01 9.332205e-01 3.898916e+00 -6.946667e+00 6.551786e-01 2.548223e+00 -5.005697e+00 -2.417354e+00 -4.606929e-01 -9.479817e-01 5.077749e-02 9.326249e-03 -6.251361e-01 1.476753e+00 1.027758e+00 -7.974402e-01 2.246648e-01 -2.682630e-01 -8.503786e-01 -2.256384e-02 3.328537e-01 2.747435e-02 -9.773079e-02 -2.689169e-03 -1.035371e-01 9.465708e-02 2.558142e-01 1.521095e-02 -3.869643e-02 -7.817803e-02 1.146129e-01 -1.682090e-01 2.815764e-02 5.059624e-02
<VARIANCE> 39
 1.214457e+01 3.851191e+01 9.618251e+01 1.573124e+01 5.585669e+01 1.337170e+02 8.540295e+01 5.240452e+01 2.966455e+01 2.430003e+01 3.376674e+01 1.816593e+01 1.173557e+01 1.372729e+00 2.715617e+00 2.624906e+00 1.861975e+00 4.643798e+00 7.749210e+00 2.076623e+00 1.405497e+00 4.624944e+00 4.186071e+00 2.168543e+00 1.255205e+00 1.632504e+00 1.836743e-01 4.741549e-01 3.843423e-01 2.708907e-01 9.839118e-01 9.980969e-01 6.172286e-01 3.539078e-01 7.575809e-01 8.042735e-01 5.805784e-01 2.392359e-01 2.245815e-01
<GCONST> 1.197399e+02
<TRANSP> 5
 0.000000e+00 1.000000e+00 0.000000e+00 0.000000e+00 0.000000e+00
 0.000000e+00 8.521925e-01 1.478076e-01 0.000000e+00 0.000000e+00
 0.000000e+00 0.000000e+00 9.147854e-01 8.521453e-02 0.000000e+00
 0.000000e+00 0.000000e+00 0.000000e+00 8.830073e-01 1.169927e-01
 0.000000e+00 0.000000e+00 0.000000e+00 0.000000e+00 0.000000e+00
<ENDHMM>
~h "h"
<BEGINHMM>
<NUMSTATES> 5
<STATE> 2
<NUMMIXES> 2
<MIXTURE> 1 5.000000e-01
<MEAN> 39
 -3.290600e+00 -4.913403e+00 -4.958669e+00 3.812429e+00 2.015753e+00 -3.103690e+00 5.387825e+00 2.808575e+00 -1.511360e+00 7.895623e-01 -2.607117e+00 -1.999870e-01 1.765945e+00 3.467440e-02 -2.065259e-02 -1.069088e+00 7.228440e-01 1.242289e+00 -4.751763e-01 -8.602372e-01 4.298493e-01 9.117061e-01 -9.744993e-01 -2.497899e-01 4.111573e-01 1.767760e-01 -2.577367e-02 1.551153e-01 -4.311540e-02 -1.323329e-01 -1.026642e-01 7.374519e-02 -1.769948e-01 -2.310125e-01 1.932165e-01 -1.850757e-02 -7.640421e-02 -1.942573e-01 -4.731449e-02
<VARIANCE> 39
 3.568493e+01 2.254909e+01 2.973423e+01 6.780770e+01 4.602673e+01 5.290945e+01 3.492796e+01 3.707000e+01 3.595114e+01 3.003948e+01 2.677563e+01 2.290339e+01 2.181188e+01 2.848981e-01 9.069174e-01 1.827059e+00 1.433801e+00 2.443115e+00 1.894810e+00 3.296985e+00 2.826823e+00 4.320734e+00 2.891324e+00 2.998844e+00 2.278067e+00 3.180268e+00 4.798420e-02 1.407906e-01 2.180969e-01 2.877837e-01 3.905746e-01 4.741175e-01 6.802806e-01 6.970230e-01 7.442741e-01 5.506220e-01 5.859504e-01 4.465491e-01 7.157100e-01
<GCONST> 1.136387e+02
<MIXTURE> 2 5.000000e-01
<MEAN> 39
 -3.290600e+00 -4.913403e+00 -4.958669e+00 3.812429e+00 2.015753e+00 -3.103690e+00 5.387825e+00 2.808575e+00 -1.511360e+00 7.895623e-01 -2.607117e+00 -1.999870e-01 1.765945e+00 3.467440e-02 -2.065259e-02 -1.069088e+00 7.228440e-01 1.242289e+00 -4.751763e-01 -8.602372e-01 4.298493e-01 9.117061e-01 -9.744993e-01 -2.497899e-01 4.111573e-01 1.767760e-01 -2.577367e-02 1.551153e-01 -4.311540e-02 -1.323329e-01 -1.026642e-01 7.374519e-02 -1.769948e-01 -2.310125e-01 1.932165e-01 -1.850757e-02 -7.640421e-02 -1.942573e-01 -4.731449e-02
<VARIANCE> 39
 3.568493e+01 2.254909e+01 2.973423e+01 6.780770e+01 4.602673e+01 5.290945e+01 3.492796e+01 3.707000e+01 3.595114e+01 3.003948e+01 2.677563e+01 2.290339e+01 2.181188e+01 2.848981e-01 9.069174e-01 1.827059e+00 1.433801e+00 2.443115e+00 1.894810e+00 3.296985e+00 2.826823e+00 4.320734e+00 2.891324e+00 2.998844e+00 2.278067e+00 3.180268e+00 4.798420e-02 1.407906e-01 2.180969e-01 2.877837e-01 3.905746e-01 4.741175e-01 6.802806e-01 6.970230e-01 7.442741e-01 5.506220e-01 5.859504e-01 4.465491e-01 7.157100e-01
<GCONST> 1.136387e+02
<STATE> 3
<NUMMIXES> 2
<MIXTURE> 1 5.000000e-01
<MEAN> 39
 -5.016494e+00 -5.758347e+00 -1.491798e+01 5.849580e+00 4.931685e+00 -2.412162e+00 -6.925829e-01 -2.638899e+00 5.019873e+00 -3.122671e+00 -4.559222e+00 -3.005753e+00 1.641133e+00 7.822178e-02 2.011763e-01 -2.733856e-01 -9.189545e-02 -2.108380e-01 2.539661e-01 -4.398296e-01 -6.315535e-01 2.554077e-01 3.815107e-01 3.650390e-01 -4.395870e-01 -1.826126e-01 7.514894e-02 3.972763e-02 1.611863e-01 1.115978e-02 -7.882442e-03 6.696341e-02 6.462522e-02 1.891191e-01 -1.513861e-02 7.673108e-02 1.101423e-01 8.713897e-02 4.412528e-02
<VARIANCE> 39
 3.906754e+01 2.911243e+01 4.879451e+01 4.702545e+01 3.415330e+01 2.985335e+01 2.936672e+01 2.947652e+01 2.288200e+01 3.245203e+01 2.060285e+01 1.748256e+01 9.126181e+00 3.351575e-01 5.254477e-01 1.810656e+00 1.623356e+00 1.832362e+00 2.882079e+00 2.827588e+00 3.483242e+00 3.240165e+00 3.597244e+00 3.519607e+00 2.235756e+00 1.715199e+00 8.563342e-02 8.649220e-02 3.323844e-01 3.153325e-01 4.739779e-01 5.175415e-01 5.975791e-01 6.271067e-01 7.211666e-01 8.252578e-01 6.748238e-01 4.396849e-01 3.399042e-01
<GCONST> 1.108410e+02
<MIXTURE> 2 5.000000e-01
<MEAN> 39
 -5.016494e+00 -5.758347e+00 -1.491798e+01 5.849580e+00 4.931685e+00 -2.412162e+00 -6.925829e-01 -2.638899e+00 5.019873e+00 -3.122671e+00 -4.559222e+00 -3.005753e+00 1.641133e+00 7.822178e-02 2.011763e-01 -2.733856e-01 -9.189545e-02 -2.108380e-01 2.539661e-01 -4.398296e-01 -6.315535e-01 2.554077e-01 3.815107e-01 3.650390e-01 -4.395870e-01 -1.826126e-01 7.514894e-02 3.972763e-02 1.611863e-01 1.115978e-02 -7.882442e-03 6.696341e-02 6.462522e-02 1.891191e-01 -1.513861e-02 7.673108e-02 1.101423e-01 8.713897e-02 4.412528e-02
<VARIANCE> 39
 3.906754e+01 2.911243e+01 4.879451e+01 4.702545e+01 3.415330e+01 2.985335e+01 2.936672e+01 2.947652e+01 2.288200e+01 3.245203e+01 2.060285e+01 1.748256e+01 9.126181e+00 3.351575e-01 5.254477e-01 1.810656e+00 1.623356e+00 1.832362e+00 2.882079e+00 2.827588e+00 3.483242e+00 3.240165e+00 3.597244e+00 3.519607e+00 2.235756e+00 1.715199e+00 8.563342e-02 8.649220e-02 3.323844e-01 3.153325e-01 4.739779e-01 5.175415e-01 5.975791e-01 6.271067e-01 7.211666e-01 8.252578e-01 6.748238e-01 4.396849e-01 3.399042e-01
<GCONST> 1.108410e+02
<STATE> 4
<NUMMIXES> 2
<MIXTURE> 1 5.000000e-01
<MEAN> 39
 -4.195167e+00 3.440132e+00 -2.890250e+00 -4.080562e+00 5.712317e+00 2.335786e-01 -3.824944e+00 7.762027e-01 1.866858e+00 -1.610759e-01 -2.430041e+00 -2.464187e+00 -6.464528e-01 7.710137e-01 6.968850e-01 -2.609713e-01 -6.430183e-01 -3.369384e-01 -5.067805e-01 -7.035386e-02 3.294024e-01 1.963650e-01 1.971824e-01 -5.031651e-02 1.123855e-02 -2.216511e-01 -3.941851e-02 -5.293643e-02 -1.023090e-01 -8.970080e-02 -3.942405e-02 -4.127476e-02 4.076814e-03 -9.892576e-03 -3.460070e-02 1.649101e-02 -9.966562e-02 -3.935701e-02 2.175880e-02
<VARIANCE> 39
 3.159978e+01 4.675999e+01 9.460376e+01 1.511308e+02 2.918955e+01 4.321084e+01 3.509753e+01 4.443393e+01 3.519863e+01 2.016730e+01 1.486281e+01 2.385968e+01 1.174834e+01 1.672377e+00 1.552982e+00 1.647660e+00 2.287408e+00 2.252866e+00 2.416224e+00 3.873913e+00 3.053873e+00 2.920671e+00 2.131435e+00 2.053945e+00 2.589290e+00 1.104537e+00 2.431928e-01 2.252575e-01 3.488733e-01 3.947950e-01 4.373986e-01 5.516352e-01 7.152492e-01 5.652572e-01 7.050081e-01 4.774167e-01 4.119900e-01 6.244690e-01 2.355948e-01
<GCONST> 1.168742e+02
<MIXTURE> 2 5.000000e-01
<MEAN> 39
 -4.195167e+00 3.440132e+00 -2.890250e+00 -4.080562e+00 5.712317e+00 2.335786e-01 -3.824944e+00 7.762027e-01 1.866858e+00 -1.610759e-01 -2.430041e+00 -2.464187e+00 -6.464528e-01 7.710137e-01 6.968850e-01 -2.609713e-01 -6.430183e-01 -3.369384e-01 -5.067805e-01 -7.035386e-02 3.294024e-01 1.963650e-01 1.971824e-01 -5.031651e-02 1.123855e-02 -2.216511e-01 -3.941851e-02 -5.293643e-02 -1.023090e-01 -8.970080e-02 -3.942405e-02 -4.127476e-02 4.076814e-03 -9.892576e-03 -3.460070e-02 1.649101e-02 -9.966562e-02 -3.935701e-02 2.175880e-02
<VARIANCE> 39
 3.159978e+01 4.675999e+01 9.460376e+01 1.511308e+02 2.918955e+01 4.321084e+01 3.509753e+01 4.443393e+01 3.519863e+01 2.016730e+01 1.486281e+01 2.385968e+01 1.174834e+01 1.672377e+00 1.552982e+00 1.647660e+00 2.287408e+00 2.252866e+00 2.416224e+00 3.873913e+00 3.053873e+00 2.920671e+00 2.131435e+00 2.053945e+00 2.589290e+00 1.104537e+00 2.431928e-01 2.252575e-01 3.488733e-01 3.947950e-01 4.373986e-01 5.516352e-01 7.152492e-01 5.652572e-01 7.050081e-01 4.774167e-01 4.119900e-01 6.244690e-01 2.355948e-01
<GCONST> 1.168742e+02
<TRANSP> 5
 0.000000e+00 1.000000e+00 0.000000e+00 0.000000e+00 0.000000e+00
 0.000000e+00 7.810774e-01 2.189226e-01 0.000000e+00 0.000000e+00
 0.000000e+00 0.000000e+00 8.081968e-01 1.918032e-01 0.000000e+00
 0.000000e+00 0.000000e+00 0.000000e+00 8.684071e-01 1.315929e-01
 0.000000e+00 0.000000e+00 0.000000e+00 0.000000e+00 0.000000e+00
<ENDHMM>
~h "i"
<BEGINHMM>
<NUMSTATES> 7
<STATE> 2
<NUMMIXES> 2
<MIXTURE> 1 5.000000e-01
<MEAN> 39
 -3.496459e+00 3.800049e+00 6.291308e+00 -7.107724e+00 -3.668878e+00 -2.224327e+00 -7.192335e+00 -3.014579e+00 -2.396061e+00 -9.036295e-01 -7.612298e+00 2.498235e-01 1.991687e+00 -2.816698e-01 2.827445e-01 -6.068034e-03 -1.412488e+00 -8.998906e-01 7.827846e-01 -8.097142e-01 5.979138e-01 3.974655e-01 2.979138e-01 -7.876290e-02 3.255262e-01 -3.720537e-03 -5.812583e-02 -1.324021e-01 -1.450984e-01 -5.301301e-02 2.671070e-01 1.350754e-03 5.811118e-02 1.131159e-01 1.046944e-01 -2.114783e-01 -1.699523e-02 1.152045e-01 -1.012505e-01
<VARIANCE> 39
 2.757910e+01 3.020118e+01 1.805043e+01 8.356064e+01 3.261428e+01 4.078145e+01 3.387557e+01 3.345218e+01 4.553717e+01 2.949518e+01 2.756115e+01 1.412352e+01 3.462150e+01 2.757256e+00 1.382013e+00 1.762408e+00 3.251755e+00 2.428398e+00 5.724844e+00 3.369739e+00 2.275013e+00 2.554060e+00 5.607633e+00 3.511549e+00 2.089362e+00 1.725019e+00 3.790762e-01 2.429907e-01 3.198893e-01 6.501384e-01 4.232247e-01 6.235769e-01 2.868445e-01 4.379599e-01 4.755461e-01 8.785120e-01 5.338700e-01 4.153547e-01 3.648130e-01
<GCONST> 1.188615e+02
<MIXTURE> 2 5.000000e-01
<MEAN> 39
 -3.496459e+00 3.800049e+00 6.291308e+00 -7.107724e+00 -3.668878e+00 -2.224327e+00 -7.192335e+00 -3.014579e+00 -2.396061e+00 -9.036295e-01 -7.612298e+00 2.498235e-01 1.991687e+00 -2.816698e-01 2.827445e-01 -6.068034e-03 -1.412488e+00 -8.998906e-01 7.827846e-01 -8.097142e-01 5.979138e-01 3.974655e-01 2.979138e-01 -7.876290e-02 3.255262e-01 -3.720537e-03 -5.812583e-02 -1.324021e-01 -1.450984e-01 -5.301301e-02 2.671070e-01 1.350754e-03 5.811118e-02 1.131159e-01 1.046944e-01 -2.114783e-01 -1.699523e-02 1.152045e-01 -1.012505e-01
<VARIANCE> 39
 2.757910e+01 3.020118e+01 1.805043e+01 8.356064e+01 3.261428e+01 4.078145e+01 3.387557e+01 3.345218e+01 4.553717e+01 2.949518e+01 2.756115e+01 1.412352e+01 3.462150e+01 2.757256e+00 1.382013e+00 1.762408e+00 3.251755e+00 2.428398e+00 5.724844e+00 3.369739e+00 2.275013e+00 2.554060e+00 5.607633e+00 3.511549e+00 2.089362e+00 1.725019e+00 3.790762e-01 2.429907e-01 3.198893e-01 6.501384e-01 4.232247e-01 6.235769e-01 2.868445e-01 4.379599e-01 4.755461e-01 8.785120e-01 5.338700e-01 4.153547e-01 3.648130e-01
<GCONST> 1.188615e+02
<STATE> 3
<NUMMIXES> 2
<MIXTURE> 1 5.000000e-01
<MEAN> 39
 -6.088153e+00 -3.712780e-01 2.136670e+00 -1.332919e+01 -7.738354e+00 4.462768e+00 3.547529e-01 -2.850230e+00 -2.953789e+00 -2.636697e+00 -1.130666e+01 -1.861827e+00 4.244666e+00 -7.438722e-02 2.596293e-01 1.758251e-01 -5.342913e-01 1.499026e-01 -1.261341e-01 -3.879149e-01 3.503383e-01 5.614190e-01 -3.557388e-01 1.243583e-01 7.509406e-02 -3.426777e-01 2.402349e-02 4.464519e-02 -1.580489e-02 1.254417e-01 3.523110e-02 -1.471731e-01 -1.951007e-03 5.109030e-03 -7.649948e-02 7.395185e-02 8.979030e-02 -8.693110e-02 -5.188800e-02
<VARIANCE> 39
 4.726163e+00 2.433077e+01 1.190176e+01 2.074965e+01 1.937939e+01 3.048984e+01 6.157415e+01 1.397177e+01 2.075703e+01 2.591593e+01 2.659682e+01 1.610667e+01 1.497855e+01 1.971525e-01 4.402187e-01 3.701977e-01 9.142449e-01 4.800546e-01 1.043230e+00 1.207263e+00 1.166793e+00 1.204815e+00 1.040009e+00 8.739946e-01 1.006008e+00 1.137908e+00 3.400138e-02 4.434633e-02 5.133994e-02 1.216984e-01 8.622281e-02 1.909165e-01 1.546672e-01 1.407884e-01 1.518493e-01 2.461387e-01 1.844077e-01 1.654759e-01 1.006857e-01
<GCONST> 7.789575e+01
<MIXTURE> 2 5.000000e-01
<MEAN> 39
 -6.088153e+00 -3.712780e-01 2.136670e+00 -1.332919e+01 -7.738354e+00 4.462768e+00 3.547529e-01 -2.850230e+00 -2.953789e+00 -2.636697e+00 -1.130666e+01 -1.861827e+00 4.244666e+00 -7.438722e-02 2.596293e-01 1.758251e-01 -5.342913e-01 1.499026e-01 -1.261341e-01 -3.879149e-01 3.503383e-01 5.614190e-01 -3.557388e-01 1.243583e-01 7.509406e-02 -3.426777e-01 2.402349e-02 4.464519e-02 -1.580489e-02 1.254417e-01 3.523110e-02 -1.471731e-01 -1.951007e-03 5.109030e-03 -7.649948e-02 7.395185e-02 8.979030e-02 -8.693110e-02 -5.188800e-02
<VARIANCE> 39
 4.726163e+00 2.433077e+01 1.190176e+01 2.074965e+01 1.937939e+01 3.048984e+01 6.157415e+01 1.397177e+01 2.075703e+01 2.591593e+01 2.659682e+01 1.610667e+01 1.497855e+01 1.971525e-01 4.402187e-01 3.701977e-01 9.142449e-01 4.800546e-01 1.043230e+00 1.207263e+00 1.166793e+00 1.204815e+00 1.040009e+00 8.739946e-01 1.006008e+00 1.137908e+00 3.400138e-02 4.434633e-02 5.133994e-02 1.216984e-01 8.622281e-02 1.909165e-01 1.546672e-01 1.407884e-01 1.518493e-01 2.461387e-01 1.844077e-01 1.654759e-01 1.006857e-01
<GCONST> 7.789575e+01
<STATE> 4
<NUMMIXES> 2
<MIXTURE> 1 5.000000e-01
<MEAN> 39
 -6.485444e+00 8.720982e+00 7.033830e+00 -1.773765e+01 -5.631182e+00 -3.779334e+00 -1.349410e+01 9.834082e-01 6.835476e-01 -1.735485e+00 -3.499191e+00 -1.179296e+00 -8.624975e-01 1.108173e-01 1.471541e-01 2.355935e-01 -1.037969e-01 5.102082e-02 -2.738259e-01 -3.141911e-01 2.486380e-02 -1.246806e-03 1.536803e-01 2.396113e-01 -1.536916e-01 5.545972e-02 4.922485e-02 -3.755125e-02 5.075285e-02 6.767792e-02 -1.359018e-03 4.638602e-02 6.712900e-02 -8.803866e-02 -2.269774e-02 1.921350e-02 -3.558315e-02 -1.821252e-03 3.312610e-02
<VARIANCE> 39
 3.242059e+00 2.468689e+01 1.897732e+01 1.961085e+01 3.240686e+01 2.741692e+01 4.422116e+01 1.361620e+01 1.265578e+01 2.588119e+01 3.501828e+01 1.029643e+01 7.998941e+00 1.125587e-01 2.314097e-01 2.714460e-01 1.547968e-01 3.674251e-01 5.554592e-01 5.366173e-01 5.225932e-01 4.856542e-01 4.470914e-01 4.029497e-01 2.719269e-01 3.355834e-01 1.374641e-02 1.696184e-02 2.372707e-02 3.140444e-02 4.851879e-02 4.787197e-02 5.982861e-02 6.234271e-02 7.683694e-02 6.841227e-02 4.254849e-02 4.001169e-02 4.431595e-02
<GCONST> 5.245672e+01
<MIXTURE> 2 5.000000e-01
<MEAN> 39
 -6.485444e+00 8.720982e+00 7.033830e+00 -1.773765e+01 -5.631182e+00 -3.779334e+00 -1.349410e+01 9.834082e-01 6.835476e-01 -1.735485e+00 -3.499191e+00 -1.179296e+00 -8.624975e-01 1.108173e-01 1.471541e-01 2.355935e-01 -1.037969e-01 5.102082e-02 -2.738259e-01 -3.141911e-01 2.486380e-02 -1.246806e-03 1.536803e-01 2.396113e-01 -1.536916e-01 5.545972e-02 4.922485e-02 -3.755125e-02 5.075285e-02 6.767792e-02 -1.359018e-03 4.638602e-02 6.712900e-02 -8.803866e-02 -2.269774e-02 1.921350e-02 -3.558315e-02 -1.821252e-03 3.312610e-02
<VARIANCE> 39
 3.242059e+00 2.468689e+01 1.897732e+01 1.961085e+01 3.240686e+01 2.741692e+01 4.422116e+01 1.361620e+01 1.265578e+01 2.588119e+01 3.501828e+01 1.029643e+01 7.998941e+00 1.125587e-01 2.314097e-01 2.714460e-01 1.547968e-01 3.674251e-01 5.554592e-01 5.366173e-01 5.225932e-01 4.856542e-01 4.470914e-01 4.029497e-01 2.719269e-01 3.355834e-01 1.374641e-02 1.696184e-02 2.372707e-02 3.140444e-02 4.851879e-02 4.787197e-02 5.982861e-02 6.234271e-02 7.683694e-02 6.841227e-02 4.254849e-02 4.001169e-02 4.431595e-02
<GCONST> 5.245672e+01
<STATE> 5
<NUMMIXES> 2
<MIXTURE> 1 5.000000e-01
<MEAN> 39
 -1.576544e+00 8.728026e+00 7.863980e+00 -1.483237e+01 -5.727133e-01 -5.214433e+00 -1.246841e+01 -3.107355e+00 3.547138e-01 5.968096e-01 -3.764712e+00 1.645580e+00 -1.254184e+00 5.395808e-01 7.407063e-02 2.986446e-01 6.549397e-01 5.700716e-02 2.440494e-01 1.147870e-01 -2.683423e-01 3.308482e-02 4.337696e-01 1.791538e-01 -7.603747e-02 -1.564196e-02 2.576057e-03 2.248266e-02 -8.159036e-02 2.354813e-01 -1.682309e-03 7.402230e-02 9.199132e-02 5.730964e-02 -1.016000e-01 5.523703e-02 -1.774447e-02 -1.455858e-01 6.986278e-02
<VARIANCE> 39
 1.987512e+01 1.235702e+01 6.258981e+01 2.976776e+01 8.179562e+01 6.934146e+01 4.081313e+01 1.912253e+01 1.797520e+01 3.231059e+01 3.225977e+01 3.671223e+01 1.376717e+01 2.602213e-01 4.221227e-01 7.283208e-01 1.184741e+00 9.447306e-01 9.566307e-01 1.764352e+00 8.891197e-01 1.844031e+00 1.188849e+00 4.267403e-01 7.248347e-01 7.230882e-01 5.876814e-02 6.199113e-02 1.003233e-01 1.698962e-01 1.819921e-01 2.952072e-01 1.559236e-01 1.707622e-01 3.877051e-01 1.677449e-01 1.019065e-01 1.168354e-01 1.294573e-01
<GCONST> 8.791341e+01
<MIXTURE> 2 5.000000e-01
<MEAN> 39
 -1.576544e+00 8.728026e+00 7.863980e+00 -1.483237e+01 -5.727133e-01 -5.214433e+00 -1.246841e+01 -3.107355e+00 3.547138e-01 5.968096e-01 -3.764712e+00 1.645580e+00 -1.254184e+00 5.395808e-01 7.407063e-02 2.986446e-01 6.549397e-01 5.700716e-02 2.440494e-01 1.147870e-01 -2.683423e-01 3.308482e-02 4.337696e-01 1.791538e-01 -7.603747e-02 -1.564196e-02 2.576057e-03 2.248266e-02 -8.159036e-02 2.354813e-01 -1.682309e-03 7.402230e-02 9.199132e-02 5.730964e-02 -1.016000e-01 5.523703e-02 -1.774447e-02 -1.455858e-01 6.986278e-02
<VARIANCE> 39
 1.987512e+01 1.235702e+01 6.258981e+01 2.976776e+01 8.179562e+01 6.934146e+01 4.081313e+01 1.912253e+01 1.797520e+01 3.231059e+01 3.225977e+01 3.671223e+01 1.376717e+01 2.602213e-01 4.221227e-01 7.283208e-01 1.184741e+00 9.447306e-01 9.566307e-01 1.764352e+00 8.891197e-01 1.844031e+00 1.188849e+00 4.267403e-01 7.248347e-01 7.230882e-01 5.876814e-02 6.199113e-02 1.003233e-01 1.698962e-01 1.819921e-01 2.952072e-01 1.559236e-01 1.707622e-01 3.877051e-01 1.677449e-01 1.019065e-01 1.168354e-01 1.294573e-01
<GCONST> 8.791341e+01
<STATE> 6
<NUMMIXES> 2
<MIXTURE> 1 5.000000e-01
<MEAN> 39
 -2.560861e+00 1.032313e+01 1.156824e+01 -1.052059e+01 9.416685e-01 -1.724489e+00 -1.211132e+01 -2.954434e-01 -7.628195e-01 1.293973e+00 -2.551989e+00 -9.335648e-01 9.167688e-02 -1.866612e-01 -6.019118e-02 -1.933145e-02 1.076830e+00 2.741242e-01 6.579214e-01 6.240979e-01 1.630954e-01 -6.382424e-01 -1.197338e-01 7.372344e-03 -1.754368e-01 3.992923e-01 -1.014159e-01 -9.761423e-02 -1.125453e-01 -5.438481e-02 8.856343e-02 -9.602138e-02 1.420190e-01 4.579943e-02 -1.487574e-02 -1.457542e-01 6.674092e-02 1.748746e-01 -2.332000e-02
<VARIANCE> 39
 1.784124e+01 2.303765e+01 4.517740e+01 4.665961e+01 8.111404e+01 4.166307e+01 2.483764e+01 2.654871e+01 2.560808e+01 2.916508e+01 2.862442e+01 2.468680e+01 1.607886e+01 1.588587e+00 1.505861e+00 1.689389e+00 2.428121e+00 2.134583e+00 2.774625e+00 1.746889e+00 2.864861e+00 2.495864e+00 2.198369e+00 1.811429e+00 2.031324e+00 1.701788e+00 1.681928e-01 2.675495e-01 3.405657e-01 3.897358e-01 4.725068e-01 5.071319e-01 3.187587e-01 5.904582e-01 5.047568e-01 3.972750e-01 3.037960e-01 4.028426e-01 3.917003e-01
<GCONST> 1.122657e+02
<MIXTURE> 2 5.000000e-01
<MEAN> 39
 -2.560861e+00 1.032313e+01 1.156824e+01 -1.052059e+01 9.416685e-01 -1.724489e+00 -1.211132e+01 -2.954434e-01 -7.628195e-01 1.293973e+00 -2.551989e+00 -9.335648e-01 9.167688e-02 -1.866612e-01 -6.019118e-02 -1.933145e-02 1.076830e+00 2.741242e-01 6.579214e-01 6.240979e-01 1.630954e-01 -6.382424e-01 -1.197338e-01 7.372344e-03 -1.754368e-01 3.992923e-01 -1.014159e-01 -9.761423e-02 -1.125453e-01 -5.438481e-02 8.856343e-02 -9.602138e-02 1.420190e-01 4.579943e-02 -1.487574e-02 -1.457542e-01 6.674092e-02 1.748746e-01 -2.332000e-02
<VARIANCE> 39
 1.784124e+01 2.303765e+01 4.517740e+01 4.665961e+01 8.111404e+01 4.166307e+01 2.483764e+01 2.654871e+01 2.560808e+01 2.916508e+01 2.862442e+01 2.468680e+01 1.607886e+01 1.588587e+00 1.505861e+00 1.689389e+00 2.428121e+00 2.134583e+00 2.774625e+00 1.746889e+00 2.864861e+00 2.495864e+00 2.198369e+00 1.811429e+00 2.031324e+00 1.701788e+00 1.681928e-01 2.675495e-01 3.405657e-01 3.897358e-01 4.725068e-01 5.071319e-01 3.187587e-01 5.904582e-01 5.047568e-01 3.972750e-01 3.037960e-01 4.028426e-01 3.917003e-01
<GCONST> 1.122657e+02
<TRANSP> 7
 0.000000e+00 1.000000e+00 0.000000e+00 0.000000e+00 0.000000e+00 0.000000e+00 0.000000e+00
 0.000000e+00 7.364221e-01 2.635780e-01 0.000000e+00 0.000000e+00 0.000000e+00 0.000000e+00
 0.000000e+00 0.000000e+00 8.319595e-01 1.680405e-01 0.000000e+00 0.000000e+00 0.000000e+00
 0.000000e+00 0.000000e+00 0.000000e+00 9.107891e-01 8.921088e-02 0.000000e+00 0.000000e+00
 0.000000e+00 0.000000e+00 0.000000e+00 0.000000e+00 7.235190e-01 2.764811e-01 0.000000e+00
 0.000000e+00 0.000000e+00 0.000000e+00 0.000000e+00 0.000000e+00 8.358939e-01 1.641061e-01
 0.000000e+00 0.000000e+00 0.000000e+00 0.000000e+00 0.000000e+00 0.000000e+00 0.000000e+00
<ENDHMM>
~h "j"
<BEGINHMM>
<NUMSTATES> 5
<STATE> 2
<NUMMIXES> 2
<MIXTURE> 1 5.000000e-01
<MEAN> 39
 -2.346148e+00 2.182197e+00 6.916574e-01 -4.020840e+00 -3.308328e+00 -3.901889e+00 1.176480e+01 -8.985338e+00 -9.646488e+00 3.907908e+00 -5.569420e+00 -3.265330e+00 2.508151e-01 -3.197252e-02 1.345668e-01 2.686760e-01 7.681687e-02 8.171865e-02 7.683041e-02 -4.759407e-01 2.406173e-02 4.560509e-01 2.908111e-02 -1.236630e-02 -3.464679e-03 2.642492e-02 -8.395255e-02 -3.462397e-02 2.173192e-02 5.186104e-02 4.036952e-02 4.241168e-02 -6.554768e-02 1.330830e-02 9.085516e-02 -7.928470e-02 -9.693386e-03 -1.509937e-02 1.729754e-02
<VARIANCE> 39
 4.226324e+01 7.260658e+01 8.565926e+01 2.091562e+01 3.959884e+01 9.761454e+01 1.480758e+02 2.601645e+01 5.961648e+01 8.374212e+01 3.478262e+01 3.675336e+01 1.345534e+01 2.591766e+00 2.150468e+00 2.350810e+00 1.849278e+00 2.321799e+00 5.567734e+00 7.673998e+00 2.432341e+00 4.450727e+00 5.982760e+00 3.546612e+00 1.465050e+00 2.200867e+00 3.319162e-01 3.348207e-01 3.837870e-01 2.588605e-01 5.287676e-01 1.090937e+00 1.752635e+00 5.484187e-01 8.241460e-01 1.028572e+00 6.649653e-01 2.790436e-01 5.123768e-01
<GCONST> 1.287597e+02
<MIXTURE> 2 5.000000e-01
<MEAN> 39
 -2.346148e+00 2.182197e+00 6.916574e-01 -4.020840e+00 -3.308328e+00 -3.901889e+00 1.176480e+01 -8.985338e+00 -9.646488e+00 3.907908e+00 -5.569420e+00 -3.265330e+00 2.508151e-01 -3.197252e-02 1.345668e-01 2.686760e-01 7.681687e-02 8.171865e-02 7.683041e-02 -4.759407e-01 2.406173e-02 4.560509e-01 2.908111e-02 -1.236630e-02 -3.464679e-03 2.642492e-02 -8.395255e-02 -3.462397e-02 2.173192e-02 5.186104e-02 4.036952e-02 4.241168e-02 -6.554768e-02 1.330830e-02 9.085516e-02 -7.928470e-02 -9.693386e-03 -1.509937e-02 1.729754e-02
<VARIANCE> 39
 4.226324e+01 7.260658e+01 8.565926e+01 2.091562e+01 3.959884e+01 9.761454e+01 1.480758e+02 2.601645e+01 5.961648e+01 8.374212e+01 3.478262e+01 3.675336e+01 1.345534e+01 2.591766e+00 2.150468e+00 2.350810e+00 1.849278e+00 2.321799e+00 5.567734e+00 7.673998e+00 2.432341e+00 4.450727e+00 5.982760e+00 3.546612e+00 1.465050e+00 2.200867e+00 3.319162e-01 3.348207e-01 3.837870e-01 2.588605e-01 5.287676e-01 1.090937e+00 1.752635e+00 5.484187e-01 8.241460e-01 1.028572e+00 6.649653e-01 2.790436e-01 5.123768e-01
<GCONST> 1.287597e+02
<STATE> 3
<NUMMIXES> 2
<MIXTURE> 1 5.000000e-01
<MEAN> 39
 -6.295747e+00 1.129211e+01 9.925585e+00 5.139869e+00 -1.894705e+00 -3.059415e+00 -3.684948e+00 -8.345196e+00 -1.569052e+00 -6.243049e-01 3.390775e-01 -1.513699e+00 1.990185e+00 -2.468026e-01 -1.995554e-01 -4.665967e-01 -8.047348e-02 -2.276669e-01 2.401945e-01 4.150532e-01 3.681933e-01 5.097688e-04 1.112794e-01 1.416432e-01 -2.342903e-02 1.345550e-01 2.247407e-01 -1.266055e-01 -1.539299e-01 -1.198213e-01 -1.146643e-01 -8.094338e-02 2.031375e-01 -1.849159e-02 -1.943046e-01 1.255387e-01 -1.323503e-01 -4.633312e-02 -5.528595e-02
<VARIANCE> 39
 3.762233e+01 3.478064e+01 2.135997e+01 2.025527e+01 2.128305e+01 2.273665e+01 3.225768e+01 2.054981e+01 1.775746e+01 2.627397e+01 2.039412e+01 1.773465e+01 1.006923e+01 2.892185e+00 2.005706e+00 1.544082e+00 1.505583e+00 2.275058e+00 2.823736e+00 2.773097e+00 2.116118e+00 2.902735e+00 2.859511e+00 3.057375e+00 2.323420e+00 1.631343e+00 2.676271e-01 3.340040e-01 2.455027e-01 2.372260e-01 3.950870e-01 5.369750e-01 4.739976e-01 4.314697e-01 6.736737e-01 4.579813e-01 7.181371e-01 4.172500e-01 3.933572e-01
<GCONST> 1.110358e+02
<MIXTURE> 2 5.000000e-01
<MEAN> 39
 -6.295747e+00 1.129211e+01 9.925585e+00 5.139869e+00 -1.894705e+00 -3.059415e+00 -3.684948e+00 -8.345196e+00 -1.569052e+00 -6.243049e-01 3.390775e-01 -1.513699e+00 1.990185e+00 -2.468026e-01 -1.995554e-01 -4.665967e-01 -8.047348e-02 -2.276669e-01 2.401945e-01 4.150532e-01 3.681933e-01 5.097688e-04 1.112794e-01 1.416432e-01 -2.342903e-02 1.345550e-01 2.247407e-01 -1.266055e-01 -1.539299e-01 -1.198213e-01 -1.146643e-01 -8.094338e-02 2.031375e-01 -1.849159e-02 -1.943046e-01 1.255387e-01 -1.323503e-01 -4.633312e-02 -5.528595e-02
<VARIANCE> 39
 3.762233e+01 3.478064e+01 2.135997e+01 2.025527e+01 2.128305e+01 2.273665e+01 3.225768e+01 2.054981e+01 1.775746e+01 2.627397e+01 2.039412e+01 1.773465e+01 1.006923e+01 2.892185e+00 2.005706e+00 1.544082e+00 1.505583e+00 2.275058e+00 2.823736e+00 2.773097e+00 2.116118e+00 2.902735e+00 2.859511e+00 3.057375e+00 2.323420e+00 1.631343e+00 2.676271e-01 3.340040e-01 2.455027e-01 2.372260e-01 3.950870e-01 5.369750e-01 4.739976e-01 4.314697e-01 6.736737e-01 4.579813e-01 7.181371e-01 4.172500e-01 3.933572e-01
<GCONST> 1.110358e+02
<STATE> 4
<NUMMIXES> 2
<MIXTURE> 1 5.000000e-01
<MEAN> 39
 -6.157640e+00 -9.818239e-01 2.066846e+00 -4.249649e-01 -1.449397e+00 7.119355e+00 -1.017360e+00 -7.132697e+00 2.093134e+00 -9.749232e-01 -4.041832e+00 6.961091e-01 2.219553e+00 1.102791e-01 1.165407e-02 -2.479498e-02 -7.088196e-02 -1.329362e-01 -1.765752e-01 5.552612e-02 1.701048e-02 -5.268194e-02 5.984359e-02 -2.287555e-02 -6.676744e-02 -7.026748e-02 5.127702e-03 4.770815e-03 -1.821915e-03 -1.144047e-02 9.570813e-03 -6.053871e-02 -8.389806e-03 5.257732e-03 -3.352233e-02 2.409105e-02 1.709298e-03 -2.156717e-04 -1.230493e-02
<VARIANCE> 39
 8.425305e+00 3.489463e+01 1.459146e+01 2.318697e+01 2.321534e+01 2.496257e+01 3.419260e+01 2.798291e+01 3.118645e+01 2.354060e+01 2.237129e+01 2.437350e+01 1.914139e+01 4.029669e-01 7.167321e-01 1.574929e+00 1.971727e+00 2.809401e+00 2.376703e+00 4.692953e+00 2.540999e+00 3.781087e+00 2.739364e+00 3.251524e+00 2.583471e+00 3.106789e+00 4.609203e-02 1.454752e-01 3.265568e-01 3.646480e-01 5.691876e-01 4.346217e-01 1.059136e+00 5.828187e-01 8.739115e-01 4.808555e-01 7.514207e-01 6.173555e-01 7.286181e-01
<GCONST> 1.111668e+02
<MIXTURE> 2 5.000000e-01
<MEAN> 39
 -6.157640e+00 -9.818239e-01 2.066846e+00 -4.249649e-01 -1.449397e+00 7.119355e+00 -1.017360e+00 -7.132697e+00 2.093134e+00 -9.749232e-01 -4.041832e+00 6.961091e-01 2.219553e+00 1.102791e-01 1.165407e-02 -2.479498e-02 -7.088196e-02 -1.329362e-01 -1.765752e-01 5.552612e-02 1.701048e-02 -5.268194e-02 5.984359e-02 -2.287555e-02 -6.676744e-02 -7.026748e-02 5.127702e-03 4.770815e-03 -1.821915e-03 -1.144047e-02 9.570813e-03 -6.053871e-02 -8.389806e-03 5.257732e-03 -3.352233e-02 2.409105e-02 1.709298e-03 -2.156717e-04 -1.230493e-02
<VARIANCE> 39
 8.425305e+00 3.489463e+01 1.459146e+01 2.318697e+01 2.321534e+01 2.496257e+01 3.419260e+01 2.798291e+01 3.118645e+01 2.354060e+01 2.237129e+01 2.437350e+01 1.914139e+01 4.029669e-01 7.167321e-01 1.574929e+00 1.971727e+00 2.809401e+00 2.376703e+00 4.692953e+00 2.540999e+00 3.781087e+00 2.739364e+00 3.251524e+00 2.583471e+00 3.106789e+00 4.609203e-02 1.454752e-01 3.265568e-01 3.646480e-01 5.691876e-01 4.346217e-01 1.059136e+00 5.828187e-01 8.739115e-01 4.808555e-01 7.514207e-01 6.173555e-01 7.286181e-01
<GCONST> 1.111668e+02
<TRANSP> 5
 0.000000e+00 1.000000e+00 0.000000e+00 0.000000e+00 0.000000e+00
 0.000000e+00 9.514434e-01 4.855657e-02 0.000000e+00 0.000000e+00
 0.000000e+00 0.000000e+00 9.312639e-01 6.873613e-02 0.000000e+00
 0.000000e+00 0.000000e+00 0.000000e+00 9.695453e-01 3.045471e-02
 0.000000e+00 0.000000e+00 0.000000e+00 0.000000e+00 0.000000e+00
<ENDHMM>
~h "k"
<BEGINHMM>
<NUMSTATES> 5
<STATE> 2
<NUMMIXES> 2
<MIXTURE> 1 5.000000e-01
<MEAN> 39
 -6.066321e+00 4.416474e-01 5.739502e-01 2.838550e+00 -6.680916e-01 -5.056090e-02 1.358772e+00 -1.903584e+00 -5.862137e+00 -3.697399e+00 -2.257450e+00 -4.359372e+00 2.788763e-01 -3.711387e-01 1.261900e-02 1.668535e-01 1.163304e-01 -4.646149e-02 4.061066e-02 -1.231313e-01 -2.327815e-01 1.236681e-01 -1.999481e-01 -3.574274e-01 -6.069707e-02 3.176422e-02 2.627284e-03 -1.290538e-01 -3.503087e-02 -1.054449e-01 -5.348652e-02 3.552838e-04 6.421821e-03 -3.900769e-02 1.079922e-01 5.906668e-02 -4.910516e-02 8.800913e-02 2.874939e-02
<VARIANCE> 39
 7.394987e+00 2.002962e+01 2.254091e+01 2.294724e+01 2.429131e+01 1.618357e+01 4.226135e+01 3.316526e+01 2.364786e+01 3.844719e+01 2.450218e+01 1.729133e+01 2.568852e+01 5.398324e-01 1.093289e+00 1.152533e+00 1.975602e+00 2.665751e+00 2.129579e+00 3.587273e+00 3.227352e+00 2.508239e+00 2.898098e+00 2.806948e+00 2.175243e+00 2.992385e+00 1.027425e-01 2.862789e-01 2.302567e-01 4.089780e-01 6.440134e-01 4.861206e-01 8.283654e-01 6.292396e-01 5.438692e-01 6.143457e-01 5.338464e-01 4.411259e-01 6.708083e-01
<GCONST> 1.109773e+02
<MIXTURE> 2 5.000000e-01
<MEAN> 39
 -6.066321e+00 4.416474e-01 5.739502e-01 2.838550e+00 -6.680916e-01 -5.056090e-02 1.358772e+00 -1.903584e+00 -5.862137e+00 -3.697399e+00 -2.257450e+00 -4.359372e+00 2.788763e-01 -3.711387e-01 1.261900e-02 1.668535e-01 1.163304e-01 -4.646149e-02 4.061066e-02 -1.231313e-01 -2.327815e-01 1.236681e-01 -1.999481e-01 -3.574274e-01 -6.069707e-02 3.176422e-02 2.627284e-03 -1.290538e-01 -3.503087e-02 -1.054449e-01 -5.348652e-02 3.552838e-04 6.421821e-03 -3.900769e-02 1.079922e-01 5.906668e-02 -4.910516e-02 8.800913e-02 2.874939e-02
<VARIANCE> 39
 7.394987e+00 2.002962e+01 2.254091e+01 2.294724e+01 2.429131e+01 1.618357e+01 4.226135e+01 3.316526e+01 2.364786e+01 3.844719e+01 2.450218e+01 1.729133e+01 2.568852e+01 5.398324e-01 1.093289e+00 1.152533e+00 1.975602e+00 2.665751e+00 2.129579e+00 3.587273e+00 3.227352e+00 2.508239e+00 2.898098e+00 2.806948e+00 2.175243e+00 2.992385e+00 1.027425e-01 2.862789e-01 2.302567e-01 4.089780e-01 6.440134e-01 4.861206e-01 8.283654e-01 6.292396e-01 5.438692e-01 6.143457e-01 5.338464e-01 4.411259e-01 6.708083e-01
<GCONST> 1.109773e+02
<STATE> 3
<NUMMIXES> 2
<MIXTURE> 1 5.000000e-01
<MEAN> 39
 -7.112369e+00 -1.903643e+00 2.212750e+00 8.441330e-02 -3.000092e+00 7.707658e-01 -1.333869e+00 -4.555237e+00 -2.235793e+00 -4.050608e+00 -4.604229e+00 -1.565519e+00 1.302026e+00 -7.967053e-02 -2.967094e-01 -5.546974e-02 -1.244792e-02 -6.768976e-02 -1.083905e-02 1.021182e-01 -5.647031e-02 1.390266e-01 1.635836e-02 4.066664e-02 4.415999e-02 -3.850127e-02 -2.131625e-02 -9.999463e-02 -4.945003e-02 -3.770606e-02 -1.861156e-02 -5.334293e-02 1.131991e-02 -7.047644e-03 8.829501e-03 2.334329e-02 8.890638e-02 -2.034927e-03 6.970403e-03
<VARIANCE> 39
 7.616436e+00 3.959198e+01 2.154244e+01 3.786657e+01 3.598610e+01 2.821980e+01 4.578954e+01 4.510541e+01 2.361610e+01 2.544908e+01 2.475840e+01 2.491027e+01 1.928969e+01 6.308483e-01 3.132449e+00 1.865173e+00 2.060060e+00 3.428193e+00 3.172890e+00 3.793733e+00 3.882481e+00 3.039107e+00 3.518455e+00 3.084291e+00 2.951159e+00 2.330233e+00 1.224193e-01 4.325448e-01 3.545663e-01 4.552153e-01 7.278281e-01 7.106035e-01 6.499668e-01 7.723839e-01 6.419320e-01 7.598073e-01 7.057210e-01 6.707824e-01 4.977668e-01
<GCONST> 1.186828e+02
<MIXTURE> 2 5.000000e-01
<MEAN> 39
 -7.112369e+00 -1.903643e+00 2.212750e+00 8.441330e-02 -3.000092e+00 7.707658e-01 -1.333869e+00 -4.555237e+00 -2.235793e+00 -4.050608e+00 -4.604229e+00 -1.565519e+00 1.302026e+00 -7.967053e-02 -2.967094e-01 -5.546974e-02 -1.244792e-02 -6.768976e-02 -1.083905e-02 1.021182e-01 -5.647031e-02 1.390266e-01 1.635836e-02 4.066664e-02 4.415999e-02 -3.850127e-02 -2.131625e-02 -9.999463e-02 -4.945003e-02 -3.770606e-02 -1.861156e-02 -5.334293e-02 1.131991e-02 -7.047644e-03 8.829501e-03 2.334329e-02 8.890638e-02 -2.034927e-03 6.970403e-03
<VARIANCE> 39
 7.616436e+00 3.959198e+01 2.154244e+01 3.786657e+01 3.598610e+01 2.821980e+01 4.578954e+01 4.510541e+01 2.361610e+01 2.544908e+01 2.475840e+01 2.491027e+01 1.928969e+01 6.308483e-01 3.132449e+00 1.865173e+00 2.060060e+00 3.428193e+00 3.172890e+00 3.793733e+00 3.882481e+00 3.039107e+00 3.518455e+00 3.084291e+00 2.951159e+00 2.330233e+00 1.224193e-01 4.325448e-01 3.545663e-01 4.552153e-01 7.278281e-01 7.106035e-01 6.499668e-01 7.723839e-01 6.419320e-01 7.598073e-01 7.057210e-01 6.707824e-01 4.977668e-01
<GCONST> 1.186828e+02
<STATE> 4
<NUMMIXES> 2
<MIXTURE> 1 5.000000e-01
<MEAN> 39
 -1.058272e+01 -4.647101e+00 2.334837e-01 -5.118011e+00 -4.389042e+00 -4.026728e+00 8.741914e-01 -2.556409e+00 -1.071639e+00 -2.650102e+00 -1.593238e+00 -3.546737e+00 -6.346355e-01 3.609712e-01 1.293158e-01 -3.526426e-01 -7.727742e-01 -1.669577e-01 -5.013398e-01 1.438772e-01 1.258719e-01 -1.766518e-01 2.647949e-01 3.570087e-02 -1.490560e-01 -1.600939e-01 1.436617e-01 4.056709e-01 1.076645e-01 1.315255e-02 1.506000e-01 1.010736e-01 -1.339769e-01 1.363892e-01 -1.633728e-01 -1.078188e-02 -6.435002e-02 -4.897979e-03 2.346008e-02
<VARIANCE> 39
 4.090154e+01 8.231345e+01 2.568315e+01 8.402168e+01 4.741353e+01 2.597470e+01 5.014082e+01 3.158243e+01 2.630409e+01 1.687773e+01 2.209015e+01 1.593763e+01 1.512384e+01 3.894037e+00 7.412713e+00 2.761661e+00 4.155657e+00 4.887033e+00 3.353643e+00 4.000808e+00 3.039771e+00 3.127346e+00 2.517048e+00 3.352089e+00 2.297866e+00 1.615510e+00 6.283432e-01 1.211222e+00 4.473769e-01 7.592989e-01 8.478475e-01 7.342731e-01 6.507975e-01 6.503332e-01 5.735670e-01 5.094830e-01 6.600242e-01 4.879333e-01 3.429736e-01
<GCONST> 1.261975e+02
<MIXTURE> 2 5.000000e-01
<MEAN> 39
 -1.058272e+01 -4.647101e+00 2.334837e-01 -5.118011e+00 -4.389042e+00 -4.026728e+00 8.741914e-01 -2.556409e+00 -1.071639e+00 -2.650102e+00 -1.593238e+00 -3.546737e+00 -6.346355e-01 3.609712e-01 1.293158e-01 -3.526426e-01 -7.727742e-01 -1.669577e-01 -5.013398e-01 1.438772e-01 1.258719e-01 -1.766518e-01 2.647949e-01 3.570087e-02 -1.490560e-01 -1.600939e-01 1.436617e-01 4.056709e-01 1.076645e-01 1.315255e-02 1.506000e-01 1.010736e-01 -1.339769e-01 1.363892e-01 -1.633728e-01 -1.078188e-02 -6.435002e-02 -4.897979e-03 2.346008e-02
<VARIANCE> 39
 4.090154e+01 8.231345e+01 2.568315e+01 8.402168e+01 4.741353e+01 2.597470e+01 5.014082e+01 3.158243e+01 2.630409e+01 1.687773e+01 2.209015e+01 1.593763e+01 1.512384e+01 3.894037e+00 7.412713e+00 2.761661e+00 4.155657e+00 4.887033e+00 3.353643e+00 4.000808e+00 3.039771e+00 3.127346e+00 2.517048e+00 3.352089e+00 2.297866e+00 1.615510e+00 6.283432e-01 1.211222e+00 4.473769e-01 7.592989e-01 8.478475e-01 7.342731e-01 6.507975e-01 6.503332e-01 5.735670e-01 5.094830e-01 6.600242e-01 4.879333e-01 3.429736e-01
<GCONST> 1.261975e+02
<TRANSP> 5
 0.000000e+00 1.000000e+00 0.000000e+00 0.000000e+00 0.000000e+00
 0.000000e+00 8.639402e-01 1.360598e-01 0.000000e+00 0.000000e+00
 0.000000e+00 0.000000e+00 9.351999e-01 6.480015e-02 0.000000e+00
 0.000000e+00 0.000000e+00 0.000000e+00 8.851582e-01 1.148418e-01
 0.000000e+00 0.000000e+00 0.000000e+00 0.000000e+00 0.000000e+00
<ENDHMM>
~h "l"
<BEGINHMM>
<NUMSTATES> 5
<STATE> 2
<NUMMIXES> 2
<MIXTURE> 1 5.000000e-01
<MEAN> 39
 -3.389027e+00 7.893695e+00 -1.548756e+00 -8.870075e-01 -9.135127e+00 -1.637848e+01 2.293510e+00 -2.342205e+00 -6.780873e+00 5.050075e+00 -1.929503e+00 -3.075357e+00 1.593734e+00 -1.510658e-01 -3.332730e-01 -2.904426e-01 9.639850e-03 -8.900518e-02 3.812192e-01 6.719657e-01 8.401866e-02 -5.089638e-01 -6.090336e-02 3.275954e-02 -2.445199e-01 -3.667111e-02 -1.087167e-02 -9.669240e-02 -4.155983e-02 -4.496616e-02 7.571849e-02 2.220690e-01 -3.755851e-02 4.876821e-02 4.701968e-02 -1.407984e-01 -3.317904e-02 4.409328e-02 -2.874361e-02
<VARIANCE> 39
 1.030120e+01 5.161758e+01 2.755258e+01 2.319884e+01 4.105997e+01 6.730844e+01 4.557191e+01 6.539213e+01 3.428896e+01 5.652803e+01 3.915998e+01 1.774909e+01 2.346387e+01 3.367451e-01 1.687905e+00 1.253260e+00 1.146412e+00 1.656102e+00 4.364290e+00 2.501762e+00 1.693894e+00 2.308660e+00 2.395377e+00 2.153840e+00 1.319205e+00 1.258531e+00 5.359963e-02 1.932747e-01 1.186024e-01 2.150221e-01 2.799987e-01 5.182080e-01 4.532106e-01 2.564896e-01 3.847145e-01 3.614590e-01 3.460556e-01 2.241946e-01 2.311005e-01
<GCONST> 1.054949e+02
<MIXTURE> 2 5.000000e-01
<MEAN> 39
 -3.389027e+00 7.893695e+00 -1.548756e+00 -8.870075e-01 -9.135127e+00 -1.637848e+01 2.293510e+00 -2.342205e+00 -6.780873e+00 5.050075e+00 -1.929503e+00 -3.075357e+00 1.593734e+00 -1.510658e-01 -3.332730e-01 -2.904426e-01 9.639850e-03 -8.900518e-02 3.812192e-01 6.719657e-01 8.401866e-02 -5.089638e-01 -6.090336e-02 3.275954e-02 -2.445199e-01 -3.667111e-02 -1.087167e-02 -9.669240e-02 -4.155983e-02 -4.496616e-02 7.571849e-02 2.220690e-01 -3.755851e-02 4.876821e-02 4.701968e-02 -1.407984e-01 -3.317904e-02 4.409328e-02 -2.874361e-02
<VARIANCE> 39
 1.030120e+01 5.161758e+01 2.755258e+01 2.319884e+01 4.105997e+01 6.730844e+01 4.557191e+01 6.539213e+01 3.428896e+01 5.652803e+01 3.915998e+01 1.774909e+01 2.346387e+01 3.367451e-01 1.687905e+00 1.253260e+00 1.146412e+00 1.656102e+00 4.364290e+00 2.501762e+00 1.693894e+00 2.308660e+00 2.395377e+00 2.153840e+00 1.319205e+00 1.258531e+00 5.359963e-02 1.932747e-01 1.186024e-01 2.150221e-01 2.799987e-01 5.182080e-01 4.532106e-01 2.564896e-01 3.847145e-01 3.614590e-01 3.460556e-01 2.241946e-01 2.311005e-01
<GCONST> 1.054949e+02
<STATE> 3
<NUMMIXES> 2
<MIXTURE> 1 5.000000e-01
<MEAN> 39
 -2.910827e+00 -3.345023e+00 -1.122963e+01 1.874547e+00 -5.380703e+00 -9.349184e+00 8.835830e+00 1.108801e+00 -1.050167e+01 -6.671458e+00 -3.026561e+00 -1.469723e+00 -2.867083e+00 -4.462412e-02 -1.565764e-01 -5.580225e-02 -3.986786e-03 1.602021e-01 1.021327e-01 1.817531e-01 -1.766548e-01 -2.348238e-01 7.888576e-02 4.652085e-02 6.369732e-02 -1.187685e-01 2.352644e-02 2.638685e-02 -6.388019e-03 1.561290e-02 2.093584e-02 -4.807544e-02 -9.111612e-02 -1.873936e-02 6.984045e-02 3.057836e-02 1.021144e-02 7.775132e-03 8.415249e-03
<VARIANCE> 39
 8.976890e+00 3.077417e+01 1.294361e+01 2.001174e+01 6.269136e+01 3.142792e+01 4.726782e+01 3.183005e+01 4.447051e+01 3.254617e+01 1.370194e+01 2.262643e+01 9.977490e+00 3.432603e-01 1.093216e+00 4.401328e-01 9.015102e-01 2.798769e+00 9.905245e-01 1.395104e+00 1.401111e+00 2.697641e+00 1.026760e+00 8.764028e-01 1.001471e+00 3.963128e-01 4.252625e-02 1.345508e-01 7.174534e-02 1.443557e-01 2.773606e-01 1.868618e-01 2.548771e-01 1.642010e-01 3.268737e-01 1.312112e-01 1.265080e-01 1.334747e-01 5.419968e-02
<GCONST> 8.680774e+01
<MIXTURE> 2 5.000000e-01
<MEAN> 39
 -2.910827e+00 -3.345023e+00 -1.122963e+01 1.874547e+00 -5.380703e+00 -9.349184e+00 8.835830e+00 1.108801e+00 -1.050167e+01 -6.671458e+00 -3.026561e+00 -1.469723e+00 -2.867083e+00 -4.462412e-02 -1.565764e-01 -5.580225e-02 -3.986786e-03 1.602021e-01 1.021327e-01 1.817531e-01 -1.766548e-01 -2.348238e-01 7.888576e-02 4.652085e-02 6.369732e-02 -1.187685e-01 2.352644e-02 2.638685e-02 -6.388019e-03 1.561290e-02 2.093584e-02 -4.807544e-02 -9.111612e-02 -1.873936e-02 6.984045e-02 3.057836e-02 1.021144e-02 7.775132e-03 8.415249e-03
<VARIANCE> 39
 8.976890e+00 3.077417e+01 1.294361e+01 2.001174e+01 6.269136e+01 3.142792e+01 4.726782e+01 3.183005e+01 4.447051e+01 3.254617e+01 1.370194e+01 2.262643e+01 9.977490e+00 3.432603e-01 1.093216e+00 4.401328e-01 9.015102e-01 2.798769e+00 9.905245e-01 1.395104e+00 1.401111e+00 2.697641e+00 1.026760e+00 8.764028e-01 1.001471e+00 3.963128e-01 4.252625e-02 1.345508e-01 7.174534e-02 1.443557e-01 2.773606e-01 1.868618e-01 2.548771e-01 1.642010e-01 3.268737e-01 1.312112e-01 1.265080e-01 1.334747e-01 5.419968e-02
<GCONST> 8.680774e+01
<STATE> 4
<NUMMIXES> 2
<MIXTURE> 1 5.000000e-01
<MEAN> 39
 -5.856280e+00 -8.871598e+00 -1.374408e+01 4.409139e+00 3.287954e+00 -6.141496e+00 7.945524e+00 -5.687216e+00 -1.371215e+01 -5.696438e+00 1.385239e+00 1.116953e+00 -4.330379e+00 2.426971e-03 -6.467069e-03 -8.151107e-02 1.350773e-01 1.632980e-01 -8.603692e-02 -1.992229e-01 5.691174e-02 2.255537e-01 -9.064647e-02 5.249534e-02 -6.982842e-03 3.218829e-02 3.601078e-02 2.839820e-02 2.665664e-02 -5.659131e-02 -6.290933e-02 -2.128942e-02 2.456992e-02 5.773075e-02 3.535925e-02 -2.580434e-03 -6.758285e-02 -2.300350e-02 1.588076e-02
<VARIANCE> 39
 3.937738e+00 2.185709e+01 1.693058e+01 2.590801e+01 2.219180e+01 1.563904e+01 2.337355e+01 2.653162e+01 2.131516e+01 2.902656e+01 1.799212e+01 8.607325e+00 1.066067e+01 1.679200e-01 1.919891e-01 2.270423e-01 2.970405e-01 2.780849e-01 3.052436e-01 3.722716e-01 3.238570e-01 4.621767e-01 4.285261e-01 5.227745e-01 3.059551e-01 3.391544e-01 2.497904e-02 2.888308e-02 2.275654e-02 3.220851e-02 2.582102e-02 6.511520e-02 4.475711e-02 5.346410e-02 6.247843e-02 5.227884e-02 3.788994e-02 4.769322e-02 3.573016e-02
<GCONST> 5.083764e+01
<MIXTURE> 2 5.000000e-01
<MEAN> 39
 -5.856280e+00 -8.871598e+00 -1.374408e+01 4.409139e+00 3.287954e+00 -6.141496e+00 7.945524e+00 -5.687216e+00 -1.371215e+01 -5.696438e+00 1.385239e+00 1.116953e+00 -4.330379e+00 2.426971e-03 -6.467069e-03 -8.151107e-02 1.350773e-01 1.632980e-01 -8.603692e-02 -1.992229e-01 5.691174e-02 2.255537e-01 -9.064647e-02 5.249534e-02 -6.982842e-03 3.218829e-02 3.601078e-02 2.839820e-02 2.665664e-02 -5.659131e-02 -6.290933e-02 -2.128942e-02 2.456992e-02 5.773075e-02 3.535925e-02 -2.580434e-03 -6.758285e-02 -2.300350e-02 1.588076e-02
<VARIANCE> 39
 3.937738e+00 2.185709e+01 1.693058e+01 2.590801e+01 2.219180e+01 1.563904e+01 2.337355e+01 2.653162e+01 2.131516e+01 2.902656e+01 1.799212e+01 8.607325e+00 1.066067e+01 1.679200e-01 1.919891e-01 2.270423e-01 2.970405e-01 2.780849e-01 3.052436e-01 3.722716e-01 3.238570e-01 4.621767e-01 4.285261e-01 5.227745e-01 3.059551e-01 3.391544e-01 2.497904e-02 2.888308e-02 2.275654e-02 3.220851e-02 2.582102e-02 6.511520e-02 4.475711e-02 5.346410e-02 6.247843e-02 5.227884e-02 3.788994e-02 4.769322e-02 3.573016e-02
<GCONST> 5.083764e+01
<TRANSP> 5
 0.000000e+00 1.000000e+00 0.000000e+00 0.000000e+00 0.000000e+00
 0.000000e+00 8.864329e-01 1.135670e-01 0.000000e+00 0.000000e+00
 0.000000e+00 0.000000e+00 8.963042e-01 1.036958e-01 0.000000e+00
 0.000000e+00 0.000000e+00 0.000000e+00 8.894802e-01 1.105198e-01
 0.000000e+00 0.000000e+00 0.000000e+00 0.000000e+00 0.000000e+00
<ENDHMM>
~h "m"
<BEGINHMM>
<NUMSTATES> 5
<STATE> 2
<NUMMIXES> 2
<MIXTURE> 1 5.000000e-01
<MEAN> 39
 -1.888959e+00 4.664796e+00 1.916369e+00 1.722264e+00 -6.289355e-01 -1.223525e+01 -4.953511e+00 -2.501922e+00 -6.170599e+00 8.809416e-01 -1.909133e+00 -8.749686e-01 -2.569051e+00 9.309840e-01 4.856806e-01 2.227001e-01 2.903630e-01 9.422888e-01 -2.502466e+00 -8.771146e-01 -1.115485e-01 -6.515621e-01 9.400905e-01 3.719525e-01 8.989599e-01 -7.687967e-01 -1.306591e-01 1.258704e-02 -4.936987e-02 -1.137584e-01 1.238643e-01 -1.420714e-01 -1.730247e-01 -8.948087e-02 2.181661e-01 -1.709560e-02 2.090526e-02 1.141172e-01 -5.092137e-02
<VARIANCE> 39
 2.453035e+01 1.287084e+01 1.847534e+01 1.948724e+01 2.983817e+01 6.385189e+01 2.929163e+01 4.818598e+01 2.898689e+01 4.268757e+01 2.483742e+01 2.670821e+01 2.082491e+01 1.656671e+00 1.720716e+00 1.911241e+00 2.043905e+00 3.685599e+00 5.476274e+00 3.113627e+00 5.236815e+00 2.943136e+00 4.664561e+00 2.882875e+00 3.612026e+00 2.658033e+00 2.815877e-01 2.873188e-01 3.644508e-01 3.363321e-01 5.436568e-01 9.883904e-01 6.028557e-01 7.108595e-01 4.854298e-01 9.151893e-01 5.634245e-01 8.286966e-01 4.158317e-01
<GCONST> 1.203915e+02
<MIXTURE> 2 5.000000e-01
<MEAN> 39
 -1.888959e+00 4.664796e+00 1.916369e+00 1.722264e+00 -6.289355e-01 -1.223525e+01 -4.953511e+00 -2.501922e+00 -6.170599e+00 8.809416e-01 -1.909133e+00 -8.749686e-01 -2.569051e+00 9.309840e-01 4.856806e-01 2.227001e-01 2.903630e-01 9.422888e-01 -2.502466e+00 -8.771146e-01 -1.115485e-01 -6.515621e-01 9.400905e-01 3.719525e-01 8.989599e-01 -7.687967e-01 -1.306591e-01 1.258704e-02 -4.936987e-02 -1.137584e-01 1.238643e-01 -1.420714e-01 -1.730247e-01 -8.948087e-02 2.181661e-01 -1.709560e-02 2.090526e-02 1.141172e-01 -5.092137e-02
<VARIANCE> 39
 2.453035e+01 1.287084e+01 1.847534e+01 1.948724e+01 2.983817e+01 6.385189e+01 2.929163e+01 4.818598e+01 2.898689e+01 4.268757e+01 2.483742e+01 2.670821e+01 2.082491e+01 1.656671e+00 1.720716e+00 1.911241e+00 2.043905e+00 3.685599e+00 5.476274e+00 3.113627e+00 5.236815e+00 2.943136e+00 4.664561e+00 2.882875e+00 3.612026e+00 2.658033e+00 2.815877e-01 2.873188e-01 3.644508e-01 3.363321e-01 5.436568e-01 9.883904e-01 6.028557e-01 7.108595e-01 4.854298e-01 9.151893e-01 5.634245e-01 8.286966e-01 4.158317e-01
<GCONST> 1.203915e+02
<STATE> 3
<NUMMIXES> 2
<MIXTURE> 1 5.000000e-01
<MEAN> 39
 1.432397e+00 5.675384e+00 9.086168e-01 6.326023e+00 9.749003e+00 -2.742947e+01 -8.777733e+00 -1.088649e+01 -6.275605e-01 4.476009e+00 -2.591133e+00 3.724460e+00 -8.144115e+00 2.122612e-01 2.109472e-01 -3.517622e-01 1.427930e-01 6.539846e-01 -3.060992e-01 -3.855408e-01 -6.959856e-01 2.145990e-01 2.182164e-01 5.376285e-01 1.118810e-01 -3.160563e-01 -7.521824e-02 -1.265237e-01 -9.013624e-02 -2.591171e-03 -1.494334e-01 3.845206e-01 1.582566e-01 1.037312e-01 1.224919e-02 -1.959617e-01 -5.484972e-02 -1.188471e-01 1.839294e-01
<VARIANCE> 39
 1.928951e+01 9.914224e+00 2.076259e+01 3.183854e+01 3.010660e+01 4.134205e+01 2.919161e+01 5.431481e+01 4.282393e+01 2.546413e+01 2.715361e+01 1.384404e+01 1.642940e+01 9.374945e-01 7.784783e-01 2.092748e+00 1.753567e+00 2.604506e+00 4.041868e+00 3.202562e+00 2.402184e+00 2.443344e+00 2.492343e+00 2.060151e+00 2.088264e+00 1.853922e+00 1.724058e-01 1.486817e-01 3.288775e-01 3.223913e-01 5.492299e-01 5.683998e-01 5.873058e-01 4.246079e-01 5.379967e-01 4.127906e-01 2.838823e-01 3.456256e-01 3.090585e-01
<GCONST> 1.094437e+02
<MIXTURE> 2 5.000000e-01
<MEAN> 39
 1.432397e+00 5.675384e+00 9.086168e-01 6.326023e+00 9.749003e+00 -2.742947e+01 -8.777733e+00 -1.088649e+01 -6.275605e-01 4.476009e+00 -2.591133e+00 3.724460e+00 -8.144115e+00 2.122612e-01 2.109472e-01 -3.517622e-01 1.427930e-01 6.539846e-01 -3.060992e-01 -3.855408e-01 -6.959856e-01 2.145990e-01 2.182164e-01 5.376285e-01 1.118810e-01 -3.160563e-01 -7.521824e-02 -1.265237e-01 -9.013624e-02 -2.591171e-03 -1.494334e-01 3.845206e-01 1.582566e-01 1.037312e-01 1.224919e-02 -1.959617e-01 -5.484972e-02 -1.188471e-01 1.839294e-01
<VARIANCE> 39
 1.928951e+01 9.914224e+00 2.076259e+01 3.183854e+01 3.010660e+01 4.134205e+01 2.919161e+01 5.431481e+01 4.282393e+01 2.546413e+01 2.715361e+01 1.384404e+01 1.642940e+01 9.374945e-01 7.784783e-01 2.092748e+00 1.753567e+00 2.604506e+00 4.041868e+00 3.202562e+00 2.402184e+00 2.443344e+00 2.492343e+00 2.060151e+00 2.088264e+00 1.853922e+00 1.724058e-01 1.486817e-01 3.288775e-01 3.223913e-01 5.492299e-01 5.683998e-01 5.873058e-01 4.246079e-01 5.379967e-01 4.127906e-01 2.838823e-01 3.456256e-01 3.090585e-01
<GCONST> 1.094437e+02
<STATE> 4
<NUMMIXES> 2
<MIXTURE> 1 5.000000e-01
<MEAN> 39
 2.139727e+00 6.945399e+00 -5.128143e-01 2.384978e+00 7.721344e+00 -2.352723e+01 -1.037969e+01 -8.365082e+00 -6.085619e+00 3.760225e+00 1.416633e+00 2.673764e+00 -6.945732e+00 -2.132665e-02 -1.818933e-01 -2.649305e-01 -1.913836e-03 5.669099e-02 2.653689e-01 9.748933e-02 -1.822234e-02 7.278603e-02 -3.165398e-01 -6.558741e-02 4.804764e-02 1.922918e-01 -2.143179e-02 -5.058758e-02 -5.562412e-02 -4.115748e-02 -8.209778e-02 1.657500e-01 7.174535e-02 6.170271e-02 8.487137e-03 -7.409982e-02 -4.674265e-02 -4.961816e-02 7.493304e-02
<VARIANCE> 39
 4.572982e+00 6.739657e+00 2.887215e+01 1.956229e+01 4.230694e+01 2.850933e+01 1.391491e+01 1.200402e+02 3.405801e+01 1.612738e+01 2.496675e+01 1.788465e+01 1.732582e+01 1.170042e-01 4.545928e-01 6.326467e-01 4.516665e-01 4.359464e-01 1.821743e+00 5.981812e-01 9.264413e-01 5.065076e-01 7.428443e-01 5.865803e-01 4.072576e-01 7.012527e-01 2.123173e-02 5.547251e-02 1.015088e-01 1.073269e-01 9.303590e-02 2.426868e-01 1.154504e-01 2.025997e-01 8.811773e-02 1.134339e-01 1.355001e-01 9.842354e-02 1.533968e-01
<GCONST> 7.384130e+01
<MIXTURE> 2 5.000000e-01
<MEAN> 39
 2.139727e+00 6.945399e+00 -5.128143e-01 2.384978e+00 7.721344e+00 -2.352723e+01 -1.037969e+01 -8.365082e+00 -6.085619e+00 3.760225e+00 1.416633e+00 2.673764e+00 -6.945732e+00 -2.132665e-02 -1.818933e-01 -2.649305e-01 -1.913836e-03 5.669099e-02 2.653689e-01 9.748933e-02 -1.822234e-02 7.278603e-02 -3.165398e-01 -6.558741e-02 4.804764e-02 1.922918e-01 -2.143179e-02 -5.058758e-02 -5.562412e-02 -4.115748e-02 -8.209778e-02 1.657500e-01 7.174535e-02 6.170271e-02 8.487137e-03 -7.409982e-02 -4.674265e-02 -4.961816e-02 7.493304e-02
<VARIANCE> 39
 4.572982e+00 6.739657e+00 2.887215e+01 1.956229e+01 4.230694e+01 2.850933e+01 1.391491e+01 1.200402e+02 3.405801e+01 1.612738e+01 2.496675e+01 1.788465e+01 1.732582e+01 1.170042e-01 4.545928e-01 6.326467e-01 4.516665e-01 4.359464e-01 1.821743e+00 5.981812e-01 9.264413e-01 5.065076e-01 7.428443e-01 5.865803e-01 4.072576e-01 7.012527e-01 2.123173e-02 5.547251e-02 1.015088e-01 1.073269e-01 9.303590e-02 2.426868e-01 1.154504e-01 2.025997e-01 8.811773e-02 1.134339e-01 1.355001e-01 9.842354e-02 1.533968e-01
<GCONST> 7.384130e+01
<TRANSP> 5
 0.000000e+00 1.000000e+00 0.000000e+00 0.000000e+00 0.000000e+00
 0.000000e+00 8.251935e-01 1.748065e-01 0.000000e+00 0.000000e+00
 0.000000e+00 0.000000e+00 8.163719e-01 1.836281e-01 0.000000e+00
 0.000000e+00 0.000000e+00 0.000000e+00 9.427813e-01 5.721860e-02
 0.000000e+00 0.000000e+00 0.000000e+00 0.000000e+00 0.000000e+00
<ENDHMM>
~h "n"
<BEGINHMM>
<NUMSTATES> 5
<STATE> 2
<NUMMIXES> 2
<MIXTURE> 1 5.000000e-01
<MEAN> 39
 4.053445e-01 1.912611e+00 3.540974e+00 -4.489000e+00 2.012433e-01 -1.412493e+01 -3.793129e-01 -3.945254e+00 -1.377184e+01 5.047710e+00 -5.466662e+00 5.878325e-01 -3.460766e+00 3.940852e-01 7.437896e-01 2.443354e-01 -1.566604e-01 1.514938e-01 -1.468945e+00 -4.488027e-01 -1.329686e-01 3.002270e-01 6.584034e-01 -1.661702e-02 9.152176e-02 -6.906854e-01 -1.247927e-01 -1.654184e-01 -1.729971e-01 -1.779732e-02 -4.016705e-02 4.233222e-01 1.334143e-01 3.513082e-02 -6.758521e-02 -9.680530e-02 -1.822252e-01 -1.349409e-02 1.503834e-01
<VARIANCE> 39
 1.204390e+01 2.554884e+01 1.888384e+01 1.384496e+01 9.748997e+00 5.788189e+01 3.933239e+01 4.339218e+01 1.847516e+01 2.179083e+01 2.019584e+01 1.435895e+01 2.940887e+01 3.362974e-01 1.283623e+00 5.554391e-01 8.150176e-01 6.619496e-01 5.178496e+00 1.602203e+00 9.404224e-01 7.619141e-01 1.043719e+00 1.879734e+00 1.096991e+00 1.362758e+00 5.093419e-02 2.085846e-01 6.338572e-02 1.540928e-01 1.343130e-01 6.769572e-01 3.355471e-01 2.160129e-01 1.526628e-01 2.162938e-01 2.733953e-01 1.389636e-01 1.828573e-01
<GCONST> 9.003737e+01
<MIXTURE> 2 5.000000e-01
<MEAN> 39
 4.053445e-01 1.912611e+00 3.540974e+00 -4.489000e+00 2.012433e-01 -1.412493e+01 -3.793129e-01 -3.945254e+00 -1.377184e+01 5.047710e+00 -5.466662e+00 5.878325e-01 -3.460766e+00 3.940852e-01 7.437896e-01 2.443354e-01 -1.566604e-01 1.514938e-01 -1.468945e+00 -4.488027e-01 -1.329686e-01 3.002270e-01 6.584034e-01 -1.661702e-02 9.152176e-02 -6.906854e-01 -1.247927e-01 -1.654184e-01 -1.729971e-01 -1.779732e-02 -4.016705e-02 4.233222e-01 1.334143e-01 3.513082e-02 -6.758521e-02 -9.680530e-02 -1.822252e-01 -1.349409e-02 1.503834e-01
<VARIANCE> 39
 1.204390e+01 2.554884e+01 1.888384e+01 1.384496e+01 9.748997e+00 5.788189e+01 3.933239e+01 4.339218e+01 1.847516e+01 2.179083e+01 2.019584e+01 1.435895e+01 2.940887e+01 3.362974e-01 1.283623e+00 5.554391e-01 8.150176e-01 6.619496e-01 5.178496e+00 1.602203e+00 9.404224e-01 7.619141e-01 1.043719e+00 1.879734e+00 1.096991e+00 1.362758e+00 5.093419e-02 2.085846e-01 6.338572e-02 1.540928e-01 1.343130e-01 6.769572e-01 3.355471e-01 2.160129e-01 1.526628e-01 2.162938e-01 2.733953e-01 1.389636e-01 1.828573e-01
<GCONST> 9.003737e+01
<STATE> 3
<NUMMIXES> 2
<MIXTURE> 1 5.000000e-01
<MEAN> 39
 3.514016e+00 5.382141e+00 4.530243e+00 -3.755190e+00 1.308558e+00 -1.719582e+01 -2.277495e-01 -8.698738e+00 -1.021144e+01 7.440070e+00 -4.531710e+00 1.641379e+00 -6.433561e+00 -3.176559e-01 -1.177486e-01 -2.575929e-01 1.771701e-01 -2.869766e-01 7.613564e-01 -2.320844e-02 2.455866e-02 -2.586002e-02 -4.143764e-01 -7.076298e-02 -3.955999e-03 5.198140e-01 -1.306242e-01 -1.343315e-01 -1.102314e-01 -1.210156e-02 -4.406196e-02 3.420879e-01 8.502936e-02 3.646234e-02 -2.560437e-02 -1.714170e-01 -3.885864e-02 -2.772117e-02 1.429829e-01
<VARIANCE> 39
 1.381240e+01 1.927530e+01 1.108434e+01 1.835188e+01 2.390860e+01 7.779441e+01 8.189550e+01 3.007198e+01 4.231052e+01 3.524920e+01 3.294863e+01 1.921956e+01 4.673962e+01 6.073162e-01 1.518619e+00 9.219404e-01 1.200226e+00 1.515592e+00 4.651387e+00 4.394784e+00 1.797667e+00 1.465725e+00 2.861770e+00 1.808500e+00 8.908925e-01 1.693115e+00 6.991328e-02 2.047920e-01 1.772510e-01 2.849913e-01 2.449453e-01 6.612217e-01 8.868450e-01 3.264005e-01 2.227381e-01 5.392506e-01 3.455191e-01 2.015832e-01 2.876986e-01
<GCONST> 1.056734e+02
<MIXTURE> 2 5.000000e-01
<MEAN> 39
 3.514016e+00 5.382141e+00 4.530243e+00 -3.755190e+00 1.308558e+00 -1.719582e+01 -2.277495e-01 -8.698738e+00 -1.021144e+01 7.440070e+00 -4.531710e+00 1.641379e+00 -6.433561e+00 -3.176559e-01 -1.177486e-01 -2.575929e-01 1.771701e-01 -2.869766e-01 7.613564e-01 -2.320844e-02 2.455866e-02 -2.586002e-02 -4.143764e-01 -7.076298e-02 -3.955999e-03 5.198140e-01 -1.306242e-01 -1.343315e-01 -1.102314e-01 -1.210156e-02 -4.406196e-02 3.420879e-01 8.502936e-02 3.646234e-02 -2.560437e-02 -1.714170e-01 -3.885864e-02 -2.772117e-02 1.429829e-01
<VARIANCE> 39
 1.381240e+01 1.927530e+01 1.108434e+01 1.835188e+01 2.390860e+01 7.779441e+01 8.189550e+01 3.007198e+01 4.231052e+01 3.524920e+01 3.294863e+01 1.921956e+01 4.673962e+01 6.073162e-01 1.518619e+00 9.219404e-01 1.200226e+00 1.515592e+00 4.651387e+00 4.394784e+00 1.797667e+00 1.465725e+00 2.861770e+00 1.808500e+00 8.908925e-01 1.693115e+00 6.991328e-02 2.047920e-01 1.772510e-01 2.849913e-01 2.449453e-01 6.612217e-01 8.868450e-01 3.264005e-01 2.227381e-01 5.392506e-01 3.455191e-01 2.015832e-01 2.876986e-01
<GCONST> 1.056734e+02
<STATE> 4
<NUMMIXES> 2
<MIXTURE> 1 5.000000e-01
<MEAN> 39
 -4.796394e+00 -3.953342e+00 -1.881779e-01 -2.205864e+00 -2.189936e+00 1.831737e-01 -1.665654e+00 -9.022439e+00 -3.832375e+00 4.003653e-01 -6.854800e+00 -6.139168e-01 2.720173e+00 -2.046857e-01 -1.397268e-01 -1.976343e-01 -9.914569e-02 -4.950183e-03 5.850997e-01 -2.799497e-02 2.767909e-02 1.587261e-01 -3.270381e-01 -2.864290e-02 3.170950e-02 1.151337e-01 4.179822e-02 6.741916e-02 6.847854e-02 1.717233e-02 5.026259e-02 -1.163623e-01 -3.207015e-03 -4.822935e-03 7.691118e-03 4.209587e-02 6.002250e-02 1.712682e-02 -5.800674e-02
<VARIANCE> 39
 6.411609e+00 3.241286e+01 1.548646e+01 2.644605e+01 2.177130e+01 3.266032e+01 4.666394e+01 2.820851e+01 6.040179e+01 3.530942e+01 2.711170e+01 1.823451e+01 1.822130e+01 6.771899e-01 1.549687e+00 1.880196e+00 2.194086e+00 2.449294e+00 3.736298e+00 2.842949e+00 3.098095e+00 2.752058e+00 3.583448e+00 3.690476e+00 2.345887e+00 2.340069e+00 1.257895e-01 2.064267e-01 3.461081e-01 4.505596e-01 5.433497e-01 5.695761e-01 4.631899e-01 6.146868e-01 4.878820e-01 6.949602e-01 7.916370e-01 4.948521e-01 4.663241e-01
<GCONST> 1.139816e+02
<MIXTURE> 2 5.000000e-01
<MEAN> 39
 -4.796394e+00 -3.953342e+00 -1.881779e-01 -2.205864e+00 -2.189936e+00 1.831737e-01 -1.665654e+00 -9.022439e+00 -3.832375e+00 4.003653e-01 -6.854800e+00 -6.139168e-01 2.720173e+00 -2.046857e-01 -1.397268e-01 -1.976343e-01 -9.914569e-02 -4.950183e-03 5.850997e-01 -2.799497e-02 2.767909e-02 1.587261e-01 -3.270381e-01 -2.864290e-02 3.170950e-02 1.151337e-01 4.179822e-02 6.741916e-02 6.847854e-02 1.717233e-02 5.026259e-02 -1.163623e-01 -3.207015e-03 -4.822935e-03 7.691118e-03 4.209587e-02 6.002250e-02 1.712682e-02 -5.800674e-02
<VARIANCE> 39
 6.411609e+00 3.241286e+01 1.548646e+01 2.644605e+01 2.177130e+01 3.266032e+01 4.666394e+01 2.820851e+01 6.040179e+01 3.530942e+01 2.711170e+01 1.823451e+01 1.822130e+01 6.771899e-01 1.549687e+00 1.880196e+00 2.194086e+00 2.449294e+00 3.736298e+00 2.842949e+00 3.098095e+00 2.752058e+00 3.583448e+00 3.690476e+00 2.345887e+00 2.340069e+00 1.257895e-01 2.064267e-01 3.461081e-01 4.505596e-01 5.433497e-01 5.695761e-01 4.631899e-01 6.146868e-01 4.878820e-01 6.949602e-01 7.916370e-01 4.948521e-01 4.663241e-01
<GCONST> 1.139816e+02
<TRANSP> 5
 0.000000e+00 1.000000e+00 0.000000e+00 0.000000e+00 0.000000e+00
 0.000000e+00 7.831703e-01 2.168296e-01 0.000000e+00 0.000000e+00
 0.000000e+00 0.000000e+00 8.909021e-01 1.090979e-01 0.000000e+00
 0.000000e+00 0.000000e+00 0.000000e+00 9.113594e-01 8.864061e-02
 0.000000e+00 0.000000e+00 0.000000e+00 0.000000e+00 0.000000e+00
<ENDHMM>
~h "o"
<BEGINHMM>
<NUMSTATES> 7
<STATE> 2
<NUMMIXES> 2
<MIXTURE> 1 5.000000e-01
<MEAN> 39
 4.034944e+00 2.847123e+00 -2.030142e+01 3.092631e-01 2.247395e+00 -1.054936e+01 -1.254273e+00 -2.429906e+00 9.026828e+00 1.129111e+00 -7.444494e+00 -6.578173e+00 3.004233e-01 -8.701548e-03 2.045836e-02 -1.787512e-01 2.022451e-02 3.055851e-02 -1.588780e-01 -1.436168e-01 1.583759e-01 -3.540152e-02 3.916235e-03 -1.768171e-01 2.742533e-02 -1.945855e-02 -3.052922e-02 -8.458039e-03 1.263189e-01 3.400539e-02 -7.984789e-02 2.858793e-02 3.022161e-02 3.017316e-02 -9.976646e-02 -4.117867e-02 4.542135e-02 3.860866e-02 -1.941957e-02
<VARIANCE> 39
 9.101117e+00 8.574361e+00 4.808800e+01 1.120741e+01 1.668395e+01 2.749838e+01 1.237010e+01 5.367797e+01 2.229927e+01 2.377069e+01 2.258131e+01 2.461442e+01 1.431419e+01 3.505300e-01 2.871309e-01 9.204044e-01 5.414057e-01 8.340551e-01 8.482632e-01 6.806298e-01 1.511346e+00 1.550640e+00 1.413915e+00 1.299171e+00 1.160646e+00 7.726119e-01 5.431261e-02 4.804143e-02 1.028683e-01 1.035079e-01 8.512518e-02 1.136094e-01 1.336351e-01 1.569681e-01 2.130380e-01 1.964006e-01 1.755652e-01 1.623549e-01 1.153543e-01
<GCONST> 7.994747e+01
<MIXTURE> 2 5.000000e-01
<MEAN> 39
 4.034944e+00 2.847123e+00 -2.030142e+01 3.092631e-01 2.247395e+00 -1.054936e+01 -1.254273e+00 -2.429906e+00 9.026828e+00 1.129111e+00 -7.444494e+00 -6.578173e+00 3.004233e-01 -8.701548e-03 2.045836e-02 -1.787512e-01 2.022451e-02 3.055851e-02 -1.588780e-01 -1.436168e-01 1.583759e-01 -3.540152e-02 3.916235e-03 -1.768171e-01 2.742533e-02 -1.945855e-02 -3.052922e-02 -8.458039e-03 1.263189e-01 3.400539e-02 -7.984789e-02 2.858793e-02 3.022161e-02 3.017316e-02 -9.976646e-02 -4.117867e-02 4.542135e-02 3.860866e-02 -1.941957e-02
<VARIANCE> 39
 9.101117e+00 8.574361e+00 4.808800e+01 1.120741e+01 1.668395e+01 2.749838e+01 1.237010e+01 5.367797e+01 2.229927e+01 2.377069e+01 2.258131e+01 2.461442e+01 1.431419e+01 3.505300e-01 2.871309e-01 9.204044e-01 5.414057e-01 8.340551e-01 8.482632e-01 6.806298e-01 1.511346e+00 1.550640e+00 1.413915e+00 1.299171e+00 1.160646e+00 7.726119e-01 5.431261e-02 4.804143e-02 1.028683e-01 1.035079e-01 8.512518e-02 1.136094e-01 1.336351e-01 1.569681e-01 2.130380e-01 1.964006e-01 1.755652e-01 1.623549e-01 1.153543e-01
<GCONST> 7.994747e+01
<STATE> 3
<NUMMIXES> 2
<MIXTURE> 1 5.000000e-01
<MEAN> 39
 4.881534e+00 2.218793e+00 -1.501028e+01 1.061143e+00 -1.494843e-01 -9.739662e+00 -2.790834e+00 3.557016e+00 4.243048e+00 -1.824127e-01 -8.782038e+00 -1.962829e+00 4.274148e-01 2.445655e-01 1.202763e-01 1.150067e+00 5.293875e-01 -2.575692e-01 2.686478e-01 1.302587e-02 1.987214e-02 -8.208546e-01 -3.607646e-01 9.642567e-02 6.520175e-01 2.848183e-01 4.644490e-02 4.270023e-02 1.150421e-01 1.265114e-01 1.822503e-01 3.615209e-02 2.948847e-02 -2.950300e-01 -1.213575e-01 -3.019777e-02 9.431658e-02 -4.752636e-02 1.136573e-01
<VARIANCE> 39
 1.924574e+01 3.647948e+01 1.264462e+02 3.289096e+01 4.722398e+01 7.417800e+01 3.325418e+01 6.005014e+01 6.251550e+01 6.040041e+01 4.858751e+01 4.587475e+01 4.232202e+01 4.385266e-01 9.375622e-01 1.406592e+00 8.435097e-01 1.474790e+00 1.445515e+00 2.339508e+00 2.465018e+00 3.125145e+00 2.665988e+00 2.023778e+00 1.956628e+00 1.574432e+00 8.940543e-02 1.094736e-01 2.177844e-01 1.310246e-01 2.768764e-01 2.261550e-01 5.052238e-01 3.441556e-01 7.070220e-01 4.980134e-01 4.080618e-01 3.214310e-01 2.839064e-01
<GCONST> 1.107198e+02
<MIXTURE> 2 5.000000e-01
<MEAN> 39
 4.881534e+00 2.218793e+00 -1.501028e+01 1.061143e+00 -1.494843e-01 -9.739662e+00 -2.790834e+00 3.557016e+00 4.243048e+00 -1.824127e-01 -8.782038e+00 -1.962829e+00 4.274148e-01 2.445655e-01 1.202763e-01 1.150067e+00 5.293875e-01 -2.575692e-01 2.686478e-01 1.302587e-02 1.987214e-02 -8.208546e-01 -3.607646e-01 9.642567e-02 6.520175e-01 2.848183e-01 4.644490e-02 4.270023e-02 1.150421e-01 1.265114e-01 1.822503e-01 3.615209e-02 2.948847e-02 -2.950300e-01 -1.213575e-01 -3.019777e-02 9.431658e-02 -4.752636e-02 1.136573e-01
<VARIANCE> 39
 1.924574e+01 3.647948e+01 1.264462e+02 3.289096e+01 4.722398e+01 7.417800e+01 3.325418e+01 6.005014e+01 6.251550e+01 6.040041e+01 4.858751e+01 4.587475e+01 4.232202e+01 4.385266e-01 9.375622e-01 1.406592e+00 8.435097e-01 1.474790e+00 1.445515e+00 2.339508e+00 2.465018e+00 3.125145e+00 2.665988e+00 2.023778e+00 1.956628e+00 1.574432e+00 8.940543e-02 1.094736e-01 2.177844e-01 1.310246e-01 2.768764e-01 2.261550e-01 5.052238e-01 3.441556e-01 7.070220e-01 4.980134e-01 4.080618e-01 3.214310e-01 2.839064e-01
<GCONST> 1.107198e+02
<STATE> 4
<NUMMIXES> 2
<MIXTURE> 1 5.000000e-01
<MEAN> 39
 5.658574e+00 4.319230e+00 -8.201833e+00 4.928812e+00 1.315170e+00 -1.007504e+01 -4.100578e+00 -2.379080e-01 2.602553e+00 -9.234572e-01 -6.414089e+00 -6.321855e-01 2.601970e+00 -4.479625e-01 -5.282050e-01 2.594809e-01 2.623833e-01 4.495696e-01 7.208600e-02 2.716649e-01 4.120321e-01 -7.875840e-02 -4.746000e-02 3.965663e-01 -1.490180e-03 6.234478e-02 -2.343563e-01 -1.848705e-01 -2.138977e-01 -2.182683e-01 -2.840621e-02 1.149572e-01 9.912908e-02 3.649351e-01 3.968189e-01 2.478084e-02 1.862308e-03 -1.668145e-01 -2.538121e-01
<VARIANCE> 39
