~o
<STREAMINFO> 1 39
<VECSIZE> 39<NULLD><MFCC_D_A><DIAGC>
~h "a"
<BEGINHMM>
<NUMSTATES> 7
<STATE> 2
<NUMMIXES> 2
<MIXTURE> 1 5.000000e-01
<MEAN> 39
 -2.031677e+00 -4.435971e+00 -8.642333e-01 -2.358492e-02 -3.936614e+00 -4.236941e+00 4.786616e+00 -1.209118e+00 -3.533524e+00 -1.063367e+00 -4.796432e+00 -4.977749e+00 3.021800e-01 1.899336e-01 -1.440835e-01 -7.861397e-01 -2.588805e-01 5.323099e-01 8.860368e-02 6.658450e-01 1.632358e-01 -2.843595e-01 -3.915066e-01 -5.604837e-02 -3.305569e-01 6.334040e-01 -2.426536e-02 5.668164e-03 -1.244916e-01 1.081574e-01 1.872769e-01 -9.280598e-02 -4.543538e-02 7.519633e-02 3.490335e-02 -1.406971e-01 -2.662190e-03 1.719570e-01 7.531126e-02
<VARIANCE> 39
 2.238099e+01 3.216557e+01 7.195355e+01 4.400994e+01 6.402715e+01 7.210486e+01 6.581158e+01 5.391037e+01 5.263329e+01 4.292143e+01 3.139813e+01 2.757643e+01 4.045698e+01 2.181600e+00 3.672159e+00 3.922446e+00 2.707489e+00 3.382678e+00 4.877180e+00 3.896878e+00 5.004920e+00 4.537307e+00 3.245324e+00 3.627255e+00 1.269065e+00 2.821029e+00 5.338190e-01 6.897130e-01 4.869373e-01 3.994641e-01 5.265613e-01 7.509285e-01 7.618870e-01 9.204233e-01 7.520079e-01 5.392097e-01 6.619446e-01 2.306229e-01 5.616903e-01
<GCONST> 1.293077e+02
<MIXTURE> 2 5.000000e-01
<MEAN> 39
 -2.031677e+00 -4.435971e+00 -8.642333e-01 -2.358492e-02 -3.936614e+00 -4.236941e+00 4.786616e+00 -1.209118e+00 -3.533524e+00 -1.063367e+00 -4.796432e+00 -4.977749e+00 3.021800e-01 1.899336e-01 -1.440835e-01 -7.861397e-01 -2.588805e-01 5.323099e-01 8.860368e-02 6.658450e-01 1.632358e-01 -2.843595e-01 -3.915066e-01 -5.604837e-02 -3.305569e-01 6.334040e-01 -2.426536e-02 5.668164e-03 -1.244916e-01 1.081574e-01 1.872769e-01 -9.280598e-02 -4.543538e-02 7.519633e-02 3.490335e-02 -1.406971e-01 -2.662190e-03 1.719570e-01 7.531126e-02
<VARIANCE> 39
 2.238099e+01 3.216557e+01 7.195355e+01 4.400994e+01 6.402715e+01 7.210486e+01 6.581158e+01 5.391037e+01 5.263329e+01 4.292143e+01 3.139813e+01 2.757643e+01 4.045698e+01 2.181600e+00 3.672159e+00 3.922446e+00 2.707489e+00 3.382678e+00 4.877180e+00 3.896878e+00 5.004920e+00 4.537307e+00 3.245324e+00 3.627255e+00 1.269065e+00 2.821029e+00 5.338190e-01 6.897130e-01 4.869373e-01 3.994641e-01 5.265613e-01 7.509285e-01 7.618870e-01 9.204233e-01 7.520079e-01 5.392097e-01 6.619446e-01 2.306229e-01 5.616903e-01
<GCONST> 1.293077e+02
<STATE> 3
<NUMMIXES> 2
<MIXTURE> 1 5.000000e-01
<MEAN> 39
 -1.016564e+00 -5.666300e+00 -1.434859e+01 4.515594e+00 5.763081e+00 -4.592915e+00 4.647791e+00 -3.664950e-01 -3.530416e+00 -1.093113e+01 -5.985594e+00 2.045336e+00 3.227031e+00 -6.658643e-02 -1.823626e-01 -1.602883e-01 3.554331e-02 3.581295e-02 -1.477790e-01 3.562677e-01 4.043056e-01 -2.104958e-01 -2.709873e-01 1.782477e-01 6.931919e-02 -2.283457e-01 -2.515321e-02 1.179309e-01 1.566719e-01 -1.178629e-01 -1.307135e-01 7.200734e-02 -6.699190e-02 -1.314764e-01 -1.570166e-01 1.920792e-01 1.651530e-01 -1.245377e-01 -6.279593e-02
<VARIANCE> 39
 6.128710e+00 9.335794e+00 8.150879e+01 6.073330e+01 5.019219e+01 4.183435e+01 5.361091e+01 2.050234e+01 4.031234e+01 6.480851e+01 2.376309e+01 3.762633e+01 2.523221e+01 4.422354e-01 1.100131e+00 1.241361e+00 1.614298e+00 1.452328e+00 2.234882e+00 2.732852e+00 1.063956e+00 2.755111e+00 2.269169e+00 2.330266e+00 2.215768e+00 2.734695e+00 8.060909e-02 1.642739e-01 2.143229e-01 3.157267e-01 2.957654e-01 4.105744e-01 4.364934e-01 2.556959e-01 4.272088e-01 3.808911e-01 5.056638e-01 4.382927e-01 6.270261e-01
<GCONST> 1.083671e+02
<MIXTURE> 2 5.000000e-01
<MEAN> 39
 -1.016564e+00 -5.666300e+00 -1.434859e+01 4.515594e+00 5.763081e+00 -4.592915e+00 4.647791e+00 -3.664950e-01 -3.530416e+00 -1.093113e+01 -5.985594e+00 2.045336e+00 3.227031e+00 -6.658643e-02 -1.823626e-01 -1.602883e-01 3.554331e-02 3.581295e-02 -1.477790e-01 3.562677e-01 4.043056e-01 -2.104958e-01 -2.709873e-01 1.782477e-01 6.931919e-02 -2.283457e-01 -2.515321e-02 1.179309e-01 1.566719e-01 -1.178629e-01 -1.307135e-01 7.200734e-02 -6.699190e-02 -1.314764e-01 -1.570166e-01 1.920792e-01 1.651530e-01 -1.245377e-01 -6.279593e-02
<VARIANCE> 39
 6.128710e+00 9.335794e+00 8.150879e+01 6.073330e+01 5.019219e+01 4.183435e+01 5.361091e+01 2.050234e+01 4.031234e+01 6.480851e+01 2.376309e+01 3.762633e+01 2.523221e+01 4.422354e-01 1.100131e+00 1.241361e+00 1.614298e+00 1.452328e+00 2.234882e+00 2.732852e+00 1.063956e+00 2.755111e+00 2.269169e+00 2.330266e+00 2.215768e+00 2.734695e+00 8.060909e-02 1.642739e-01 2.143229e-01 3.157267e-01 2.957654e-01 4.105744e-01 4.364934e-01 2.556959e-01 4.272088e-01 3.808911e-01 5.056638e-01 4.382927e-01 6.270261e-01
<GCONST> 1.083671e+02
<STATE> 4
<NUMMIXES> 2
<MIXTURE> 1 5.000000e-01
<MEAN> 39
 -1.879576e+00 -7.183424e+00 -3.680990e+00 -5.218169e+00 -1.071613e+00 -5.668869e+00 1.046500e+01 -1.058548e+00 -9.038150e+00 -4.970174e+00 -3.658614e+00 -5.285687e+00 1.213615e+00 -1.097556e-02 -2.506339e-02 8.342255e-01 -4.821496e-01 -8.327162e-01 3.038175e-01 -3.095752e-02 -2.447755e-01 -3.277344e-01 6.647260e-01 -1.882239e-02 -1.889609e-01 -3.612667e-01 5.473701e-02 1.005340e-01 1.131597e-01 2.131572e-02 -3.071496e-02 -2.244725e-02 -1.766349e-01 -7.930411e-02 2.411155e-01 1.003945e-01 -1.587537e-01 1.564477e-01 -5.939963e-02
<VARIANCE> 39
 4.986564e+00 1.521110e+01 3.892423e+01 4.639564e+01 4.735029e+01 3.980128e+01 2.019694e+01 2.902853e+01 2.562773e+01 6.396515e+01 2.824038e+01 2.518272e+01 1.282222e+01 2.772094e-01 3.651977e-01 9.896840e-01 9.611526e-01 1.570606e+00 1.131258e+00 1.373983e+00 1.336957e+00 1.752009e+00 1.827785e+00 1.543385e+00 1.241828e+00 1.006582e+00 3.412581e-02 6.041211e-02 1.112565e-01 1.888152e-01 2.296780e-01 1.889880e-01 2.359365e-01 2.351012e-01 1.914397e-01 2.410192e-01 2.184181e-01 2.014545e-01 1.211643e-01
<GCONST> 9.021733e+01
<MIXTURE> 2 5.000000e-01
<MEAN> 39
 -1.879576e+00 -7.183424e+00 -3.680990e+00 -5.218169e+00 -1.071613e+00 -5.668869e+00 1.046500e+01 -1.058548e+00 -9.038150e+00 -4.970174e+00 -3.658614e+00 -5.285687e+00 1.213615e+00 -1.097556e-02 -2.506339e-02 8.342255e-01 -4.821496e-01 -8.327162e-01 3.038175e-01 -3.095752e-02 -2.447755e-01 -3.277344e-01 6.647260e-01 -1.882239e-02 -1.889609e-01 -3.612667e-01 5.473701e-02 1.005340e-01 1.131597e-01 2.131572e-02 -3.071496e-02 -2.244725e-02 -1.766349e-01 -7.930411e-02 2.411155e-01 1.003945e-01 -1.587537e-01 1.564477e-01 -5.939963e-02
<VARIANCE> 39
 4.986564e+00 1.521110e+01 3.892423e+01 4.639564e+01 4.735029e+01 3.980128e+01 2.019694e+01 2.902853e+01 2.562773e+01 6.396515e+01 2.824038e+01 2.518272e+01 1.282222e+01 2.772094e-01 3.651977e-01 9.896840e-01 9.611526e-01 1.570606e+00 1.131258e+00 1.373983e+00 1.336957e+00 1.752009e+00 1.827785e+00 1.543385e+00 1.241828e+00 1.006582e+00 3.412581e-02 6.041211e-02 1.112565e-01 1.888152e-01 2.296780e-01 1.889880e-01 2.359365e-01 2.351012e-01 1.914397e-01 2.410192e-01 2.184181e-01 2.014545e-01 1.211643e-01
<GCONST> 9.021733e+01
<STATE> 5
<NUMMIXES> 2
<MIXTURE> 1 5.000000e-01
<MEAN> 39
 4.556307e-01 -2.843103e+00 1.545144e+00 -4.999847e+00 -4.149253e+00 -5.101590e+00 6.974409e+00 -2.487065e+00 -8.494207e+00 1.198319e+00 -5.243134e+00 -4.053332e+00 -1.643467e+00 -1.023568e-01 1.252057e+00 7.868785e-01 -5.458624e-02 1.771010e-01 -1.115393e+00 -9.179065e-01 -4.058701e-01 4.975066e-01 1.245093e+00 1.885564e-01 4.794428e-01 -4.998111e-01 -1.937814e-01 1.660362e-02 8.080650e-02 9.131663e-02 1.607049e-01 -1.046228e-01 -2.102084e-01 -1.778909e-03 1.199343e-01 -2.689331e-01 6.917200e-02 -1.413165e-02 1.196735e-01
<VARIANCE> 39
 1.254435e+01 2.550455e+01 4.738793e+01 3.318299e+01 4.638857e+01 7.720124e+01 2.119768e+01 2.555824e+01 4.514475e+01 5.999655e+01 3.669492e+01 3.532827e+01 2.076725e+01 2.230327e+00 1.764502e+00 1.777453e+00 2.181511e+00 2.412932e+00 5.653639e+00 1.437406e+00 1.940259e+00 1.849720e+00 2.812979e+00 2.939503e+00 1.655267e+00 1.456525e+00 1.624588e-01 2.954149e-01 2.893409e-01 3.083717e-01 2.562033e-01 7.405162e-01 2.573936e-01 3.725498e-01 2.269045e-01 6.451042e-01 5.645031e-01 2.929712e-01 2.681058e-01
<GCONST> 1.128630e+02
<MIXTURE> 2 5.000000e-01
<MEAN> 39
 4.556307e-01 -2.843103e+00 1.545144e+00 -4.999847e+00 -4.149253e+00 -5.101590e+00 6.974409e+00 -2.487065e+00 -8.494207e+00 1.198319e+00 -5.243134e+00 -4.053332e+00 -1.643467e+00 -1.023568e-01 1.252057e+00 7.868785e-01 -5.458624e-02 1.771010e-01 -1.115393e+00 -9.179065e-01 -4.058701e-01 4.975066e-01 1.245093e+00 1.885564e-01 4.794428e-01 -4.998111e-01 -1.937814e-01 1.660362e-02 8.080650e-02 9.131663e-02 1.607049e-01 -1.046228e-01 -2.102084e-01 -1.778909e-03 1.199343e-01 -2.689331e-01 6.917200e-02 -1.413165e-02 1.196735e-01
<VARIANCE> 39
 1.254435e+01 2.550455e+01 4.738793e+01 3.318299e+01 4.638857e+01 7.720124e+01 2.119768e+01 2.555824e+01 4.514475e+01 5.999655e+01 3.669492e+01 3.532827e+01 2.076725e+01 2.230327e+00 1.764502e+00 1.777453e+00 2.181511e+00 2.412932e+00 5.653639e+00 1.437406e+00 1.940259e+00 1.849720e+00 2.812979e+00 2.939503e+00 1.655267e+00 1.456525e+00 1.624588e-01 2.954149e-01 2.893409e-01 3.083717e-01 2.562033e-01 7.405162e-01 2.573936e-01 3.725498e-01 2.269045e-01 6.451042e-01 5.645031e-01 2.929712e-01 2.681058e-01
<GCONST> 1.128630e+02
<STATE> 6
<NUMMIXES> 2
<MIXTURE> 1 5.000000e-01
<MEAN> 39
 -6.381647e+00 -1.316847e+00 -5.724495e+00 -4.396420e+00 -6.058530e-01 -1.992342e+00 2.084774e+00 -2.004985e+00 8.840202e-01 -7.064628e-01 -4.399646e+00 -5.643162e+00 -7.575278e-02 -1.033682e-01 9.557568e-02 2.999621e-01 -3.237522e-02 -9.818693e-02 -1.207269e-01 -3.270251e-01 -9.239492e-02 1.188607e-01 7.070920e-03 4.247500e-02 3.445584e-01 -6.560593e-02 5.424353e-02 2.583989e-02 3.804269e-02 6.832211e-02 2.790254e-02 8.789981e-02 5.241117e-02 -3.463310e-02 -1.145992e-01 -5.575818e-02 -7.912647e-03 -3.247994e-03 9.232739e-03
<VARIANCE> 39
 1.196328e+02 2.519273e+01 1.960148e+02 3.004110e+01 6.358970e+01 3.164463e+01 4.948899e+01 2.958738e+01 4.795213e+01 4.311792e+01 2.301884e+01 2.501728e+01 2.064209e+01 2.091739e+00 1.251197e+00 2.661089e+00 1.970863e+00 1.956512e+00 2.522761e+00 2.534691e+00 4.416093e+00 3.895528e+00 4.937659e+00 2.146372e+00 2.109070e+00 1.634911e+00 3.768989e-01 2.075287e-01 4.088242e-01 2.696677e-01 4.045406e-01 3.930593e-01 5.676804e-01 9.372752e-01 8.052668e-01 1.145542e+00 4.656562e-01 4.064325e-01 3.993502e-01
<GCONST> 1.219855e+02
<MIXTURE> 2 5.000000e-01
<MEAN> 39
 -6.381647e+00 -1.316847e+00 -5.724495e+00 -4.396420e+00 -6.058530e-01 -1.992342e+00 2.084774e+00 -2.004985e+00 8.840202e-01 -7.064628e-01 -4.399646e+00 -5.643162e+00 -7.575278e-02 -1.033682e-01 9.557568e-02 2.999621e-01 -3.237522e-02 -9.818693e-02 -1.207269e-01 -3.270251e-01 -9.239492e-02 1.188607e-01 7.070920e-03 4.247500e-02 3.445584e-01 -6.560593e-02 5.424353e-02 2.583989e-02 3.804269e-02 6.832211e-02 2.790254e-02 8.789981e-02 5.241117e-02 -3.463310e-02 -1.145992e-01 -5.575818e-02 -7.912647e-03 -3.247994e-03 9.232739e-03
<VARIANCE> 39
 1.196328e+02 2.519273e+01 1.960148e+02 3.004110e+01 6.358970e+01 3.164463e+01 4.948899e+01 2.958738e+01 4.795213e+01 4.311792e+01 2.301884e+01 2.501728e+01 2.064209e+01 2.091739e+00 1.251197e+00 2.661089e+00 1.970863e+00 1.956512e+00 2.522761e+00 2.534691e+00 4.416093e+00 3.895528e+00 4.937659e+00 2.146372e+00 2.109070e+00 1.634911e+00 3.768989e-01 2.075287e-01 4.088242e-01 2.696677e-01 4.045406e-01 3.930593e-01 5.676804e-01 9.372752e-01 8.052668e-01 1.145542e+00 4.656562e-01 4.064325e-01 3.993502e-01
<GCONST> 1.219855e+02
<TRANSP> 7
 0.000000e+00 1.000000e+00 0.000000e+00 0.000000e+00 0.000000e+00 0.000000e+00 0.000000e+00
 0.000000e+00 6.859210e-01 3.140790e-01 0.000000e+00 0.000000e+00 0.000000e+00 0.000000e+00
 0.000000e+00 0.000000e+00 7.425370e-01 2.574630e-01 0.000000e+00 0.000000e+00 0.000000e+00
 0.000000e+00 0.000000e+00 0.000000e+00 7.978082e-01 2.021918e-01 0.000000e+00 0.000000e+00
 0.000000e+00 0.000000e+00 0.000000e+00 0.000000e+00 4.935039e-01 5.064961e-01 0.000000e+00
 0.000000e+00 0.000000e+00 0.000000e+00 0.000000e+00 0.000000e+00 7.726454e-01 2.273546e-01
 0.000000e+00 0.000000e+00 0.000000e+00 0.000000e+00 0.000000e+00 0.000000e+00 0.000000e+00
<ENDHMM>
~h "i"
<BEGINHMM>
<NUMSTATES> 7
<STATE> 2
<NUMMIXES> 2
<MIXTURE> 1 5.000000e-01
<MEAN> 39
 -6.508148e+00 9.159962e+00 3.081067e+00 -7.252767e+00 -1.702662e+00 -4.251664e+00 -7.012571e+00 -3.789478e+00 -3.590882e+00 -7.045885e-01 -1.197652e+01 3.274351e+00 -1.804967e+00 1.247303e+00 1.265793e+00 1.017263e+00 -9.235131e-01 -1.638108e+00 4.683909e-03 -1.533410e+00 -3.080927e-01 -7.550260e-01 -7.396278e-01 -1.637516e-01 2.575610e-01 -9.681731e-01 -2.563885e-01 -5.281767e-01 -8.909076e-03 -4.617962e-01 -6.651682e-01 -2.098236e-01 -3.281381e-02 4.664219e-02 7.738910e-01 5.251345e-01 1.067963e+00 -3.226152e-01 1.333879e-02
<VARIANCE> 39
 3.590972e+01 1.480958e+01 1.570562e+01 9.559407e+00 2.521045e+01 2.158706e+01 8.321507e+00 3.279085e+01 3.084735e+01 1.916584e+01 1.829607e+01 1.557024e+01 3.891732e+01 4.490037e+00 3.692019e+00 2.763456e+00 1.240431e+00 2.970858e+00 4.368233e+00 2.155689e+00 8.350149e-01 3.168852e+00 1.733929e+00 4.951141e+00 4.688303e+00 4.261701e-01 3.016610e-01 1.885730e-01 4.001991e-01 1.439556e-01 9.081420e-01 2.583452e-01 2.612088e-01 4.024318e-01 6.012424e-01 2.874209e-01 1.034925e+00 3.277387e-01 3.603866e-01
<GCONST> 1.084750e+02
<MIXTURE> 2 5.000000e-01
<MEAN> 39
 -6.508148e+00 9.159962e+00 3.081067e+00 -7.252767e+00 -1.702662e+00 -4.251664e+00 -7.012571e+00 -3.789478e+00 -3.590882e+00 -7.045885e-01 -1.197652e+01 3.274351e+00 -1.804967e+00 1.247303e+00 1.265793e+00 1.017263e+00 -9.235131e-01 -1.638108e+00 4.683909e-03 -1.533410e+00 -3.080927e-01 -7.550260e-01 -7.396278e-01 -1.637516e-01 2.575610e-01 -9.681731e-01 -2.563885e-01 -5.281767e-01 -8.909076e-03 -4.617962e-01 -6.651682e-01 -2.098236e-01 -3.281381e-02 4.664219e-02 7.738910e-01 5.251345e-01 1.067963e+00 -3.226152e-01 1.333879e-02
<VARIANCE> 39
 3.590972e+01 1.480958e+01 1.570562e+01 9.559407e+00 2.521045e+01 2.158706e+01 8.321507e+00 3.279085e+01 3.084735e+01 1.916584e+01 1.829607e+01 1.557024e+01 3.891732e+01 4.490037e+00 3.692019e+00 2.763456e+00 1.240431e+00 2.970858e+00 4.368233e+00 2.155689e+00 8.350149e-01 3.168852e+00 1.733929e+00 4.951141e+00 4.688303e+00 4.261701e-01 3.016610e-01 1.885730e-01 4.001991e-01 1.439556e-01 9.081420e-01 2.583452e-01 2.612088e-01 4.024318e-01 6.012424e-01 2.874209e-01 1.034925e+00 3.277387e-01 3.603866e-01
<GCONST> 1.084750e+02
<STATE> 3
<NUMMIXES> 2
<MIXTURE> 1 5.000000e-01
<MEAN> 39
 -4.866411e+00 8.189614e+00 5.730410e+00 -1.309519e+01 -7.104649e+00 -3.746285e+00 -1.048468e+01 -3.868083e+00 6.424674e-01 5.004653e-01 -7.192122e+00 1.848089e+00 -2.565663e+00 -2.718757e-01 -3.714562e-01 5.732027e-02 -1.558149e+00 -1.036126e+00 5.260572e-01 -4.370498e-01 2.808623e-01 1.888815e+00 2.663424e-01 8.230371e-01 1.553416e-01 -2.880340e-01 -1.582381e-01 -1.317848e-01 -1.901722e-01 1.526394e-01 5.369158e-01 -1.192077e-01 3.922685e-01 2.321503e-01 9.375092e-03 1.134873e-01 -4.017316e-01 5.661870e-02 8.031319e-02
<VARIANCE> 39
 8.772711e+00 1.594814e+01 1.045808e+01 1.424135e+01 3.123434e+01 1.213705e+01 9.931038e+00 8.656960e+00 1.747737e+01 9.576885e+00 1.646146e+01 1.050411e+01 2.199736e+01 3.977889e-01 5.805546e-01 2.257634e-01 6.014159e-01 2.723109e+00 8.806447e-01 7.657892e-01 9.331599e-01 7.984068e-01 1.443044e+00 3.170527e+00 1.602971e+00 1.570724e+00 4.159427e-01 2.336756e-01 3.142546e-01 1.051049e-01 8.636992e-02 3.133896e-01 1.250430e-01 1.701425e-01 3.500525e-01 2.943053e-01 2.962887e-01 4.053680e-01 1.219840e-01
<GCONST> 8.497565e+01
<MIXTURE> 2 5.000000e-01
<MEAN> 39
 -4.866411e+00 8.189614e+00 5.730410e+00 -1.309519e+01 -7.104649e+00 -3.746285e+00 -1.048468e+01 -3.868083e+00 6.424674e-01 5.004653e-01 -7.192122e+00 1.848089e+00 -2.565663e+00 -2.718757e-01 -3.714562e-01 5.732027e-02 -1.558149e+00 -1.036126e+00 5.260572e-01 -4.370498e-01 2.808623e-01 1.888815e+00 2.663424e-01 8.230371e-01 1.553416e-01 -2.880340e-01 -1.582381e-01 -1.317848e-01 -1.901722e-01 1.526394e-01 5.369158e-01 -1.192077e-01 3.922685e-01 2.321503e-01 9.375092e-03 1.134873e-01 -4.017316e-01 5.661870e-02 8.031319e-02
<VARIANCE> 39
 8.772711e+00 1.594814e+01 1.045808e+01 1.424135e+01 3.123434e+01 1.213705e+01 9.931038e+00 8.656960e+00 1.747737e+01 9.576885e+00 1.646146e+01 1.050411e+01 2.199736e+01 3.977889e-01 5.805546e-01 2.257634e-01 6.014159e-01 2.723109e+00 8.806447e-01 7.657892e-01 9.331599e-01 7.984068e-01 1.443044e+00 3.170527e+00 1.602971e+00 1.570724e+00 4.159427e-01 2.336756e-01 3.142546e-01 1.051049e-01 8.636992e-02 3.133896e-01 1.250430e-01 1.701425e-01 3.500525e-01 2.943053e-01 2.962887e-01 4.053680e-01 1.219840e-01
<GCONST> 8.497565e+01
<STATE> 4
<NUMMIXES> 2
<MIXTURE> 1 5.000000e-01
<MEAN> 39
 2.724364e+00 7.993983e+00 5.669544e+00 -1.107954e+01 1.861647e+00 -1.102320e+01 -7.350374e+00 -8.056875e+00 -1.588775e+00 5.784261e+00 -1.050830e+01 7.697288e+00 -1.874726e+00 -4.754120e-01 -3.528365e-01 1.419977e-01 -6.090592e-01 -3.615430e-01 9.474391e-01 2.346741e-01 6.504096e-01 4.522075e-02 -3.217210e-01 -3.685297e-01 -1.944498e-01 -1.191081e-01 -4.298743e-02 1.883894e-02 -1.865061e-02 6.338122e-02 4.053912e-02 7.876382e-02 7.138685e-02 3.986116e-02 -9.926178e-02 -6.336343e-02 -3.450079e-02 -1.783013e-01 8.192899e-02
<VARIANCE> 39
 2.921270e+01 7.088319e+00 2.416022e+00 1.091470e+01 5.687595e+01 8.569788e+01 4.811385e+00 1.519344e+01 8.327192e+00 1.390859e+01 1.249595e+01 2.284744e+01 6.547703e+00 1.065284e+00 4.306008e-01 3.639888e-01 4.649814e-01 2.561437e+00 4.988678e+00 2.251418e-01 1.130701e+00 3.975515e-01 1.155637e+00 5.505066e-01 1.670376e+00 7.621683e-01 1.180895e-01 8.181123e-02 5.756243e-02 9.466849e-02 4.641559e-01 6.766438e-01 4.499971e-02 2.005021e-01 1.188541e-01 1.120242e-01 1.342285e-01 2.092788e-01 5.338464e-02
<GCONST> 7.630251e+01
<MIXTURE> 2 5.000000e-01
<MEAN> 39
 2.724364e+00 7.993983e+00 5.669544e+00 -1.107954e+01 1.861647e+00 -1.102320e+01 -7.350374e+00 -8.056875e+00 -1.588775e+00 5.784261e+00 -1.050830e+01 7.697288e+00 -1.874726e+00 -4.754120e-01 -3.528365e-01 1.419977e-01 -6.090592e-01 -3.615430e-01 9.474391e-01 2.346741e-01 6.504096e-01 4.522075e-02 -3.217210e-01 -3.685297e-01 -1.944498e-01 -1.191081e-01 -4.298743e-02 1.883894e-02 -1.865061e-02 6.338122e-02 4.053912e-02 7.876382e-02 7.138685e-02 3.986116e-02 -9.926178e-02 -6.336343e-02 -3.450079e-02 -1.783013e-01 8.192899e-02
<VARIANCE> 39
 2.921270e+01 7.088319e+00 2.416022e+00 1.091470e+01 5.687595e+01 8.569788e+01 4.811385e+00 1.519344e+01 8.327192e+00 1.390859e+01 1.249595e+01 2.284744e+01 6.547703e+00 1.065284e+00 4.306008e-01 3.639888e-01 4.649814e-01 2.561437e+00 4.988678e+00 2.251418e-01 1.130701e+00 3.975515e-01 1.155637e+00 5.505066e-01 1.670376e+00 7.621683e-01 1.180895e-01 8.181123e-02 5.756243e-02 9.466849e-02 4.641559e-01 6.766438e-01 4.499971e-02 2.005021e-01 1.188541e-01 1.120242e-01 1.342285e-01 2.092788e-01 5.338464e-02
<GCONST> 7.630251e+01
<STATE> 5
<NUMMIXES> 2
<MIXTURE> 1 5.000000e-01
<MEAN> 39
 -5.082337e+00 3.555418e+00 9.755743e+00 -2.041041e+01 -1.159977e+00 -1.204846e+00 -6.009120e+00 -3.493942e+00 1.825181e+00 -3.409322e+00 -1.025750e+01 6.878177e-01 -1.314627e+00 -5.599145e-02 6.588259e-03 3.482828e-01 -2.866723e-01 9.177476e-02 -3.195329e-01 4.433626e-02 7.185318e-02 3.001938e-01 -2.274445e-01 4.109928e-01 -4.635106e-01 6.472293e-02 4.667002e-02 5.410078e-02 1.640975e-02 1.398209e-01 -1.438877e-02 -1.255789e-01 -4.112194e-02 -1.355103e-01 -1.249473e-01 -4.872974e-02 1.275511e-01 -6.507246e-03 1.302947e-01
<VARIANCE> 39
 1.181390e+00 6.529067e+00 1.809935e+01 2.691808e+01 4.363650e+01 1.732932e+01 1.457009e+01 8.568571e+00 9.230056e+00 2.018791e+01 1.464980e+01 5.464484e+00 3.525608e+00 1.313788e-01 1.785276e-01 2.155657e-01 1.218948e-01 1.525652e-01 4.877724e-01 1.371687e+00 1.427305e+00 2.288151e-01 8.055842e-01 5.884250e-01 2.825619e-01 4.836209e-01 1.358266e-02 1.931904e-02 1.676140e-02 2.598329e-02 6.193483e-02 8.493775e-02 4.977648e-02 1.348370e-01 3.755552e-02 1.074417e-01 7.691156e-02 3.966486e-02 8.381425e-02
<GCONST> 4.868457e+01
<MIXTURE> 2 5.000000e-01
<MEAN> 39
 -5.082337e+00 3.555418e+00 9.755743e+00 -2.041041e+01 -1.159977e+00 -1.204846e+00 -6.009120e+00 -3.493942e+00 1.825181e+00 -3.409322e+00 -1.025750e+01 6.878177e-01 -1.314627e+00 -5.599145e-02 6.588259e-03 3.482828e-01 -2.866723e-01 9.177476e-02 -3.195329e-01 4.433626e-02 7.185318e-02 3.001938e-01 -2.274445e-01 4.109928e-01 -4.635106e-01 6.472293e-02 4.667002e-02 5.410078e-02 1.640975e-02 1.398209e-01 -1.438877e-02 -1.255789e-01 -4.112194e-02 -1.355103e-01 -1.249473e-01 -4.872974e-02 1.275511e-01 -6.507246e-03 1.302947e-01
<VARIANCE> 39
 1.181390e+00 6.529067e+00 1.809935e+01 2.691808e+01 4.363650e+01 1.732932e+01 1.457009e+01 8.568571e+00 9.230056e+00 2.018791e+01 1.464980e+01 5.464484e+00 3.525608e+00 1.313788e-01 1.785276e-01 2.155657e-01 1.218948e-01 1.525652e-01 4.877724e-01 1.371687e+00 1.427305e+00 2.288151e-01 8.055842e-01 5.884250e-01 2.825619e-01 4.836209e-01 1.358266e-02 1.931904e-02 1.676140e-02 2.598329e-02 6.193483e-02 8.493775e-02 4.977648e-02 1.348370e-01 3.755552e-02 1.074417e-01 7.691156e-02 3.966486e-02 8.381425e-02
<GCONST> 4.868457e+01
<STATE> 6
<NUMMIXES> 2
<MIXTURE> 1 5.000000e-01
<MEAN> 39
 -7.317571e+00 1.072264e+01 5.438334e+00 -1.459477e+01 -1.075598e+01 -2.246096e+00 -1.431081e+01 1.289112e+00 -6.748314e-01 1.620813e+00 -5.139970e+00 -9.981606e-01 -2.240111e-01 2.166321e-01 1.183649e-01 2.420209e-01 9.882399e-02 1.412668e-01 -1.880969e-02 -2.297197e-01 -1.108816e-01 -4.773411e-01 2.496589e-01 1.180333e-01 -8.390237e-02 4.484200e-01 1.093666e-01 -2.042885e-02 9.347531e-02 8.519822e-02 8.040348e-02 5.452333e-02 2.028839e-02 -7.771207e-02 8.314145e-03 8.606164e-02 2.971423e-02 -4.151229e-02 -6.982036e-02
<VARIANCE> 39
 2.831663e+00 1.729712e+01 6.470616e+00 6.560418e+00 1.758940e+01 9.711506e+00 2.850818e+01 8.045405e+00 1.627101e+01 7.948015e+00 1.810556e+01 2.368964e+00 7.078568e+00 2.339514e-01 5.058424e-02 1.963048e-01 2.730714e-01 1.784355e-01 3.042705e-01 3.934162e-01 4.149002e-01 5.667024e-01 6.386805e-01 4.112659e-01 2.340442e-01 2.992779e-01 1.232336e-02 9.268557e-03 2.039815e-02 2.877552e-02 5.328196e-02 5.940957e-02 4.172187e-02 3.045041e-02 9.044275e-02 6.980768e-02 3.653990e-02 4.393848e-02 4.120386e-02
<GCONST> 4.018826e+01
<MIXTURE> 2 5.000000e-01
<MEAN> 39
 -7.317571e+00 1.072264e+01 5.438334e+00 -1.459477e+01 -1.075598e+01 -2.246096e+00 -1.431081e+01 1.289112e+00 -6.748314e-01 1.620813e+00 -5.139970e+00 -9.981606e-01 -2.240111e-01 2.166321e-01 1.183649e-01 2.420209e-01 9.882399e-02 1.412668e-01 -1.880969e-02 -2.297197e-01 -1.108816e-01 -4.773411e-01 2.496589e-01 1.180333e-01 -8.390237e-02 4.484200e-01 1.093666e-01 -2.042885e-02 9.347531e-02 8.519822e-02 8.040348e-02 5.452333e-02 2.028839e-02 -7.771207e-02 8.314145e-03 8.606164e-02 2.971423e-02 -4.151229e-02 -6.982036e-02
<VARIANCE> 39
 2.831663e+00 1.729712e+01 6.470616e+00 6.560418e+00 1.758940e+01 9.711506e+00 2.850818e+01 8.045405e+00 1.627101e+01 7.948015e+00 1.810556e+01 2.368964e+00 7.078568e+00 2.339514e-01 5.058424e-02 1.963048e-01 2.730714e-01 1.784355e-01 3.042705e-01 3.934162e-01 4.149002e-01 5.667024e-01 6.386805e-01 4.112659e-01 2.340442e-01 2.992779e-01 1.232336e-02 9.268557e-03 2.039815e-02 2.877552e-02 5.328196e-02 5.940957e-02 4.172187e-02 3.045041e-02 9.044275e-02 6.980768e-02 3.653990e-02 4.393848e-02 4.120386e-02
<GCONST> 4.018826e+01
<TRANSP> 7
 0.000000e+00 1.000000e+00 0.000000e+00 0.000000e+00 0.000000e+00 0.000000e+00 0.000000e+00
 0.000000e+00 4.996607e-01 5.003393e-01 0.000000e+00 0.000000e+00 0.000000e+00 0.000000e+00
 0.000000e+00 0.000000e+00 5.004356e-01 4.995644e-01 0.000000e+00 0.000000e+00 0.000000e+00
 0.000000e+00 0.000000e+00 0.000000e+00 7.620412e-01 2.379588e-01 0.000000e+00 0.000000e+00
 0.000000e+00 0.000000e+00 0.000000e+00 0.000000e+00 8.208132e-01 1.791869e-01 0.000000e+00
 0.000000e+00 0.000000e+00 0.000000e+00 0.000000e+00 0.000000e+00 8.651573e-01 1.348427e-01
 0.000000e+00 0.000000e+00 0.000000e+00 0.000000e+00 0.000000e+00 0.000000e+00 0.000000e+00
<ENDHMM>
~h "o"
<BEGINHMM>
<NUMSTATES> 7
<STATE> 2
<NUMMIXES> 2
<MIXTURE> 1 5.000000e-01
<MEAN> 39
 3.702558e+00 3.023233e+00 -1.944604e+01 -1.158592e+00 2.211651e+00 -7.622511e+00 -1.396100e+00 -4.277048e+00 7.263871e+00 9.787987e-01 -5.005386e+00 -7.228929e+00 -1.468561e+00 1.842600e-01 -2.989436e-02 -9.644192e-03 -6.350048e-02 -1.841348e-01 2.788257e-01 -3.555509e-01 4.869442e-02 -2.712945e-01 1.622975e-01 1.533127e-01 2.719787e-01 -1.458453e-01 -1.798196e-03 4.498881e-05 5.496232e-02 5.748402e-02 -5.657858e-02 -8.336271e-03 -1.579037e-03 3.203970e-02 -4.005426e-02 -3.957647e-02 1.527152e-02 4.576062e-02 1.002764e-03
<VARIANCE> 39
 8.288297e+00 1.943608e+01 1.100776e+02 1.338416e+01 1.554002e+01 3.986555e+01 1.439208e+01 5.005128e+01 1.481388e+01 3.225702e+01 1.895806e+01 2.014419e+01 2.439594e+01 1.235206e-01 1.390692e-01 5.781264e-01 4.858724e-01 5.335940e-01 5.746286e-01 6.421267e-01 1.282657e+00 1.056684e+00 1.475118e+00 9.847856e-01 1.572537e+00 4.220257e-01 1.062084e-02 2.135216e-02 5.916265e-02 9.549662e-02 6.175758e-02 1.164567e-01 9.255599e-02 1.162919e-01 1.240363e-01 2.430735e-01 2.090892e-01 1.588367e-01 6.212960e-02
<GCONST> 7.296140e+01
<MIXTURE> 2 5.000000e-01
<MEAN> 39
 3.702558e+00 3.023233e+00 -1.944604e+01 -1.158592e+00 2.211651e+00 -7.622511e+00 -1.396100e+00 -4.277048e+00 7.263871e+00 9.787987e-01 -5.005386e+00 -7.228929e+00 -1.468561e+00 1.842600e-01 -2.989436e-02 -9.644192e-03 -6.350048e-02 -1.841348e-01 2.788257e-01 -3.555509e-01 4.869442e-02 -2.712945e-01 1.622975e-01 1.533127e-01 2.719787e-01 -1.458453e-01 -1.798196e-03 4.498881e-05 5.496232e-02 5.748402e-02 -5.657858e-02 -8.336271e-03 -1.579037e-03 3.203970e-02 -4.005426e-02 -3.957647e-02 1.527152e-02 4.576062e-02 1.002764e-03
<VARIANCE> 39
 8.288297e+00 1.943608e+01 1.100776e+02 1.338416e+01 1.554002e+01 3.986555e+01 1.439208e+01 5.005128e+01 1.481388e+01 3.225702e+01 1.895806e+01 2.014419e+01 2.439594e+01 1.235206e-01 1.390692e-01 5.781264e-01 4.858724e-01 5.335940e-01 5.746286e-01 6.421267e-01 1.282657e+00 1.056684e+00 1.475118e+00 9.847856e-01 1.572537e+00 4.220257e-01 1.062084e-02 2.135216e-02 5.916265e-02 9.549662e-02 6.175758e-02 1.164567e-01 9.255599e-02 1.162919e-01 1.240363e-01 2.430735e-01 2.090892e-01 1.588367e-01 6.212960e-02
<GCONST> 7.296140e+01
<STATE> 3
<NUMMIXES> 2
<MIXTURE> 1 5.000000e-01
<MEAN> 39
 -6.735839e-01 4.343906e+00 -5.392409e+00 -7.502919e-01 2.993396e+00 2.327202e+00 -1.196373e+00 -4.030270e+00 -2.245869e+00 2.244897e+00 -8.513959e-01 -3.004155e+00 -2.738259e+00 -4.483700e-01 -9.707730e-02 6.309378e-01 2.643256e-01 -1.354505e-01 -8.736574e-02 2.513724e-02 1.654014e-01 2.286691e-02 -4.309214e-01 -1.874941e-01 2.147194e-02 2.833888e-01 -4.965220e-02 -4.819833e-02 9.510252e-03 -8.171900e-03 -1.764831e-02 -7.744652e-02 4.786992e-02 -4.818904e-02 4.133472e-03 1.120306e-02 -3.878193e-02 -4.953773e-02 2.577743e-02
<VARIANCE> 39
 6.174396e+01 1.563328e+01 8.342635e+01 1.490864e+01 2.077521e+01 2.427659e+01 2.791057e+01 3.878593e+01 1.906882e+01 3.169710e+01 1.578264e+01 1.683619e+01 2.891568e+01 6.496115e-01 6.808810e-01 1.570575e+00 1.337619e+00 1.647220e+00 1.146627e+00 3.471441e+00 3.178263e+00 1.789534e+00 1.613162e+00 1.688197e+00 1.238336e+00 2.940600e+00 1.174083e-01 8.922280e-02 2.939096e-01 2.784145e-01 3.514295e-01 2.112066e-01 7.276700e-01 6.100219e-01 3.227713e-01 2.708009e-01 3.489118e-01 2.114954e-01 6.185680e-01
<GCONST> 1.040779e+02
<MIXTURE> 2 5.000000e-01
<MEAN> 39
 -6.735839e-01 4.343906e+00 -5.392409e+00 -7.502919e-01 2.993396e+00 2.327202e+00 -1.196373e+00 -4.030270e+00 -2.245869e+00 2.244897e+00 -8.513959e-01 -3.004155e+00 -2.738259e+00 -4.483700e-01 -9.707730e-02 6.309378e-01 2.643256e-01 -1.354505e-01 -8.736574e-02 2.513724e-02 1.654014e-01 2.286691e-02 -4.309214e-01 -1.874941e-01 2.147194e-02 2.833888e-01 -4.965220e-02 -4.819833e-02 9.510252e-03 -8.171900e-03 -1.764831e-02 -7.744652e-02 4.786992e-02 -4.818904e-02 4.133472e-03 1.120306e-02 -3.878193e-02 -4.953773e-02 2.577743e-02
<VARIANCE> 39
 6.174396e+01 1.563328e+01 8.342635e+01 1.490864e+01 2.077521e+01 2.427659e+01 2.791057e+01 3.878593e+01 1.906882e+01 3.169710e+01 1.578264e+01 1.683619e+01 2.891568e+01 6.496115e-01 6.808810e-01 1.570575e+00 1.337619e+00 1.647220e+00 1.146627e+00 3.471441e+00 3.178263e+00 1.789534e+00 1.613162e+00 1.688197e+00 1.238336e+00 2.940600e+00 1.174083e-01 8.922280e-02 2.939096e-01 2.784145e-01 3.514295e-01 2.112066e-01 7.276700e-01 6.100219e-01 3.227713e-01 2.708009e-01 3.489118e-01 2.114954e-01 6.185680e-01
<GCONST> 1.040779e+02
<STATE> 4
<NUMMIXES> 2
<MIXTURE> 1 5.000000e-01
<MEAN> 39
 -2.257663e+00 7.268107e-01 5.608198e+00 1.392725e+00 -5.530184e+00 -5.888270e-01 -2.939843e+00 -5.502715e+00 2.319747e+00 -4.750604e+00 -5.236716e+00 -1.312626e+00 2.165289e+00 -2.207535e+00 -2.448156e+00 -1.225978e+00 -3.344913e-01 -3.055736e-01 -1.697419e-01 9.138749e-01 4.121562e-01 -7.682931e-01 -1.296025e+00 1.475461e+00 -1.246427e+00 -2.273292e-01 -3.755665e-02 -2.068852e-01 -1.082968e-01 -3.067389e-01 3.716953e-02 -1.870615e-01 2.465073e-01 3.334353e-01 -6.776705e-02 1.697112e-01 3.871224e-01 -3.230219e-01 -1.815806e-01
<VARIANCE> 39
 1.201439e+02 6.608179e+01 1.368514e+02 1.080773e+01 1.962051e+01 4.115458e+01 4.675373e+01 1.374491e+02 2.687966e+01 3.996389e+01 2.270112e+01 2.185089e+01 2.294246e+01 4.287149e+00 6.796774e+00 3.599079e+00 1.808273e+00 1.500745e+00 3.887146e+00 3.548954e+00 1.518510e+01 1.762591e+00 2.099116e+00 3.819221e+00 3.828199e+00 2.693571e+00 1.125174e+00 2.046064e+00 4.176273e-01 3.869977e-01 3.777317e-01 7.605664e-01 6.486496e-01 1.879306e+00 5.158679e-01 9.124118e-01 4.975865e-01 4.545153e-01 4.086185e-01
<GCONST> 1.305414e+02
<MIXTURE> 2 5.000000e-01
<MEAN> 39
 -2.257663e+00 7.268107e-01 5.608198e+00 1.392725e+00 -5.530184e+00 -5.888270e-01 -2.939843e+00 -5.502715e+00 2.319747e+00 -4.750604e+00 -5.236716e+00 -1.312626e+00 2.165289e+00 -2.207535e+00 -2.448156e+00 -1.225978e+00 -3.344913e-01 -3.055736e-01 -1.697419e-01 9.138749e-01 4.121562e-01 -7.682931e-01 -1.296025e+00 1.475461e+00 -1.246427e+00 -2.273292e-01 -3.755665e-02 -2.068852e-01 -1.082968e-01 -3.067389e-01 3.716953e-02 -1.870615e-01 2.465073e-01 3.334353e-01 -6.776705e-02 1.697112e-01 3.871224e-01 -3.230219e-01 -1.815806e-01
<VARIANCE> 39
 1.201439e+02 6.608179e+01 1.368514e+02 1.080773e+01 1.962051e+01 4.115458e+01 4.675373e+01 1.374491e+02 2.687966e+01 3.996389e+01 2.270112e+01 2.185089e+01 2.294246e+01 4.287149e+00 6.796774e+00 3.599079e+00 1.808273e+00 1.500745e+00 3.887146e+00 3.548954e+00 1.518510e+01 1.762591e+00 2.099116e+00 3.819221e+00 3.828199e+00 2.693571e+00 1.125174e+00 2.046064e+00 4.176273e-01 3.869977e-01 3.777317e-01 7.605664e-01 6.486496e-01 1.879306e+00 5.158679e-01 9.124118e-01 4.975865e-01 4.545153e-01 4.086185e-01
<GCONST> 1.305414e+02
<STATE> 5
<NUMMIXES> 2
<MIXTURE> 1 5.000000e-01
<MEAN> 39
 7.016802e-01 -8.189012e+00 6.039975e-01 2.522744e+00 -4.930389e+00 -9.094626e+00 -2.930245e+00 4.275423e+00 -3.167628e-01 -5.990332e+00 -2.025353e+00 -4.419464e-01 3.232057e-01 5.150153e-01 -4.885698e-02 1.396124e-01 4.011957e-01 -4.409632e-01 -9.475086e-01 6.182537e-01 4.343110e-01 -8.612442e-01 -8.932554e-03 4.898963e-01 -2.005846e-01 -1.198225e-01 -3.673693e-02 3.152092e-01 1.316857e-01 -3.161845e-02 1.239076e-01 1.422643e-01 3.576202e-02 -1.501970e-01 5.014646e-02 1.593562e-01 -4.293000e-02 -1.309541e-01 9.386388e-02
<VARIANCE> 39
 5.566840e+01 3.901649e+01 6.109500e+01 4.757377e+01 2.310504e+01 5.214978e+01 3.441371e+01 3.365813e+01 2.687908e+01 2.362410e+01 2.308377e+01 4.245866e+01 8.326342e+00 7.027897e-01 5.120749e+00 5.959843e+00 4.011679e+00 2.586479e+00 6.887290e+00 2.847544e+00 2.979711e+00 3.752639e+00 3.111816e+00 2.191857e+00 2.071093e+00 1.166463e+00 3.523876e-01 8.776463e-01 6.660641e-01 6.655499e-01 3.314868e-01 1.350897e+00 6.161699e-01 6.657529e-01 8.962325e-01 6.604373e-01 5.990849e-01 5.770036e-01 1.428810e-01
<GCONST> 1.233285e+02
<MIXTURE> 2 5.000000e-01
<MEAN> 39
 7.016802e-01 -8.189012e+00 6.039975e-01 2.522744e+00 -4.930389e+00 -9.094626e+00 -2.930245e+00 4.275423e+00 -3.167628e-01 -5.990332e+00 -2.025353e+00 -4.419464e-01 3.232057e-01 5.150153e-01 -4.885698e-02 1.396124e-01 4.011957e-01 -4.409632e-01 -9.475086e-01 6.182537e-01 4.343110e-01 -8.612442e-01 -8.932554e-03 4.898963e-01 -2.005846e-01 -1.198225e-01 -3.673693e-02 3.152092e-01 1.316857e-01 -3.161845e-02 1.239076e-01 1.422643e-01 3.576202e-02 -1.501970e-01 5.014646e-02 1.593562e-01 -4.293000e-02 -1.309541e-01 9.386388e-02
<VARIANCE> 39
 5.566840e+01 3.901649e+01 6.109500e+01 4.757377e+01 2.310504e+01 5.214978e+01 3.441371e+01 3.365813e+01 2.687908e+01 2.362410e+01 2.308377e+01 4.245866e+01 8.326342e+00 7.027897e-01 5.120749e+00 5.959843e+00 4.011679e+00 2.586479e+00 6.887290e+00 2.847544e+00 2.979711e+00 3.752639e+00 3.111816e+00 2.191857e+00 2.071093e+00 1.166463e+00 3.523876e-01 8.776463e-01 6.660641e-01 6.655499e-01 3.314868e-01 1.350897e+00 6.161699e-01 6.657529e-01 8.962325e-01 6.604373e-01 5.990849e-01 5.770036e-01 1.428810e-01
<GCONST> 1.233285e+02
<STATE> 6
<NUMMIXES> 2
<MIXTURE> 1 5.000000e-01
<MEAN> 39
 -8.372346e+00 -4.393801e+00 5.090590e+00 1.625691e+00 -7.043302e+00 -1.653435e+00 4.262519e+00 5.800179e-01 -1.586050e+00 -2.763397e+00 -2.414014e+00 -3.712628e+00 6.227127e-01 -1.394757e-01 2.303034e-01 3.000015e-02 -1.871316e-01 1.498552e-01 2.822773e-01 2.545479e-03 -3.681414e-01 3.781709e-02 8.968733e-02 -7.619210e-02 -1.665245e-01 1.149702e-01 5.381507e-02 -2.036183e-02 -1.103157e-01 2.298521e-02 8.017652e-02 -2.613606e-02 -1.107911e-01 6.837756e-02 6.976421e-03 -8.372395e-02 1.661137e-02 6.306411e-02 7.195756e-03
<VARIANCE> 39
 6.857599e+01 1.751134e+01 4.449180e+01 5.457972e+01 4.188046e+01 4.177086e+01 4.056573e+01 5.564449e+01 3.204077e+01 4.053193e+01 2.208787e+01 2.336723e+01 2.811849e+01 1.930321e+00 7.735797e-01 2.446056e+00 2.108771e+00 2.346789e+00 3.172709e+00 3.988774e+00 3.528411e+00 1.996930e+00 3.661151e+00 2.448030e+00 1.923049e+00 3.286173e+00 1.549037e-01 1.241845e-01 4.596272e-01 3.294992e-01 4.341883e-01 6.075195e-01 7.365719e-01 7.649324e-01 3.125456e-01 7.360055e-01 5.012864e-01 3.978131e-01 7.210611e-01
<GCONST> 1.187719e+02
<MIXTURE> 2 5.000000e-01
<MEAN> 39
 -8.372346e+00 -4.393801e+00 5.090590e+00 1.625691e+00 -7.043302e+00 -1.653435e+00 4.262519e+00 5.800179e-01 -1.586050e+00 -2.763397e+00 -2.414014e+00 -3.712628e+00 6.227127e-01 -1.394757e-01 2.303034e-01 3.000015e-02 -1.871316e-01 1.498552e-01 2.822773e-01 2.545479e-03 -3.681414e-01 3.781709e-02 8.968733e-02 -7.619210e-02 -1.665245e-01 1.149702e-01 5.381507e-02 -2.036183e-02 -1.103157e-01 2.298521e-02 8.017652e-02 -2.613606e-02 -1.107911e-01 6.837756e-02 6.976421e-03 -8.372395e-02 1.661137e-02 6.306411e-02 7.195756e-03
<VARIANCE> 39
 6.857599e+01 1.751134e+01 4.449180e+01 5.457972e+01 4.188046e+01 4.177086e+01 4.056573e+01 5.564449e+01 3.204077e+01 4.053193e+01 2.208787e+01 2.336723e+01 2.811849e+01 1.930321e+00 7.735797e-01 2.446056e+00 2.108771e+00 2.346789e+00 3.172709e+00 3.988774e+00 3.528411e+00 1.996930e+00 3.661151e+00 2.448030e+00 1.923049e+00 3.286173e+00 1.549037e-01 1.241845e-01 4.596272e-01 3.294992e-01 4.341883e-01 6.075195e-01 7.365719e-01 7.649324e-01 3.125456e-01 7.360055e-01 5.012864e-01 3.978131e-01 7.210611e-01
<GCONST> 1.187719e+02
<TRANSP> 7
 0.000000e+00 1.000000e+00 0.000000e+00 0.000000e+00 0.000000e+00 0.000000e+00 0.000000e+00
 0.000000e+00 9.293559e-01 7.064409e-02 0.000000e+00 0.000000e+00 0.000000e+00 0.000000e+00
 0.000000e+00 0.000000e+00 8.812001e-01 1.187999e-01 0.000000e+00 0.000000e+00 0.000000e+00
 0.000000e+00 0.000000e+00 0.000000e+00 5.845811e-01 4.154189e-01 0.000000e+00 0.000000e+00
 0.000000e+00 0.000000e+00 0.000000e+00 0.000000e+00 8.269153e-01 1.730846e-01 0.000000e+00
 0.000000e+00 0.000000e+00 0.000000e+00 0.000000e+00 0.000000e+00 9.327278e-01 6.727230e-02
 0.000000e+00 0.000000e+00 0.000000e+00 0.000000e+00 0.000000e+00 0.000000e+00 0.000000e+00
<ENDHMM>
~h "q"
<BEGINHMM>
<NUMSTATES> 5
<STATE> 2
<NUMMIXES> 2
<MIXTURE> 1 5.000000e-01
<MEAN> 39
 1.719990e+00 1.233237e+00 5.232550e+00 -4.611774e+00 1.234907e+00 -1.826127e+01 5.840119e+00 -6.770226e+00 -1.473389e+01 7.110337e+00 -5.186130e+00 1.165125e+00 -8.240285e+00 2.782731e-01 2.019273e+00 1.262352e+00 -7.657825e-02 8.056806e-01 -2.827358e+00 -1.344215e+00 -1.678216e+00 7.970397e-01 2.006651e+00 1.516078e+00 -2.222819e-01 -1.384132e+00 -1.651636e-01 -1.035174e-01 -4.045715e-01 6.509320e-02 -1.014436e-01 6.730525e-01 2.906722e-02 -1.874218e-01 5.776103e-02 -2.545582e-01 -4.480251e-02 -1.628599e-01 3.509223e-01
<VARIANCE> 39
 2.225956e+00 2.661279e+01 1.028130e+01 5.166296e+00 1.007170e+01 4.866151e+01 1.464888e+01 4.054354e+01 9.223601e+00 3.423356e+01 2.581670e+01 1.635851e+01 1.290598e+01 3.840169e-01 1.079614e+00 1.509886e+00 6.440148e-01 1.583038e+00 4.153848e+00 6.034627e-01 9.852927e-01 4.180645e-01 1.819589e+00 8.374004e-01 8.238528e-01 9.562248e-01 5.782155e-02 3.480525e-01 1.294960e-01 1.318930e-01 2.360507e-01 6.248311e-01 2.051952e-01 5.620229e-01 1.159162e-01 3.712115e-01 4.293004e-01 1.244596e-01 1.045145e-01
<GCONST> 8.605328e+01
<MIXTURE> 2 5.000000e-01
<MEAN> 39
 1.719990e+00 1.233237e+00 5.232550e+00 -4.611774e+00 1.234907e+00 -1.826127e+01 5.840119e+00 -6.770226e+00 -1.473389e+01 7.110337e+00 -5.186130e+00 1.165125e+00 -8.240285e+00 2.782731e-01 2.019273e+00 1.262352e+00 -7.657825e-02 8.056806e-01 -2.827358e+00 -1.344215e+00 -1.678216e+00 7.970397e-01 2.006651e+00 1.516078e+00 -2.222819e-01 -1.384132e+00 -1.651636e-01 -1.035174e-01 -4.045715e-01 6.509320e-02 -1.014436e-01 6.730525e-01 2.906722e-02 -1.874218e-01 5.776103e-02 -2.545582e-01 -4.480251e-02 -1.628599e-01 3.509223e-01
<VARIANCE> 39
 2.225956e+00 2.661279e+01 1.028130e+01 5.166296e+00 1.007170e+01 4.866151e+01 1.464888e+01 4.054354e+01 9.223601e+00 3.423356e+01 2.581670e+01 1.635851e+01 1.290598e+01 3.840169e-01 1.079614e+00 1.509886e+00 6.440148e-01 1.583038e+00 4.153848e+00 6.034627e-01 9.852927e-01 4.180645e-01 1.819589e+00 8.374004e-01 8.238528e-01 9.562248e-01 5.782155e-02 3.480525e-01 1.294960e-01 1.318930e-01 2.360507e-01 6.248311e-01 2.051952e-01 5.620229e-01 1.159162e-01 3.712115e-01 4.293004e-01 1.244596e-01 1.045145e-01
<GCONST> 8.605328e+01
<STATE> 3
<NUMMIXES> 2
<MIXTURE> 1 5.000000e-01
<MEAN> 39
 2.722095e+00 8.790407e+00 5.137180e+00 -5.659956e+00 4.434631e+00 -2.209474e+01 -2.587616e-01 -1.227478e+01 -1.035459e+01 1.319512e+01 -3.865969e+00 2.639452e-01 -7.728517e+00 3.536248e-01 3.074818e-01 -5.095200e-02 -7.710326e-02 9.395467e-02 3.262272e-02 -2.492790e-01 -1.675842e-01 -2.203553e-02 3.303152e-01 -1.146712e-01 1.662498e-01 4.715895e-01 3.579520e-02 -4.711931e-02 1.899758e-02 8.362055e-02 -8.610223e-02 1.963102e-02 4.819509e-02 8.611704e-02 -8.832213e-02 -4.303644e-02 -1.047153e-02 3.537198e-02 6.511340e-02
<VARIANCE> 39
 8.756483e+00 6.360374e+00 3.750982e+00 2.492825e+00 2.276608e+00 5.965742e+00 6.585788e+00 1.716408e+01 1.014248e+01 8.112709e+00 9.904739e+00 5.538809e+00 7.391251e+00 1.294742e-01 1.488098e-01 3.095897e-01 3.067599e-01 4.172688e-01 4.347869e-01 4.576740e-01 4.917526e-01 5.867890e-01 6.006556e-01 4.640857e-01 4.617855e-01 1.970441e-01 1.496780e-02 3.052872e-02 6.282131e-02 5.484682e-02 6.609856e-02 8.411510e-02 9.577764e-02 1.213965e-01 7.897747e-02 1.160221e-01 1.088359e-01 7.186602e-02 4.285847e-02
<GCONST> 4.627338e+01
<MIXTURE> 2 5.000000e-01
<MEAN> 39
 2.722095e+00 8.790407e+00 5.137180e+00 -5.659956e+00 4.434631e+00 -2.209474e+01 -2.587616e-01 -1.227478e+01 -1.035459e+01 1.319512e+01 -3.865969e+00 2.639452e-01 -7.728517e+00 3.536248e-01 3.074818e-01 -5.095200e-02 -7.710326e-02 9.395467e-02 3.262272e-02 -2.492790e-01 -1.675842e-01 -2.203553e-02 3.303152e-01 -1.146712e-01 1.662498e-01 4.715895e-01 3.579520e-02 -4.711931e-02 1.899758e-02 8.362055e-02 -8.610223e-02 1.963102e-02 4.819509e-02 8.611704e-02 -8.832213e-02 -4.303644e-02 -1.047153e-02 3.537198e-02 6.511340e-02
<VARIANCE> 39
 8.756483e+00 6.360374e+00 3.750982e+00 2.492825e+00 2.276608e+00 5.965742e+00 6.585788e+00 1.716408e+01 1.014248e+01 8.112709e+00 9.904739e+00 5.538809e+00 7.391251e+00 1.294742e-01 1.488098e-01 3.095897e-01 3.067599e-01 4.172688e-01 4.347869e-01 4.576740e-01 4.917526e-01 5.867890e-01 6.006556e-01 4.640857e-01 4.617855e-01 1.970441e-01 1.496780e-02 3.052872e-02 6.282131e-02 5.484682e-02 6.609856e-02 8.411510e-02 9.577764e-02 1.213965e-01 7.897747e-02 1.160221e-01 1.088359e-01 7.186602e-02 4.285847e-02
<GCONST> 4.627338e+01
<STATE> 4
<NUMMIXES> 2
<MIXTURE> 1 5.000000e-01
<MEAN> 39
 6.159205e+00 1.018359e+01 5.270223e+00 -1.879478e+00 1.870582e+00 -1.983883e+01 -3.093785e+00 -1.297585e+01 -1.149056e+01 1.239517e+01 -1.114774e+00 1.569436e+00 -1.357591e+00 -5.720425e-01 -3.063855e-01 -3.623551e-01 9.524125e-01 -4.419446e-01 1.482657e+00 -6.005346e-01 2.984006e-01 8.566054e-01 -1.668705e+00 3.819694e-01 1.118532e-01 7.462489e-01 -3.309718e-01 -2.438860e-01 -1.354442e-01 1.686297e-03 6.942545e-02 4.092034e-01 -6.215569e-02 4.970584e-02 3.035582e-01 -3.014070e-01 -1.442893e-02 -8.923215e-03 -1.085300e-01
<VARIANCE> 39
 5.718208e+00 4.407821e+00 8.764368e+00 6.455019e+00 6.490870e+00 1.745187e+01 1.365821e+01 1.139529e+01 2.379718e+01 3.660570e+01 1.014331e+01 1.533624e+01 7.589219e+00 1.449827e+00 1.548510e+00 7.738446e-01 6.816252e-01 1.258914e+00 3.116276e+00 3.106988e+00 1.366702e+00 3.670726e+00 3.408310e+00 1.138136e+00 1.644104e+00 8.474930e-01 1.634555e-01 2.485049e-01 1.249101e-01 1.158153e-01 2.074792e-01 4.076609e-01 6.605691e-01 2.906041e-01 6.914413e-01 6.433545e-01 3.117172e-01 3.451231e-01 2.241953e-01
<GCONST> 9.243575e+01
<MIXTURE> 2 5.000000e-01
<MEAN> 39
 6.159205e+00 1.018359e+01 5.270223e+00 -1.879478e+00 1.870582e+00 -1.983883e+01 -3.093785e+00 -1.297585e+01 -1.149056e+01 1.239517e+01 -1.114774e+00 1.569436e+00 -1.357591e+00 -5.720425e-01 -3.063855e-01 -3.623551e-01 9.524125e-01 -4.419446e-01 1.482657e+00 -6.005346e-01 2.984006e-01 8.566054e-01 -1.668705e+00 3.819694e-01 1.118532e-01 7.462489e-01 -3.309718e-01 -2.438860e-01 -1.354442e-01 1.686297e-03 6.942545e-02 4.092034e-01 -6.215569e-02 4.970584e-02 3.035582e-01 -3.014070e-01 -1.442893e-02 -8.923215e-03 -1.085300e-01
<VARIANCE> 39
 5.718208e+00 4.407821e+00 8.764368e+00 6.455019e+00 6.490870e+00 1.745187e+01 1.365821e+01 1.139529e+01 2.379718e+01 3.660570e+01 1.014331e+01 1.533624e+01 7.589219e+00 1.449827e+00 1.548510e+00 7.738446e-01 6.816252e-01 1.258914e+00 3.116276e+00 3.106988e+00 1.366702e+00 3.670726e+00 3.408310e+00 1.138136e+00 1.644104e+00 8.474930e-01 1.634555e-01 2.485049e-01 1.249101e-01 1.158153e-01 2.074792e-01 4.076609e-01 6.605691e-01 2.906041e-01 6.914413e-01 6.433545e-01 3.117172e-01 3.451231e-01 2.241953e-01
<GCONST> 9.243575e+01
<TRANSP> 5
 0.000000e+00 1.000000e+00 0.000000e+00 0.000000e+00 0.000000e+00
 0.000000e+00 8.088397e-01 1.911603e-01 0.000000e+00 0.000000e+00
 0.000000e+00 0.000000e+00 9.250264e-01 7.497370e-02 0.000000e+00
 0.000000e+00 0.000000e+00 0.000000e+00 8.533300e-01 1.466700e-01
 0.000000e+00 0.000000e+00 0.000000e+00 0.000000e+00 0.000000e+00
<ENDHMM>
~h "r"
<BEGINHMM>
<NUMSTATES> 5
<STATE> 2
<NUMMIXES> 2
<MIXTURE> 1 5.000000e-01
<MEAN> 39
 -2.410782e+01 3.913656e+00 4.067557e-02 -1.089883e+01 1.836472e+00 -5.466551e+00 3.608865e+00 -3.085269e+00 1.365902e+00 6.142548e-01 -4.222239e+00 -3.012807e+00 -2.893679e+00 -3.443028e-01 -7.168921e-02 4.409320e-01 -1.362705e-01 -3.829209e-02 5.820504e-02 -2.646894e-01 -1.916304e-02 1.046359e-01 1.217450e-01 8.943501e-02 9.769566e-02 -3.028573e-02 1.037933e-01 -4.439528e-02 1.917638e-02 7.631928e-02 -4.876826e-02 3.740771e-03 -2.695681e-02 -4.015677e-02 -4.661370e-02 -7.366376e-02 3.885709e-02 3.217896e-02 9.569839e-02
<VARIANCE> 39
 2.236482e+01 7.802029e+00 8.765819e+00 2.176551e+01 1.259165e+01 2.708399e+01 4.479955e+01 2.858024e+01 2.542685e+01 2.449126e+01 2.258255e+01 1.909223e+01 1.399638e+01 6.079768e-01 7.355279e-01 1.353141e+00 2.037698e+00 1.829928e+00 3.322413e+00 2.620687e+00 5.390004e+00 3.212220e+00 4.341340e+00 2.754120e+00 3.246538e+00 1.995265e+00 8.461292e-02 1.040032e-01 1.629468e-01 5.243101e-01 4.262722e-01 5.729698e-01 4.294103e-01 1.131202e+00 5.105205e-01 1.034063e+00 5.447575e-01 7.665813e-01 2.929541e-01
<GCONST> 1.083311e+02
<MIXTURE> 2 5.000000e-01
<MEAN> 39
 -2.410782e+01 3.913656e+00 4.067557e-02 -1.089883e+01 1.836472e+00 -5.466551e+00 3.608865e+00 -3.085269e+00 1.365902e+00 6.142548e-01 -4.222239e+00 -3.012807e+00 -2.893679e+00 -3.443028e-01 -7.168921e-02 4.409320e-01 -1.362705e-01 -3.829209e-02 5.820504e-02 -2.646894e-01 -1.916304e-02 1.046359e-01 1.217450e-01 8.943501e-02 9.769566e-02 -3.028573e-02 1.037933e-01 -4.439528e-02 1.917638e-02 7.631928e-02 -4.876826e-02 3.740771e-03 -2.695681e-02 -4.015677e-02 -4.661370e-02 -7.366376e-02 3.885709e-02 3.217896e-02 9.569839e-02
<VARIANCE> 39
 2.236482e+01 7.802029e+00 8.765819e+00 2.176551e+01 1.259165e+01 2.708399e+01 4.479955e+01 2.858024e+01 2.542685e+01 2.449126e+01 2.258255e+01 1.909223e+01 1.399638e+01 6.079768e-01 7.355279e-01 1.353141e+00 2.037698e+00 1.829928e+00 3.322413e+00 2.620687e+00 5.390004e+00 3.212220e+00 4.341340e+00 2.754120e+00 3.246538e+00 1.995265e+00 8.461292e-02 1.040032e-01 1.629468e-01 5.243101e-01 4.262722e-01 5.729698e-01 4.294103e-01 1.131202e+00 5.105205e-01 1.034063e+00 5.447575e-01 7.665813e-01 2.929541e-01
<GCONST> 1.083311e+02
<STATE> 3
<NUMMIXES> 2
<MIXTURE> 1 5.000000e-01
<MEAN> 39
 -6.711737e+00 -2.781305e+00 3.915991e+00 -4.411670e+00 -5.735021e+00 -6.026149e+00 4.186373e+00 -1.099068e+00 -1.169746e-01 -7.255573e+00 2.402343e+00 -4.871704e+00 -1.380743e+00 1.827210e+00 -6.245399e-01 -8.337820e-01 2.592066e-01 -8.916951e-01 -8.908171e-01 4.951421e-01 5.845026e-01 -3.017837e-01 -1.334092e+00 3.163358e-02 -3.860958e-01 3.204214e-03 -1.115281e-03 -7.624709e-02 -4.018236e-01 -1.205015e-01 1.965736e-01 2.375271e-02 -2.695761e-01 2.099337e-01 3.213649e-02 9.586696e-03 -1.842947e-01 9.806324e-02 1.388349e-01
<VARIANCE> 39
 7.597056e+01 1.432254e+01 2.373772e+01 1.158852e+01 1.845996e+01 2.168496e+01 4.857115e+01 4.804277e+01 3.440853e+01 4.377711e+01 1.893166e+01 1.348705e+01 1.276077e+01 4.434832e+00 2.418176e+00 3.915838e+00 1.971577e+00 1.894638e+00 1.490662e+00 6.193458e+00 6.614770e+00 5.650635e+00 2.318683e+00 2.135517e+00 1.388447e+00 1.323367e+00 1.146806e+00 4.939327e-01 6.652215e-01 2.111800e-01 3.564458e-01 3.558631e-01 9.685577e-01 1.096314e+00 1.564168e+00 3.984305e-01 3.679950e-01 2.565088e-01 2.573416e-01
<GCONST> 1.178211e+02
<MIXTURE> 2 5.000000e-01
<MEAN> 39
 -6.711737e+00 -2.781305e+00 3.915991e+00 -4.411670e+00 -5.735021e+00 -6.026149e+00 4.186373e+00 -1.099068e+00 -1.169746e-01 -7.255573e+00 2.402343e+00 -4.871704e+00 -1.380743e+00 1.827210e+00 -6.245399e-01 -8.337820e-01 2.592066e-01 -8.916951e-01 -8.908171e-01 4.951421e-01 5.845026e-01 -3.017837e-01 -1.334092e+00 3.163358e-02 -3.860958e-01 3.204214e-03 -1.115281e-03 -7.624709e-02 -4.018236e-01 -1.205015e-01 1.965736e-01 2.375271e-02 -2.695761e-01 2.099337e-01 3.213649e-02 9.586696e-03 -1.842947e-01 9.806324e-02 1.388349e-01
<VARIANCE> 39
 7.597056e+01 1.432254e+01 2.373772e+01 1.158852e+01 1.845996e+01 2.168496e+01 4.857115e+01 4.804277e+01 3.440853e+01 4.377711e+01 1.893166e+01 1.348705e+01 1.276077e+01 4.434832e+00 2.418176e+00 3.915838e+00 1.971577e+00 1.894638e+00 1.490662e+00 6.193458e+00 6.614770e+00 5.650635e+00 2.318683e+00 2.135517e+00 1.388447e+00 1.323367e+00 1.146806e+00 4.939327e-01 6.652215e-01 2.111800e-01 3.564458e-01 3.558631e-01 9.685577e-01 1.096314e+00 1.564168e+00 3.984305e-01 3.679950e-01 2.565088e-01 2.573416e-01
<GCONST> 1.178211e+02
<STATE> 4
<NUMMIXES> 2
<MIXTURE> 1 5.000000e-01
<MEAN> 39
 -2.542761e+00 -6.225526e+00 -2.984000e+00 -6.866133e+00 -1.030347e+01 -2.521231e+00 1.023661e+01 3.668959e-01 -1.126546e+01 -3.827798e+00 -7.576929e+00 -3.203362e+00 1.475705e+00 -2.386308e-02 9.295969e-02 -2.118548e-01 -5.663050e-03 -4.534342e-02 6.111848e-01 -1.283960e-01 1.111298e-01 -5.375142e-01 5.667015e-01 -5.506532e-01 1.567630e-01 2.342928e-01 9.479149e-02 1.635416e-01 1.261010e-01 1.467106e-01 7.857222e-02 -2.996133e-02 -2.685392e-03 -1.302494e-01 7.998636e-02 1.289000e-01 7.477513e-02 -1.088141e-01 -1.966899e-02
<VARIANCE> 39
 3.362092e+00 1.391053e+00 3.290644e+00 2.267225e+00 4.550627e+00 1.690326e+01 2.806312e+01 1.007207e+01 2.934546e+01 2.879503e+01 2.567102e+01 1.655472e+00 3.791993e+00 3.468745e-01 1.044445e-01 5.407372e-01 3.437609e-01 5.987657e-01 1.045119e+00 7.942011e-01 2.400293e-01 1.777017e+00 9.258741e-01 2.399603e-01 3.206109e-01 5.336203e-01 3.946983e-02 3.863855e-02 5.679863e-02 1.267752e-01 6.298887e-02 1.406797e-01 1.114089e-01 9.321860e-02 1.656045e-01 1.280516e-01 6.251913e-02 4.430096e-02 6.842376e-02
<GCONST> 5.407924e+01
<MIXTURE> 2 5.000000e-01
<MEAN> 39
 -2.542761e+00 -6.225526e+00 -2.984000e+00 -6.866133e+00 -1.030347e+01 -2.521231e+00 1.023661e+01 3.668959e-01 -1.126546e+01 -3.827798e+00 -7.576929e+00 -3.203362e+00 1.475705e+00 -2.386308e-02 9.295969e-02 -2.118548e-01 -5.663050e-03 -4.534342e-02 6.111848e-01 -1.283960e-01 1.111298e-01 -5.375142e-01 5.667015e-01 -5.506532e-01 1.567630e-01 2.342928e-01 9.479149e-02 1.635416e-01 1.261010e-01 1.467106e-01 7.857222e-02 -2.996133e-02 -2.685392e-03 -1.302494e-01 7.998636e-02 1.289000e-01 7.477513e-02 -1.088141e-01 -1.966899e-02
<VARIANCE> 39
 3.362092e+00 1.391053e+00 3.290644e+00 2.267225e+00 4.550627e+00 1.690326e+01 2.806312e+01 1.007207e+01 2.934546e+01 2.879503e+01 2.567102e+01 1.655472e+00 3.791993e+00 3.468745e-01 1.044445e-01 5.407372e-01 3.437609e-01 5.987657e-01 1.045119e+00 7.942011e-01 2.400293e-01 1.777017e+00 9.258741e-01 2.399603e-01 3.206109e-01 5.336203e-01 3.946983e-02 3.863855e-02 5.679863e-02 1.267752e-01 6.298887e-02 1.406797e-01 1.114089e-01 9.321860e-02 1.656045e-01 1.280516e-01 6.251913e-02 4.430096e-02 6.842376e-02
<GCONST> 5.407924e+01
<TRANSP> 5
 0.000000e+00 1.000000e+00 0.000000e+00 0.000000e+00 0.000000e+00
 0.000000e+00 9.210413e-01 7.895868e-02 0.000000e+00 0.000000e+00
 0.000000e+00 0.000000e+00 8.750356e-01 1.249644e-01 0.000000e+00
 0.000000e+00 0.000000e+00 0.000000e+00 8.235292e-01 1.764708e-01
 0.000000e+00 0.000000e+00 0.000000e+00 0.000000e+00 0.000000e+00
<ENDHMM>
~h "u"
<BEGINHMM>
<NUMSTATES> 7
<STATE> 2
<NUMMIXES> 2
<MIXTURE> 1 5.000000e-01
<MEAN> 39
 -2.349806e-01 5.849021e+00 -9.976220e+00 -1.427432e+00 7.811785e-02 -5.002795e+00 -1.492989e+00 -1.055852e+01 -4.022772e+00 -1.451447e+00 1.360682e+00 6.129540e-01 -3.050399e+00 2.863643e-02 -2.752576e-01 -2.069743e+00 -1.404546e+00 -1.263305e+00 9.395338e-01 1.646694e+00 7.003049e-01 -2.534184e-01 7.193003e-01 3.923633e-01 -7.738795e-01 -5.203904e-02 4.623750e-01 1.752227e-01 2.746210e-01 2.130463e-01 -1.927031e-01 -4.700320e-01 -2.247270e-01 2.411851e-01 -1.411314e-01 7.383204e-02 -6.092380e-02 -1.172258e-01 -9.141373e-02
<VARIANCE> 39
 1.005495e+02 1.460590e+01 7.433002e+01 3.443327e+01 2.959941e+01 5.614435e+01 2.829472e+01 4.351192e+01 1.761766e+01 2.203357e+01 2.720064e+01 3.190423e+01 1.341911e+01 6.399428e+00 6.463648e+00 4.438200e+00 1.643874e+00 3.357458e+00 3.013710e+00 1.614932e+00 2.001353e+00 2.615627e+00 2.912206e+00 1.761750e+00 3.265773e+00 1.316749e+00 1.751318e+00 7.445430e-01 8.202565e-01 4.446904e-01 6.982440e-01 8.999323e-01 6.370869e-01 4.572295e-01 5.530868e-01 2.997815e-01 3.617831e-01 4.978710e-01 1.421631e-01
<GCONST> 1.220219e+02
<MIXTURE> 2 5.000000e-01
<MEAN> 39
 -2.349806e-01 5.849021e+00 -9.976220e+00 -1.427432e+00 7.811785e-02 -5.002795e+00 -1.492989e+00 -1.055852e+01 -4.022772e+00 -1.451447e+00 1.360682e+00 6.129540e-01 -3.050399e+00 2.863643e-02 -2.752576e-01 -2.069743e+00 -1.404546e+00 -1.263305e+00 9.395338e-01 1.646694e+00 7.003049e-01 -2.534184e-01 7.193003e-01 3.923633e-01 -7.738795e-01 -5.203904e-02 4.623750e-01 1.752227e-01 2.746210e-01 2.130463e-01 -1.927031e-01 -4.700320e-01 -2.247270e-01 2.411851e-01 -1.411314e-01 7.383204e-02 -6.092380e-02 -1.172258e-01 -9.141373e-02
<VARIANCE> 39
 1.005495e+02 1.460590e+01 7.433002e+01 3.443327e+01 2.959941e+01 5.614435e+01 2.829472e+01 4.351192e+01 1.761766e+01 2.203357e+01 2.720064e+01 3.190423e+01 1.341911e+01 6.399428e+00 6.463648e+00 4.438200e+00 1.643874e+00 3.357458e+00 3.013710e+00 1.614932e+00 2.001353e+00 2.615627e+00 2.912206e+00 1.761750e+00 3.265773e+00 1.316749e+00 1.751318e+00 7.445430e-01 8.202565e-01 4.446904e-01 6.982440e-01 8.999323e-01 6.370869e-01 4.572295e-01 5.530868e-01 2.997815e-01 3.617831e-01 4.978710e-01 1.421631e-01
<GCONST> 1.220219e+02
<STATE> 3
<NUMMIXES> 2
<MIXTURE> 1 5.000000e-01
<MEAN> 39
 -1.516741e+00 3.824877e+00 -4.356391e+00 -1.649884e+00 -9.366634e+00 -1.020051e+01 -1.737121e+00 -2.885490e-01 -5.273629e+00 2.791207e+00 -5.207492e-02 -5.007008e+00 -2.294102e+00 1.182943e+00 1.788799e-01 -9.340478e-01 2.667764e-01 -2.409014e-01 -2.932824e+00 -7.755423e-01 1.862602e+00 7.089264e-02 6.428420e-01 -2.053230e-01 1.366584e-01 -2.925128e-01 -3.801101e-01 -1.313543e-01 -6.797370e-02 1.243130e-01 4.537666e-01 7.837494e-02 -2.191623e-01 -8.362627e-02 4.854994e-01 -3.490402e-01 -2.895142e-01 3.101815e-01 1.880660e-01
<VARIANCE> 39
 3.119173e+01 9.281275e+00 8.417484e+01 2.461709e+01 2.963881e+01 6.582581e+01 1.411797e+01 5.335882e+01 3.726354e+00 2.085726e+01 3.354226e+01 2.064999e+01 9.514414e+00 2.524413e+00 6.597220e-01 1.301246e+00 2.493239e+00 3.549338e+00 5.421888e+00 1.061644e+00 1.548548e+00 9.180544e-01 1.655722e+00 4.339833e+00 1.071738e+00 9.789971e-01 2.996660e-01 3.520641e-01 3.469864e-01 2.551726e-01 3.708809e-01 1.070699e+00 1.925540e-01 3.994430e-01 1.280215e-01 3.691539e-01 7.663792e-01 1.380922e-01 1.538905e-01
<GCONST> 1.040732e+02
<MIXTURE> 2 5.000000e-01
<MEAN> 39
 -1.516741e+00 3.824877e+00 -4.356391e+00 -1.649884e+00 -9.366634e+00 -1.020051e+01 -1.737121e+00 -2.885490e-01 -5.273629e+00 2.791207e+00 -5.207492e-02 -5.007008e+00 -2.294102e+00 1.182943e+00 1.788799e-01 -9.340478e-01 2.667764e-01 -2.409014e-01 -2.932824e+00 -7.755423e-01 1.862602e+00 7.089264e-02 6.428420e-01 -2.053230e-01 1.366584e-01 -2.925128e-01 -3.801101e-01 -1.313543e-01 -6.797370e-02 1.243130e-01 4.537666e-01 7.837494e-02 -2.191623e-01 -8.362627e-02 4.854994e-01 -3.490402e-01 -2.895142e-01 3.101815e-01 1.880660e-01
<VARIANCE> 39
 3.119173e+01 9.281275e+00 8.417484e+01 2.461709e+01 2.963881e+01 6.582581e+01 1.411797e+01 5.335882e+01 3.726354e+00 2.085726e+01 3.354226e+01 2.064999e+01 9.514414e+00 2.524413e+00 6.597220e-01 1.301246e+00 2.493239e+00 3.549338e+00 5.421888e+00 1.061644e+00 1.548548e+00 9.180544e-01 1.655722e+00 4.339833e+00 1.071738e+00 9.789971e-01 2.996660e-01 3.520641e-01 3.469864e-01 2.551726e-01 3.708809e-01 1.070699e+00 1.925540e-01 3.994430e-01 1.280215e-01 3.691539e-01 7.663792e-01 1.380922e-01 1.538905e-01
<GCONST> 1.040732e+02
<STATE> 4
<NUMMIXES> 2
<MIXTURE> 1 5.000000e-01
<MEAN> 39
 3.312735e+00 6.831314e+00 -1.747772e+01 -1.993305e+00 -4.816978e+00 -1.207500e+01 -4.847711e+00 -4.270618e+00 -1.951131e+00 4.987516e+00 -3.383076e+00 -3.283996e+00 -5.622659e+00 -1.016097e-01 -2.276984e-01 -1.048779e-01 3.149501e-01 2.666833e-01 -4.034243e-01 -5.183981e-01 -5.241178e-02 9.778058e-01 7.270842e-02 -7.742435e-01 -3.743606e-01 8.439750e-02 -5.581647e-03 -5.630711e-02 1.595563e-01 1.022724e-01 -4.989814e-02 -2.221425e-02 2.677725e-02 3.496748e-02 5.765402e-02 -1.505092e-01 -4.009111e-02 1.266625e-01 8.682740e-02
<VARIANCE> 39
 1.441798e+01 4.714237e+00 5.042101e+01 2.993711e+01 3.631944e+01 5.940686e+01 1.845466e+01 8.147781e+01 8.489858e+00 1.762916e+01 1.043087e+01 2.526063e+01 5.765843e+00 1.314115e-01 1.168654e-01 4.054838e-01 2.593902e-01 2.420401e-01 5.923548e-01 5.786151e-01 3.540515e-01 4.869470e-01 8.908157e-01 5.425048e-01 1.213998e+00 1.831735e-01 6.927921e-03 1.112557e-02 3.101940e-02 5.643689e-02 4.932497e-02 1.738623e-01 6.113992e-02 1.492115e-01 1.242974e-01 1.381642e-01 8.492069e-02 2.142551e-01 3.086682e-02
<GCONST> 6.081306e+01
<MIXTURE> 2 5.000000e-01
<MEAN> 39
 3.312735e+00 6.831314e+00 -1.747772e+01 -1.993305e+00 -4.816978e+00 -1.207500e+01 -4.847711e+00 -4.270618e+00 -1.951131e+00 4.987516e+00 -3.383076e+00 -3.283996e+00 -5.622659e+00 -1.016097e-01 -2.276984e-01 -1.048779e-01 3.149501e-01 2.666833e-01 -4.034243e-01 -5.183981e-01 -5.241178e-02 9.778058e-01 7.270842e-02 -7.742435e-01 -3.743606e-01 8.439750e-02 -5.581647e-03 -5.630711e-02 1.595563e-01 1.022724e-01 -4.989814e-02 -2.221425e-02 2.677725e-02 3.496748e-02 5.765402e-02 -1.505092e-01 -4.009111e-02 1.266625e-01 8.682740e-02
<VARIANCE> 39
 1.441798e+01 4.714237e+00 5.042101e+01 2.993711e+01 3.631944e+01 5.940686e+01 1.845466e+01 8.147781e+01 8.489858e+00 1.762916e+01 1.043087e+01 2.526063e+01 5.765843e+00 1.314115e-01 1.168654e-01 4.054838e-01 2.593902e-01 2.420401e-01 5.923548e-01 5.786151e-01 3.540515e-01 4.869470e-01 8.908157e-01 5.425048e-01 1.213998e+00 1.831735e-01 6.927921e-03 1.112557e-02 3.101940e-02 5.643689e-02 4.932497e-02 1.738623e-01 6.113992e-02 1.492115e-01 1.242974e-01 1.381642e-01 8.492069e-02 2.142551e-01 3.086682e-02
<GCONST> 6.081306e+01
<STATE> 5
<NUMMIXES> 2
<MIXTURE> 1 5.000000e-01
<MEAN> 39
 1.752800e+00 3.941331e+00 -1.468074e+01 1.414967e+00 -3.297690e+00 -1.726040e+01 -8.451453e+00 2.718934e+00 3.526037e+00 1.241954e+00 -9.076478e+00 -2.423284e+00 1.294883e+00 1.080570e-01 -1.202061e-01 2.869232e-01 3.261488e-01 3.955847e-03 -5.714270e-02 -3.278480e-01 4.837636e-01 9.078605e-02 -4.124222e-01 -6.274630e-01 4.470656e-01 4.881160e-01 1.193533e-02 1.313367e-02 2.375454e-01 -8.681202e-02 -1.396015e-02 1.342716e-01 8.710954e-02 -9.001368e-02 -2.702968e-01 1.543779e-02 1.905751e-01 -5.170599e-02 -9.490117e-02
<VARIANCE> 39
 5.894976e+00 2.734560e+00 1.954150e+01 1.016340e+01 1.943134e+01 1.826695e+01 1.391944e+01 4.528217e+01 5.190865e+00 3.217875e+01 1.508976e+01 2.844493e+01 1.819044e+01 1.880974e-01 1.575083e-01 6.893823e-01 4.278053e-01 6.351094e-01 9.630017e-01 3.718147e-01 2.528320e+00 1.140259e+00 1.428070e+00 7.159550e-01 1.005566e+00 5.800686e-01 1.685277e-02 5.744389e-02 7.510479e-02 1.266316e-01 9.086671e-02 8.948259e-02 5.621777e-02 3.019592e-01 1.133289e-01 1.773080e-01 1.218528e-01 1.932020e-01 1.197668e-01
<GCONST> 7.020662e+01
<MIXTURE> 2 5.000000e-01
<MEAN> 39
 1.752800e+00 3.941331e+00 -1.468074e+01 1.414967e+00 -3.297690e+00 -1.726040e+01 -8.451453e+00 2.718934e+00 3.526037e+00 1.241954e+00 -9.076478e+00 -2.423284e+00 1.294883e+00 1.080570e-01 -1.202061e-01 2.869232e-01 3.261488e-01 3.955847e-03 -5.714270e-02 -3.278480e-01 4.837636e-01 9.078605e-02 -4.124222e-01 -6.274630e-01 4.470656e-01 4.881160e-01 1.193533e-02 1.313367e-02 2.375454e-01 -8.681202e-02 -1.396015e-02 1.342716e-01 8.710954e-02 -9.001368e-02 -2.702968e-01 1.543779e-02 1.905751e-01 -5.170599e-02 -9.490117e-02
<VARIANCE> 39
 5.894976e+00 2.734560e+00 1.954150e+01 1.016340e+01 1.943134e+01 1.826695e+01 1.391944e+01 4.528217e+01 5.190865e+00 3.217875e+01 1.508976e+01 2.844493e+01 1.819044e+01 1.880974e-01 1.575083e-01 6.893823e-01 4.278053e-01 6.351094e-01 9.630017e-01 3.718147e-01 2.528320e+00 1.140259e+00 1.428070e+00 7.159550e-01 1.005566e+00 5.800686e-01 1.685277e-02 5.744389e-02 7.510479e-02 1.266316e-01 9.086671e-02 8.948259e-02 5.621777e-02 3.019592e-01 1.133289e-01 1.773080e-01 1.218528e-01 1.932020e-01 1.197668e-01
<GCONST> 7.020662e+01
<STATE> 6
<NUMMIXES> 2
<MIXTURE> 1 5.000000e-01
<MEAN> 39
 5.636860e+00 1.086936e+00 -3.449573e+00 2.306944e+00 -3.709402e-01 -1.938962e+01 -4.388223e+00 -1.912709e+00 2.043740e+00 -9.117322e-01 -8.917201e+00 1.121971e+00 -7.866460e-01 2.997211e-01 4.535026e-02 6.815091e-01 2.082603e-01 2.385773e-01 6.026353e-02 2.182747e-01 -4.426257e-01 3.144541e-01 -1.438717e-01 1.848329e-01 1.665631e-01 -2.378299e-01 -6.449132e-02 7.900940e-02 -1.397713e-01 -2.597684e-02 7.325813e-03 6.458452e-02 2.414043e-02 -3.385607e-02 1.247244e-01 2.135150e-02 3.081028e-02 -3.971352e-02 -5.722477e-02
<VARIANCE> 39
 1.156624e+01 6.412009e+01 3.106812e+01 2.725750e+01 4.813630e+01 3.733171e+01 3.757378e+01 4.195089e+01 8.444384e+01 1.874105e+01 1.674904e+01 2.719151e+01 1.223131e+01 4.221812e-01 1.641483e+00 2.743536e+00 3.709979e+00 2.978860e+00 1.995847e+00 2.166725e+00 3.852527e+00 4.644256e+00 2.288260e+00 1.656670e+00 2.187608e+00 1.892135e+00 7.177138e-02 1.781800e-01 2.566239e-01 8.601312e-01 5.931799e-01 4.457609e-01 3.521521e-01 7.247739e-01 6.782321e-01 3.670485e-01 3.012464e-01 3.523985e-01 3.862754e-01
<GCONST> 1.128727e+02
<MIXTURE> 2 5.000000e-01
<MEAN> 39
 5.636860e+00 1.086936e+00 -3.449573e+00 2.306944e+00 -3.709402e-01 -1.938962e+01 -4.388223e+00 -1.912709e+00 2.043740e+00 -9.117322e-01 -8.917201e+00 1.121971e+00 -7.866460e-01 2.997211e-01 4.535026e-02 6.815091e-01 2.082603e-01 2.385773e-01 6.026353e-02 2.182747e-01 -4.426257e-01 3.144541e-01 -1.438717e-01 1.848329e-01 1.665631e-01 -2.378299e-01 -6.449132e-02 7.900940e-02 -1.397713e-01 -2.597684e-02 7.325813e-03 6.458452e-02 2.414043e-02 -3.385607e-02 1.247244e-01 2.135150e-02 3.081028e-02 -3.971352e-02 -5.722477e-02
<VARIANCE> 39
 1.156624e+01 6.412009e+01 3.106812e+01 2.725750e+01 4.813630e+01 3.733171e+01 3.757378e+01 4.195089e+01 8.444384e+01 1.874105e+01 1.674904e+01 2.719151e+01 1.223131e+01 4.221812e-01 1.641483e+00 2.743536e+00 3.709979e+00 2.978860e+00 1.995847e+00 2.166725e+00 3.852527e+00 4.644256e+00 2.288260e+00 1.656670e+00 2.187608e+00 1.892135e+00 7.177138e-02 1.781800e-01 2.566239e-01 8.601312e-01 5.931799e-01 4.457609e-01 3.521521e-01 7.247739e-01 6.782321e-01 3.670485e-01 3.012464e-01 3.523985e-01 3.862754e-01
<GCONST> 1.128727e+02
<TRANSP> 7
 0.000000e+00 1.000000e+00 0.000000e+00 0.000000e+00 0.000000e+00 0.000000e+00 0.000000e+00
 0.000000e+00 7.246816e-01 2.753184e-01 0.000000e+00 0.000000e+00 0.000000e+00 0.000000e+00
 0.000000e+00 0.000000e+00 7.030064e-01 2.969936e-01 0.000000e+00 0.000000e+00 0.000000e+00
 0.000000e+00 0.000000e+00 0.000000e+00 8.276238e-01 1.723762e-01 0.000000e+00 0.000000e+00
 0.000000e+00 0.000000e+00 0.000000e+00 0.000000e+00 8.349490e-01 1.650510e-01 0.000000e+00
 0.000000e+00 0.000000e+00 0.000000e+00 0.000000e+00 0.000000e+00 9.101546e-01 8.984543e-02
 0.000000e+00 0.000000e+00 0.000000e+00 0.000000e+00 0.000000e+00 0.000000e+00 0.000000e+00
<ENDHMM>
~h "w"
<BEGINHMM>
<NUMSTATES> 5
<STATE> 2
<NUMMIXES> 2
<MIXTURE> 1 5.000000e-01
<MEAN> 39
 -4.707683e+00 5.947248e-01 -2.359022e+00 -2.529116e+00 -5.807150e-01 -3.899058e+00 -5.879866e-01 -2.546733e+00 -3.359112e+00 -1.947479e+00 -3.053110e+00 -1.799553e+00 -4.706514e-01 1.247701e-09 -4.053445e-10 -2.286396e-09 1.722714e-09 -5.066806e-10 -6.986651e-10 -9.397343e-10 7.695212e-10 2.444734e-09 -2.052057e-09 1.449384e-09 -3.641767e-11 9.025249e-11 -2.731325e-10 1.630878e-10 -4.259284e-10 2.525486e-10 -2.501736e-10 -3.847606e-10 1.820884e-11 2.755076e-10 2.565071e-10 -8.213769e-11 2.446812e-10 1.888177e-10 2.335481e-11
<VARIANCE> 39
 4.187243e+01 6.009408e+01 7.595177e+01 8.282796e+01 4.778630e+01 7.154459e+01 6.832973e+01 5.119468e+01 6.434221e+01 4.010469e+01 3.493262e+01 2.457936e+01 2.416324e+01 1.116265e+00 1.316838e+00 1.507257e+00 1.792183e+00 1.916434e+00 2.495733e+00 2.350824e+00 2.436618e+00 2.611890e+00 2.416298e+00 2.200972e+00 1.782301e+00 1.603670e+00 1.702006e-01 2.106898e-01 2.371141e-01 3.148418e-01 3.490519e-01 4.393112e-01 4.396379e-01 4.711943e-01 4.942226e-01 4.599516e-01 4.256383e-01 3.576615e-01 3.133541e-01
<GCONST> 1.168217e+02
<MIXTURE> 2 5.000000e-01
<MEAN> 39
 -4.707683e+00 5.947248e-01 -2.359022e+00 -2.529116e+00 -5.807150e-01 -3.899058e+00 -5.879866e-01 -2.546733e+00 -3.359112e+00 -1.947479e+00 -3.053110e+00 -1.799553e+00 -4.706514e-01 1.247701e-09 -4.053445e-10 -2.286396e-09 1.722714e-09 -5.066806e-10 -6.986651e-10 -9.397343e-10 7.695212e-10 2.444734e-09 -2.052057e-09 1.449384e-09 -3.641767e-11 9.025249e-11 -2.731325e-10 1.630878e-10 -4.259284e-10 2.525486e-10 -2.501736e-10 -3.847606e-10 1.820884e-11 2.755076e-10 2.565071e-10 -8.213769e-11 2.446812e-10 1.888177e-10 2.335481e-11
<VARIANCE> 39
 4.187243e+01 6.009408e+01 7.595177e+01 8.282796e+01 4.778630e+01 7.154459e+01 6.832973e+01 5.119468e+01 6.434221e+01 4.010469e+01 3.493262e+01 2.457936e+01 2.416324e+01 1.116265e+00 1.316838e+00 1.507257e+00 1.792183e+00 1.916434e+00 2.495733e+00 2.350824e+00 2.436618e+00 2.611890e+00 2.416298e+00 2.200972e+00 1.782301e+00 1.603670e+00 1.702006e-01 2.106898e-01 2.371141e-01 3.148418e-01 3.490519e-01 4.393112e-01 4.396379e-01 4.711943e-01 4.942226e-01 4.599516e-01 4.256383e-01 3.576615e-01 3.133541e-01
<GCONST> 1.168217e+02
<STATE> 3
<NUMMIXES> 2
<MIXTURE> 1 5.000000e-01
<MEAN> 39
 -4.707683e+00 5.947248e-01 -2.359022e+00 -2.529116e+00 -5.807150e-01 -3.899058e+00 -5.879866e-01 -2.546733e+00 -3.359112e+00 -1.947479e+00 -3.053110e+00 -1.799553e+00 -4.706514e-01 1.247701e-09 -4.053445e-10 -2.286396e-09 1.722714e-09 -5.066806e-10 -6.986651e-10 -9.397343e-10 7.695212e-10 2.444734e-09 -2.052057e-09 1.449384e-09 -3.641767e-11 9.025249e-11 -2.731325e-10 1.630878e-10 -4.259284e-10 2.525486e-10 -2.501736e-10 -3.847606e-10 1.820884e-11 2.755076e-10 2.565071e-10 -8.213769e-11 2.446812e-10 1.888177e-10 2.335481e-11
<VARIANCE> 39
 4.187243e+01 6.009408e+01 7.595177e+01 8.282796e+01 4.778630e+01 7.154459e+01 6.832973e+01 5.119468e+01 6.434221e+01 4.010469e+01 3.493262e+01 2.457936e+01 2.416324e+01 1.116265e+00 1.316838e+00 1.507257e+00 1.792183e+00 1.916434e+00 2.495733e+00 2.350824e+00 2.436618e+00 2.611890e+00 2.416298e+00 2.200972e+00 1.782301e+00 1.603670e+00 1.702006e-01 2.106898e-01 2.371141e-01 3.148418e-01 3.490519e-01 4.393112e-01 4.396379e-01 4.711943e-01 4.942226e-01 4.599516e-01 4.256383e-01 3.576615e-01 3.133541e-01
<GCONST> 1.168217e+02
<MIXTURE> 2 5.000000e-01
<MEAN> 39
 -4.707683e+00 5.947248e-01 -2.359022e+00 -2.529116e+00 -5.807150e-01 -3.899058e+00 -5.879866e-01 -2.546733e+00 -3.359112e+00 -1.947479e+00 -3.053110e+00 -1.799553e+00 -4.706514e-01 1.247701e-09 -4.053445e-10 -2.286396e-09 1.722714e-09 -5.066806e-10 -6.986651e-10 -9.397343e-10 7.695212e-10 2.444734e-09 -2.052057e-09 1.449384e-09 -3.641767e-11 9.025249e-11 -2.731325e-10 1.630878e-10 -4.259284e-10 2.525486e-10 -2.501736e-10 -3.847606e-10 1.820884e-11 2.755076e-10 2.565071e-10 -8.213769e-11 2.446812e-10 1.888177e-10 2.335481e-11
<VARIANCE> 39
 4.187243e+01 6.009408e+01 7.595177e+01 8.282796e+01 4.778630e+01 7.154459e+01 6.832973e+01 5.119468e+01 6.434221e+01 4.010469e+01 3.493262e+01 2.457936e+01 2.416324e+01 1.116265e+00 1.316838e+00 1.507257e+00 1.792183e+00 1.916434e+00 2.495733e+00 2.350824e+00 2.436618e+00 2.611890e+00 2.416298e+00 2.200972e+00 1.782301e+00 1.603670e+00 1.702006e-01 2.106898e-01 2.371141e-01 3.148418e-01 3.490519e-01 4.393112e-01 4.396379e-01 4.711943e-01 4.942226e-01 4.599516e-01 4.256383e-01 3.576615e-01 3.133541e-01
<GCONST> 1.168217e+02
<STATE> 4
<NUMMIXES> 2
<MIXTURE> 1 5.000000e-01
<MEAN> 39
 -4.707683e+00 5.947248e-01 -2.359022e+00 -2.529116e+00 -5.807150e-01 -3.899058e+00 -5.879866e-01 -2.546733e+00 -3.359112e+00 -1.947479e+00 -3.053110e+00 -1.799553e+00 -4.706514e-01 1.247701e-09 -4.053445e-10 -2.286396e-09 1.722714e-09 -5.066806e-10 -6.986651e-10 -9.397343e-10 7.695212e-10 2.444734e-09 -2.052057e-09 1.449384e-09 -3.641767e-11 9.025249e-11 -2.731325e-10 1.630878e-10 -4.259284e-10 2.525486e-10 -2.501736e-10 -3.847606e-10 1.820884e-11 2.755076e-10 2.565071e-10 -8.213769e-11 2.446812e-10 1.888177e-10 2.335481e-11
<VARIANCE> 39
 4.187243e+01 6.009408e+01 7.595177e+01 8.282796e+01 4.778630e+01 7.154459e+01 6.832973e+01 5.119468e+01 6.434221e+01 4.010469e+01 3.493262e+01 2.457936e+01 2.416324e+01 1.116265e+00 1.316838e+00 1.507257e+00 1.792183e+00 1.916434e+00 2.495733e+00 2.350824e+00 2.436618e+00 2.611890e+00 2.416298e+00 2.200972e+00 1.782301e+00 1.603670e+00 1.702006e-01 2.106898e-01 2.371141e-01 3.148418e-01 3.490519e-01 4.393112e-01 4.396379e-01 4.711943e-01 4.942226e-01 4.599516e-01 4.256383e-01 3.576615e-01 3.133541e-01
<GCONST> 1.168217e+02
<MIXTURE> 2 5.000000e-01
<MEAN> 39
 -4.707683e+00 5.947248e-01 -2.359022e+00 -2.529116e+00 -5.807150e-01 -3.899058e+00 -5.879866e-01 -2.546733e+00 -3.359112e+00 -1.947479e+00 -3.053110e+00 -1.799553e+00 -4.706514e-01 1.247701e-09 -4.053445e-10 -2.286396e-09 1.722714e-09 -5.066806e-10 -6.986651e-10 -9.397343e-10 7.695212e-10 2.444734e-09 -2.052057e-09 1.449384e-09 -3.641767e-11 9.025249e-11 -2.731325e-10 1.630878e-10 -4.259284e-10 2.525486e-10 -2.501736e-10 -3.847606e-10 1.820884e-11 2.755076e-10 2.565071e-10 -8.213769e-11 2.446812e-10 1.888177e-10 2.335481e-11
<VARIANCE> 39
 4.187243e+01 6.009408e+01 7.595177e+01 8.282796e+01 4.778630e+01 7.154459e+01 6.832973e+01 5.119468e+01 6.434221e+01 4.010469e+01 3.493262e+01 2.457936e+01 2.416324e+01 1.116265e+00 1.316838e+00 1.507257e+00 1.792183e+00 1.916434e+00 2.495733e+00 2.350824e+00 2.436618e+00 2.611890e+00 2.416298e+00 2.200972e+00 1.782301e+00 1.603670e+00 1.702006e-01 2.106898e-01 2.371141e-01 3.148418e-01 3.490519e-01 4.393112e-01 4.396379e-01 4.711943e-01 4.942226e-01 4.599516e-01 4.256383e-01 3.576615e-01 3.133541e-01
<GCONST> 1.168217e+02
<TRANSP> 5
 0.000000e+00 1.000000e+00 0.000000e+00 0.000000e+00 0.000000e+00
 0.000000e+00 6.000000e-01 4.000000e-01 0.000000e+00 0.000000e+00
 0.000000e+00 0.000000e+00 6.000000e-01 4.000000e-01 0.000000e+00
 0.000000e+00 0.000000e+00 0.000000e+00 6.000000e-01 4.000000e-01
 0.000000e+00 0.000000e+00 0.000000e+00 0.000000e+00 0.000000e+00
<ENDHMM>
~h "y"
<BEGINHMM>
<NUMSTATES> 5
<STATE> 2
<NUMMIXES> 2
<MIXTURE> 1 5.000000e-01
<MEAN> 39
 -6.238705e+00 2.186988e+01 8.049735e-01 -6.413407e+00 -5.640135e+00 -1.067822e+01 -1.523588e+01 -5.161050e+00 1.198471e+00 5.107812e-01 5.004546e+00 -6.301517e+00 -4.106164e-02 -7.269658e-02 -4.016434e-01 2.931605e-02 -1.802174e-01 -3.783447e-01 -8.671906e-02 3.076301e-01 -9.378052e-02 4.722811e-01 -1.177922e-02 -1.245783e-01 2.993920e-01 -7.794787e-02 -4.852237e-03 -1.038936e-01 7.012684e-04 -2.069433e-02 -7.049786e-03 1.332493e-01 2.035902e-01 3.791604e-02 -6.082102e-02 -1.062515e-01 -1.159776e-01 5.991129e-02 1.809173e-02
<VARIANCE> 39
 2.291189e+00 3.135730e+01 1.190870e+01 2.126820e+01 1.117779e+01 9.836428e+00 1.864915e+01 3.412557e+01 2.011389e+01 2.112502e+01 2.378323e+01 1.156423e+01 8.966355e+00 4.043595e-01 4.820462e-01 9.586515e-01 1.110889e+00 6.345021e-01 1.131617e+00 1.004325e+00 2.472730e+00 9.937818e-01 2.437579e+00 1.192968e+00 1.711528e+00 6.672296e-01 9.252413e-02 5.670288e-02 1.596305e-01 1.558475e-01 1.961064e-01 1.708622e-01 3.135581e-01 4.295849e-01 2.273417e-01 4.969504e-01 1.388041e-01 4.483749e-01 1.408541e-01
<GCONST> 8.544236e+01
<MIXTURE> 2 5.000000e-01
<MEAN> 39
 -6.238705e+00 2.186988e+01 8.049735e-01 -6.413407e+00 -5.640135e+00 -1.067822e+01 -1.523588e+01 -5.161050e+00 1.198471e+00 5.107812e-01 5.004546e+00 -6.301517e+00 -4.106164e-02 -7.269658e-02 -4.016434e-01 2.931605e-02 -1.802174e-01 -3.783447e-01 -8.671906e-02 3.076301e-01 -9.378052e-02 4.722811e-01 -1.177922e-02 -1.245783e-01 2.993920e-01 -7.794787e-02 -4.852237e-03 -1.038936e-01 7.012684e-04 -2.069433e-02 -7.049786e-03 1.332493e-01 2.035902e-01 3.791604e-02 -6.082102e-02 -1.062515e-01 -1.159776e-01 5.991129e-02 1.809173e-02
<VARIANCE> 39
 2.291189e+00 3.135730e+01 1.190870e+01 2.126820e+01 1.117779e+01 9.836428e+00 1.864915e+01 3.412557e+01 2.011389e+01 2.112502e+01 2.378323e+01 1.156423e+01 8.966355e+00 4.043595e-01 4.820462e-01 9.586515e-01 1.110889e+00 6.345021e-01 1.131617e+00 1.004325e+00 2.472730e+00 9.937818e-01 2.437579e+00 1.192968e+00 1.711528e+00 6.672296e-01 9.252413e-02 5.670288e-02 1.596305e-01 1.558475e-01 1.961064e-01 1.708622e-01 3.135581e-01 4.295849e-01 2.273417e-01 4.969504e-01 1.388041e-01 4.483749e-01 1.408541e-01
<GCONST> 8.544236e+01
<STATE> 3
<NUMMIXES> 2
<MIXTURE> 1 5.000000e-01
<MEAN> 39
 -7.868884e+00 6.034062e+00 8.525085e-01 -1.642201e+01 -1.292194e+01 5.916901e-01 -3.914172e+00 1.358279e+00 5.910234e+00 -4.943527e+00 -9.473061e+00 -9.951536e-01 -2.409237e+00 -2.687613e-02 -1.262615e+00 -9.699975e-01 2.915678e-01 -2.555738e-01 1.457418e+00 2.382763e+00 -5.622695e-01 -7.945149e-01 -1.030898e+00 -1.534783e+00 1.762345e-01 9.038824e-01 1.039365e-01 -1.202653e-01 -2.776460e-02 2.182536e-01 2.753454e-01 1.345717e-01 1.342083e-01 -3.253500e-01 -4.634149e-01 3.952649e-02 1.881081e-01 -6.062310e-02 2.208057e-01
<VARIANCE> 39
 4.187242e-01 7.368582e+00 6.205654e+00 4.201069e+00 2.159169e+00 9.021511e+00 2.988170e+01 1.002594e+01 4.924618e+00 7.857938e+00 1.370174e+01 6.186269e-01 5.185507e+00 7.425162e-02 1.625027e-01 1.575498e-01 4.338612e-01 6.469898e-01 6.289077e-01 4.029476e-01 9.871216e-01 1.417957e+00 2.168516e-01 9.151902e-01 1.371900e-01 4.245855e-01 9.939483e-03 9.871067e-03 3.069065e-02 6.550879e-02 7.532863e-02 5.761834e-02 2.009023e-01 9.321670e-02 1.494525e-01 1.161077e-01 1.761901e-01 2.645327e-02 3.170795e-02
<GCONST> 4.141278e+01
<MIXTURE> 2 5.000000e-01
<MEAN> 39
 -7.868884e+00 6.034062e+00 8.525085e-01 -1.642201e+01 -1.292194e+01 5.916901e-01 -3.914172e+00 1.358279e+00 5.910234e+00 -4.943527e+00 -9.473061e+00 -9.951536e-01 -2.409237e+00 -2.687613e-02 -1.262615e+00 -9.699975e-01 2.915678e-01 -2.555738e-01 1.457418e+00 2.382763e+00 -5.622695e-01 -7.945149e-01 -1.030898e+00 -1.534783e+00 1.762345e-01 9.038824e-01 1.039365e-01 -1.202653e-01 -2.776460e-02 2.182536e-01 2.753454e-01 1.345717e-01 1.342083e-01 -3.253500e-01 -4.634149e-01 3.952649e-02 1.881081e-01 -6.062310e-02 2.208057e-01
<VARIANCE> 39
 4.187242e-01 7.368582e+00 6.205654e+00 4.201069e+00 2.159169e+00 9.021511e+00 2.988170e+01 1.002594e+01 4.924618e+00 7.857938e+00 1.370174e+01 6.186269e-01 5.185507e+00 7.425162e-02 1.625027e-01 1.575498e-01 4.338612e-01 6.469898e-01 6.289077e-01 4.029476e-01 9.871216e-01 1.417957e+00 2.168516e-01 9.151902e-01 1.371900e-01 4.245855e-01 9.939483e-03 9.871067e-03 3.069065e-02 6.550879e-02 7.532863e-02 5.761834e-02 2.009023e-01 9.321670e-02 1.494525e-01 1.161077e-01 1.761901e-01 2.645327e-02 3.170795e-02
<GCONST> 4.141278e+01
<STATE> 4
<NUMMIXES> 2
<MIXTURE> 1 5.000000e-01
<MEAN> 39
 -7.595353e+00 -4.094820e+00 -4.332419e+00 -9.631371e+00 -7.116232e+00 7.666021e+00 7.690089e+00 -6.797671e+00 -7.679988e+00 -5.119279e+00 -1.030919e+01 -2.662721e+00 7.386428e+00 -7.395063e-02 -9.618766e-01 -5.253252e-01 1.141113e+00 1.162706e+00 -7.572116e-02 6.651668e-01 -1.110654e+00 -1.803423e+00 8.708545e-01 8.892023e-01 -3.409507e-01 6.060483e-01 -9.439050e-03 1.392825e-01 1.357373e-02 3.273045e-02 1.243080e-02 -2.411820e-01 -1.802738e-01 5.424672e-02 1.566243e-01 9.462964e-02 1.858918e-01 3.231018e-02 -3.113581e-01
<VARIANCE> 39
 5.715164e-01 8.945575e+00 3.924552e+00 1.458974e+01 1.825374e+01 6.063241e+00 1.362216e+01 1.365572e+01 3.497843e+01 1.359372e+01 1.480607e+01 5.829994e+00 9.699620e+00 9.780385e-02 2.828854e-01 3.089910e-01 1.490067e-01 3.255741e-01 9.284630e-01 3.028832e-01 2.508391e-01 1.128574e+00 1.139463e+00 6.809298e-01 4.425063e-01 1.875072e+00 2.261517e-02 2.097793e-02 8.714500e-02 4.087750e-02 6.539146e-02 9.551832e-02 9.295628e-02 6.215070e-02 1.315351e-01 2.547163e-01 8.122040e-02 1.008230e-01 1.516915e-01
<GCONST> 5.581720e+01
<MIXTURE> 2 5.000000e-01
<MEAN> 39
 -7.595353e+00 -4.094820e+00 -4.332419e+00 -9.631371e+00 -7.116232e+00 7.666021e+00 7.690089e+00 -6.797671e+00 -7.679988e+00 -5.119279e+00 -1.030919e+01 -2.662721e+00 7.386428e+00 -7.395063e-02 -9.618766e-01 -5.253252e-01 1.141113e+00 1.162706e+00 -7.572116e-02 6.651668e-01 -1.110654e+00 -1.803423e+00 8.708545e-01 8.892023e-01 -3.409507e-01 6.060483e-01 -9.439050e-03 1.392825e-01 1.357373e-02 3.273045e-02 1.243080e-02 -2.411820e-01 -1.802738e-01 5.424672e-02 1.566243e-01 9.462964e-02 1.858918e-01 3.231018e-02 -3.113581e-01
<VARIANCE> 39
 5.715164e-01 8.945575e+00 3.924552e+00 1.458974e+01 1.825374e+01 6.063241e+00 1.362216e+01 1.365572e+01 3.497843e+01 1.359372e+01 1.480607e+01 5.829994e+00 9.699620e+00 9.780385e-02 2.828854e-01 3.089910e-01 1.490067e-01 3.255741e-01 9.284630e-01 3.028832e-01 2.508391e-01 1.128574e+00 1.139463e+00 6.809298e-01 4.425063e-01 1.875072e+00 2.261517e-02 2.097793e-02 8.714500e-02 4.087750e-02 6.539146e-02 9.551832e-02 9.295628e-02 6.215070e-02 1.315351e-01 2.547163e-01 8.122040e-02 1.008230e-01 1.516915e-01
<GCONST> 5.581720e+01
<TRANSP> 5
 0.000000e+00 1.000000e+00 0.000000e+00 0.000000e+00 0.000000e+00
 0.000000e+00 9.032259e-01 9.677412e-02 0.000000e+00 0.000000e+00
 0.000000e+00 0.000000e+00 8.421059e-01 1.578941e-01 0.000000e+00
 0.000000e+00 0.000000e+00 0.000000e+00 8.893433e-01 1.106567e-01
 0.000000e+00 0.000000e+00 0.000000e+00 0.000000e+00 0.000000e+00
<ENDHMM>
~h "aa"
<BEGINHMM>
<NUMSTATES> 7
<STATE> 2
<NUMMIXES> 2
<MIXTURE> 1 5.000000e-01
<MEAN> 39
 -3.503521e+00 -5.488385e+00 -1.160298e+01 5.881749e+00 5.258767e+00 -6.685466e+00 3.719313e+00 -3.391770e+00 -1.764182e+00 -5.438982e+00 -3.677339e+00 -2.555432e+00 9.596261e-01 -1.648623e-01 -6.151788e-01 -5.715978e-01 1.983904e-01 5.477803e-01 3.935869e-01 2.677453e-01 -2.539051e-01 -6.279054e-01 -3.912895e-01 2.125600e-02 3.642327e-01 1.440775e-01 -6.260390e-02 4.229493e-02 1.380668e-01 -5.930295e-02 1.743883e-02 2.111394e-02 -1.669099e-01 1.790037e-02 -4.480841e-02 7.466027e-03 1.314720e-01 -1.257706e-02 2.309451e-04
<VARIANCE> 39
 2.943850e+01 1.613504e+01 3.644114e+01 7.635950e+01 5.158036e+01 3.466416e+01 3.916503e+01 4.483387e+01 5.805835e+01 5.634965e+01 2.341382e+01 2.553803e+01 3.105450e+01 7.498661e-01 7.998838e-01 1.514458e+00 1.067660e+00 1.674647e+00 3.010440e+00 1.570076e+00 2.001132e+00 2.122411e+00 1.874251e+00 1.629804e+00 1.883801e+00 1.869746e+00 1.129744e-01 1.177733e-01 2.501025e-01 1.780952e-01 3.245654e-01 5.089101e-01 3.410357e-01 3.290381e-01 3.703104e-01 3.814089e-01 2.633322e-01 3.569611e-01 3.476123e-01
<GCONST> 1.077163e+02
<MIXTURE> 2 5.000000e-01
<MEAN> 39
 -3.503521e+00 -5.488385e+00 -1.160298e+01 5.881749e+00 5.258767e+00 -6.685466e+00 3.719313e+00 -3.391770e+00 -1.764182e+00 -5.438982e+00 -3.677339e+00 -2.555432e+00 9.596261e-01 -1.648623e-01 -6.151788e-01 -5.715978e-01 1.983904e-01 5.477803e-01 3.935869e-01 2.677453e-01 -2.539051e-01 -6.279054e-01 -3.912895e-01 2.125600e-02 3.642327e-01 1.440775e-01 -6.260390e-02 4.229493e-02 1.380668e-01 -5.930295e-02 1.743883e-02 2.111394e-02 -1.669099e-01 1.790037e-02 -4.480841e-02 7.466027e-03 1.314720e-01 -1.257706e-02 2.309451e-04
<VARIANCE> 39
 2.943850e+01 1.613504e+01 3.644114e+01 7.635950e+01 5.158036e+01 3.466416e+01 3.916503e+01 4.483387e+01 5.805835e+01 5.634965e+01 2.341382e+01 2.553803e+01 3.105450e+01 7.498661e-01 7.998838e-01 1.514458e+00 1.067660e+00 1.674647e+00 3.010440e+00 1.570076e+00 2.001132e+00 2.122411e+00 1.874251e+00 1.629804e+00 1.883801e+00 1.869746e+00 1.129744e-01 1.177733e-01 2.501025e-01 1.780952e-01 3.245654e-01 5.089101e-01 3.410357e-01 3.290381e-01 3.703104e-01 3.814089e-01 2.633322e-01 3.569611e-01 3.476123e-01
<GCONST> 1.077163e+02
<STATE> 3
<NUMMIXES> 2
<MIXTURE> 1 5.000000e-01
<MEAN> 39
 -4.143667e+00 -9.652557e+00 -1.139105e+01 1.931886e+00 3.243159e+00 -2.554118e+00 7.838507e+00 -5.173789e+00 -1.304505e+01 -6.572647e+00 -1.403912e-01 7.815989e-01 -4.751153e-01 -3.126323e-01 -4.843262e-01 -2.648572e-01 5.972338e-01 9.122629e-01 -5.398601e-02 -4.195329e-01 -5.483259e-01 -4.415002e-01 3.542843e-01 8.460217e-01 1.502079e-02 -3.291352e-01 4.508321e-02 1.256263e-01 7.109619e-02 4.105085e-03 -1.522451e-01 -1.382594e-01 -4.221170e-02 1.073219e-01 1.996993e-01 9.714380e-02 -6.526374e-02 -1.041491e-01 -9.296691e-02
<VARIANCE> 39
 4.800489e+00 4.831062e+00 2.657325e+01 1.650727e+01 3.833068e+01 1.757361e+01 2.550893e+01 2.266777e+01 4.948689e+01 4.721945e+01 2.666407e+01 1.209293e+01 1.854400e+01 1.924989e-01 2.535442e-01 2.919596e-01 2.015021e-01 6.784087e-01 7.736642e-01 4.988362e-01 1.121108e+00 1.052776e+00 5.349873e-01 7.707609e-01 6.986855e-01 5.306716e-01 2.650991e-02 4.732557e-02 4.671355e-02 2.971680e-02 7.723570e-02 1.046958e-01 1.254425e-01 1.403357e-01 1.572370e-01 1.064867e-01 9.527119e-02 1.349973e-01 9.041616e-02
<GCONST> 6.836002e+01
<MIXTURE> 2 5.000000e-01
<MEAN> 39
 -4.143667e+00 -9.652557e+00 -1.139105e+01 1.931886e+00 3.243159e+00 -2.554118e+00 7.838507e+00 -5.173789e+00 -1.304505e+01 -6.572647e+00 -1.403912e-01 7.815989e-01 -4.751153e-01 -3.126323e-01 -4.843262e-01 -2.648572e-01 5.972338e-01 9.122629e-01 -5.398601e-02 -4.195329e-01 -5.483259e-01 -4.415002e-01 3.542843e-01 8.460217e-01 1.502079e-02 -3.291352e-01 4.508321e-02 1.256263e-01 7.109619e-02 4.105085e-03 -1.522451e-01 -1.382594e-01 -4.221170e-02 1.073219e-01 1.996993e-01 9.714380e-02 -6.526374e-02 -1.041491e-01 -9.296691e-02
<VARIANCE> 39
 4.800489e+00 4.831062e+00 2.657325e+01 1.650727e+01 3.833068e+01 1.757361e+01 2.550893e+01 2.266777e+01 4.948689e+01 4.721945e+01 2.666407e+01 1.209293e+01 1.854400e+01 1.924989e-01 2.535442e-01 2.919596e-01 2.015021e-01 6.784087e-01 7.736642e-01 4.988362e-01 1.121108e+00 1.052776e+00 5.349873e-01 7.707609e-01 6.986855e-01 5.306716e-01 2.650991e-02 4.732557e-02 4.671355e-02 2.971680e-02 7.723570e-02 1.046958e-01 1.254425e-01 1.403357e-01 1.572370e-01 1.064867e-01 9.527119e-02 1.349973e-01 9.041616e-02
<GCONST> 6.836002e+01
<STATE> 4
<NUMMIXES> 2
<MIXTURE> 1 5.000000e-01
<MEAN> 39
 -6.055933e+00 -1.105212e+01 -1.287256e+01 6.166951e+00 7.220136e+00 -5.379698e+00 4.749788e+00 -6.025914e+00 -1.300056e+01 -5.532127e+00 2.740847e+00 1.150263e+00 -3.637342e+00 -1.846383e-02 -1.860567e-02 1.688976e-01 -8.599467e-02 -1.650229e-01 4.783659e-02 1.816993e-01 4.749226e-02 -2.455084e-01 8.871000e-02 7.589064e-02 -1.188892e-01 -1.034816e-02 4.157947e-02 1.939694e-02 4.289655e-02 -7.637960e-02 -5.912489e-02 4.738116e-02 3.672494e-02 2.471549e-02 1.710543e-02 -5.932909e-03 -6.517778e-02 -1.424241e-02 6.507855e-02
<VARIANCE> 39
 2.737048e+00 2.934095e+00 1.861557e+01 1.606521e+01 1.850474e+01 1.415561e+01 1.936133e+01 1.766925e+01 3.356744e+01 2.564728e+01 1.402715e+01 1.297546e+01 1.077119e+01 1.417488e-01 9.224366e-02 1.907813e-01 2.861938e-01 2.592246e-01 2.892200e-01 2.951323e-01 2.868567e-01 4.633031e-01 3.852607e-01 3.856901e-01 4.204669e-01 3.537024e-01 1.520564e-02 1.490465e-02 1.825487e-02 1.985586e-02 2.797966e-02 3.013959e-02 3.232092e-02 4.173977e-02 4.235120e-02 4.313152e-02 4.699877e-02 5.672459e-02 2.856403e-02
<GCONST> 4.252790e+01
<MIXTURE> 2 5.000000e-01
<MEAN> 39
 -6.055933e+00 -1.105212e+01 -1.287256e+01 6.166951e+00 7.220136e+00 -5.379698e+00 4.749788e+00 -6.025914e+00 -1.300056e+01 -5.532127e+00 2.740847e+00 1.150263e+00 -3.637342e+00 -1.846383e-02 -1.860567e-02 1.688976e-01 -8.599467e-02 -1.650229e-01 4.783659e-02 1.816993e-01 4.749226e-02 -2.455084e-01 8.871000e-02 7.589064e-02 -1.188892e-01 -1.034816e-02 4.157947e-02 1.939694e-02 4.289655e-02 -7.637960e-02 -5.912489e-02 4.738116e-02 3.672494e-02 2.471549e-02 1.710543e-02 -5.932909e-03 -6.517778e-02 -1.424241e-02 6.507855e-02
<VARIANCE> 39
 2.737048e+00 2.934095e+00 1.861557e+01 1.606521e+01 1.850474e+01 1.415561e+01 1.936133e+01 1.766925e+01 3.356744e+01 2.564728e+01 1.402715e+01 1.297546e+01 1.077119e+01 1.417488e-01 9.224366e-02 1.907813e-01 2.861938e-01 2.592246e-01 2.892200e-01 2.951323e-01 2.868567e-01 4.633031e-01 3.852607e-01 3.856901e-01 4.204669e-01 3.537024e-01 1.520564e-02 1.490465e-02 1.825487e-02 1.985586e-02 2.797966e-02 3.013959e-02 3.232092e-02 4.173977e-02 4.235120e-02 4.313152e-02 4.699877e-02 5.672459e-02 2.856403e-02
<GCONST> 4.252790e+01
<STATE> 5
<NUMMIXES> 2
<MIXTURE> 1 5.000000e-01
<MEAN> 39
 -4.917388e+00 -1.096092e+01 -8.592795e+00 1.491196e+00 3.630538e+00 -1.562889e+00 9.148151e+00 -5.310684e+00 -1.637963e+01 -2.808815e+00 1.629538e+00 -1.311134e+00 -5.642360e-01 4.124897e-01 2.416356e-01 8.234724e-01 -1.012736e+00 -8.020767e-01 4.381785e-01 2.509269e-01 4.764936e-01 7.508429e-02 3.680052e-01 -6.245041e-01 -3.088941e-01 3.890913e-01 9.804351e-02 1.134915e-01 1.037759e-01 -6.451416e-02 -1.400318e-01 -1.137276e-01 -1.231744e-01 1.244445e-01 2.082913e-01 8.969195e-02 -1.447564e-01 9.373166e-03 -7.407840e-02
<VARIANCE> 39
 4.888830e+00 5.373848e+00 1.618950e+01 2.786911e+01 1.448893e+01 1.633789e+01 1.047209e+01 3.326025e+01 2.016980e+01 2.777852e+01 2.792034e+01 2.017414e+01 2.727138e+01 3.079397e-01 3.797977e-01 2.736233e-01 6.554300e-01 1.104598e+00 1.088440e+00 9.515607e-01 1.343911e+00 2.027637e+00 8.713695e-01 1.762720e+00 1.069462e+00 1.053279e+00 3.558178e-02 6.075411e-02 4.349812e-02 1.407063e-01 1.595511e-01 1.709839e-01 2.172934e-01 1.571786e-01 4.032301e-01 1.575572e-01 4.518253e-01 2.245624e-01 1.975262e-01
<GCONST> 8.128884e+01
<MIXTURE> 2 5.000000e-01
<MEAN> 39
 -4.917388e+00 -1.096092e+01 -8.592795e+00 1.491196e+00 3.630538e+00 -1.562889e+00 9.148151e+00 -5.310684e+00 -1.637963e+01 -2.808815e+00 1.629538e+00 -1.311134e+00 -5.642360e-01 4.124897e-01 2.416356e-01 8.234724e-01 -1.012736e+00 -8.020767e-01 4.381785e-01 2.509269e-01 4.764936e-01 7.508429e-02 3.680052e-01 -6.245041e-01 -3.088941e-01 3.890913e-01 9.804351e-02 1.134915e-01 1.037759e-01 -6.451416e-02 -1.400318e-01 -1.137276e-01 -1.231744e-01 1.244445e-01 2.082913e-01 8.969195e-02 -1.447564e-01 9.373166e-03 -7.407840e-02
<VARIANCE> 39
 4.888830e+00 5.373848e+00 1.618950e+01 2.786911e+01 1.448893e+01 1.633789e+01 1.047209e+01 3.326025e+01 2.016980e+01 2.777852e+01 2.792034e+01 2.017414e+01 2.727138e+01 3.079397e-01 3.797977e-01 2.736233e-01 6.554300e-01 1.104598e+00 1.088440e+00 9.515607e-01 1.343911e+00 2.027637e+00 8.713695e-01 1.762720e+00 1.069462e+00 1.053279e+00 3.558178e-02 6.075411e-02 4.349812e-02 1.407063e-01 1.595511e-01 1.709839e-01 2.172934e-01 1.571786e-01 4.032301e-01 1.575572e-01 4.518253e-01 2.245624e-01 1.975262e-01
<GCONST> 8.128884e+01
<STATE> 6
<NUMMIXES> 2
<MIXTURE> 1 5.000000e-01
<MEAN> 39
 -1.432128e+00 -6.770873e+00 -4.016418e+00 4.690576e-01 -2.164487e+00 -3.979808e+00 7.853903e+00 -1.809866e+00 -9.372262e+00 -1.571635e+00 -3.003109e+00 -3.247037e+00 -4.205782e-01 6.225338e-01 8.205101e-01 7.580557e-01 -2.421525e-01 -8.983340e-01 -5.369380e-01 -5.867196e-01 2.495266e-01 5.603199e-01 7.571667e-01 -1.759243e-01 -1.361873e-01 -1.775124e-01 -4.918339e-02 1.186717e-01 -3.032426e-02 2.049980e-01 1.513066e-01 -6.561210e-02 -1.157453e-01 -2.350454e-01 -5.896664e-02 -7.832808e-02 1.719831e-01 1.447887e-01 7.662337e-02
<VARIANCE> 39
 1.802278e+01 1.418967e+01 3.037933e+01 1.010734e+02 5.000401e+01 3.378331e+01 2.705539e+01 7.414339e+01 5.839682e+01 4.155146e+01 2.680000e+01 1.144078e+01 1.363377e+01 7.953635e-01 1.171766e+00 8.282583e-01 1.575769e+00 1.959826e+00 2.880650e+00 2.155476e+00 1.887955e+00 2.846964e+00 1.953115e+00 2.649517e+00 1.378884e+00 1.228604e+00 1.043859e-01 1.638212e-01 8.016945e-02 2.431041e-01 3.138377e-01 4.495459e-01 3.385854e-01 3.959831e-01 4.008813e-01 3.853467e-01 3.091556e-01 1.837815e-01 2.146611e-01
<GCONST> 1.047181e+02
<MIXTURE> 2 5.000000e-01
<MEAN> 39
 -1.432128e+00 -6.770873e+00 -4.016418e+00 4.690576e-01 -2.164487e+00 -3.979808e+00 7.853903e+00 -1.809866e+00 -9.372262e+00 -1.571635e+00 -3.003109e+00 -3.247037e+00 -4.205782e-01 6.225338e-01 8.205101e-01 7.580557e-01 -2.421525e-01 -8.983340e-01 -5.369380e-01 -5.867196e-01 2.495266e-01 5.603199e-01 7.571667e-01 -1.759243e-01 -1.361873e-01 -1.775124e-01 -4.918339e-02 1.186717e-01 -3.032426e-02 2.049980e-01 1.513066e-01 -6.561210e-02 -1.157453e-01 -2.350454e-01 -5.896664e-02 -7.832808e-02 1.719831e-01 1.447887e-01 7.662337e-02
<VARIANCE> 39
 1.802278e+01 1.418967e+01 3.037933e+01 1.010734e+02 5.000401e+01 3.378331e+01 2.705539e+01 7.414339e+01 5.839682e+01 4.155146e+01 2.680000e+01 1.144078e+01 1.363377e+01 7.953635e-01 1.171766e+00 8.282583e-01 1.575769e+00 1.959826e+00 2.880650e+00 2.155476e+00 1.887955e+00 2.846964e+00 1.953115e+00 2.649517e+00 1.378884e+00 1.228604e+00 1.043859e-01 1.638212e-01 8.016945e-02 2.431041e-01 3.138377e-01 4.495459e-01 3.385854e-01 3.959831e-01 4.008813e-01 3.853467e-01 3.091556e-01 1.837815e-01 2.146611e-01
<GCONST> 1.047181e+02
<TRANSP> 7
 0.000000e+00 1.000000e+00 0.000000e+00 0.000000e+00 0.000000e+00 0.000000e+00 0.000000e+00
 0.000000e+00 7.751406e-01 2.248594e-01 0.000000e+00 0.000000e+00 0.000000e+00 0.000000e+00
 0.000000e+00 0.000000e+00 7.751934e-01 2.248067e-01 0.000000e+00 0.000000e+00 0.000000e+00
 0.000000e+00 0.000000e+00 0.000000e+00 9.172667e-01 8.273330e-02 0.000000e+00 0.000000e+00
 0.000000e+00 0.000000e+00 0.000000e+00 0.000000e+00 7.911078e-01 2.088922e-01 0.000000e+00
 0.000000e+00 0.000000e+00 0.000000e+00 0.000000e+00 0.000000e+00 7.975244e-01 2.024757e-01
 0.000000e+00 0.000000e+00 0.000000e+00 0.000000e+00 0.000000e+00 0.000000e+00 0.000000e+00
<ENDHMM>
~h "ee"
<BEGINHMM>
<NUMSTATES> 7
<STATE> 2
<NUMMIXES> 2
<MIXTURE> 1 5.000000e-01
<MEAN> 39
 -6.663002e+00 5.653644e+00 3.440847e+00 -1.515786e+01 -9.753456e-01 1.292682e+00 -8.252048e+00 4.454851e+00 1.186289e+00 -5.012034e-01 -2.199595e+00 -7.683751e-01 -3.458136e+00 3.076945e-01 3.525305e-01 1.620523e-01 -8.031363e-01 -3.650873e-01 2.247895e-01 -3.032770e-01 9.904059e-01 1.369130e-01 -1.333673e-01 3.645563e-03 -1.091046e-01 -1.507785e-01 -4.142345e-02 4.514260e-02 -4.587602e-02 5.028833e-02 2.201613e-01 -1.868859e-01 9.921441e-02 1.692258e-02 -4.535525e-02 2.269070e-02 -9.260220e-02 -1.176191e-01 1.041877e-01
<VARIANCE> 39
 1.859580e+01 1.907916e+01 8.687038e+00 1.983857e+01 4.537318e+01 5.439155e+01 1.311208e+01 3.141094e+01 1.298454e+01 1.950153e+01 2.074158e+01 2.250308e+01 1.063050e+01 8.422269e-01 8.117523e-01 7.155554e-01 2.058990e+00 2.940680e+00 4.718825e+00 1.567692e+00 1.652274e+00 1.941310e+00 2.666955e+00 1.584464e+00 1.065408e+00 1.928718e+00 9.038037e-02 7.694010e-02 7.968250e-02 4.091516e-01 7.201872e-01 7.755603e-01 2.775797e-01 3.306174e-01 4.197820e-01 4.625891e-01 3.349407e-01 1.971093e-01 3.573641e-01
<GCONST> 1.002393e+02
<MIXTURE> 2 5.000000e-01
<MEAN> 39
 -6.663002e+00 5.653644e+00 3.440847e+00 -1.515786e+01 -9.753456e-01 1.292682e+00 -8.252048e+00 4.454851e+00 1.186289e+00 -5.012034e-01 -2.199595e+00 -7.683751e-01 -3.458136e+00 3.076945e-01 3.525305e-01 1.620523e-01 -8.031363e-01 -3.650873e-01 2.247895e-01 -3.032770e-01 9.904059e-01 1.369130e-01 -1.333673e-01 3.645563e-03 -1.091046e-01 -1.507785e-01 -4.142345e-02 4.514260e-02 -4.587602e-02 5.028833e-02 2.201613e-01 -1.868859e-01 9.921441e-02 1.692258e-02 -4.535525e-02 2.269070e-02 -9.260220e-02 -1.176191e-01 1.041877e-01
<VARIANCE> 39
 1.859580e+01 1.907916e+01 8.687038e+00 1.983857e+01 4.537318e+01 5.439155e+01 1.311208e+01 3.141094e+01 1.298454e+01 1.950153e+01 2.074158e+01 2.250308e+01 1.063050e+01 8.422269e-01 8.117523e-01 7.155554e-01 2.058990e+00 2.940680e+00 4.718825e+00 1.567692e+00 1.652274e+00 1.941310e+00 2.666955e+00 1.584464e+00 1.065408e+00 1.928718e+00 9.038037e-02 7.694010e-02 7.968250e-02 4.091516e-01 7.201872e-01 7.755603e-01 2.775797e-01 3.306174e-01 4.197820e-01 4.625891e-01 3.349407e-01 1.971093e-01 3.573641e-01
<GCONST> 1.002393e+02
<STATE> 3
<NUMMIXES> 2
<MIXTURE> 1 5.000000e-01
<MEAN> 39
 -6.421915e+00 8.402016e+00 2.256220e+00 -1.969621e+01 -3.941321e+00 -4.582677e-01 -8.028151e+00 1.044034e+01 2.330680e+00 -2.042630e+00 -1.390785e+00 -5.237965e+00 -2.722976e+00 -1.592290e-01 5.490337e-03 -7.599553e-02 -2.077783e-01 -3.109449e-01 1.627003e-01 -2.431154e-02 1.629907e-01 4.654885e-02 -2.804717e-02 -5.520654e-03 -7.487993e-02 -1.583097e-01 5.343917e-03 -2.207899e-03 7.629098e-03 1.041521e-01 1.921703e-02 4.161059e-02 -2.052862e-02 -4.909768e-02 -2.766830e-02 1.019914e-02 -1.882343e-02 3.544025e-02 4.795835e-03
<VARIANCE> 39
 1.106192e+01 1.016098e+01 6.801095e+00 7.791968e+00 1.175815e+01 7.156807e+00 4.093734e+00 1.389488e+01 6.763219e+00 5.109448e+00 8.459199e+00 7.202525e+00 6.507216e+00 6.330017e-01 6.183113e-01 3.272375e-01 3.851912e-01 3.834583e-01 5.629286e-01 5.154437e-01 4.542182e-01 5.676705e-01 4.595619e-01 4.083559e-01 4.095708e-01 2.736096e-01 1.266007e-01 1.309905e-01 7.995809e-02 6.447124e-02 7.614980e-02 1.928486e-01 8.328734e-02 9.440040e-02 1.372208e-01 1.021244e-01 7.321867e-02 3.686512e-02 5.180201e-02
<GCONST> 5.636950e+01
<MIXTURE> 2 5.000000e-01
<MEAN> 39
 -6.421915e+00 8.402016e+00 2.256220e+00 -1.969621e+01 -3.941321e+00 -4.582677e-01 -8.028151e+00 1.044034e+01 2.330680e+00 -2.042630e+00 -1.390785e+00 -5.237965e+00 -2.722976e+00 -1.592290e-01 5.490337e-03 -7.599553e-02 -2.077783e-01 -3.109449e-01 1.627003e-01 -2.431154e-02 1.629907e-01 4.654885e-02 -2.804717e-02 -5.520654e-03 -7.487993e-02 -1.583097e-01 5.343917e-03 -2.207899e-03 7.629098e-03 1.041521e-01 1.921703e-02 4.161059e-02 -2.052862e-02 -4.909768e-02 -2.766830e-02 1.019914e-02 -1.882343e-02 3.544025e-02 4.795835e-03
<VARIANCE> 39
 1.106192e+01 1.016098e+01 6.801095e+00 7.791968e+00 1.175815e+01 7.156807e+00 4.093734e+00 1.389488e+01 6.763219e+00 5.109448e+00 8.459199e+00 7.202525e+00 6.507216e+00 6.330017e-01 6.183113e-01 3.272375e-01 3.851912e-01 3.834583e-01 5.629286e-01 5.154437e-01 4.542182e-01 5.676705e-01 4.595619e-01 4.083559e-01 4.095708e-01 2.736096e-01 1.266007e-01 1.309905e-01 7.995809e-02 6.447124e-02 7.614980e-02 1.928486e-01 8.328734e-02 9.440040e-02 1.372208e-01 1.021244e-01 7.321867e-02 3.686512e-02 5.180201e-02
<GCONST> 5.636950e+01
<STATE> 4
<NUMMIXES> 2
<MIXTURE> 1 5.000000e-01
<MEAN> 39
 -6.481973e+00 9.066228e+00 2.519704e+00 -1.839437e+01 -5.281705e+00 -2.481093e+00 -1.470328e+01 3.107454e+00 -4.411171e-01 -1.144768e+00 -4.440625e+00 -4.954852e-01 -5.518346e+00 1.162979e-02 1.180895e-01 8.120444e-02 -5.724407e-02 4.613888e-02 -4.478898e-02 -8.648207e-02 2.725668e-02 -7.287431e-02 7.955682e-02 2.092804e-01 -1.240353e-01 -2.756118e-02 4.016166e-02 -1.875935e-02 5.523334e-02 7.104279e-02 -1.840072e-02 -1.695414e-03 5.904863e-02 -9.109160e-02 1.603482e-02 8.437617e-03 -8.042273e-02 5.779604e-02 6.219381e-02
<VARIANCE> 39
 6.074284e+00 5.733372e+00 6.004766e+00 7.568541e+00 5.299456e+01 5.811382e+00 2.019891e+01 3.060471e+01 2.246583e+01 2.660929e+01 6.340682e+00 1.296435e+01 1.239180e+01 7.588752e-02 8.578843e-02 2.440401e-01 1.866787e-01 2.570562e-01 1.715581e-01 3.589055e-01 2.260206e-01 1.546156e-01 4.745972e-01 2.068234e-01 3.688501e-01 1.268423e-01 4.821150e-03 1.603960e-02 1.390990e-02 1.963149e-02 2.294729e-02 2.752930e-02 3.567582e-02 4.629854e-02 2.404887e-02 4.121571e-02 3.828284e-02 2.444232e-02 2.515250e-02
<GCONST> 3.449416e+01
<MIXTURE> 2 5.000000e-01
<MEAN> 39
 -6.481973e+00 9.066228e+00 2.519704e+00 -1.839437e+01 -5.281705e+00 -2.481093e+00 -1.470328e+01 3.107454e+00 -4.411171e-01 -1.144768e+00 -4.440625e+00 -4.954852e-01 -5.518346e+00 1.162979e-02 1.180895e-01 8.120444e-02 -5.724407e-02 4.613888e-02 -4.478898e-02 -8.648207e-02 2.725668e-02 -7.287431e-02 7.955682e-02 2.092804e-01 -1.240353e-01 -2.756118e-02 4.016166e-02 -1.875935e-02 5.523334e-02 7.104279e-02 -1.840072e-02 -1.695414e-03 5.904863e-02 -9.109160e-02 1.603482e-02 8.437617e-03 -8.042273e-02 5.779604e-02 6.219381e-02
<VARIANCE> 39
 6.074284e+00 5.733372e+00 6.004766e+00 7.568541e+00 5.299456e+01 5.811382e+00 2.019891e+01 3.060471e+01 2.246583e+01 2.660929e+01 6.340682e+00 1.296435e+01 1.239180e+01 7.588752e-02 8.578843e-02 2.440401e-01 1.866787e-01 2.570562e-01 1.715581e-01 3.589055e-01 2.260206e-01 1.546156e-01 4.745972e-01 2.068234e-01 3.688501e-01 1.268423e-01 4.821150e-03 1.603960e-02 1.390990e-02 1.963149e-02 2.294729e-02 2.752930e-02 3.567582e-02 4.629854e-02 2.404887e-02 4.121571e-02 3.828284e-02 2.444232e-02 2.515250e-02
<GCONST> 3.449416e+01
<STATE> 5
<NUMMIXES> 2
<MIXTURE> 1 5.000000e-01
<MEAN> 39
 -5.351938e+00 3.876331e+00 3.616008e+00 -1.686110e+01 -2.059849e+00 5.727791e+00 -4.827268e+00 5.477748e+00 6.949152e-01 -1.856471e+00 -5.468248e+00 -1.813154e+00 -8.521819e-01 2.677236e-02 -4.449099e-02 1.089443e-01 1.000600e-01 -9.063154e-02 1.085263e-01 1.165378e-01 -1.091754e-01 -8.936981e-02 1.310427e-01 -2.964588e-01 1.163478e-01 8.585019e-02 3.665985e-02 2.897849e-02 1.820483e-02 5.664573e-02 -4.105638e-02 -5.209365e-02 6.484656e-03 -7.132119e-02 -7.794900e-04 6.049674e-02 -3.181089e-02 -6.719379e-03 5.252674e-02
<VARIANCE> 39
 3.775727e+00 1.114341e+01 5.755851e+00 7.771513e+00 3.865897e+01 2.051318e+01 1.792755e+01 1.161999e+01 2.145333e+01 1.019180e+01 1.104934e+01 1.140295e+01 6.217765e+00 2.306460e-01 4.851811e-01 7.125982e-01 8.788595e-01 1.182709e+00 7.246141e-01 9.276870e-01 8.837203e-01 1.372274e+00 1.300478e+00 9.629180e-01 8.320146e-01 5.480337e-01 4.026227e-02 9.829190e-02 1.098637e-01 1.472411e-01 1.032240e-01 1.218940e-01 1.558608e-01 1.009115e-01 3.028374e-01 2.811519e-01 2.080675e-01 1.500281e-01 1.360937e-01
<GCONST> 7.391962e+01
<MIXTURE> 2 5.000000e-01
<MEAN> 39
 -5.351938e+00 3.876331e+00 3.616008e+00 -1.686110e+01 -2.059849e+00 5.727791e+00 -4.827268e+00 5.477748e+00 6.949152e-01 -1.856471e+00 -5.468248e+00 -1.813154e+00 -8.521819e-01 2.677236e-02 -4.449099e-02 1.089443e-01 1.000600e-01 -9.063154e-02 1.085263e-01 1.165378e-01 -1.091754e-01 -8.936981e-02 1.310427e-01 -2.964588e-01 1.163478e-01 8.585019e-02 3.665985e-02 2.897849e-02 1.820483e-02 5.664573e-02 -4.105638e-02 -5.209365e-02 6.484656e-03 -7.132119e-02 -7.794900e-04 6.049674e-02 -3.181089e-02 -6.719379e-03 5.252674e-02
<VARIANCE> 39
 3.775727e+00 1.114341e+01 5.755851e+00 7.771513e+00 3.865897e+01 2.051318e+01 1.792755e+01 1.161999e+01 2.145333e+01 1.019180e+01 1.104934e+01 1.140295e+01 6.217765e+00 2.306460e-01 4.851811e-01 7.125982e-01 8.788595e-01 1.182709e+00 7.246141e-01 9.276870e-01 8.837203e-01 1.372274e+00 1.300478e+00 9.629180e-01 8.320146e-01 5.480337e-01 4.026227e-02 9.829190e-02 1.098637e-01 1.472411e-01 1.032240e-01 1.218940e-01 1.558608e-01 1.009115e-01 3.028374e-01 2.811519e-01 2.080675e-01 1.500281e-01 1.360937e-01
<GCONST> 7.391962e+01
<STATE> 6
<NUMMIXES> 2
<MIXTURE> 1 5.000000e-01
<MEAN> 39
 -4.841979e+00 9.013514e+00 4.249827e+00 -1.632550e+01 -8.642975e+00 1.814427e+00 -8.907384e+00 6.430230e+00 4.260559e+00 2.123950e+00 -5.564426e+00 7.174072e-01 -5.920022e+00 4.804522e-01 2.239196e-01 5.319147e-01 1.053751e+00 -9.917895e-02 -1.774928e-01 1.249911e-01 -8.265188e-01 1.199394e-01 2.497476e-01 -2.880551e-01 4.838847e-02 5.265419e-01 -2.451946e-04 6.998105e-02 1.468864e-01 1.809155e-01 1.884357e-01 -1.026999e-01 -1.027243e-01 -4.104591e-02 -2.974851e-01 -7.478758e-02 1.510122e-01 -9.125910e-02 1.977994e-01
<VARIANCE> 39
 1.233478e+01 2.123339e+01 7.284863e+00 3.832109e+01 2.404027e+01 2.270056e+01 1.825370e+01 8.149789e+01 4.458566e+01 2.359748e+01 1.403243e+01 3.108294e+01 2.330492e+01 1.210768e+00 1.432065e+00 8.268194e-01 4.195913e+00 2.734482e+00 1.014574e+00 1.098031e+00 6.566201e+00 7.143707e+00 3.197157e+00 1.217795e+00 2.543209e+00 2.669246e+00 2.918766e-01 3.172100e-01 1.954941e-01 8.635741e-01 5.125758e-01 1.990149e-01 1.901582e-01 1.584475e+00 1.927270e+00 7.068629e-01 3.113944e-01 4.332332e-01 5.473406e-01
<GCONST> 1.127627e+02
<MIXTURE> 2 5.000000e-01
<MEAN> 39
 -4.841979e+00 9.013514e+00 4.249827e+00 -1.632550e+01 -8.642975e+00 1.814427e+00 -8.907384e+00 6.430230e+00 4.260559e+00 2.123950e+00 -5.564426e+00 7.174072e-01 -5.920022e+00 4.804522e-01 2.239196e-01 5.319147e-01 1.053751e+00 -9.917895e-02 -1.774928e-01 1.249911e-01 -8.265188e-01 1.199394e-01 2.497476e-01 -2.880551e-01 4.838847e-02 5.265419e-01 -2.451946e-04 6.998105e-02 1.468864e-01 1.809155e-01 1.884357e-01 -1.026999e-01 -1.027243e-01 -4.104591e-02 -2.974851e-01 -7.478758e-02 1.510122e-01 -9.125910e-02 1.977994e-01
<VARIANCE> 39
 1.233478e+01 2.123339e+01 7.284863e+00 3.832109e+01 2.404027e+01 2.270056e+01 1.825370e+01 8.149789e+01 4.458566e+01 2.359748e+01 1.403243e+01 3.108294e+01 2.330492e+01 1.210768e+00 1.432065e+00 8.268194e-01 4.195913e+00 2.734482e+00 1.014574e+00 1.098031e+00 6.566201e+00 7.143707e+00 3.197157e+00 1.217795e+00 2.543209e+00 2.669246e+00 2.918766e-01 3.172100e-01 1.954941e-01 8.635741e-01 5.125758e-01 1.990149e-01 1.901582e-01 1.584475e+00 1.927270e+00 7.068629e-01 3.113944e-01 4.332332e-01 5.473406e-01
<GCONST> 1.127627e+02
<TRANSP> 7
 0.000000e+00 1.000000e+00 0.000000e+00 0.000000e+00 0.000000e+00 0.000000e+00 0.000000e+00
 0.000000e+00 8.034037e-01 1.965963e-01 0.000000e+00 0.000000e+00 0.000000e+00 0.000000e+00
 0.000000e+00 0.000000e+00 8.724608e-01 1.275391e-01 0.000000e+00 0.000000e+00 0.000000e+00
 0.000000e+00 0.000000e+00 0.000000e+00 8.790901e-01 1.209099e-01 0.000000e+00 0.000000e+00
 0.000000e+00 0.000000e+00 0.000000e+00 0.000000e+00 8.631048e-01 1.368953e-01 0.000000e+00
 0.000000e+00 0.000000e+00 0.000000e+00 0.000000e+00 0.000000e+00 7.928414e-01 2.071586e-01
 0.000000e+00 0.000000e+00 0.000000e+00 0.000000e+00 0.000000e+00 0.000000e+00 0.000000e+00
<ENDHMM>
~h "ii"
<BEGINHMM>
<NUMSTATES> 7
<STATE> 2
<NUMMIXES> 2
<MIXTURE> 1 5.000000e-01
<MEAN> 39
