~o
<STREAMINFO> 1 39
<VECSIZE> 39<NULLD><MFCC_D_A><DIAGC>
~h "a"
<BEGINHMM>
<NUMSTATES> 7
<STATE> 2
<NUMMIXES> 2
<MIXTURE> 1 5.000000e-01
<MEAN> 39
 -2.036877e+00 -4.443353e+00 -8.305296e-01 -6.951883e-02 -3.926340e+00 -4.169463e+00 4.781175e+00 -1.214452e+00 -3.572046e+00 -1.021889e+00 -4.769802e+00 -5.023784e+00 3.079716e-01 1.831814e-01 -1.592059e-01 -8.067600e-01 -2.642956e-01 5.437220e-01 9.158941e-02 6.723601e-01 1.714676e-01 -2.622406e-01 -3.980856e-01 -6.637236e-02 -3.264965e-01 6.300481e-01 -2.470430e-02 4.056494e-03 -1.220377e-01 1.108559e-01 1.796331e-01 -9.524705e-02 -3.849900e-02 7.138477e-02 3.905849e-02 -1.393398e-01 -5.382279e-03 1.723080e-01 7.397725e-02
<VARIANCE> 39
 2.232050e+01 3.218146e+01 7.138680e+01 4.409712e+01 6.415781e+01 7.212877e+01 6.573856e+01 5.393795e+01 5.255294e+01 4.299469e+01 3.112999e+01 2.752118e+01 4.019901e+01 2.166397e+00 3.627369e+00 3.839553e+00 2.696579e+00 3.382239e+00 4.878466e+00 3.898999e+00 4.985442e+00 4.479421e+00 3.243821e+00 3.618132e+00 1.273285e+00 2.821570e+00 5.326760e-01 6.888292e-01 4.878519e-01 4.012005e-01 5.281438e-01 7.522911e-01 7.610534e-01 9.225838e-01 7.462344e-01 5.414939e-01 6.593455e-01 2.344762e-01 5.614222e-01
<GCONST> 1.292418e+02
<MIXTURE> 2 5.000000e-01
<MEAN> 39
 -2.036877e+00 -4.443353e+00 -8.305296e-01 -6.951883e-02 -3.926340e+00 -4.169463e+00 4.781175e+00 -1.214452e+00 -3.572046e+00 -1.021889e+00 -4.769802e+00 -5.023784e+00 3.079716e-01 1.831814e-01 -1.592059e-01 -8.067600e-01 -2.642956e-01 5.437220e-01 9.158941e-02 6.723601e-01 1.714676e-01 -2.622406e-01 -3.980856e-01 -6.637236e-02 -3.264965e-01 6.300481e-01 -2.470430e-02 4.056494e-03 -1.220377e-01 1.108559e-01 1.796331e-01 -9.524705e-02 -3.849900e-02 7.138477e-02 3.905849e-02 -1.393398e-01 -5.382279e-03 1.723080e-01 7.397725e-02
<VARIANCE> 39
 2.232050e+01 3.218146e+01 7.138680e+01 4.409712e+01 6.415781e+01 7.212877e+01 6.573856e+01 5.393795e+01 5.255294e+01 4.299469e+01 3.112999e+01 2.752118e+01 4.019901e+01 2.166397e+00 3.627369e+00 3.839553e+00 2.696579e+00 3.382239e+00 4.878466e+00 3.898999e+00 4.985442e+00 4.479421e+00 3.243821e+00 3.618132e+00 1.273285e+00 2.821570e+00 5.326760e-01 6.888292e-01 4.878519e-01 4.012005e-01 5.281438e-01 7.522911e-01 7.610534e-01 9.225838e-01 7.462344e-01 5.414939e-01 6.593455e-01 2.344762e-01 5.614222e-01
<GCONST> 1.292418e+02
<STATE> 3
<NUMMIXES> 2
<MIXTURE> 1 5.000000e-01
<MEAN> 39
 -1.045208e+00 -5.632637e+00 -1.444140e+01 4.655820e+00 5.705899e+00 -4.526613e+00 4.677793e+00 -3.508489e-01 -3.576036e+00 -1.099195e+01 -5.946527e+00 2.124779e+00 3.177475e+00 -6.583894e-02 -1.725174e-01 -1.546212e-01 3.930768e-02 1.721219e-02 -1.446642e-01 3.648370e-01 3.963930e-01 -2.255377e-01 -2.546190e-01 1.763251e-01 6.701203e-02 -2.323731e-01 -2.376456e-02 1.170364e-01 1.584384e-01 -1.232965e-01 -1.251839e-01 7.248690e-02 -6.871098e-02 -1.326150e-01 -1.578940e-01 1.973548e-01 1.625134e-01 -1.269455e-01 -5.795430e-02
<VARIANCE> 39
 6.114232e+00 9.115108e+00 8.113325e+01 5.869304e+01 4.993458e+01 3.979416e+01 5.390224e+01 2.052780e+01 4.023594e+01 6.426760e+01 2.359543e+01 3.722616e+01 2.523552e+01 4.441452e-01 1.089671e+00 1.238107e+00 1.604713e+00 1.444288e+00 2.213450e+00 2.725994e+00 1.063983e+00 2.783828e+00 2.279411e+00 2.314782e+00 2.216732e+00 2.750276e+00 8.049140e-02 1.635083e-01 2.133966e-01 3.140608e-01 2.935072e-01 4.057563e-01 4.338166e-01 2.550814e-01 4.268140e-01 3.793495e-01 5.052402e-01 4.344090e-01 6.268545e-01
<GCONST> 1.081496e+02
<MIXTURE> 2 5.000000e-01
<MEAN> 39
 -1.045208e+00 -5.632637e+00 -1.444140e+01 4.655820e+00 5.705899e+00 -4.526613e+00 4.677793e+00 -3.508489e-01 -3.576036e+00 -1.099195e+01 -5.946527e+00 2.124779e+00 3.177475e+00 -6.583894e-02 -1.725174e-01 -1.546212e-01 3.930768e-02 1.721219e-02 -1.446642e-01 3.648370e-01 3.963930e-01 -2.255377e-01 -2.546190e-01 1.763251e-01 6.701203e-02 -2.323731e-01 -2.376456e-02 1.170364e-01 1.584384e-01 -1.232965e-01 -1.251839e-01 7.248690e-02 -6.871098e-02 -1.326150e-01 -1.578940e-01 1.973548e-01 1.625134e-01 -1.269455e-01 -5.795430e-02
<VARIANCE> 39
 6.114232e+00 9.115108e+00 8.113325e+01 5.869304e+01 4.993458e+01 3.979416e+01 5.390224e+01 2.052780e+01 4.023594e+01 6.426760e+01 2.359543e+01 3.722616e+01 2.523552e+01 4.441452e-01 1.089671e+00 1.238107e+00 1.604713e+00 1.444288e+00 2.213450e+00 2.725994e+00 1.063983e+00 2.783828e+00 2.279411e+00 2.314782e+00 2.216732e+00 2.750276e+00 8.049140e-02 1.635083e-01 2.133966e-01 3.140608e-01 2.935072e-01 4.057563e-01 4.338166e-01 2.550814e-01 4.268140e-01 3.793495e-01 5.052402e-01 4.344090e-01 6.268545e-01
<GCONST> 1.081496e+02
<STATE> 4
<NUMMIXES> 2
<MIXTURE> 1 5.000000e-01
<MEAN> 39
 -1.870944e+00 -7.212523e+00 -3.631034e+00 -5.285256e+00 -1.039266e+00 -5.696554e+00 1.045304e+01 -1.075079e+00 -9.019396e+00 -4.967558e+00 -3.659404e+00 -5.318652e+00 1.222243e+00 -1.120956e-02 -2.566397e-02 8.329785e-01 -4.847055e-01 -8.329406e-01 3.085138e-01 -4.113676e-02 -2.467705e-01 -3.178976e-01 6.618680e-01 -1.782325e-02 -1.919210e-01 -3.625150e-01 5.440867e-02 1.013734e-01 1.120304e-01 2.105238e-02 -3.284987e-02 -2.213653e-02 -1.767202e-01 -7.660546e-02 2.417220e-01 1.000763e-01 -1.590134e-01 1.562161e-01 -6.006055e-02
<VARIANCE> 39
 5.024152e+00 1.531380e+01 3.835566e+01 4.635236e+01 4.783998e+01 4.043470e+01 2.034328e+01 2.902106e+01 2.580076e+01 6.363624e+01 2.843485e+01 2.490274e+01 1.289874e+01 2.763594e-01 3.654044e-01 9.890380e-01 9.604991e-01 1.567092e+00 1.135086e+00 1.370024e+00 1.338252e+00 1.736294e+00 1.826031e+00 1.549889e+00 1.244344e+00 9.984915e-01 3.423231e-02 6.081130e-02 1.122480e-01 1.889770e-01 2.312349e-01 1.889341e-01 2.357388e-01 2.349173e-01 1.912649e-01 2.381018e-01 2.187125e-01 2.013911e-01 1.217803e-01
<GCONST> 9.025301e+01
<MIXTURE> 2 5.000000e-01
<MEAN> 39
 -1.870944e+00 -7.212523e+00 -3.631034e+00 -5.285256e+00 -1.039266e+00 -5.696554e+00 1.045304e+01 -1.075079e+00 -9.019396e+00 -4.967558e+00 -3.659404e+00 -5.318652e+00 1.222243e+00 -1.120956e-02 -2.566397e-02 8.329785e-01 -4.847055e-01 -8.329406e-01 3.085138e-01 -4.113676e-02 -2.467705e-01 -3.178976e-01 6.618680e-01 -1.782325e-02 -1.919210e-01 -3.625150e-01 5.440867e-02 1.013734e-01 1.120304e-01 2.105238e-02 -3.284987e-02 -2.213653e-02 -1.767202e-01 -7.660546e-02 2.417220e-01 1.000763e-01 -1.590134e-01 1.562161e-01 -6.006055e-02
<VARIANCE> 39
 5.024152e+00 1.531380e+01 3.835566e+01 4.635236e+01 4.783998e+01 4.043470e+01 2.034328e+01 2.902106e+01 2.580076e+01 6.363624e+01 2.843485e+01 2.490274e+01 1.289874e+01 2.763594e-01 3.654044e-01 9.890380e-01 9.604991e-01 1.567092e+00 1.135086e+00 1.370024e+00 1.338252e+00 1.736294e+00 1.826031e+00 1.549889e+00 1.244344e+00 9.984915e-01 3.423231e-02 6.081130e-02 1.122480e-01 1.889770e-01 2.312349e-01 1.889341e-01 2.357388e-01 2.349173e-01 1.912649e-01 2.381018e-01 2.187125e-01 2.013911e-01 1.217803e-01
<GCONST> 9.025301e+01
<STATE> 5
<NUMMIXES> 2
<MIXTURE> 1 5.000000e-01
<MEAN> 39
 4.612295e-01 -2.837906e+00 1.569431e+00 -5.037218e+00 -4.042127e+00 -5.069098e+00 6.942141e+00 -2.571226e+00 -8.452929e+00 1.108095e+00 -5.205158e+00 -4.068241e+00 -1.649899e+00 -1.125440e-01 1.255422e+00 7.934898e-01 -6.934458e-02 1.685638e-01 -1.128111e+00 -9.390141e-01 -3.913689e-01 5.037625e-01 1.273213e+00 1.746072e-01 4.654893e-01 -5.108713e-01 -1.965723e-01 1.584326e-02 7.835880e-02 8.869752e-02 1.556507e-01 -1.097574e-01 -2.105717e-01 4.149687e-03 1.252737e-01 -2.480059e-01 6.771757e-02 -8.939468e-03 1.109206e-01
<VARIANCE> 39
 1.264730e+01 2.565814e+01 4.773948e+01 3.317728e+01 4.563986e+01 7.779743e+01 2.116546e+01 2.485077e+01 4.526755e+01 5.890764e+01 3.671230e+01 3.554404e+01 2.094317e+01 2.250378e+00 1.785713e+00 1.795463e+00 2.215333e+00 2.440325e+00 5.697579e+00 1.414768e+00 1.954378e+00 1.866128e+00 2.805440e+00 2.961686e+00 1.657763e+00 1.450399e+00 1.632591e-01 2.992591e-01 2.912303e-01 3.079529e-01 2.552756e-01 7.460534e-01 2.595400e-01 3.677844e-01 2.228753e-01 5.988178e-01 5.673997e-01 2.892817e-01 2.685632e-01
<GCONST> 1.128374e+02
<MIXTURE> 2 5.000000e-01
<MEAN> 39
 4.612295e-01 -2.837906e+00 1.569431e+00 -5.037218e+00 -4.042127e+00 -5.069098e+00 6.942141e+00 -2.571226e+00 -8.452929e+00 1.108095e+00 -5.205158e+00 -4.068241e+00 -1.649899e+00 -1.125440e-01 1.255422e+00 7.934898e-01 -6.934458e-02 1.685638e-01 -1.128111e+00 -9.390141e-01 -3.913689e-01 5.037625e-01 1.273213e+00 1.746072e-01 4.654893e-01 -5.108713e-01 -1.965723e-01 1.584326e-02 7.835880e-02 8.869752e-02 1.556507e-01 -1.097574e-01 -2.105717e-01 4.149687e-03 1.252737e-01 -2.480059e-01 6.771757e-02 -8.939468e-03 1.109206e-01
<VARIANCE> 39
 1.264730e+01 2.565814e+01 4.773948e+01 3.317728e+01 4.563986e+01 7.779743e+01 2.116546e+01 2.485077e+01 4.526755e+01 5.890764e+01 3.671230e+01 3.554404e+01 2.094317e+01 2.250378e+00 1.785713e+00 1.795463e+00 2.215333e+00 2.440325e+00 5.697579e+00 1.414768e+00 1.954378e+00 1.866128e+00 2.805440e+00 2.961686e+00 1.657763e+00 1.450399e+00 1.632591e-01 2.992591e-01 2.912303e-01 3.079529e-01 2.552756e-01 7.460534e-01 2.595400e-01 3.677844e-01 2.228753e-01 5.988178e-01 5.673997e-01 2.892817e-01 2.685632e-01
<GCONST> 1.128374e+02
<STATE> 6
<NUMMIXES> 2
<MIXTURE> 1 5.000000e-01
<MEAN> 39
 -6.391964e+00 -1.326852e+00 -5.721715e+00 -4.404407e+00 -6.102443e-01 -1.993010e+00 2.060648e+00 -2.006588e+00 8.953995e-01 -7.131373e-01 -4.415024e+00 -5.651883e+00 -7.170255e-02 -1.044624e-01 9.238442e-02 2.928939e-01 -3.376878e-02 -1.003761e-01 -1.212885e-01 -3.269393e-01 -8.621656e-02 1.216275e-01 2.512233e-02 4.478928e-02 3.500523e-01 -7.070912e-02 5.489760e-02 2.683833e-02 3.732695e-02 6.964563e-02 2.935580e-02 8.765412e-02 5.743149e-02 -3.760824e-02 -1.130366e-01 -5.844891e-02 -5.786624e-03 -2.672783e-03 8.668305e-03
<VARIANCE> 39
 1.195839e+02 2.518031e+01 1.962025e+02 2.996141e+01 6.367662e+01 3.160092e+01 4.919159e+01 2.963121e+01 4.776219e+01 4.288843e+01 2.316211e+01 2.498738e+01 2.051621e+01 2.088893e+00 1.244287e+00 2.649867e+00 1.949387e+00 1.950744e+00 2.516628e+00 2.525343e+00 4.403791e+00 3.879628e+00 4.843899e+00 2.152811e+00 2.106845e+00 1.624916e+00 3.771437e-01 2.070009e-01 4.080611e-01 2.692854e-01 4.057548e-01 3.930623e-01 5.639991e-01 9.391269e-01 8.070641e-01 1.156243e+00 4.663747e-01 4.064619e-01 3.966330e-01
<GCONST> 1.219062e+02
<MIXTURE> 2 5.000000e-01
<MEAN> 39
 -6.391964e+00 -1.326852e+00 -5.721715e+00 -4.404407e+00 -6.102443e-01 -1.993010e+00 2.060648e+00 -2.006588e+00 8.953995e-01 -7.131373e-01 -4.415024e+00 -5.651883e+00 -7.170255e-02 -1.044624e-01 9.238442e-02 2.928939e-01 -3.376878e-02 -1.003761e-01 -1.212885e-01 -3.269393e-01 -8.621656e-02 1.216275e-01 2.512233e-02 4.478928e-02 3.500523e-01 -7.070912e-02 5.489760e-02 2.683833e-02 3.732695e-02 6.964563e-02 2.935580e-02 8.765412e-02 5.743149e-02 -3.760824e-02 -1.130366e-01 -5.844891e-02 -5.786624e-03 -2.672783e-03 8.668305e-03
<VARIANCE> 39
 1.195839e+02 2.518031e+01 1.962025e+02 2.996141e+01 6.367662e+01 3.160092e+01 4.919159e+01 2.963121e+01 4.776219e+01 4.288843e+01 2.316211e+01 2.498738e+01 2.051621e+01 2.088893e+00 1.244287e+00 2.649867e+00 1.949387e+00 1.950744e+00 2.516628e+00 2.525343e+00 4.403791e+00 3.879628e+00 4.843899e+00 2.152811e+00 2.106845e+00 1.624916e+00 3.771437e-01 2.070009e-01 4.080611e-01 2.692854e-01 4.057548e-01 3.930623e-01 5.639991e-01 9.391269e-01 8.070641e-01 1.156243e+00 4.663747e-01 4.064619e-01 3.966330e-01
<GCONST> 1.219062e+02
<TRANSP> 7
 0.000000e+00 1.000000e+00 0.000000e+00 0.000000e+00 0.000000e+00 0.000000e+00 0.000000e+00
 0.000000e+00 6.868370e-01 3.131630e-01 0.000000e+00 0.000000e+00 0.000000e+00 0.000000e+00
 0.000000e+00 0.000000e+00 7.415519e-01 2.584482e-01 0.000000e+00 0.000000e+00 0.000000e+00
 0.000000e+00 0.000000e+00 0.000000e+00 7.971076e-01 2.028924e-01 0.000000e+00 0.000000e+00
 0.000000e+00 0.000000e+00 0.000000e+00 0.000000e+00 4.873368e-01 5.126632e-01 0.000000e+00
 0.000000e+00 0.000000e+00 0.000000e+00 0.000000e+00 0.000000e+00 7.724850e-01 2.275151e-01
 0.000000e+00 0.000000e+00 0.000000e+00 0.000000e+00 0.000000e+00 0.000000e+00 0.000000e+00
<ENDHMM>
~h "i"
<BEGINHMM>
<NUMSTATES> 7
<STATE> 2
<NUMMIXES> 2
<MIXTURE> 1 5.000000e-01
<MEAN> 39
 -6.509173e+00 9.158648e+00 3.080094e+00 -7.252865e+00 -1.701807e+00 -4.250068e+00 -7.012094e+00 -3.787887e+00 -3.590555e+00 -7.057660e-01 -1.197664e+01 3.274455e+00 -1.805599e+00 1.247311e+00 1.266400e+00 1.017188e+00 -9.231118e-01 -1.637891e+00 4.192385e-03 -1.533396e+00 -3.081094e-01 -7.555487e-01 -7.396352e-01 -1.643936e-01 2.574396e-01 -9.684511e-01 -2.562985e-01 -5.279999e-01 -8.709478e-03 -4.617400e-01 -6.653467e-01 -2.099597e-01 -3.293429e-02 4.659019e-02 7.738578e-01 5.251396e-01 1.068036e+00 -3.227029e-01 1.334731e-02
<VARIANCE> 39
 3.590739e+01 1.481495e+01 1.570700e+01 9.557485e+00 2.520878e+01 2.159505e+01 8.320912e+00 3.279627e+01 3.084156e+01 1.916869e+01 1.829239e+01 1.556709e+01 3.891119e+01 4.489116e+00 3.693054e+00 2.762915e+00 1.240961e+00 2.970480e+00 4.368505e+00 2.155244e+00 8.348448e-01 3.169530e+00 1.733570e+00 4.952130e+00 4.687406e+00 4.264587e-01 3.016382e-01 1.886865e-01 4.003109e-01 1.439411e-01 9.081115e-01 2.583818e-01 2.612256e-01 4.023613e-01 6.011248e-01 2.873621e-01 1.034738e+00 3.277088e-01 3.603129e-01
<GCONST> 1.084753e+02
<MIXTURE> 2 5.000000e-01
<MEAN> 39
 -6.509173e+00 9.158648e+00 3.080094e+00 -7.252865e+00 -1.701807e+00 -4.250068e+00 -7.012094e+00 -3.787887e+00 -3.590555e+00 -7.057660e-01 -1.197664e+01 3.274455e+00 -1.805599e+00 1.247311e+00 1.266400e+00 1.017188e+00 -9.231118e-01 -1.637891e+00 4.192385e-03 -1.533396e+00 -3.081094e-01 -7.555487e-01 -7.396352e-01 -1.643936e-01 2.574396e-01 -9.684511e-01 -2.562985e-01 -5.279999e-01 -8.709478e-03 -4.617400e-01 -6.653467e-01 -2.099597e-01 -3.293429e-02 4.659019e-02 7.738578e-01 5.251396e-01 1.068036e+00 -3.227029e-01 1.334731e-02
<VARIANCE> 39
 3.590739e+01 1.481495e+01 1.570700e+01 9.557485e+00 2.520878e+01 2.159505e+01 8.320912e+00 3.279627e+01 3.084156e+01 1.916869e+01 1.829239e+01 1.556709e+01 3.891119e+01 4.489116e+00 3.693054e+00 2.762915e+00 1.240961e+00 2.970480e+00 4.368505e+00 2.155244e+00 8.348448e-01 3.169530e+00 1.733570e+00 4.952130e+00 4.687406e+00 4.264587e-01 3.016382e-01 1.886865e-01 4.003109e-01 1.439411e-01 9.081115e-01 2.583818e-01 2.612256e-01 4.023613e-01 6.011248e-01 2.873621e-01 1.034738e+00 3.277088e-01 3.603129e-01
<GCONST> 1.084753e+02
<STATE> 3
<NUMMIXES> 2
<MIXTURE> 1 5.000000e-01
<MEAN> 39
 -4.866370e+00 8.189606e+00 5.730549e+00 -1.309536e+01 -7.104332e+00 -3.746532e+00 -1.048480e+01 -3.867987e+00 6.423159e-01 5.004896e-01 -7.192319e+00 1.848245e+00 -2.565791e+00 -2.718484e-01 -3.715170e-01 5.728710e-02 -1.558194e+00 -1.036131e+00 5.260736e-01 -4.370795e-01 2.807322e-01 1.888924e+00 2.662135e-01 8.231345e-01 1.553634e-01 -2.880098e-01 -1.582556e-01 -1.318093e-01 -1.901943e-01 1.526141e-01 5.369120e-01 -1.191810e-01 3.922783e-01 2.321292e-01 9.424602e-03 1.135013e-01 -4.017144e-01 5.666063e-02 8.031872e-02
<VARIANCE> 39
 8.773364e+00 1.594666e+01 1.045863e+01 1.424140e+01 3.123537e+01 1.213420e+01 9.929917e+00 8.657159e+00 1.747848e+01 9.577488e+00 1.646122e+01 1.050453e+01 2.199700e+01 3.978064e-01 5.805611e-01 2.256628e-01 6.014419e-01 2.723299e+00 8.807109e-01 7.658482e-01 9.329095e-01 7.983240e-01 1.442771e+00 3.170653e+00 1.603103e+00 1.570687e+00 4.159710e-01 2.336826e-01 3.142663e-01 1.051061e-01 8.637667e-02 3.133858e-01 1.250510e-01 1.701500e-01 3.500473e-01 2.943126e-01 2.962996e-01 4.053694e-01 1.219940e-01
<GCONST> 8.497540e+01
<MIXTURE> 2 5.000000e-01
<MEAN> 39
 -4.866370e+00 8.189606e+00 5.730549e+00 -1.309536e+01 -7.104332e+00 -3.746532e+00 -1.048480e+01 -3.867987e+00 6.423159e-01 5.004896e-01 -7.192319e+00 1.848245e+00 -2.565791e+00 -2.718484e-01 -3.715170e-01 5.728710e-02 -1.558194e+00 -1.036131e+00 5.260736e-01 -4.370795e-01 2.807322e-01 1.888924e+00 2.662135e-01 8.231345e-01 1.553634e-01 -2.880098e-01 -1.582556e-01 -1.318093e-01 -1.901943e-01 1.526141e-01 5.369120e-01 -1.191810e-01 3.922783e-01 2.321292e-01 9.424602e-03 1.135013e-01 -4.017144e-01 5.666063e-02 8.031872e-02
<VARIANCE> 39
 8.773364e+00 1.594666e+01 1.045863e+01 1.424140e+01 3.123537e+01 1.213420e+01 9.929917e+00 8.657159e+00 1.747848e+01 9.577488e+00 1.646122e+01 1.050453e+01 2.199700e+01 3.978064e-01 5.805611e-01 2.256628e-01 6.014419e-01 2.723299e+00 8.807109e-01 7.658482e-01 9.329095e-01 7.983240e-01 1.442771e+00 3.170653e+00 1.603103e+00 1.570687e+00 4.159710e-01 2.336826e-01 3.142663e-01 1.051061e-01 8.637667e-02 3.133858e-01 1.250510e-01 1.701500e-01 3.500473e-01 2.943126e-01 2.962996e-01 4.053694e-01 1.219940e-01
<GCONST> 8.497540e+01
<STATE> 4
<NUMMIXES> 2
<MIXTURE> 1 5.000000e-01
<MEAN> 39
 2.725337e+00 7.994454e+00 5.669538e+00 -1.107878e+01 1.861948e+00 -1.102494e+01 -7.350690e+00 -8.057807e+00 -1.588429e+00 5.784805e+00 -1.050784e+01 7.698136e+00 -1.874760e+00 -4.753735e-01 -3.528524e-01 1.420088e-01 -6.090355e-01 -3.617603e-01 9.475026e-01 2.345967e-01 6.504405e-01 4.524268e-02 -3.216132e-01 -3.685312e-01 -1.944485e-01 -1.191139e-01 -4.303940e-02 1.883069e-02 -1.865686e-02 6.332889e-02 4.059435e-02 7.882688e-02 7.141079e-02 3.997891e-02 -9.927963e-02 -6.337276e-02 -3.454329e-02 -1.783681e-01 8.190685e-02
<VARIANCE> 39
 2.920733e+01 7.087066e+00 2.416335e+00 1.091136e+01 5.688083e+01 8.568030e+01 4.810882e+00 1.518825e+01 8.327154e+00 1.390726e+01 1.249646e+01 2.284342e+01 6.549041e+00 1.065388e+00 4.306337e-01 3.640345e-01 4.650307e-01 2.561471e+00 4.989191e+00 2.250541e-01 1.130729e+00 3.976146e-01 1.155811e+00 5.505879e-01 1.670561e+00 7.622302e-01 1.180837e-01 8.182149e-02 5.757300e-02 9.465079e-02 4.641891e-01 6.766909e-01 4.500429e-02 2.004399e-01 1.188723e-01 1.120315e-01 1.342515e-01 2.092846e-01 5.338071e-02
<GCONST> 7.630254e+01
<MIXTURE> 2 5.000000e-01
<MEAN> 39
 2.725337e+00 7.994454e+00 5.669538e+00 -1.107878e+01 1.861948e+00 -1.102494e+01 -7.350690e+00 -8.057807e+00 -1.588429e+00 5.784805e+00 -1.050784e+01 7.698136e+00 -1.874760e+00 -4.753735e-01 -3.528524e-01 1.420088e-01 -6.090355e-01 -3.617603e-01 9.475026e-01 2.345967e-01 6.504405e-01 4.524268e-02 -3.216132e-01 -3.685312e-01 -1.944485e-01 -1.191139e-01 -4.303940e-02 1.883069e-02 -1.865686e-02 6.332889e-02 4.059435e-02 7.882688e-02 7.141079e-02 3.997891e-02 -9.927963e-02 -6.337276e-02 -3.454329e-02 -1.783681e-01 8.190685e-02
<VARIANCE> 39
 2.920733e+01 7.087066e+00 2.416335e+00 1.091136e+01 5.688083e+01 8.568030e+01 4.810882e+00 1.518825e+01 8.327154e+00 1.390726e+01 1.249646e+01 2.284342e+01 6.549041e+00 1.065388e+00 4.306337e-01 3.640345e-01 4.650307e-01 2.561471e+00 4.989191e+00 2.250541e-01 1.130729e+00 3.976146e-01 1.155811e+00 5.505879e-01 1.670561e+00 7.622302e-01 1.180837e-01 8.182149e-02 5.757300e-02 9.465079e-02 4.641891e-01 6.766909e-01 4.500429e-02 2.004399e-01 1.188723e-01 1.120315e-01 1.342515e-01 2.092846e-01 5.338071e-02
<GCONST> 7.630254e+01
<STATE> 5
<NUMMIXES> 2
<MIXTURE> 1 5.000000e-01
<MEAN> 39
 -5.084111e+00 3.560489e+00 9.746806e+00 -2.039684e+01 -1.180631e+00 -1.201990e+00 -6.020331e+00 -3.480148e+00 1.829279e+00 -3.394364e+00 -1.025397e+01 6.852634e-01 -1.315430e+00 -5.682261e-02 7.625016e-03 3.483993e-01 -2.865481e-01 9.169552e-02 -3.194841e-01 4.187274e-02 7.372446e-02 2.981147e-01 -2.284271e-01 4.103554e-01 -4.641967e-01 6.555837e-02 4.655730e-02 5.390640e-02 1.643708e-02 1.399059e-01 -1.463328e-02 -1.249600e-01 -4.055209e-02 -1.366750e-01 -1.249296e-01 -4.963860e-02 1.275071e-01 -6.287861e-03 1.305677e-01
<VARIANCE> 39
 1.181422e+00 6.530237e+00 1.811795e+01 2.698484e+01 4.381442e+01 1.730787e+01 1.456899e+01 8.648897e+00 9.230108e+00 2.027312e+01 1.463228e+01 5.460653e+00 3.512201e+00 1.316885e-01 1.790043e-01 2.152479e-01 1.218280e-01 1.524594e-01 4.870314e-01 1.372224e+00 1.425862e+00 2.304637e-01 8.050063e-01 5.876302e-01 2.825777e-01 4.833501e-01 1.358311e-02 1.931487e-02 1.673192e-02 2.595570e-02 6.194509e-02 8.513295e-02 4.982336e-02 1.353083e-01 3.749848e-02 1.076616e-01 7.679284e-02 3.964790e-02 8.368788e-02
<GCONST> 4.870454e+01
<MIXTURE> 2 5.000000e-01
<MEAN> 39
 -5.084111e+00 3.560489e+00 9.746806e+00 -2.039684e+01 -1.180631e+00 -1.201990e+00 -6.020331e+00 -3.480148e+00 1.829279e+00 -3.394364e+00 -1.025397e+01 6.852634e-01 -1.315430e+00 -5.682261e-02 7.625016e-03 3.483993e-01 -2.865481e-01 9.169552e-02 -3.194841e-01 4.187274e-02 7.372446e-02 2.981147e-01 -2.284271e-01 4.103554e-01 -4.641967e-01 6.555837e-02 4.655730e-02 5.390640e-02 1.643708e-02 1.399059e-01 -1.463328e-02 -1.249600e-01 -4.055209e-02 -1.366750e-01 -1.249296e-01 -4.963860e-02 1.275071e-01 -6.287861e-03 1.305677e-01
<VARIANCE> 39
 1.181422e+00 6.530237e+00 1.811795e+01 2.698484e+01 4.381442e+01 1.730787e+01 1.456899e+01 8.648897e+00 9.230108e+00 2.027312e+01 1.463228e+01 5.460653e+00 3.512201e+00 1.316885e-01 1.790043e-01 2.152479e-01 1.218280e-01 1.524594e-01 4.870314e-01 1.372224e+00 1.425862e+00 2.304637e-01 8.050063e-01 5.876302e-01 2.825777e-01 4.833501e-01 1.358311e-02 1.931487e-02 1.673192e-02 2.595570e-02 6.194509e-02 8.513295e-02 4.982336e-02 1.353083e-01 3.749848e-02 1.076616e-01 7.679284e-02 3.964790e-02 8.368788e-02
<GCONST> 4.870454e+01
<STATE> 6
<NUMMIXES> 2
<MIXTURE> 1 5.000000e-01
<MEAN> 39
 -7.318995e+00 1.072841e+01 5.439675e+00 -1.459765e+01 -1.075289e+01 -2.249164e+00 -1.431483e+01 1.286042e+00 -6.814658e-01 1.616745e+00 -5.136149e+00 -9.979149e-01 -2.229380e-01 2.175540e-01 1.176960e-01 2.418479e-01 9.911354e-02 1.415009e-01 -1.833045e-02 -2.283155e-01 -1.122890e-01 -4.768150e-01 2.509393e-01 1.179758e-01 -8.276392e-02 4.481794e-01 1.095472e-01 -2.036849e-02 9.354472e-02 8.512734e-02 8.071071e-02 5.419396e-02 2.000991e-02 -7.689068e-02 8.512475e-03 8.683757e-02 2.968825e-02 -4.171905e-02 -7.020507e-02
<VARIANCE> 39
 2.833791e+00 1.729481e+01 6.478016e+00 6.562818e+00 1.760408e+01 9.716599e+00 2.852771e+01 8.036820e+00 1.625801e+01 7.942967e+00 1.812005e+01 2.370640e+00 7.086910e+00 2.334937e-01 5.024357e-02 1.965076e-01 2.732919e-01 1.786086e-01 3.044629e-01 3.926014e-01 4.142152e-01 5.674840e-01 6.381235e-01 4.117333e-01 2.332328e-01 2.996525e-01 1.231096e-02 9.276586e-03 2.042159e-02 2.880466e-02 5.323386e-02 5.937763e-02 4.168318e-02 2.985122e-02 9.052003e-02 6.936575e-02 3.655736e-02 4.395047e-02 4.111502e-02
<GCONST> 4.015592e+01
<MIXTURE> 2 5.000000e-01
<MEAN> 39
 -7.318995e+00 1.072841e+01 5.439675e+00 -1.459765e+01 -1.075289e+01 -2.249164e+00 -1.431483e+01 1.286042e+00 -6.814658e-01 1.616745e+00 -5.136149e+00 -9.979149e-01 -2.229380e-01 2.175540e-01 1.176960e-01 2.418479e-01 9.911354e-02 1.415009e-01 -1.833045e-02 -2.283155e-01 -1.122890e-01 -4.768150e-01 2.509393e-01 1.179758e-01 -8.276392e-02 4.481794e-01 1.095472e-01 -2.036849e-02 9.354472e-02 8.512734e-02 8.071071e-02 5.419396e-02 2.000991e-02 -7.689068e-02 8.512475e-03 8.683757e-02 2.968825e-02 -4.171905e-02 -7.020507e-02
<VARIANCE> 39
 2.833791e+00 1.729481e+01 6.478016e+00 6.562818e+00 1.760408e+01 9.716599e+00 2.852771e+01 8.036820e+00 1.625801e+01 7.942967e+00 1.812005e+01 2.370640e+00 7.086910e+00 2.334937e-01 5.024357e-02 1.965076e-01 2.732919e-01 1.786086e-01 3.044629e-01 3.926014e-01 4.142152e-01 5.674840e-01 6.381235e-01 4.117333e-01 2.332328e-01 2.996525e-01 1.231096e-02 9.276586e-03 2.042159e-02 2.880466e-02 5.323386e-02 5.937763e-02 4.168318e-02 2.985122e-02 9.052003e-02 6.936575e-02 3.655736e-02 4.395047e-02 4.111502e-02
<GCONST> 4.015592e+01
<TRANSP> 7
 0.000000e+00 1.000000e+00 0.000000e+00 0.000000e+00 0.000000e+00 0.000000e+00 0.000000e+00
 0.000000e+00 4.997631e-01 5.002369e-01 0.000000e+00 0.000000e+00 0.000000e+00 0.000000e+00
 0.000000e+00 0.000000e+00 5.003913e-01 4.996087e-01 0.000000e+00 0.000000e+00 0.000000e+00
 0.000000e+00 0.000000e+00 0.000000e+00 7.620147e-01 2.379852e-01 0.000000e+00 0.000000e+00
 0.000000e+00 0.000000e+00 0.000000e+00 0.000000e+00 8.211053e-01 1.788947e-01 0.000000e+00
 0.000000e+00 0.000000e+00 0.000000e+00 0.000000e+00 0.000000e+00 8.649835e-01 1.350165e-01
 0.000000e+00 0.000000e+00 0.000000e+00 0.000000e+00 0.000000e+00 0.000000e+00 0.000000e+00
<ENDHMM>
~h "o"
<BEGINHMM>
<NUMSTATES> 7
<STATE> 2
<NUMMIXES> 2
<MIXTURE> 1 5.000000e-01
<MEAN> 39
 3.703269e+00 3.013197e+00 -1.942672e+01 -1.162367e+00 2.210348e+00 -7.630459e+00 -1.407022e+00 -4.259372e+00 7.261939e+00 9.717024e-01 -5.007893e+00 -7.221735e+00 -1.463703e+00 1.843900e-01 -3.005437e-02 -9.030133e-03 -6.214812e-02 -1.854920e-01 2.784596e-01 -3.573851e-01 4.930080e-02 -2.700491e-01 1.616247e-01 1.526321e-01 2.743340e-01 -1.460580e-01 -1.658761e-03 2.005282e-04 5.486444e-02 5.756252e-02 -5.661928e-02 -8.304643e-03 -9.710221e-04 3.146680e-02 -4.017884e-02 -3.958846e-02 1.542491e-02 4.559305e-02 9.561513e-04
<VARIANCE> 39
 8.285820e+00 1.949326e+01 1.102573e+02 1.340708e+01 1.553839e+01 3.989163e+01 1.452464e+01 5.021719e+01 1.480755e+01 3.229372e+01 1.894477e+01 2.016874e+01 2.443031e+01 1.235170e-01 1.389878e-01 5.799025e-01 4.878383e-01 5.361837e-01 5.748269e-01 6.449189e-01 1.283680e+00 1.058858e+00 1.473689e+00 9.840637e-01 1.575770e+00 4.223194e-01 1.063492e-02 2.136918e-02 5.912687e-02 9.546798e-02 6.173643e-02 1.168498e-01 9.300302e-02 1.166906e-01 1.239573e-01 2.431810e-01 2.089311e-01 1.588225e-01 6.253644e-02
<GCONST> 7.302096e+01
<MIXTURE> 2 5.000000e-01
<MEAN> 39
 3.703269e+00 3.013197e+00 -1.942672e+01 -1.162367e+00 2.210348e+00 -7.630459e+00 -1.407022e+00 -4.259372e+00 7.261939e+00 9.717024e-01 -5.007893e+00 -7.221735e+00 -1.463703e+00 1.843900e-01 -3.005437e-02 -9.030133e-03 -6.214812e-02 -1.854920e-01 2.784596e-01 -3.573851e-01 4.930080e-02 -2.700491e-01 1.616247e-01 1.526321e-01 2.743340e-01 -1.460580e-01 -1.658761e-03 2.005282e-04 5.486444e-02 5.756252e-02 -5.661928e-02 -8.304643e-03 -9.710221e-04 3.146680e-02 -4.017884e-02 -3.958846e-02 1.542491e-02 4.559305e-02 9.561513e-04
<VARIANCE> 39
 8.285820e+00 1.949326e+01 1.102573e+02 1.340708e+01 1.553839e+01 3.989163e+01 1.452464e+01 5.021719e+01 1.480755e+01 3.229372e+01 1.894477e+01 2.016874e+01 2.443031e+01 1.235170e-01 1.389878e-01 5.799025e-01 4.878383e-01 5.361837e-01 5.748269e-01 6.449189e-01 1.283680e+00 1.058858e+00 1.473689e+00 9.840637e-01 1.575770e+00 4.223194e-01 1.063492e-02 2.136918e-02 5.912687e-02 9.546798e-02 6.173643e-02 1.168498e-01 9.300302e-02 1.166906e-01 1.239573e-01 2.431810e-01 2.089311e-01 1.588225e-01 6.253644e-02
<GCONST> 7.302096e+01
<STATE> 3
<NUMMIXES> 2
<MIXTURE> 1 5.000000e-01
<MEAN> 39
 -6.778207e-01 4.347606e+00 -5.385989e+00 -7.493191e-01 2.990198e+00 2.334228e+00 -1.195461e+00 -4.042017e+00 -2.248388e+00 2.246063e+00 -8.470708e-01 -2.997571e+00 -2.749871e+00 -4.486093e-01 -9.685948e-02 6.318715e-01 2.633521e-01 -1.351974e-01 -8.587791e-02 2.756596e-02 1.623337e-01 2.334362e-02 -4.311072e-01 -1.875509e-01 1.949393e-02 2.846433e-01 -4.963781e-02 -4.812498e-02 8.897542e-03 -8.611013e-03 -1.748977e-02 -7.671580e-02 4.843096e-02 -4.801199e-02 3.709435e-03 1.130839e-02 -3.915327e-02 -4.992525e-02 2.661603e-02
<VARIANCE> 39
 6.175762e+01 1.563528e+01 8.349128e+01 1.488722e+01 2.082447e+01 2.420720e+01 2.803016e+01 3.861680e+01 1.907063e+01 3.170307e+01 1.576786e+01 1.690420e+01 2.880084e+01 6.500962e-01 6.811830e-01 1.570375e+00 1.337222e+00 1.649285e+00 1.147307e+00 3.467879e+00 3.179802e+00 1.789345e+00 1.614124e+00 1.689342e+00 1.233443e+00 2.940871e+00 1.175333e-01 8.923330e-02 2.942726e-01 2.784538e-01 3.516017e-01 2.110485e-01 7.298721e-01 6.100799e-01 3.232529e-01 2.708597e-01 3.489091e-01 2.117542e-01 6.188529e-01
<GCONST> 1.040845e+02
<MIXTURE> 2 5.000000e-01
<MEAN> 39
 -6.778207e-01 4.347606e+00 -5.385989e+00 -7.493191e-01 2.990198e+00 2.334228e+00 -1.195461e+00 -4.042017e+00 -2.248388e+00 2.246063e+00 -8.470708e-01 -2.997571e+00 -2.749871e+00 -4.486093e-01 -9.685948e-02 6.318715e-01 2.633521e-01 -1.351974e-01 -8.587791e-02 2.756596e-02 1.623337e-01 2.334362e-02 -4.311072e-01 -1.875509e-01 1.949393e-02 2.846433e-01 -4.963781e-02 -4.812498e-02 8.897542e-03 -8.611013e-03 -1.748977e-02 -7.671580e-02 4.843096e-02 -4.801199e-02 3.709435e-03 1.130839e-02 -3.915327e-02 -4.992525e-02 2.661603e-02
<VARIANCE> 39
 6.175762e+01 1.563528e+01 8.349128e+01 1.488722e+01 2.082447e+01 2.420720e+01 2.803016e+01 3.861680e+01 1.907063e+01 3.170307e+01 1.576786e+01 1.690420e+01 2.880084e+01 6.500962e-01 6.811830e-01 1.570375e+00 1.337222e+00 1.649285e+00 1.147307e+00 3.467879e+00 3.179802e+00 1.789345e+00 1.614124e+00 1.689342e+00 1.233443e+00 2.940871e+00 1.175333e-01 8.923330e-02 2.942726e-01 2.784538e-01 3.516017e-01 2.110485e-01 7.298721e-01 6.100799e-01 3.232529e-01 2.708597e-01 3.489091e-01 2.117542e-01 6.188529e-01
<GCONST> 1.040845e+02
<STATE> 4
<NUMMIXES> 2
<MIXTURE> 1 5.000000e-01
<MEAN> 39
 -2.246258e+00 7.275915e-01 5.617644e+00 1.391856e+00 -5.546212e+00 -5.851873e-01 -2.943256e+00 -5.503595e+00 2.340678e+00 -4.756705e+00 -5.229041e+00 -1.309448e+00 2.173184e+00 -2.210441e+00 -2.446367e+00 -1.232591e+00 -3.423294e-01 -3.087110e-01 -1.633217e-01 9.264214e-01 4.084397e-01 -7.735363e-01 -1.297562e+00 1.478210e+00 -1.252973e+00 -2.229977e-01 -3.761429e-02 -2.054276e-01 -1.066671e-01 -3.054649e-01 3.891172e-02 -1.898966e-01 2.465851e-01 3.344012e-01 -7.202715e-02 1.696769e-01 3.857536e-01 -3.222058e-01 -1.831638e-01
<VARIANCE> 39
 1.202856e+02 6.614376e+01 1.370755e+02 1.068705e+01 1.956136e+01 4.129001e+01 4.687580e+01 1.375767e+02 2.708186e+01 4.001691e+01 2.269055e+01 2.197261e+01 2.296491e+01 4.287023e+00 6.811468e+00 3.576386e+00 1.789003e+00 1.486191e+00 3.899411e+00 3.531479e+00 1.521806e+01 1.753669e+00 2.100197e+00 3.816267e+00 3.804423e+00 2.705082e+00 1.126716e+00 2.045674e+00 4.162763e-01 3.885824e-01 3.793128e-01 7.584167e-01 6.500209e-01 1.878716e+00 5.218114e-01 9.137592e-01 4.956102e-01 4.546074e-01 4.076803e-01
<GCONST> 1.305331e+02
<MIXTURE> 2 5.000000e-01
<MEAN> 39
 -2.246258e+00 7.275915e-01 5.617644e+00 1.391856e+00 -5.546212e+00 -5.851873e-01 -2.943256e+00 -5.503595e+00 2.340678e+00 -4.756705e+00 -5.229041e+00 -1.309448e+00 2.173184e+00 -2.210441e+00 -2.446367e+00 -1.232591e+00 -3.423294e-01 -3.087110e-01 -1.633217e-01 9.264214e-01 4.084397e-01 -7.735363e-01 -1.297562e+00 1.478210e+00 -1.252973e+00 -2.229977e-01 -3.761429e-02 -2.054276e-01 -1.066671e-01 -3.054649e-01 3.891172e-02 -1.898966e-01 2.465851e-01 3.344012e-01 -7.202715e-02 1.696769e-01 3.857536e-01 -3.222058e-01 -1.831638e-01
<VARIANCE> 39
 1.202856e+02 6.614376e+01 1.370755e+02 1.068705e+01 1.956136e+01 4.129001e+01 4.687580e+01 1.375767e+02 2.708186e+01 4.001691e+01 2.269055e+01 2.197261e+01 2.296491e+01 4.287023e+00 6.811468e+00 3.576386e+00 1.789003e+00 1.486191e+00 3.899411e+00 3.531479e+00 1.521806e+01 1.753669e+00 2.100197e+00 3.816267e+00 3.804423e+00 2.705082e+00 1.126716e+00 2.045674e+00 4.162763e-01 3.885824e-01 3.793128e-01 7.584167e-01 6.500209e-01 1.878716e+00 5.218114e-01 9.137592e-01 4.956102e-01 4.546074e-01 4.076803e-01
<GCONST> 1.305331e+02
<STATE> 5
<NUMMIXES> 2
<MIXTURE> 1 5.000000e-01
<MEAN> 39
 7.004503e-01 -8.170783e+00 6.115031e-01 2.537929e+00 -4.931974e+00 -9.090666e+00 -2.902151e+00 4.266368e+00 -3.469840e-01 -5.983486e+00 -2.023357e+00 -4.524804e-01 3.397343e-01 5.130721e-01 -4.935092e-02 1.405010e-01 4.004072e-01 -4.364501e-01 -9.485058e-01 6.151011e-01 4.326274e-01 -8.595863e-01 -5.126840e-03 4.912392e-01 -2.035220e-01 -1.208024e-01 -3.779024e-02 3.133461e-01 1.306652e-01 -3.171494e-02 1.242000e-01 1.436647e-01 3.346420e-02 -1.490066e-01 5.470576e-02 1.593866e-01 -4.264687e-02 -1.298861e-01 9.272315e-02
<VARIANCE> 39
 5.571410e+01 3.914041e+01 6.123174e+01 4.748928e+01 2.313735e+01 5.208064e+01 3.396542e+01 3.372024e+01 2.670586e+01 2.366420e+01 2.312461e+01 4.241085e+01 8.300233e+00 7.048267e-01 5.124791e+00 5.957668e+00 4.014292e+00 2.588022e+00 6.883318e+00 2.852908e+00 2.986338e+00 3.753652e+00 3.117214e+00 2.197600e+00 2.074532e+00 1.170539e+00 3.521259e-01 8.802768e-01 6.687458e-01 6.649526e-01 3.325691e-01 1.350963e+00 6.118544e-01 6.665139e-01 8.944480e-01 6.601682e-01 6.007761e-01 5.775378e-01 1.424221e-01
<GCONST> 1.233334e+02
<MIXTURE> 2 5.000000e-01
<MEAN> 39
 7.004503e-01 -8.170783e+00 6.115031e-01 2.537929e+00 -4.931974e+00 -9.090666e+00 -2.902151e+00 4.266368e+00 -3.469840e-01 -5.983486e+00 -2.023357e+00 -4.524804e-01 3.397343e-01 5.130721e-01 -4.935092e-02 1.405010e-01 4.004072e-01 -4.364501e-01 -9.485058e-01 6.151011e-01 4.326274e-01 -8.595863e-01 -5.126840e-03 4.912392e-01 -2.035220e-01 -1.208024e-01 -3.779024e-02 3.133461e-01 1.306652e-01 -3.171494e-02 1.242000e-01 1.436647e-01 3.346420e-02 -1.490066e-01 5.470576e-02 1.593866e-01 -4.264687e-02 -1.298861e-01 9.272315e-02
<VARIANCE> 39
 5.571410e+01 3.914041e+01 6.123174e+01 4.748928e+01 2.313735e+01 5.208064e+01 3.396542e+01 3.372024e+01 2.670586e+01 2.366420e+01 2.312461e+01 4.241085e+01 8.300233e+00 7.048267e-01 5.124791e+00 5.957668e+00 4.014292e+00 2.588022e+00 6.883318e+00 2.852908e+00 2.986338e+00 3.753652e+00 3.117214e+00 2.197600e+00 2.074532e+00 1.170539e+00 3.521259e-01 8.802768e-01 6.687458e-01 6.649526e-01 3.325691e-01 1.350963e+00 6.118544e-01 6.665139e-01 8.944480e-01 6.601682e-01 6.007761e-01 5.775378e-01 1.424221e-01
<GCONST> 1.233334e+02
<STATE> 6
<NUMMIXES> 2
<MIXTURE> 1 5.000000e-01
<MEAN> 39
 -8.302797e+00 -4.379688e+00 5.146910e+00 1.667451e+00 -7.059153e+00 -1.703217e+00 4.200940e+00 5.447766e-01 -1.605618e+00 -2.759496e+00 -2.428194e+00 -3.668232e+00 6.510716e-01 -1.395471e-01 2.249037e-01 2.299481e-02 -1.863614e-01 1.620823e-01 2.909225e-01 -4.771531e-03 -3.686491e-01 4.758100e-02 9.245359e-02 -7.749905e-02 -1.607340e-01 1.204735e-01 5.037197e-02 -2.160483e-02 -1.153621e-01 2.389740e-02 8.639337e-02 -2.409738e-02 -1.091690e-01 7.579825e-02 9.089789e-03 -9.150843e-02 1.863302e-02 6.197787e-02 3.994802e-03
<VARIANCE> 39
 6.957004e+01 1.749745e+01 4.502354e+01 5.476265e+01 4.177617e+01 4.225148e+01 4.133553e+01 5.563976e+01 3.201731e+01 4.036695e+01 2.202843e+01 2.371726e+01 2.822562e+01 1.922445e+00 7.747298e-01 2.444689e+00 2.100410e+00 2.366369e+00 3.178205e+00 3.982390e+00 3.511137e+00 2.010387e+00 3.647240e+00 2.435368e+00 1.918760e+00 3.278176e+00 1.572534e-01 1.238820e-01 4.634450e-01 3.284788e-01 4.415013e-01 6.061190e-01 7.343900e-01 7.743614e-01 3.123258e-01 7.466137e-01 4.998321e-01 3.962355e-01 7.206292e-01
<GCONST> 1.188766e+02
<MIXTURE> 2 5.000000e-01
<MEAN> 39
 -8.302797e+00 -4.379688e+00 5.146910e+00 1.667451e+00 -7.059153e+00 -1.703217e+00 4.200940e+00 5.447766e-01 -1.605618e+00 -2.759496e+00 -2.428194e+00 -3.668232e+00 6.510716e-01 -1.395471e-01 2.249037e-01 2.299481e-02 -1.863614e-01 1.620823e-01 2.909225e-01 -4.771531e-03 -3.686491e-01 4.758100e-02 9.245359e-02 -7.749905e-02 -1.607340e-01 1.204735e-01 5.037197e-02 -2.160483e-02 -1.153621e-01 2.389740e-02 8.639337e-02 -2.409738e-02 -1.091690e-01 7.579825e-02 9.089789e-03 -9.150843e-02 1.863302e-02 6.197787e-02 3.994802e-03
<VARIANCE> 39
 6.957004e+01 1.749745e+01 4.502354e+01 5.476265e+01 4.177617e+01 4.225148e+01 4.133553e+01 5.563976e+01 3.201731e+01 4.036695e+01 2.202843e+01 2.371726e+01 2.822562e+01 1.922445e+00 7.747298e-01 2.444689e+00 2.100410e+00 2.366369e+00 3.178205e+00 3.982390e+00 3.511137e+00 2.010387e+00 3.647240e+00 2.435368e+00 1.918760e+00 3.278176e+00 1.572534e-01 1.238820e-01 4.634450e-01 3.284788e-01 4.415013e-01 6.061190e-01 7.343900e-01 7.743614e-01 3.123258e-01 7.466137e-01 4.998321e-01 3.962355e-01 7.206292e-01
<GCONST> 1.188766e+02
<TRANSP> 7
 0.000000e+00 1.000000e+00 0.000000e+00 0.000000e+00 0.000000e+00 0.000000e+00 0.000000e+00
 0.000000e+00 9.294579e-01 7.054213e-02 0.000000e+00 0.000000e+00 0.000000e+00 0.000000e+00
 0.000000e+00 0.000000e+00 8.811125e-01 1.188875e-01 0.000000e+00 0.000000e+00 0.000000e+00
 0.000000e+00 0.000000e+00 0.000000e+00 5.840179e-01 4.159822e-01 0.000000e+00 0.000000e+00
 0.000000e+00 0.000000e+00 0.000000e+00 0.000000e+00 8.270623e-01 1.729376e-01 0.000000e+00
 0.000000e+00 0.000000e+00 0.000000e+00 0.000000e+00 0.000000e+00 9.329844e-01 6.701565e-02
 0.000000e+00 0.000000e+00 0.000000e+00 0.000000e+00 0.000000e+00 0.000000e+00 0.000000e+00
<ENDHMM>
~h "q"
<BEGINHMM>
<NUMSTATES> 5
<STATE> 2
<NUMMIXES> 2
<MIXTURE> 1 5.000000e-01
<MEAN> 39
 1.699322e+00 9.807261e-01 5.076842e+00 -4.644689e+00 1.195877e+00 -1.799353e+01 6.107765e+00 -6.254488e+00 -1.492875e+01 6.828894e+00 -5.395296e+00 1.244021e+00 -8.162209e+00 3.121651e-01 2.085089e+00 1.329504e+00 -9.009112e-02 8.278751e-01 -2.974125e+00 -1.400492e+00 -1.693965e+00 8.012491e-01 2.127809e+00 1.549051e+00 -1.954133e-01 -1.487015e+00 -1.648500e-01 -8.612694e-02 -3.998425e-01 7.898819e-02 -9.576900e-02 6.470891e-01 1.443011e-02 -2.561763e-01 7.443538e-02 -2.327866e-01 2.762245e-03 -1.591903e-01 3.399561e-01
<VARIANCE> 39
 2.256320e+00 2.684253e+01 1.051004e+01 5.369945e+00 1.067297e+01 5.082021e+01 1.420821e+01 3.717817e+01 9.060481e+00 3.474522e+01 2.665831e+01 1.694775e+01 1.344508e+01 3.758547e-01 1.056956e+00 1.524722e+00 6.699095e-01 1.647430e+00 3.979898e+00 5.685385e-01 1.040550e+00 4.261172e-01 1.626957e+00 8.447223e-01 8.648380e-01 8.263516e-01 5.971646e-02 3.616503e-01 1.322569e-01 1.348362e-01 2.484686e-01 6.540160e-01 2.113346e-01 5.177651e-01 1.165930e-01 3.834316e-01 4.148221e-01 1.270562e-01 1.091317e-01
<GCONST> 8.626855e+01
<MIXTURE> 2 5.000000e-01
<MEAN> 39
 1.699322e+00 9.807261e-01 5.076842e+00 -4.644689e+00 1.195877e+00 -1.799353e+01 6.107765e+00 -6.254488e+00 -1.492875e+01 6.828894e+00 -5.395296e+00 1.244021e+00 -8.162209e+00 3.121651e-01 2.085089e+00 1.329504e+00 -9.009112e-02 8.278751e-01 -2.974125e+00 -1.400492e+00 -1.693965e+00 8.012491e-01 2.127809e+00 1.549051e+00 -1.954133e-01 -1.487015e+00 -1.648500e-01 -8.612694e-02 -3.998425e-01 7.898819e-02 -9.576900e-02 6.470891e-01 1.443011e-02 -2.561763e-01 7.443538e-02 -2.327866e-01 2.762245e-03 -1.591903e-01 3.399561e-01
<VARIANCE> 39
 2.256320e+00 2.684253e+01 1.051004e+01 5.369945e+00 1.067297e+01 5.082021e+01 1.420821e+01 3.717817e+01 9.060481e+00 3.474522e+01 2.665831e+01 1.694775e+01 1.344508e+01 3.758547e-01 1.056956e+00 1.524722e+00 6.699095e-01 1.647430e+00 3.979898e+00 5.685385e-01 1.040550e+00 4.261172e-01 1.626957e+00 8.447223e-01 8.648380e-01 8.263516e-01 5.971646e-02 3.616503e-01 1.322569e-01 1.348362e-01 2.484686e-01 6.540160e-01 2.113346e-01 5.177651e-01 1.165930e-01 3.834316e-01 4.148221e-01 1.270562e-01 1.091317e-01
<GCONST> 8.626855e+01
<STATE> 3
<NUMMIXES> 2
<MIXTURE> 1 5.000000e-01
<MEAN> 39
 2.709708e+00 8.716523e+00 5.187833e+00 -5.625003e+00 4.376085e+00 -2.209157e+01 -2.245610e-01 -1.233841e+01 -1.038083e+01 1.316225e+01 -3.824262e+00 2.536448e-01 -7.758759e+00 3.408278e-01 3.193368e-01 -4.543724e-02 -7.273817e-02 9.948008e-02 2.464140e-02 -2.519156e-01 -1.902034e-01 -7.711086e-03 3.217524e-01 -9.309382e-02 1.498103e-01 4.694775e-01 3.140648e-02 -5.371425e-02 9.214627e-03 7.833271e-02 -8.762909e-02 4.063642e-02 5.267997e-02 1.037504e-01 -9.081803e-02 -5.451809e-02 -2.728781e-02 3.020439e-02 7.443877e-02
<VARIANCE> 39
 8.638481e+00 6.611805e+00 3.845584e+00 2.522531e+00 2.391538e+00 5.941084e+00 6.524821e+00 1.752240e+01 9.999007e+00 8.058345e+00 9.792359e+00 5.521169e+00 7.360286e+00 1.392373e-01 1.522147e-01 3.067825e-01 3.054073e-01 4.180637e-01 4.450980e-01 4.538623e-01 5.080531e-01 5.909456e-01 6.038593e-01 4.813884e-01 4.650276e-01 1.943193e-01 1.602624e-02 3.285823e-02 6.821811e-02 5.545759e-02 6.549619e-02 1.055417e-01 9.554417e-02 1.354643e-01 7.834914e-02 1.216293e-01 1.215618e-01 7.323844e-02 4.622899e-02
<GCONST> 4.733019e+01
<MIXTURE> 2 5.000000e-01
<MEAN> 39
 2.709708e+00 8.716523e+00 5.187833e+00 -5.625003e+00 4.376085e+00 -2.209157e+01 -2.245610e-01 -1.233841e+01 -1.038083e+01 1.316225e+01 -3.824262e+00 2.536448e-01 -7.758759e+00 3.408278e-01 3.193368e-01 -4.543724e-02 -7.273817e-02 9.948008e-02 2.464140e-02 -2.519156e-01 -1.902034e-01 -7.711086e-03 3.217524e-01 -9.309382e-02 1.498103e-01 4.694775e-01 3.140648e-02 -5.371425e-02 9.214627e-03 7.833271e-02 -8.762909e-02 4.063642e-02 5.267997e-02 1.037504e-01 -9.081803e-02 -5.451809e-02 -2.728781e-02 3.020439e-02 7.443877e-02
<VARIANCE> 39
 8.638481e+00 6.611805e+00 3.845584e+00 2.522531e+00 2.391538e+00 5.941084e+00 6.524821e+00 1.752240e+01 9.999007e+00 8.058345e+00 9.792359e+00 5.521169e+00 7.360286e+00 1.392373e-01 1.522147e-01 3.067825e-01 3.054073e-01 4.180637e-01 4.450980e-01 4.538623e-01 5.080531e-01 5.909456e-01 6.038593e-01 4.813884e-01 4.650276e-01 1.943193e-01 1.602624e-02 3.285823e-02 6.821811e-02 5.545759e-02 6.549619e-02 1.055417e-01 9.554417e-02 1.354643e-01 7.834914e-02 1.216293e-01 1.215618e-01 7.323844e-02 4.622899e-02
<GCONST> 4.733019e+01
<STATE> 4
<NUMMIXES> 2
<MIXTURE> 1 5.000000e-01
<MEAN> 39
 6.157017e+00 1.018412e+01 5.268693e+00 -1.871762e+00 1.868990e+00 -1.983915e+01 -3.097637e+00 -1.297366e+01 -1.148926e+01 1.239438e+01 -1.113425e+00 1.567432e+00 -1.350318e+00 -5.735350e-01 -3.081386e-01 -3.634298e-01 9.525936e-01 -4.407006e-01 1.483613e+00 -6.009567e-01 2.983858e-01 8.591058e-01 -1.671239e+00 3.817171e-01 1.123519e-01 7.458731e-01 -3.311262e-01 -2.443708e-01 -1.356598e-01 9.868265e-04 6.967460e-02 4.098489e-01 -6.161510e-02 4.928308e-02 3.036238e-01 -3.010699e-01 -1.419676e-02 -9.215822e-03 -1.091562e-01
<VARIANCE> 39
 5.720855e+00 4.399716e+00 8.774467e+00 6.419297e+00 6.497049e+00 1.746420e+01 1.366860e+01 1.135714e+01 2.381208e+01 3.665903e+01 1.015050e+01 1.535589e+01 7.563257e+00 1.450546e+00 1.548006e+00 7.736261e-01 6.826774e-01 1.259156e+00 3.120249e+00 3.110723e+00 1.367921e+00 3.672148e+00 3.409433e+00 1.139363e+00 1.645695e+00 8.483599e-01 1.637024e-01 2.487154e-01 1.248791e-01 1.155976e-01 2.077166e-01 4.079028e-01 6.613268e-01 2.902251e-01 6.921880e-01 6.439465e-01 3.118713e-01 3.454133e-01 2.242664e-01
<GCONST> 9.244392e+01
<MIXTURE> 2 5.000000e-01
<MEAN> 39
 6.157017e+00 1.018412e+01 5.268693e+00 -1.871762e+00 1.868990e+00 -1.983915e+01 -3.097637e+00 -1.297366e+01 -1.148926e+01 1.239438e+01 -1.113425e+00 1.567432e+00 -1.350318e+00 -5.735350e-01 -3.081386e-01 -3.634298e-01 9.525936e-01 -4.407006e-01 1.483613e+00 -6.009567e-01 2.983858e-01 8.591058e-01 -1.671239e+00 3.817171e-01 1.123519e-01 7.458731e-01 -3.311262e-01 -2.443708e-01 -1.356598e-01 9.868265e-04 6.967460e-02 4.098489e-01 -6.161510e-02 4.928308e-02 3.036238e-01 -3.010699e-01 -1.419676e-02 -9.215822e-03 -1.091562e-01
<VARIANCE> 39
 5.720855e+00 4.399716e+00 8.774467e+00 6.419297e+00 6.497049e+00 1.746420e+01 1.366860e+01 1.135714e+01 2.381208e+01 3.665903e+01 1.015050e+01 1.535589e+01 7.563257e+00 1.450546e+00 1.548006e+00 7.736261e-01 6.826774e-01 1.259156e+00 3.120249e+00 3.110723e+00 1.367921e+00 3.672148e+00 3.409433e+00 1.139363e+00 1.645695e+00 8.483599e-01 1.637024e-01 2.487154e-01 1.248791e-01 1.155976e-01 2.077166e-01 4.079028e-01 6.613268e-01 2.902251e-01 6.921880e-01 6.439465e-01 3.118713e-01 3.454133e-01 2.242664e-01
<GCONST> 9.244392e+01
<TRANSP> 5
 0.000000e+00 1.000000e+00 0.000000e+00 0.000000e+00 0.000000e+00
 0.000000e+00 7.985718e-01 2.014283e-01 0.000000e+00 0.000000e+00
 0.000000e+00 0.000000e+00 9.266607e-01 7.333929e-02 0.000000e+00
 0.000000e+00 0.000000e+00 0.000000e+00 8.530914e-01 1.469086e-01
 0.000000e+00 0.000000e+00 0.000000e+00 0.000000e+00 0.000000e+00
<ENDHMM>
~h "r"
<BEGINHMM>
<NUMSTATES> 5
<STATE> 2
<NUMMIXES> 2
<MIXTURE> 1 5.000000e-01
<MEAN> 39
 -2.410786e+01 3.913650e+00 4.072103e-02 -1.089883e+01 1.836480e+00 -5.466550e+00 3.608902e+00 -3.085242e+00 1.365883e+00 6.142421e-01 -4.222216e+00 -3.012801e+00 -2.893682e+00 -3.443029e-01 -7.168909e-02 4.409356e-01 -1.362730e-01 -3.829284e-02 5.820541e-02 -2.646862e-01 -1.916570e-02 1.046312e-01 1.217490e-01 8.943374e-02 9.768993e-02 -3.028873e-02 1.038025e-01 -4.439690e-02 1.916660e-02 7.631552e-02 -4.877116e-02 3.738754e-03 -2.696018e-02 -4.016628e-02 -4.661014e-02 -7.366242e-02 3.885607e-02 3.218244e-02 9.569965e-02
<VARIANCE> 39
 2.236348e+01 7.802133e+00 8.765929e+00 2.176558e+01 1.259169e+01 2.708404e+01 4.479951e+01 2.858044e+01 2.542696e+01 2.449145e+01 2.258292e+01 1.909222e+01 1.399626e+01 6.079771e-01 7.355227e-01 1.353161e+00 2.037686e+00 1.829927e+00 3.322408e+00 2.620709e+00 5.390028e+00 3.212247e+00 4.341332e+00 2.754126e+00 3.246556e+00 1.995272e+00 8.461288e-02 1.040061e-01 1.629442e-01 5.243144e-01 4.262725e-01 5.729707e-01 4.294114e-01 1.131203e+00 5.105187e-01 1.034063e+00 5.447567e-01 7.665765e-01 2.929538e-01
<GCONST> 1.083312e+02
<MIXTURE> 2 5.000000e-01
<MEAN> 39
 -2.410786e+01 3.913650e+00 4.072103e-02 -1.089883e+01 1.836480e+00 -5.466550e+00 3.608902e+00 -3.085242e+00 1.365883e+00 6.142421e-01 -4.222216e+00 -3.012801e+00 -2.893682e+00 -3.443029e-01 -7.168909e-02 4.409356e-01 -1.362730e-01 -3.829284e-02 5.820541e-02 -2.646862e-01 -1.916570e-02 1.046312e-01 1.217490e-01 8.943374e-02 9.768993e-02 -3.028873e-02 1.038025e-01 -4.439690e-02 1.916660e-02 7.631552e-02 -4.877116e-02 3.738754e-03 -2.696018e-02 -4.016628e-02 -4.661014e-02 -7.366242e-02 3.885607e-02 3.218244e-02 9.569965e-02
<VARIANCE> 39
 2.236348e+01 7.802133e+00 8.765929e+00 2.176558e+01 1.259169e+01 2.708404e+01 4.479951e+01 2.858044e+01 2.542696e+01 2.449145e+01 2.258292e+01 1.909222e+01 1.399626e+01 6.079771e-01 7.355227e-01 1.353161e+00 2.037686e+00 1.829927e+00 3.322408e+00 2.620709e+00 5.390028e+00 3.212247e+00 4.341332e+00 2.754126e+00 3.246556e+00 1.995272e+00 8.461288e-02 1.040061e-01 1.629442e-01 5.243144e-01 4.262725e-01 5.729707e-01 4.294114e-01 1.131203e+00 5.105187e-01 1.034063e+00 5.447567e-01 7.665765e-01 2.929538e-01
<GCONST> 1.083312e+02
<STATE> 3
<NUMMIXES> 2
<MIXTURE> 1 5.000000e-01
<MEAN> 39
 -6.711706e+00 -2.781332e+00 3.915991e+00 -4.411686e+00 -5.735099e+00 -6.026170e+00 4.186358e+00 -1.099121e+00 -1.169720e-01 -7.255579e+00 2.402309e+00 -4.871777e+00 -1.380744e+00 1.827258e+00 -6.245509e-01 -8.338366e-01 2.592050e-01 -8.917031e-01 -8.908341e-01 4.951156e-01 5.844827e-01 -3.017629e-01 -1.334098e+00 3.162283e-02 -3.860899e-01 3.214781e-03 -1.123557e-03 -7.624782e-02 -4.018224e-01 -1.205007e-01 1.965784e-01 2.375670e-02 -2.695743e-01 2.099471e-01 3.213661e-02 9.579212e-03 -1.842958e-01 9.807029e-02 1.388355e-01
<VARIANCE> 39
 7.597132e+01 1.432253e+01 2.373785e+01 1.158852e+01 1.845958e+01 2.168514e+01 4.857167e+01 4.804315e+01 3.440871e+01 4.377758e+01 1.893177e+01 1.348678e+01 1.276092e+01 4.434689e+00 2.418192e+00 3.915643e+00 1.971599e+00 1.894656e+00 1.490658e+00 6.193470e+00 6.614777e+00 5.650647e+00 2.318709e+00 2.135519e+00 1.388402e+00 1.323367e+00 1.146814e+00 4.939329e-01 6.652289e-01 2.111736e-01 3.564475e-01 3.558654e-01 9.685696e-01 1.096314e+00 1.564182e+00 3.984291e-01 3.679991e-01 2.565078e-01 2.573443e-01
<GCONST> 1.178211e+02
<MIXTURE> 2 5.000000e-01
<MEAN> 39
 -6.711706e+00 -2.781332e+00 3.915991e+00 -4.411686e+00 -5.735099e+00 -6.026170e+00 4.186358e+00 -1.099121e+00 -1.169720e-01 -7.255579e+00 2.402309e+00 -4.871777e+00 -1.380744e+00 1.827258e+00 -6.245509e-01 -8.338366e-01 2.592050e-01 -8.917031e-01 -8.908341e-01 4.951156e-01 5.844827e-01 -3.017629e-01 -1.334098e+00 3.162283e-02 -3.860899e-01 3.214781e-03 -1.123557e-03 -7.624782e-02 -4.018224e-01 -1.205007e-01 1.965784e-01 2.375670e-02 -2.695743e-01 2.099471e-01 3.213661e-02 9.579212e-03 -1.842958e-01 9.807029e-02 1.388355e-01
<VARIANCE> 39
 7.597132e+01 1.432253e+01 2.373785e+01 1.158852e+01 1.845958e+01 2.168514e+01 4.857167e+01 4.804315e+01 3.440871e+01 4.377758e+01 1.893177e+01 1.348678e+01 1.276092e+01 4.434689e+00 2.418192e+00 3.915643e+00 1.971599e+00 1.894656e+00 1.490658e+00 6.193470e+00 6.614777e+00 5.650647e+00 2.318709e+00 2.135519e+00 1.388402e+00 1.323367e+00 1.146814e+00 4.939329e-01 6.652289e-01 2.111736e-01 3.564475e-01 3.558654e-01 9.685696e-01 1.096314e+00 1.564182e+00 3.984291e-01 3.679991e-01 2.565078e-01 2.573443e-01
<GCONST> 1.178211e+02
<STATE> 4
<NUMMIXES> 2
<MIXTURE> 1 5.000000e-01
<MEAN> 39
 -2.542761e+00 -6.225526e+00 -2.984000e+00 -6.866133e+00 -1.030347e+01 -2.521231e+00 1.023661e+01 3.668957e-01 -1.126546e+01 -3.827797e+00 -7.576930e+00 -3.203362e+00 1.475705e+00 -2.386295e-02 9.295975e-02 -2.118548e-01 -5.663074e-03 -4.534342e-02 6.111848e-01 -1.283959e-01 1.111296e-01 -5.375142e-01 5.667018e-01 -5.506532e-01 1.567629e-01 2.342928e-01 9.479158e-02 1.635416e-01 1.261009e-01 1.467106e-01 7.857212e-02 -2.996129e-02 -2.685366e-03 -1.302493e-01 7.998643e-02 1.289000e-01 7.477513e-02 -1.088142e-01 -1.966898e-02
<VARIANCE> 39
 3.362093e+00 1.391052e+00 3.290646e+00 2.267223e+00 4.550632e+00 1.690326e+01 2.806312e+01 1.007208e+01 2.934544e+01 2.879503e+01 2.567102e+01 1.655472e+00 3.791992e+00 3.468745e-01 1.044445e-01 5.407372e-01 3.437610e-01 5.987660e-01 1.045119e+00 7.942003e-01 2.400290e-01 1.777017e+00 9.258741e-01 2.399603e-01 3.206109e-01 5.336205e-01 3.946980e-02 3.863854e-02 5.679861e-02 1.267752e-01 6.298877e-02 1.406797e-01 1.114089e-01 9.321861e-02 1.656045e-01 1.280517e-01 6.251908e-02 4.430099e-02 6.842379e-02
<GCONST> 5.407922e+01
<MIXTURE> 2 5.000000e-01
<MEAN> 39
 -2.542761e+00 -6.225526e+00 -2.984000e+00 -6.866133e+00 -1.030347e+01 -2.521231e+00 1.023661e+01 3.668957e-01 -1.126546e+01 -3.827797e+00 -7.576930e+00 -3.203362e+00 1.475705e+00 -2.386295e-02 9.295975e-02 -2.118548e-01 -5.663074e-03 -4.534342e-02 6.111848e-01 -1.283959e-01 1.111296e-01 -5.375142e-01 5.667018e-01 -5.506532e-01 1.567629e-01 2.342928e-01 9.479158e-02 1.635416e-01 1.261009e-01 1.467106e-01 7.857212e-02 -2.996129e-02 -2.685366e-03 -1.302493e-01 7.998643e-02 1.289000e-01 7.477513e-02 -1.088142e-01 -1.966898e-02
<VARIANCE> 39
 3.362093e+00 1.391052e+00 3.290646e+00 2.267223e+00 4.550632e+00 1.690326e+01 2.806312e+01 1.007208e+01 2.934544e+01 2.879503e+01 2.567102e+01 1.655472e+00 3.791992e+00 3.468745e-01 1.044445e-01 5.407372e-01 3.437610e-01 5.987660e-01 1.045119e+00 7.942003e-01 2.400290e-01 1.777017e+00 9.258741e-01 2.399603e-01 3.206109e-01 5.336205e-01 3.946980e-02 3.863854e-02 5.679861e-02 1.267752e-01 6.298877e-02 1.406797e-01 1.114089e-01 9.321861e-02 1.656045e-01 1.280517e-01 6.251908e-02 4.430099e-02 6.842379e-02
<GCONST> 5.407922e+01
<TRANSP> 5
 0.000000e+00 1.000000e+00 0.000000e+00 0.000000e+00 0.000000e+00
 0.000000e+00 9.210414e-01 7.895867e-02 0.000000e+00 0.000000e+00
 0.000000e+00 0.000000e+00 8.750341e-01 1.249659e-01 0.000000e+00
 0.000000e+00 0.000000e+00 0.000000e+00 8.235292e-01 1.764708e-01
 0.000000e+00 0.000000e+00 0.000000e+00 0.000000e+00 0.000000e+00
<ENDHMM>
~h "u"
<BEGINHMM>
<NUMSTATES> 7
<STATE> 2
<NUMMIXES> 2
<MIXTURE> 1 5.000000e-01
<MEAN> 39
 -3.339095e-01 5.786849e+00 -9.867299e+00 -1.481985e+00 7.620196e-02 -4.885266e+00 -1.456750e+00 -1.049081e+01 -3.947085e+00 -1.565305e+00 1.226276e+00 6.942306e-01 -2.992882e+00 1.826128e-02 -2.722096e-01 -2.071251e+00 -1.409541e+00 -1.262680e+00 9.135200e-01 1.670995e+00 6.899958e-01 -2.613581e-01 7.299551e-01 4.092215e-01 -7.458415e-01 -6.740332e-02 4.715835e-01 1.771721e-01 2.756826e-01 2.124280e-01 -2.064443e-01 -4.782993e-01 -2.180479e-01 2.545179e-01 -1.573471e-01 7.880263e-02 -5.171766e-02 -1.256713e-01 -8.968786e-02
<VARIANCE> 39
 1.018480e+02 1.453873e+01 7.439050e+01 3.453932e+01 2.954634e+01 5.591092e+01 2.818743e+01 4.347825e+01 1.763373e+01 2.167398e+01 2.694770e+01 3.172015e+01 1.336467e+01 6.513784e+00 6.606254e+00 4.454899e+00 1.671594e+00 3.418100e+00 2.983644e+00 1.607716e+00 2.033704e+00 2.666373e+00 2.934586e+00 1.782532e+00 3.254874e+00 1.307830e+00 1.784436e+00 7.558028e-01 8.271659e-01 4.484837e-01 6.939860e-01 9.084003e-01 6.351554e-01 4.389026e-01 5.471345e-01 3.026179e-01 3.634922e-01 4.984409e-01 1.396746e-01
<GCONST> 1.220934e+02
<MIXTURE> 2 5.000000e-01
<MEAN> 39
 -3.339095e-01 5.786849e+00 -9.867299e+00 -1.481985e+00 7.620196e-02 -4.885266e+00 -1.456750e+00 -1.049081e+01 -3.947085e+00 -1.565305e+00 1.226276e+00 6.942306e-01 -2.992882e+00 1.826128e-02 -2.722096e-01 -2.071251e+00 -1.409541e+00 -1.262680e+00 9.135200e-01 1.670995e+00 6.899958e-01 -2.613581e-01 7.299551e-01 4.092215e-01 -7.458415e-01 -6.740332e-02 4.715835e-01 1.771721e-01 2.756826e-01 2.124280e-01 -2.064443e-01 -4.782993e-01 -2.180479e-01 2.545179e-01 -1.573471e-01 7.880263e-02 -5.171766e-02 -1.256713e-01 -8.968786e-02
<VARIANCE> 39
 1.018480e+02 1.453873e+01 7.439050e+01 3.453932e+01 2.954634e+01 5.591092e+01 2.818743e+01 4.347825e+01 1.763373e+01 2.167398e+01 2.694770e+01 3.172015e+01 1.336467e+01 6.513784e+00 6.606254e+00 4.454899e+00 1.671594e+00 3.418100e+00 2.983644e+00 1.607716e+00 2.033704e+00 2.666373e+00 2.934586e+00 1.782532e+00 3.254874e+00 1.307830e+00 1.784436e+00 7.558028e-01 8.271659e-01 4.484837e-01 6.939860e-01 9.084003e-01 6.351554e-01 4.389026e-01 5.471345e-01 3.026179e-01 3.634922e-01 4.984409e-01 1.396746e-01
<GCONST> 1.220934e+02
<STATE> 3
<NUMMIXES> 2
<MIXTURE> 1 5.000000e-01
<MEAN> 39
 -1.773314e+00 3.839072e+00 -3.900780e+00 -1.551484e+00 -9.660431e+00 -1.023125e+01 -1.531350e+00 -1.841016e-01 -5.386367e+00 2.684981e+00 1.752872e-01 -4.883015e+00 -2.293190e+00 1.243129e+00 1.882274e-01 -9.647668e-01 2.504204e-01 -2.685241e-01 -2.958051e+00 -7.616205e-01 1.899938e+00 5.289726e-02 6.806111e-01 -1.529078e-01 1.019082e-01 -2.687830e-01 -3.765924e-01 -1.253732e-01 -9.647384e-02 1.316458e-01 4.869466e-01 6.749874e-02 -2.240246e-01 -8.309112e-02 4.987438e-01 -3.382220e-01 -2.947992e-01 3.162756e-01 1.922757e-01
<VARIANCE> 39
 2.973162e+01 9.626836e+00 7.763758e+01 2.488665e+01 2.670856e+01 6.686430e+01 1.317753e+01 5.407278e+01 3.896058e+00 2.087726e+01 3.412291e+01 2.066311e+01 9.734533e+00 2.477539e+00 6.721076e-01 1.423719e+00 2.571188e+00 3.658137e+00 5.609088e+00 1.106481e+00 1.517007e+00 9.054139e-01 1.669623e+00 4.351877e+00 1.200340e+00 1.039892e+00 3.097987e-01 3.659128e-01 3.202218e-01 2.626546e-01 3.496903e-01 1.091460e+00 2.053024e-01 4.168105e-01 1.324642e-01 3.790939e-01 7.863207e-01 1.352738e-01 1.569592e-01
<GCONST> 1.044834e+02
<MIXTURE> 2 5.000000e-01
<MEAN> 39
 -1.773314e+00 3.839072e+00 -3.900780e+00 -1.551484e+00 -9.660431e+00 -1.023125e+01 -1.531350e+00 -1.841016e-01 -5.386367e+00 2.684981e+00 1.752872e-01 -4.883015e+00 -2.293190e+00 1.243129e+00 1.882274e-01 -9.647668e-01 2.504204e-01 -2.685241e-01 -2.958051e+00 -7.616205e-01 1.899938e+00 5.289726e-02 6.806111e-01 -1.529078e-01 1.019082e-01 -2.687830e-01 -3.765924e-01 -1.253732e-01 -9.647384e-02 1.316458e-01 4.869466e-01 6.749874e-02 -2.240246e-01 -8.309112e-02 4.987438e-01 -3.382220e-01 -2.947992e-01 3.162756e-01 1.922757e-01
<VARIANCE> 39
 2.973162e+01 9.626836e+00 7.763758e+01 2.488665e+01 2.670856e+01 6.686430e+01 1.317753e+01 5.407278e+01 3.896058e+00 2.087726e+01 3.412291e+01 2.066311e+01 9.734533e+00 2.477539e+00 6.721076e-01 1.423719e+00 2.571188e+00 3.658137e+00 5.609088e+00 1.106481e+00 1.517007e+00 9.054139e-01 1.669623e+00 4.351877e+00 1.200340e+00 1.039892e+00 3.097987e-01 3.659128e-01 3.202218e-01 2.626546e-01 3.496903e-01 1.091460e+00 2.053024e-01 4.168105e-01 1.324642e-01 3.790939e-01 7.863207e-01 1.352738e-01 1.569592e-01
<GCONST> 1.044834e+02
<STATE> 4
<NUMMIXES> 2
<MIXTURE> 1 5.000000e-01
<MEAN> 39
 3.368475e+00 6.783752e+00 -1.752663e+01 -2.011841e+00 -4.710997e+00 -1.203224e+01 -4.871472e+00 -4.270164e+00 -1.994556e+00 4.975444e+00 -3.363043e+00 -3.373273e+00 -5.537935e+00 -1.087653e-01 -2.283889e-01 -1.280321e-01 3.071710e-01 2.620376e-01 -3.966378e-01 -5.247908e-01 -3.711478e-02 9.747567e-01 6.110055e-02 -7.972032e-01 -3.638379e-01 7.805246e-02 -1.072860e-02 -5.884512e-02 1.777038e-01 1.046619e-01 -5.528839e-02 -1.581794e-02 1.751265e-02 2.412640e-02 6.451780e-02 -1.604241e-01 -4.441266e-02 1.303213e-01 7.956269e-02
<VARIANCE> 39
 1.463031e+01 4.757901e+00 4.970033e+01 2.939482e+01 3.613314e+01 5.890804e+01 1.827391e+01 8.041306e+01 8.373326e+00 1.743097e+01 1.076249e+01 2.524454e+01 5.891873e+00 1.388122e-01 1.137739e-01 4.213186e-01 2.616322e-01 2.394360e-01 6.595085e-01 5.642449e-01 3.676781e-01 4.972465e-01 8.761595e-01 5.467541e-01 1.221763e+00 1.898640e-01 9.634002e-03 1.149330e-02 4.470516e-02 5.634686e-02 5.698039e-02 1.766518e-01 6.451875e-02 1.512820e-01 1.228369e-01 1.380978e-01 8.461153e-02 2.129101e-01 3.327648e-02
<GCONST> 6.204011e+01
<MIXTURE> 2 5.000000e-01
<MEAN> 39
 3.368475e+00 6.783752e+00 -1.752663e+01 -2.011841e+00 -4.710997e+00 -1.203224e+01 -4.871472e+00 -4.270164e+00 -1.994556e+00 4.975444e+00 -3.363043e+00 -3.373273e+00 -5.537935e+00 -1.087653e-01 -2.283889e-01 -1.280321e-01 3.071710e-01 2.620376e-01 -3.966378e-01 -5.247908e-01 -3.711478e-02 9.747567e-01 6.110055e-02 -7.972032e-01 -3.638379e-01 7.805246e-02 -1.072860e-02 -5.884512e-02 1.777038e-01 1.046619e-01 -5.528839e-02 -1.581794e-02 1.751265e-02 2.412640e-02 6.451780e-02 -1.604241e-01 -4.441266e-02 1.303213e-01 7.956269e-02
<VARIANCE> 39
 1.463031e+01 4.757901e+00 4.970033e+01 2.939482e+01 3.613314e+01 5.890804e+01 1.827391e+01 8.041306e+01 8.373326e+00 1.743097e+01 1.076249e+01 2.524454e+01 5.891873e+00 1.388122e-01 1.137739e-01 4.213186e-01 2.616322e-01 2.394360e-01 6.595085e-01 5.642449e-01 3.676781e-01 4.972465e-01 8.761595e-01 5.467541e-01 1.221763e+00 1.898640e-01 9.634002e-03 1.149330e-02 4.470516e-02 5.634686e-02 5.698039e-02 1.766518e-01 6.451875e-02 1.512820e-01 1.228369e-01 1.380978e-01 8.461153e-02 2.129101e-01 3.327648e-02
<GCONST> 6.204011e+01
<STATE> 5
<NUMMIXES> 2
<MIXTURE> 1 5.000000e-01
<MEAN> 39
 1.780486e+00 3.934367e+00 -1.470716e+01 1.405991e+00 -3.271103e+00 -1.723742e+01 -8.473523e+00 2.686543e+00 3.550866e+00 1.248976e+00 -9.099132e+00 -2.443952e+00 1.305265e+00 1.065828e-01 -1.201862e-01 2.930160e-01 3.289212e-01 7.678677e-04 -5.310754e-02 -3.243970e-01 4.875080e-01 8.019747e-02 -4.083909e-01 -6.238763e-01 4.435237e-01 4.871101e-01 1.062885e-02 1.465104e-02 2.373008e-01 -8.966726e-02 -1.163590e-02 1.322431e-01 8.622493e-02 -9.011351e-02 -2.727032e-01 1.765334e-02 1.906263e-01 -5.266516e-02 -9.475288e-02
<VARIANCE> 39
 5.808473e+00 2.741515e+00 1.954756e+01 1.022169e+01 1.942447e+01 1.830339e+01 1.391403e+01 4.543617e+01 5.104864e+00 3.239584e+01 1.508424e+01 2.858703e+01 1.827439e+01 1.889459e-01 1.584396e-01 6.879830e-01 4.292673e-01 6.369551e-01 9.656454e-01 3.722436e-01 2.539124e+00 1.126728e+00 1.432433e+00 7.174229e-01 1.008285e+00 5.830795e-01 1.662152e-02 5.734615e-02 7.550012e-02 1.258510e-01 9.045825e-02 8.936970e-02 5.645709e-02 3.038465e-01 1.129046e-01 1.773368e-01 1.225464e-01 1.941622e-01 1.205033e-01
<GCONST> 7.022956e+01
<MIXTURE> 2 5.000000e-01
<MEAN> 39
 1.780486e+00 3.934367e+00 -1.470716e+01 1.405991e+00 -3.271103e+00 -1.723742e+01 -8.473523e+00 2.686543e+00 3.550866e+00 1.248976e+00 -9.099132e+00 -2.443952e+00 1.305265e+00 1.065828e-01 -1.201862e-01 2.930160e-01 3.289212e-01 7.678677e-04 -5.310754e-02 -3.243970e-01 4.875080e-01 8.019747e-02 -4.083909e-01 -6.238763e-01 4.435237e-01 4.871101e-01 1.062885e-02 1.465104e-02 2.373008e-01 -8.966726e-02 -1.163590e-02 1.322431e-01 8.622493e-02 -9.011351e-02 -2.727032e-01 1.765334e-02 1.906263e-01 -5.266516e-02 -9.475288e-02
<VARIANCE> 39
 5.808473e+00 2.741515e+00 1.954756e+01 1.022169e+01 1.942447e+01 1.830339e+01 1.391403e+01 4.543617e+01 5.104864e+00 3.239584e+01 1.508424e+01 2.858703e+01 1.827439e+01 1.889459e-01 1.584396e-01 6.879830e-01 4.292673e-01 6.369551e-01 9.656454e-01 3.722436e-01 2.539124e+00 1.126728e+00 1.432433e+00 7.174229e-01 1.008285e+00 5.830795e-01 1.662152e-02 5.734615e-02 7.550012e-02 1.258510e-01 9.045825e-02 8.936970e-02 5.645709e-02 3.038465e-01 1.129046e-01 1.773368e-01 1.225464e-01 1.941622e-01 1.205033e-01
<GCONST> 7.022956e+01
<STATE> 6
<NUMMIXES> 2
<MIXTURE> 1 5.000000e-01
<MEAN> 39
 5.636692e+00 1.086008e+00 -3.448660e+00 2.306841e+00 -3.714652e-01 -1.938944e+01 -4.388064e+00 -1.912855e+00 2.044534e+00 -9.120644e-01 -8.916891e+00 1.122036e+00 -7.869340e-01 2.996854e-01 4.541951e-02 6.813165e-01 2.081675e-01 2.385362e-01 6.029113e-02 2.181892e-01 -4.426607e-01 3.145802e-01 -1.437953e-01 1.848337e-01 1.665943e-01 -2.378743e-01 -6.447013e-02 7.900681e-02 -1.398350e-01 -2.590946e-02 7.279797e-03 6.456009e-02 2.420260e-02 -3.389126e-02 1.247706e-01 2.138185e-02 3.074217e-02 -3.974444e-02 -5.724989e-02
<VARIANCE> 39
 1.156621e+01 6.412491e+01 3.106602e+01 2.725733e+01 4.813771e+01 3.733140e+01 3.757153e+01 4.195012e+01 8.444285e+01 1.873814e+01 1.675005e+01 2.718919e+01 1.223100e+01 4.221777e-01 1.641402e+00 2.743233e+00 3.709918e+00 2.978733e+00 1.995753e+00 2.166805e+00 3.852382e+00 4.643838e+00 2.287953e+00 1.656718e+00 2.187582e+00 1.892082e+00 7.178555e-02 1.781722e-01 2.565879e-01 8.601481e-01 5.931569e-01 4.457280e-01 3.521436e-01 7.247561e-01 6.781555e-01 3.670337e-01 3.012688e-01 3.523475e-01 3.862481e-01
<GCONST> 1.128715e+02
<MIXTURE> 2 5.000000e-01
<MEAN> 39
 5.636692e+00 1.086008e+00 -3.448660e+00 2.306841e+00 -3.714652e-01 -1.938944e+01 -4.388064e+00 -1.912855e+00 2.044534e+00 -9.120644e-01 -8.916891e+00 1.122036e+00 -7.869340e-01 2.996854e-01 4.541951e-02 6.813165e-01 2.081675e-01 2.385362e-01 6.029113e-02 2.181892e-01 -4.426607e-01 3.145802e-01 -1.437953e-01 1.848337e-01 1.665943e-01 -2.378743e-01 -6.447013e-02 7.900681e-02 -1.398350e-01 -2.590946e-02 7.279797e-03 6.456009e-02 2.420260e-02 -3.389126e-02 1.247706e-01 2.138185e-02 3.074217e-02 -3.974444e-02 -5.724989e-02
<VARIANCE> 39
 1.156621e+01 6.412491e+01 3.106602e+01 2.725733e+01 4.813771e+01 3.733140e+01 3.757153e+01 4.195012e+01 8.444285e+01 1.873814e+01 1.675005e+01 2.718919e+01 1.223100e+01 4.221777e-01 1.641402e+00 2.743233e+00 3.709918e+00 2.978733e+00 1.995753e+00 2.166805e+00 3.852382e+00 4.643838e+00 2.287953e+00 1.656718e+00 2.187582e+00 1.892082e+00 7.178555e-02 1.781722e-01 2.565879e-01 8.601481e-01 5.931569e-01 4.457280e-01 3.521436e-01 7.247561e-01 6.781555e-01 3.670337e-01 3.012688e-01 3.523475e-01 3.862481e-01
<GCONST> 1.128715e+02
<TRANSP> 7
 0.000000e+00 1.000000e+00 0.000000e+00 0.000000e+00 0.000000e+00 0.000000e+00 0.000000e+00
 0.000000e+00 7.185271e-01 2.814729e-01 0.000000e+00 0.000000e+00 0.000000e+00 0.000000e+00
 0.000000e+00 0.000000e+00 6.962624e-01 3.037376e-01 0.000000e+00 0.000000e+00 0.000000e+00
 0.000000e+00 0.000000e+00 0.000000e+00 8.324438e-01 1.675563e-01 0.000000e+00 0.000000e+00
 0.000000e+00 0.000000e+00 0.000000e+00 0.000000e+00 8.340890e-01 1.659110e-01 0.000000e+00
 0.000000e+00 0.000000e+00 0.000000e+00 0.000000e+00 0.000000e+00 9.101580e-01 8.984192e-02
 0.000000e+00 0.000000e+00 0.000000e+00 0.000000e+00 0.000000e+00 0.000000e+00 0.000000e+00
<ENDHMM>
~h "w"
<BEGINHMM>
<NUMSTATES> 5
<STATE> 2
<NUMMIXES> 2
<MIXTURE> 1 5.000000e-01
<MEAN> 39
 -4.707683e+00 5.947248e-01 -2.359022e+00 -2.529116e+00 -5.807150e-01 -3.899058e+00 -5.879866e-01 -2.546733e+00 -3.359112e+00 -1.947479e+00 -3.053110e+00 -1.799553e+00 -4.706514e-01 1.247701e-09 -4.053445e-10 -2.286396e-09 1.722714e-09 -5.066806e-10 -6.986651e-10 -9.397343e-10 7.695212e-10 2.444734e-09 -2.052057e-09 1.449384e-09 -3.641767e-11 9.025249e-11 -2.731325e-10 1.630878e-10 -4.259284e-10 2.525486e-10 -2.501736e-10 -3.847606e-10 1.820884e-11 2.755076e-10 2.565071e-10 -8.213769e-11 2.446812e-10 1.888177e-10 2.335481e-11
<VARIANCE> 39
 4.187243e+01 6.009408e+01 7.595177e+01 8.282796e+01 4.778630e+01 7.154459e+01 6.832973e+01 5.119468e+01 6.434221e+01 4.010469e+01 3.493262e+01 2.457936e+01 2.416324e+01 1.116265e+00 1.316838e+00 1.507257e+00 1.792183e+00 1.916434e+00 2.495733e+00 2.350824e+00 2.436618e+00 2.611890e+00 2.416298e+00 2.200972e+00 1.782301e+00 1.603670e+00 1.702006e-01 2.106898e-01 2.371141e-01 3.148418e-01 3.490519e-01 4.393112e-01 4.396379e-01 4.711943e-01 4.942226e-01 4.599516e-01 4.256383e-01 3.576615e-01 3.133541e-01
<GCONST> 1.168217e+02
<MIXTURE> 2 5.000000e-01
<MEAN> 39
 -4.707683e+00 5.947248e-01 -2.359022e+00 -2.529116e+00 -5.807150e-01 -3.899058e+00 -5.879866e-01 -2.546733e+00 -3.359112e+00 -1.947479e+00 -3.053110e+00 -1.799553e+00 -4.706514e-01 1.247701e-09 -4.053445e-10 -2.286396e-09 1.722714e-09 -5.066806e-10 -6.986651e-10 -9.397343e-10 7.695212e-10 2.444734e-09 -2.052057e-09 1.449384e-09 -3.641767e-11 9.025249e-11 -2.731325e-10 1.630878e-10 -4.259284e-10 2.525486e-10 -2.501736e-10 -3.847606e-10 1.820884e-11 2.755076e-10 2.565071e-10 -8.213769e-11 2.446812e-10 1.888177e-10 2.335481e-11
<VARIANCE> 39
 4.187243e+01 6.009408e+01 7.595177e+01 8.282796e+01 4.778630e+01 7.154459e+01 6.832973e+01 5.119468e+01 6.434221e+01 4.010469e+01 3.493262e+01 2.457936e+01 2.416324e+01 1.116265e+00 1.316838e+00 1.507257e+00 1.792183e+00 1.916434e+00 2.495733e+00 2.350824e+00 2.436618e+00 2.611890e+00 2.416298e+00 2.200972e+00 1.782301e+00 1.603670e+00 1.702006e-01 2.106898e-01 2.371141e-01 3.148418e-01 3.490519e-01 4.393112e-01 4.396379e-01 4.711943e-01 4.942226e-01 4.599516e-01 4.256383e-01 3.576615e-01 3.133541e-01
<GCONST> 1.168217e+02
<STATE> 3
<NUMMIXES> 2
<MIXTURE> 1 5.000000e-01
<MEAN> 39
 -4.707683e+00 5.947248e-01 -2.359022e+00 -2.529116e+00 -5.807150e-01 -3.899058e+00 -5.879866e-01 -2.546733e+00 -3.359112e+00 -1.947479e+00 -3.053110e+00 -1.799553e+00 -4.706514e-01 1.247701e-09 -4.053445e-10 -2.286396e-09 1.722714e-09 -5.066806e-10 -6.986651e-10 -9.397343e-10 7.695212e-10 2.444734e-09 -2.052057e-09 1.449384e-09 -3.641767e-11 9.025249e-11 -2.731325e-10 1.630878e-10 -4.259284e-10 2.525486e-10 -2.501736e-10 -3.847606e-10 1.820884e-11 2.755076e-10 2.565071e-10 -8.213769e-11 2.446812e-10 1.888177e-10 2.335481e-11
<VARIANCE> 39
 4.187243e+01 6.009408e+01 7.595177e+01 8.282796e+01 4.778630e+01 7.154459e+01 6.832973e+01 5.119468e+01 6.434221e+01 4.010469e+01 3.493262e+01 2.457936e+01 2.416324e+01 1.116265e+00 1.316838e+00 1.507257e+00 1.792183e+00 1.916434e+00 2.495733e+00 2.350824e+00 2.436618e+00 2.611890e+00 2.416298e+00 2.200972e+00 1.782301e+00 1.603670e+00 1.702006e-01 2.106898e-01 2.371141e-01 3.148418e-01 3.490519e-01 4.393112e-01 4.396379e-01 4.711943e-01 4.942226e-01 4.599516e-01 4.256383e-01 3.576615e-01 3.133541e-01
<GCONST> 1.168217e+02
<MIXTURE> 2 5.000000e-01
<MEAN> 39
 -4.707683e+00 5.947248e-01 -2.359022e+00 -2.529116e+00 -5.807150e-01 -3.899058e+00 -5.879866e-01 -2.546733e+00 -3.359112e+00 -1.947479e+00 -3.053110e+00 -1.799553e+00 -4.706514e-01 1.247701e-09 -4.053445e-10 -2.286396e-09 1.722714e-09 -5.066806e-10 -6.986651e-10 -9.397343e-10 7.695212e-10 2.444734e-09 -2.052057e-09 1.449384e-09 -3.641767e-11 9.025249e-11 -2.731325e-10 1.630878e-10 -4.259284e-10 2.525486e-10 -2.501736e-10 -3.847606e-10 1.820884e-11 2.755076e-10 2.565071e-10 -8.213769e-11 2.446812e-10 1.888177e-10 2.335481e-11
<VARIANCE> 39
 4.187243e+01 6.009408e+01 7.595177e+01 8.282796e+01 4.778630e+01 7.154459e+01 6.832973e+01 5.119468e+01 6.434221e+01 4.010469e+01 3.493262e+01 2.457936e+01 2.416324e+01 1.116265e+00 1.316838e+00 1.507257e+00 1.792183e+00 1.916434e+00 2.495733e+00 2.350824e+00 2.436618e+00 2.611890e+00 2.416298e+00 2.200972e+00 1.782301e+00 1.603670e+00 1.702006e-01 2.106898e-01 2.371141e-01 3.148418e-01 3.490519e-01 4.393112e-01 4.396379e-01 4.711943e-01 4.942226e-01 4.599516e-01 4.256383e-01 3.576615e-01 3.133541e-01
<GCONST> 1.168217e+02
<STATE> 4
<NUMMIXES> 2
<MIXTURE> 1 5.000000e-01
<MEAN> 39
 -4.707683e+00 5.947248e-01 -2.359022e+00 -2.529116e+00 -5.807150e-01 -3.899058e+00 -5.879866e-01 -2.546733e+00 -3.359112e+00 -1.947479e+00 -3.053110e+00 -1.799553e+00 -4.706514e-01 1.247701e-09 -4.053445e-10 -2.286396e-09 1.722714e-09 -5.066806e-10 -6.986651e-10 -9.397343e-10 7.695212e-10 2.444734e-09 -2.052057e-09 1.449384e-09 -3.641767e-11 9.025249e-11 -2.731325e-10 1.630878e-10 -4.259284e-10 2.525486e-10 -2.501736e-10 -3.847606e-10 1.820884e-11 2.755076e-10 2.565071e-10 -8.213769e-11 2.446812e-10 1.888177e-10 2.335481e-11
<VARIANCE> 39
 4.187243e+01 6.009408e+01 7.595177e+01 8.282796e+01 4.778630e+01 7.154459e+01 6.832973e+01 5.119468e+01 6.434221e+01 4.010469e+01 3.493262e+01 2.457936e+01 2.416324e+01 1.116265e+00 1.316838e+00 1.507257e+00 1.792183e+00 1.916434e+00 2.495733e+00 2.350824e+00 2.436618e+00 2.611890e+00 2.416298e+00 2.200972e+00 1.782301e+00 1.603670e+00 1.702006e-01 2.106898e-01 2.371141e-01 3.148418e-01 3.490519e-01 4.393112e-01 4.396379e-01 4.711943e-01 4.942226e-01 4.599516e-01 4.256383e-01 3.576615e-01 3.133541e-01
<GCONST> 1.168217e+02
<MIXTURE> 2 5.000000e-01
<MEAN> 39
 -4.707683e+00 5.947248e-01 -2.359022e+00 -2.529116e+00 -5.807150e-01 -3.899058e+00 -5.879866e-01 -2.546733e+00 -3.359112e+00 -1.947479e+00 -3.053110e+00 -1.799553e+00 -4.706514e-01 1.247701e-09 -4.053445e-10 -2.286396e-09 1.722714e-09 -5.066806e-10 -6.986651e-10 -9.397343e-10 7.695212e-10 2.444734e-09 -2.052057e-09 1.449384e-09 -3.641767e-11 9.025249e-11 -2.731325e-10 1.630878e-10 -4.259284e-10 2.525486e-10 -2.501736e-10 -3.847606e-10 1.820884e-11 2.755076e-10 2.565071e-10 -8.213769e-11 2.446812e-10 1.888177e-10 2.335481e-11
<VARIANCE> 39
 4.187243e+01 6.009408e+01 7.595177e+01 8.282796e+01 4.778630e+01 7.154459e+01 6.832973e+01 5.119468e+01 6.434221e+01 4.010469e+01 3.493262e+01 2.457936e+01 2.416324e+01 1.116265e+00 1.316838e+00 1.507257e+00 1.792183e+00 1.916434e+00 2.495733e+00 2.350824e+00 2.436618e+00 2.611890e+00 2.416298e+00 2.200972e+00 1.782301e+00 1.603670e+00 1.702006e-01 2.106898e-01 2.371141e-01 3.148418e-01 3.490519e-01 4.393112e-01 4.396379e-01 4.711943e-01 4.942226e-01 4.599516e-01 4.256383e-01 3.576615e-01 3.133541e-01
<GCONST> 1.168217e+02
<TRANSP> 5
 0.000000e+00 1.000000e+00 0.000000e+00 0.000000e+00 0.000000e+00
 0.000000e+00 6.000000e-01 4.000000e-01 0.000000e+00 0.000000e+00
 0.000000e+00 0.000000e+00 6.000000e-01 4.000000e-01 0.000000e+00
 0.000000e+00 0.000000e+00 0.000000e+00 6.000000e-01 4.000000e-01
 0.000000e+00 0.000000e+00 0.000000e+00 0.000000e+00 0.000000e+00
<ENDHMM>
~h "y"
<BEGINHMM>
<NUMSTATES> 5
<STATE> 2
<NUMMIXES> 2
<MIXTURE> 1 5.000000e-01
<MEAN> 39
 -6.238706e+00 2.186988e+01 8.049666e-01 -6.413408e+00 -5.640125e+00 -1.067821e+01 -1.523588e+01 -5.161041e+00 1.198464e+00 5.107753e-01 5.004540e+00 -6.301526e+00 -4.106691e-02 -7.269687e-02 -4.016420e-01 2.931219e-02 -1.802155e-01 -3.783440e-01 -8.672283e-02 3.076277e-01 -9.378058e-02 4.722812e-01 -1.177857e-02 -1.245780e-01 2.993916e-01 -7.794756e-02 -4.851377e-03 -1.038938e-01 7.017477e-04 -2.069451e-02 -7.050663e-03 1.332484e-01 2.035913e-01 3.791634e-02 -6.082036e-02 -1.062511e-01 -1.159779e-01 5.991291e-02 1.809279e-02
<VARIANCE> 39
 2.291186e+00 3.135725e+01 1.190871e+01 2.126817e+01 1.117785e+01 9.836427e+00 1.864913e+01 3.412557e+01 2.011390e+01 2.112502e+01 2.378321e+01 1.156427e+01 8.966362e+00 4.043589e-01 4.820469e-01 9.586612e-01 1.110891e+00 6.345018e-01 1.131626e+00 1.004327e+00 2.472726e+00 9.937807e-01 2.437576e+00 1.192967e+00 1.711526e+00 6.672286e-01 9.252452e-02 5.670283e-02 1.596304e-01 1.558473e-01 1.961067e-01 1.708625e-01 3.135586e-01 4.295844e-01 2.273417e-01 4.969499e-01 1.388040e-01 4.483764e-01 1.408547e-01
<GCONST> 8.544236e+01
<MIXTURE> 2 5.000000e-01
<MEAN> 39
 -6.238706e+00 2.186988e+01 8.049666e-01 -6.413408e+00 -5.640125e+00 -1.067821e+01 -1.523588e+01 -5.161041e+00 1.198464e+00 5.107753e-01 5.004540e+00 -6.301526e+00 -4.106691e-02 -7.269687e-02 -4.016420e-01 2.931219e-02 -1.802155e-01 -3.783440e-01 -8.672283e-02 3.076277e-01 -9.378058e-02 4.722812e-01 -1.177857e-02 -1.245780e-01 2.993916e-01 -7.794756e-02 -4.851377e-03 -1.038938e-01 7.017477e-04 -2.069451e-02 -7.050663e-03 1.332484e-01 2.035913e-01 3.791634e-02 -6.082036e-02 -1.062511e-01 -1.159779e-01 5.991291e-02 1.809279e-02
<VARIANCE> 39
 2.291186e+00 3.135725e+01 1.190871e+01 2.126817e+01 1.117785e+01 9.836427e+00 1.864913e+01 3.412557e+01 2.011390e+01 2.112502e+01 2.378321e+01 1.156427e+01 8.966362e+00 4.043589e-01 4.820469e-01 9.586612e-01 1.110891e+00 6.345018e-01 1.131626e+00 1.004327e+00 2.472726e+00 9.937807e-01 2.437576e+00 1.192967e+00 1.711526e+00 6.672286e-01 9.252452e-02 5.670283e-02 1.596304e-01 1.558473e-01 1.961067e-01 1.708625e-01 3.135586e-01 4.295844e-01 2.273417e-01 4.969499e-01 1.388040e-01 4.483764e-01 1.408547e-01
<GCONST> 8.544236e+01
<STATE> 3
<NUMMIXES> 2
<MIXTURE> 1 5.000000e-01
<MEAN> 39
 -7.868890e+00 6.034048e+00 8.525318e-01 -1.642202e+01 -1.292194e+01 5.917253e-01 -3.914204e+00 1.358325e+00 5.910228e+00 -4.943504e+00 -9.473060e+00 -9.951609e-01 -2.409244e+00 -2.687473e-02 -1.262614e+00 -9.699932e-01 2.915663e-01 -2.555662e-01 1.457414e+00 2.382755e+00 -5.622680e-01 -7.945104e-01 -1.030899e+00 -1.534777e+00 1.762292e-01 9.038818e-01 1.039354e-01 -1.202652e-01 -2.776410e-02 2.182536e-01 2.753448e-01 1.345711e-01 1.342064e-01 -3.253490e-01 -4.634118e-01 3.952573e-02 1.881072e-01 -6.062360e-02 2.208047e-01
<VARIANCE> 39
 4.187242e-01 7.368618e+00 6.205646e+00 4.201013e+00 2.159157e+00 9.021613e+00 2.988184e+01 1.002595e+01 4.924630e+00 7.857936e+00 1.370168e+01 6.186264e-01 5.185508e+00 7.425109e-02 1.625014e-01 1.575489e-01 4.338585e-01 6.469898e-01 6.289045e-01 4.029544e-01 9.871162e-01 1.417944e+00 2.168525e-01 9.151819e-01 1.371909e-01 4.245838e-01 9.939667e-03 9.871167e-03 3.069046e-02 6.550790e-02 7.532819e-02 5.761832e-02 2.009048e-01 9.321568e-02 1.494529e-01 1.161072e-01 1.761885e-01 2.645332e-02 3.170783e-02
<GCONST> 4.141270e+01
<MIXTURE> 2 5.000000e-01
<MEAN> 39
 -7.868890e+00 6.034048e+00 8.525318e-01 -1.642202e+01 -1.292194e+01 5.917253e-01 -3.914204e+00 1.358325e+00 5.910228e+00 -4.943504e+00 -9.473060e+00 -9.951609e-01 -2.409244e+00 -2.687473e-02 -1.262614e+00 -9.699932e-01 2.915663e-01 -2.555662e-01 1.457414e+00 2.382755e+00 -5.622680e-01 -7.945104e-01 -1.030899e+00 -1.534777e+00 1.762292e-01 9.038818e-01 1.039354e-01 -1.202652e-01 -2.776410e-02 2.182536e-01 2.753448e-01 1.345711e-01 1.342064e-01 -3.253490e-01 -4.634118e-01 3.952573e-02 1.881072e-01 -6.062360e-02 2.208047e-01
<VARIANCE> 39
 4.187242e-01 7.368618e+00 6.205646e+00 4.201013e+00 2.159157e+00 9.021613e+00 2.988184e+01 1.002595e+01 4.924630e+00 7.857936e+00 1.370168e+01 6.186264e-01 5.185508e+00 7.425109e-02 1.625014e-01 1.575489e-01 4.338585e-01 6.469898e-01 6.289045e-01 4.029544e-01 9.871162e-01 1.417944e+00 2.168525e-01 9.151819e-01 1.371909e-01 4.245838e-01 9.939667e-03 9.871167e-03 3.069046e-02 6.550790e-02 7.532819e-02 5.761832e-02 2.009048e-01 9.321568e-02 1.494529e-01 1.161072e-01 1.761885e-01 2.645332e-02 3.170783e-02
<GCONST> 4.141270e+01
<STATE> 4
<NUMMIXES> 2
<MIXTURE> 1 5.000000e-01
<MEAN> 39
 -7.592951e+00 -4.215767e+00 -4.348773e+00 -9.505552e+00 -6.973896e+00 7.612819e+00 7.670815e+00 -6.859575e+00 -7.764418e+00 -5.044075e+00 -1.012257e+01 -2.734775e+00 7.390151e+00 -6.499317e-02 -9.520603e-01 -5.243409e-01 1.131383e+00 1.162602e+00 -9.321149e-02 6.555644e-01 -1.104375e+00 -1.769966e+00 8.497577e-01 8.959196e-01 -3.424009e-01 5.674961e-01 -9.405918e-03 1.424333e-01 9.560123e-03 2.928001e-02 1.365517e-02 -2.371472e-01 -1.772957e-01 6.161240e-02 1.503618e-01 8.893888e-02 1.807241e-01 3.853699e-02 -3.070521e-01
<VARIANCE> 39
 5.622233e-01 9.605861e+00 3.873215e+00 1.520988e+01 1.904841e+01 6.112227e+00 1.343612e+01 1.363848e+01 3.475601e+01 1.366519e+01 1.649683e+01 6.029047e+00 9.531673e+00 1.006646e-01 2.835239e-01 3.038915e-01 1.522912e-01 3.199770e-01 9.301828e-01 3.028362e-01 2.494544e-01 1.170793e+00 1.145516e+00 6.715630e-01 4.349948e-01 1.924218e+00 2.228013e-02 2.121156e-02 8.660886e-02 4.082066e-02 6.434507e-02 9.475406e-02 9.179609e-02 6.412578e-02 1.314336e-01 2.519723e-01 8.126218e-02 1.012295e-01 1.500129e-01
<GCONST> 5.607616e+01
<MIXTURE> 2 5.000000e-01
<MEAN> 39
 -7.592951e+00 -4.215767e+00 -4.348773e+00 -9.505552e+00 -6.973896e+00 7.612819e+00 7.670815e+00 -6.859575e+00 -7.764418e+00 -5.044075e+00 -1.012257e+01 -2.734775e+00 7.390151e+00 -6.499317e-02 -9.520603e-01 -5.243409e-01 1.131383e+00 1.162602e+00 -9.321149e-02 6.555644e-01 -1.104375e+00 -1.769966e+00 8.497577e-01 8.959196e-01 -3.424009e-01 5.674961e-01 -9.405918e-03 1.424333e-01 9.560123e-03 2.928001e-02 1.365517e-02 -2.371472e-01 -1.772957e-01 6.161240e-02 1.503618e-01 8.893888e-02 1.807241e-01 3.853699e-02 -3.070521e-01
<VARIANCE> 39
 5.622233e-01 9.605861e+00 3.873215e+00 1.520988e+01 1.904841e+01 6.112227e+00 1.343612e+01 1.363848e+01 3.475601e+01 1.366519e+01 1.649683e+01 6.029047e+00 9.531673e+00 1.006646e-01 2.835239e-01 3.038915e-01 1.522912e-01 3.199770e-01 9.301828e-01 3.028362e-01 2.494544e-01 1.170793e+00 1.145516e+00 6.715630e-01 4.349948e-01 1.924218e+00 2.228013e-02 2.121156e-02 8.660886e-02 4.082066e-02 6.434507e-02 9.475406e-02 9.179609e-02 6.412578e-02 1.314336e-01 2.519723e-01 8.126218e-02 1.012295e-01 1.500129e-01
<GCONST> 5.607616e+01
<TRANSP> 5
 0.000000e+00 1.000000e+00 0.000000e+00 0.000000e+00 0.000000e+00
 0.000000e+00 9.032249e-01 9.677503e-02 0.000000e+00 0.000000e+00
 0.000000e+00 0.000000e+00 8.421068e-01 1.578932e-01 0.000000e+00
 0.000000e+00 0.000000e+00 0.000000e+00 8.913212e-01 1.086788e-01
 0.000000e+00 0.000000e+00 0.000000e+00 0.000000e+00 0.000000e+00
<ENDHMM>
~h "aa"
<BEGINHMM>
<NUMSTATES> 7
<STATE> 2
<NUMMIXES> 2
<MIXTURE> 1 5.000000e-01
<MEAN> 39
 -3.512362e+00 -5.492731e+00 -1.153112e+01 5.895430e+00 5.243104e+00 -6.636683e+00 3.744898e+00 -3.432252e+00 -1.745623e+00 -5.370801e+00 -3.671760e+00 -2.580055e+00 9.293709e-01 -1.607383e-01 -6.173028e-01 -5.696520e-01 1.846962e-01 5.561882e-01 4.070449e-01 2.468385e-01 -2.505485e-01 -6.234702e-01 -3.935566e-01 2.384429e-02 3.646809e-01 1.575706e-01 -6.506323e-02 4.377311e-02 1.359790e-01 -5.860215e-02 1.348591e-02 1.985190e-02 -1.663274e-01 2.219149e-02 -5.189674e-02 6.783771e-03 1.364378e-01 -1.339857e-02 -2.184041e-05
<VARIANCE> 39
 2.974868e+01 1.614906e+01 3.639209e+01 7.673013e+01 5.134794e+01 3.527938e+01 3.914905e+01 4.531008e+01 5.816242e+01 5.600414e+01 2.318578e+01 2.525907e+01 3.094421e+01 7.564709e-01 8.112444e-01 1.512804e+00 1.045433e+00 1.698845e+00 3.030807e+00 1.532043e+00 2.019831e+00 2.132534e+00 1.889875e+00 1.671996e+00 1.882755e+00 1.882099e+00 1.160259e-01 1.160487e-01 2.496240e-01 1.785124e-01 3.255849e-01 5.115086e-01 3.408785e-01 3.302631e-01 3.714664e-01 3.865136e-01 2.605915e-01 3.546560e-01 3.476180e-01
<GCONST> 1.078002e+02
<MIXTURE> 2 5.000000e-01
<MEAN> 39
 -3.512362e+00 -5.492731e+00 -1.153112e+01 5.895430e+00 5.243104e+00 -6.636683e+00 3.744898e+00 -3.432252e+00 -1.745623e+00 -5.370801e+00 -3.671760e+00 -2.580055e+00 9.293709e-01 -1.607383e-01 -6.173028e-01 -5.696520e-01 1.846962e-01 5.561882e-01 4.070449e-01 2.468385e-01 -2.505485e-01 -6.234702e-01 -3.935566e-01 2.384429e-02 3.646809e-01 1.575706e-01 -6.506323e-02 4.377311e-02 1.359790e-01 -5.860215e-02 1.348591e-02 1.985190e-02 -1.663274e-01 2.219149e-02 -5.189674e-02 6.783771e-03 1.364378e-01 -1.339857e-02 -2.184041e-05
<VARIANCE> 39
 2.974868e+01 1.614906e+01 3.639209e+01 7.673013e+01 5.134794e+01 3.527938e+01 3.914905e+01 4.531008e+01 5.816242e+01 5.600414e+01 2.318578e+01 2.525907e+01 3.094421e+01 7.564709e-01 8.112444e-01 1.512804e+00 1.045433e+00 1.698845e+00 3.030807e+00 1.532043e+00 2.019831e+00 2.132534e+00 1.889875e+00 1.671996e+00 1.882755e+00 1.882099e+00 1.160259e-01 1.160487e-01 2.496240e-01 1.785124e-01 3.255849e-01 5.115086e-01 3.408785e-01 3.302631e-01 3.714664e-01 3.865136e-01 2.605915e-01 3.546560e-01 3.476180e-01
<GCONST> 1.078002e+02
<STATE> 3
<NUMMIXES> 2
<MIXTURE> 1 5.000000e-01
<MEAN> 39
 -4.073196e+00 -9.659796e+00 -1.165553e+01 2.059805e+00 3.532061e+00 -2.688885e+00 7.607655e+00 -5.023259e+00 -1.273443e+01 -6.828210e+00 -2.040172e-01 9.347849e-01 -4.045034e-01 -3.253007e-01 -4.734499e-01 -2.529481e-01 5.955591e-01 8.793813e-01 -5.968035e-02 -4.111937e-01 -5.258976e-01 -4.567004e-01 3.472102e-01 8.231177e-01 3.960606e-02 -3.418101e-01 4.570513e-02 1.240874e-01 7.034205e-02 1.842652e-03 -1.477497e-01 -1.370568e-01 -4.011462e-02 1.019971e-01 1.995992e-01 9.845395e-02 -6.531953e-02 -1.108364e-01 -9.161616e-02
<VARIANCE> 39
 4.765936e+00 4.870828e+00 2.710699e+01 1.705038e+01 4.027817e+01 1.775109e+01 2.715213e+01 2.224479e+01 5.134995e+01 4.695428e+01 2.681468e+01 1.254269e+01 1.872543e+01 1.911279e-01 2.531103e-01 2.884728e-01 2.055193e-01 6.963056e-01 7.439741e-01 5.011584e-01 1.117464e+00 1.052535e+00 5.281576e-01 7.627711e-01 7.292814e-01 5.271475e-01 2.612615e-02 4.814673e-02 4.730847e-02 3.091191e-02 7.751272e-02 1.045377e-01 1.225227e-01 1.401890e-01 1.529625e-01 1.057687e-01 9.532535e-02 1.344004e-01 9.167892e-02
<GCONST> 6.860736e+01
<MIXTURE> 2 5.000000e-01
<MEAN> 39
 -4.073196e+00 -9.659796e+00 -1.165553e+01 2.059805e+00 3.532061e+00 -2.688885e+00 7.607655e+00 -5.023259e+00 -1.273443e+01 -6.828210e+00 -2.040172e-01 9.347849e-01 -4.045034e-01 -3.253007e-01 -4.734499e-01 -2.529481e-01 5.955591e-01 8.793813e-01 -5.968035e-02 -4.111937e-01 -5.258976e-01 -4.567004e-01 3.472102e-01 8.231177e-01 3.960606e-02 -3.418101e-01 4.570513e-02 1.240874e-01 7.034205e-02 1.842652e-03 -1.477497e-01 -1.370568e-01 -4.011462e-02 1.019971e-01 1.995992e-01 9.845395e-02 -6.531953e-02 -1.108364e-01 -9.161616e-02
<VARIANCE> 39
 4.765936e+00 4.870828e+00 2.710699e+01 1.705038e+01 4.027817e+01 1.775109e+01 2.715213e+01 2.224479e+01 5.134995e+01 4.695428e+01 2.681468e+01 1.254269e+01 1.872543e+01 1.911279e-01 2.531103e-01 2.884728e-01 2.055193e-01 6.963056e-01 7.439741e-01 5.011584e-01 1.117464e+00 1.052535e+00 5.281576e-01 7.627711e-01 7.292814e-01 5.271475e-01 2.612615e-02 4.814673e-02 4.730847e-02 3.091191e-02 7.751272e-02 1.045377e-01 1.225227e-01 1.401890e-01 1.529625e-01 1.057687e-01 9.532535e-02 1.344004e-01 9.167892e-02
<GCONST> 6.860736e+01
<STATE> 4
<NUMMIXES> 2
<MIXTURE> 1 5.000000e-01
<MEAN> 39
 -6.060961e+00 -1.103447e+01 -1.281659e+01 6.128109e+00 7.134024e+00 -5.392246e+00 4.828940e+00 -6.048110e+00 -1.306095e+01 -5.507058e+00 2.744456e+00 1.107616e+00 -3.656021e+00 -1.336774e-02 -1.725170e-02 1.707143e-01 -9.283800e-02 -1.702410e-01 5.432767e-02 1.853678e-01 5.019718e-02 -2.442673e-01 9.197506e-02 7.245559e-02 -1.288396e-01 -3.762041e-03 4.229087e-02 1.922504e-02 4.367867e-02 -7.633576e-02 -5.989209e-02 4.849466e-02 3.537817e-02 2.487046e-02 1.810946e-02 -3.937766e-03 -6.606735e-02 -1.361168e-02 6.434588e-02
<VARIANCE> 39
 2.706079e+00 3.031707e+00 1.846305e+01 1.617845e+01 1.873044e+01 1.422500e+01 1.935593e+01 1.770878e+01 3.331243e+01 2.560740e+01 1.404160e+01 1.275056e+01 1.063929e+01 1.387543e-01 9.305844e-02 1.914475e-01 2.872039e-01 2.660658e-01 2.919813e-01 2.938865e-01 2.923669e-01 4.654726e-01 3.888908e-01 3.914709e-01 4.107673e-01 3.520050e-01 1.521167e-02 1.476154e-02 1.830189e-02 1.991007e-02 2.783576e-02 3.006895e-02 3.317762e-02 4.156361e-02 4.292583e-02 4.420375e-02 4.699479e-02 5.675696e-02 2.896785e-02
<GCONST> 4.263764e+01
<MIXTURE> 2 5.000000e-01
<MEAN> 39
 -6.060961e+00 -1.103447e+01 -1.281659e+01 6.128109e+00 7.134024e+00 -5.392246e+00 4.828940e+00 -6.048110e+00 -1.306095e+01 -5.507058e+00 2.744456e+00 1.107616e+00 -3.656021e+00 -1.336774e-02 -1.725170e-02 1.707143e-01 -9.283800e-02 -1.702410e-01 5.432767e-02 1.853678e-01 5.019718e-02 -2.442673e-01 9.197506e-02 7.245559e-02 -1.288396e-01 -3.762041e-03 4.229087e-02 1.922504e-02 4.367867e-02 -7.633576e-02 -5.989209e-02 4.849466e-02 3.537817e-02 2.487046e-02 1.810946e-02 -3.937766e-03 -6.606735e-02 -1.361168e-02 6.434588e-02
<VARIANCE> 39
 2.706079e+00 3.031707e+00 1.846305e+01 1.617845e+01 1.873044e+01 1.422500e+01 1.935593e+01 1.770878e+01 3.331243e+01 2.560740e+01 1.404160e+01 1.275056e+01 1.063929e+01 1.387543e-01 9.305844e-02 1.914475e-01 2.872039e-01 2.660658e-01 2.919813e-01 2.938865e-01 2.923669e-01 4.654726e-01 3.888908e-01 3.914709e-01 4.107673e-01 3.520050e-01 1.521167e-02 1.476154e-02 1.830189e-02 1.991007e-02 2.783576e-02 3.006895e-02 3.317762e-02 4.156361e-02 4.292583e-02 4.420375e-02 4.699479e-02 5.675696e-02 2.896785e-02
<GCONST> 4.263764e+01
<STATE> 5
<NUMMIXES> 2
<MIXTURE> 1 5.000000e-01
<MEAN> 39
 -4.947941e+00 -1.101317e+01 -8.529050e+00 1.475217e+00 3.700298e+00 -1.425511e+00 9.114673e+00 -5.375201e+00 -1.643038e+01 -2.673110e+00 1.669790e+00 -1.348420e+00 -5.047776e-01 4.178495e-01 2.376156e-01 8.329300e-01 -1.021361e+00 -7.951670e-01 4.365865e-01 2.496631e-01 4.711412e-01 8.236548e-02 3.616371e-01 -6.264493e-01 -3.004475e-01 3.963396e-01 9.800477e-02 1.150417e-01 1.034496e-01 -6.485854e-02 -1.425484e-01 -1.181536e-01 -1.203890e-01 1.270400e-01 2.085385e-01 8.310022e-02 -1.442735e-01 1.192353e-02 -7.374871e-02
<VARIANCE> 39
 4.945012e+00 5.144024e+00 1.629845e+01 2.830326e+01 1.399495e+01 1.569340e+01 1.052418e+01 3.376485e+01 2.025322e+01 2.736967e+01 2.798446e+01 2.047229e+01 2.753824e+01 3.124581e-01 3.852503e-01 2.717500e-01 6.638333e-01 1.118397e+00 1.109784e+00 9.670225e-01 1.370013e+00 2.048562e+00 8.655078e-01 1.797413e+00 1.084059e+00 1.070342e+00 3.601070e-02 6.196363e-02 4.419683e-02 1.433734e-01 1.626137e-01 1.736211e-01 2.201637e-01 1.598818e-01 4.116974e-01 1.584989e-01 4.607036e-01 2.280742e-01 2.002140e-01
<GCONST> 8.160046e+01
<MIXTURE> 2 5.000000e-01
<MEAN> 39
 -4.947941e+00 -1.101317e+01 -8.529050e+00 1.475217e+00 3.700298e+00 -1.425511e+00 9.114673e+00 -5.375201e+00 -1.643038e+01 -2.673110e+00 1.669790e+00 -1.348420e+00 -5.047776e-01 4.178495e-01 2.376156e-01 8.329300e-01 -1.021361e+00 -7.951670e-01 4.365865e-01 2.496631e-01 4.711412e-01 8.236548e-02 3.616371e-01 -6.264493e-01 -3.004475e-01 3.963396e-01 9.800477e-02 1.150417e-01 1.034496e-01 -6.485854e-02 -1.425484e-01 -1.181536e-01 -1.203890e-01 1.270400e-01 2.085385e-01 8.310022e-02 -1.442735e-01 1.192353e-02 -7.374871e-02
<VARIANCE> 39
 4.945012e+00 5.144024e+00 1.629845e+01 2.830326e+01 1.399495e+01 1.569340e+01 1.052418e+01 3.376485e+01 2.025322e+01 2.736967e+01 2.798446e+01 2.047229e+01 2.753824e+01 3.124581e-01 3.852503e-01 2.717500e-01 6.638333e-01 1.118397e+00 1.109784e+00 9.670225e-01 1.370013e+00 2.048562e+00 8.655078e-01 1.797413e+00 1.084059e+00 1.070342e+00 3.601070e-02 6.196363e-02 4.419683e-02 1.433734e-01 1.626137e-01 1.736211e-01 2.201637e-01 1.598818e-01 4.116974e-01 1.584989e-01 4.607036e-01 2.280742e-01 2.002140e-01
<GCONST> 8.160046e+01
<STATE> 6
<NUMMIXES> 2
<MIXTURE> 1 5.000000e-01
<MEAN> 39
 -1.470827e+00 -6.784942e+00 -4.060673e+00 4.865811e-01 -2.131656e+00 -3.995269e+00 7.913802e+00 -1.870898e+00 -9.361197e+00 -1.617193e+00 -3.040698e+00 -3.224697e+00 -4.249443e-01 6.169519e-01 8.189923e-01 7.567604e-01 -2.553323e-01 -9.062439e-01 -5.344714e-01 -5.743123e-01 2.565584e-01 5.672529e-01 7.575656e-01 -1.846841e-01 -1.493333e-01 -1.854591e-01 -4.870036e-02 1.201461e-01 -3.049457e-02 2.027491e-01 1.480303e-01 -6.448251e-02 -1.180528e-01 -2.314640e-01 -5.685148e-02 -7.298549e-02 1.733368e-01 1.435459e-01 7.263466e-02
<VARIANCE> 39
 1.783478e+01 1.417584e+01 3.044449e+01 1.011502e+02 4.961683e+01 3.364157e+01 2.673345e+01 7.369698e+01 5.843889e+01 4.154597e+01 2.665792e+01 1.131880e+01 1.378747e+01 7.924604e-01 1.168407e+00 8.284788e-01 1.556333e+00 1.958305e+00 2.879398e+00 2.142742e+00 1.882758e+00 2.847715e+00 1.965573e+00 2.653636e+00 1.374326e+00 1.218911e+00 1.045710e-01 1.634257e-01 7.952337e-02 2.423137e-01 3.119198e-01 4.479233e-01 3.362926e-01 3.938332e-01 3.997122e-01 3.846820e-01 3.086637e-01 1.831096e-01 2.137745e-01
<GCONST> 1.045957e+02
<MIXTURE> 2 5.000000e-01
<MEAN> 39
 -1.470827e+00 -6.784942e+00 -4.060673e+00 4.865811e-01 -2.131656e+00 -3.995269e+00 7.913802e+00 -1.870898e+00 -9.361197e+00 -1.617193e+00 -3.040698e+00 -3.224697e+00 -4.249443e-01 6.169519e-01 8.189923e-01 7.567604e-01 -2.553323e-01 -9.062439e-01 -5.344714e-01 -5.743123e-01 2.565584e-01 5.672529e-01 7.575656e-01 -1.846841e-01 -1.493333e-01 -1.854591e-01 -4.870036e-02 1.201461e-01 -3.049457e-02 2.027491e-01 1.480303e-01 -6.448251e-02 -1.180528e-01 -2.314640e-01 -5.685148e-02 -7.298549e-02 1.733368e-01 1.435459e-01 7.263466e-02
<VARIANCE> 39
 1.783478e+01 1.417584e+01 3.044449e+01 1.011502e+02 4.961683e+01 3.364157e+01 2.673345e+01 7.369698e+01 5.843889e+01 4.154597e+01 2.665792e+01 1.131880e+01 1.378747e+01 7.924604e-01 1.168407e+00 8.284788e-01 1.556333e+00 1.958305e+00 2.879398e+00 2.142742e+00 1.882758e+00 2.847715e+00 1.965573e+00 2.653636e+00 1.374326e+00 1.218911e+00 1.045710e-01 1.634257e-01 7.952337e-02 2.423137e-01 3.119198e-01 4.479233e-01 3.362926e-01 3.938332e-01 3.997122e-01 3.846820e-01 3.086637e-01 1.831096e-01 2.137745e-01
<GCONST> 1.045957e+02
<TRANSP> 7
 0.000000e+00 1.000000e+00 0.000000e+00 0.000000e+00 0.000000e+00 0.000000e+00 0.000000e+00
 0.000000e+00 7.722633e-01 2.277367e-01 0.000000e+00 0.000000e+00 0.000000e+00 0.000000e+00
 0.000000e+00 0.000000e+00 7.792423e-01 2.207577e-01 0.000000e+00 0.000000e+00 0.000000e+00
 0.000000e+00 0.000000e+00 0.000000e+00 9.175813e-01 8.241870e-02 0.000000e+00 0.000000e+00
 0.000000e+00 0.000000e+00 0.000000e+00 0.000000e+00 7.861480e-01 2.138521e-01 0.000000e+00
 0.000000e+00 0.000000e+00 0.000000e+00 0.000000e+00 0.000000e+00 7.970785e-01 2.029214e-01
 0.000000e+00 0.000000e+00 0.000000e+00 0.000000e+00 0.000000e+00 0.000000e+00 0.000000e+00
<ENDHMM>
~h "ee"
<BEGINHMM>
<NUMSTATES> 7
<STATE> 2
<NUMMIXES> 2
<MIXTURE> 1 5.000000e-01
<MEAN> 39
 -6.685420e+00 5.637952e+00 3.426067e+00 -1.516202e+01 -9.960033e-01 1.297646e+00 -8.276046e+00 4.435870e+00 1.209233e+00 -5.100817e-01 -2.182945e+00 -7.570835e-01 -3.476383e+00 3.152659e-01 3.500453e-01 1.682876e-01 -7.953119e-01 -3.697681e-01 2.407268e-01 -3.131214e-01 1.001334e+00 1.329434e-01 -1.329270e-01 2.252599e-03 -1.001024e-01 -1.464476e-01 -3.995532e-02 4.559581e-02 -4.557383e-02 5.443330e-02 2.218495e-01 -1.939961e-01 1.046502e-01 1.751968e-02 -4.835910e-02 2.329048e-02 -9.510643e-02 -1.217335e-01 1.083678e-01
<VARIANCE> 39
 1.883215e+01 1.912811e+01 8.764211e+00 1.998625e+01 4.537695e+01 5.482399e+01 1.317314e+01 3.148401e+01 1.310047e+01 1.959261e+01 2.086642e+01 2.261420e+01 1.071176e+01 8.408691e-01 8.218025e-01 7.230287e-01 2.057603e+00 2.958310e+00 4.737032e+00 1.555110e+00 1.648569e+00 1.961660e+00 2.684277e+00 1.598608e+00 1.064635e+00 1.941585e+00 9.149849e-02 7.735783e-02 7.997926e-02 4.105106e-01 7.263478e-01 7.762210e-01 2.784683e-01 3.338064e-01 4.221508e-01 4.665043e-01 3.391042e-01 1.974776e-01 3.591684e-01
<GCONST> 1.004497e+02
<MIXTURE> 2 5.000000e-01
<MEAN> 39
 -6.685420e+00 5.637952e+00 3.426067e+00 -1.516202e+01 -9.960033e-01 1.297646e+00 -8.276046e+00 4.435870e+00 1.209233e+00 -5.100817e-01 -2.182945e+00 -7.570835e-01 -3.476383e+00 3.152659e-01 3.500453e-01 1.682876e-01 -7.953119e-01 -3.697681e-01 2.407268e-01 -3.131214e-01 1.001334e+00 1.329434e-01 -1.329270e-01 2.252599e-03 -1.001024e-01 -1.464476e-01 -3.995532e-02 4.559581e-02 -4.557383e-02 5.443330e-02 2.218495e-01 -1.939961e-01 1.046502e-01 1.751968e-02 -4.835910e-02 2.329048e-02 -9.510643e-02 -1.217335e-01 1.083678e-01
<VARIANCE> 39
 1.883215e+01 1.912811e+01 8.764211e+00 1.998625e+01 4.537695e+01 5.482399e+01 1.317314e+01 3.148401e+01 1.310047e+01 1.959261e+01 2.086642e+01 2.261420e+01 1.071176e+01 8.408691e-01 8.218025e-01 7.230287e-01 2.057603e+00 2.958310e+00 4.737032e+00 1.555110e+00 1.648569e+00 1.961660e+00 2.684277e+00 1.598608e+00 1.064635e+00 1.941585e+00 9.149849e-02 7.735783e-02 7.997926e-02 4.105106e-01 7.263478e-01 7.762210e-01 2.784683e-01 3.338064e-01 4.221508e-01 4.665043e-01 3.391042e-01 1.974776e-01 3.591684e-01
<GCONST> 1.004497e+02
<STATE> 3
<NUMMIXES> 2
<MIXTURE> 1 5.000000e-01
<MEAN> 39
 -6.411371e+00 8.401056e+00 2.263840e+00 -1.967710e+01 -3.917218e+00 -4.537375e-01 -8.015606e+00 1.042637e+01 2.318109e+00 -2.030547e+00 -1.391809e+00 -5.222930e+00 -2.715999e+00 -1.607071e-01 7.804356e-03 -7.613698e-02 -2.176617e-01 -3.078168e-01 1.551109e-01 -1.686278e-02 1.596023e-01 4.900150e-02 -3.072761e-02 -4.847335e-03 -8.079200e-02 -1.575167e-01 3.721673e-03 -2.124079e-03 6.691677e-03 1.021918e-01 1.932451e-02 4.466095e-02 -2.176423e-02 -4.903376e-02 -2.633518e-02 1.067153e-02 -1.863069e-02 3.584403e-02 2.898802e-03
<VARIANCE> 39
 1.102162e+01 1.012553e+01 6.789320e+00 7.815485e+00 1.187597e+01 7.153744e+00 4.104445e+00 1.390411e+01 6.797947e+00 5.127046e+00 8.417146e+00 7.243193e+00 6.481706e+00 6.326700e-01 6.160604e-01 3.257263e-01 4.061255e-01 3.871125e-01 5.714563e-01 5.233901e-01 4.566770e-01 5.671930e-01 4.598410e-01 4.075550e-01 4.148988e-01 2.734462e-01 1.265032e-01 1.306522e-01 7.971709e-02 6.558384e-02 7.618255e-02 1.945089e-01 8.328304e-02 9.395100e-02 1.376898e-01 1.017335e-01 7.333735e-02 3.713152e-02 5.234371e-02
<GCONST> 5.651489e+01
<MIXTURE> 2 5.000000e-01
<MEAN> 39
 -6.411371e+00 8.401056e+00 2.263840e+00 -1.967710e+01 -3.917218e+00 -4.537375e-01 -8.015606e+00 1.042637e+01 2.318109e+00 -2.030547e+00 -1.391809e+00 -5.222930e+00 -2.715999e+00 -1.607071e-01 7.804356e-03 -7.613698e-02 -2.176617e-01 -3.078168e-01 1.551109e-01 -1.686278e-02 1.596023e-01 4.900150e-02 -3.072761e-02 -4.847335e-03 -8.079200e-02 -1.575167e-01 3.721673e-03 -2.124079e-03 6.691677e-03 1.021918e-01 1.932451e-02 4.466095e-02 -2.176423e-02 -4.903376e-02 -2.633518e-02 1.067153e-02 -1.863069e-02 3.584403e-02 2.898802e-03
<VARIANCE> 39
 1.102162e+01 1.012553e+01 6.789320e+00 7.815485e+00 1.187597e+01 7.153744e+00 4.104445e+00 1.390411e+01 6.797947e+00 5.127046e+00 8.417146e+00 7.243193e+00 6.481706e+00 6.326700e-01 6.160604e-01 3.257263e-01 4.061255e-01 3.871125e-01 5.714563e-01 5.233901e-01 4.566770e-01 5.671930e-01 4.598410e-01 4.075550e-01 4.148988e-01 2.734462e-01 1.265032e-01 1.306522e-01 7.971709e-02 6.558384e-02 7.618255e-02 1.945089e-01 8.328304e-02 9.395100e-02 1.376898e-01 1.017335e-01 7.333735e-02 3.713152e-02 5.234371e-02
<GCONST> 5.651489e+01
<STATE> 4
<NUMMIXES> 2
<MIXTURE> 1 5.000000e-01
<MEAN> 39
 -6.481853e+00 9.066371e+00 2.519667e+00 -1.839410e+01 -5.281058e+00 -2.480848e+00 -1.470338e+01 3.107253e+00 -4.415981e-01 -1.145823e+00 -4.441248e+00 -4.937236e-01 -5.517712e+00 1.160190e-02 1.181798e-01 8.098336e-02 -5.732742e-02 4.636266e-02 -4.494576e-02 -8.640534e-02 2.723661e-02 -7.287589e-02 7.943884e-02 2.093798e-01 -1.242583e-01 -2.763040e-02 4.019078e-02 -1.879061e-02 5.524528e-02 7.110517e-02 -1.843539e-02 -1.730873e-03 5.902850e-02 -9.115022e-02 1.602525e-02 8.529931e-03 -8.043358e-02 5.778342e-02 6.222015e-02
<VARIANCE> 39
 6.073218e+00 5.732413e+00 6.003626e+00 7.567521e+00 5.298775e+01 5.810580e+00 2.019469e+01 3.059944e+01 2.246300e+01 2.661076e+01 6.341692e+00 1.297779e+01 1.239181e+01 7.587711e-02 8.581547e-02 2.442287e-01 1.866825e-01 2.572836e-01 1.716508e-01 3.588865e-01 2.259816e-01 1.545874e-01 4.745774e-01 2.068309e-01 3.690291e-01 1.268420e-01 4.824812e-03 1.604176e-02 1.390755e-02 1.964757e-02 2.294951e-02 2.753021e-02 3.567045e-02 4.630894e-02 2.404501e-02 4.125409e-02 3.827717e-02 2.443858e-02 2.515178e-02
<GCONST> 3.449862e+01
<MIXTURE> 2 5.000000e-01
<MEAN> 39
 -6.481853e+00 9.066371e+00 2.519667e+00 -1.839410e+01 -5.281058e+00 -2.480848e+00 -1.470338e+01 3.107253e+00 -4.415981e-01 -1.145823e+00 -4.441248e+00 -4.937236e-01 -5.517712e+00 1.160190e-02 1.181798e-01 8.098336e-02 -5.732742e-02 4.636266e-02 -4.494576e-02 -8.640534e-02 2.723661e-02 -7.287589e-02 7.943884e-02 2.093798e-01 -1.242583e-01 -2.763040e-02 4.019078e-02 -1.879061e-02 5.524528e-02 7.110517e-02 -1.843539e-02 -1.730873e-03 5.902850e-02 -9.115022e-02 1.602525e-02 8.529931e-03 -8.043358e-02 5.778342e-02 6.222015e-02
<VARIANCE> 39
 6.073218e+00 5.732413e+00 6.003626e+00 7.567521e+00 5.298775e+01 5.810580e+00 2.019469e+01 3.059944e+01 2.246300e+01 2.661076e+01 6.341692e+00 1.297779e+01 1.239181e+01 7.587711e-02 8.581547e-02 2.442287e-01 1.866825e-01 2.572836e-01 1.716508e-01 3.588865e-01 2.259816e-01 1.545874e-01 4.745774e-01 2.068309e-01 3.690291e-01 1.268420e-01 4.824812e-03 1.604176e-02 1.390755e-02 1.964757e-02 2.294951e-02 2.753021e-02 3.567045e-02 4.630894e-02 2.404501e-02 4.125409e-02 3.827717e-02 2.443858e-02 2.515178e-02
<GCONST> 3.449862e+01
<STATE> 5
<NUMMIXES> 2
<MIXTURE> 1 5.000000e-01
<MEAN> 39
 -5.352152e+00 3.876101e+00 3.615707e+00 -1.686110e+01 -2.059119e+00 5.727674e+00 -4.826782e+00 5.477327e+00 6.946657e-01 -1.856900e+00 -5.468084e+00 -1.813174e+00 -8.520736e-01 2.668756e-02 -4.455878e-02 1.089738e-01 9.989543e-02 -9.048194e-02 1.085054e-01 1.165624e-01 -1.090755e-01 -8.946739e-02 1.310066e-01 -2.963289e-01 1.163891e-01 8.572220e-02 3.663741e-02 2.898406e-02 1.821800e-02 5.661755e-02 -4.108781e-02 -5.210173e-02 6.499157e-03 -7.131500e-02 -7.333373e-04 6.052048e-02 -3.184566e-02 -6.726018e-03 5.249124e-02
<VARIANCE> 39
 3.775452e+00 1.114348e+01 5.755056e+00 7.772150e+00 3.865438e+01 2.051437e+01 1.792534e+01 1.161850e+01 2.145395e+01 1.019011e+01 1.104968e+01 1.140366e+01 6.218057e+00 2.305619e-01 4.851693e-01 7.126477e-01 8.785452e-01 1.182483e+00 7.246602e-01 9.277541e-01 8.836356e-01 1.372245e+00 1.300554e+00 9.627614e-01 8.320551e-01 5.478634e-01 4.025852e-02 9.829858e-02 1.098698e-01 1.472461e-01 1.032236e-01 1.219018e-01 1.558700e-01 1.009213e-01 3.028333e-01 2.811655e-01 2.080701e-01 1.500370e-01 1.360889e-01
<GCONST> 7.391835e+01
<MIXTURE> 2 5.000000e-01
<MEAN> 39
 -5.352152e+00 3.876101e+00 3.615707e+00 -1.686110e+01 -2.059119e+00 5.727674e+00 -4.826782e+00 5.477327e+00 6.946657e-01 -1.856900e+00 -5.468084e+00 -1.813174e+00 -8.520736e-01 2.668756e-02 -4.455878e-02 1.089738e-01 9.989543e-02 -9.048194e-02 1.085054e-01 1.165624e-01 -1.090755e-01 -8.946739e-02 1.310066e-01 -2.963289e-01 1.163891e-01 8.572220e-02 3.663741e-02 2.898406e-02 1.821800e-02 5.661755e-02 -4.108781e-02 -5.210173e-02 6.499157e-03 -7.131500e-02 -7.333373e-04 6.052048e-02 -3.184566e-02 -6.726018e-03 5.249124e-02
<VARIANCE> 39
 3.775452e+00 1.114348e+01 5.755056e+00 7.772150e+00 3.865438e+01 2.051437e+01 1.792534e+01 1.161850e+01 2.145395e+01 1.019011e+01 1.104968e+01 1.140366e+01 6.218057e+00 2.305619e-01 4.851693e-01 7.126477e-01 8.785452e-01 1.182483e+00 7.246602e-01 9.277541e-01 8.836356e-01 1.372245e+00 1.300554e+00 9.627614e-01 8.320551e-01 5.478634e-01 4.025852e-02 9.829858e-02 1.098698e-01 1.472461e-01 1.032236e-01 1.219018e-01 1.558700e-01 1.009213e-01 3.028333e-01 2.811655e-01 2.080701e-01 1.500370e-01 1.360889e-01
<GCONST> 7.391835e+01
<STATE> 6
<NUMMIXES> 2
<MIXTURE> 1 5.000000e-01
<MEAN> 39
 -4.841668e+00 9.013310e+00 4.250166e+00 -1.632546e+01 -8.643427e+00 1.815134e+00 -8.907747e+00 6.430813e+00 4.260551e+00 2.124113e+00 -5.564692e+00 7.171951e-01 -5.919561e+00 4.805306e-01 2.240047e-01 5.318535e-01 1.053876e+00 -9.938189e-02 -1.774529e-01 1.249215e-01 -8.265617e-01 1.200439e-01 2.497899e-01 -2.882019e-01 4.836696e-02 5.266684e-01 -2.127194e-04 6.996274e-02 1.468646e-01 1.809288e-01 1.884653e-01 -1.026901e-01 -1.027386e-01 -4.105930e-02 -2.975317e-01 -7.481071e-02 1.510457e-01 -9.124358e-02 1.978412e-01
<VARIANCE> 39
 1.233424e+01 2.123154e+01 7.284920e+00 3.831698e+01 2.403924e+01 2.270217e+01 1.825233e+01 8.149026e+01 4.458047e+01 2.359513e+01 1.403175e+01 3.107944e+01 2.330467e+01 1.210690e+00 1.431931e+00 8.268214e-01 4.195612e+00 2.734673e+00 1.014531e+00 1.097930e+00 6.565501e+00 7.143065e+00 3.196813e+00 1.217991e+00 2.542924e+00 2.669101e+00 2.918587e-01 3.171728e-01 1.954864e-01 8.634681e-01 5.125205e-01 1.989936e-01 1.901406e-01 1.584289e+00 1.927055e+00 7.067866e-01 3.113673e-01 4.331772e-01 5.472810e-01
<GCONST> 1.127601e+02
<MIXTURE> 2 5.000000e-01
<MEAN> 39
 -4.841668e+00 9.013310e+00 4.250166e+00 -1.632546e+01 -8.643427e+00 1.815134e+00 -8.907747e+00 6.430813e+00 4.260551e+00 2.124113e+00 -5.564692e+00 7.171951e-01 -5.919561e+00 4.805306e-01 2.240047e-01 5.318535e-01 1.053876e+00 -9.938189e-02 -1.774529e-01 1.249215e-01 -8.265617e-01 1.200439e-01 2.497899e-01 -2.882019e-01 4.836696e-02 5.266684e-01 -2.127194e-04 6.996274e-02 1.468646e-01 1.809288e-01 1.884653e-01 -1.026901e-01 -1.027386e-01 -4.105930e-02 -2.975317e-01 -7.481071e-02 1.510457e-01 -9.124358e-02 1.978412e-01
<VARIANCE> 39
 1.233424e+01 2.123154e+01 7.284920e+00 3.831698e+01 2.403924e+01 2.270217e+01 1.825233e+01 8.149026e+01 4.458047e+01 2.359513e+01 1.403175e+01 3.107944e+01 2.330467e+01 1.210690e+00 1.431931e+00 8.268214e-01 4.195612e+00 2.734673e+00 1.014531e+00 1.097930e+00 6.565501e+00 7.143065e+00 3.196813e+00 1.217991e+00 2.542924e+00 2.669101e+00 2.918587e-01 3.171728e-01 1.954864e-01 8.634681e-01 5.125205e-01 1.989936e-01 1.901406e-01 1.584289e+00 1.927055e+00 7.067866e-01 3.113673e-01 4.331772e-01 5.472810e-01
<GCONST> 1.127601e+02
<TRANSP> 7
 0.000000e+00 1.000000e+00 0.000000e+00 0.000000e+00 0.000000e+00 0.000000e+00 0.000000e+00
 0.000000e+00 8.013716e-01 1.986284e-01 0.000000e+00 0.000000e+00 0.000000e+00 0.000000e+00
 0.000000e+00 0.000000e+00 8.731611e-01 1.268389e-01 0.000000e+00 0.000000e+00 0.000000e+00
 0.000000e+00 0.000000e+00 0.000000e+00 8.791136e-01 1.208864e-01 0.000000e+00 0.000000e+00
 0.000000e+00 0.000000e+00 0.000000e+00 0.000000e+00 8.630952e-01 1.369049e-01 0.000000e+00
 0.000000e+00 0.000000e+00 0.000000e+00 0.000000e+00 0.000000e+00 7.928652e-01 2.071348e-01
 0.000000e+00 0.000000e+00 0.000000e+00 0.000000e+00 0.000000e+00 0.000000e+00 0.000000e+00
<ENDHMM>
~h "ii"
<BEGINHMM>
<NUMSTATES> 7
<STATE> 2
<NUMMIXES> 2
<MIXTURE> 1 5.000000e-01
<MEAN> 39
