~o
<STREAMINFO> 1 39
<VECSIZE> 39<NULLD><MFCC_D_A><DIAGC>
~h "a"
<BEGINHMM>
<NUMSTATES> 7
<STATE> 2
<NUMMIXES> 2
<MIXTURE> 1 5.000000e-01
<MEAN> 39
 -1.825443e+00 1.315415e+00 -2.733660e+00 -3.373517e+00 -1.205214e+00 -2.023343e+00 3.775030e+00 -3.479954e+00 -5.940948e+00 -1.874582e+00 -4.138342e+00 -1.463407e+00 1.080922e+00 1.478707e-01 1.233889e-01 -2.256057e-01 1.688982e-01 2.183644e-01 2.979098e-02 -4.423925e-02 2.178415e-01 -3.726294e-02 -3.253069e-01 4.211594e-02 -2.162828e-01 4.244148e-01 -1.743959e-01 -2.022573e-01 -1.350486e-01 1.376408e-01 6.717023e-02 -6.452367e-02 -6.477403e-02 1.721034e-01 1.011417e-01 -1.470360e-01 5.997632e-02 3.518684e-02 6.228659e-02
<VARIANCE> 39
 2.908801e+01 3.185792e+01 9.103381e+01 4.598582e+01 7.308719e+01 1.658382e+02 1.400273e+02 1.099524e+02 3.941016e+01 8.289856e+01 3.467016e+01 2.939001e+01 4.347616e+01 2.037854e+00 2.058823e+00 3.499768e+00 3.579154e+00 3.375844e+00 6.111617e+00 5.078440e+00 4.393914e+00 3.280246e+00 4.800934e+00 4.870747e+00 2.184205e+00 3.279389e+00 2.302607e-01 3.923456e-01 4.310277e-01 4.068483e-01 3.990430e-01 9.306844e-01 1.032347e+00 8.924069e-01 6.386442e-01 7.519622e-01 5.469135e-01 4.608471e-01 5.779471e-01
<GCONST> 1.332086e+02
<MIXTURE> 2 5.000000e-01
<MEAN> 39
 -1.825443e+00 1.315415e+00 -2.733660e+00 -3.373517e+00 -1.205214e+00 -2.023343e+00 3.775030e+00 -3.479954e+00 -5.940948e+00 -1.874582e+00 -4.138342e+00 -1.463407e+00 1.080922e+00 1.478707e-01 1.233889e-01 -2.256057e-01 1.688982e-01 2.183644e-01 2.979098e-02 -4.423925e-02 2.178415e-01 -3.726294e-02 -3.253069e-01 4.211594e-02 -2.162828e-01 4.244148e-01 -1.743959e-01 -2.022573e-01 -1.350486e-01 1.376408e-01 6.717023e-02 -6.452367e-02 -6.477403e-02 1.721034e-01 1.011417e-01 -1.470360e-01 5.997632e-02 3.518684e-02 6.228659e-02
<VARIANCE> 39
 2.908801e+01 3.185792e+01 9.103381e+01 4.598582e+01 7.308719e+01 1.658382e+02 1.400273e+02 1.099524e+02 3.941016e+01 8.289856e+01 3.467016e+01 2.939001e+01 4.347616e+01 2.037854e+00 2.058823e+00 3.499768e+00 3.579154e+00 3.375844e+00 6.111617e+00 5.078440e+00 4.393914e+00 3.280246e+00 4.800934e+00 4.870747e+00 2.184205e+00 3.279389e+00 2.302607e-01 3.923456e-01 4.310277e-01 4.068483e-01 3.990430e-01 9.306844e-01 1.032347e+00 8.924069e-01 6.386442e-01 7.519622e-01 5.469135e-01 4.608471e-01 5.779471e-01
<GCONST> 1.332086e+02
<STATE> 3
<NUMMIXES> 2
<MIXTURE> 1 5.000000e-01
<MEAN> 39
 -6.429736e+00 -3.358171e+00 -3.296361e+00 1.290825e+00 -5.224425e-01 -1.793441e+00 4.291772e+00 -2.906691e+00 -8.089859e+00 -2.061869e+00 -1.533636e+00 -2.719686e+00 8.341435e-01 2.602865e-01 -3.786049e-01 -3.501202e-01 4.861298e-02 8.597085e-02 -2.716907e-01 1.447284e-01 -6.142862e-02 4.770132e-02 -2.260200e-03 -1.416624e-02 7.138003e-02 3.525640e-02 9.462589e-03 -6.206144e-03 -3.010047e-02 6.751414e-03 -8.122037e-03 -2.366292e-02 3.042179e-02 3.301621e-02 -3.523647e-02 -3.497209e-02 -3.889087e-02 8.331668e-02 -5.990806e-03
<VARIANCE> 39
 3.637014e+01 5.049896e+01 4.363250e+01 4.049242e+01 5.344959e+01 4.426154e+01 4.766460e+01 3.880612e+01 7.643317e+01 4.034650e+01 4.379843e+01 2.851618e+01 2.126620e+01 1.945746e+00 3.434108e+00 2.762542e+00 2.522662e+00 2.883057e+00 3.703042e+00 3.739600e+00 3.414038e+00 4.829161e+00 3.783329e+00 3.761271e+00 2.430634e+00 2.667989e+00 3.392056e-01 6.252961e-01 4.298386e-01 5.138620e-01 4.851683e-01 5.857357e-01 7.430800e-01 5.811207e-01 9.375181e-01 6.858433e-01 7.671170e-01 5.273122e-01 4.418730e-01
<GCONST> 1.277156e+02
<MIXTURE> 2 5.000000e-01
<MEAN> 39
 -6.429736e+00 -3.358171e+00 -3.296361e+00 1.290825e+00 -5.224425e-01 -1.793441e+00 4.291772e+00 -2.906691e+00 -8.089859e+00 -2.061869e+00 -1.533636e+00 -2.719686e+00 8.341435e-01 2.602865e-01 -3.786049e-01 -3.501202e-01 4.861298e-02 8.597085e-02 -2.716907e-01 1.447284e-01 -6.142862e-02 4.770132e-02 -2.260200e-03 -1.416624e-02 7.138003e-02 3.525640e-02 9.462589e-03 -6.206144e-03 -3.010047e-02 6.751414e-03 -8.122037e-03 -2.366292e-02 3.042179e-02 3.301621e-02 -3.523647e-02 -3.497209e-02 -3.889087e-02 8.331668e-02 -5.990806e-03
<VARIANCE> 39
 3.637014e+01 5.049896e+01 4.363250e+01 4.049242e+01 5.344959e+01 4.426154e+01 4.766460e+01 3.880612e+01 7.643317e+01 4.034650e+01 4.379843e+01 2.851618e+01 2.126620e+01 1.945746e+00 3.434108e+00 2.762542e+00 2.522662e+00 2.883057e+00 3.703042e+00 3.739600e+00 3.414038e+00 4.829161e+00 3.783329e+00 3.761271e+00 2.430634e+00 2.667989e+00 3.392056e-01 6.252961e-01 4.298386e-01 5.138620e-01 4.851683e-01 5.857357e-01 7.430800e-01 5.811207e-01 9.375181e-01 6.858433e-01 7.671170e-01 5.273122e-01 4.418730e-01
<GCONST> 1.277156e+02
<STATE> 4
<NUMMIXES> 2
<MIXTURE> 1 5.000000e-01
<MEAN> 39
 -5.111861e-01 -2.283338e+00 -1.423676e+01 2.282751e+00 4.291608e+00 -3.198606e+00 4.249311e-01 -3.081153e+00 -1.153661e+00 -6.317114e+00 -5.065974e+00 -9.017180e-01 1.172979e+00 -7.638758e-02 -2.799879e-01 -2.989974e-01 2.038547e-01 1.136380e-01 5.080489e-02 1.094235e-01 3.797168e-01 -1.780638e-01 -3.934619e-01 -2.724920e-01 3.724040e-01 1.860435e-01 -1.523373e-01 4.527479e-02 2.101632e-01 6.829491e-03 -5.386111e-02 -5.381575e-02 6.685920e-02 -3.017852e-02 -2.305238e-01 6.536066e-02 1.858719e-01 3.509787e-02 -1.292217e-01
<VARIANCE> 39
 2.584443e+01 2.632683e+01 1.038847e+02 4.955299e+01 5.357309e+01 2.892279e+01 4.867445e+01 2.590141e+01 4.782143e+01 5.076052e+01 3.480352e+01 4.796445e+01 2.981195e+01 1.589704e+00 1.461680e+00 2.958771e+00 1.758777e+00 1.545992e+00 2.161631e+00 2.958475e+00 3.236893e+00 3.646372e+00 4.109239e+00 2.792880e+00 2.895550e+00 2.731114e+00 3.495525e-01 2.176480e-01 5.920928e-01 3.623828e-01 3.587503e-01 5.170250e-01 5.309678e-01 6.448819e-01 7.390386e-01 7.547946e-01 7.171192e-01 5.400679e-01 7.369301e-01
<GCONST> 1.228921e+02
<MIXTURE> 2 5.000000e-01
<MEAN> 39
 -5.111861e-01 -2.283338e+00 -1.423676e+01 2.282751e+00 4.291608e+00 -3.198606e+00 4.249311e-01 -3.081153e+00 -1.153661e+00 -6.317114e+00 -5.065974e+00 -9.017180e-01 1.172979e+00 -7.638758e-02 -2.799879e-01 -2.989974e-01 2.038547e-01 1.136380e-01 5.080489e-02 1.094235e-01 3.797168e-01 -1.780638e-01 -3.934619e-01 -2.724920e-01 3.724040e-01 1.860435e-01 -1.523373e-01 4.527479e-02 2.101632e-01 6.829491e-03 -5.386111e-02 -5.381575e-02 6.685920e-02 -3.017852e-02 -2.305238e-01 6.536066e-02 1.858719e-01 3.509787e-02 -1.292217e-01
<VARIANCE> 39
 2.584443e+01 2.632683e+01 1.038847e+02 4.955299e+01 5.357309e+01 2.892279e+01 4.867445e+01 2.590141e+01 4.782143e+01 5.076052e+01 3.480352e+01 4.796445e+01 2.981195e+01 1.589704e+00 1.461680e+00 2.958771e+00 1.758777e+00 1.545992e+00 2.161631e+00 2.958475e+00 3.236893e+00 3.646372e+00 4.109239e+00 2.792880e+00 2.895550e+00 2.731114e+00 3.495525e-01 2.176480e-01 5.920928e-01 3.623828e-01 3.587503e-01 5.170250e-01 5.309678e-01 6.448819e-01 7.390386e-01 7.547946e-01 7.171192e-01 5.400679e-01 7.369301e-01
<GCONST> 1.228921e+02
<STATE> 5
<NUMMIXES> 2
<MIXTURE> 1 5.000000e-01
<MEAN> 39
 -2.454229e+00 -6.286977e+00 -1.308548e+01 2.557418e+00 4.084939e+00 -7.548098e+00 4.203893e+00 -1.616949e+00 -7.650450e+00 -1.020786e+01 -3.596680e+00 2.250931e+00 9.580601e-01 -2.817259e-01 -1.271134e-01 4.093245e-01 -8.063114e-03 -4.051192e-01 -5.357808e-02 7.122582e-01 2.314204e-01 -1.282255e+00 6.340255e-02 5.980858e-01 -3.100092e-02 -2.429073e-01 1.107545e-02 1.128777e-01 1.531687e-01 -9.408868e-02 -9.042639e-02 1.073600e-01 -3.951056e-02 -1.820302e-01 3.956257e-02 2.597541e-01 -3.281168e-02 -2.139879e-01 -2.625027e-02
<VARIANCE> 39
 6.756117e+00 1.612067e+01 5.442088e+01 3.516877e+01 5.597690e+01 2.715126e+01 3.315760e+01 1.694668e+01 6.991566e+01 5.157292e+01 4.128249e+01 3.149684e+01 1.978636e+01 4.761342e-01 5.865927e-01 1.105817e+00 6.267632e-01 1.211249e+00 1.036054e+00 1.372288e+00 1.201883e+00 1.523487e+00 2.266572e+00 1.846119e+00 1.362933e+00 1.207099e+00 8.401924e-02 7.627172e-02 1.184211e-01 1.282658e-01 1.485380e-01 1.854723e-01 1.653274e-01 1.984804e-01 2.056437e-01 2.641994e-01 3.446222e-01 1.921808e-01 1.593701e-01
<GCONST> 9.365376e+01
<MIXTURE> 2 5.000000e-01
<MEAN> 39
 -2.454229e+00 -6.286977e+00 -1.308548e+01 2.557418e+00 4.084939e+00 -7.548098e+00 4.203893e+00 -1.616949e+00 -7.650450e+00 -1.020786e+01 -3.596680e+00 2.250931e+00 9.580601e-01 -2.817259e-01 -1.271134e-01 4.093245e-01 -8.063114e-03 -4.051192e-01 -5.357808e-02 7.122582e-01 2.314204e-01 -1.282255e+00 6.340255e-02 5.980858e-01 -3.100092e-02 -2.429073e-01 1.107545e-02 1.128777e-01 1.531687e-01 -9.408868e-02 -9.042639e-02 1.073600e-01 -3.951056e-02 -1.820302e-01 3.956257e-02 2.597541e-01 -3.281168e-02 -2.139879e-01 -2.625027e-02
<VARIANCE> 39
 6.756117e+00 1.612067e+01 5.442088e+01 3.516877e+01 5.597690e+01 2.715126e+01 3.315760e+01 1.694668e+01 6.991566e+01 5.157292e+01 4.128249e+01 3.149684e+01 1.978636e+01 4.761342e-01 5.865927e-01 1.105817e+00 6.267632e-01 1.211249e+00 1.036054e+00 1.372288e+00 1.201883e+00 1.523487e+00 2.266572e+00 1.846119e+00 1.362933e+00 1.207099e+00 8.401924e-02 7.627172e-02 1.184211e-01 1.282658e-01 1.485380e-01 1.854723e-01 1.653274e-01 1.984804e-01 2.056437e-01 2.641994e-01 3.446222e-01 1.921808e-01 1.593701e-01
<GCONST> 9.365376e+01
<STATE> 6
<NUMMIXES> 2
<MIXTURE> 1 5.000000e-01
<MEAN> 39
 -3.080238e+00 -5.433186e+00 -5.149148e+00 -2.950643e+00 -5.245003e+00 -2.966295e+00 1.006133e+01 -2.613645e+00 -1.196422e+01 -5.200026e-01 -5.889750e+00 -3.635205e+00 1.023422e+00 1.626668e-01 2.682766e-01 5.765271e-01 -2.579471e-01 -2.401811e-01 -8.111603e-02 -1.459102e-01 7.714074e-03 2.286003e-01 3.667011e-01 -2.030548e-01 -6.142166e-02 1.666805e-02 6.776725e-02 1.093649e-01 1.016508e-01 5.834476e-02 4.607208e-02 -8.951066e-02 -1.710180e-01 -1.581362e-02 1.658237e-01 -6.363331e-02 2.323285e-02 6.590044e-02 -4.376817e-02
<VARIANCE> 39
 8.814859e+00 1.388720e+01 4.122762e+01 4.175587e+01 5.047549e+01 3.330916e+01 3.186530e+01 2.375064e+01 3.330024e+01 4.540450e+01 3.267802e+01 2.194080e+01 2.259602e+01 4.768013e-01 6.632183e-01 1.071051e+00 1.144561e+00 1.498268e+00 1.756775e+00 1.559498e+00 1.325918e+00 1.757792e+00 2.196713e+00 1.560824e+00 1.125438e+00 1.041236e+00 4.958129e-02 7.004678e-02 8.473499e-02 1.522755e-01 1.751191e-01 2.605775e-01 2.552656e-01 2.231187e-01 2.332023e-01 3.483071e-01 2.272774e-01 1.960366e-01 1.784164e-01
<GCONST> 9.439657e+01
<MIXTURE> 2 5.000000e-01
<MEAN> 39
 -3.080238e+00 -5.433186e+00 -5.149148e+00 -2.950643e+00 -5.245003e+00 -2.966295e+00 1.006133e+01 -2.613645e+00 -1.196422e+01 -5.200026e-01 -5.889750e+00 -3.635205e+00 1.023422e+00 1.626668e-01 2.682766e-01 5.765271e-01 -2.579471e-01 -2.401811e-01 -8.111603e-02 -1.459102e-01 7.714074e-03 2.286003e-01 3.667011e-01 -2.030548e-01 -6.142166e-02 1.666805e-02 6.776725e-02 1.093649e-01 1.016508e-01 5.834476e-02 4.607208e-02 -8.951066e-02 -1.710180e-01 -1.581362e-02 1.658237e-01 -6.363331e-02 2.323285e-02 6.590044e-02 -4.376817e-02
<VARIANCE> 39
 8.814859e+00 1.388720e+01 4.122762e+01 4.175587e+01 5.047549e+01 3.330916e+01 3.186530e+01 2.375064e+01 3.330024e+01 4.540450e+01 3.267802e+01 2.194080e+01 2.259602e+01 4.768013e-01 6.632183e-01 1.071051e+00 1.144561e+00 1.498268e+00 1.756775e+00 1.559498e+00 1.325918e+00 1.757792e+00 2.196713e+00 1.560824e+00 1.125438e+00 1.041236e+00 4.958129e-02 7.004678e-02 8.473499e-02 1.522755e-01 1.751191e-01 2.605775e-01 2.552656e-01 2.231187e-01 2.332023e-01 3.483071e-01 2.272774e-01 1.960366e-01 1.784164e-01
<GCONST> 9.439657e+01
<TRANSP> 7
 0.000000e+00 1.000000e+00 0.000000e+00 0.000000e+00 0.000000e+00 0.000000e+00 0.000000e+00
 0.000000e+00 6.599714e-01 3.400286e-01 0.000000e+00 0.000000e+00 0.000000e+00 0.000000e+00
 0.000000e+00 0.000000e+00 8.241990e-01 1.758009e-01 0.000000e+00 0.000000e+00 0.000000e+00
 0.000000e+00 0.000000e+00 0.000000e+00 6.879609e-01 3.120391e-01 0.000000e+00 0.000000e+00
 0.000000e+00 0.000000e+00 0.000000e+00 0.000000e+00 7.213376e-01 2.786624e-01 0.000000e+00
 0.000000e+00 0.000000e+00 0.000000e+00 0.000000e+00 0.000000e+00 8.265088e-01 1.734912e-01
 0.000000e+00 0.000000e+00 0.000000e+00 0.000000e+00 0.000000e+00 0.000000e+00 0.000000e+00
<ENDHMM>
~h "b"
<BEGINHMM>
<NUMSTATES> 5
<STATE> 2
<NUMMIXES> 2
<MIXTURE> 1 5.000000e-01
<MEAN> 39
 4.464395e+00 1.529147e+00 -3.534033e-01 1.545917e+00 -1.498975e+00 -1.195003e+01 -5.131369e+00 2.908159e+00 -2.737957e+00 -4.254395e+00 -4.818760e+00 -2.934855e+00 2.130165e+00 1.379728e+00 9.512269e-01 1.444214e+00 1.303720e+00 8.909130e-01 -1.496104e+00 -1.403041e+00 -1.308554e-01 -9.347187e-01 -3.264818e-01 -2.322885e-02 1.116419e+00 -1.347044e-02 -1.799155e-01 1.269722e-01 -2.809707e-02 -1.292490e-01 -1.664191e-01 2.641734e-01 2.707778e-02 -2.787749e-01 -9.463178e-02 -4.667359e-02 -6.316868e-02 2.406497e-01 2.795840e-02
<VARIANCE> 39
 9.450884e+00 5.645042e+00 1.042872e+02 1.828531e+01 1.717174e+01 3.289227e+01 4.852750e+01 2.733164e+01 5.568488e+01 1.831934e+01 3.252444e+01 2.054377e+01 1.361405e+01 4.419489e-01 8.311248e-01 1.804690e+00 8.398798e-01 2.303698e+00 2.826066e+00 2.311724e+00 3.208605e+00 5.753849e+00 2.075015e+00 2.497476e+00 2.357863e+00 1.448837e+00 5.668116e-02 1.868419e-01 5.279387e-01 1.928972e-01 3.876082e-01 4.574647e-01 3.573842e-01 6.867038e-01 1.030247e+00 4.792972e-01 6.806617e-01 4.287495e-01 2.029316e-01
<GCONST> 1.071937e+02
<MIXTURE> 2 5.000000e-01
<MEAN> 39
 4.464395e+00 1.529147e+00 -3.534033e-01 1.545917e+00 -1.498975e+00 -1.195003e+01 -5.131369e+00 2.908159e+00 -2.737957e+00 -4.254395e+00 -4.818760e+00 -2.934855e+00 2.130165e+00 1.379728e+00 9.512269e-01 1.444214e+00 1.303720e+00 8.909130e-01 -1.496104e+00 -1.403041e+00 -1.308554e-01 -9.347187e-01 -3.264818e-01 -2.322885e-02 1.116419e+00 -1.347044e-02 -1.799155e-01 1.269722e-01 -2.809707e-02 -1.292490e-01 -1.664191e-01 2.641734e-01 2.707778e-02 -2.787749e-01 -9.463178e-02 -4.667359e-02 -6.316868e-02 2.406497e-01 2.795840e-02
<VARIANCE> 39
 9.450884e+00 5.645042e+00 1.042872e+02 1.828531e+01 1.717174e+01 3.289227e+01 4.852750e+01 2.733164e+01 5.568488e+01 1.831934e+01 3.252444e+01 2.054377e+01 1.361405e+01 4.419489e-01 8.311248e-01 1.804690e+00 8.398798e-01 2.303698e+00 2.826066e+00 2.311724e+00 3.208605e+00 5.753849e+00 2.075015e+00 2.497476e+00 2.357863e+00 1.448837e+00 5.668116e-02 1.868419e-01 5.279387e-01 1.928972e-01 3.876082e-01 4.574647e-01 3.573842e-01 6.867038e-01 1.030247e+00 4.792972e-01 6.806617e-01 4.287495e-01 2.029316e-01
<GCONST> 1.071937e+02
<STATE> 3
<NUMMIXES> 2
<MIXTURE> 1 5.000000e-01
<MEAN> 39
 1.016677e+01 8.627982e+00 3.371965e+00 5.293995e+00 4.322581e+00 -1.842997e+01 -9.340147e+00 -2.074801e+00 -2.147694e+00 -1.912889e+00 -7.071138e+00 1.443499e+00 1.199247e+00 3.070896e-01 4.338796e-01 -8.070192e-02 1.245299e-01 4.974738e-01 -3.114146e-01 -1.559456e-01 -3.399107e-01 4.323136e-01 4.610095e-01 -1.922712e-01 9.570393e-02 -4.672872e-01 -1.302623e-01 -9.161929e-02 -4.383837e-02 -5.993067e-02 -8.657625e-02 1.692711e-01 1.115249e-01 1.919656e-02 -4.775570e-03 -1.022657e-02 8.511320e-03 -9.352420e-02 1.988505e-03
<VARIANCE> 39
 1.031600e+01 1.612589e+01 4.506163e+01 2.185182e+01 3.608760e+01 2.185975e+01 4.629207e+01 3.335018e+01 2.996637e+01 4.064584e+01 2.314470e+01 1.269496e+01 3.224220e+01 9.452910e-02 2.456346e-01 6.320843e-01 9.319062e-01 9.687927e-01 1.591481e+00 1.312003e+00 1.352947e+00 1.119631e+00 1.532961e+00 1.189102e+00 1.008407e+00 9.501023e-01 5.797666e-02 6.865313e-02 8.949472e-02 1.873492e-01 1.675656e-01 3.006730e-01 2.595183e-01 2.702836e-01 3.633263e-01 2.987118e-01 2.333774e-01 2.120130e-01 1.870741e-01
<GCONST> 8.917960e+01
<MIXTURE> 2 5.000000e-01
<MEAN> 39
 1.016677e+01 8.627982e+00 3.371965e+00 5.293995e+00 4.322581e+00 -1.842997e+01 -9.340147e+00 -2.074801e+00 -2.147694e+00 -1.912889e+00 -7.071138e+00 1.443499e+00 1.199247e+00 3.070896e-01 4.338796e-01 -8.070192e-02 1.245299e-01 4.974738e-01 -3.114146e-01 -1.559456e-01 -3.399107e-01 4.323136e-01 4.610095e-01 -1.922712e-01 9.570393e-02 -4.672872e-01 -1.302623e-01 -9.161929e-02 -4.383837e-02 -5.993067e-02 -8.657625e-02 1.692711e-01 1.115249e-01 1.919656e-02 -4.775570e-03 -1.022657e-02 8.511320e-03 -9.352420e-02 1.988505e-03
<VARIANCE> 39
 1.031600e+01 1.612589e+01 4.506163e+01 2.185182e+01 3.608760e+01 2.185975e+01 4.629207e+01 3.335018e+01 2.996637e+01 4.064584e+01 2.314470e+01 1.269496e+01 3.224220e+01 9.452910e-02 2.456346e-01 6.320843e-01 9.319062e-01 9.687927e-01 1.591481e+00 1.312003e+00 1.352947e+00 1.119631e+00 1.532961e+00 1.189102e+00 1.008407e+00 9.501023e-01 5.797666e-02 6.865313e-02 8.949472e-02 1.873492e-01 1.675656e-01 3.006730e-01 2.595183e-01 2.702836e-01 3.633263e-01 2.987118e-01 2.333774e-01 2.120130e-01 1.870741e-01
<GCONST> 8.917960e+01
<STATE> 4
<NUMMIXES> 2
<MIXTURE> 1 5.000000e-01
<MEAN> 39
 3.961823e+00 5.135861e+00 -3.363248e+00 2.609640e+00 -1.144247e+00 -1.023602e+01 -5.754558e+00 -5.127373e+00 2.657704e+00 -1.762869e+00 -5.280775e+00 -1.168603e+00 -4.001257e-03 -1.382742e+00 -1.246205e+00 -1.902388e+00 -1.070206e+00 -9.471238e-01 1.437885e+00 1.238576e+00 -1.111445e-01 8.334417e-01 -7.695043e-01 3.200956e-01 -4.547928e-01 6.147522e-01 1.334644e-01 -2.400947e-02 -2.774440e-01 -8.993226e-02 3.400057e-01 -2.192673e-01 5.573295e-02 7.309420e-02 1.540917e-01 -8.868345e-02 -8.395235e-02 -1.936190e-02 -7.443656e-03
<VARIANCE> 39
 3.794478e+01 3.954087e+01 1.029676e+02 3.798882e+01 6.253518e+01 4.477171e+01 3.806937e+01 4.154607e+01 4.643756e+01 5.782072e+01 3.102410e+01 2.306021e+01 1.191021e+01 3.796911e+00 3.279220e+00 6.393525e+00 2.851275e+00 5.700125e+00 3.925975e+00 2.506159e+00 3.549783e+00 4.503465e+00 4.420151e+00 2.068182e+00 1.499908e+00 1.062035e+00 8.172035e-01 7.701935e-01 1.026159e+00 4.345134e-01 1.184639e+00 7.414551e-01 4.449635e-01 7.077155e-01 7.892136e-01 7.809691e-01 4.175554e-01 2.559197e-01 1.832884e-01
<GCONST> 1.274408e+02
<MIXTURE> 2 5.000000e-01
<MEAN> 39
 3.961823e+00 5.135861e+00 -3.363248e+00 2.609640e+00 -1.144247e+00 -1.023602e+01 -5.754558e+00 -5.127373e+00 2.657704e+00 -1.762869e+00 -5.280775e+00 -1.168603e+00 -4.001257e-03 -1.382742e+00 -1.246205e+00 -1.902388e+00 -1.070206e+00 -9.471238e-01 1.437885e+00 1.238576e+00 -1.111445e-01 8.334417e-01 -7.695043e-01 3.200956e-01 -4.547928e-01 6.147522e-01 1.334644e-01 -2.400947e-02 -2.774440e-01 -8.993226e-02 3.400057e-01 -2.192673e-01 5.573295e-02 7.309420e-02 1.540917e-01 -8.868345e-02 -8.395235e-02 -1.936190e-02 -7.443656e-03
<VARIANCE> 39
 3.794478e+01 3.954087e+01 1.029676e+02 3.798882e+01 6.253518e+01 4.477171e+01 3.806937e+01 4.154607e+01 4.643756e+01 5.782072e+01 3.102410e+01 2.306021e+01 1.191021e+01 3.796911e+00 3.279220e+00 6.393525e+00 2.851275e+00 5.700125e+00 3.925975e+00 2.506159e+00 3.549783e+00 4.503465e+00 4.420151e+00 2.068182e+00 1.499908e+00 1.062035e+00 8.172035e-01 7.701935e-01 1.026159e+00 4.345134e-01 1.184639e+00 7.414551e-01 4.449635e-01 7.077155e-01 7.892136e-01 7.809691e-01 4.175554e-01 2.559197e-01 1.832884e-01
<GCONST> 1.274408e+02
<TRANSP> 5
 0.000000e+00 1.000000e+00 0.000000e+00 0.000000e+00 0.000000e+00
 0.000000e+00 8.040137e-01 1.959863e-01 0.000000e+00 0.000000e+00
 0.000000e+00 0.000000e+00 9.235986e-01 7.640132e-02 0.000000e+00
 0.000000e+00 0.000000e+00 0.000000e+00 8.647620e-01 1.352380e-01
 0.000000e+00 0.000000e+00 0.000000e+00 0.000000e+00 0.000000e+00
<ENDHMM>
~h "c"
<BEGINHMM>
<NUMSTATES> 5
<STATE> 2
<NUMMIXES> 2
<MIXTURE> 1 5.000000e-01
<MEAN> 39
 -7.616216e+00 1.999059e+00 9.239081e-01 6.684968e-01 -4.562766e+00 2.105549e+00 2.550071e+00 -4.399421e+00 -3.586228e+00 -1.777940e+00 -4.874156e+00 -3.224467e+00 3.533313e+00 -1.924000e+00 -5.156531e-01 -1.020507e+00 -2.630050e-01 1.809301e-01 -3.252151e-01 -2.363124e-01 -4.249840e-02 6.647449e-01 -4.709798e-01 5.771330e-01 -4.658903e-01 1.050553e-01 -1.306280e-01 -6.526235e-02 -3.123445e-02 -1.379570e-01 3.510376e-02 -8.246876e-02 -1.313039e-01 1.577666e-02 5.199350e-02 -1.554418e-02 1.888790e-01 1.025300e-01 4.018908e-02
<VARIANCE> 39
 5.859640e+01 3.804485e+01 3.119974e+01 2.176014e+01 2.200891e+01 2.545966e+01 3.443285e+01 2.742515e+01 2.295673e+01 3.344989e+01 2.682644e+01 3.064684e+01 2.655889e+01 3.810400e+00 2.820740e+00 3.590801e+00 3.068031e+00 2.188028e+00 2.458751e+00 3.425088e+00 3.031535e+00 2.608431e+00 3.629165e+00 3.475551e+00 3.685260e+00 3.189448e+00 6.891243e-01 4.526078e-01 5.487262e-01 5.479470e-01 3.963214e-01 4.167637e-01 2.826504e-01 6.824154e-01 4.370365e-01 7.574030e-01 6.274117e-01 7.591206e-01 5.723883e-01
<GCONST> 1.222573e+02
<MIXTURE> 2 5.000000e-01
<MEAN> 39
 -7.616216e+00 1.999059e+00 9.239081e-01 6.684968e-01 -4.562766e+00 2.105549e+00 2.550071e+00 -4.399421e+00 -3.586228e+00 -1.777940e+00 -4.874156e+00 -3.224467e+00 3.533313e+00 -1.924000e+00 -5.156531e-01 -1.020507e+00 -2.630050e-01 1.809301e-01 -3.252151e-01 -2.363124e-01 -4.249840e-02 6.647449e-01 -4.709798e-01 5.771330e-01 -4.658903e-01 1.050553e-01 -1.306280e-01 -6.526235e-02 -3.123445e-02 -1.379570e-01 3.510376e-02 -8.246876e-02 -1.313039e-01 1.577666e-02 5.199350e-02 -1.554418e-02 1.888790e-01 1.025300e-01 4.018908e-02
<VARIANCE> 39
 5.859640e+01 3.804485e+01 3.119974e+01 2.176014e+01 2.200891e+01 2.545966e+01 3.443285e+01 2.742515e+01 2.295673e+01 3.344989e+01 2.682644e+01 3.064684e+01 2.655889e+01 3.810400e+00 2.820740e+00 3.590801e+00 3.068031e+00 2.188028e+00 2.458751e+00 3.425088e+00 3.031535e+00 2.608431e+00 3.629165e+00 3.475551e+00 3.685260e+00 3.189448e+00 6.891243e-01 4.526078e-01 5.487262e-01 5.479470e-01 3.963214e-01 4.167637e-01 2.826504e-01 6.824154e-01 4.370365e-01 7.574030e-01 6.274117e-01 7.591206e-01 5.723883e-01
<GCONST> 1.222573e+02
<STATE> 3
<NUMMIXES> 2
<MIXTURE> 1 5.000000e-01
<MEAN> 39
 -2.060321e+01 1.059459e+00 -5.198292e+00 -4.300275e+00 -2.968851e+00 -1.243899e+00 -2.470385e+00 -4.143635e+00 2.494225e+00 -2.733285e+00 -7.397665e-01 -4.903156e-01 1.376379e+00 4.367864e-01 4.571995e-01 4.628176e-01 -3.301519e-01 -1.717456e-01 2.025954e-01 -2.871167e-01 8.739836e-02 1.591913e-01 3.955731e-01 -6.506775e-01 2.861140e-01 -2.944372e-01 3.786090e-01 9.928093e-02 2.019410e-01 1.095906e-02 -9.779913e-02 9.315430e-02 6.156578e-02 2.107384e-02 -1.780342e-01 7.837559e-02 -1.865798e-01 -1.121912e-01 -1.132236e-01
<VARIANCE> 39
 1.884359e+01 2.322525e+01 1.760159e+01 1.699525e+01 2.030690e+01 2.374718e+01 1.876006e+01 2.025287e+01 2.135121e+01 2.315833e+01 3.106424e+01 2.056615e+01 1.807111e+01 2.106515e+00 1.675563e+00 2.153178e+00 2.093074e+00 2.145165e+00 2.982574e+00 2.326260e+00 2.469128e+00 2.612267e+00 2.585252e+00 3.265281e+00 2.978885e+00 1.528654e+00 2.539800e-01 3.466404e-01 3.303767e-01 5.718737e-01 4.877551e-01 7.091840e-01 5.494206e-01 5.152525e-01 5.158887e-01 5.670364e-01 6.567781e-01 5.646122e-01 3.442186e-01
<GCONST> 1.124081e+02
<MIXTURE> 2 5.000000e-01
<MEAN> 39
 -2.060321e+01 1.059459e+00 -5.198292e+00 -4.300275e+00 -2.968851e+00 -1.243899e+00 -2.470385e+00 -4.143635e+00 2.494225e+00 -2.733285e+00 -7.397665e-01 -4.903156e-01 1.376379e+00 4.367864e-01 4.571995e-01 4.628176e-01 -3.301519e-01 -1.717456e-01 2.025954e-01 -2.871167e-01 8.739836e-02 1.591913e-01 3.955731e-01 -6.506775e-01 2.861140e-01 -2.944372e-01 3.786090e-01 9.928093e-02 2.019410e-01 1.095906e-02 -9.779913e-02 9.315430e-02 6.156578e-02 2.107384e-02 -1.780342e-01 7.837559e-02 -1.865798e-01 -1.121912e-01 -1.132236e-01
<VARIANCE> 39
 1.884359e+01 2.322525e+01 1.760159e+01 1.699525e+01 2.030690e+01 2.374718e+01 1.876006e+01 2.025287e+01 2.135121e+01 2.315833e+01 3.106424e+01 2.056615e+01 1.807111e+01 2.106515e+00 1.675563e+00 2.153178e+00 2.093074e+00 2.145165e+00 2.982574e+00 2.326260e+00 2.469128e+00 2.612267e+00 2.585252e+00 3.265281e+00 2.978885e+00 1.528654e+00 2.539800e-01 3.466404e-01 3.303767e-01 5.718737e-01 4.877551e-01 7.091840e-01 5.494206e-01 5.152525e-01 5.158887e-01 5.670364e-01 6.567781e-01 5.646122e-01 3.442186e-01
<GCONST> 1.124081e+02
<STATE> 4
<NUMMIXES> 2
<MIXTURE> 1 5.000000e-01
<MEAN> 39
 -5.022930e+00 4.387486e+00 3.096138e+00 -9.415360e+00 -8.486662e+00 6.994588e-01 -3.181024e+00 -3.420194e+00 1.611005e-01 1.783418e+00 -8.844573e+00 -1.711044e+00 -3.552220e+00 1.358344e+00 -4.588626e-01 2.165045e-01 -9.821756e-01 -1.218535e+00 -4.505560e-01 9.430912e-02 2.244808e-01 -3.047719e-01 -2.654736e-02 3.191201e-01 -1.241704e-01 3.225264e-02 -6.736922e-01 -2.533655e-01 -4.109341e-01 9.181526e-02 1.637492e-01 -1.064389e-01 3.759778e-02 1.201164e-01 2.415631e-01 -3.206779e-01 3.342828e-01 1.522207e-01 2.769699e-01
<VARIANCE> 39
 1.699010e+01 2.443668e+01 2.086648e+01 2.633734e+01 1.712277e+01 1.850904e+01 4.693997e+01 1.814454e+01 2.135094e+01 2.105814e+01 1.381368e+01 1.709276e+01 1.577479e+01 5.303650e+00 1.571659e+00 2.079199e+00 2.149449e+00 1.774131e+00 2.632070e+00 3.040426e+00 2.548566e+00 2.328718e+00 4.247012e+00 2.136240e+00 1.416381e+00 2.022004e+00 4.391835e-01 3.794269e-01 2.582004e-01 3.027168e-01 2.799981e-01 4.584154e-01 4.734837e-01 3.331713e-01 2.387069e-01 5.176777e-01 5.245384e-01 2.641091e-01 3.203814e-01
<GCONST> 1.087148e+02
<MIXTURE> 2 5.000000e-01
<MEAN> 39
 -5.022930e+00 4.387486e+00 3.096138e+00 -9.415360e+00 -8.486662e+00 6.994588e-01 -3.181024e+00 -3.420194e+00 1.611005e-01 1.783418e+00 -8.844573e+00 -1.711044e+00 -3.552220e+00 1.358344e+00 -4.588626e-01 2.165045e-01 -9.821756e-01 -1.218535e+00 -4.505560e-01 9.430912e-02 2.244808e-01 -3.047719e-01 -2.654736e-02 3.191201e-01 -1.241704e-01 3.225264e-02 -6.736922e-01 -2.533655e-01 -4.109341e-01 9.181526e-02 1.637492e-01 -1.064389e-01 3.759778e-02 1.201164e-01 2.415631e-01 -3.206779e-01 3.342828e-01 1.522207e-01 2.769699e-01
<VARIANCE> 39
 1.699010e+01 2.443668e+01 2.086648e+01 2.633734e+01 1.712277e+01 1.850904e+01 4.693997e+01 1.814454e+01 2.135094e+01 2.105814e+01 1.381368e+01 1.709276e+01 1.577479e+01 5.303650e+00 1.571659e+00 2.079199e+00 2.149449e+00 1.774131e+00 2.632070e+00 3.040426e+00 2.548566e+00 2.328718e+00 4.247012e+00 2.136240e+00 1.416381e+00 2.022004e+00 4.391835e-01 3.794269e-01 2.582004e-01 3.027168e-01 2.799981e-01 4.584154e-01 4.734837e-01 3.331713e-01 2.387069e-01 5.176777e-01 5.245384e-01 2.641091e-01 3.203814e-01
<GCONST> 1.087148e+02
<TRANSP> 5
 0.000000e+00 1.000000e+00 0.000000e+00 0.000000e+00 0.000000e+00
 0.000000e+00 8.790378e-01 1.209622e-01 0.000000e+00 0.000000e+00
 0.000000e+00 0.000000e+00 9.292298e-01 7.077017e-02 0.000000e+00
 0.000000e+00 0.000000e+00 0.000000e+00 8.230327e-01 1.769673e-01
 0.000000e+00 0.000000e+00 0.000000e+00 0.000000e+00 0.000000e+00
<ENDHMM>
~h "d"
<BEGINHMM>
<NUMSTATES> 5
<STATE> 2
<NUMMIXES> 2
<MIXTURE> 1 5.000000e-01
<MEAN> 39
 5.062543e+00 1.189817e+01 4.944785e+00 -3.394683e+00 3.595500e+00 -1.755216e+01 -4.814758e-01 -8.869803e+00 -7.769301e+00 1.019276e+01 -3.763987e+00 -4.195532e-01 -3.312896e+00 3.976853e-01 1.570652e-01 1.920585e-01 1.426027e-01 -6.220499e-01 2.161268e-01 1.619370e-01 3.391048e-01 3.518579e-01 -2.419712e-01 1.630916e-03 -2.106127e-01 1.486570e-01 -7.162049e-02 -5.695333e-02 -2.768232e-02 -1.257166e-02 -1.454107e-01 1.663511e-01 9.558937e-03 1.359401e-01 1.878738e-01 -9.032463e-02 -4.766127e-02 -4.182955e-02 2.404093e-02
<VARIANCE> 39
 2.669262e+01 1.555052e+01 4.732689e+00 2.050823e+01 4.108451e+01 3.008689e+01 1.695983e+01 2.042645e+01 3.573076e+01 3.687444e+01 2.068212e+01 2.761377e+01 1.486623e+01 1.627562e+00 1.668014e+00 8.196616e-01 1.808960e+00 2.983371e+00 4.218304e+00 2.682293e+00 2.101855e+00 3.608710e+00 5.187631e+00 2.215077e+00 2.252945e+00 1.171836e+00 2.911813e-01 2.341665e-01 1.246525e-01 2.845662e-01 4.561421e-01 5.304762e-01 5.245140e-01 2.966196e-01 8.665388e-01 1.006225e+00 4.503326e-01 3.158431e-01 2.510091e-01
<GCONST> 1.090553e+02
<MIXTURE> 2 5.000000e-01
<MEAN> 39
 5.062543e+00 1.189817e+01 4.944785e+00 -3.394683e+00 3.595500e+00 -1.755216e+01 -4.814758e-01 -8.869803e+00 -7.769301e+00 1.019276e+01 -3.763987e+00 -4.195532e-01 -3.312896e+00 3.976853e-01 1.570652e-01 1.920585e-01 1.426027e-01 -6.220499e-01 2.161268e-01 1.619370e-01 3.391048e-01 3.518579e-01 -2.419712e-01 1.630916e-03 -2.106127e-01 1.486570e-01 -7.162049e-02 -5.695333e-02 -2.768232e-02 -1.257166e-02 -1.454107e-01 1.663511e-01 9.558937e-03 1.359401e-01 1.878738e-01 -9.032463e-02 -4.766127e-02 -4.182955e-02 2.404093e-02
<VARIANCE> 39
 2.669262e+01 1.555052e+01 4.732689e+00 2.050823e+01 4.108451e+01 3.008689e+01 1.695983e+01 2.042645e+01 3.573076e+01 3.687444e+01 2.068212e+01 2.761377e+01 1.486623e+01 1.627562e+00 1.668014e+00 8.196616e-01 1.808960e+00 2.983371e+00 4.218304e+00 2.682293e+00 2.101855e+00 3.608710e+00 5.187631e+00 2.215077e+00 2.252945e+00 1.171836e+00 2.911813e-01 2.341665e-01 1.246525e-01 2.845662e-01 4.561421e-01 5.304762e-01 5.245140e-01 2.966196e-01 8.665388e-01 1.006225e+00 4.503326e-01 3.158431e-01 2.510091e-01
<GCONST> 1.090553e+02
<STATE> 3
<NUMMIXES> 2
<MIXTURE> 1 5.000000e-01
<MEAN> 39
 4.740324e+00 7.631308e+00 5.824750e+00 -9.351493e-01 -8.668583e+00 -7.121125e+00 3.629512e+00 -3.431796e-01 -6.976942e+00 2.379234e+00 -7.294941e+00 -5.261540e+00 2.797886e+00 1.599130e-01 3.655412e-01 3.595574e-01 3.438273e-01 -1.304943e-01 1.369849e-01 -6.518422e-02 1.037250e-01 -1.413216e-01 -2.699654e-01 4.277835e-01 1.174582e-01 5.248776e-01 -3.877324e-02 7.480736e-02 -2.391274e-02 4.031293e-02 1.926427e-01 -6.416371e-02 -2.038277e-01 -2.486273e-01 -6.248898e-02 8.516531e-02 1.335308e-01 1.866712e-01 -3.610581e-02
<VARIANCE> 39
 5.761315e+01 8.306212e+01 4.225676e+01 4.081229e+01 2.481972e+01 5.383195e+01 4.225029e+01 1.815114e+01 2.252362e+01 1.801248e+01 1.894711e+01 2.489058e+01 1.450641e+01 2.802676e-01 2.715079e-01 5.470181e-01 5.659550e-01 8.580869e-01 8.132004e-01 1.566338e+00 9.916428e-01 1.293996e+00 1.425929e+00 1.618671e+00 1.495998e+00 1.464087e+00 2.278633e-02 4.246813e-02 9.141520e-02 1.023341e-01 1.738545e-01 1.770201e-01 2.976597e-01 1.407238e-01 2.184020e-01 2.021530e-01 2.565852e-01 1.998871e-01 2.705579e-01
<GCONST> 8.882598e+01
<MIXTURE> 2 5.000000e-01
<MEAN> 39
 4.740324e+00 7.631308e+00 5.824750e+00 -9.351493e-01 -8.668583e+00 -7.121125e+00 3.629512e+00 -3.431796e-01 -6.976942e+00 2.379234e+00 -7.294941e+00 -5.261540e+00 2.797886e+00 1.599130e-01 3.655412e-01 3.595574e-01 3.438273e-01 -1.304943e-01 1.369849e-01 -6.518422e-02 1.037250e-01 -1.413216e-01 -2.699654e-01 4.277835e-01 1.174582e-01 5.248776e-01 -3.877324e-02 7.480736e-02 -2.391274e-02 4.031293e-02 1.926427e-01 -6.416371e-02 -2.038277e-01 -2.486273e-01 -6.248898e-02 8.516531e-02 1.335308e-01 1.866712e-01 -3.610581e-02
<VARIANCE> 39
 5.761315e+01 8.306212e+01 4.225676e+01 4.081229e+01 2.481972e+01 5.383195e+01 4.225029e+01 1.815114e+01 2.252362e+01 1.801248e+01 1.894711e+01 2.489058e+01 1.450641e+01 2.802676e-01 2.715079e-01 5.470181e-01 5.659550e-01 8.580869e-01 8.132004e-01 1.566338e+00 9.916428e-01 1.293996e+00 1.425929e+00 1.618671e+00 1.495998e+00 1.464087e+00 2.278633e-02 4.246813e-02 9.141520e-02 1.023341e-01 1.738545e-01 1.770201e-01 2.976597e-01 1.407238e-01 2.184020e-01 2.021530e-01 2.565852e-01 1.998871e-01 2.705579e-01
<GCONST> 8.882598e+01
<STATE> 4
<NUMMIXES> 2
<MIXTURE> 1 5.000000e-01
<MEAN> 39
 -3.596781e-01 9.024172e+00 6.365448e+00 3.069382e+00 -6.187800e+00 -3.141852e+00 -2.855685e+00 -4.589319e+00 -6.139051e+00 -1.432847e-01 -1.834894e+00 -5.008000e-01 2.322502e+00 -1.589544e+00 -1.139006e+00 -1.018424e+00 -5.933686e-01 9.146580e-03 1.010373e+00 -1.436006e-01 1.084898e-01 6.276848e-01 -4.472043e-02 5.465003e-01 -1.243747e-01 -5.575831e-01 8.321762e-02 -9.856945e-02 -1.224481e-01 -1.718889e-01 -1.230954e-01 -2.835412e-01 3.046282e-03 3.563257e-01 4.528768e-02 2.430506e-01 -1.409339e-01 -1.730231e-01 -8.936436e-02
<VARIANCE> 39
 1.037102e+02 5.457494e+01 5.503820e+01 2.934681e+01 4.520593e+01 5.869460e+01 2.417423e+01 3.420727e+01 3.787978e+01 3.243842e+01 4.022529e+01 1.533629e+01 4.019953e+01 1.157081e+01 5.689890e+00 4.135318e+00 3.838140e+00 5.422345e+00 9.151846e+00 4.405890e+00 3.540635e+00 2.928908e+00 4.026298e+00 3.705746e+00 2.440951e+00 2.928272e+00 2.444710e+00 1.257473e+00 9.526580e-01 7.990099e-01 1.044042e+00 1.684357e+00 9.766114e-01 2.787790e-01 6.877927e-01 7.823286e-01 8.024573e-01 4.938764e-01 6.642326e-01
<GCONST> 1.370461e+02
<MIXTURE> 2 5.000000e-01
<MEAN> 39
 -3.596781e-01 9.024172e+00 6.365448e+00 3.069382e+00 -6.187800e+00 -3.141852e+00 -2.855685e+00 -4.589319e+00 -6.139051e+00 -1.432847e-01 -1.834894e+00 -5.008000e-01 2.322502e+00 -1.589544e+00 -1.139006e+00 -1.018424e+00 -5.933686e-01 9.146580e-03 1.010373e+00 -1.436006e-01 1.084898e-01 6.276848e-01 -4.472043e-02 5.465003e-01 -1.243747e-01 -5.575831e-01 8.321762e-02 -9.856945e-02 -1.224481e-01 -1.718889e-01 -1.230954e-01 -2.835412e-01 3.046282e-03 3.563257e-01 4.528768e-02 2.430506e-01 -1.409339e-01 -1.730231e-01 -8.936436e-02
<VARIANCE> 39
 1.037102e+02 5.457494e+01 5.503820e+01 2.934681e+01 4.520593e+01 5.869460e+01 2.417423e+01 3.420727e+01 3.787978e+01 3.243842e+01 4.022529e+01 1.533629e+01 4.019953e+01 1.157081e+01 5.689890e+00 4.135318e+00 3.838140e+00 5.422345e+00 9.151846e+00 4.405890e+00 3.540635e+00 2.928908e+00 4.026298e+00 3.705746e+00 2.440951e+00 2.928272e+00 2.444710e+00 1.257473e+00 9.526580e-01 7.990099e-01 1.044042e+00 1.684357e+00 9.766114e-01 2.787790e-01 6.877927e-01 7.823286e-01 8.024573e-01 4.938764e-01 6.642326e-01
<GCONST> 1.370461e+02
<TRANSP> 5
 0.000000e+00 1.000000e+00 0.000000e+00 0.000000e+00 0.000000e+00
 0.000000e+00 9.129115e-01 8.708846e-02 0.000000e+00 0.000000e+00
 0.000000e+00 0.000000e+00 9.032453e-01 9.675467e-02 0.000000e+00
 0.000000e+00 0.000000e+00 0.000000e+00 8.816732e-01 1.183268e-01
 0.000000e+00 0.000000e+00 0.000000e+00 0.000000e+00 0.000000e+00
<ENDHMM>
~h "g"
<BEGINHMM>
<NUMSTATES> 5
<STATE> 2
<NUMMIXES> 2
<MIXTURE> 1 5.000000e-01
<MEAN> 39
 5.411204e+00 -2.380388e+00 2.929948e+00 -2.339106e+00 -7.438281e+00 -6.417768e+00 -1.196417e+00 2.906387e+00 -1.260130e+01 4.175113e+00 1.030874e+00 -4.493889e+00 1.608432e+00 1.047148e+00 1.201446e+00 1.257978e+00 7.355972e-01 3.133962e-01 -1.243102e+00 -1.146551e+00 -1.314600e+00 -3.855620e-02 8.174732e-01 2.733836e-01 5.641919e-01 3.962984e-01 -7.076178e-02 7.692258e-03 -2.373409e-01 -9.162936e-02 2.267715e-01 7.614677e-02 1.955390e-01 -1.208501e-01 -7.678390e-02 -2.230966e-01 -1.797405e-01 6.179862e-02 -7.925835e-03
<VARIANCE> 39
 1.069027e+01 1.712431e+01 2.140722e+01 2.550760e+01 1.915413e+01 4.908564e+01 2.706425e+01 4.075953e+01 1.832700e+01 1.381516e+01 1.576672e+01 1.681332e+01 1.980626e+01 2.235096e-01 9.424400e-01 8.644698e-01 1.745722e+00 1.256818e+00 1.125539e+00 2.387084e+00 2.271290e+00 1.757496e+00 1.682115e+00 7.864547e-01 1.586202e+00 1.450553e+00 4.944216e-02 1.895779e-01 2.692730e-01 5.299339e-01 2.480789e-01 3.161224e-01 4.632187e-01 5.058680e-01 4.466141e-01 2.127819e-01 1.455917e-01 3.012532e-01 3.449224e-01
<GCONST> 9.655183e+01
<MIXTURE> 2 5.000000e-01
<MEAN> 39
 5.411204e+00 -2.380388e+00 2.929948e+00 -2.339106e+00 -7.438281e+00 -6.417768e+00 -1.196417e+00 2.906387e+00 -1.260130e+01 4.175113e+00 1.030874e+00 -4.493889e+00 1.608432e+00 1.047148e+00 1.201446e+00 1.257978e+00 7.355972e-01 3.133962e-01 -1.243102e+00 -1.146551e+00 -1.314600e+00 -3.855620e-02 8.174732e-01 2.733836e-01 5.641919e-01 3.962984e-01 -7.076178e-02 7.692258e-03 -2.373409e-01 -9.162936e-02 2.267715e-01 7.614677e-02 1.955390e-01 -1.208501e-01 -7.678390e-02 -2.230966e-01 -1.797405e-01 6.179862e-02 -7.925835e-03
<VARIANCE> 39
 1.069027e+01 1.712431e+01 2.140722e+01 2.550760e+01 1.915413e+01 4.908564e+01 2.706425e+01 4.075953e+01 1.832700e+01 1.381516e+01 1.576672e+01 1.681332e+01 1.980626e+01 2.235096e-01 9.424400e-01 8.644698e-01 1.745722e+00 1.256818e+00 1.125539e+00 2.387084e+00 2.271290e+00 1.757496e+00 1.682115e+00 7.864547e-01 1.586202e+00 1.450553e+00 4.944216e-02 1.895779e-01 2.692730e-01 5.299339e-01 2.480789e-01 3.161224e-01 4.632187e-01 5.058680e-01 4.466141e-01 2.127819e-01 1.455917e-01 3.012532e-01 3.449224e-01
<GCONST> 9.655183e+01
<STATE> 3
<NUMMIXES> 2
<MIXTURE> 1 5.000000e-01
<MEAN> 39
 4.025911e+00 1.199736e+00 3.806649e+00 -3.951966e+00 -7.280190e+00 -7.335465e+00 -1.692105e+00 4.596673e-02 -8.687828e+00 3.565623e+00 -3.515672e-02 -4.487339e+00 7.026651e-01 -4.197629e-01 4.921351e-01 -4.252966e-01 -2.127117e-01 3.390921e-01 -3.943790e-01 -1.149603e-01 5.880452e-01 2.632830e-01 -3.956405e-01 2.271594e-01 -8.230589e-02 -2.636912e-01 -9.914251e-02 -2.202686e-02 -4.027314e-02 6.088173e-02 4.628593e-02 -4.169608e-02 -8.640369e-02 1.239795e-01 -1.557022e-02 -1.332627e-01 1.413656e-01 -2.379802e-02 1.905054e-02
<VARIANCE> 39
 2.307779e+01 3.152265e+01 1.828591e+01 3.080711e+01 2.990785e+01 3.969309e+01 3.378200e+01 5.241577e+01 1.074570e+01 2.292343e+01 1.666249e+01 2.156327e+01 8.353324e+00 1.546948e+00 3.875739e+00 8.676887e-01 4.533888e+00 4.825228e+00 5.779098e+00 2.848088e+00 2.824378e+00 1.194137e+00 2.328089e+00 2.686368e+00 2.147182e+00 5.368047e-01 3.296593e-01 7.350095e-01 1.982781e-01 9.707304e-01 9.790536e-01 8.281388e-01 5.638772e-01 5.286607e-01 2.631414e-01 6.424192e-01 3.978004e-01 4.484386e-01 8.586779e-02
<GCONST> 1.129572e+02
<MIXTURE> 2 5.000000e-01
<MEAN> 39
 4.025911e+00 1.199736e+00 3.806649e+00 -3.951966e+00 -7.280190e+00 -7.335465e+00 -1.692105e+00 4.596673e-02 -8.687828e+00 3.565623e+00 -3.515672e-02 -4.487339e+00 7.026651e-01 -4.197629e-01 4.921351e-01 -4.252966e-01 -2.127117e-01 3.390921e-01 -3.943790e-01 -1.149603e-01 5.880452e-01 2.632830e-01 -3.956405e-01 2.271594e-01 -8.230589e-02 -2.636912e-01 -9.914251e-02 -2.202686e-02 -4.027314e-02 6.088173e-02 4.628593e-02 -4.169608e-02 -8.640369e-02 1.239795e-01 -1.557022e-02 -1.332627e-01 1.413656e-01 -2.379802e-02 1.905054e-02
<VARIANCE> 39
 2.307779e+01 3.152265e+01 1.828591e+01 3.080711e+01 2.990785e+01 3.969309e+01 3.378200e+01 5.241577e+01 1.074570e+01 2.292343e+01 1.666249e+01 2.156327e+01 8.353324e+00 1.546948e+00 3.875739e+00 8.676887e-01 4.533888e+00 4.825228e+00 5.779098e+00 2.848088e+00 2.824378e+00 1.194137e+00 2.328089e+00 2.686368e+00 2.147182e+00 5.368047e-01 3.296593e-01 7.350095e-01 1.982781e-01 9.707304e-01 9.790536e-01 8.281388e-01 5.638772e-01 5.286607e-01 2.631414e-01 6.424192e-01 3.978004e-01 4.484386e-01 8.586779e-02
<GCONST> 1.129572e+02
<STATE> 4
<NUMMIXES> 2
<MIXTURE> 1 5.000000e-01
<MEAN> 39
 -5.844452e-01 7.711515e+00 -1.799085e+00 -2.886279e+00 -3.926075e+00 -1.763401e+01 1.871035e-01 4.348636e+00 -6.802401e+00 1.034529e+00 2.937468e+00 -4.896467e+00 -2.574451e+00 -3.487930e-01 -7.135121e-01 -1.512701e-02 7.609835e-02 -5.844368e-01 1.094377e+00 9.059458e-01 -6.192614e-01 2.338623e-01 -1.882360e-01 -6.848482e-01 -9.726420e-02 2.564476e-01 -2.225884e-02 -2.443471e-01 1.056221e-02 -7.119291e-02 -2.902264e-02 4.233001e-01 1.285599e-01 -6.766649e-02 -8.935510e-02 5.988206e-02 -2.333471e-01 -1.100694e-02 9.039974e-02
<VARIANCE> 39
 1.339651e+01 2.676970e+01 9.427906e+01 1.630443e+01 5.843711e+01 1.107663e+02 6.817751e+01 5.585463e+01 2.575279e+01 2.032194e+01 3.684566e+01 1.980636e+01 1.078112e+01 1.310688e+00 2.753481e+00 2.717966e+00 1.676368e+00 4.803807e+00 8.532663e+00 2.515527e+00 1.594902e+00 4.351588e+00 4.176657e+00 2.698269e+00 1.553702e+00 1.602502e+00 1.542049e-01 3.384572e-01 4.197801e-01 2.014998e-01 1.029907e+00 7.768052e-01 6.789305e-01 3.627966e-01 7.707654e-01 6.940531e-01 6.043300e-01 2.667580e-01 2.029811e-01
<GCONST> 1.187633e+02
<MIXTURE> 2 5.000000e-01
<MEAN> 39
 -5.844452e-01 7.711515e+00 -1.799085e+00 -2.886279e+00 -3.926075e+00 -1.763401e+01 1.871035e-01 4.348636e+00 -6.802401e+00 1.034529e+00 2.937468e+00 -4.896467e+00 -2.574451e+00 -3.487930e-01 -7.135121e-01 -1.512701e-02 7.609835e-02 -5.844368e-01 1.094377e+00 9.059458e-01 -6.192614e-01 2.338623e-01 -1.882360e-01 -6.848482e-01 -9.726420e-02 2.564476e-01 -2.225884e-02 -2.443471e-01 1.056221e-02 -7.119291e-02 -2.902264e-02 4.233001e-01 1.285599e-01 -6.766649e-02 -8.935510e-02 5.988206e-02 -2.333471e-01 -1.100694e-02 9.039974e-02
<VARIANCE> 39
 1.339651e+01 2.676970e+01 9.427906e+01 1.630443e+01 5.843711e+01 1.107663e+02 6.817751e+01 5.585463e+01 2.575279e+01 2.032194e+01 3.684566e+01 1.980636e+01 1.078112e+01 1.310688e+00 2.753481e+00 2.717966e+00 1.676368e+00 4.803807e+00 8.532663e+00 2.515527e+00 1.594902e+00 4.351588e+00 4.176657e+00 2.698269e+00 1.553702e+00 1.602502e+00 1.542049e-01 3.384572e-01 4.197801e-01 2.014998e-01 1.029907e+00 7.768052e-01 6.789305e-01 3.627966e-01 7.707654e-01 6.940531e-01 6.043300e-01 2.667580e-01 2.029811e-01
<GCONST> 1.187633e+02
<TRANSP> 5
 0.000000e+00 1.000000e+00 0.000000e+00 0.000000e+00 0.000000e+00
 0.000000e+00 8.086432e-01 1.913568e-01 0.000000e+00 0.000000e+00
 0.000000e+00 0.000000e+00 9.122568e-01 8.774323e-02 0.000000e+00
 0.000000e+00 0.000000e+00 0.000000e+00 8.819764e-01 1.180236e-01
 0.000000e+00 0.000000e+00 0.000000e+00 0.000000e+00 0.000000e+00
<ENDHMM>
~h "h"
<BEGINHMM>
<NUMSTATES> 5
<STATE> 2
<NUMMIXES> 2
<MIXTURE> 1 5.000000e-01
<MEAN> 39
 -2.939679e+00 -4.674416e+00 -3.555731e+00 2.130973e+00 -3.963304e-01 -2.439749e+00 5.772198e+00 2.707858e+00 -3.143164e+00 2.173245e+00 -1.483026e+00 -9.153852e-01 8.075946e-01 1.319168e-01 -2.959442e-01 -1.114298e+00 8.939770e-01 1.688268e+00 -6.157856e-01 -9.409247e-01 5.967746e-01 7.652771e-01 -1.013874e+00 -1.985284e-01 8.034717e-01 2.093496e-01 -7.492898e-02 1.706788e-01 -9.521735e-02 -8.867197e-02 -2.309409e-02 1.349231e-01 -1.604601e-01 -2.770087e-02 3.661994e-01 -1.689376e-01 -1.496841e-01 -1.712852e-01 7.951709e-02
<VARIANCE> 39
 3.220309e+01 2.235485e+01 2.458771e+01 5.264685e+01 4.559369e+01 4.057267e+01 3.425274e+01 2.256739e+01 1.996376e+01 3.004582e+01 2.442101e+01 2.857108e+01 2.162035e+01 2.787334e-01 1.095989e+00 1.754391e+00 1.210378e+00 1.604403e+00 1.871565e+00 3.394578e+00 2.118143e+00 4.372908e+00 2.866710e+00 3.401708e+00 2.101679e+00 3.324323e+00 6.414874e-02 1.392702e-01 2.630605e-01 2.328735e-01 4.549720e-01 4.078979e-01 7.058612e-01 5.920137e-01 4.979107e-01 5.029209e-01 5.438672e-01 4.644464e-01 6.125565e-01
<GCONST> 1.106317e+02
<MIXTURE> 2 5.000000e-01
<MEAN> 39
 -2.939679e+00 -4.674416e+00 -3.555731e+00 2.130973e+00 -3.963304e-01 -2.439749e+00 5.772198e+00 2.707858e+00 -3.143164e+00 2.173245e+00 -1.483026e+00 -9.153852e-01 8.075946e-01 1.319168e-01 -2.959442e-01 -1.114298e+00 8.939770e-01 1.688268e+00 -6.157856e-01 -9.409247e-01 5.967746e-01 7.652771e-01 -1.013874e+00 -1.985284e-01 8.034717e-01 2.093496e-01 -7.492898e-02 1.706788e-01 -9.521735e-02 -8.867197e-02 -2.309409e-02 1.349231e-01 -1.604601e-01 -2.770087e-02 3.661994e-01 -1.689376e-01 -1.496841e-01 -1.712852e-01 7.951709e-02
<VARIANCE> 39
 3.220309e+01 2.235485e+01 2.458771e+01 5.264685e+01 4.559369e+01 4.057267e+01 3.425274e+01 2.256739e+01 1.996376e+01 3.004582e+01 2.442101e+01 2.857108e+01 2.162035e+01 2.787334e-01 1.095989e+00 1.754391e+00 1.210378e+00 1.604403e+00 1.871565e+00 3.394578e+00 2.118143e+00 4.372908e+00 2.866710e+00 3.401708e+00 2.101679e+00 3.324323e+00 6.414874e-02 1.392702e-01 2.630605e-01 2.328735e-01 4.549720e-01 4.078979e-01 7.058612e-01 5.920137e-01 4.979107e-01 5.029209e-01 5.438672e-01 4.644464e-01 6.125565e-01
<GCONST> 1.106317e+02
<STATE> 3
<NUMMIXES> 2
<MIXTURE> 1 5.000000e-01
<MEAN> 39
 -3.102113e+00 -5.084043e+00 -1.536298e+01 5.578958e+00 5.458519e+00 -2.508286e+00 -1.962964e-01 -1.652878e+00 6.193484e+00 -3.130658e+00 -4.251104e+00 -2.147223e+00 2.364323e+00 1.985591e-01 3.241918e-01 -4.450938e-01 -1.496497e-01 -7.466779e-02 1.306534e-01 -4.003553e-01 -4.073969e-01 5.157244e-01 2.524815e-01 2.232634e-01 -5.477440e-01 -6.515653e-02 6.675252e-02 7.220387e-02 1.457732e-01 -3.560663e-02 -5.705912e-02 8.270087e-03 5.187644e-02 5.754279e-03 -1.484099e-01 1.080796e-01 5.404692e-02 -3.374158e-02 -7.723347e-02
<VARIANCE> 39
 4.493952e+01 3.103676e+01 3.537040e+01 3.194051e+01 3.147112e+01 2.850394e+01 2.750379e+01 3.646261e+01 2.153909e+01 2.882055e+01 2.147658e+01 2.039780e+01 1.226082e+01 3.640997e-01 5.910122e-01 1.862624e+00 1.530427e+00 1.839088e+00 2.584575e+00 2.706681e+00 3.349022e+00 3.462997e+00 3.393693e+00 3.053892e+00 1.901891e+00 1.641336e+00 9.476666e-02 1.176096e-01 3.159357e-01 2.820112e-01 4.253262e-01 5.020130e-01 5.699316e-01 7.148021e-01 7.757394e-01 7.593579e-01 6.549001e-01 4.005085e-01 4.028150e-01
<GCONST> 1.105367e+02
<MIXTURE> 2 5.000000e-01
<MEAN> 39
 -3.102113e+00 -5.084043e+00 -1.536298e+01 5.578958e+00 5.458519e+00 -2.508286e+00 -1.962964e-01 -1.652878e+00 6.193484e+00 -3.130658e+00 -4.251104e+00 -2.147223e+00 2.364323e+00 1.985591e-01 3.241918e-01 -4.450938e-01 -1.496497e-01 -7.466779e-02 1.306534e-01 -4.003553e-01 -4.073969e-01 5.157244e-01 2.524815e-01 2.232634e-01 -5.477440e-01 -6.515653e-02 6.675252e-02 7.220387e-02 1.457732e-01 -3.560663e-02 -5.705912e-02 8.270087e-03 5.187644e-02 5.754279e-03 -1.484099e-01 1.080796e-01 5.404692e-02 -3.374158e-02 -7.723347e-02
<VARIANCE> 39
 4.493952e+01 3.103676e+01 3.537040e+01 3.194051e+01 3.147112e+01 2.850394e+01 2.750379e+01 3.646261e+01 2.153909e+01 2.882055e+01 2.147658e+01 2.039780e+01 1.226082e+01 3.640997e-01 5.910122e-01 1.862624e+00 1.530427e+00 1.839088e+00 2.584575e+00 2.706681e+00 3.349022e+00 3.462997e+00 3.393693e+00 3.053892e+00 1.901891e+00 1.641336e+00 9.476666e-02 1.176096e-01 3.159357e-01 2.820112e-01 4.253262e-01 5.020130e-01 5.699316e-01 7.148021e-01 7.757394e-01 7.593579e-01 6.549001e-01 4.005085e-01 4.028150e-01
<GCONST> 1.105367e+02
<STATE> 4
<NUMMIXES> 2
<MIXTURE> 1 5.000000e-01
<MEAN> 39
 -3.029224e+00 2.642822e+00 -4.139000e+00 -3.929214e+00 5.251253e+00 8.170678e-02 -3.276269e+00 6.672664e-01 2.512904e+00 1.025678e-01 -2.735054e+00 -2.299449e+00 -8.035672e-01 5.851319e-01 5.579111e-01 -2.193973e-01 -5.668215e-01 -3.093073e-01 -5.832375e-01 -2.790870e-02 1.774440e-01 2.823755e-02 2.970966e-01 -1.403158e-01 -3.690465e-02 -2.345673e-01 -1.302441e-01 -6.651289e-02 -6.029287e-02 -4.267818e-02 -4.782908e-02 -4.441674e-02 4.309753e-03 3.407031e-03 -6.498086e-02 7.222629e-03 -9.112200e-02 -1.807413e-02 6.171646e-02
<VARIANCE> 39
 4.309808e+01 3.970369e+01 1.050469e+02 1.595858e+02 2.633339e+01 4.728796e+01 3.287735e+01 4.475249e+01 3.594700e+01 1.858794e+01 1.397494e+01 2.320053e+01 1.142117e+01 1.755505e+00 1.540134e+00 1.625985e+00 2.251533e+00 2.247539e+00 2.191991e+00 3.055050e+00 2.802592e+00 2.503647e+00 2.113132e+00 1.888583e+00 2.410328e+00 1.201523e+00 2.294605e-01 2.046342e-01 3.035677e-01 4.338986e-01 4.031014e-01 5.089314e-01 6.349697e-01 4.855225e-01 6.580243e-01 3.883657e-01 3.644236e-01 6.004869e-01 2.261514e-01
<GCONST> 1.151744e+02
<MIXTURE> 2 5.000000e-01
<MEAN> 39
 -3.029224e+00 2.642822e+00 -4.139000e+00 -3.929214e+00 5.251253e+00 8.170678e-02 -3.276269e+00 6.672664e-01 2.512904e+00 1.025678e-01 -2.735054e+00 -2.299449e+00 -8.035672e-01 5.851319e-01 5.579111e-01 -2.193973e-01 -5.668215e-01 -3.093073e-01 -5.832375e-01 -2.790870e-02 1.774440e-01 2.823755e-02 2.970966e-01 -1.403158e-01 -3.690465e-02 -2.345673e-01 -1.302441e-01 -6.651289e-02 -6.029287e-02 -4.267818e-02 -4.782908e-02 -4.441674e-02 4.309753e-03 3.407031e-03 -6.498086e-02 7.222629e-03 -9.112200e-02 -1.807413e-02 6.171646e-02
<VARIANCE> 39
 4.309808e+01 3.970369e+01 1.050469e+02 1.595858e+02 2.633339e+01 4.728796e+01 3.287735e+01 4.475249e+01 3.594700e+01 1.858794e+01 1.397494e+01 2.320053e+01 1.142117e+01 1.755505e+00 1.540134e+00 1.625985e+00 2.251533e+00 2.247539e+00 2.191991e+00 3.055050e+00 2.802592e+00 2.503647e+00 2.113132e+00 1.888583e+00 2.410328e+00 1.201523e+00 2.294605e-01 2.046342e-01 3.035677e-01 4.338986e-01 4.031014e-01 5.089314e-01 6.349697e-01 4.855225e-01 6.580243e-01 3.883657e-01 3.644236e-01 6.004869e-01 2.261514e-01
<GCONST> 1.151744e+02
<TRANSP> 5
 0.000000e+00 1.000000e+00 0.000000e+00 0.000000e+00 0.000000e+00
 0.000000e+00 7.408747e-01 2.591253e-01 0.000000e+00 0.000000e+00
 0.000000e+00 0.000000e+00 8.598568e-01 1.401431e-01 0.000000e+00
 0.000000e+00 0.000000e+00 0.000000e+00 8.773620e-01 1.226380e-01
 0.000000e+00 0.000000e+00 0.000000e+00 0.000000e+00 0.000000e+00
<ENDHMM>
~h "i"
<BEGINHMM>
<NUMSTATES> 7
<STATE> 2
<NUMMIXES> 2
<MIXTURE> 1 5.000000e-01
<MEAN> 39
 -3.395583e+00 3.746403e+00 6.469018e+00 -6.780726e+00 -3.649207e+00 -2.325700e+00 -7.230731e+00 -2.869646e+00 -2.336895e+00 -1.306517e+00 -7.601039e+00 2.792727e-01 1.778962e+00 -3.460564e-01 2.542092e-01 -5.468524e-02 -1.340625e+00 -9.603509e-01 8.925902e-01 -7.592945e-01 5.973749e-01 4.861895e-01 2.374287e-01 -6.415582e-02 1.212214e-01 -5.336149e-02 -3.017365e-02 -9.205870e-02 -1.615623e-01 -3.837457e-02 2.905958e-01 -2.510331e-02 4.573889e-02 9.218644e-02 9.395161e-02 -1.621348e-01 9.205911e-04 1.198033e-01 -5.475311e-02
<VARIANCE> 39
 2.944048e+01 2.634562e+01 1.518569e+01 8.793686e+01 2.889387e+01 4.738268e+01 2.733756e+01 3.127916e+01 4.366131e+01 2.709579e+01 2.755461e+01 1.374094e+01 3.427373e+01 2.843670e+00 1.454789e+00 1.690347e+00 3.449231e+00 2.404459e+00 5.857407e+00 3.445062e+00 2.592109e+00 2.483812e+00 5.605040e+00 3.383650e+00 2.045407e+00 1.824525e+00 3.706795e-01 2.481404e-01 3.003168e-01 6.332442e-01 4.901280e-01 7.279144e-01 3.048987e-01 4.556078e-01 4.478028e-01 8.528315e-01 5.404233e-01 4.316113e-01 3.761609e-01
<GCONST> 1.187880e+02
<MIXTURE> 2 5.000000e-01
<MEAN> 39
 -3.395583e+00 3.746403e+00 6.469018e+00 -6.780726e+00 -3.649207e+00 -2.325700e+00 -7.230731e+00 -2.869646e+00 -2.336895e+00 -1.306517e+00 -7.601039e+00 2.792727e-01 1.778962e+00 -3.460564e-01 2.542092e-01 -5.468524e-02 -1.340625e+00 -9.603509e-01 8.925902e-01 -7.592945e-01 5.973749e-01 4.861895e-01 2.374287e-01 -6.415582e-02 1.212214e-01 -5.336149e-02 -3.017365e-02 -9.205870e-02 -1.615623e-01 -3.837457e-02 2.905958e-01 -2.510331e-02 4.573889e-02 9.218644e-02 9.395161e-02 -1.621348e-01 9.205911e-04 1.198033e-01 -5.475311e-02
<VARIANCE> 39
 2.944048e+01 2.634562e+01 1.518569e+01 8.793686e+01 2.889387e+01 4.738268e+01 2.733756e+01 3.127916e+01 4.366131e+01 2.709579e+01 2.755461e+01 1.374094e+01 3.427373e+01 2.843670e+00 1.454789e+00 1.690347e+00 3.449231e+00 2.404459e+00 5.857407e+00 3.445062e+00 2.592109e+00 2.483812e+00 5.605040e+00 3.383650e+00 2.045407e+00 1.824525e+00 3.706795e-01 2.481404e-01 3.003168e-01 6.332442e-01 4.901280e-01 7.279144e-01 3.048987e-01 4.556078e-01 4.478028e-01 8.528315e-01 5.404233e-01 4.316113e-01 3.761609e-01
<GCONST> 1.187880e+02
<STATE> 3
<NUMMIXES> 2
<MIXTURE> 1 5.000000e-01
<MEAN> 39
 -6.447628e+00 5.306357e-01 3.750361e+00 -1.649706e+01 -5.224128e+00 5.153455e+00 -3.511006e+00 -1.112989e+00 -2.875651e+00 -5.293030e+00 -9.653848e+00 -6.999873e-01 3.080980e+00 -8.074795e-02 3.026510e-01 1.418825e-01 -5.771666e-01 1.286082e-01 -2.577384e-01 -3.427756e-01 4.786820e-01 5.526111e-01 -3.813065e-01 2.090922e-01 -6.814616e-02 -4.038309e-01 3.690664e-02 3.924293e-02 4.105104e-03 2.016668e-01 1.059105e-02 -1.907851e-01 5.687026e-02 -1.266051e-01 -9.088891e-02 1.167141e-01 9.161297e-02 -1.165360e-01 5.424007e-02
<VARIANCE> 39
 2.317134e+00 2.795464e+01 1.405374e+01 1.831179e+01 1.528150e+01 2.292378e+01 5.239713e+01 1.280495e+01 1.530019e+01 1.682384e+01 2.491173e+01 1.714058e+01 1.969612e+01 1.143140e-01 4.145110e-01 3.573715e-01 5.750862e-01 5.140696e-01 6.340088e-01 9.837111e-01 8.799462e-01 1.186385e+00 5.456505e-01 7.166036e-01 7.467378e-01 9.717046e-01 3.113358e-02 3.250482e-02 4.714342e-02 6.538739e-02 1.022936e-01 1.309121e-01 1.239100e-01 1.176082e-01 1.406047e-01 1.194545e-01 1.558126e-01 1.149140e-01 9.672108e-02
<GCONST> 6.970327e+01
<MIXTURE> 2 5.000000e-01
<MEAN> 39
 -6.447628e+00 5.306357e-01 3.750361e+00 -1.649706e+01 -5.224128e+00 5.153455e+00 -3.511006e+00 -1.112989e+00 -2.875651e+00 -5.293030e+00 -9.653848e+00 -6.999873e-01 3.080980e+00 -8.074795e-02 3.026510e-01 1.418825e-01 -5.771666e-01 1.286082e-01 -2.577384e-01 -3.427756e-01 4.786820e-01 5.526111e-01 -3.813065e-01 2.090922e-01 -6.814616e-02 -4.038309e-01 3.690664e-02 3.924293e-02 4.105104e-03 2.016668e-01 1.059105e-02 -1.907851e-01 5.687026e-02 -1.266051e-01 -9.088891e-02 1.167141e-01 9.161297e-02 -1.165360e-01 5.424007e-02
<VARIANCE> 39
 2.317134e+00 2.795464e+01 1.405374e+01 1.831179e+01 1.528150e+01 2.292378e+01 5.239713e+01 1.280495e+01 1.530019e+01 1.682384e+01 2.491173e+01 1.714058e+01 1.969612e+01 1.143140e-01 4.145110e-01 3.573715e-01 5.750862e-01 5.140696e-01 6.340088e-01 9.837111e-01 8.799462e-01 1.186385e+00 5.456505e-01 7.166036e-01 7.467378e-01 9.717046e-01 3.113358e-02 3.250482e-02 4.714342e-02 6.538739e-02 1.022936e-01 1.309121e-01 1.239100e-01 1.176082e-01 1.406047e-01 1.194545e-01 1.558126e-01 1.149140e-01 9.672108e-02
<GCONST> 6.970327e+01
<STATE> 4
<NUMMIXES> 2
<MIXTURE> 1 5.000000e-01
<MEAN> 39
 -6.511432e+00 9.527603e+00 7.774039e+00 -1.834844e+01 -4.794014e+00 -5.364322e+00 -1.415494e+01 7.194579e-01 7.636890e-01 -1.691162e+00 -2.063781e+00 -1.619559e+00 -1.290568e+00 1.182034e-01 7.775027e-02 2.345087e-01 -6.988736e-02 1.213826e-01 -2.237988e-01 -2.474675e-01 -4.546767e-02 5.498684e-02 1.610944e-01 1.871696e-01 -1.848341e-01 1.090912e-01 5.262917e-02 -3.992671e-02 4.107233e-02 4.646562e-02 1.577946e-02 7.065589e-02 3.949325e-02 -4.316037e-02 -3.150285e-02 3.346426e-03 -5.282781e-02 2.578317e-02 1.243374e-02
<VARIANCE> 39
 1.935439e+00 2.447460e+01 1.994056e+01 2.348835e+01 2.725604e+01 2.424519e+01 4.285773e+01 1.419716e+01 1.393025e+01 2.096337e+01 3.212233e+01 8.067793e+00 7.463256e+00 9.261367e-02 1.873087e-01 2.631271e-01 1.344324e-01 3.394209e-01 5.345119e-01 5.891834e-01 3.742773e-01 4.679762e-01 3.329306e-01 4.203133e-01 2.230902e-01 3.128776e-01 1.221264e-02 1.803503e-02 1.709162e-02 2.305726e-02 4.750863e-02 4.602028e-02 5.893423e-02 5.242325e-02 8.637113e-02 5.770704e-02 3.549334e-02 2.748443e-02 3.027435e-02
<GCONST> 4.793387e+01
<MIXTURE> 2 5.000000e-01
<MEAN> 39
 -6.511432e+00 9.527603e+00 7.774039e+00 -1.834844e+01 -4.794014e+00 -5.364322e+00 -1.415494e+01 7.194579e-01 7.636890e-01 -1.691162e+00 -2.063781e+00 -1.619559e+00 -1.290568e+00 1.182034e-01 7.775027e-02 2.345087e-01 -6.988736e-02 1.213826e-01 -2.237988e-01 -2.474675e-01 -4.546767e-02 5.498684e-02 1.610944e-01 1.871696e-01 -1.848341e-01 1.090912e-01 5.262917e-02 -3.992671e-02 4.107233e-02 4.646562e-02 1.577946e-02 7.065589e-02 3.949325e-02 -4.316037e-02 -3.150285e-02 3.346426e-03 -5.282781e-02 2.578317e-02 1.243374e-02
<VARIANCE> 39
 1.935439e+00 2.447460e+01 1.994056e+01 2.348835e+01 2.725604e+01 2.424519e+01 4.285773e+01 1.419716e+01 1.393025e+01 2.096337e+01 3.212233e+01 8.067793e+00 7.463256e+00 9.261367e-02 1.873087e-01 2.631271e-01 1.344324e-01 3.394209e-01 5.345119e-01 5.891834e-01 3.742773e-01 4.679762e-01 3.329306e-01 4.203133e-01 2.230902e-01 3.128776e-01 1.221264e-02 1.803503e-02 1.709162e-02 2.305726e-02 4.750863e-02 4.602028e-02 5.893423e-02 5.242325e-02 8.637113e-02 5.770704e-02 3.549334e-02 2.748443e-02 3.027435e-02
<GCONST> 4.793387e+01
<STATE> 5
<NUMMIXES> 2
<MIXTURE> 1 5.000000e-01
<MEAN> 39
 -3.780035e+00 7.872990e+00 6.948105e+00 -1.479594e+01 -3.958973e+00 -8.683499e-01 -1.184930e+01 -1.180670e+00 6.744489e-01 -9.669699e-01 -3.604494e+00 -9.533635e-01 -1.352411e-02 5.702007e-01 -3.039900e-02 4.491441e-01 8.029617e-01 6.995992e-02 1.112358e-01 1.098708e-01 -2.155335e-01 -5.592299e-02 6.661496e-01 1.142014e-01 -1.469505e-01 3.946887e-02 2.579184e-02 1.597625e-02 -1.020161e-01 2.985265e-01 1.198341e-01 -6.880950e-02 1.479276e-01 2.804363e-02 -8.522593e-02 3.403181e-02 -5.961304e-03 -1.270835e-01 2.200535e-02
<VARIANCE> 39
 2.345830e+00 1.806494e+01 6.086678e+01 3.296906e+01 8.874213e+01 1.743211e+01 3.248730e+01 8.347131e+00 1.637239e+01 2.288185e+01 3.475621e+01 1.744952e+01 1.266462e+01 1.320120e-01 5.760235e-01 6.204927e-01 1.195055e+00 1.574845e+00 8.122588e-01 2.528252e+00 9.284626e-01 2.086910e+00 1.343695e+00 4.715913e-01 6.175330e-01 6.126654e-01 4.490522e-02 4.867666e-02 1.231777e-01 1.818414e-01 2.305005e-01 2.245076e-01 1.746408e-01 1.705556e-01 4.118085e-01 2.330121e-01 1.460509e-01 1.140901e-01 1.451196e-01
<GCONST> 8.361063e+01
<MIXTURE> 2 5.000000e-01
<MEAN> 39
 -3.780035e+00 7.872990e+00 6.948105e+00 -1.479594e+01 -3.958973e+00 -8.683499e-01 -1.184930e+01 -1.180670e+00 6.744489e-01 -9.669699e-01 -3.604494e+00 -9.533635e-01 -1.352411e-02 5.702007e-01 -3.039900e-02 4.491441e-01 8.029617e-01 6.995992e-02 1.112358e-01 1.098708e-01 -2.155335e-01 -5.592299e-02 6.661496e-01 1.142014e-01 -1.469505e-01 3.946887e-02 2.579184e-02 1.597625e-02 -1.020161e-01 2.985265e-01 1.198341e-01 -6.880950e-02 1.479276e-01 2.804363e-02 -8.522593e-02 3.403181e-02 -5.961304e-03 -1.270835e-01 2.200535e-02
<VARIANCE> 39
 2.345830e+00 1.806494e+01 6.086678e+01 3.296906e+01 8.874213e+01 1.743211e+01 3.248730e+01 8.347131e+00 1.637239e+01 2.288185e+01 3.475621e+01 1.744952e+01 1.266462e+01 1.320120e-01 5.760235e-01 6.204927e-01 1.195055e+00 1.574845e+00 8.122588e-01 2.528252e+00 9.284626e-01 2.086910e+00 1.343695e+00 4.715913e-01 6.175330e-01 6.126654e-01 4.490522e-02 4.867666e-02 1.231777e-01 1.818414e-01 2.305005e-01 2.245076e-01 1.746408e-01 1.705556e-01 4.118085e-01 2.330121e-01 1.460509e-01 1.140901e-01 1.451196e-01
<GCONST> 8.361063e+01
<STATE> 6
<NUMMIXES> 2
<MIXTURE> 1 5.000000e-01
<MEAN> 39
 -3.307714e+00 1.069856e+01 1.189216e+01 -1.072963e+01 3.236311e+00 -1.292633e+00 -1.252444e+01 1.643297e-01 -6.054199e-01 1.767490e-01 -1.542826e+00 -1.250848e+00 -5.629712e-02 -6.032971e-02 -6.623429e-02 -4.785182e-02 1.054801e+00 2.907452e-01 4.472633e-01 5.603466e-01 -5.032141e-02 -3.636402e-01 -8.858631e-02 6.375368e-02 1.129816e-01 3.575618e-01 -8.395415e-02 -1.439355e-01 -1.456719e-01 -6.863971e-02 -7.240015e-03 -6.142350e-02 2.042467e-01 -5.596217e-03 3.289632e-03 -8.338973e-02 5.389316e-02 1.220547e-01 -1.764425e-02
<VARIANCE> 39
 1.659242e+01 2.033225e+01 5.011502e+01 5.095789e+01 6.851243e+01 3.968695e+01 3.326596e+01 2.266595e+01 2.641846e+01 2.828001e+01 2.645243e+01 1.910403e+01 1.743043e+01 1.237553e+00 1.620775e+00 2.055367e+00 2.452649e+00 1.751369e+00 1.701794e+00 2.099200e+00 3.012932e+00 2.714031e+00 2.163510e+00 1.975601e+00 1.886813e+00 1.919507e+00 1.657204e-01 2.956248e-01 4.132201e-01 3.853908e-01 4.234365e-01 3.676663e-01 4.287674e-01 6.138547e-01 5.185321e-01 3.843740e-01 3.207222e-01 3.861360e-01 4.390205e-01
<GCONST> 1.119920e+02
<MIXTURE> 2 5.000000e-01
<MEAN> 39
 -3.307714e+00 1.069856e+01 1.189216e+01 -1.072963e+01 3.236311e+00 -1.292633e+00 -1.252444e+01 1.643297e-01 -6.054199e-01 1.767490e-01 -1.542826e+00 -1.250848e+00 -5.629712e-02 -6.032971e-02 -6.623429e-02 -4.785182e-02 1.054801e+00 2.907452e-01 4.472633e-01 5.603466e-01 -5.032141e-02 -3.636402e-01 -8.858631e-02 6.375368e-02 1.129816e-01 3.575618e-01 -8.395415e-02 -1.439355e-01 -1.456719e-01 -6.863971e-02 -7.240015e-03 -6.142350e-02 2.042467e-01 -5.596217e-03 3.289632e-03 -8.338973e-02 5.389316e-02 1.220547e-01 -1.764425e-02
<VARIANCE> 39
 1.659242e+01 2.033225e+01 5.011502e+01 5.095789e+01 6.851243e+01 3.968695e+01 3.326596e+01 2.266595e+01 2.641846e+01 2.828001e+01 2.645243e+01 1.910403e+01 1.743043e+01 1.237553e+00 1.620775e+00 2.055367e+00 2.452649e+00 1.751369e+00 1.701794e+00 2.099200e+00 3.012932e+00 2.714031e+00 2.163510e+00 1.975601e+00 1.886813e+00 1.919507e+00 1.657204e-01 2.956248e-01 4.132201e-01 3.853908e-01 4.234365e-01 3.676663e-01 4.287674e-01 6.138547e-01 5.185321e-01 3.843740e-01 3.207222e-01 3.861360e-01 4.390205e-01
<GCONST> 1.119920e+02
<TRANSP> 7
 0.000000e+00 1.000000e+00 0.000000e+00 0.000000e+00 0.000000e+00 0.000000e+00 0.000000e+00
 0.000000e+00 7.440738e-01 2.559261e-01 0.000000e+00 0.000000e+00 0.000000e+00 0.000000e+00
 0.000000e+00 0.000000e+00 8.114572e-01 1.885427e-01 0.000000e+00 0.000000e+00 0.000000e+00
 0.000000e+00 0.000000e+00 0.000000e+00 8.821224e-01 1.178777e-01 0.000000e+00 0.000000e+00
 0.000000e+00 0.000000e+00 0.000000e+00 0.000000e+00 6.847197e-01 3.152802e-01 0.000000e+00
 0.000000e+00 0.000000e+00 0.000000e+00 0.000000e+00 0.000000e+00 8.375446e-01 1.624554e-01
 0.000000e+00 0.000000e+00 0.000000e+00 0.000000e+00 0.000000e+00 0.000000e+00 0.000000e+00
<ENDHMM>
~h "j"
<BEGINHMM>
<NUMSTATES> 5
<STATE> 2
<NUMMIXES> 2
<MIXTURE> 1 5.000000e-01
<MEAN> 39
 -1.428553e+00 1.465015e+00 -6.918492e-01 -2.098726e+00 -2.549814e+00 -5.697035e+00 9.164410e+00 -6.789873e+00 -1.111038e+01 3.477068e+00 -5.204047e+00 -2.352739e+00 -5.668918e-01 9.873047e-03 9.179637e-02 5.171339e-02 5.521386e-02 1.268444e-02 -4.400003e-03 -9.798666e-02 -1.656623e-02 1.487423e-01 -3.508114e-02 2.056064e-02 -3.791410e-02 1.713714e-02 -5.008604e-02 -1.813374e-02 -6.591175e-03 2.640118e-02 -1.931024e-03 4.667065e-02 -2.223088e-02 1.630504e-02 4.540884e-02 -4.690076e-02 -1.529584e-03 7.224454e-03 1.533582e-02
<VARIANCE> 39
 4.022217e+01 6.957780e+01 7.408521e+01 2.534901e+01 4.095283e+01 1.140510e+02 1.161850e+02 2.993170e+01 5.823093e+01 6.782274e+01 2.708025e+01 2.202921e+01 1.526035e+01 1.368318e+00 1.753574e+00 1.726766e+00 1.061751e+00 2.015385e+00 3.777640e+00 4.821175e+00 1.792449e+00 3.252524e+00 3.199133e+00 3.047518e+00 1.035608e+00 1.487155e+00 1.932576e-01 2.637145e-01 2.898477e-01 1.705536e-01 4.152791e-01 6.865714e-01 1.049100e+00 3.727095e-01 5.839364e-01 5.895422e-01 6.762300e-01 2.022433e-01 3.364692e-01
<GCONST> 1.183866e+02
<MIXTURE> 2 5.000000e-01
<MEAN> 39
 -1.428553e+00 1.465015e+00 -6.918492e-01 -2.098726e+00 -2.549814e+00 -5.697035e+00 9.164410e+00 -6.789873e+00 -1.111038e+01 3.477068e+00 -5.204047e+00 -2.352739e+00 -5.668918e-01 9.873047e-03 9.179637e-02 5.171339e-02 5.521386e-02 1.268444e-02 -4.400003e-03 -9.798666e-02 -1.656623e-02 1.487423e-01 -3.508114e-02 2.056064e-02 -3.791410e-02 1.713714e-02 -5.008604e-02 -1.813374e-02 -6.591175e-03 2.640118e-02 -1.931024e-03 4.667065e-02 -2.223088e-02 1.630504e-02 4.540884e-02 -4.690076e-02 -1.529584e-03 7.224454e-03 1.533582e-02
<VARIANCE> 39
 4.022217e+01 6.957780e+01 7.408521e+01 2.534901e+01 4.095283e+01 1.140510e+02 1.161850e+02 2.993170e+01 5.823093e+01 6.782274e+01 2.708025e+01 2.202921e+01 1.526035e+01 1.368318e+00 1.753574e+00 1.726766e+00 1.061751e+00 2.015385e+00 3.777640e+00 4.821175e+00 1.792449e+00 3.252524e+00 3.199133e+00 3.047518e+00 1.035608e+00 1.487155e+00 1.932576e-01 2.637145e-01 2.898477e-01 1.705536e-01 4.152791e-01 6.865714e-01 1.049100e+00 3.727095e-01 5.839364e-01 5.895422e-01 6.762300e-01 2.022433e-01 3.364692e-01
<GCONST> 1.183866e+02
<STATE> 3
<NUMMIXES> 2
<MIXTURE> 1 5.000000e-01
<MEAN> 39
 -5.986521e+00 1.182106e+01 1.074242e+01 5.258551e+00 -1.938905e+00 -3.679963e+00 -4.406902e+00 -9.032925e+00 -1.510129e+00 -6.157285e-01 1.497639e-01 -1.222798e+00 1.783680e+00 -4.850600e-01 -1.023678e-01 -3.982258e-01 1.096346e-01 -8.556523e-02 4.056583e-01 1.894519e-01 2.434939e-01 9.719187e-02 2.332572e-04 2.228307e-01 -4.604444e-02 2.274999e-01 2.370480e-01 -1.590952e-01 -1.964741e-01 -1.430200e-01 -6.882852e-02 -1.080144e-01 2.480315e-01 1.513772e-02 -2.203830e-01 1.272799e-01 -9.020812e-02 -6.702953e-02 -3.259509e-02
<VARIANCE> 39
 4.028995e+01 3.144154e+01 1.348295e+01 1.869107e+01 2.028940e+01 2.172165e+01 3.252173e+01 1.830996e+01 1.894135e+01 2.532014e+01 2.255708e+01 2.022727e+01 8.812838e+00 3.369458e+00 2.201383e+00 1.402325e+00 1.634773e+00 2.161183e+00 3.470325e+00 3.641335e+00 2.101056e+00 2.986248e+00 3.250948e+00 2.953749e+00 2.306939e+00 1.690228e+00 2.804517e-01 3.377482e-01 2.205002e-01 2.281481e-01 4.554625e-01 5.585498e-01 4.928512e-01 4.404232e-01 6.754172e-01 4.474598e-01 7.403193e-01 4.209530e-01 3.411832e-01
<GCONST> 1.112202e+02
<MIXTURE> 2 5.000000e-01
<MEAN> 39
 -5.986521e+00 1.182106e+01 1.074242e+01 5.258551e+00 -1.938905e+00 -3.679963e+00 -4.406902e+00 -9.032925e+00 -1.510129e+00 -6.157285e-01 1.497639e-01 -1.222798e+00 1.783680e+00 -4.850600e-01 -1.023678e-01 -3.982258e-01 1.096346e-01 -8.556523e-02 4.056583e-01 1.894519e-01 2.434939e-01 9.719187e-02 2.332572e-04 2.228307e-01 -4.604444e-02 2.274999e-01 2.370480e-01 -1.590952e-01 -1.964741e-01 -1.430200e-01 -6.882852e-02 -1.080144e-01 2.480315e-01 1.513772e-02 -2.203830e-01 1.272799e-01 -9.020812e-02 -6.702953e-02 -3.259509e-02
<VARIANCE> 39
 4.028995e+01 3.144154e+01 1.348295e+01 1.869107e+01 2.028940e+01 2.172165e+01 3.252173e+01 1.830996e+01 1.894135e+01 2.532014e+01 2.255708e+01 2.022727e+01 8.812838e+00 3.369458e+00 2.201383e+00 1.402325e+00 1.634773e+00 2.161183e+00 3.470325e+00 3.641335e+00 2.101056e+00 2.986248e+00 3.250948e+00 2.953749e+00 2.306939e+00 1.690228e+00 2.804517e-01 3.377482e-01 2.205002e-01 2.281481e-01 4.554625e-01 5.585498e-01 4.928512e-01 4.404232e-01 6.754172e-01 4.474598e-01 7.403193e-01 4.209530e-01 3.411832e-01
<GCONST> 1.112202e+02
<STATE> 4
<NUMMIXES> 2
<MIXTURE> 1 5.000000e-01
<MEAN> 39
 -6.208976e+00 -7.583954e-01 1.918482e+00 -2.781946e-01 -1.458640e+00 6.768706e+00 -8.515865e-01 -6.955759e+00 1.947860e+00 -8.239173e-01 -3.776993e+00 5.468048e-01 2.170788e+00 1.277807e-01 -4.023778e-02 -1.033222e-01 -1.062528e-01 -1.237176e-01 -2.010218e-01 6.064076e-02 6.117496e-02 -2.589037e-02 1.799253e-02 -5.297692e-02 -5.999352e-02 -7.057924e-02 7.378175e-03 7.807390e-03 1.503416e-02 -5.620354e-03 -2.018920e-03 -4.798521e-02 -2.866983e-02 -5.913059e-03 -2.379464e-02 -5.003167e-04 -2.320677e-02 8.124443e-03 -6.136285e-03
<VARIANCE> 39
 8.814718e+00 3.531894e+01 1.496518e+01 2.350950e+01 2.217829e+01 3.120672e+01 3.423477e+01 2.793849e+01 3.101878e+01 2.427364e+01 2.358777e+01 2.479435e+01 1.942833e+01 4.289172e-01 7.964872e-01 1.678792e+00 1.994925e+00 2.850763e+00 2.535695e+00 4.555162e+00 2.554568e+00 3.740397e+00 2.771996e+00 3.211233e+00 2.541787e+00 3.021796e+00 4.387514e-02 1.450660e-01 3.237768e-01 3.565916e-01 5.563912e-01 4.320749e-01 1.034427e+00 5.688068e-01 8.632436e-01 4.842385e-01 7.438076e-01 6.094998e-01 7.305903e-01
<GCONST> 1.116083e+02
<MIXTURE> 2 5.000000e-01
<MEAN> 39
 -6.208976e+00 -7.583954e-01 1.918482e+00 -2.781946e-01 -1.458640e+00 6.768706e+00 -8.515865e-01 -6.955759e+00 1.947860e+00 -8.239173e-01 -3.776993e+00 5.468048e-01 2.170788e+00 1.277807e-01 -4.023778e-02 -1.033222e-01 -1.062528e-01 -1.237176e-01 -2.010218e-01 6.064076e-02 6.117496e-02 -2.589037e-02 1.799253e-02 -5.297692e-02 -5.999352e-02 -7.057924e-02 7.378175e-03 7.807390e-03 1.503416e-02 -5.620354e-03 -2.018920e-03 -4.798521e-02 -2.866983e-02 -5.913059e-03 -2.379464e-02 -5.003167e-04 -2.320677e-02 8.124443e-03 -6.136285e-03
<VARIANCE> 39
 8.814718e+00 3.531894e+01 1.496518e+01 2.350950e+01 2.217829e+01 3.120672e+01 3.423477e+01 2.793849e+01 3.101878e+01 2.427364e+01 2.358777e+01 2.479435e+01 1.942833e+01 4.289172e-01 7.964872e-01 1.678792e+00 1.994925e+00 2.850763e+00 2.535695e+00 4.555162e+00 2.554568e+00 3.740397e+00 2.771996e+00 3.211233e+00 2.541787e+00 3.021796e+00 4.387514e-02 1.450660e-01 3.237768e-01 3.565916e-01 5.563912e-01 4.320749e-01 1.034427e+00 5.688068e-01 8.632436e-01 4.842385e-01 7.438076e-01 6.094998e-01 7.305903e-01
<GCONST> 1.116083e+02
<TRANSP> 5
 0.000000e+00 1.000000e+00 0.000000e+00 0.000000e+00 0.000000e+00
 0.000000e+00 9.767709e-01 2.322908e-02 0.000000e+00 0.000000e+00
 0.000000e+00 0.000000e+00 9.291914e-01 7.080869e-02 0.000000e+00
 0.000000e+00 0.000000e+00 0.000000e+00 9.706423e-01 2.935773e-02
 0.000000e+00 0.000000e+00 0.000000e+00 0.000000e+00 0.000000e+00
<ENDHMM>
~h "k"
<BEGINHMM>
<NUMSTATES> 5
<STATE> 2
<NUMMIXES> 2
<MIXTURE> 1 5.000000e-01
<MEAN> 39
 -4.179837e+00 5.587391e-01 1.676616e+00 1.722528e+00 -4.277873e-01 -1.323083e-01 2.534642e+00 1.081816e-01 -6.350989e+00 -1.275510e+00 -2.296110e+00 -4.634960e+00 3.955038e-01 -6.555251e-01 -7.359404e-02 1.371648e-01 5.065193e-01 4.986600e-02 1.758163e-01 7.382421e-02 -8.146262e-02 -6.712198e-03 -9.057361e-01 -4.140457e-01 -3.130136e-01 -2.436236e-01 -3.846476e-02 -3.941582e-02 -4.710873e-02 -1.414412e-01 -7.702299e-02 3.438109e-02 1.501252e-02 -3.038906e-02 3.246192e-02 -5.254177e-02 -1.001839e-01 1.198682e-01 8.099226e-02
<VARIANCE> 39
 1.781370e+01 2.013469e+01 2.571372e+01 3.230660e+01 2.273259e+01 2.393655e+01 4.919160e+01 3.638546e+01 2.407591e+01 5.025593e+01 1.976247e+01 1.825714e+01 3.682517e+01 5.271419e-01 1.318870e+00 1.162201e+00 1.438776e+00 2.051481e+00 1.711163e+00 3.587041e+00 3.279063e+00 1.865872e+00 3.082409e+00 1.558773e+00 2.021576e+00 2.765602e+00 1.006256e-01 2.097060e-01 1.958015e-01 3.469737e-01 4.493779e-01 3.365104e-01 7.093875e-01 6.468323e-01 4.305297e-01 7.229478e-01 3.190134e-01 3.089567e-01 5.885325e-01
<GCONST> 1.092196e+02
<MIXTURE> 2 5.000000e-01
<MEAN> 39
 -4.179837e+00 5.587391e-01 1.676616e+00 1.722528e+00 -4.277873e-01 -1.323083e-01 2.534642e+00 1.081816e-01 -6.350989e+00 -1.275510e+00 -2.296110e+00 -4.634960e+00 3.955038e-01 -6.555251e-01 -7.359404e-02 1.371648e-01 5.065193e-01 4.986600e-02 1.758163e-01 7.382421e-02 -8.146262e-02 -6.712198e-03 -9.057361e-01 -4.140457e-01 -3.130136e-01 -2.436236e-01 -3.846476e-02 -3.941582e-02 -4.710873e-02 -1.414412e-01 -7.702299e-02 3.438109e-02 1.501252e-02 -3.038906e-02 3.246192e-02 -5.254177e-02 -1.001839e-01 1.198682e-01 8.099226e-02
<VARIANCE> 39
 1.781370e+01 2.013469e+01 2.571372e+01 3.230660e+01 2.273259e+01 2.393655e+01 4.919160e+01 3.638546e+01 2.407591e+01 5.025593e+01 1.976247e+01 1.825714e+01 3.682517e+01 5.271419e-01 1.318870e+00 1.162201e+00 1.438776e+00 2.051481e+00 1.711163e+00 3.587041e+00 3.279063e+00 1.865872e+00 3.082409e+00 1.558773e+00 2.021576e+00 2.765602e+00 1.006256e-01 2.097060e-01 1.958015e-01 3.469737e-01 4.493779e-01 3.365104e-01 7.093875e-01 6.468323e-01 4.305297e-01 7.229478e-01 3.190134e-01 3.089567e-01 5.885325e-01
<GCONST> 1.092196e+02
<STATE> 3
<NUMMIXES> 2
<MIXTURE> 1 5.000000e-01
<MEAN> 39
 -6.310064e+00 1.138868e+00 3.144558e+00 3.031048e+00 -1.653177e+00 -6.971826e-01 -4.888439e-01 -1.008677e+00 -4.133052e+00 -4.850857e+00 -3.850224e+00 -2.924765e+00 5.254142e-01 -2.380767e-01 -3.047269e-01 -5.182461e-02 -9.191105e-02 -4.085637e-02 1.214064e-01 4.221669e-02 -1.437084e-01 2.048753e-01 1.038323e-01 -5.146376e-02 1.374723e-01 1.500589e-02 -7.711899e-02 -1.995261e-01 -1.156641e-01 -1.365716e-01 -8.208397e-02 -1.117648e-01 1.343386e-02 -2.168435e-02 8.657482e-02 9.638665e-02 1.442198e-01 3.637831e-02 -2.348403e-02
<VARIANCE> 39
 1.188217e+01 4.476221e+01 3.097632e+01 4.213710e+01 2.974049e+01 2.430220e+01 5.825769e+01 4.271136e+01 2.188519e+01 3.075257e+01 2.209817e+01 2.208110e+01 1.950091e+01 1.061967e+00 2.819922e+00 2.331054e+00 2.420952e+00 3.310648e+00 2.701647e+00 3.285111e+00 3.467046e+00 3.386745e+00 2.830165e+00 2.371732e+00 2.392723e+00 2.441831e+00 1.980096e-01 4.652257e-01 4.700380e-01 5.687962e-01 6.997352e-01 6.517819e-01 5.470896e-01 6.820784e-01 6.975043e-01 5.539757e-01 4.990455e-01 5.577093e-01 4.470209e-01
<GCONST> 1.190329e+02
<MIXTURE> 2 5.000000e-01
<MEAN> 39
 -6.310064e+00 1.138868e+00 3.144558e+00 3.031048e+00 -1.653177e+00 -6.971826e-01 -4.888439e-01 -1.008677e+00 -4.133052e+00 -4.850857e+00 -3.850224e+00 -2.924765e+00 5.254142e-01 -2.380767e-01 -3.047269e-01 -5.182461e-02 -9.191105e-02 -4.085637e-02 1.214064e-01 4.221669e-02 -1.437084e-01 2.048753e-01 1.038323e-01 -5.146376e-02 1.374723e-01 1.500589e-02 -7.711899e-02 -1.995261e-01 -1.156641e-01 -1.365716e-01 -8.208397e-02 -1.117648e-01 1.343386e-02 -2.168435e-02 8.657482e-02 9.638665e-02 1.442198e-01 3.637831e-02 -2.348403e-02
<VARIANCE> 39
 1.188217e+01 4.476221e+01 3.097632e+01 4.213710e+01 2.974049e+01 2.430220e+01 5.825769e+01 4.271136e+01 2.188519e+01 3.075257e+01 2.209817e+01 2.208110e+01 1.950091e+01 1.061967e+00 2.819922e+00 2.331054e+00 2.420952e+00 3.310648e+00 2.701647e+00 3.285111e+00 3.467046e+00 3.386745e+00 2.830165e+00 2.371732e+00 2.392723e+00 2.441831e+00 1.980096e-01 4.652257e-01 4.700380e-01 5.687962e-01 6.997352e-01 6.517819e-01 5.470896e-01 6.820784e-01 6.975043e-01 5.539757e-01 4.990455e-01 5.577093e-01 4.470209e-01
<GCONST> 1.190329e+02
<STATE> 4
<NUMMIXES> 2
<MIXTURE> 1 5.000000e-01
<MEAN> 39
 -1.269778e+01 -4.079950e+00 -5.515156e-01 -5.992094e+00 -4.203870e+00 -2.671237e+00 -4.010662e-02 -1.942366e+00 -8.368054e-01 -2.860664e+00 -1.549223e+00 -3.273440e+00 4.929551e-01 1.694344e-01 -2.307191e-01 -3.699343e-01 -5.538538e-01 -3.974590e-01 -4.057161e-01 3.872018e-01 1.536569e-02 -1.788400e-01 1.064829e-01 3.669384e-02 -1.484325e-01 -5.410868e-02 2.031968e-01 3.271922e-01 1.295987e-01 8.602607e-02 1.233093e-01 7.045566e-02 -5.709579e-02 1.246002e-01 -1.570407e-01 1.403688e-02 -4.820320e-02 -3.681991e-02 -3.169377e-02
<VARIANCE> 39
 4.732819e+01 6.970644e+01 2.279413e+01 6.719760e+01 4.140511e+01 2.330767e+01 4.904541e+01 3.012116e+01 3.838002e+01 1.639571e+01 2.033157e+01 1.553370e+01 1.375052e+01 3.600532e+00 7.318657e+00 2.436416e+00 3.569801e+00 3.875475e+00 3.308420e+00 3.457927e+00 3.204061e+00 3.300323e+00 2.456702e+00 2.771341e+00 2.301612e+00 1.654516e+00 4.889595e-01 1.085427e+00 3.624392e-01 5.885434e-01 7.395848e-01 6.843114e-01 6.342212e-01 6.372867e-01 5.741106e-01 4.724913e-01 5.558901e-01 4.165078e-01 3.682436e-01
<GCONST> 1.234117e+02
<MIXTURE> 2 5.000000e-01
<MEAN> 39
 -1.269778e+01 -4.079950e+00 -5.515156e-01 -5.992094e+00 -4.203870e+00 -2.671237e+00 -4.010662e-02 -1.942366e+00 -8.368054e-01 -2.860664e+00 -1.549223e+00 -3.273440e+00 4.929551e-01 1.694344e-01 -2.307191e-01 -3.699343e-01 -5.538538e-01 -3.974590e-01 -4.057161e-01 3.872018e-01 1.536569e-02 -1.788400e-01 1.064829e-01 3.669384e-02 -1.484325e-01 -5.410868e-02 2.031968e-01 3.271922e-01 1.295987e-01 8.602607e-02 1.233093e-01 7.045566e-02 -5.709579e-02 1.246002e-01 -1.570407e-01 1.403688e-02 -4.820320e-02 -3.681991e-02 -3.169377e-02
<VARIANCE> 39
 4.732819e+01 6.970644e+01 2.279413e+01 6.719760e+01 4.140511e+01 2.330767e+01 4.904541e+01 3.012116e+01 3.838002e+01 1.639571e+01 2.033157e+01 1.553370e+01 1.375052e+01 3.600532e+00 7.318657e+00 2.436416e+00 3.569801e+00 3.875475e+00 3.308420e+00 3.457927e+00 3.204061e+00 3.300323e+00 2.456702e+00 2.771341e+00 2.301612e+00 1.654516e+00 4.889595e-01 1.085427e+00 3.624392e-01 5.885434e-01 7.395848e-01 6.843114e-01 6.342212e-01 6.372867e-01 5.741106e-01 4.724913e-01 5.558901e-01 4.165078e-01 3.682436e-01
<GCONST> 1.234117e+02
<TRANSP> 5
 0.000000e+00 1.000000e+00 0.000000e+00 0.000000e+00 0.000000e+00
 0.000000e+00 7.602277e-01 2.397723e-01 0.000000e+00 0.000000e+00
 0.000000e+00 0.000000e+00 8.836171e-01 1.163829e-01 0.000000e+00
 0.000000e+00 0.000000e+00 0.000000e+00 8.993511e-01 1.006489e-01
 0.000000e+00 0.000000e+00 0.000000e+00 0.000000e+00 0.000000e+00
<ENDHMM>
~h "l"
<BEGINHMM>
<NUMSTATES> 5
<STATE> 2
<NUMMIXES> 2
<MIXTURE> 1 5.000000e-01
<MEAN> 39
 -2.993480e+00 7.719596e+00 -8.927718e-01 -1.206928e+00 -8.766296e+00 -1.763543e+01 1.010123e+00 -1.159345e+00 -7.100442e+00 4.924682e+00 -8.301777e-01 -3.135197e+00 9.947348e-01 -1.304889e-01 -2.514051e-01 -2.840048e-01 -4.522800e-02 -1.684224e-01 2.194906e-01 5.970336e-01 2.257134e-01 -3.241885e-01 -1.161086e-01 2.104254e-02 -3.336694e-01 -8.148929e-02 -3.295701e-02 -1.304629e-01 -5.517168e-02 -9.106205e-02 9.506189e-02 2.831421e-01 -6.637935e-03 9.112870e-02 5.894849e-02 -2.027478e-01 -9.992022e-02 3.441174e-02 -3.276142e-02
<VARIANCE> 39
 1.164394e+01 3.736271e+01 2.581697e+01 2.593061e+01 3.720900e+01 5.592770e+01 4.474310e+01 5.379075e+01 3.645836e+01 4.852708e+01 3.926328e+01 1.747076e+01 2.090722e+01 2.766701e-01 1.554258e+00 1.432061e+00 1.208616e+00 1.161133e+00 4.460195e+00 2.369589e+00 1.682998e+00 2.186731e+00 2.544491e+00 2.127330e+00 1.388904e+00 1.258533e+00 4.035747e-02 1.847628e-01 1.287268e-01 1.928514e-01 2.474320e-01 4.696231e-01 4.307977e-01 2.500362e-01 4.150314e-01 3.573985e-01 3.458017e-01 2.283160e-01 2.010644e-01
<GCONST> 1.034706e+02
<MIXTURE> 2 5.000000e-01
<MEAN> 39
 -2.993480e+00 7.719596e+00 -8.927718e-01 -1.206928e+00 -8.766296e+00 -1.763543e+01 1.010123e+00 -1.159345e+00 -7.100442e+00 4.924682e+00 -8.301777e-01 -3.135197e+00 9.947348e-01 -1.304889e-01 -2.514051e-01 -2.840048e-01 -4.522800e-02 -1.684224e-01 2.194906e-01 5.970336e-01 2.257134e-01 -3.241885e-01 -1.161086e-01 2.104254e-02 -3.336694e-01 -8.148929e-02 -3.295701e-02 -1.304629e-01 -5.517168e-02 -9.106205e-02 9.506189e-02 2.831421e-01 -6.637935e-03 9.112870e-02 5.894849e-02 -2.027478e-01 -9.992022e-02 3.441174e-02 -3.276142e-02
<VARIANCE> 39
 1.164394e+01 3.736271e+01 2.581697e+01 2.593061e+01 3.720900e+01 5.592770e+01 4.474310e+01 5.379075e+01 3.645836e+01 4.852708e+01 3.926328e+01 1.747076e+01 2.090722e+01 2.766701e-01 1.554258e+00 1.432061e+00 1.208616e+00 1.161133e+00 4.460195e+00 2.369589e+00 1.682998e+00 2.186731e+00 2.544491e+00 2.127330e+00 1.388904e+00 1.258533e+00 4.035747e-02 1.847628e-01 1.287268e-01 1.928514e-01 2.474320e-01 4.696231e-01 4.307977e-01 2.500362e-01 4.150314e-01 3.573985e-01 3.458017e-01 2.283160e-01 2.010644e-01
<GCONST> 1.034706e+02
<STATE> 3
<NUMMIXES> 2
<MIXTURE> 1 5.000000e-01
<MEAN> 39
 -2.215526e+00 -3.213823e+00 -1.051174e+01 1.781432e+00 -6.529188e+00 -8.782641e+00 8.022104e+00 1.858789e-01 -9.812044e+00 -4.872846e+00 -2.378695e+00 -1.962370e+00 -3.520552e+00 -1.357796e-01 -3.995219e-01 -1.893519e-01 5.856022e-02 6.125597e-01 3.064966e-01 1.044835e-01 -3.064909e-01 -2.069912e-01 -1.007343e-01 2.386487e-03 1.847341e-01 3.970227e-02 -2.385692e-04 7.779124e-02 1.698513e-02 9.046081e-02 4.388560e-02 -1.959072e-01 -1.508492e-01 -5.241453e-02 7.807186e-02 3.691534e-02 1.217827e-01 3.290927e-02 -1.048242e-03
<VARIANCE> 39
 1.025181e+01 4.013830e+01 1.325241e+01 2.097322e+01 6.240167e+01 5.414149e+01 3.381688e+01 3.780793e+01 5.366845e+01 2.574525e+01 1.432900e+01 1.698486e+01 9.467470e+00 4.076250e-01 1.875071e+00 5.428647e-01 1.247372e+00 4.009617e+00 2.380140e+00 2.125991e+00 2.035233e+00 3.916507e+00 1.088714e+00 1.388722e+00 1.236249e+00 3.588718e-01 4.346528e-02 2.043602e-01 9.274476e-02 2.165535e-01 4.219743e-01 3.446831e-01 3.821883e-01 2.582848e-01 4.754223e-01 1.535439e-01 1.835002e-01 2.015408e-01 6.531212e-02
<GCONST> 9.608643e+01
<MIXTURE> 2 5.000000e-01
<MEAN> 39
 -2.215526e+00 -3.213823e+00 -1.051174e+01 1.781432e+00 -6.529188e+00 -8.782641e+00 8.022104e+00 1.858789e-01 -9.812044e+00 -4.872846e+00 -2.378695e+00 -1.962370e+00 -3.520552e+00 -1.357796e-01 -3.995219e-01 -1.893519e-01 5.856022e-02 6.125597e-01 3.064966e-01 1.044835e-01 -3.064909e-01 -2.069912e-01 -1.007343e-01 2.386487e-03 1.847341e-01 3.970227e-02 -2.385692e-04 7.779124e-02 1.698513e-02 9.046081e-02 4.388560e-02 -1.959072e-01 -1.508492e-01 -5.241453e-02 7.807186e-02 3.691534e-02 1.217827e-01 3.290927e-02 -1.048242e-03
<VARIANCE> 39
 1.025181e+01 4.013830e+01 1.325241e+01 2.097322e+01 6.240167e+01 5.414149e+01 3.381688e+01 3.780793e+01 5.366845e+01 2.574525e+01 1.432900e+01 1.698486e+01 9.467470e+00 4.076250e-01 1.875071e+00 5.428647e-01 1.247372e+00 4.009617e+00 2.380140e+00 2.125991e+00 2.035233e+00 3.916507e+00 1.088714e+00 1.388722e+00 1.236249e+00 3.588718e-01 4.346528e-02 2.043602e-01 9.274476e-02 2.165535e-01 4.219743e-01 3.446831e-01 3.821883e-01 2.582848e-01 4.754223e-01 1.535439e-01 1.835002e-01 2.015408e-01 6.531212e-02
<GCONST> 9.608643e+01
<STATE> 4
<NUMMIXES> 2
<MIXTURE> 1 5.000000e-01
<MEAN> 39
 -5.318153e+00 -6.477494e+00 -1.333609e+01 2.432339e+00 -5.728645e-01 -7.192107e+00 1.020306e+01 -3.270068e+00 -1.289876e+01 -6.770254e+00 -1.663361e+00 -1.493098e-01 -3.626402e+00 1.884625e-02 -4.313070e-02 -1.943699e-01 1.851554e-01 2.338530e-01 -6.150832e-02 -1.168812e-01 7.468455e-02 1.323086e-01 -1.781986e-01 6.741499e-02 1.309526e-01 -7.618106e-02 2.398577e-02 2.499144e-02 1.903153e-02 -2.450703e-02 -5.113165e-02 -2.562404e-02 2.970767e-03 3.147946e-02 4.359536e-02 2.266381e-02 -3.606039e-02 -2.478148e-02 -7.192109e-03
<VARIANCE> 39
 4.174497e+00 2.454789e+01 1.901649e+01 2.936585e+01 3.228497e+01 1.250822e+01 4.290184e+01 4.894533e+01 1.876002e+01 2.744966e+01 2.120989e+01 1.678769e+01 1.121995e+01 1.663493e-01 1.904475e-01 1.496152e-01 2.209561e-01 2.494933e-01 2.045438e-01 3.129008e-01 2.782126e-01 3.411026e-01 3.308079e-01 3.619293e-01 2.125074e-01 1.948117e-01 2.731645e-02 3.209660e-02 2.582185e-02 3.005368e-02 2.899553e-02 4.740038e-02 4.919451e-02 5.583569e-02 4.699627e-02 3.849198e-02 3.250113e-02 3.323473e-02 3.061185e-02
<GCONST> 4.883917e+01
<MIXTURE> 2 5.000000e-01
<MEAN> 39
 -5.318153e+00 -6.477494e+00 -1.333609e+01 2.432339e+00 -5.728645e-01 -7.192107e+00 1.020306e+01 -3.270068e+00 -1.289876e+01 -6.770254e+00 -1.663361e+00 -1.493098e-01 -3.626402e+00 1.884625e-02 -4.313070e-02 -1.943699e-01 1.851554e-01 2.338530e-01 -6.150832e-02 -1.168812e-01 7.468455e-02 1.323086e-01 -1.781986e-01 6.741499e-02 1.309526e-01 -7.618106e-02 2.398577e-02 2.499144e-02 1.903153e-02 -2.450703e-02 -5.113165e-02 -2.562404e-02 2.970767e-03 3.147946e-02 4.359536e-02 2.266381e-02 -3.606039e-02 -2.478148e-02 -7.192109e-03
<VARIANCE> 39
 4.174497e+00 2.454789e+01 1.901649e+01 2.936585e+01 3.228497e+01 1.250822e+01 4.290184e+01 4.894533e+01 1.876002e+01 2.744966e+01 2.120989e+01 1.678769e+01 1.121995e+01 1.663493e-01 1.904475e-01 1.496152e-01 2.209561e-01 2.494933e-01 2.045438e-01 3.129008e-01 2.782126e-01 3.411026e-01 3.308079e-01 3.619293e-01 2.125074e-01 1.948117e-01 2.731645e-02 3.209660e-02 2.582185e-02 3.005368e-02 2.899553e-02 4.740038e-02 4.919451e-02 5.583569e-02 4.699627e-02 3.849198e-02 3.250113e-02 3.323473e-02 3.061185e-02
<GCONST> 4.883917e+01
<TRANSP> 5
 0.000000e+00 1.000000e+00 0.000000e+00 0.000000e+00 0.000000e+00
 0.000000e+00 8.679949e-01 1.320051e-01 0.000000e+00 0.000000e+00
 0.000000e+00 0.000000e+00 8.619841e-01 1.380159e-01 0.000000e+00
 0.000000e+00 0.000000e+00 0.000000e+00 8.739705e-01 1.260295e-01
 0.000000e+00 0.000000e+00 0.000000e+00 0.000000e+00 0.000000e+00
<ENDHMM>
~h "m"
<BEGINHMM>
<NUMSTATES> 5
<STATE> 2
<NUMMIXES> 2
<MIXTURE> 1 5.000000e-01
<MEAN> 39
 -2.308372e+00 4.024678e+00 1.465999e+00 1.377319e+00 -5.027388e-01 -1.180037e+01 -3.952188e+00 -2.221982e+00 -5.697895e+00 1.119358e+00 -2.319843e+00 -1.592211e+00 -2.955328e+00 8.287572e-01 4.867506e-01 -3.861367e-02 -3.003452e-02 9.523473e-01 -2.252245e+00 -8.497229e-01 -1.788761e-02 -5.206472e-01 9.662788e-01 3.049513e-01 7.704780e-01 -7.481852e-01 -1.413978e-01 -1.901271e-02 -5.098956e-02 -1.045109e-01 1.293334e-01 -3.723188e-02 -1.793191e-01 -1.414232e-01 1.136008e-01 -7.665487e-02 7.695332e-02 2.030032e-01 -1.080764e-02
<VARIANCE> 39
 3.531734e+01 1.939523e+01 3.080564e+01 2.279850e+01 3.296945e+01 5.896088e+01 3.727213e+01 4.590613e+01 3.469926e+01 4.271352e+01 3.119543e+01 2.656380e+01 2.057191e+01 2.241129e+00 1.923237e+00 2.706277e+00 2.327303e+00 4.177222e+00 5.140000e+00 2.941218e+00 4.623260e+00 2.968956e+00 4.868618e+00 3.342933e+00 3.900391e+00 2.872945e+00 3.341600e-01 2.961664e-01 4.894462e-01 3.188869e-01 6.314306e-01 9.372500e-01 5.844139e-01 7.208160e-01 5.199882e-01 9.533884e-01 7.591984e-01 8.648115e-01 4.919358e-01
<GCONST> 1.247042e+02
<MIXTURE> 2 5.000000e-01
<MEAN> 39
 -2.308372e+00 4.024678e+00 1.465999e+00 1.377319e+00 -5.027388e-01 -1.180037e+01 -3.952188e+00 -2.221982e+00 -5.697895e+00 1.119358e+00 -2.319843e+00 -1.592211e+00 -2.955328e+00 8.287572e-01 4.867506e-01 -3.861367e-02 -3.003452e-02 9.523473e-01 -2.252245e+00 -8.497229e-01 -1.788761e-02 -5.206472e-01 9.662788e-01 3.049513e-01 7.704780e-01 -7.481852e-01 -1.413978e-01 -1.901271e-02 -5.098956e-02 -1.045109e-01 1.293334e-01 -3.723188e-02 -1.793191e-01 -1.414232e-01 1.136008e-01 -7.665487e-02 7.695332e-02 2.030032e-01 -1.080764e-02
<VARIANCE> 39
 3.531734e+01 1.939523e+01 3.080564e+01 2.279850e+01 3.296945e+01 5.896088e+01 3.727213e+01 4.590613e+01 3.469926e+01 4.271352e+01 3.119543e+01 2.656380e+01 2.057191e+01 2.241129e+00 1.923237e+00 2.706277e+00 2.327303e+00 4.177222e+00 5.140000e+00 2.941218e+00 4.623260e+00 2.968956e+00 4.868618e+00 3.342933e+00 3.900391e+00 2.872945e+00 3.341600e-01 2.961664e-01 4.894462e-01 3.188869e-01 6.314306e-01 9.372500e-01 5.844139e-01 7.208160e-01 5.199882e-01 9.533884e-01 7.591984e-01 8.648115e-01 4.919358e-01
<GCONST> 1.247042e+02
<STATE> 3
<NUMMIXES> 2
<MIXTURE> 1 5.000000e-01
<MEAN> 39
 5.573797e-01 5.845704e+00 3.699327e-01 3.811685e+00 7.544240e+00 -2.518348e+01 -8.228324e+00 -6.936346e+00 -4.111692e+00 2.816579e+00 -4.219616e+00 4.625729e+00 -6.464565e+00 1.319712e-01 -6.366782e-02 -3.372191e-01 3.058696e-01 5.470505e-01 -1.805277e-01 -2.512513e-01 -4.222465e-01 1.707839e-01 -4.192031e-02 3.999054e-01 2.253076e-01 -2.229147e-01 -6.315065e-02 -1.154623e-01 -4.418006e-02 4.050597e-02 -1.106001e-01 2.567379e-01 1.137511e-01 4.289475e-02 -4.948072e-03 -1.153053e-01 3.118917e-02 -1.275506e-01 9.919086e-02
<VARIANCE> 39
 1.483638e+01 1.580677e+01 3.118572e+01 4.114999e+01 2.837644e+01 4.740532e+01 2.259529e+01 7.066048e+01 4.345108e+01 3.051227e+01 3.262667e+01 1.267605e+01 2.228469e+01 7.842434e-01 1.255305e+00 2.174001e+00 1.681374e+00 2.042899e+00 4.638463e+00 2.306622e+00 2.790805e+00 2.108389e+00 2.515481e+00 2.009103e+00 1.694477e+00 1.734154e+00 1.289784e-01 1.453681e-01 3.549083e-01 3.387750e-01 4.412071e-01 6.148476e-01 4.287337e-01 4.774763e-01 4.315579e-01 3.953139e-01 2.615807e-01 2.566467e-01 3.766285e-01
<GCONST> 1.095940e+02
<MIXTURE> 2 5.000000e-01
<MEAN> 39
 5.573797e-01 5.845704e+00 3.699327e-01 3.811685e+00 7.544240e+00 -2.518348e+01 -8.228324e+00 -6.936346e+00 -4.111692e+00 2.816579e+00 -4.219616e+00 4.625729e+00 -6.464565e+00 1.319712e-01 -6.366782e-02 -3.372191e-01 3.058696e-01 5.470505e-01 -1.805277e-01 -2.512513e-01 -4.222465e-01 1.707839e-01 -4.192031e-02 3.999054e-01 2.253076e-01 -2.229147e-01 -6.315065e-02 -1.154623e-01 -4.418006e-02 4.050597e-02 -1.106001e-01 2.567379e-01 1.137511e-01 4.289475e-02 -4.948072e-03 -1.153053e-01 3.118917e-02 -1.275506e-01 9.919086e-02
<VARIANCE> 39
 1.483638e+01 1.580677e+01 3.118572e+01 4.114999e+01 2.837644e+01 4.740532e+01 2.259529e+01 7.066048e+01 4.345108e+01 3.051227e+01 3.262667e+01 1.267605e+01 2.228469e+01 7.842434e-01 1.255305e+00 2.174001e+00 1.681374e+00 2.042899e+00 4.638463e+00 2.306622e+00 2.790805e+00 2.108389e+00 2.515481e+00 2.009103e+00 1.694477e+00 1.734154e+00 1.289784e-01 1.453681e-01 3.549083e-01 3.387750e-01 4.412071e-01 6.148476e-01 4.287337e-01 4.774763e-01 4.315579e-01 3.953139e-01 2.615807e-01 2.566467e-01 3.766285e-01
<GCONST> 1.095940e+02
<STATE> 4
<NUMMIXES> 2
<MIXTURE> 1 5.000000e-01
<MEAN> 39
 2.031274e+00 6.668748e+00 -1.047726e+00 2.957844e+00 8.207579e+00 -2.270980e+01 -1.048420e+01 -9.324617e+00 -5.789509e+00 3.627817e+00 2.554520e+00 2.207373e+00 -7.298666e+00 -1.702425e-02 -9.143217e-02 -1.670764e-01 5.237331e-03 5.399263e-02 1.846962e-01 -1.321267e-02 -6.169501e-02 1.240488e-02 -2.089233e-01 4.326703e-02 4.426372e-02 1.232382e-01 -1.441922e-02 -1.306583e-02 -1.782290e-02 -5.245240e-02 -8.709759e-02 1.131723e-01 6.839576e-02 3.124602e-02 2.009910e-02 -4.254185e-02 -4.769524e-02 -4.056227e-02 5.089944e-02
<VARIANCE> 39
 6.149879e+00 1.002192e+01 3.048341e+01 2.071700e+01 4.576765e+01 3.041159e+01 1.392458e+01 1.237313e+02 3.391342e+01 1.826487e+01 1.405664e+01 1.759786e+01 1.666429e+01 1.178041e-01 3.167787e-01 2.288930e-01 2.992989e-01 3.592792e-01 9.444776e-01 5.155231e-01 6.527190e-01 4.592069e-01 3.655994e-01 5.579329e-01 2.789092e-01 4.369099e-01 2.178613e-02 5.178416e-02 5.778898e-02 7.747484e-02 8.482946e-02 1.986638e-01 1.030662e-01 1.379686e-01 7.671849e-02 7.992891e-02 1.150415e-01 7.472403e-02 7.566874e-02
<GCONST> 6.611339e+01
<MIXTURE> 2 5.000000e-01
<MEAN> 39
 2.031274e+00 6.668748e+00 -1.047726e+00 2.957844e+00 8.207579e+00 -2.270980e+01 -1.048420e+01 -9.324617e+00 -5.789509e+00 3.627817e+00 2.554520e+00 2.207373e+00 -7.298666e+00 -1.702425e-02 -9.143217e-02 -1.670764e-01 5.237331e-03 5.399263e-02 1.846962e-01 -1.321267e-02 -6.169501e-02 1.240488e-02 -2.089233e-01 4.326703e-02 4.426372e-02 1.232382e-01 -1.441922e-02 -1.306583e-02 -1.782290e-02 -5.245240e-02 -8.709759e-02 1.131723e-01 6.839576e-02 3.124602e-02 2.009910e-02 -4.254185e-02 -4.769524e-02 -4.056227e-02 5.089944e-02
<VARIANCE> 39
 6.149879e+00 1.002192e+01 3.048341e+01 2.071700e+01 4.576765e+01 3.041159e+01 1.392458e+01 1.237313e+02 3.391342e+01 1.826487e+01 1.405664e+01 1.759786e+01 1.666429e+01 1.178041e-01 3.167787e-01 2.288930e-01 2.992989e-01 3.592792e-01 9.444776e-01 5.155231e-01 6.527190e-01 4.592069e-01 3.655994e-01 5.579329e-01 2.789092e-01 4.369099e-01 2.178613e-02 5.178416e-02 5.778898e-02 7.747484e-02 8.482946e-02 1.986638e-01 1.030662e-01 1.379686e-01 7.671849e-02 7.992891e-02 1.150415e-01 7.472403e-02 7.566874e-02
<GCONST> 6.611339e+01
<TRANSP> 5
 0.000000e+00 1.000000e+00 0.000000e+00 0.000000e+00 0.000000e+00
 0.000000e+00 8.319814e-01 1.680186e-01 0.000000e+00 0.000000e+00
 0.000000e+00 0.000000e+00 8.614591e-01 1.385410e-01 0.000000e+00
 0.000000e+00 0.000000e+00 0.000000e+00 9.317622e-01 6.823780e-02
 0.000000e+00 0.000000e+00 0.000000e+00 0.000000e+00 0.000000e+00
<ENDHMM>
~h "n"
<BEGINHMM>
<NUMSTATES> 5
<STATE> 2
<NUMMIXES> 2
<MIXTURE> 1 5.000000e-01
<MEAN> 39
 1.226786e+00 3.607726e+00 2.858016e+00 -2.669120e+00 -1.051612e+00 -1.394988e+01 9.416886e-01 -4.343317e+00 -1.308644e+01 4.959081e+00 -4.338485e+00 3.806643e-01 -4.535580e+00 6.831709e-01 1.177909e+00 8.595890e-01 -1.147416e-01 3.288729e-01 -2.378835e+00 -8.663830e-01 -8.990614e-01 3.201815e-01 1.400253e+00 3.475041e-01 3.372617e-01 -1.445753e+00 -1.751477e-01 -3.035885e-01 -1.904184e-01 -2.043832e-01 9.479205e-02 3.246287e-01 2.265175e-01 2.436509e-02 -6.543601e-02 -1.343810e-01 -3.194492e-01 -3.278051e-02 1.848012e-01
<VARIANCE> 39
 1.436916e+01 1.054701e+01 2.722221e+01 2.091998e+01 1.150437e+01 5.835405e+01 5.774871e+01 3.161877e+01 2.809843e+01 5.166896e+01 2.790535e+01 1.485211e+01 3.261565e+01 5.419205e-01 1.770365e+00 9.907140e-01 1.463302e+00 9.582601e-01 5.073220e+00 3.721121e+00 1.315503e+00 1.181273e+00 1.885921e+00 1.984801e+00 2.100446e+00 1.298017e+00 5.472735e-02 1.797470e-01 1.488597e-01 2.490994e-01 1.277731e-01 6.231205e-01 5.925496e-01 2.456538e-01 2.342818e-01 4.290351e-01 2.145182e-01 3.800475e-01 2.492267e-01
<GCONST> 1.012757e+02
<MIXTURE> 2 5.000000e-01
<MEAN> 39
 1.226786e+00 3.607726e+00 2.858016e+00 -2.669120e+00 -1.051612e+00 -1.394988e+01 9.416886e-01 -4.343317e+00 -1.308644e+01 4.959081e+00 -4.338485e+00 3.806643e-01 -4.535580e+00 6.831709e-01 1.177909e+00 8.595890e-01 -1.147416e-01 3.288729e-01 -2.378835e+00 -8.663830e-01 -8.990614e-01 3.201815e-01 1.400253e+00 3.475041e-01 3.372617e-01 -1.445753e+00 -1.751477e-01 -3.035885e-01 -1.904184e-01 -2.043832e-01 9.479205e-02 3.246287e-01 2.265175e-01 2.436509e-02 -6.543601e-02 -1.343810e-01 -3.194492e-01 -3.278051e-02 1.848012e-01
<VARIANCE> 39
 1.436916e+01 1.054701e+01 2.722221e+01 2.091998e+01 1.150437e+01 5.835405e+01 5.774871e+01 3.161877e+01 2.809843e+01 5.166896e+01 2.790535e+01 1.485211e+01 3.261565e+01 5.419205e-01 1.770365e+00 9.907140e-01 1.463302e+00 9.582601e-01 5.073220e+00 3.721121e+00 1.315503e+00 1.181273e+00 1.885921e+00 1.984801e+00 2.100446e+00 1.298017e+00 5.472735e-02 1.797470e-01 1.488597e-01 2.490994e-01 1.277731e-01 6.231205e-01 5.925496e-01 2.456538e-01 2.342818e-01 4.290351e-01 2.145182e-01 3.800475e-01 2.492267e-01
<GCONST> 1.012757e+02
<STATE> 3
<NUMMIXES> 2
<MIXTURE> 1 5.000000e-01
<MEAN> 39
 4.186513e+00 6.940113e+00 5.306980e+00 -4.906000e+00 2.609740e+00 -2.008268e+01 -1.456068e+00 -9.201438e+00 -8.810854e+00 7.973980e+00 -4.507006e+00 2.318578e+00 -7.566698e+00 -2.140467e-01 2.111675e-02 -1.346654e-01 1.916648e-02 -1.917903e-01 4.055620e-01 -9.083954e-02 1.464810e-01 4.613629e-02 -3.772691e-01 -4.002964e-02 3.228508e-02 3.298830e-01 -1.335041e-01 -1.267939e-01 -7.347573e-02 -2.849603e-02 -1.435285e-01 4.247357e-01 7.526320e-02 9.131902e-02 -1.980468e-02 -1.906650e-01 -5.525482e-02 -3.211608e-02 1.691493e-01
<VARIANCE> 39
 8.958722e+00 1.062065e+01 7.234743e+00 1.572584e+01 1.820902e+01 4.053117e+01 6.815270e+01 1.707304e+01 3.990049e+01 2.489468e+01 3.513192e+01 2.386436e+01 5.199362e+01 5.288296e-01 9.132048e-01 5.988501e-01 1.173339e+00 1.252565e+00 4.553274e+00 1.819785e+00 1.279674e+00 1.408549e+00 2.210505e+00 1.489456e+00 1.014062e+00 1.385873e+00 7.059360e-02 1.832592e-01 1.255885e-01 2.660934e-01 1.934698e-01 7.083300e-01 3.840310e-01 2.339245e-01 2.333471e-01 3.917805e-01 2.766889e-01 1.942838e-01 2.299978e-01
<GCONST> 9.666495e+01
<MIXTURE> 2 5.000000e-01
<MEAN> 39
 4.186513e+00 6.940113e+00 5.306980e+00 -4.906000e+00 2.609740e+00 -2.008268e+01 -1.456068e+00 -9.201438e+00 -8.810854e+00 7.973980e+00 -4.507006e+00 2.318578e+00 -7.566698e+00 -2.140467e-01 2.111675e-02 -1.346654e-01 1.916648e-02 -1.917903e-01 4.055620e-01 -9.083954e-02 1.464810e-01 4.613629e-02 -3.772691e-01 -4.002964e-02 3.228508e-02 3.298830e-01 -1.335041e-01 -1.267939e-01 -7.347573e-02 -2.849603e-02 -1.435285e-01 4.247357e-01 7.526320e-02 9.131902e-02 -1.980468e-02 -1.906650e-01 -5.525482e-02 -3.211608e-02 1.691493e-01
<VARIANCE> 39
 8.958722e+00 1.062065e+01 7.234743e+00 1.572584e+01 1.820902e+01 4.053117e+01 6.815270e+01 1.707304e+01 3.990049e+01 2.489468e+01 3.513192e+01 2.386436e+01 5.199362e+01 5.288296e-01 9.132048e-01 5.988501e-01 1.173339e+00 1.252565e+00 4.553274e+00 1.819785e+00 1.279674e+00 1.408549e+00 2.210505e+00 1.489456e+00 1.014062e+00 1.385873e+00 7.059360e-02 1.832592e-01 1.255885e-01 2.660934e-01 1.934698e-01 7.083300e-01 3.840310e-01 2.339245e-01 2.333471e-01 3.917805e-01 2.766889e-01 1.942838e-01 2.299978e-01
<GCONST> 9.666495e+01
<STATE> 4
<NUMMIXES> 2
<MIXTURE> 1 5.000000e-01
<MEAN> 39
 -4.655211e+00 -2.955252e+00 3.042142e-01 -2.780376e+00 -3.150641e+00 1.655877e-01 -1.300570e+00 -8.075912e+00 -4.445365e+00 5.755320e-01 -6.943410e+00 -3.324222e-01 2.066999e+00 -2.372449e-01 -2.034794e-01 -1.978647e-01 -1.116811e-01 -4.105547e-02 6.478401e-01 -5.694326e-03 3.191174e-02 8.162474e-02 -2.772675e-01 -3.202194e-02 -4.318113e-03 1.625512e-01 4.392652e-02 7.349509e-02 4.137607e-02 3.318797e-02 7.776530e-02 -1.612543e-01 6.771294e-03 -3.390046e-02 8.788525e-03 5.298860e-02 7.807467e-02 -3.803995e-03 -6.551332e-02
<VARIANCE> 39
 6.364539e+00 3.442561e+01 1.669825e+01 3.103211e+01 2.557909e+01 3.333951e+01 6.277931e+01 3.377785e+01 6.860165e+01 3.221532e+01 2.447511e+01 1.764158e+01 1.985869e+01 6.730340e-01 1.496094e+00 1.819672e+00 2.040543e+00 2.327792e+00 3.924917e+00 3.881428e+00 3.089005e+00 2.451174e+00 3.633442e+00 3.251574e+00 2.195823e+00 2.332726e+00 1.163675e-01 1.825068e-01 3.421195e-01 4.054286e-01 4.966867e-01 5.341123e-01 7.169415e-01 5.972205e-01 4.449487e-01 7.013882e-01 7.182695e-01 4.439713e-01 4.490910e-01
<GCONST> 1.143864e+02
<MIXTURE> 2 5.000000e-01
<MEAN> 39
 -4.655211e+00 -2.955252e+00 3.042142e-01 -2.780376e+00 -3.150641e+00 1.655877e-01 -1.300570e+00 -8.075912e+00 -4.445365e+00 5.755320e-01 -6.943410e+00 -3.324222e-01 2.066999e+00 -2.372449e-01 -2.034794e-01 -1.978647e-01 -1.116811e-01 -4.105547e-02 6.478401e-01 -5.694326e-03 3.191174e-02 8.162474e-02 -2.772675e-01 -3.202194e-02 -4.318113e-03 1.625512e-01 4.392652e-02 7.349509e-02 4.137607e-02 3.318797e-02 7.776530e-02 -1.612543e-01 6.771294e-03 -3.390046e-02 8.788525e-03 5.298860e-02 7.807467e-02 -3.803995e-03 -6.551332e-02
<VARIANCE> 39
 6.364539e+00 3.442561e+01 1.669825e+01 3.103211e+01 2.557909e+01 3.333951e+01 6.277931e+01 3.377785e+01 6.860165e+01 3.221532e+01 2.447511e+01 1.764158e+01 1.985869e+01 6.730340e-01 1.496094e+00 1.819672e+00 2.040543e+00 2.327792e+00 3.924917e+00 3.881428e+00 3.089005e+00 2.451174e+00 3.633442e+00 3.251574e+00 2.195823e+00 2.332726e+00 1.163675e-01 1.825068e-01 3.421195e-01 4.054286e-01 4.966867e-01 5.341123e-01 7.169415e-01 5.972205e-01 4.449487e-01 7.013882e-01 7.182695e-01 4.439713e-01 4.490910e-01
<GCONST> 1.143864e+02
<TRANSP> 5
 0.000000e+00 1.000000e+00 0.000000e+00 0.000000e+00 0.000000e+00
 0.000000e+00 6.907181e-01 3.092819e-01 0.000000e+00 0.000000e+00
 0.000000e+00 0.000000e+00 9.017718e-01 9.822820e-02 0.000000e+00
 0.000000e+00 0.000000e+00 0.000000e+00 9.253061e-01 7.469390e-02
 0.000000e+00 0.000000e+00 0.000000e+00 0.000000e+00 0.000000e+00
<ENDHMM>
~h "o"
<BEGINHMM>
<NUMSTATES> 7
<STATE> 2
<NUMMIXES> 2
<MIXTURE> 1 5.000000e-01
<MEAN> 39
 3.660963e+00 3.299622e+00 -2.101241e+01 3.754039e-01 1.825829e+00 -1.086663e+01 -1.254415e+00 -2.566846e+00 9.058533e+00 1.325487e+00 -7.868396e+00 -6.737338e+00 1.861161e-01 -1.257491e-02 4.705824e-02 -1.342380e-01 6.705649e-02 -6.307933e-02 -8.941486e-02 -1.418018e-01 1.646529e-01 -1.035209e-01 -2.525253e-02 -1.354202e-01 1.005665e-01 -6.175395e-02 1.468206e-03 -1.417264e-02 1.209174e-01 1.978028e-02 -5.753694e-02 1.364570e-02 2.987256e-02 2.912712e-02 -7.853165e-02 -4.024616e-02 6.873372e-02 4.892443e-02 -4.158023e-02
<VARIANCE> 39
 8.030848e+00 6.375352e+00 4.462889e+01 1.073088e+01 1.473274e+01 2.425891e+01 1.154234e+01 5.797395e+01 2.129598e+01 2.418189e+01 2.029174e+01 2.402866e+01 1.456568e+01 3.437533e-01 2.157833e-01 7.273019e-01 3.888249e-01 6.744601e-01 6.802298e-01 6.253222e-01 1.624533e+00 1.393410e+00 1.335933e+00 1.210893e+00 1.052380e+00 7.133867e-01 3.777143e-02 3.538268e-02 6.636385e-02 6.679895e-02 6.312207e-02 7.696048e-02 1.043968e-01 1.500986e-01 1.680174e-01 1.882303e-01 1.324946e-01 1.237500e-01 9.776973e-02
<GCONST> 7.377065e+01
<MIXTURE> 2 5.000000e-01
<MEAN> 39
 3.660963e+00 3.299622e+00 -2.101241e+01 3.754039e-01 1.825829e+00 -1.086663e+01 -1.254415e+00 -2.566846e+00 9.058533e+00 1.325487e+00 -7.868396e+00 -6.737338e+00 1.861161e-01 -1.257491e-02 4.705824e-02 -1.342380e-01 6.705649e-02 -6.307933e-02 -8.941486e-02 -1.418018e-01 1.646529e-01 -1.035209e-01 -2.525253e-02 -1.354202e-01 1.005665e-01 -6.175395e-02 1.468206e-03 -1.417264e-02 1.209174e-01 1.978028e-02 -5.753694e-02 1.364570e-02 2.987256e-02 2.912712e-02 -7.853165e-02 -4.024616e-02 6.873372e-02 4.892443e-02 -4.158023e-02
<VARIANCE> 39
 8.030848e+00 6.375352e+00 4.462889e+01 1.073088e+01 1.473274e+01 2.425891e+01 1.154234e+01 5.797395e+01 2.129598e+01 2.418189e+01 2.029174e+01 2.402866e+01 1.456568e+01 3.437533e-01 2.157833e-01 7.273019e-01 3.888249e-01 6.744601e-01 6.802298e-01 6.253222e-01 1.624533e+00 1.393410e+00 1.335933e+00 1.210893e+00 1.052380e+00 7.133867e-01 3.777143e-02 3.538268e-02 6.636385e-02 6.679895e-02 6.312207e-02 7.696048e-02 1.043968e-01 1.500986e-01 1.680174e-01 1.882303e-01 1.324946e-01 1.237500e-01 9.776973e-02
<GCONST> 7.377065e+01
<STATE> 3
<NUMMIXES> 2
<MIXTURE> 1 5.000000e-01
<MEAN> 39
 4.647584e+00 1.424096e+00 -1.612228e+01 7.032080e-01 9.970500e-01 -9.123423e+00 -2.277784e+00 3.118473e+00 4.852908e+00 -3.410422e-01 -8.687777e+00 -3.143356e+00 6.107790e-01 1.516906e-01 3.549473e-02 1.135058e+00 4.167262e-01 -1.835697e-01 1.652700e-01 7.737550e-02 1.815153e-01 -6.810490e-01 -2.686363e-01 7.395119e-02 4.729202e-01 2.200418e-01 3.260465e-02 5.077259e-02 1.321916e-01 1.032559e-01 1.583565e-01 5.245863e-02 -1.862076e-02 -2.626235e-01 -9.504622e-02 -3.638924e-02 5.448401e-02 -9.300093e-03 1.464532e-01
<VARIANCE> 39
 1.770578e+01 3.336321e+01 1.085676e+02 2.744924e+01 4.743810e+01 6.945592e+01 3.074486e+01 5.530655e+01 5.455633e+01 5.427160e+01 5.257856e+01 5.292295e+01 3.871412e+01 4.667484e-01 1.061640e+00 1.424982e+00 8.583407e-01 1.506779e+00 1.509938e+00 2.237905e+00 2.351854e+00 3.155478e+00 2.810518e+00 2.235310e+00 1.999345e+00 1.426323e+00 7.887252e-02 1.057189e-01 2.190117e-01 1.553016e-01 2.806447e-01 2.412442e-01 4.455099e-01 3.318964e-01 7.030904e-01 4.838463e-01 4.629064e-01 3.376708e-01 2.499189e-01
<GCONST> 1.101016e+02
<MIXTURE> 2 5.000000e-01
<MEAN> 39
 4.647584e+00 1.424096e+00 -1.612228e+01 7.032080e-01 9.970500e-01 -9.123423e+00 -2.277784e+00 3.118473e+00 4.852908e+00 -3.410422e-01 -8.687777e+00 -3.143356e+00 6.107790e-01 1.516906e-01 3.549473e-02 1.135058e+00 4.167262e-01 -1.835697e-01 1.652700e-01 7.737550e-02 1.815153e-01 -6.810490e-01 -2.686363e-01 7.395119e-02 4.729202e-01 2.200418e-01 3.260465e-02 5.077259e-02 1.321916e-01 1.032559e-01 1.583565e-01 5.245863e-02 -1.862076e-02 -2.626235e-01 -9.504622e-02 -3.638924e-02 5.448401e-02 -9.300093e-03 1.464532e-01
<VARIANCE> 39
 1.770578e+01 3.336321e+01 1.085676e+02 2.744924e+01 4.743810e+01 6.945592e+01 3.074486e+01 5.530655e+01 5.455633e+01 5.427160e+01 5.257856e+01 5.292295e+01 3.871412e+01 4.667484e-01 1.061640e+00 1.424982e+00 8.583407e-01 1.506779e+00 1.509938e+00 2.237905e+00 2.351854e+00 3.155478e+00 2.810518e+00 2.235310e+00 1.999345e+00 1.426323e+00 7.887252e-02 1.057189e-01 2.190117e-01 1.553016e-01 2.806447e-01 2.412442e-01 4.455099e-01 3.318964e-01 7.030904e-01 4.838463e-01 4.629064e-01 3.376708e-01 2.499189e-01
<GCONST> 1.101016e+02
<STATE> 4
<NUMMIXES> 2
<MIXTURE> 1 5.000000e-01
<MEAN> 39
 5.777348e+00 4.566309e+00 -7.857350e+00 4.371979e+00 1.163318e+00 -9.368700e+00 -3.948416e+00 -1.000711e+00 3.300784e+00 -6.435870e-01 -6.081167e+00 -1.075378e+00 1.962970e+00 -4.244352e-01 -4.754215e-01 2.815068e-01 4.015425e-01 5.802251e-01 9.390429e-02 1.446825e-01 2.052372e-01 -3.447507e-01 -3.182465e-01 3.863740e-01 1.491355e-01 2.667409e-01 -2.220150e-01 -2.050377e-01 -3.130545e-01 -2.499298e-01 -8.475024e-02 1.150733e-01 1.282394e-01 4.190164e-01 3.483588e-01 6.424541e-02 -3.041406e-02 -1.362937e-01 -2.213763e-01
