~o
<STREAMINFO> 1 39
<VECSIZE> 39<NULLD><MFCC_D_A><DIAGC>
~h "a"
<BEGINHMM>
<NUMSTATES> 7
<STATE> 2
<NUMMIXES> 2
<MIXTURE> 1 5.000000e-01
<MEAN> 39
 -2.485853e+00 1.351694e+00 -2.429884e+00 -2.969990e+00 -7.289944e-01 -1.500878e+00 3.947933e+00 -2.980281e+00 -5.286662e+00 -2.082264e+00 -3.539890e+00 -1.698411e+00 8.784617e-01 1.639167e-01 1.488425e-01 -1.212586e-01 1.900961e-01 2.030414e-01 6.645107e-03 -1.316454e-01 1.680084e-01 -1.126511e-03 -2.907409e-01 7.083023e-02 -2.340008e-01 3.532073e-01 -1.445481e-01 -1.560574e-01 -1.046236e-01 1.188835e-01 4.177924e-02 -5.996336e-02 -7.745434e-02 2.003243e-01 4.158828e-02 -1.311046e-01 4.482869e-02 5.464853e-02 6.080816e-02
<VARIANCE> 39
 3.112254e+01 3.323307e+01 9.185994e+01 4.596780e+01 6.973848e+01 1.524923e+02 1.391494e+02 1.029444e+02 3.820092e+01 7.919909e+01 3.533315e+01 2.646465e+01 3.971066e+01 2.090132e+00 1.938956e+00 3.589634e+00 3.357003e+00 3.243163e+00 5.728234e+00 5.123311e+00 4.417911e+00 3.219635e+00 4.579554e+00 4.381912e+00 2.169638e+00 3.154624e+00 2.165285e-01 3.700010e-01 4.327416e-01 4.515777e-01 3.924445e-01 8.958356e-01 1.094447e+00 8.854331e-01 6.876144e-01 7.390101e-01 5.023305e-01 4.289064e-01 5.664626e-01
<GCONST> 1.323532e+02
<MIXTURE> 2 5.000000e-01
<MEAN> 39
 -2.485853e+00 1.351694e+00 -2.429884e+00 -2.969990e+00 -7.289944e-01 -1.500878e+00 3.947933e+00 -2.980281e+00 -5.286662e+00 -2.082264e+00 -3.539890e+00 -1.698411e+00 8.784617e-01 1.639167e-01 1.488425e-01 -1.212586e-01 1.900961e-01 2.030414e-01 6.645107e-03 -1.316454e-01 1.680084e-01 -1.126511e-03 -2.907409e-01 7.083023e-02 -2.340008e-01 3.532073e-01 -1.445481e-01 -1.560574e-01 -1.046236e-01 1.188835e-01 4.177924e-02 -5.996336e-02 -7.745434e-02 2.003243e-01 4.158828e-02 -1.311046e-01 4.482869e-02 5.464853e-02 6.080816e-02
<VARIANCE> 39
 3.112254e+01 3.323307e+01 9.185994e+01 4.596780e+01 6.973848e+01 1.524923e+02 1.391494e+02 1.029444e+02 3.820092e+01 7.919909e+01 3.533315e+01 2.646465e+01 3.971066e+01 2.090132e+00 1.938956e+00 3.589634e+00 3.357003e+00 3.243163e+00 5.728234e+00 5.123311e+00 4.417911e+00 3.219635e+00 4.579554e+00 4.381912e+00 2.169638e+00 3.154624e+00 2.165285e-01 3.700010e-01 4.327416e-01 4.515777e-01 3.924445e-01 8.958356e-01 1.094447e+00 8.854331e-01 6.876144e-01 7.390101e-01 5.023305e-01 4.289064e-01 5.664626e-01
<GCONST> 1.323532e+02
<STATE> 3
<NUMMIXES> 2
<MIXTURE> 1 5.000000e-01
<MEAN> 39
 -6.918009e+00 -2.361139e+00 -3.089084e+00 -5.222591e-01 -1.691518e+00 -5.486229e-01 3.239129e+00 -3.286784e+00 -5.602281e+00 -1.209723e+00 -3.613656e+00 -3.743545e+00 1.190628e+00 2.104954e-01 -5.196193e-01 -4.464005e-01 5.298473e-02 8.949773e-02 -8.337212e-02 2.007578e-01 -2.665197e-02 -1.475953e-01 -1.568213e-01 -1.590260e-01 1.353682e-01 1.254518e-01 -3.806158e-04 -3.573695e-02 -1.157908e-02 4.101646e-02 7.534547e-03 -9.443269e-02 4.011429e-02 -6.149817e-04 -3.225126e-02 -5.596333e-02 -4.159227e-03 1.597381e-01 -5.008380e-02
<VARIANCE> 39
 4.088058e+01 3.623786e+01 4.920174e+01 5.311298e+01 5.770078e+01 4.984881e+01 6.685934e+01 4.126208e+01 6.944615e+01 4.838044e+01 3.864660e+01 3.020807e+01 2.695716e+01 2.585423e+00 3.556762e+00 3.298273e+00 2.769093e+00 2.824428e+00 4.746091e+00 3.823275e+00 4.117314e+00 5.035975e+00 4.452534e+00 4.304091e+00 2.853433e+00 3.301433e+00 4.039114e-01 6.072898e-01 5.511973e-01 5.973277e-01 5.054560e-01 7.186415e-01 7.703280e-01 7.130913e-01 9.584708e-01 6.806169e-01 8.515025e-01 6.769710e-01 5.235965e-01
<GCONST> 1.320516e+02
<MIXTURE> 2 5.000000e-01
<MEAN> 39
 -6.918009e+00 -2.361139e+00 -3.089084e+00 -5.222591e-01 -1.691518e+00 -5.486229e-01 3.239129e+00 -3.286784e+00 -5.602281e+00 -1.209723e+00 -3.613656e+00 -3.743545e+00 1.190628e+00 2.104954e-01 -5.196193e-01 -4.464005e-01 5.298473e-02 8.949773e-02 -8.337212e-02 2.007578e-01 -2.665197e-02 -1.475953e-01 -1.568213e-01 -1.590260e-01 1.353682e-01 1.254518e-01 -3.806158e-04 -3.573695e-02 -1.157908e-02 4.101646e-02 7.534547e-03 -9.443269e-02 4.011429e-02 -6.149817e-04 -3.225126e-02 -5.596333e-02 -4.159227e-03 1.597381e-01 -5.008380e-02
<VARIANCE> 39
 4.088058e+01 3.623786e+01 4.920174e+01 5.311298e+01 5.770078e+01 4.984881e+01 6.685934e+01 4.126208e+01 6.944615e+01 4.838044e+01 3.864660e+01 3.020807e+01 2.695716e+01 2.585423e+00 3.556762e+00 3.298273e+00 2.769093e+00 2.824428e+00 4.746091e+00 3.823275e+00 4.117314e+00 5.035975e+00 4.452534e+00 4.304091e+00 2.853433e+00 3.301433e+00 4.039114e-01 6.072898e-01 5.511973e-01 5.973277e-01 5.054560e-01 7.186415e-01 7.703280e-01 7.130913e-01 9.584708e-01 6.806169e-01 8.515025e-01 6.769710e-01 5.235965e-01
<GCONST> 1.320516e+02
<STATE> 4
<NUMMIXES> 2
<MIXTURE> 1 5.000000e-01
<MEAN> 39
 -1.824586e+00 -1.645639e+00 -1.200915e+01 2.187877e+00 3.746199e+00 -2.928426e+00 2.725438e-02 -3.158470e+00 -1.265449e+00 -6.014615e+00 -4.188044e+00 -1.200076e+00 9.345574e-01 1.361689e-01 -2.324819e-01 -2.294782e-01 1.518694e-01 3.958745e-02 -1.076371e-01 7.958398e-02 3.451127e-01 -3.729952e-03 -2.618307e-01 -1.813936e-01 2.851603e-01 1.234961e-01 -9.566660e-02 5.090933e-02 1.569855e-01 2.477776e-02 -7.916473e-02 -5.868994e-02 6.763258e-02 -1.337696e-02 -2.144426e-01 6.761376e-02 9.797392e-02 4.154218e-02 -9.259161e-02
<VARIANCE> 39
 3.801959e+01 2.506821e+01 1.220911e+02 4.530438e+01 4.624428e+01 2.971642e+01 4.603183e+01 2.563919e+01 5.259981e+01 5.132774e+01 3.550908e+01 4.440815e+01 2.786504e+01 1.649318e+00 1.684669e+00 3.156283e+00 2.037102e+00 1.572703e+00 2.056671e+00 3.242886e+00 3.259892e+00 3.993001e+00 3.956696e+00 2.659593e+00 2.909091e+00 2.499069e+00 3.946458e-01 2.798704e-01 6.126979e-01 3.741596e-01 3.203018e-01 5.092596e-01 5.932117e-01 6.231228e-01 8.295493e-01 8.205248e-01 6.756262e-01 5.054595e-01 6.562129e-01
<GCONST> 1.238175e+02
<MIXTURE> 2 5.000000e-01
<MEAN> 39
 -1.824586e+00 -1.645639e+00 -1.200915e+01 2.187877e+00 3.746199e+00 -2.928426e+00 2.725438e-02 -3.158470e+00 -1.265449e+00 -6.014615e+00 -4.188044e+00 -1.200076e+00 9.345574e-01 1.361689e-01 -2.324819e-01 -2.294782e-01 1.518694e-01 3.958745e-02 -1.076371e-01 7.958398e-02 3.451127e-01 -3.729952e-03 -2.618307e-01 -1.813936e-01 2.851603e-01 1.234961e-01 -9.566660e-02 5.090933e-02 1.569855e-01 2.477776e-02 -7.916473e-02 -5.868994e-02 6.763258e-02 -1.337696e-02 -2.144426e-01 6.761376e-02 9.797392e-02 4.154218e-02 -9.259161e-02
<VARIANCE> 39
 3.801959e+01 2.506821e+01 1.220911e+02 4.530438e+01 4.624428e+01 2.971642e+01 4.603183e+01 2.563919e+01 5.259981e+01 5.132774e+01 3.550908e+01 4.440815e+01 2.786504e+01 1.649318e+00 1.684669e+00 3.156283e+00 2.037102e+00 1.572703e+00 2.056671e+00 3.242886e+00 3.259892e+00 3.993001e+00 3.956696e+00 2.659593e+00 2.909091e+00 2.499069e+00 3.946458e-01 2.798704e-01 6.126979e-01 3.741596e-01 3.203018e-01 5.092596e-01 5.932117e-01 6.231228e-01 8.295493e-01 8.205248e-01 6.756262e-01 5.054595e-01 6.562129e-01
<GCONST> 1.238175e+02
<STATE> 5
<NUMMIXES> 2
<MIXTURE> 1 5.000000e-01
<MEAN> 39
 -1.719132e+00 -5.543371e+00 -1.210172e+01 1.099386e+00 3.583512e+00 -7.036108e+00 4.025104e+00 -9.395539e-01 -5.079277e+00 -1.012438e+01 -6.014832e+00 1.986298e+00 1.457828e+00 -1.896955e-01 -2.125388e-01 3.416498e-01 7.685363e-02 -3.436030e-01 -2.300330e-01 6.315767e-01 4.542355e-01 -1.355443e+00 -1.851492e-01 6.871912e-01 1.735487e-01 -3.609012e-01 -2.823220e-02 1.765885e-01 1.571484e-01 -8.349372e-02 -1.026288e-01 5.796181e-02 -1.760310e-02 -2.011218e-01 -4.380898e-02 3.421608e-01 9.445827e-02 -2.836908e-01 -5.540140e-02
<VARIANCE> 39
 9.715714e+00 1.714913e+01 7.668946e+01 4.041714e+01 5.994818e+01 3.986808e+01 3.991224e+01 2.337518e+01 6.410095e+01 6.127623e+01 2.984561e+01 3.062762e+01 2.426448e+01 7.733707e-01 9.024113e-01 1.598979e+00 8.509852e-01 1.610693e+00 1.289463e+00 1.792767e+00 1.281569e+00 2.135813e+00 2.529576e+00 2.251992e+00 1.675793e+00 1.529257e+00 1.304679e-01 1.211842e-01 1.714995e-01 1.533284e-01 2.038996e-01 2.924627e-01 2.535108e-01 2.791108e-01 3.155053e-01 3.011213e-01 4.170983e-01 2.285506e-01 2.588849e-01
<GCONST> 1.033739e+02
<MIXTURE> 2 5.000000e-01
<MEAN> 39
 -1.719132e+00 -5.543371e+00 -1.210172e+01 1.099386e+00 3.583512e+00 -7.036108e+00 4.025104e+00 -9.395539e-01 -5.079277e+00 -1.012438e+01 -6.014832e+00 1.986298e+00 1.457828e+00 -1.896955e-01 -2.125388e-01 3.416498e-01 7.685363e-02 -3.436030e-01 -2.300330e-01 6.315767e-01 4.542355e-01 -1.355443e+00 -1.851492e-01 6.871912e-01 1.735487e-01 -3.609012e-01 -2.823220e-02 1.765885e-01 1.571484e-01 -8.349372e-02 -1.026288e-01 5.796181e-02 -1.760310e-02 -2.011218e-01 -4.380898e-02 3.421608e-01 9.445827e-02 -2.836908e-01 -5.540140e-02
<VARIANCE> 39
 9.715714e+00 1.714913e+01 7.668946e+01 4.041714e+01 5.994818e+01 3.986808e+01 3.991224e+01 2.337518e+01 6.410095e+01 6.127623e+01 2.984561e+01 3.062762e+01 2.426448e+01 7.733707e-01 9.024113e-01 1.598979e+00 8.509852e-01 1.610693e+00 1.289463e+00 1.792767e+00 1.281569e+00 2.135813e+00 2.529576e+00 2.251992e+00 1.675793e+00 1.529257e+00 1.304679e-01 1.211842e-01 1.714995e-01 1.533284e-01 2.038996e-01 2.924627e-01 2.535108e-01 2.791108e-01 3.155053e-01 3.011213e-01 4.170983e-01 2.285506e-01 2.588849e-01
<GCONST> 1.033739e+02
<STATE> 6
<NUMMIXES> 2
<MIXTURE> 1 5.000000e-01
<MEAN> 39
 -2.415130e+00 -4.904828e+00 -5.501753e+00 -1.519622e+00 -5.270163e+00 -3.455648e+00 9.568859e+00 -1.868002e+00 -1.223426e+01 -9.897480e-01 -5.493401e+00 -2.781686e+00 8.530902e-01 9.978887e-02 2.629829e-01 4.851776e-01 -1.130231e-01 -2.376723e-01 -1.045345e-01 5.614819e-02 -3.413204e-02 1.423644e-01 3.104417e-01 -1.460450e-01 -1.255986e-01 4.302174e-03 2.396149e-02 9.029745e-02 7.758839e-02 3.256860e-02 4.906664e-02 -2.567014e-02 -1.540086e-01 -3.774186e-02 1.776936e-01 -5.699344e-02 -2.035530e-02 4.748721e-02 -7.386625e-03
<VARIANCE> 39
 9.802610e+00 1.586284e+01 4.701082e+01 3.234493e+01 4.857642e+01 3.610046e+01 3.452531e+01 2.293414e+01 3.300160e+01 5.304231e+01 3.421979e+01 2.307947e+01 2.369776e+01 5.719989e-01 8.339487e-01 1.233761e+00 1.245577e+00 1.608521e+00 1.867306e+00 1.775771e+00 1.527892e+00 2.115060e+00 3.059505e+00 1.721247e+00 1.153429e+00 1.073585e+00 7.224101e-02 9.433525e-02 1.064356e-01 1.849875e-01 1.879558e-01 2.761973e-01 3.146826e-01 2.448185e-01 2.602624e-01 4.557933e-01 2.956078e-01 2.008905e-01 1.757615e-01
<GCONST> 9.877869e+01
<MIXTURE> 2 5.000000e-01
<MEAN> 39
 -2.415130e+00 -4.904828e+00 -5.501753e+00 -1.519622e+00 -5.270163e+00 -3.455648e+00 9.568859e+00 -1.868002e+00 -1.223426e+01 -9.897480e-01 -5.493401e+00 -2.781686e+00 8.530902e-01 9.978887e-02 2.629829e-01 4.851776e-01 -1.130231e-01 -2.376723e-01 -1.045345e-01 5.614819e-02 -3.413204e-02 1.423644e-01 3.104417e-01 -1.460450e-01 -1.255986e-01 4.302174e-03 2.396149e-02 9.029745e-02 7.758839e-02 3.256860e-02 4.906664e-02 -2.567014e-02 -1.540086e-01 -3.774186e-02 1.776936e-01 -5.699344e-02 -2.035530e-02 4.748721e-02 -7.386625e-03
<VARIANCE> 39
 9.802610e+00 1.586284e+01 4.701082e+01 3.234493e+01 4.857642e+01 3.610046e+01 3.452531e+01 2.293414e+01 3.300160e+01 5.304231e+01 3.421979e+01 2.307947e+01 2.369776e+01 5.719989e-01 8.339487e-01 1.233761e+00 1.245577e+00 1.608521e+00 1.867306e+00 1.775771e+00 1.527892e+00 2.115060e+00 3.059505e+00 1.721247e+00 1.153429e+00 1.073585e+00 7.224101e-02 9.433525e-02 1.064356e-01 1.849875e-01 1.879558e-01 2.761973e-01 3.146826e-01 2.448185e-01 2.602624e-01 4.557933e-01 2.956078e-01 2.008905e-01 1.757615e-01
<GCONST> 9.877869e+01
<TRANSP> 7
 0.000000e+00 1.000000e+00 0.000000e+00 0.000000e+00 0.000000e+00 0.000000e+00 0.000000e+00
 0.000000e+00 6.828564e-01 3.171436e-01 0.000000e+00 0.000000e+00 0.000000e+00 0.000000e+00
 0.000000e+00 0.000000e+00 7.214016e-01 2.785983e-01 0.000000e+00 0.000000e+00 0.000000e+00
 0.000000e+00 0.000000e+00 0.000000e+00 7.248904e-01 2.751096e-01 0.000000e+00 0.000000e+00
 0.000000e+00 0.000000e+00 0.000000e+00 0.000000e+00 6.339713e-01 3.660286e-01 0.000000e+00
 0.000000e+00 0.000000e+00 0.000000e+00 0.000000e+00 0.000000e+00 8.432140e-01 1.567860e-01
 0.000000e+00 0.000000e+00 0.000000e+00 0.000000e+00 0.000000e+00 0.000000e+00 0.000000e+00
<ENDHMM>
~h "b"
<BEGINHMM>
<NUMSTATES> 5
<STATE> 2
<NUMMIXES> 2
<MIXTURE> 1 5.000000e-01
<MEAN> 39
 4.538721e+00 2.141288e+00 3.367587e+00 1.238674e-01 -3.179604e+00 -9.273495e+00 -8.218411e+00 4.242637e+00 -3.595898e+00 -3.107032e+00 -2.781187e+00 -3.494538e+00 2.447034e+00 1.388928e+00 7.910430e-01 9.985484e-01 1.243113e+00 1.233663e+00 -1.723803e+00 -1.913674e+00 -1.230645e-01 2.496535e-03 -3.178768e-01 -5.828321e-01 1.377365e+00 2.370046e-01 -2.234720e-01 2.024694e-01 1.002517e-01 -1.946979e-01 -2.204273e-01 2.040999e-01 -5.365152e-02 -3.729962e-01 2.049509e-01 5.723128e-02 -1.433360e-03 8.389251e-02 2.805218e-02
<VARIANCE> 39
 1.058304e+01 6.528974e+00 8.233573e+01 1.721338e+01 1.298384e+01 2.537892e+01 3.420906e+01 2.286314e+01 2.283115e+01 1.458344e+01 3.301756e+01 1.894575e+01 1.368343e+01 5.267394e-01 8.098373e-01 1.748431e+00 1.013926e+00 2.581697e+00 3.020886e+00 1.652057e+00 4.112341e+00 1.893470e+00 2.396765e+00 2.396307e+00 2.477054e+00 1.626210e+00 4.851340e-02 1.481263e-01 4.963254e-01 2.124344e-01 5.782967e-01 5.479274e-01 4.132060e-01 9.690435e-01 3.190190e-01 3.662104e-01 9.244990e-01 4.294846e-01 2.574068e-01
<GCONST> 1.042844e+02
<MIXTURE> 2 5.000000e-01
<MEAN> 39
 4.538721e+00 2.141288e+00 3.367587e+00 1.238674e-01 -3.179604e+00 -9.273495e+00 -8.218411e+00 4.242637e+00 -3.595898e+00 -3.107032e+00 -2.781187e+00 -3.494538e+00 2.447034e+00 1.388928e+00 7.910430e-01 9.985484e-01 1.243113e+00 1.233663e+00 -1.723803e+00 -1.913674e+00 -1.230645e-01 2.496535e-03 -3.178768e-01 -5.828321e-01 1.377365e+00 2.370046e-01 -2.234720e-01 2.024694e-01 1.002517e-01 -1.946979e-01 -2.204273e-01 2.040999e-01 -5.365152e-02 -3.729962e-01 2.049509e-01 5.723128e-02 -1.433360e-03 8.389251e-02 2.805218e-02
<VARIANCE> 39
 1.058304e+01 6.528974e+00 8.233573e+01 1.721338e+01 1.298384e+01 2.537892e+01 3.420906e+01 2.286314e+01 2.283115e+01 1.458344e+01 3.301756e+01 1.894575e+01 1.368343e+01 5.267394e-01 8.098373e-01 1.748431e+00 1.013926e+00 2.581697e+00 3.020886e+00 1.652057e+00 4.112341e+00 1.893470e+00 2.396765e+00 2.396307e+00 2.477054e+00 1.626210e+00 4.851340e-02 1.481263e-01 4.963254e-01 2.124344e-01 5.782967e-01 5.479274e-01 4.132060e-01 9.690435e-01 3.190190e-01 3.662104e-01 9.244990e-01 4.294846e-01 2.574068e-01
<GCONST> 1.042844e+02
<STATE> 3
<NUMMIXES> 2
<MIXTURE> 1 5.000000e-01
<MEAN> 39
 1.000082e+01 8.282296e+00 2.175666e+00 5.443776e+00 4.214777e+00 -1.831087e+01 -8.637304e+00 -2.576038e+00 -9.529305e-01 -2.601996e+00 -7.135769e+00 7.256868e-01 1.832302e+00 4.513526e-01 5.039561e-01 1.274507e-01 2.396774e-01 5.395945e-01 -3.217478e-01 -1.337212e-01 -3.749021e-01 8.154488e-02 4.064985e-01 -3.828629e-02 1.246904e-01 -4.426779e-01 -1.165494e-01 -6.531826e-02 -6.627279e-02 -7.029425e-02 -5.970895e-02 1.943029e-01 9.334067e-02 -9.368010e-03 -7.195018e-02 -2.180987e-02 1.702299e-03 -2.413811e-02 -1.711461e-02
<VARIANCE> 39
 1.041730e+01 1.732245e+01 6.381506e+01 2.172845e+01 3.466542e+01 2.381833e+01 5.252623e+01 2.585867e+01 2.667984e+01 4.244260e+01 2.271034e+01 1.292664e+01 2.636368e+01 2.363120e-01 3.196137e-01 1.386699e+00 1.116356e+00 9.749277e-01 1.617304e+00 1.364082e+00 1.411627e+00 3.204320e+00 1.658904e+00 1.387216e+00 1.138883e+00 9.981959e-01 5.829018e-02 7.429036e-02 1.429021e-01 1.865961e-01 1.826819e-01 3.195731e-01 2.551984e-01 2.918498e-01 6.290728e-01 3.593894e-01 2.447725e-01 2.793801e-01 1.772966e-01
<GCONST> 9.471023e+01
<MIXTURE> 2 5.000000e-01
<MEAN> 39
 1.000082e+01 8.282296e+00 2.175666e+00 5.443776e+00 4.214777e+00 -1.831087e+01 -8.637304e+00 -2.576038e+00 -9.529305e-01 -2.601996e+00 -7.135769e+00 7.256868e-01 1.832302e+00 4.513526e-01 5.039561e-01 1.274507e-01 2.396774e-01 5.395945e-01 -3.217478e-01 -1.337212e-01 -3.749021e-01 8.154488e-02 4.064985e-01 -3.828629e-02 1.246904e-01 -4.426779e-01 -1.165494e-01 -6.531826e-02 -6.627279e-02 -7.029425e-02 -5.970895e-02 1.943029e-01 9.334067e-02 -9.368010e-03 -7.195018e-02 -2.180987e-02 1.702299e-03 -2.413811e-02 -1.711461e-02
<VARIANCE> 39
 1.041730e+01 1.732245e+01 6.381506e+01 2.172845e+01 3.466542e+01 2.381833e+01 5.252623e+01 2.585867e+01 2.667984e+01 4.244260e+01 2.271034e+01 1.292664e+01 2.636368e+01 2.363120e-01 3.196137e-01 1.386699e+00 1.116356e+00 9.749277e-01 1.617304e+00 1.364082e+00 1.411627e+00 3.204320e+00 1.658904e+00 1.387216e+00 1.138883e+00 9.981959e-01 5.829018e-02 7.429036e-02 1.429021e-01 1.865961e-01 1.826819e-01 3.195731e-01 2.551984e-01 2.918498e-01 6.290728e-01 3.593894e-01 2.447725e-01 2.793801e-01 1.772966e-01
<GCONST> 9.471023e+01
<STATE> 4
<NUMMIXES> 2
<MIXTURE> 1 5.000000e-01
<MEAN> 39
 4.003232e+00 5.220546e+00 -3.345561e+00 2.500794e+00 -9.979251e-01 -1.000108e+01 -5.985876e+00 -5.142920e+00 2.871836e+00 -1.606608e+00 -5.238879e+00 -1.263487e+00 1.784376e-01 -1.365481e+00 -1.255091e+00 -1.933130e+00 -1.103659e+00 -8.566408e-01 1.452667e+00 1.182693e+00 -2.250578e-01 8.888403e-01 -7.086145e-01 3.610924e-01 -4.552881e-01 6.185678e-01 1.155595e-01 -1.237001e-02 -2.460947e-01 -7.815389e-02 3.424225e-01 -2.188598e-01 5.066413e-02 6.413854e-02 1.577262e-01 -9.728782e-02 -7.688633e-02 -3.658709e-02 -3.269965e-02
<VARIANCE> 39
 3.898636e+01 3.969732e+01 9.955465e+01 3.899692e+01 6.439651e+01 4.524389e+01 3.898599e+01 3.960088e+01 3.959838e+01 5.881863e+01 3.077619e+01 2.190000e+01 1.100205e+01 3.828036e+00 3.269091e+00 6.372499e+00 2.795935e+00 6.236865e+00 3.866221e+00 2.579273e+00 3.870250e+00 4.388555e+00 4.548004e+00 2.037261e+00 1.504892e+00 1.050041e+00 8.409969e-01 7.668548e-01 1.057639e+00 4.415103e-01 1.202326e+00 7.377164e-01 4.496222e-01 7.149631e-01 7.814879e-01 7.856928e-01 4.187818e-01 2.665665e-01 2.185552e-01
<GCONST> 1.276671e+02
<MIXTURE> 2 5.000000e-01
<MEAN> 39
 4.003232e+00 5.220546e+00 -3.345561e+00 2.500794e+00 -9.979251e-01 -1.000108e+01 -5.985876e+00 -5.142920e+00 2.871836e+00 -1.606608e+00 -5.238879e+00 -1.263487e+00 1.784376e-01 -1.365481e+00 -1.255091e+00 -1.933130e+00 -1.103659e+00 -8.566408e-01 1.452667e+00 1.182693e+00 -2.250578e-01 8.888403e-01 -7.086145e-01 3.610924e-01 -4.552881e-01 6.185678e-01 1.155595e-01 -1.237001e-02 -2.460947e-01 -7.815389e-02 3.424225e-01 -2.188598e-01 5.066413e-02 6.413854e-02 1.577262e-01 -9.728782e-02 -7.688633e-02 -3.658709e-02 -3.269965e-02
<VARIANCE> 39
 3.898636e+01 3.969732e+01 9.955465e+01 3.899692e+01 6.439651e+01 4.524389e+01 3.898599e+01 3.960088e+01 3.959838e+01 5.881863e+01 3.077619e+01 2.190000e+01 1.100205e+01 3.828036e+00 3.269091e+00 6.372499e+00 2.795935e+00 6.236865e+00 3.866221e+00 2.579273e+00 3.870250e+00 4.388555e+00 4.548004e+00 2.037261e+00 1.504892e+00 1.050041e+00 8.409969e-01 7.668548e-01 1.057639e+00 4.415103e-01 1.202326e+00 7.377164e-01 4.496222e-01 7.149631e-01 7.814879e-01 7.856928e-01 4.187818e-01 2.665665e-01 2.185552e-01
<GCONST> 1.276671e+02
<TRANSP> 5
 0.000000e+00 1.000000e+00 0.000000e+00 0.000000e+00 0.000000e+00
 0.000000e+00 7.201993e-01 2.798007e-01 0.000000e+00 0.000000e+00
 0.000000e+00 0.000000e+00 9.271278e-01 7.287221e-02 0.000000e+00
 0.000000e+00 0.000000e+00 0.000000e+00 8.651898e-01 1.348102e-01
 0.000000e+00 0.000000e+00 0.000000e+00 0.000000e+00 0.000000e+00
<ENDHMM>
~h "c"
<BEGINHMM>
<NUMSTATES> 5
<STATE> 2
<NUMMIXES> 2
<MIXTURE> 1 5.000000e-01
<MEAN> 39
 -9.375806e+00 1.556542e+00 2.774624e-02 1.005764e+00 -3.559758e+00 1.169974e+00 2.363758e+00 -4.497772e+00 -2.730667e+00 -3.143475e+00 -3.669730e+00 -3.571183e+00 3.116078e+00 -2.140197e+00 -4.995249e-01 -1.135961e+00 -4.542815e-01 1.996722e-01 -4.301847e-01 -3.968965e-01 4.423220e-02 8.026425e-01 -4.901648e-01 7.380093e-01 -4.832546e-01 1.160676e-01 -7.410748e-02 -1.201554e-03 1.942276e-02 -1.316036e-01 6.832372e-04 -6.623893e-02 -1.484426e-01 -2.527832e-02 6.793573e-02 7.696670e-02 1.526695e-01 1.473825e-01 -3.848277e-03
<VARIANCE> 39
 6.615264e+01 3.971825e+01 3.421376e+01 2.038506e+01 2.021125e+01 2.367980e+01 3.562276e+01 2.658500e+01 2.087167e+01 2.197854e+01 2.778531e+01 3.234711e+01 2.573081e+01 3.286903e+00 2.949634e+00 3.492197e+00 3.026518e+00 2.183249e+00 2.529461e+00 3.740211e+00 3.078279e+00 2.450613e+00 2.964689e+00 3.606471e+00 3.923565e+00 3.099897e+00 7.767717e-01 5.215131e-01 5.826676e-01 5.718944e-01 3.975725e-01 4.602171e-01 2.814496e-01 6.751375e-01 3.813764e-01 5.606489e-01 6.789534e-01 8.010173e-01 5.514420e-01
<GCONST> 1.217374e+02
<MIXTURE> 2 5.000000e-01
<MEAN> 39
 -9.375806e+00 1.556542e+00 2.774624e-02 1.005764e+00 -3.559758e+00 1.169974e+00 2.363758e+00 -4.497772e+00 -2.730667e+00 -3.143475e+00 -3.669730e+00 -3.571183e+00 3.116078e+00 -2.140197e+00 -4.995249e-01 -1.135961e+00 -4.542815e-01 1.996722e-01 -4.301847e-01 -3.968965e-01 4.423220e-02 8.026425e-01 -4.901648e-01 7.380093e-01 -4.832546e-01 1.160676e-01 -7.410748e-02 -1.201554e-03 1.942276e-02 -1.316036e-01 6.832372e-04 -6.623893e-02 -1.484426e-01 -2.527832e-02 6.793573e-02 7.696670e-02 1.526695e-01 1.473825e-01 -3.848277e-03
<VARIANCE> 39
 6.615264e+01 3.971825e+01 3.421376e+01 2.038506e+01 2.021125e+01 2.367980e+01 3.562276e+01 2.658500e+01 2.087167e+01 2.197854e+01 2.778531e+01 3.234711e+01 2.573081e+01 3.286903e+00 2.949634e+00 3.492197e+00 3.026518e+00 2.183249e+00 2.529461e+00 3.740211e+00 3.078279e+00 2.450613e+00 2.964689e+00 3.606471e+00 3.923565e+00 3.099897e+00 7.767717e-01 5.215131e-01 5.826676e-01 5.718944e-01 3.975725e-01 4.602171e-01 2.814496e-01 6.751375e-01 3.813764e-01 5.606489e-01 6.789534e-01 8.010173e-01 5.514420e-01
<GCONST> 1.217374e+02
<STATE> 3
<NUMMIXES> 2
<MIXTURE> 1 5.000000e-01
<MEAN> 39
 -2.063718e+01 1.174531e+00 -5.193623e+00 -4.509941e+00 -3.102617e+00 -1.214884e+00 -2.538750e+00 -4.084949e+00 2.605490e+00 -2.557999e+00 -9.031103e-01 -2.668390e-01 1.205413e+00 5.216082e-01 4.719408e-01 5.007133e-01 -2.868909e-01 -1.840001e-01 2.487365e-01 -2.400000e-01 6.052834e-02 9.537011e-02 4.165765e-01 -7.622944e-01 2.564810e-01 -3.425803e-01 3.757774e-01 8.402076e-02 2.019964e-01 8.656596e-03 -9.041965e-02 7.430295e-02 5.762006e-02 3.420436e-02 -1.816387e-01 6.000866e-02 -1.837118e-01 -1.254657e-01 -1.045226e-01
<VARIANCE> 39
 1.920373e+01 2.391286e+01 1.783748e+01 1.618789e+01 2.036979e+01 2.396805e+01 1.912079e+01 2.054682e+01 2.194327e+01 2.333478e+01 3.161264e+01 1.960580e+01 1.709623e+01 1.976047e+00 1.647723e+00 2.143705e+00 2.057736e+00 2.204905e+00 3.014828e+00 2.251592e+00 2.311004e+00 2.578315e+00 2.650931e+00 3.089870e+00 2.957488e+00 1.520982e+00 2.267424e-01 3.305252e-01 3.274757e-01 5.732093e-01 5.028033e-01 7.200316e-01 5.667647e-01 5.016825e-01 5.290712e-01 5.812038e-01 6.615408e-01 5.654694e-01 3.395181e-01
<GCONST> 1.121250e+02
<MIXTURE> 2 5.000000e-01
<MEAN> 39
 -2.063718e+01 1.174531e+00 -5.193623e+00 -4.509941e+00 -3.102617e+00 -1.214884e+00 -2.538750e+00 -4.084949e+00 2.605490e+00 -2.557999e+00 -9.031103e-01 -2.668390e-01 1.205413e+00 5.216082e-01 4.719408e-01 5.007133e-01 -2.868909e-01 -1.840001e-01 2.487365e-01 -2.400000e-01 6.052834e-02 9.537011e-02 4.165765e-01 -7.622944e-01 2.564810e-01 -3.425803e-01 3.757774e-01 8.402076e-02 2.019964e-01 8.656596e-03 -9.041965e-02 7.430295e-02 5.762006e-02 3.420436e-02 -1.816387e-01 6.000866e-02 -1.837118e-01 -1.254657e-01 -1.045226e-01
<VARIANCE> 39
 1.920373e+01 2.391286e+01 1.783748e+01 1.618789e+01 2.036979e+01 2.396805e+01 1.912079e+01 2.054682e+01 2.194327e+01 2.333478e+01 3.161264e+01 1.960580e+01 1.709623e+01 1.976047e+00 1.647723e+00 2.143705e+00 2.057736e+00 2.204905e+00 3.014828e+00 2.251592e+00 2.311004e+00 2.578315e+00 2.650931e+00 3.089870e+00 2.957488e+00 1.520982e+00 2.267424e-01 3.305252e-01 3.274757e-01 5.732093e-01 5.028033e-01 7.200316e-01 5.667647e-01 5.016825e-01 5.290712e-01 5.812038e-01 6.615408e-01 5.654694e-01 3.395181e-01
<GCONST> 1.121250e+02
<STATE> 4
<NUMMIXES> 2
<MIXTURE> 1 5.000000e-01
<MEAN> 39
 -4.978471e+00 4.689512e+00 3.370970e+00 -9.469132e+00 -8.418861e+00 7.889041e-01 -3.449239e+00 -3.455826e+00 3.775044e-01 2.015966e+00 -8.975412e+00 -1.814312e+00 -3.782647e+00 1.514922e+00 -4.759311e-01 2.743991e-01 -1.056583e+00 -1.318829e+00 -4.967958e-01 1.435806e-01 1.919186e-01 -2.980625e-01 6.805526e-02 2.832345e-01 -1.488462e-01 1.218936e-02 -7.231845e-01 -2.799858e-01 -4.483686e-01 1.006552e-01 1.371805e-01 -1.122459e-01 5.197237e-02 1.335937e-01 2.604429e-01 -3.517522e-01 3.627173e-01 1.723357e-01 3.191864e-01
<VARIANCE> 39
 1.790944e+01 2.251869e+01 1.804831e+01 2.509727e+01 1.756330e+01 1.924440e+01 4.155030e+01 1.776485e+01 1.874490e+01 1.988153e+01 1.399712e+01 1.682699e+01 1.446412e+01 5.322044e+00 1.642238e+00 2.129953e+00 2.156418e+00 1.676358e+00 2.752181e+00 3.184097e+00 2.675299e+00 2.271223e+00 4.322320e+00 2.225222e+00 1.509053e+00 2.121145e+00 4.257010e-01 3.932831e-01 2.487452e-01 3.206879e-01 2.868100e-01 4.801553e-01 4.819410e-01 3.464391e-01 2.464969e-01 5.252581e-01 5.205830e-01 2.599486e-01 3.117006e-01
<GCONST> 1.085867e+02
<MIXTURE> 2 5.000000e-01
<MEAN> 39
 -4.978471e+00 4.689512e+00 3.370970e+00 -9.469132e+00 -8.418861e+00 7.889041e-01 -3.449239e+00 -3.455826e+00 3.775044e-01 2.015966e+00 -8.975412e+00 -1.814312e+00 -3.782647e+00 1.514922e+00 -4.759311e-01 2.743991e-01 -1.056583e+00 -1.318829e+00 -4.967958e-01 1.435806e-01 1.919186e-01 -2.980625e-01 6.805526e-02 2.832345e-01 -1.488462e-01 1.218936e-02 -7.231845e-01 -2.799858e-01 -4.483686e-01 1.006552e-01 1.371805e-01 -1.122459e-01 5.197237e-02 1.335937e-01 2.604429e-01 -3.517522e-01 3.627173e-01 1.723357e-01 3.191864e-01
<VARIANCE> 39
 1.790944e+01 2.251869e+01 1.804831e+01 2.509727e+01 1.756330e+01 1.924440e+01 4.155030e+01 1.776485e+01 1.874490e+01 1.988153e+01 1.399712e+01 1.682699e+01 1.446412e+01 5.322044e+00 1.642238e+00 2.129953e+00 2.156418e+00 1.676358e+00 2.752181e+00 3.184097e+00 2.675299e+00 2.271223e+00 4.322320e+00 2.225222e+00 1.509053e+00 2.121145e+00 4.257010e-01 3.932831e-01 2.487452e-01 3.206879e-01 2.868100e-01 4.801553e-01 4.819410e-01 3.464391e-01 2.464969e-01 5.252581e-01 5.205830e-01 2.599486e-01 3.117006e-01
<GCONST> 1.085867e+02
<TRANSP> 5
 0.000000e+00 1.000000e+00 0.000000e+00 0.000000e+00 0.000000e+00
 0.000000e+00 8.748400e-01 1.251600e-01 0.000000e+00 0.000000e+00
 0.000000e+00 0.000000e+00 9.256346e-01 7.436538e-02 0.000000e+00
 0.000000e+00 0.000000e+00 0.000000e+00 8.101280e-01 1.898720e-01
 0.000000e+00 0.000000e+00 0.000000e+00 0.000000e+00 0.000000e+00
<ENDHMM>
~h "d"
<BEGINHMM>
<NUMSTATES> 5
<STATE> 2
<NUMMIXES> 2
<MIXTURE> 1 5.000000e-01
<MEAN> 39
 5.163336e+00 1.215436e+01 4.958307e+00 -3.422270e+00 4.100428e+00 -1.796220e+01 -5.191963e-01 -9.067754e+00 -7.989954e+00 1.047647e+01 -3.737937e+00 -2.837083e-01 -3.188559e+00 4.263188e-01 2.304410e-01 2.080748e-01 1.405306e-01 -4.860575e-01 1.365447e-01 7.564774e-02 1.914916e-01 2.807725e-01 -2.557451e-01 1.229447e-01 -1.253409e-01 1.714765e-01 -8.893922e-02 -7.578270e-02 -3.207115e-02 -4.344220e-03 -1.767730e-01 1.965064e-01 -6.164491e-03 1.515157e-01 2.283279e-01 -1.135736e-01 -4.386521e-02 -5.148147e-02 -1.893907e-02
<VARIANCE> 39
 2.587148e+01 1.331577e+01 3.819510e+00 1.993217e+01 3.479187e+01 2.542401e+01 1.682372e+01 2.095323e+01 3.681976e+01 3.762195e+01 1.949764e+01 2.650743e+01 1.580773e+01 1.637697e+00 1.525158e+00 7.129374e-01 1.823737e+00 2.768591e+00 4.240100e+00 2.202367e+00 1.756073e+00 3.723032e+00 5.278375e+00 2.005989e+00 2.063880e+00 1.120427e+00 2.906619e-01 2.224476e-01 1.241612e-01 2.691954e-01 4.379139e-01 4.955949e-01 5.264873e-01 3.110835e-01 8.831725e-01 1.001400e+00 4.411103e-01 3.223122e-01 2.295315e-01
<GCONST> 1.072305e+02
<MIXTURE> 2 5.000000e-01
<MEAN> 39
 5.163336e+00 1.215436e+01 4.958307e+00 -3.422270e+00 4.100428e+00 -1.796220e+01 -5.191963e-01 -9.067754e+00 -7.989954e+00 1.047647e+01 -3.737937e+00 -2.837083e-01 -3.188559e+00 4.263188e-01 2.304410e-01 2.080748e-01 1.405306e-01 -4.860575e-01 1.365447e-01 7.564774e-02 1.914916e-01 2.807725e-01 -2.557451e-01 1.229447e-01 -1.253409e-01 1.714765e-01 -8.893922e-02 -7.578270e-02 -3.207115e-02 -4.344220e-03 -1.767730e-01 1.965064e-01 -6.164491e-03 1.515157e-01 2.283279e-01 -1.135736e-01 -4.386521e-02 -5.148147e-02 -1.893907e-02
<VARIANCE> 39
 2.587148e+01 1.331577e+01 3.819510e+00 1.993217e+01 3.479187e+01 2.542401e+01 1.682372e+01 2.095323e+01 3.681976e+01 3.762195e+01 1.949764e+01 2.650743e+01 1.580773e+01 1.637697e+00 1.525158e+00 7.129374e-01 1.823737e+00 2.768591e+00 4.240100e+00 2.202367e+00 1.756073e+00 3.723032e+00 5.278375e+00 2.005989e+00 2.063880e+00 1.120427e+00 2.906619e-01 2.224476e-01 1.241612e-01 2.691954e-01 4.379139e-01 4.955949e-01 5.264873e-01 3.110835e-01 8.831725e-01 1.001400e+00 4.411103e-01 3.223122e-01 2.295315e-01
<GCONST> 1.072305e+02
<STATE> 3
<NUMMIXES> 2
<MIXTURE> 1 5.000000e-01
<MEAN> 39
 4.210896e+00 7.540576e+00 5.137540e+00 -1.479347e+00 -8.447664e+00 -6.711607e+00 4.043631e+00 -3.311584e-01 -5.960816e+00 2.492725e+00 -6.600507e+00 -5.707911e+00 1.966824e+00 8.854823e-02 2.779023e-01 3.568901e-01 3.847744e-01 -2.941381e-01 1.562172e-01 1.152940e-01 2.857572e-01 -7.471430e-02 -2.580402e-01 1.397325e-01 7.266872e-02 4.303736e-01 -2.637004e-02 6.725767e-02 6.596051e-03 3.671719e-02 1.969490e-01 -8.068176e-02 -1.312809e-01 -2.337516e-01 -1.137991e-01 6.460579e-02 1.001024e-01 2.190726e-01 3.196381e-02
<VARIANCE> 39
 6.108397e+01 8.893620e+01 3.465731e+01 4.043745e+01 2.015289e+01 5.212811e+01 3.697909e+01 1.589792e+01 1.483398e+01 1.900020e+01 1.729566e+01 2.337298e+01 1.270064e+01 3.144560e-01 4.935965e-01 6.880664e-01 6.753307e-01 1.247226e+00 9.597353e-01 2.171032e+00 9.787635e-01 1.324980e+00 1.444069e+00 1.719085e+00 1.549921e+00 1.634072e+00 4.333685e-02 5.185370e-02 7.698757e-02 1.176405e-01 2.012457e-01 2.396699e-01 2.983651e-01 1.352572e-01 1.754779e-01 2.608853e-01 2.077961e-01 2.026744e-01 3.029765e-01
<GCONST> 9.097601e+01
<MIXTURE> 2 5.000000e-01
<MEAN> 39
 4.210896e+00 7.540576e+00 5.137540e+00 -1.479347e+00 -8.447664e+00 -6.711607e+00 4.043631e+00 -3.311584e-01 -5.960816e+00 2.492725e+00 -6.600507e+00 -5.707911e+00 1.966824e+00 8.854823e-02 2.779023e-01 3.568901e-01 3.847744e-01 -2.941381e-01 1.562172e-01 1.152940e-01 2.857572e-01 -7.471430e-02 -2.580402e-01 1.397325e-01 7.266872e-02 4.303736e-01 -2.637004e-02 6.725767e-02 6.596051e-03 3.671719e-02 1.969490e-01 -8.068176e-02 -1.312809e-01 -2.337516e-01 -1.137991e-01 6.460579e-02 1.001024e-01 2.190726e-01 3.196381e-02
<VARIANCE> 39
 6.108397e+01 8.893620e+01 3.465731e+01 4.043745e+01 2.015289e+01 5.212811e+01 3.697909e+01 1.589792e+01 1.483398e+01 1.900020e+01 1.729566e+01 2.337298e+01 1.270064e+01 3.144560e-01 4.935965e-01 6.880664e-01 6.753307e-01 1.247226e+00 9.597353e-01 2.171032e+00 9.787635e-01 1.324980e+00 1.444069e+00 1.719085e+00 1.549921e+00 1.634072e+00 4.333685e-02 5.185370e-02 7.698757e-02 1.176405e-01 2.012457e-01 2.396699e-01 2.983651e-01 1.352572e-01 1.754779e-01 2.608853e-01 2.077961e-01 2.026744e-01 3.029765e-01
<GCONST> 9.097601e+01
<STATE> 4
<NUMMIXES> 2
<MIXTURE> 1 5.000000e-01
<MEAN> 39
 2.248465e-01 8.663080e+00 7.275144e+00 2.810090e+00 -7.119365e+00 -3.468668e+00 -2.453750e+00 -4.807623e+00 -7.283043e+00 2.097518e-01 -2.780159e+00 -6.960886e-01 2.952637e+00 -1.430723e+00 -9.816788e-01 -9.093396e-01 -5.428416e-01 4.501313e-02 1.007068e+00 -2.093945e-01 -4.225593e-02 5.070750e-01 -3.307099e-02 6.711231e-01 -4.226521e-02 -4.228328e-01 6.738307e-02 -8.970658e-02 -1.405288e-01 -1.491699e-01 -1.084891e-01 -2.604018e-01 -7.463074e-02 3.274949e-01 9.762208e-02 2.502183e-01 -1.103225e-01 -1.846967e-01 -1.003780e-01
<VARIANCE> 39
 9.952825e+01 5.177500e+01 6.046214e+01 2.810839e+01 5.191557e+01 5.444560e+01 2.456801e+01 3.208504e+01 4.652244e+01 3.193823e+01 4.773733e+01 1.454186e+01 4.249214e+01 1.124564e+01 5.627121e+00 4.067685e+00 3.655393e+00 5.118134e+00 8.513815e+00 4.232885e+00 3.549813e+00 2.953450e+00 3.765237e+00 3.749517e+00 2.292613e+00 2.952008e+00 2.249008e+00 1.172813e+00 9.110590e-01 7.407690e-01 9.841267e-01 1.539351e+00 9.790419e-01 2.710038e-01 7.026610e-01 7.305484e-01 8.498179e-01 4.347312e-01 6.210092e-01
<GCONST> 1.363751e+02
<MIXTURE> 2 5.000000e-01
<MEAN> 39
 2.248465e-01 8.663080e+00 7.275144e+00 2.810090e+00 -7.119365e+00 -3.468668e+00 -2.453750e+00 -4.807623e+00 -7.283043e+00 2.097518e-01 -2.780159e+00 -6.960886e-01 2.952637e+00 -1.430723e+00 -9.816788e-01 -9.093396e-01 -5.428416e-01 4.501313e-02 1.007068e+00 -2.093945e-01 -4.225593e-02 5.070750e-01 -3.307099e-02 6.711231e-01 -4.226521e-02 -4.228328e-01 6.738307e-02 -8.970658e-02 -1.405288e-01 -1.491699e-01 -1.084891e-01 -2.604018e-01 -7.463074e-02 3.274949e-01 9.762208e-02 2.502183e-01 -1.103225e-01 -1.846967e-01 -1.003780e-01
<VARIANCE> 39
 9.952825e+01 5.177500e+01 6.046214e+01 2.810839e+01 5.191557e+01 5.444560e+01 2.456801e+01 3.208504e+01 4.652244e+01 3.193823e+01 4.773733e+01 1.454186e+01 4.249214e+01 1.124564e+01 5.627121e+00 4.067685e+00 3.655393e+00 5.118134e+00 8.513815e+00 4.232885e+00 3.549813e+00 2.953450e+00 3.765237e+00 3.749517e+00 2.292613e+00 2.952008e+00 2.249008e+00 1.172813e+00 9.110590e-01 7.407690e-01 9.841267e-01 1.539351e+00 9.790419e-01 2.710038e-01 7.026610e-01 7.305484e-01 8.498179e-01 4.347312e-01 6.210092e-01
<GCONST> 1.363751e+02
<TRANSP> 5
 0.000000e+00 1.000000e+00 0.000000e+00 0.000000e+00 0.000000e+00
 0.000000e+00 9.099481e-01 9.005199e-02 0.000000e+00 0.000000e+00
 0.000000e+00 0.000000e+00 8.986962e-01 1.013038e-01 0.000000e+00
 0.000000e+00 0.000000e+00 0.000000e+00 8.887376e-01 1.112624e-01
 0.000000e+00 0.000000e+00 0.000000e+00 0.000000e+00 0.000000e+00
<ENDHMM>
~h "g"
<BEGINHMM>
<NUMSTATES> 5
<STATE> 2
<NUMMIXES> 2
<MIXTURE> 1 5.000000e-01
<MEAN> 39
 5.027143e+00 -2.579075e+00 2.409253e+00 -2.632633e+00 -7.574253e+00 -6.183545e+00 -5.656487e-01 3.172004e+00 -1.260765e+01 3.823573e+00 7.897285e-01 -4.708444e+00 1.297289e+00 1.032516e+00 1.213810e+00 1.252294e+00 6.322591e-01 1.843577e-01 -1.218440e+00 -1.193112e+00 -1.206257e+00 3.871153e-02 9.033731e-01 2.950930e-01 5.000212e-01 3.365575e-01 -5.388145e-02 -1.360545e-02 -2.234968e-01 -2.343204e-02 2.529973e-01 6.327071e-02 1.523508e-01 -1.241357e-01 -9.563207e-02 -2.074761e-01 -1.277996e-01 8.266733e-02 3.455187e-02
<VARIANCE> 39
 1.222032e+01 1.814147e+01 2.203724e+01 2.390068e+01 1.805527e+01 4.974603e+01 2.835258e+01 4.192844e+01 1.693958e+01 1.396533e+01 1.590139e+01 1.842224e+01 1.961499e+01 2.161378e-01 8.994928e-01 8.467422e-01 1.702338e+00 1.329730e+00 1.074598e+00 2.310994e+00 2.185543e+00 1.700594e+00 1.715182e+00 8.505200e-01 1.500739e+00 1.351598e+00 5.400063e-02 1.803872e-01 2.477423e-01 5.173320e-01 2.386652e-01 2.899731e-01 4.438194e-01 5.170277e-01 4.269882e-01 1.955559e-01 1.586174e-01 3.073282e-01 3.261726e-01
<GCONST> 9.621601e+01
<MIXTURE> 2 5.000000e-01
<MEAN> 39
 5.027143e+00 -2.579075e+00 2.409253e+00 -2.632633e+00 -7.574253e+00 -6.183545e+00 -5.656487e-01 3.172004e+00 -1.260765e+01 3.823573e+00 7.897285e-01 -4.708444e+00 1.297289e+00 1.032516e+00 1.213810e+00 1.252294e+00 6.322591e-01 1.843577e-01 -1.218440e+00 -1.193112e+00 -1.206257e+00 3.871153e-02 9.033731e-01 2.950930e-01 5.000212e-01 3.365575e-01 -5.388145e-02 -1.360545e-02 -2.234968e-01 -2.343204e-02 2.529973e-01 6.327071e-02 1.523508e-01 -1.241357e-01 -9.563207e-02 -2.074761e-01 -1.277996e-01 8.266733e-02 3.455187e-02
<VARIANCE> 39
 1.222032e+01 1.814147e+01 2.203724e+01 2.390068e+01 1.805527e+01 4.974603e+01 2.835258e+01 4.192844e+01 1.693958e+01 1.396533e+01 1.590139e+01 1.842224e+01 1.961499e+01 2.161378e-01 8.994928e-01 8.467422e-01 1.702338e+00 1.329730e+00 1.074598e+00 2.310994e+00 2.185543e+00 1.700594e+00 1.715182e+00 8.505200e-01 1.500739e+00 1.351598e+00 5.400063e-02 1.803872e-01 2.477423e-01 5.173320e-01 2.386652e-01 2.899731e-01 4.438194e-01 5.170277e-01 4.269882e-01 1.955559e-01 1.586174e-01 3.073282e-01 3.261726e-01
<GCONST> 9.621601e+01
<STATE> 3
<NUMMIXES> 2
<MIXTURE> 1 5.000000e-01
<MEAN> 39
 3.881028e+00 1.307623e+00 3.747405e+00 -4.010055e+00 -7.163430e+00 -7.490480e+00 -1.791364e+00 2.423248e-01 -8.593895e+00 3.451367e+00 6.689528e-02 -4.520150e+00 6.599933e-01 -4.221222e-01 4.961800e-01 -4.338402e-01 -1.967566e-01 3.737822e-01 -4.492033e-01 -1.565989e-01 6.239869e-01 2.528469e-01 -3.984314e-01 2.715956e-01 -9.755272e-02 -2.684811e-01 -9.378821e-02 -3.136657e-02 -4.889474e-02 6.387024e-02 2.712899e-02 -2.808890e-02 -5.866612e-02 1.128439e-01 -2.887644e-02 -1.102789e-01 1.257259e-01 -3.237998e-02 1.822196e-02
<VARIANCE> 39
 2.316414e+01 3.217160e+01 1.845292e+01 3.054403e+01 3.057693e+01 4.120242e+01 3.409552e+01 5.317442e+01 1.090944e+01 2.353234e+01 1.729508e+01 2.082750e+01 8.461670e+00 1.524304e+00 3.816148e+00 8.801987e-01 4.472025e+00 4.857344e+00 5.913852e+00 2.904750e+00 2.815956e+00 1.187738e+00 2.342561e+00 2.708957e+00 2.174262e+00 5.292167e-01 3.268813e-01 7.354904e-01 1.997785e-01 9.624006e-01 9.901830e-01 8.338998e-01 5.925630e-01 5.124343e-01 2.672868e-01 6.710464e-01 4.116163e-01 4.444286e-01 8.802134e-02
<GCONST> 1.132829e+02
<MIXTURE> 2 5.000000e-01
<MEAN> 39
 3.881028e+00 1.307623e+00 3.747405e+00 -4.010055e+00 -7.163430e+00 -7.490480e+00 -1.791364e+00 2.423248e-01 -8.593895e+00 3.451367e+00 6.689528e-02 -4.520150e+00 6.599933e-01 -4.221222e-01 4.961800e-01 -4.338402e-01 -1.967566e-01 3.737822e-01 -4.492033e-01 -1.565989e-01 6.239869e-01 2.528469e-01 -3.984314e-01 2.715956e-01 -9.755272e-02 -2.684811e-01 -9.378821e-02 -3.136657e-02 -4.889474e-02 6.387024e-02 2.712899e-02 -2.808890e-02 -5.866612e-02 1.128439e-01 -2.887644e-02 -1.102789e-01 1.257259e-01 -3.237998e-02 1.822196e-02
<VARIANCE> 39
 2.316414e+01 3.217160e+01 1.845292e+01 3.054403e+01 3.057693e+01 4.120242e+01 3.409552e+01 5.317442e+01 1.090944e+01 2.353234e+01 1.729508e+01 2.082750e+01 8.461670e+00 1.524304e+00 3.816148e+00 8.801987e-01 4.472025e+00 4.857344e+00 5.913852e+00 2.904750e+00 2.815956e+00 1.187738e+00 2.342561e+00 2.708957e+00 2.174262e+00 5.292167e-01 3.268813e-01 7.354904e-01 1.997785e-01 9.624006e-01 9.901830e-01 8.338998e-01 5.925630e-01 5.124343e-01 2.672868e-01 6.710464e-01 4.116163e-01 4.444286e-01 8.802134e-02
<GCONST> 1.132829e+02
<STATE> 4
<NUMMIXES> 2
<MIXTURE> 1 5.000000e-01
<MEAN> 39
 -6.890157e-01 7.244365e+00 -2.086247e+00 -2.794025e+00 -4.087084e+00 -1.712848e+01 7.480488e-01 4.156600e+00 -7.097423e+00 1.036122e+00 2.597986e+00 -4.956603e+00 -2.450618e+00 -3.809951e-01 -8.521513e-01 2.213971e-02 6.700034e-02 -5.582162e-01 1.343729e+00 1.000669e+00 -7.370661e-01 1.381293e-01 -1.998200e-01 -7.663935e-01 -8.731809e-02 3.153368e-01 -2.609313e-02 -1.942722e-01 1.843229e-02 -5.636141e-02 1.235208e-02 3.531137e-01 8.330233e-02 -7.485640e-02 -6.114637e-02 5.399193e-02 -1.880907e-01 1.282864e-02 7.511778e-02
<VARIANCE> 39
 1.375608e+01 3.249953e+01 9.589629e+01 1.587675e+01 5.770721e+01 1.177984e+02 7.234073e+01 5.492978e+01 2.805872e+01 2.003383e+01 3.837368e+01 1.935962e+01 1.129363e+01 1.342304e+00 2.825799e+00 2.666780e+00 1.678660e+00 4.892335e+00 8.521653e+00 2.257877e+00 1.479898e+00 4.785530e+00 4.145352e+00 2.477890e+00 1.477941e+00 1.650191e+00 1.529831e-01 3.721690e-01 4.097485e-01 2.170235e-01 1.010990e+00 8.940951e-01 6.461653e-01 3.616226e-01 7.775233e-01 6.681469e-01 6.238746e-01 2.474390e-01 2.080003e-01
<GCONST> 1.192075e+02
<MIXTURE> 2 5.000000e-01
<MEAN> 39
 -6.890157e-01 7.244365e+00 -2.086247e+00 -2.794025e+00 -4.087084e+00 -1.712848e+01 7.480488e-01 4.156600e+00 -7.097423e+00 1.036122e+00 2.597986e+00 -4.956603e+00 -2.450618e+00 -3.809951e-01 -8.521513e-01 2.213971e-02 6.700034e-02 -5.582162e-01 1.343729e+00 1.000669e+00 -7.370661e-01 1.381293e-01 -1.998200e-01 -7.663935e-01 -8.731809e-02 3.153368e-01 -2.609313e-02 -1.942722e-01 1.843229e-02 -5.636141e-02 1.235208e-02 3.531137e-01 8.330233e-02 -7.485640e-02 -6.114637e-02 5.399193e-02 -1.880907e-01 1.282864e-02 7.511778e-02
<VARIANCE> 39
 1.375608e+01 3.249953e+01 9.589629e+01 1.587675e+01 5.770721e+01 1.177984e+02 7.234073e+01 5.492978e+01 2.805872e+01 2.003383e+01 3.837368e+01 1.935962e+01 1.129363e+01 1.342304e+00 2.825799e+00 2.666780e+00 1.678660e+00 4.892335e+00 8.521653e+00 2.257877e+00 1.479898e+00 4.785530e+00 4.145352e+00 2.477890e+00 1.477941e+00 1.650191e+00 1.529831e-01 3.721690e-01 4.097485e-01 2.170235e-01 1.010990e+00 8.940951e-01 6.461653e-01 3.616226e-01 7.775233e-01 6.681469e-01 6.238746e-01 2.474390e-01 2.080003e-01
<GCONST> 1.192075e+02
<TRANSP> 5
 0.000000e+00 1.000000e+00 0.000000e+00 0.000000e+00 0.000000e+00
 0.000000e+00 8.292503e-01 1.707496e-01 0.000000e+00 0.000000e+00
 0.000000e+00 0.000000e+00 9.133044e-01 8.669551e-02 0.000000e+00
 0.000000e+00 0.000000e+00 0.000000e+00 8.826514e-01 1.173486e-01
 0.000000e+00 0.000000e+00 0.000000e+00 0.000000e+00 0.000000e+00
<ENDHMM>
~h "h"
<BEGINHMM>
<NUMSTATES> 5
<STATE> 2
<NUMMIXES> 2
<MIXTURE> 1 5.000000e-01
<MEAN> 39
 -3.127620e+00 -4.952652e+00 -4.255294e+00 2.921892e+00 6.057748e-01 -2.866736e+00 5.360302e+00 3.529152e+00 -2.194095e+00 1.614271e+00 -1.798935e+00 -4.461351e-01 9.914271e-01 9.529145e-02 -1.656224e-01 -1.215014e+00 8.652876e-01 1.559191e+00 -6.130512e-01 -9.041189e-01 5.519895e-01 9.889066e-01 -1.041214e+00 -2.880301e-01 6.650352e-01 2.796435e-01 -4.901135e-02 1.662343e-01 -8.734421e-02 -1.081014e-01 -9.249230e-02 9.884621e-02 -1.574252e-01 -1.760981e-01 2.427074e-01 -1.173763e-01 -1.510407e-01 -2.166782e-01 5.557108e-02
<VARIANCE> 39
 3.270565e+01 2.323644e+01 2.913178e+01 5.564723e+01 4.308242e+01 3.800198e+01 3.689692e+01 2.867862e+01 3.112849e+01 3.037503e+01 2.581277e+01 2.608489e+01 2.052315e+01 2.915356e-01 8.203415e-01 1.555383e+00 1.122271e+00 1.796566e+00 1.753759e+00 3.339160e+00 2.528290e+00 4.348962e+00 3.104573e+00 3.242894e+00 2.209563e+00 3.128268e+00 5.202093e-02 1.358658e-01 2.390465e-01 2.562506e-01 4.078860e-01 3.964976e-01 6.911053e-01 7.208202e-01 7.274993e-01 5.067106e-01 5.974218e-01 4.624340e-01 6.523917e-01
<GCONST> 1.115968e+02
<MIXTURE> 2 5.000000e-01
<MEAN> 39
 -3.127620e+00 -4.952652e+00 -4.255294e+00 2.921892e+00 6.057748e-01 -2.866736e+00 5.360302e+00 3.529152e+00 -2.194095e+00 1.614271e+00 -1.798935e+00 -4.461351e-01 9.914271e-01 9.529145e-02 -1.656224e-01 -1.215014e+00 8.652876e-01 1.559191e+00 -6.130512e-01 -9.041189e-01 5.519895e-01 9.889066e-01 -1.041214e+00 -2.880301e-01 6.650352e-01 2.796435e-01 -4.901135e-02 1.662343e-01 -8.734421e-02 -1.081014e-01 -9.249230e-02 9.884621e-02 -1.574252e-01 -1.760981e-01 2.427074e-01 -1.173763e-01 -1.510407e-01 -2.166782e-01 5.557108e-02
<VARIANCE> 39
 3.270565e+01 2.323644e+01 2.913178e+01 5.564723e+01 4.308242e+01 3.800198e+01 3.689692e+01 2.867862e+01 3.112849e+01 3.037503e+01 2.581277e+01 2.608489e+01 2.052315e+01 2.915356e-01 8.203415e-01 1.555383e+00 1.122271e+00 1.796566e+00 1.753759e+00 3.339160e+00 2.528290e+00 4.348962e+00 3.104573e+00 3.242894e+00 2.209563e+00 3.128268e+00 5.202093e-02 1.358658e-01 2.390465e-01 2.562506e-01 4.078860e-01 3.964976e-01 6.911053e-01 7.208202e-01 7.274993e-01 5.067106e-01 5.974218e-01 4.624340e-01 6.523917e-01
<GCONST> 1.115968e+02
<STATE> 3
<NUMMIXES> 2
<MIXTURE> 1 5.000000e-01
<MEAN> 39
 -3.459308e+00 -5.076759e+00 -1.531453e+01 5.565246e+00 5.518039e+00 -2.568191e+00 -3.078702e-01 -2.368118e+00 5.847019e+00 -3.280427e+00 -4.552134e+00 -2.334446e+00 2.222674e+00 1.603811e-01 3.110720e-01 -3.728249e-01 -1.516864e-01 -1.167640e-01 2.153249e-01 -4.438252e-01 -4.911737e-01 3.936839e-01 3.072079e-01 2.540686e-01 -5.152996e-01 -1.052542e-01 7.698493e-02 5.609651e-02 1.421550e-01 -8.407746e-03 -2.292557e-02 3.787061e-02 7.135140e-02 1.015724e-01 -7.912886e-02 9.077063e-02 8.722313e-02 5.008122e-03 -3.774640e-02
<VARIANCE> 39
 4.590303e+01 3.061310e+01 4.019759e+01 3.772276e+01 3.306921e+01 2.876221e+01 2.675126e+01 2.876747e+01 1.992578e+01 2.933286e+01 1.989385e+01 1.960653e+01 1.157384e+01 3.292443e-01 5.757824e-01 1.746915e+00 1.580023e+00 1.890995e+00 2.551686e+00 2.785128e+00 3.273834e+00 3.335289e+00 3.239285e+00 3.236143e+00 2.027386e+00 1.663909e+00 9.028387e-02 1.054453e-01 3.117672e-01 2.921508e-01 4.416293e-01 4.975214e-01 5.759837e-01 6.218646e-01 7.065094e-01 8.035508e-01 6.350113e-01 4.118463e-01 4.004907e-01
<GCONST> 1.100302e+02
<MIXTURE> 2 5.000000e-01
<MEAN> 39
 -3.459308e+00 -5.076759e+00 -1.531453e+01 5.565246e+00 5.518039e+00 -2.568191e+00 -3.078702e-01 -2.368118e+00 5.847019e+00 -3.280427e+00 -4.552134e+00 -2.334446e+00 2.222674e+00 1.603811e-01 3.110720e-01 -3.728249e-01 -1.516864e-01 -1.167640e-01 2.153249e-01 -4.438252e-01 -4.911737e-01 3.936839e-01 3.072079e-01 2.540686e-01 -5.152996e-01 -1.052542e-01 7.698493e-02 5.609651e-02 1.421550e-01 -8.407746e-03 -2.292557e-02 3.787061e-02 7.135140e-02 1.015724e-01 -7.912886e-02 9.077063e-02 8.722313e-02 5.008122e-03 -3.774640e-02
<VARIANCE> 39
 4.590303e+01 3.061310e+01 4.019759e+01 3.772276e+01 3.306921e+01 2.876221e+01 2.675126e+01 2.876747e+01 1.992578e+01 2.933286e+01 1.989385e+01 1.960653e+01 1.157384e+01 3.292443e-01 5.757824e-01 1.746915e+00 1.580023e+00 1.890995e+00 2.551686e+00 2.785128e+00 3.273834e+00 3.335289e+00 3.239285e+00 3.236143e+00 2.027386e+00 1.663909e+00 9.028387e-02 1.054453e-01 3.117672e-01 2.921508e-01 4.416293e-01 4.975214e-01 5.759837e-01 6.218646e-01 7.065094e-01 8.035508e-01 6.350113e-01 4.118463e-01 4.004907e-01
<GCONST> 1.100302e+02
<STATE> 4
<NUMMIXES> 2
<MIXTURE> 1 5.000000e-01
<MEAN> 39
 -3.214063e+00 2.830857e+00 -4.219894e+00 -3.960751e+00 5.253922e+00 9.548306e-02 -3.440708e+00 9.386421e-01 2.580102e+00 -1.053865e-01 -2.675696e+00 -2.344118e+00 -8.439799e-01 6.946150e-01 5.904340e-01 -2.454844e-01 -6.366341e-01 -3.104200e-01 -5.454362e-01 -1.437932e-02 2.255191e-01 7.749853e-02 2.809559e-01 -7.353993e-02 -6.795544e-02 -2.227381e-01 -1.130223e-01 -5.054075e-02 -4.147227e-02 -4.841989e-02 -7.085383e-02 -5.580650e-02 9.575548e-04 -8.153955e-03 -7.697522e-02 3.160270e-02 -9.084480e-02 -3.619609e-02 3.864433e-02
<VARIANCE> 39
 3.953476e+01 4.193671e+01 9.982502e+01 1.554460e+02 2.643519e+01 4.658935e+01 3.501004e+01 4.540708e+01 3.663512e+01 1.910823e+01 1.393303e+01 2.408169e+01 1.187665e+01 1.722703e+00 1.586909e+00 1.533947e+00 2.216505e+00 2.266836e+00 2.255716e+00 3.190306e+00 2.902985e+00 2.653682e+00 2.219893e+00 1.917924e+00 2.516306e+00 1.103997e+00 2.449156e-01 2.186242e-01 3.052093e-01 4.320921e-01 3.958860e-01 5.496631e-01 6.642926e-01 5.090134e-01 6.834269e-01 4.055502e-01 3.851161e-01 6.053139e-01 2.333638e-01
<GCONST> 1.158455e+02
<MIXTURE> 2 5.000000e-01
<MEAN> 39
 -3.214063e+00 2.830857e+00 -4.219894e+00 -3.960751e+00 5.253922e+00 9.548306e-02 -3.440708e+00 9.386421e-01 2.580102e+00 -1.053865e-01 -2.675696e+00 -2.344118e+00 -8.439799e-01 6.946150e-01 5.904340e-01 -2.454844e-01 -6.366341e-01 -3.104200e-01 -5.454362e-01 -1.437932e-02 2.255191e-01 7.749853e-02 2.809559e-01 -7.353993e-02 -6.795544e-02 -2.227381e-01 -1.130223e-01 -5.054075e-02 -4.147227e-02 -4.841989e-02 -7.085383e-02 -5.580650e-02 9.575548e-04 -8.153955e-03 -7.697522e-02 3.160270e-02 -9.084480e-02 -3.619609e-02 3.864433e-02
<VARIANCE> 39
 3.953476e+01 4.193671e+01 9.982502e+01 1.554460e+02 2.643519e+01 4.658935e+01 3.501004e+01 4.540708e+01 3.663512e+01 1.910823e+01 1.393303e+01 2.408169e+01 1.187665e+01 1.722703e+00 1.586909e+00 1.533947e+00 2.216505e+00 2.266836e+00 2.255716e+00 3.190306e+00 2.902985e+00 2.653682e+00 2.219893e+00 1.917924e+00 2.516306e+00 1.103997e+00 2.449156e-01 2.186242e-01 3.052093e-01 4.320921e-01 3.958860e-01 5.496631e-01 6.642926e-01 5.090134e-01 6.834269e-01 4.055502e-01 3.851161e-01 6.053139e-01 2.333638e-01
<GCONST> 1.158455e+02
<TRANSP> 5
 0.000000e+00 1.000000e+00 0.000000e+00 0.000000e+00 0.000000e+00
 0.000000e+00 7.533027e-01 2.466974e-01 0.000000e+00 0.000000e+00
 0.000000e+00 0.000000e+00 8.447986e-01 1.552014e-01 0.000000e+00
 0.000000e+00 0.000000e+00 0.000000e+00 8.717067e-01 1.282932e-01
 0.000000e+00 0.000000e+00 0.000000e+00 0.000000e+00 0.000000e+00
<ENDHMM>
~h "i"
<BEGINHMM>
<NUMSTATES> 7
<STATE> 2
<NUMMIXES> 2
<MIXTURE> 1 5.000000e-01
<MEAN> 39
 -3.583857e+00 3.628868e+00 6.313364e+00 -7.152475e+00 -3.817433e+00 -1.960649e+00 -7.142545e+00 -2.793094e+00 -2.251759e+00 -1.185589e+00 -7.737005e+00 2.715702e-01 1.818750e+00 -3.006282e-01 2.792276e-01 -4.136718e-02 -1.404738e+00 -9.261311e-01 8.261363e-01 -7.802752e-01 6.117707e-01 4.477345e-01 2.592234e-01 -5.533942e-02 1.624608e-01 -2.079274e-02 -4.750656e-02 -1.033182e-01 -1.585523e-01 -3.751681e-02 2.794481e-01 -2.911653e-02 6.548424e-02 9.263849e-02 8.102006e-02 -1.778885e-01 2.904529e-03 1.043622e-01 -7.928260e-02
<VARIANCE> 39
 2.779856e+01 2.777664e+01 1.675836e+01 8.529910e+01 3.097400e+01 4.420724e+01 3.145329e+01 3.159325e+01 4.282402e+01 2.795247e+01 2.933748e+01 1.385228e+01 3.478750e+01 2.830824e+00 1.428381e+00 1.728604e+00 3.303959e+00 2.426214e+00 5.730530e+00 3.504202e+00 2.414401e+00 2.538168e+00 5.675880e+00 3.456105e+00 2.026599e+00 1.719969e+00 3.713174e-01 2.377676e-01 3.026254e-01 6.383519e-01 4.765638e-01 7.113627e-01 2.934631e-01 4.493340e-01 4.471879e-01 8.723063e-01 5.425717e-01 4.303274e-01 3.522323e-01
<GCONST> 1.188042e+02
<MIXTURE> 2 5.000000e-01
<MEAN> 39
 -3.583857e+00 3.628868e+00 6.313364e+00 -7.152475e+00 -3.817433e+00 -1.960649e+00 -7.142545e+00 -2.793094e+00 -2.251759e+00 -1.185589e+00 -7.737005e+00 2.715702e-01 1.818750e+00 -3.006282e-01 2.792276e-01 -4.136718e-02 -1.404738e+00 -9.261311e-01 8.261363e-01 -7.802752e-01 6.117707e-01 4.477345e-01 2.592234e-01 -5.533942e-02 1.624608e-01 -2.079274e-02 -4.750656e-02 -1.033182e-01 -1.585523e-01 -3.751681e-02 2.794481e-01 -2.911653e-02 6.548424e-02 9.263849e-02 8.102006e-02 -1.778885e-01 2.904529e-03 1.043622e-01 -7.928260e-02
<VARIANCE> 39
 2.779856e+01 2.777664e+01 1.675836e+01 8.529910e+01 3.097400e+01 4.420724e+01 3.145329e+01 3.159325e+01 4.282402e+01 2.795247e+01 2.933748e+01 1.385228e+01 3.478750e+01 2.830824e+00 1.428381e+00 1.728604e+00 3.303959e+00 2.426214e+00 5.730530e+00 3.504202e+00 2.414401e+00 2.538168e+00 5.675880e+00 3.456105e+00 2.026599e+00 1.719969e+00 3.713174e-01 2.377676e-01 3.026254e-01 6.383519e-01 4.765638e-01 7.113627e-01 2.934631e-01 4.493340e-01 4.471879e-01 8.723063e-01 5.425717e-01 4.303274e-01 3.522323e-01
<GCONST> 1.188042e+02
<STATE> 3
<NUMMIXES> 2
<MIXTURE> 1 5.000000e-01
<MEAN> 39
 -6.145733e+00 -4.091244e-02 2.644742e+00 -1.426502e+01 -7.255413e+00 4.509673e+00 -4.374747e-01 -2.222725e+00 -2.573524e+00 -3.229616e+00 -1.122238e+01 -1.677631e+00 3.663792e+00 -8.345997e-02 2.955287e-01 1.777373e-01 -4.880763e-01 1.032264e-01 -1.563138e-01 -3.941566e-01 3.746359e-01 5.217778e-01 -2.876943e-01 2.013658e-01 2.625729e-04 -3.456992e-01 2.698130e-02 4.336569e-02 8.960397e-03 1.478124e-01 -1.029311e-02 -1.555500e-01 7.160557e-03 -4.839823e-02 -6.739445e-02 9.597544e-02 7.916748e-02 -8.566115e-02 4.597849e-03
<VARIANCE> 39
 2.784852e+00 2.183066e+01 1.296774e+01 2.294041e+01 2.019334e+01 2.308492e+01 6.029912e+01 1.265971e+01 1.877516e+01 2.396593e+01 2.681961e+01 1.678353e+01 1.555017e+01 1.838030e-01 3.836359e-01 3.642355e-01 7.645749e-01 5.076866e-01 9.185995e-01 1.181057e+00 1.181533e+00 1.062614e+00 9.810673e-01 8.313857e-01 8.782843e-01 1.015641e+00 3.374065e-02 3.899889e-02 5.326163e-02 1.150711e-01 8.899863e-02 1.818724e-01 1.435239e-01 1.548140e-01 1.348045e-01 2.202357e-01 1.633564e-01 1.539553e-01 1.034923e-01
<GCONST> 7.548134e+01
<MIXTURE> 2 5.000000e-01
<MEAN> 39
 -6.145733e+00 -4.091244e-02 2.644742e+00 -1.426502e+01 -7.255413e+00 4.509673e+00 -4.374747e-01 -2.222725e+00 -2.573524e+00 -3.229616e+00 -1.122238e+01 -1.677631e+00 3.663792e+00 -8.345997e-02 2.955287e-01 1.777373e-01 -4.880763e-01 1.032264e-01 -1.563138e-01 -3.941566e-01 3.746359e-01 5.217778e-01 -2.876943e-01 2.013658e-01 2.625729e-04 -3.456992e-01 2.698130e-02 4.336569e-02 8.960397e-03 1.478124e-01 -1.029311e-02 -1.555500e-01 7.160557e-03 -4.839823e-02 -6.739445e-02 9.597544e-02 7.916748e-02 -8.566115e-02 4.597849e-03
<VARIANCE> 39
 2.784852e+00 2.183066e+01 1.296774e+01 2.294041e+01 2.019334e+01 2.308492e+01 6.029912e+01 1.265971e+01 1.877516e+01 2.396593e+01 2.681961e+01 1.678353e+01 1.555017e+01 1.838030e-01 3.836359e-01 3.642355e-01 7.645749e-01 5.076866e-01 9.185995e-01 1.181057e+00 1.181533e+00 1.062614e+00 9.810673e-01 8.313857e-01 8.782843e-01 1.015641e+00 3.374065e-02 3.899889e-02 5.326163e-02 1.150711e-01 8.899863e-02 1.818724e-01 1.435239e-01 1.548140e-01 1.348045e-01 2.202357e-01 1.633564e-01 1.539553e-01 1.034923e-01
<GCONST> 7.548134e+01
<STATE> 4
<NUMMIXES> 2
<MIXTURE> 1 5.000000e-01
<MEAN> 39
 -6.668638e+00 9.287291e+00 7.342602e+00 -1.790485e+01 -5.732207e+00 -4.422839e+00 -1.416430e+01 1.126826e+00 8.678011e-01 -1.452980e+00 -2.792229e+00 -1.413991e+00 -1.060804e+00 9.143361e-02 1.264575e-01 2.188629e-01 -7.715899e-02 6.716109e-02 -2.670750e-01 -3.010581e-01 -2.008692e-02 -1.658850e-02 1.482557e-01 2.125196e-01 -1.785830e-01 1.126078e-01 5.508917e-02 -4.223431e-02 4.092225e-02 5.113210e-02 1.064915e-02 5.955786e-02 5.929969e-02 -6.910988e-02 -2.329396e-02 1.780606e-03 -4.891284e-02 1.885693e-02 2.114734e-02
<VARIANCE> 39
 1.916963e+00 2.194044e+01 1.883901e+01 1.910821e+01 3.140928e+01 2.505963e+01 3.988089e+01 1.352702e+01 1.294683e+01 2.269336e+01 3.184717e+01 8.234848e+00 7.207286e+00 1.043343e-01 1.956156e-01 2.614114e-01 1.429596e-01 3.027720e-01 5.286856e-01 5.258905e-01 4.213225e-01 4.640405e-01 4.143815e-01 3.926160e-01 2.303693e-01 3.027714e-01 1.350151e-02 1.636747e-02 1.892606e-02 2.591218e-02 4.315170e-02 4.806566e-02 5.977688e-02 6.020832e-02 7.745377e-02 6.102941e-02 3.784620e-02 3.373801e-02 3.696713e-02
<GCONST> 4.856580e+01
<MIXTURE> 2 5.000000e-01
<MEAN> 39
 -6.668638e+00 9.287291e+00 7.342602e+00 -1.790485e+01 -5.732207e+00 -4.422839e+00 -1.416430e+01 1.126826e+00 8.678011e-01 -1.452980e+00 -2.792229e+00 -1.413991e+00 -1.060804e+00 9.143361e-02 1.264575e-01 2.188629e-01 -7.715899e-02 6.716109e-02 -2.670750e-01 -3.010581e-01 -2.008692e-02 -1.658850e-02 1.482557e-01 2.125196e-01 -1.785830e-01 1.126078e-01 5.508917e-02 -4.223431e-02 4.092225e-02 5.113210e-02 1.064915e-02 5.955786e-02 5.929969e-02 -6.910988e-02 -2.329396e-02 1.780606e-03 -4.891284e-02 1.885693e-02 2.114734e-02
<VARIANCE> 39
 1.916963e+00 2.194044e+01 1.883901e+01 1.910821e+01 3.140928e+01 2.505963e+01 3.988089e+01 1.352702e+01 1.294683e+01 2.269336e+01 3.184717e+01 8.234848e+00 7.207286e+00 1.043343e-01 1.956156e-01 2.614114e-01 1.429596e-01 3.027720e-01 5.286856e-01 5.258905e-01 4.213225e-01 4.640405e-01 4.143815e-01 3.926160e-01 2.303693e-01 3.027714e-01 1.350151e-02 1.636747e-02 1.892606e-02 2.591218e-02 4.315170e-02 4.806566e-02 5.977688e-02 6.020832e-02 7.745377e-02 6.102941e-02 3.784620e-02 3.373801e-02 3.696713e-02
<GCONST> 4.856580e+01
<STATE> 5
<NUMMIXES> 2
<MIXTURE> 1 5.000000e-01
<MEAN> 39
 -3.845744e+00 8.269048e+00 7.299514e+00 -1.543505e+01 -3.945426e+00 -1.094344e+00 -1.277305e+01 -1.171899e+00 3.096074e-01 -3.683793e-01 -3.512369e+00 -7.285132e-01 -6.420462e-02 6.532565e-01 -3.167574e-02 5.026286e-01 7.512977e-01 3.797265e-02 2.762778e-01 1.809302e-01 -2.662455e-01 -9.315732e-02 6.220517e-01 1.532634e-01 -2.282659e-01 2.687388e-02 3.881930e-02 2.674258e-02 -7.704402e-02 3.093248e-01 1.149935e-01 -2.445323e-02 1.387387e-01 2.080156e-02 -9.825754e-02 1.530859e-02 -6.069751e-04 -1.322492e-01 2.807323e-02
<VARIANCE> 39
 2.454252e+00 1.665985e+01 6.214828e+01 2.303048e+01 8.695688e+01 2.078459e+01 3.478502e+01 8.272503e+00 1.765424e+01 2.594441e+01 3.342244e+01 1.520512e+01 1.428356e+01 1.842620e-01 5.396614e-01 5.681067e-01 1.158417e+00 1.187193e+00 1.026972e+00 2.228531e+00 9.826992e-01 2.121964e+00 1.280350e+00 4.438246e-01 6.393752e-01 6.558792e-01 4.857086e-02 5.701704e-02 1.090629e-01 1.712644e-01 2.094676e-01 2.528304e-01 1.496173e-01 1.734132e-01 4.018398e-01 2.109726e-01 1.383315e-01 1.026310e-01 1.429055e-01
<GCONST> 8.327911e+01
<MIXTURE> 2 5.000000e-01
<MEAN> 39
 -3.845744e+00 8.269048e+00 7.299514e+00 -1.543505e+01 -3.945426e+00 -1.094344e+00 -1.277305e+01 -1.171899e+00 3.096074e-01 -3.683793e-01 -3.512369e+00 -7.285132e-01 -6.420462e-02 6.532565e-01 -3.167574e-02 5.026286e-01 7.512977e-01 3.797265e-02 2.762778e-01 1.809302e-01 -2.662455e-01 -9.315732e-02 6.220517e-01 1.532634e-01 -2.282659e-01 2.687388e-02 3.881930e-02 2.674258e-02 -7.704402e-02 3.093248e-01 1.149935e-01 -2.445323e-02 1.387387e-01 2.080156e-02 -9.825754e-02 1.530859e-02 -6.069751e-04 -1.322492e-01 2.807323e-02
<VARIANCE> 39
 2.454252e+00 1.665985e+01 6.214828e+01 2.303048e+01 8.695688e+01 2.078459e+01 3.478502e+01 8.272503e+00 1.765424e+01 2.594441e+01 3.342244e+01 1.520512e+01 1.428356e+01 1.842620e-01 5.396614e-01 5.681067e-01 1.158417e+00 1.187193e+00 1.026972e+00 2.228531e+00 9.826992e-01 2.121964e+00 1.280350e+00 4.438246e-01 6.393752e-01 6.558792e-01 4.857086e-02 5.701704e-02 1.090629e-01 1.712644e-01 2.094676e-01 2.528304e-01 1.496173e-01 1.734132e-01 4.018398e-01 2.109726e-01 1.383315e-01 1.026310e-01 1.429055e-01
<GCONST> 8.327911e+01
<STATE> 6
<NUMMIXES> 2
<MIXTURE> 1 5.000000e-01
<MEAN> 39
 -3.169445e+00 1.066424e+01 1.186891e+01 -1.075538e+01 2.415167e+00 -1.130538e+00 -1.260666e+01 5.769563e-02 -1.010363e+00 6.779562e-01 -1.511041e+00 -1.521515e+00 1.453143e-01 -2.022044e-02 4.428013e-03 1.430311e-02 1.098022e+00 3.090097e-01 3.750574e-01 6.519166e-01 -3.201403e-02 -4.481634e-01 -1.074883e-01 4.353091e-02 8.746064e-02 3.492026e-01 -8.958922e-02 -1.119438e-01 -1.355373e-01 -5.881883e-02 3.537559e-02 -1.035352e-01 1.932256e-01 2.333341e-02 2.218522e-02 -1.107042e-01 5.464219e-02 1.633375e-01 -1.093656e-02
<VARIANCE> 39
 1.658529e+01 2.057551e+01 4.760659e+01 4.597749e+01 7.755650e+01 3.905072e+01 3.070120e+01 2.210214e+01 3.025560e+01 2.859858e+01 2.582361e+01 2.049849e+01 1.709063e+01 1.242991e+00 1.667638e+00 2.052963e+00 2.361753e+00 1.706381e+00 1.722031e+00 2.077154e+00 2.935040e+00 2.682292e+00 2.165208e+00 1.938936e+00 1.932766e+00 1.865538e+00 1.592880e-01 2.990361e-01 3.991227e-01 3.688451e-01 3.875966e-01 4.071406e-01 3.962802e-01 6.073613e-01 5.416592e-01 3.830253e-01 3.226303e-01 4.011415e-01 4.294904e-01
<GCONST> 1.118137e+02
<MIXTURE> 2 5.000000e-01
<MEAN> 39
 -3.169445e+00 1.066424e+01 1.186891e+01 -1.075538e+01 2.415167e+00 -1.130538e+00 -1.260666e+01 5.769563e-02 -1.010363e+00 6.779562e-01 -1.511041e+00 -1.521515e+00 1.453143e-01 -2.022044e-02 4.428013e-03 1.430311e-02 1.098022e+00 3.090097e-01 3.750574e-01 6.519166e-01 -3.201403e-02 -4.481634e-01 -1.074883e-01 4.353091e-02 8.746064e-02 3.492026e-01 -8.958922e-02 -1.119438e-01 -1.355373e-01 -5.881883e-02 3.537559e-02 -1.035352e-01 1.932256e-01 2.333341e-02 2.218522e-02 -1.107042e-01 5.464219e-02 1.633375e-01 -1.093656e-02
<VARIANCE> 39
 1.658529e+01 2.057551e+01 4.760659e+01 4.597749e+01 7.755650e+01 3.905072e+01 3.070120e+01 2.210214e+01 3.025560e+01 2.859858e+01 2.582361e+01 2.049849e+01 1.709063e+01 1.242991e+00 1.667638e+00 2.052963e+00 2.361753e+00 1.706381e+00 1.722031e+00 2.077154e+00 2.935040e+00 2.682292e+00 2.165208e+00 1.938936e+00 1.932766e+00 1.865538e+00 1.592880e-01 2.990361e-01 3.991227e-01 3.688451e-01 3.875966e-01 4.071406e-01 3.962802e-01 6.073613e-01 5.416592e-01 3.830253e-01 3.226303e-01 4.011415e-01 4.294904e-01
<GCONST> 1.118137e+02
<TRANSP> 7
 0.000000e+00 1.000000e+00 0.000000e+00 0.000000e+00 0.000000e+00 0.000000e+00 0.000000e+00
 0.000000e+00 7.397695e-01 2.602306e-01 0.000000e+00 0.000000e+00 0.000000e+00 0.000000e+00
 0.000000e+00 0.000000e+00 8.534516e-01 1.465484e-01 0.000000e+00 0.000000e+00 0.000000e+00
 0.000000e+00 0.000000e+00 0.000000e+00 9.009007e-01 9.909935e-02 0.000000e+00 0.000000e+00
 0.000000e+00 0.000000e+00 0.000000e+00 0.000000e+00 6.897197e-01 3.102803e-01 0.000000e+00
 0.000000e+00 0.000000e+00 0.000000e+00 0.000000e+00 0.000000e+00 8.422413e-01 1.577587e-01
 0.000000e+00 0.000000e+00 0.000000e+00 0.000000e+00 0.000000e+00 0.000000e+00 0.000000e+00
<ENDHMM>
~h "j"
<BEGINHMM>
<NUMSTATES> 5
<STATE> 2
<NUMMIXES> 2
<MIXTURE> 1 5.000000e-01
<MEAN> 39
 -1.445843e+00 1.515171e+00 -6.526527e-01 -2.111676e+00 -2.524062e+00 -5.696270e+00 9.133257e+00 -6.786026e+00 -1.107146e+01 3.512316e+00 -5.158868e+00 -2.337659e+00 -5.530615e-01 7.002095e-03 9.954109e-02 6.261083e-02 5.263518e-02 1.964397e-02 -1.165493e-02 -1.081795e-01 -9.501241e-03 1.636468e-01 -2.765946e-02 1.882404e-02 -3.291393e-02 1.947430e-02 -4.789637e-02 -2.033368e-02 -9.035657e-03 2.833261e-02 -1.507913e-03 4.462707e-02 -2.208376e-02 1.272222e-02 3.995297e-02 -4.952288e-02 -5.233139e-03 5.627364e-03 1.626373e-02
<VARIANCE> 39
 4.036467e+01 6.946686e+01 7.414252e+01 2.539780e+01 4.095307e+01 1.137084e+02 1.159909e+02 2.992045e+01 5.820826e+01 6.791701e+01 2.749446e+01 2.210308e+01 1.521502e+01 1.391690e+00 1.767073e+00 1.752313e+00 1.083445e+00 2.028018e+00 3.806283e+00 4.822045e+00 1.800840e+00 3.311959e+00 3.260632e+00 3.043747e+00 1.047762e+00 1.481063e+00 1.952759e-01 2.635910e-01 2.904994e-01 1.718985e-01 4.153334e-01 6.858362e-01 1.047825e+00 3.758823e-01 5.864754e-01 5.996076e-01 6.857598e-01 2.051380e-01 3.362767e-01
<GCONST> 1.185996e+02
<MIXTURE> 2 5.000000e-01
<MEAN> 39
 -1.445843e+00 1.515171e+00 -6.526527e-01 -2.111676e+00 -2.524062e+00 -5.696270e+00 9.133257e+00 -6.786026e+00 -1.107146e+01 3.512316e+00 -5.158868e+00 -2.337659e+00 -5.530615e-01 7.002095e-03 9.954109e-02 6.261083e-02 5.263518e-02 1.964397e-02 -1.165493e-02 -1.081795e-01 -9.501241e-03 1.636468e-01 -2.765946e-02 1.882404e-02 -3.291393e-02 1.947430e-02 -4.789637e-02 -2.033368e-02 -9.035657e-03 2.833261e-02 -1.507913e-03 4.462707e-02 -2.208376e-02 1.272222e-02 3.995297e-02 -4.952288e-02 -5.233139e-03 5.627364e-03 1.626373e-02
<VARIANCE> 39
 4.036467e+01 6.946686e+01 7.414252e+01 2.539780e+01 4.095307e+01 1.137084e+02 1.159909e+02 2.992045e+01 5.820826e+01 6.791701e+01 2.749446e+01 2.210308e+01 1.521502e+01 1.391690e+00 1.767073e+00 1.752313e+00 1.083445e+00 2.028018e+00 3.806283e+00 4.822045e+00 1.800840e+00 3.311959e+00 3.260632e+00 3.043747e+00 1.047762e+00 1.481063e+00 1.952759e-01 2.635910e-01 2.904994e-01 1.718985e-01 4.153334e-01 6.858362e-01 1.047825e+00 3.758823e-01 5.864754e-01 5.996076e-01 6.857598e-01 2.051380e-01 3.362767e-01
<GCONST> 1.185996e+02
<STATE> 3
<NUMMIXES> 2
<MIXTURE> 1 5.000000e-01
<MEAN> 39
 -6.023115e+00 1.187391e+01 1.073794e+01 5.327240e+00 -1.956628e+00 -3.682492e+00 -4.465380e+00 -9.026392e+00 -1.491458e+00 -6.694246e-01 1.383134e-01 -1.209161e+00 1.808156e+00 -4.674833e-01 -1.320411e-01 -4.292296e-01 8.392032e-02 -8.054366e-02 4.123850e-01 2.175029e-01 2.349350e-01 5.331905e-02 8.030799e-03 2.292608e-01 -5.403061e-02 2.185518e-01 2.397972e-01 -1.528155e-01 -1.909366e-01 -1.459057e-01 -7.480291e-02 -1.076131e-01 2.469470e-01 1.531854e-02 -2.133316e-01 1.263264e-01 -9.348679e-02 -6.860491e-02 -3.730030e-02
<VARIANCE> 39
 4.003660e+01 3.122770e+01 1.356205e+01 1.853823e+01 2.015823e+01 2.169915e+01 3.233121e+01 1.838372e+01 1.888568e+01 2.514904e+01 2.218495e+01 2.032476e+01 8.803061e+00 3.345845e+00 2.150579e+00 1.368813e+00 1.648095e+00 2.127394e+00 3.439632e+00 3.605488e+00 2.075901e+00 2.787607e+00 3.231415e+00 2.957102e+00 2.286195e+00 1.713216e+00 2.781286e-01 3.400966e-01 2.203952e-01 2.292950e-01 4.392043e-01 5.631120e-01 4.854474e-01 4.395413e-01 6.755269e-01 4.255812e-01 7.386893e-01 4.251363e-01 3.415616e-01
<GCONST> 1.109270e+02
<MIXTURE> 2 5.000000e-01
<MEAN> 39
 -6.023115e+00 1.187391e+01 1.073794e+01 5.327240e+00 -1.956628e+00 -3.682492e+00 -4.465380e+00 -9.026392e+00 -1.491458e+00 -6.694246e-01 1.383134e-01 -1.209161e+00 1.808156e+00 -4.674833e-01 -1.320411e-01 -4.292296e-01 8.392032e-02 -8.054366e-02 4.123850e-01 2.175029e-01 2.349350e-01 5.331905e-02 8.030799e-03 2.292608e-01 -5.403061e-02 2.185518e-01 2.397972e-01 -1.528155e-01 -1.909366e-01 -1.459057e-01 -7.480291e-02 -1.076131e-01 2.469470e-01 1.531854e-02 -2.133316e-01 1.263264e-01 -9.348679e-02 -6.860491e-02 -3.730030e-02
<VARIANCE> 39
 4.003660e+01 3.122770e+01 1.356205e+01 1.853823e+01 2.015823e+01 2.169915e+01 3.233121e+01 1.838372e+01 1.888568e+01 2.514904e+01 2.218495e+01 2.032476e+01 8.803061e+00 3.345845e+00 2.150579e+00 1.368813e+00 1.648095e+00 2.127394e+00 3.439632e+00 3.605488e+00 2.075901e+00 2.787607e+00 3.231415e+00 2.957102e+00 2.286195e+00 1.713216e+00 2.781286e-01 3.400966e-01 2.203952e-01 2.292950e-01 4.392043e-01 5.631120e-01 4.854474e-01 4.395413e-01 6.755269e-01 4.255812e-01 7.386893e-01 4.251363e-01 3.415616e-01
<GCONST> 1.109270e+02
<STATE> 4
<NUMMIXES> 2
<MIXTURE> 1 5.000000e-01
<MEAN> 39
 -6.220707e+00 -7.964980e-01 1.954843e+00 -3.013754e-01 -1.433637e+00 6.880745e+00 -8.897673e-01 -6.993728e+00 1.985861e+00 -8.473408e-01 -3.816755e+00 5.851247e-01 2.189323e+00 1.259892e-01 -3.347355e-02 -9.142450e-02 -1.032306e-01 -1.266383e-01 -1.897209e-01 5.981191e-02 5.046959e-02 -3.233879e-02 2.681402e-02 -5.036641e-02 -6.082145e-02 -6.736244e-02 8.164894e-03 6.628004e-03 1.243296e-02 -5.126224e-03 3.414314e-05 -5.201877e-02 -2.520285e-02 -4.277464e-03 -2.808018e-02 3.180421e-03 -1.967796e-02 5.813443e-03 -9.043911e-03
<VARIANCE> 39
 8.717667e+00 3.529781e+01 1.478842e+01 2.348488e+01 2.216437e+01 2.863046e+01 3.423471e+01 2.788381e+01 3.091701e+01 2.423585e+01 2.345107e+01 2.469619e+01 1.946675e+01 4.299833e-01 7.926053e-01 1.666239e+00 1.993427e+00 2.853657e+00 2.523299e+00 4.576351e+00 2.546916e+00 3.741211e+00 2.740545e+00 3.219908e+00 2.549530e+00 3.032428e+00 4.380107e-02 1.453157e-01 3.243381e-01 3.585760e-01 5.580068e-01 4.302686e-01 1.040740e+00 5.718772e-01 8.640536e-01 4.836368e-01 7.463815e-01 6.112226e-01 7.324523e-01
<GCONST> 1.114935e+02
<MIXTURE> 2 5.000000e-01
<MEAN> 39
 -6.220707e+00 -7.964980e-01 1.954843e+00 -3.013754e-01 -1.433637e+00 6.880745e+00 -8.897673e-01 -6.993728e+00 1.985861e+00 -8.473408e-01 -3.816755e+00 5.851247e-01 2.189323e+00 1.259892e-01 -3.347355e-02 -9.142450e-02 -1.032306e-01 -1.266383e-01 -1.897209e-01 5.981191e-02 5.046959e-02 -3.233879e-02 2.681402e-02 -5.036641e-02 -6.082145e-02 -6.736244e-02 8.164894e-03 6.628004e-03 1.243296e-02 -5.126224e-03 3.414314e-05 -5.201877e-02 -2.520285e-02 -4.277464e-03 -2.808018e-02 3.180421e-03 -1.967796e-02 5.813443e-03 -9.043911e-03
<VARIANCE> 39
 8.717667e+00 3.529781e+01 1.478842e+01 2.348488e+01 2.216437e+01 2.863046e+01 3.423471e+01 2.788381e+01 3.091701e+01 2.423585e+01 2.345107e+01 2.469619e+01 1.946675e+01 4.299833e-01 7.926053e-01 1.666239e+00 1.993427e+00 2.853657e+00 2.523299e+00 4.576351e+00 2.546916e+00 3.741211e+00 2.740545e+00 3.219908e+00 2.549530e+00 3.032428e+00 4.380107e-02 1.453157e-01 3.243381e-01 3.585760e-01 5.580068e-01 4.302686e-01 1.040740e+00 5.718772e-01 8.640536e-01 4.836368e-01 7.463815e-01 6.112226e-01 7.324523e-01
<GCONST> 1.114935e+02
<TRANSP> 5
 0.000000e+00 1.000000e+00 0.000000e+00 0.000000e+00 0.000000e+00
 0.000000e+00 9.768583e-01 2.314172e-02 0.000000e+00 0.000000e+00
 0.000000e+00 0.000000e+00 9.285184e-01 7.148159e-02 0.000000e+00
 0.000000e+00 0.000000e+00 0.000000e+00 9.704564e-01 2.954359e-02
 0.000000e+00 0.000000e+00 0.000000e+00 0.000000e+00 0.000000e+00
<ENDHMM>
~h "k"
<BEGINHMM>
<NUMSTATES> 5
<STATE> 2
<NUMMIXES> 2
<MIXTURE> 1 5.000000e-01
<MEAN> 39
 -5.885828e+00 6.592392e-01 7.804842e-01 3.131491e+00 1.303010e-02 1.235139e-01 2.322599e+00 -7.631680e-01 -6.076586e+00 -4.173695e+00 -2.295664e+00 -4.525093e+00 8.920303e-02 -4.712280e-01 1.806581e-02 1.115770e-01 1.569782e-01 1.148432e-02 1.077506e-02 -1.552137e-01 -2.133256e-01 1.186775e-01 -4.169914e-01 -4.200902e-01 -1.282098e-01 -1.236125e-01 1.898776e-02 -9.778961e-02 -1.408949e-02 -1.079340e-01 -6.803302e-02 -4.868460e-02 -7.951230e-03 -3.219474e-02 7.984094e-02 8.207087e-02 -4.966054e-02 1.095806e-01 4.146653e-02
<VARIANCE> 39
 9.723973e+00 1.647907e+01 2.463617e+01 2.355452e+01 2.200013e+01 1.508848e+01 4.202617e+01 3.427297e+01 2.219795e+01 4.058194e+01 2.238865e+01 1.619337e+01 2.740392e+01 5.539719e-01 1.237480e+00 1.314310e+00 1.968212e+00 2.712553e+00 1.681245e+00 3.501476e+00 3.470805e+00 2.548634e+00 3.082913e+00 2.510003e+00 2.202749e+00 3.539223e+00 1.055470e-01 2.616986e-01 2.558116e-01 3.846495e-01 6.358961e-01 3.675542e-01 7.635974e-01 6.899431e-01 5.629421e-01 6.566299e-01 4.940867e-01 3.965631e-01 7.557112e-01
<GCONST> 1.109178e+02
<MIXTURE> 2 5.000000e-01
<MEAN> 39
 -5.885828e+00 6.592392e-01 7.804842e-01 3.131491e+00 1.303010e-02 1.235139e-01 2.322599e+00 -7.631680e-01 -6.076586e+00 -4.173695e+00 -2.295664e+00 -4.525093e+00 8.920303e-02 -4.712280e-01 1.806581e-02 1.115770e-01 1.569782e-01 1.148432e-02 1.077506e-02 -1.552137e-01 -2.133256e-01 1.186775e-01 -4.169914e-01 -4.200902e-01 -1.282098e-01 -1.236125e-01 1.898776e-02 -9.778961e-02 -1.408949e-02 -1.079340e-01 -6.803302e-02 -4.868460e-02 -7.951230e-03 -3.219474e-02 7.984094e-02 8.207087e-02 -4.966054e-02 1.095806e-01 4.146653e-02
<VARIANCE> 39
 9.723973e+00 1.647907e+01 2.463617e+01 2.355452e+01 2.200013e+01 1.508848e+01 4.202617e+01 3.427297e+01 2.219795e+01 4.058194e+01 2.238865e+01 1.619337e+01 2.740392e+01 5.539719e-01 1.237480e+00 1.314310e+00 1.968212e+00 2.712553e+00 1.681245e+00 3.501476e+00 3.470805e+00 2.548634e+00 3.082913e+00 2.510003e+00 2.202749e+00 3.539223e+00 1.055470e-01 2.616986e-01 2.558116e-01 3.846495e-01 6.358961e-01 3.675542e-01 7.635974e-01 6.899431e-01 5.629421e-01 6.566299e-01 4.940867e-01 3.965631e-01 7.557112e-01
<GCONST> 1.109178e+02
<STATE> 3
<NUMMIXES> 2
<MIXTURE> 1 5.000000e-01
<MEAN> 39
 -7.005359e+00 -2.077095e+00 2.066441e+00 1.345547e-01 -3.148086e+00 7.925923e-01 -1.369854e+00 -4.674602e+00 -2.293669e+00 -4.009296e+00 -4.666029e+00 -1.584993e+00 1.522552e+00 -7.311285e-02 -1.495362e-01 -1.528238e-03 -1.005565e-02 -2.214789e-02 2.724953e-02 5.307747e-02 -5.018465e-02 1.251087e-01 6.467941e-02 -1.166661e-03 9.024374e-03 -2.811278e-02 -2.993145e-02 -8.053894e-02 -4.454023e-02 -4.450527e-02 -1.302955e-04 -4.728219e-02 4.376953e-03 -3.471931e-03 1.857093e-02 4.047075e-02 7.980223e-02 4.546651e-03 -7.595843e-03
<VARIANCE> 39
 7.396663e+00 3.870901e+01 2.150414e+01 3.696453e+01 3.574459e+01 2.820172e+01 4.432505e+01 4.438211e+01 2.378231e+01 2.572824e+01 2.502908e+01 2.494484e+01 1.944374e+01 6.230025e-01 2.260754e+00 1.747527e+00 1.895789e+00 3.227533e+00 3.083116e+00 3.662237e+00 3.716862e+00 2.900779e+00 3.567608e+00 3.126545e+00 2.961143e+00 2.300569e+00 1.262823e-01 3.887575e-01 3.472090e-01 4.562309e-01 7.197524e-01 7.233793e-01 6.607550e-01 7.546018e-01 6.375834e-01 7.527456e-01 7.113774e-01 6.851104e-01 4.968800e-01
<GCONST> 1.178205e+02
<MIXTURE> 2 5.000000e-01
<MEAN> 39
 -7.005359e+00 -2.077095e+00 2.066441e+00 1.345547e-01 -3.148086e+00 7.925923e-01 -1.369854e+00 -4.674602e+00 -2.293669e+00 -4.009296e+00 -4.666029e+00 -1.584993e+00 1.522552e+00 -7.311285e-02 -1.495362e-01 -1.528238e-03 -1.005565e-02 -2.214789e-02 2.724953e-02 5.307747e-02 -5.018465e-02 1.251087e-01 6.467941e-02 -1.166661e-03 9.024374e-03 -2.811278e-02 -2.993145e-02 -8.053894e-02 -4.454023e-02 -4.450527e-02 -1.302955e-04 -4.728219e-02 4.376953e-03 -3.471931e-03 1.857093e-02 4.047075e-02 7.980223e-02 4.546651e-03 -7.595843e-03
<VARIANCE> 39
 7.396663e+00 3.870901e+01 2.150414e+01 3.696453e+01 3.574459e+01 2.820172e+01 4.432505e+01 4.438211e+01 2.378231e+01 2.572824e+01 2.502908e+01 2.494484e+01 1.944374e+01 6.230025e-01 2.260754e+00 1.747527e+00 1.895789e+00 3.227533e+00 3.083116e+00 3.662237e+00 3.716862e+00 2.900779e+00 3.567608e+00 3.126545e+00 2.961143e+00 2.300569e+00 1.262823e-01 3.887575e-01 3.472090e-01 4.562309e-01 7.197524e-01 7.233793e-01 6.607550e-01 7.546018e-01 6.375834e-01 7.527456e-01 7.113774e-01 6.851104e-01 4.968800e-01
<GCONST> 1.178205e+02
<STATE> 4
<NUMMIXES> 2
<MIXTURE> 1 5.000000e-01
<MEAN> 39
 -1.086786e+01 -4.905810e+00 1.553635e-01 -5.113238e+00 -4.501757e+00 -3.783554e+00 9.626861e-01 -2.559024e+00 -1.320253e+00 -2.782459e+00 -1.524483e+00 -3.650626e+00 -3.367587e-01 2.783475e-01 -1.219955e-01 -3.724174e-01 -7.049668e-01 -3.537390e-01 -5.383594e-01 3.484209e-01 1.024010e-01 -1.810322e-01 2.135986e-01 7.940527e-02 -1.312969e-01 -1.131410e-01 1.868190e-01 3.738385e-01 1.094788e-01 4.569364e-02 1.239502e-01 8.669637e-02 -1.172928e-01 1.473936e-01 -1.770130e-01 -2.335626e-02 -4.627221e-02 -2.846130e-02 -5.026261e-05
<VARIANCE> 39
 3.403869e+01 8.196193e+01 2.372625e+01 8.329052e+01 4.602699e+01 2.430257e+01 5.295789e+01 3.143922e+01 2.947026e+01 1.665989e+01 2.087383e+01 1.546193e+01 1.396824e+01 3.775218e+00 8.706620e+00 2.591729e+00 4.263041e+00 4.536762e+00 3.466904e+00 3.664668e+00 3.133084e+00 3.185817e+00 2.456536e+00 3.347844e+00 2.194798e+00 1.562594e+00 5.665769e-01 1.293739e+00 4.052264e-01 7.329758e-01 8.093145e-01 7.229455e-01 6.436889e-01 6.259694e-01 5.372859e-01 5.001784e-01 6.607587e-01 4.526309e-01 3.140734e-01
<GCONST> 1.251879e+02
<MIXTURE> 2 5.000000e-01
<MEAN> 39
 -1.086786e+01 -4.905810e+00 1.553635e-01 -5.113238e+00 -4.501757e+00 -3.783554e+00 9.626861e-01 -2.559024e+00 -1.320253e+00 -2.782459e+00 -1.524483e+00 -3.650626e+00 -3.367587e-01 2.783475e-01 -1.219955e-01 -3.724174e-01 -7.049668e-01 -3.537390e-01 -5.383594e-01 3.484209e-01 1.024010e-01 -1.810322e-01 2.135986e-01 7.940527e-02 -1.312969e-01 -1.131410e-01 1.868190e-01 3.738385e-01 1.094788e-01 4.569364e-02 1.239502e-01 8.669637e-02 -1.172928e-01 1.473936e-01 -1.770130e-01 -2.335626e-02 -4.627221e-02 -2.846130e-02 -5.026261e-05
<VARIANCE> 39
 3.403869e+01 8.196193e+01 2.372625e+01 8.329052e+01 4.602699e+01 2.430257e+01 5.295789e+01 3.143922e+01 2.947026e+01 1.665989e+01 2.087383e+01 1.546193e+01 1.396824e+01 3.775218e+00 8.706620e+00 2.591729e+00 4.263041e+00 4.536762e+00 3.466904e+00 3.664668e+00 3.133084e+00 3.185817e+00 2.456536e+00 3.347844e+00 2.194798e+00 1.562594e+00 5.665769e-01 1.293739e+00 4.052264e-01 7.329758e-01 8.093145e-01 7.229455e-01 6.436889e-01 6.259694e-01 5.372859e-01 5.001784e-01 6.607587e-01 4.526309e-01 3.140734e-01
<GCONST> 1.251879e+02
<TRANSP> 5
 0.000000e+00 1.000000e+00 0.000000e+00 0.000000e+00 0.000000e+00
 0.000000e+00 8.527840e-01 1.472160e-01 0.000000e+00 0.000000e+00
 0.000000e+00 0.000000e+00 9.373918e-01 6.260823e-02 0.000000e+00
 0.000000e+00 0.000000e+00 0.000000e+00 8.881161e-01 1.118839e-01
 0.000000e+00 0.000000e+00 0.000000e+00 0.000000e+00 0.000000e+00
<ENDHMM>
~h "l"
<BEGINHMM>
<NUMSTATES> 5
<STATE> 2
<NUMMIXES> 2
<MIXTURE> 1 5.000000e-01
<MEAN> 39
 -3.369499e+00 8.092600e+00 -1.354470e+00 -1.045372e+00 -9.132014e+00 -1.635451e+01 1.912724e+00 -2.483398e+00 -6.628936e+00 5.190573e+00 -1.901154e+00 -2.995869e+00 1.674698e+00 -1.647335e-01 -3.040389e-01 -2.782001e-01 1.812014e-02 -1.155641e-01 3.048999e-01 6.574675e-01 5.943467e-02 -4.957921e-01 2.841416e-02 -9.943394e-03 -2.602032e-01 5.023769e-03 -2.107604e-02 -1.105137e-01 -4.223233e-02 -5.427659e-02 9.130409e-02 2.255147e-01 -3.301223e-02 7.289549e-02 4.850082e-02 -1.541159e-01 -3.637379e-02 2.779542e-02 -3.939763e-02
<VARIANCE> 39
 1.063055e+01 4.998148e+01 2.667673e+01 2.458031e+01 4.005832e+01 6.590424e+01 4.698993e+01 6.491524e+01 3.650624e+01 5.444798e+01 3.985061e+01 1.697288e+01 2.378316e+01 3.486051e-01 1.749054e+00 1.278517e+00 1.281330e+00 1.677359e+00 4.664251e+00 2.539467e+00 1.747514e+00 2.323926e+00 2.654962e+00 2.062608e+00 1.343217e+00 1.275775e+00 5.818107e-02 1.947140e-01 1.192815e-01 2.152799e-01 2.918145e-01 5.205020e-01 4.519474e-01 2.586181e-01 4.287545e-01 3.815391e-01 3.487276e-01 2.268419e-01 2.297221e-01
<GCONST> 1.062568e+02
<MIXTURE> 2 5.000000e-01
<MEAN> 39
 -3.369499e+00 8.092600e+00 -1.354470e+00 -1.045372e+00 -9.132014e+00 -1.635451e+01 1.912724e+00 -2.483398e+00 -6.628936e+00 5.190573e+00 -1.901154e+00 -2.995869e+00 1.674698e+00 -1.647335e-01 -3.040389e-01 -2.782001e-01 1.812014e-02 -1.155641e-01 3.048999e-01 6.574675e-01 5.943467e-02 -4.957921e-01 2.841416e-02 -9.943394e-03 -2.602032e-01 5.023769e-03 -2.107604e-02 -1.105137e-01 -4.223233e-02 -5.427659e-02 9.130409e-02 2.255147e-01 -3.301223e-02 7.289549e-02 4.850082e-02 -1.541159e-01 -3.637379e-02 2.779542e-02 -3.939763e-02
<VARIANCE> 39
 1.063055e+01 4.998148e+01 2.667673e+01 2.458031e+01 4.005832e+01 6.590424e+01 4.698993e+01 6.491524e+01 3.650624e+01 5.444798e+01 3.985061e+01 1.697288e+01 2.378316e+01 3.486051e-01 1.749054e+00 1.278517e+00 1.281330e+00 1.677359e+00 4.664251e+00 2.539467e+00 1.747514e+00 2.323926e+00 2.654962e+00 2.062608e+00 1.343217e+00 1.275775e+00 5.818107e-02 1.947140e-01 1.192815e-01 2.152799e-01 2.918145e-01 5.205020e-01 4.519474e-01 2.586181e-01 4.287545e-01 3.815391e-01 3.487276e-01 2.268419e-01 2.297221e-01
<GCONST> 1.062568e+02
<STATE> 3
<NUMMIXES> 2
<MIXTURE> 1 5.000000e-01
<MEAN> 39
 -2.586637e+00 -3.871045e+00 -1.094194e+01 2.456096e+00 -4.937081e+00 -9.123711e+00 7.299784e+00 -4.468685e-01 -1.073857e+01 -5.654686e+00 -1.872894e+00 -9.622977e-01 -3.472806e+00 -7.050882e-02 -2.131617e-01 -6.825395e-02 3.550359e-02 2.902796e-01 1.046320e-01 9.951454e-02 -2.779401e-01 -1.890254e-01 1.165788e-01 4.230319e-02 2.102835e-02 -9.337021e-02 2.391749e-02 5.267989e-02 -1.679322e-03 2.565927e-02 2.552245e-02 -1.192700e-01 -1.119149e-01 -2.040614e-03 8.991273e-02 -7.430604e-03 4.324272e-02 1.848296e-02 -1.829009e-04
<VARIANCE> 39
 1.020428e+01 4.157621e+01 1.310952e+01 2.122706e+01 7.312253e+01 4.358446e+01 3.240572e+01 3.496563e+01 5.423145e+01 3.397488e+01 1.476076e+01 2.055862e+01 9.992167e+00 3.784515e-01 1.331056e+00 5.122447e-01 1.108396e+00 3.352383e+00 1.304687e+00 1.733946e+00 1.701610e+00 3.210860e+00 1.117080e+00 1.126233e+00 1.128258e+00 3.967604e-01 4.436902e-02 1.598264e-01 8.471764e-02 1.731591e-01 3.394423e-01 2.400503e-01 3.348971e-01 2.104397e-01 3.963588e-01 1.488472e-01 1.443835e-01 1.632998e-01 5.591179e-02
<GCONST> 9.209750e+01
<MIXTURE> 2 5.000000e-01
<MEAN> 39
 -2.586637e+00 -3.871045e+00 -1.094194e+01 2.456096e+00 -4.937081e+00 -9.123711e+00 7.299784e+00 -4.468685e-01 -1.073857e+01 -5.654686e+00 -1.872894e+00 -9.622977e-01 -3.472806e+00 -7.050882e-02 -2.131617e-01 -6.825395e-02 3.550359e-02 2.902796e-01 1.046320e-01 9.951454e-02 -2.779401e-01 -1.890254e-01 1.165788e-01 4.230319e-02 2.102835e-02 -9.337021e-02 2.391749e-02 5.267989e-02 -1.679322e-03 2.565927e-02 2.552245e-02 -1.192700e-01 -1.119149e-01 -2.040614e-03 8.991273e-02 -7.430604e-03 4.324272e-02 1.848296e-02 -1.829009e-04
<VARIANCE> 39
 1.020428e+01 4.157621e+01 1.310952e+01 2.122706e+01 7.312253e+01 4.358446e+01 3.240572e+01 3.496563e+01 5.423145e+01 3.397488e+01 1.476076e+01 2.055862e+01 9.992167e+00 3.784515e-01 1.331056e+00 5.122447e-01 1.108396e+00 3.352383e+00 1.304687e+00 1.733946e+00 1.701610e+00 3.210860e+00 1.117080e+00 1.126233e+00 1.128258e+00 3.967604e-01 4.436902e-02 1.598264e-01 8.471764e-02 1.731591e-01 3.394423e-01 2.400503e-01 3.348971e-01 2.104397e-01 3.963588e-01 1.488472e-01 1.443835e-01 1.632998e-01 5.591179e-02
<GCONST> 9.209750e+01
<STATE> 4
<NUMMIXES> 2
<MIXTURE> 1 5.000000e-01
<MEAN> 39
 -5.675514e+00 -7.469522e+00 -1.363505e+01 3.653748e+00 1.323173e+00 -6.997798e+00 9.488606e+00 -4.015714e+00 -1.283462e+01 -6.164122e+00 -2.565486e-01 3.158345e-01 -4.100616e+00 1.311133e-02 -1.999388e-02 -1.733787e-01 1.541157e-01 2.092646e-01 -7.566354e-02 -1.094384e-01 8.891299e-02 1.615480e-01 -1.657744e-01 6.080073e-02 9.656651e-02 -5.255837e-02 3.001908e-02 1.971242e-02 2.358478e-02 -4.371982e-02 -5.475034e-02 -6.389088e-03 1.205838e-02 3.623975e-02 2.599932e-02 1.468061e-02 -4.425360e-02 -1.843730e-02 9.470397e-03
<VARIANCE> 39
 3.675073e+00 2.488943e+01 1.685736e+01 2.953107e+01 3.610435e+01 1.133374e+01 3.453617e+01 3.940829e+01 2.060964e+01 2.685546e+01 2.383558e+01 1.423626e+01 1.057270e+01 1.625862e-01 1.816314e-01 1.818860e-01 2.066125e-01 2.302343e-01 2.404948e-01 3.073399e-01 2.811110e-01 3.548895e-01 3.488395e-01 3.661689e-01 2.551591e-01 2.597521e-01 2.443331e-02 2.645111e-02 2.127951e-02 3.092934e-02 2.516267e-02 4.670675e-02 3.892474e-02 4.353241e-02 4.308657e-02 3.567440e-02 3.537756e-02 3.798638e-02 3.020301e-02
<GCONST> 4.779449e+01
<MIXTURE> 2 5.000000e-01
<MEAN> 39
 -5.675514e+00 -7.469522e+00 -1.363505e+01 3.653748e+00 1.323173e+00 -6.997798e+00 9.488606e+00 -4.015714e+00 -1.283462e+01 -6.164122e+00 -2.565486e-01 3.158345e-01 -4.100616e+00 1.311133e-02 -1.999388e-02 -1.733787e-01 1.541157e-01 2.092646e-01 -7.566354e-02 -1.094384e-01 8.891299e-02 1.615480e-01 -1.657744e-01 6.080073e-02 9.656651e-02 -5.255837e-02 3.001908e-02 1.971242e-02 2.358478e-02 -4.371982e-02 -5.475034e-02 -6.389088e-03 1.205838e-02 3.623975e-02 2.599932e-02 1.468061e-02 -4.425360e-02 -1.843730e-02 9.470397e-03
<VARIANCE> 39
 3.675073e+00 2.488943e+01 1.685736e+01 2.953107e+01 3.610435e+01 1.133374e+01 3.453617e+01 3.940829e+01 2.060964e+01 2.685546e+01 2.383558e+01 1.423626e+01 1.057270e+01 1.625862e-01 1.816314e-01 1.818860e-01 2.066125e-01 2.302343e-01 2.404948e-01 3.073399e-01 2.811110e-01 3.548895e-01 3.488395e-01 3.661689e-01 2.551591e-01 2.597521e-01 2.443331e-02 2.645111e-02 2.127951e-02 3.092934e-02 2.516267e-02 4.670675e-02 3.892474e-02 4.353241e-02 4.308657e-02 3.567440e-02 3.537756e-02 3.798638e-02 3.020301e-02
<GCONST> 4.779449e+01
<TRANSP> 5
 0.000000e+00 1.000000e+00 0.000000e+00 0.000000e+00 0.000000e+00
 0.000000e+00 8.870943e-01 1.129057e-01 0.000000e+00 0.000000e+00
 0.000000e+00 0.000000e+00 8.749623e-01 1.250377e-01 0.000000e+00
 0.000000e+00 0.000000e+00 0.000000e+00 8.951242e-01 1.048758e-01
 0.000000e+00 0.000000e+00 0.000000e+00 0.000000e+00 0.000000e+00
<ENDHMM>
~h "m"
<BEGINHMM>
<NUMSTATES> 5
<STATE> 2
<NUMMIXES> 2
<MIXTURE> 1 5.000000e-01
<MEAN> 39
 -9.185661e-01 4.523674e+00 1.631159e+00 1.386986e+00 -7.801567e-01 -1.335758e+01 -4.913027e+00 -1.922834e+00 -6.240197e+00 1.411860e+00 -2.055945e+00 -9.095679e-01 -2.994155e+00 9.707708e-01 5.237571e-01 7.066078e-02 2.647277e-01 1.216752e+00 -2.350108e+00 -1.015095e+00 -2.913289e-02 -5.767852e-01 9.044563e-01 2.979409e-01 9.727843e-01 -7.475654e-01 -1.971440e-01 -6.462802e-03 -1.620485e-02 -1.302032e-01 1.111858e-01 -9.825042e-03 -1.466160e-01 -1.770391e-01 1.886207e-01 -6.250301e-02 7.154934e-03 1.279405e-01 -3.298331e-03
<VARIANCE> 39
 2.210216e+01 1.649743e+01 2.242038e+01 1.961846e+01 3.021291e+01 5.286290e+01 3.620284e+01 4.700947e+01 3.261360e+01 3.810044e+01 2.630890e+01 2.438508e+01 2.091402e+01 1.716254e+00 1.694139e+00 2.348779e+00 1.862884e+00 3.936664e+00 5.363588e+00 3.001790e+00 4.811494e+00 3.076856e+00 4.176714e+00 2.788172e+00 3.243575e+00 2.627196e+00 2.580330e-01 2.955759e-01 4.208316e-01 2.972973e-01 5.553141e-01 9.579625e-01 6.337007e-01 6.846837e-01 4.852561e-01 7.865247e-01 5.481149e-01 7.453809e-01 4.521629e-01
<GCONST> 1.203219e+02
<MIXTURE> 2 5.000000e-01
<MEAN> 39
 -9.185661e-01 4.523674e+00 1.631159e+00 1.386986e+00 -7.801567e-01 -1.335758e+01 -4.913027e+00 -1.922834e+00 -6.240197e+00 1.411860e+00 -2.055945e+00 -9.095679e-01 -2.994155e+00 9.707708e-01 5.237571e-01 7.066078e-02 2.647277e-01 1.216752e+00 -2.350108e+00 -1.015095e+00 -2.913289e-02 -5.767852e-01 9.044563e-01 2.979409e-01 9.727843e-01 -7.475654e-01 -1.971440e-01 -6.462802e-03 -1.620485e-02 -1.302032e-01 1.111858e-01 -9.825042e-03 -1.466160e-01 -1.770391e-01 1.886207e-01 -6.250301e-02 7.154934e-03 1.279405e-01 -3.298331e-03
<VARIANCE> 39
 2.210216e+01 1.649743e+01 2.242038e+01 1.961846e+01 3.021291e+01 5.286290e+01 3.620284e+01 4.700947e+01 3.261360e+01 3.810044e+01 2.630890e+01 2.438508e+01 2.091402e+01 1.716254e+00 1.694139e+00 2.348779e+00 1.862884e+00 3.936664e+00 5.363588e+00 3.001790e+00 4.811494e+00 3.076856e+00 4.176714e+00 2.788172e+00 3.243575e+00 2.627196e+00 2.580330e-01 2.955759e-01 4.208316e-01 2.972973e-01 5.553141e-01 9.579625e-01 6.337007e-01 6.846837e-01 4.852561e-01 7.865247e-01 5.481149e-01 7.453809e-01 4.521629e-01
<GCONST> 1.203219e+02
<STATE> 3
<NUMMIXES> 2
<MIXTURE> 1 5.000000e-01
<MEAN> 39
 1.562853e+00 5.405258e+00 1.288368e-01 4.166373e+00 8.949954e+00 -2.669945e+01 -8.898729e+00 -8.298540e+00 -2.231892e+00 3.432072e+00 -4.437535e+00 4.360897e+00 -6.307240e+00 4.139955e-02 -1.154247e-01 -5.340247e-01 2.560997e-01 5.203381e-01 6.908335e-02 -9.876899e-02 -4.394815e-01 2.287153e-01 -1.878218e-01 3.053843e-01 9.361950e-02 -1.015786e-01 -6.146454e-02 -1.127024e-01 -6.446581e-02 3.631520e-02 -1.158615e-01 2.620725e-01 1.024361e-01 8.665634e-02 -2.589270e-02 -1.427680e-01 4.232556e-02 -9.358768e-02 1.035344e-01
<VARIANCE> 39
 1.461824e+01 1.563598e+01 3.720381e+01 3.453568e+01 2.486377e+01 6.097648e+01 2.450537e+01 5.888086e+01 4.202872e+01 3.255031e+01 2.860618e+01 1.372701e+01 2.677827e+01 7.446905e-01 1.189894e+00 2.283375e+00 1.635140e+00 1.807942e+00 5.320918e+00 2.552184e+00 2.660651e+00 1.971544e+00 2.805672e+00 1.934981e+00 1.709807e+00 2.168526e+00 1.189458e-01 1.321400e-01 3.609436e-01 3.115768e-01 3.833055e-01 6.297101e-01 4.540819e-01 4.280171e-01 3.871645e-01 4.030114e-01 2.553988e-01 2.969997e-01 4.318217e-01
<GCONST> 1.097303e+02
<MIXTURE> 2 5.000000e-01
<MEAN> 39
 1.562853e+00 5.405258e+00 1.288368e-01 4.166373e+00 8.949954e+00 -2.669945e+01 -8.898729e+00 -8.298540e+00 -2.231892e+00 3.432072e+00 -4.437535e+00 4.360897e+00 -6.307240e+00 4.139955e-02 -1.154247e-01 -5.340247e-01 2.560997e-01 5.203381e-01 6.908335e-02 -9.876899e-02 -4.394815e-01 2.287153e-01 -1.878218e-01 3.053843e-01 9.361950e-02 -1.015786e-01 -6.146454e-02 -1.127024e-01 -6.446581e-02 3.631520e-02 -1.158615e-01 2.620725e-01 1.024361e-01 8.665634e-02 -2.589270e-02 -1.427680e-01 4.232556e-02 -9.358768e-02 1.035344e-01
<VARIANCE> 39
 1.461824e+01 1.563598e+01 3.720381e+01 3.453568e+01 2.486377e+01 6.097648e+01 2.450537e+01 5.888086e+01 4.202872e+01 3.255031e+01 2.860618e+01 1.372701e+01 2.677827e+01 7.446905e-01 1.189894e+00 2.283375e+00 1.635140e+00 1.807942e+00 5.320918e+00 2.552184e+00 2.660651e+00 1.971544e+00 2.805672e+00 1.934981e+00 1.709807e+00 2.168526e+00 1.189458e-01 1.321400e-01 3.609436e-01 3.115768e-01 3.833055e-01 6.297101e-01 4.540819e-01 4.280171e-01 3.871645e-01 4.030114e-01 2.553988e-01 2.969997e-01 4.318217e-01
<GCONST> 1.097303e+02
<STATE> 4
<NUMMIXES> 2
<MIXTURE> 1 5.000000e-01
<MEAN> 39
 2.113897e+00 6.711303e+00 -9.760335e-01 2.935476e+00 8.078777e+00 -2.262231e+01 -1.031003e+01 -9.004561e+00 -6.011895e+00 3.656136e+00 2.544170e+00 2.265096e+00 -7.290118e+00 -1.161831e-02 -1.208804e-01 -1.615417e-01 1.333321e-02 4.705157e-02 1.772804e-01 3.781617e-03 -2.582997e-02 7.371694e-03 -2.367632e-01 4.474119e-02 6.501024e-02 1.272538e-01 -1.354720e-02 -1.769436e-02 -1.856059e-02 -5.835120e-02 -8.514723e-02 1.109857e-01 7.195211e-02 2.997177e-02 2.093202e-02 -4.803938e-02 -5.077377e-02 -4.514851e-02 5.173451e-02
<VARIANCE> 39
 4.700287e+00 1.058768e+01 3.191383e+01 1.923316e+01 4.662187e+01 2.999587e+01 1.508341e+01 1.272654e+02 3.451733e+01 1.910522e+01 1.408513e+01 1.739605e+01 1.661799e+01 1.258578e-01 3.448561e-01 2.383787e-01 3.359475e-01 4.004293e-01 9.823594e-01 5.370225e-01 6.891884e-01 4.635537e-01 3.873407e-01 5.820061e-01 3.228010e-01 4.455011e-01 2.167434e-02 5.365554e-02 6.571186e-02 7.860911e-02 9.132979e-02 2.064604e-01 1.033607e-01 1.554646e-01 7.988563e-02 8.741875e-02 1.187604e-01 7.830998e-02 8.730395e-02
<GCONST> 6.761913e+01
<MIXTURE> 2 5.000000e-01
<MEAN> 39
 2.113897e+00 6.711303e+00 -9.760335e-01 2.935476e+00 8.078777e+00 -2.262231e+01 -1.031003e+01 -9.004561e+00 -6.011895e+00 3.656136e+00 2.544170e+00 2.265096e+00 -7.290118e+00 -1.161831e-02 -1.208804e-01 -1.615417e-01 1.333321e-02 4.705157e-02 1.772804e-01 3.781617e-03 -2.582997e-02 7.371694e-03 -2.367632e-01 4.474119e-02 6.501024e-02 1.272538e-01 -1.354720e-02 -1.769436e-02 -1.856059e-02 -5.835120e-02 -8.514723e-02 1.109857e-01 7.195211e-02 2.997177e-02 2.093202e-02 -4.803938e-02 -5.077377e-02 -4.514851e-02 5.173451e-02
<VARIANCE> 39
 4.700287e+00 1.058768e+01 3.191383e+01 1.923316e+01 4.662187e+01 2.999587e+01 1.508341e+01 1.272654e+02 3.451733e+01 1.910522e+01 1.408513e+01 1.739605e+01 1.661799e+01 1.258578e-01 3.448561e-01 2.383787e-01 3.359475e-01 4.004293e-01 9.823594e-01 5.370225e-01 6.891884e-01 4.635537e-01 3.873407e-01 5.820061e-01 3.228010e-01 4.455011e-01 2.167434e-02 5.365554e-02 6.571186e-02 7.860911e-02 9.132979e-02 2.064604e-01 1.033607e-01 1.554646e-01 7.988563e-02 8.741875e-02 1.187604e-01 7.830998e-02 8.730395e-02
<GCONST> 6.761913e+01
<TRANSP> 5
 0.000000e+00 1.000000e+00 0.000000e+00 0.000000e+00 0.000000e+00
 0.000000e+00 8.306379e-01 1.693621e-01 0.000000e+00 0.000000e+00
 0.000000e+00 0.000000e+00 8.729025e-01 1.270975e-01 0.000000e+00
 0.000000e+00 0.000000e+00 0.000000e+00 9.337517e-01 6.624834e-02
 0.000000e+00 0.000000e+00 0.000000e+00 0.000000e+00 0.000000e+00
<ENDHMM>
~h "n"
<BEGINHMM>
<NUMSTATES> 5
<STATE> 2
<NUMMIXES> 2
<MIXTURE> 1 5.000000e-01
<MEAN> 39
 1.195986e+00 3.494061e+00 3.862705e+00 -3.577410e+00 -2.778387e-01 -1.528615e+01 -8.257238e-01 -2.675156e+00 -1.377190e+01 5.771337e+00 -5.158686e+00 1.101002e+00 -4.887301e+00 5.322447e-01 8.742209e-01 4.423971e-01 -6.350008e-02 3.145854e-01 -1.887083e+00 -6.832845e-01 -5.155595e-01 3.687270e-01 9.964640e-01 1.678667e-02 3.626910e-01 -1.013708e+00 -1.772497e-01 -2.857704e-01 -2.064561e-01 -9.328855e-02 -9.400593e-03 5.755218e-01 2.202697e-01 -1.398033e-02 -8.516555e-02 -1.572855e-01 -3.062285e-01 -4.679882e-02 2.757910e-01
<VARIANCE> 39
 1.241927e+01 9.880771e+00 1.624754e+01 1.571917e+01 1.031632e+01 4.670588e+01 3.962910e+01 4.534401e+01 1.946400e+01 3.768402e+01 2.307384e+01 1.404496e+01 2.332245e+01 3.727722e-01 1.431120e+00 8.316297e-01 9.449648e-01 7.005190e-01 5.447678e+00 2.111814e+00 1.126616e+00 1.026432e+00 1.562370e+00 1.211944e+00 1.452195e+00 1.531888e+00 4.277213e-02 1.674793e-01 8.491780e-02 1.493390e-01 1.561850e-01 5.467821e-01 4.445217e-01 2.169374e-01 2.007715e-01 2.899218e-01 1.962937e-01 2.440126e-01 1.570027e-01
<GCONST> 9.219071e+01
<MIXTURE> 2 5.000000e-01
<MEAN> 39
 1.195986e+00 3.494061e+00 3.862705e+00 -3.577410e+00 -2.778387e-01 -1.528615e+01 -8.257238e-01 -2.675156e+00 -1.377190e+01 5.771337e+00 -5.158686e+00 1.101002e+00 -4.887301e+00 5.322447e-01 8.742209e-01 4.423971e-01 -6.350008e-02 3.145854e-01 -1.887083e+00 -6.832845e-01 -5.155595e-01 3.687270e-01 9.964640e-01 1.678667e-02 3.626910e-01 -1.013708e+00 -1.772497e-01 -2.857704e-01 -2.064561e-01 -9.328855e-02 -9.400593e-03 5.755218e-01 2.202697e-01 -1.398033e-02 -8.516555e-02 -1.572855e-01 -3.062285e-01 -4.679882e-02 2.757910e-01
<VARIANCE> 39
 1.241927e+01 9.880771e+00 1.624754e+01 1.571917e+01 1.031632e+01 4.670588e+01 3.962910e+01 4.534401e+01 1.946400e+01 3.768402e+01 2.307384e+01 1.404496e+01 2.332245e+01 3.727722e-01 1.431120e+00 8.316297e-01 9.449648e-01 7.005190e-01 5.447678e+00 2.111814e+00 1.126616e+00 1.026432e+00 1.562370e+00 1.211944e+00 1.452195e+00 1.531888e+00 4.277213e-02 1.674793e-01 8.491780e-02 1.493390e-01 1.561850e-01 5.467821e-01 4.445217e-01 2.169374e-01 2.007715e-01 2.899218e-01 1.962937e-01 2.440126e-01 1.570027e-01
<GCONST> 9.219071e+01
<STATE> 3
<NUMMIXES> 2
<MIXTURE> 1 5.000000e-01
<MEAN> 39
 4.114516e+00 6.903973e+00 5.112331e+00 -4.479563e+00 2.410507e+00 -2.014702e+01 -1.434832e+00 -9.090056e+00 -8.878732e+00 7.644526e+00 -4.412576e+00 2.640506e+00 -7.855271e+00 -3.027388e-01 -6.466793e-02 -1.178809e-01 -2.901992e-02 -2.303458e-01 5.730788e-01 -5.429761e-03 1.786307e-01 -3.651144e-02 -3.700736e-01 -1.150016e-01 -2.201329e-02 3.933077e-01 -1.144053e-01 -1.308172e-01 -9.585661e-02 -3.526984e-02 -8.732005e-02 3.802360e-01 1.220950e-01 7.377224e-02 -2.801068e-02 -1.820509e-01 -3.608880e-02 -5.948507e-02 1.755836e-01
<VARIANCE> 39
 9.906825e+00 1.209303e+01 7.488578e+00 1.746211e+01 1.949104e+01 4.091151e+01 7.179216e+01 2.180718e+01 4.015145e+01 2.906268e+01 3.682947e+01 2.454760e+01 5.021696e+01 5.861060e-01 1.099687e+00 8.249341e-01 1.285862e+00 1.367701e+00 4.635035e+00 2.308784e+00 1.343427e+00 1.429175e+00 2.588310e+00 1.594395e+00 1.051166e+00 1.638280e+00 7.977143e-02 1.913795e-01 1.466480e-01 2.938461e-01 2.077714e-01 6.950867e-01 4.500536e-01 2.550406e-01 2.472072e-01 4.243894e-01 2.987230e-01 2.082083e-01 2.355073e-01
<GCONST> 1.001715e+02
<MIXTURE> 2 5.000000e-01
<MEAN> 39
 4.114516e+00 6.903973e+00 5.112331e+00 -4.479563e+00 2.410507e+00 -2.014702e+01 -1.434832e+00 -9.090056e+00 -8.878732e+00 7.644526e+00 -4.412576e+00 2.640506e+00 -7.855271e+00 -3.027388e-01 -6.466793e-02 -1.178809e-01 -2.901992e-02 -2.303458e-01 5.730788e-01 -5.429761e-03 1.786307e-01 -3.651144e-02 -3.700736e-01 -1.150016e-01 -2.201329e-02 3.933077e-01 -1.144053e-01 -1.308172e-01 -9.585661e-02 -3.526984e-02 -8.732005e-02 3.802360e-01 1.220950e-01 7.377224e-02 -2.801068e-02 -1.820509e-01 -3.608880e-02 -5.948507e-02 1.755836e-01
<VARIANCE> 39
 9.906825e+00 1.209303e+01 7.488578e+00 1.746211e+01 1.949104e+01 4.091151e+01 7.179216e+01 2.180718e+01 4.015145e+01 2.906268e+01 3.682947e+01 2.454760e+01 5.021696e+01 5.861060e-01 1.099687e+00 8.249341e-01 1.285862e+00 1.367701e+00 4.635035e+00 2.308784e+00 1.343427e+00 1.429175e+00 2.588310e+00 1.594395e+00 1.051166e+00 1.638280e+00 7.977143e-02 1.913795e-01 1.466480e-01 2.938461e-01 2.077714e-01 6.950867e-01 4.500536e-01 2.550406e-01 2.472072e-01 4.243894e-01 2.987230e-01 2.082083e-01 2.355073e-01
<GCONST> 1.001715e+02
<STATE> 4
<NUMMIXES> 2
<MIXTURE> 1 5.000000e-01
<MEAN> 39
 -4.591133e+00 -3.767458e+00 -1.714908e-01 -2.404777e+00 -2.234261e+00 4.139168e-01 -5.528733e-01 -8.215410e+00 -5.227050e+00 1.811921e-01 -7.053267e+00 -1.382271e-01 2.219222e+00 -2.019881e-01 -2.116317e-01 -2.210574e-01 -5.830897e-02 3.027995e-02 6.288198e-01 3.011647e-02 -9.229971e-02 5.530044e-02 -3.008535e-01 3.776105e-02 2.953026e-04 1.768122e-01 3.809926e-02 8.018188e-02 5.646783e-02 3.151596e-02 6.594031e-02 -1.689209e-01 -4.033793e-02 -3.040604e-02 2.059434e-02 6.196352e-02 8.823662e-02 5.007198e-03 -8.221677e-02
<VARIANCE> 39
 6.154796e+00 2.849778e+01 1.579293e+01 3.185409e+01 2.173032e+01 3.061712e+01 6.090209e+01 3.338230e+01 7.124834e+01 3.342381e+01 2.545923e+01 1.902546e+01 1.983751e+01 6.719443e-01 1.508826e+00 1.827625e+00 2.063256e+00 2.385876e+00 3.921636e+00 3.779076e+00 3.099914e+00 2.537672e+00 3.524557e+00 3.434007e+00 2.191372e+00 2.221883e+00 1.159488e-01 1.890169e-01 3.375066e-01 4.167434e-01 5.200703e-01 5.446314e-01 7.090458e-01 5.870841e-01 4.542302e-01 6.933685e-01 7.447089e-01 4.445367e-01 4.510202e-01
<GCONST> 1.141971e+02
<MIXTURE> 2 5.000000e-01
<MEAN> 39
 -4.591133e+00 -3.767458e+00 -1.714908e-01 -2.404777e+00 -2.234261e+00 4.139168e-01 -5.528733e-01 -8.215410e+00 -5.227050e+00 1.811921e-01 -7.053267e+00 -1.382271e-01 2.219222e+00 -2.019881e-01 -2.116317e-01 -2.210574e-01 -5.830897e-02 3.027995e-02 6.288198e-01 3.011647e-02 -9.229971e-02 5.530044e-02 -3.008535e-01 3.776105e-02 2.953026e-04 1.768122e-01 3.809926e-02 8.018188e-02 5.646783e-02 3.151596e-02 6.594031e-02 -1.689209e-01 -4.033793e-02 -3.040604e-02 2.059434e-02 6.196352e-02 8.823662e-02 5.007198e-03 -8.221677e-02
<VARIANCE> 39
 6.154796e+00 2.849778e+01 1.579293e+01 3.185409e+01 2.173032e+01 3.061712e+01 6.090209e+01 3.338230e+01 7.124834e+01 3.342381e+01 2.545923e+01 1.902546e+01 1.983751e+01 6.719443e-01 1.508826e+00 1.827625e+00 2.063256e+00 2.385876e+00 3.921636e+00 3.779076e+00 3.099914e+00 2.537672e+00 3.524557e+00 3.434007e+00 2.191372e+00 2.221883e+00 1.159488e-01 1.890169e-01 3.375066e-01 4.167434e-01 5.200703e-01 5.446314e-01 7.090458e-01 5.870841e-01 4.542302e-01 6.933685e-01 7.447089e-01 4.445367e-01 4.510202e-01
<GCONST> 1.141971e+02
<TRANSP> 5
 0.000000e+00 1.000000e+00 0.000000e+00 0.000000e+00 0.000000e+00
 0.000000e+00 7.330607e-01 2.669393e-01 0.000000e+00 0.000000e+00
 0.000000e+00 0.000000e+00 9.001019e-01 9.989814e-02 0.000000e+00
 0.000000e+00 0.000000e+00 0.000000e+00 9.218745e-01 7.812546e-02
 0.000000e+00 0.000000e+00 0.000000e+00 0.000000e+00 0.000000e+00
<ENDHMM>
~h "o"
<BEGINHMM>
<NUMSTATES> 7
<STATE> 2
<NUMMIXES> 2
<MIXTURE> 1 5.000000e-01
<MEAN> 39
 3.821702e+00 3.114458e+00 -2.088764e+01 3.670796e-01 2.069350e+00 -1.061288e+01 -1.202839e+00 -2.614409e+00 9.076626e+00 1.289907e+00 -7.691897e+00 -6.754838e+00 2.067136e-01 -1.585933e-02 2.796966e-02 -1.370653e-01 6.612880e-02 -4.138249e-02 -1.130949e-01 -1.398415e-01 1.768609e-01 -1.125788e-01 -2.997918e-02 -1.417983e-01 6.219259e-02 -3.324789e-02 -9.366517e-03 -1.344056e-02 1.205778e-01 1.607616e-02 -6.371899e-02 1.734666e-02 2.312198e-02 3.424461e-02 -8.683351e-02 -3.828691e-02 5.715190e-02 5.433922e-02 -2.746572e-02
<VARIANCE> 39
 8.393675e+00 7.189040e+00 4.581616e+01 1.102182e+01 1.522983e+01 2.543950e+01 1.178513e+01 5.548343e+01 2.129795e+01 2.381252e+01 2.114670e+01 2.434871e+01 1.428892e+01 3.472952e-01 2.510318e-01 7.833442e-01 4.543765e-01 6.868178e-01 7.419351e-01 6.475059e-01 1.579303e+00 1.426081e+00 1.362480e+00 1.254533e+00 1.123351e+00 7.307627e-01 4.144740e-02 3.980229e-02 8.064773e-02 7.949508e-02 7.260256e-02 8.586436e-02 1.115821e-01 1.513133e-01 1.829900e-01 1.930642e-01 1.562889e-01 1.402681e-01 1.015766e-01
<GCONST> 7.607931e+01
<MIXTURE> 2 5.000000e-01
<MEAN> 39
 3.821702e+00 3.114458e+00 -2.088764e+01 3.670796e-01 2.069350e+00 -1.061288e+01 -1.202839e+00 -2.614409e+00 9.076626e+00 1.289907e+00 -7.691897e+00 -6.754838e+00 2.067136e-01 -1.585933e-02 2.796966e-02 -1.370653e-01 6.612880e-02 -4.138249e-02 -1.130949e-01 -1.398415e-01 1.768609e-01 -1.125788e-01 -2.997918e-02 -1.417983e-01 6.219259e-02 -3.324789e-02 -9.366517e-03 -1.344056e-02 1.205778e-01 1.607616e-02 -6.371899e-02 1.734666e-02 2.312198e-02 3.424461e-02 -8.683351e-02 -3.828691e-02 5.715190e-02 5.433922e-02 -2.746572e-02
<VARIANCE> 39
 8.393675e+00 7.189040e+00 4.581616e+01 1.102182e+01 1.522983e+01 2.543950e+01 1.178513e+01 5.548343e+01 2.129795e+01 2.381252e+01 2.114670e+01 2.434871e+01 1.428892e+01 3.472952e-01 2.510318e-01 7.833442e-01 4.543765e-01 6.868178e-01 7.419351e-01 6.475059e-01 1.579303e+00 1.426081e+00 1.362480e+00 1.254533e+00 1.123351e+00 7.307627e-01 4.144740e-02 3.980229e-02 8.064773e-02 7.949508e-02 7.260256e-02 8.586436e-02 1.115821e-01 1.513133e-01 1.829900e-01 1.930642e-01 1.562889e-01 1.402681e-01 1.015766e-01
<GCONST> 7.607931e+01
<STATE> 3
<NUMMIXES> 2
<MIXTURE> 1 5.000000e-01
<MEAN> 39
 4.642007e+00 1.744218e+00 -1.534771e+01 8.938283e-01 5.351293e-02 -9.637798e+00 -2.422867e+00 3.750461e+00 4.113113e+00 -2.635154e-01 -8.760533e+00 -2.091879e+00 5.150920e-01 1.966734e-01 1.074159e-01 1.192903e+00 5.055083e-01 -2.322288e-01 2.448951e-01 1.377465e-01 5.213984e-02 -7.752785e-01 -2.981626e-01 8.305771e-02 5.762597e-01 2.272355e-01 4.767004e-02 5.964768e-02 1.362009e-01 1.487317e-01 2.024148e-01 4.737428e-02 -5.621254e-03 -2.982004e-01 -7.541167e-02 -5.396756e-02 7.633693e-02 -4.231809e-02 1.346687e-01
<VARIANCE> 39
 1.902389e+01 3.554903e+01 1.114330e+02 3.053422e+01 4.789905e+01 7.670141e+01 3.258496e+01 5.486454e+01 5.773279e+01 5.852091e+01 5.402850e+01 4.913391e+01 4.131117e+01 4.730159e-01 1.048060e+00 1.451182e+00 8.049405e-01 1.635120e+00 1.516978e+00 2.446136e+00 2.627126e+00 3.074314e+00 2.909430e+00 2.206224e+00 1.829075e+00 1.572138e+00 8.117718e-02 1.110175e-01 2.088573e-01 1.310294e-01 3.006423e-01 2.512146e-01 5.023292e-01 3.421898e-01 7.704849e-01 5.071919e-01 4.288042e-01 3.212394e-01 2.678336e-01
<GCONST> 1.111242e+02
<MIXTURE> 2 5.000000e-01
<MEAN> 39
 4.642007e+00 1.744218e+00 -1.534771e+01 8.938283e-01 5.351293e-02 -9.637798e+00 -2.422867e+00 3.750461e+00 4.113113e+00 -2.635154e-01 -8.760533e+00 -2.091879e+00 5.150920e-01 1.966734e-01 1.074159e-01 1.192903e+00 5.055083e-01 -2.322288e-01 2.448951e-01 1.377465e-01 5.213984e-02 -7.752785e-01 -2.981626e-01 8.305771e-02 5.762597e-01 2.272355e-01 4.767004e-02 5.964768e-02 1.362009e-01 1.487317e-01 2.024148e-01 4.737428e-02 -5.621254e-03 -2.982004e-01 -7.541167e-02 -5.396756e-02 7.633693e-02 -4.231809e-02 1.346687e-01
<VARIANCE> 39
 1.902389e+01 3.554903e+01 1.114330e+02 3.053422e+01 4.789905e+01 7.670141e+01 3.258496e+01 5.486454e+01 5.773279e+01 5.852091e+01 5.402850e+01 4.913391e+01 4.131117e+01 4.730159e-01 1.048060e+00 1.451182e+00 8.049405e-01 1.635120e+00 1.516978e+00 2.446136e+00 2.627126e+00 3.074314e+00 2.909430e+00 2.206224e+00 1.829075e+00 1.572138e+00 8.117718e-02 1.110175e-01 2.088573e-01 1.310294e-01 3.006423e-01 2.512146e-01 5.023292e-01 3.421898e-01 7.704849e-01 5.071919e-01 4.288042e-01 3.212394e-01 2.678336e-01
<GCONST> 1.111242e+02
<STATE> 4
<NUMMIXES> 2
<MIXTURE> 1 5.000000e-01
<MEAN> 39
 5.558554e+00 4.113717e+00 -8.203480e+00 4.465458e+00 1.555613e+00 -9.222769e+00 -4.175396e+00 -1.067052e+00 3.280452e+00 -7.824227e-01 -6.315660e+00 -1.212720e+00 2.247821e+00 -4.569893e-01 -5.019410e-01 2.882182e-01 3.019960e-01 4.767704e-01 1.011959e-01 1.152541e-01 3.065626e-01 -2.411939e-01 -2.046121e-01 4.186386e-01 9.903365e-02 1.682147e-01 -2.282494e-01 -1.696360e-01 -2.778436e-01 -2.485172e-01 -7.282114e-02 1.073731e-01 1.270765e-01 4.183784e-01 3.689070e-01 7.395978e-02 -1.048650e-02 -1.375560e-01 -2.535266e-01
<VARIANCE> 39
