~o
<STREAMINFO> 1 39
<VECSIZE> 39<NULLD><MFCC_D_A><DIAGC>
~h "a"
<BEGINHMM>
<NUMSTATES> 7
<STATE> 2
<NUMMIXES> 2
<MIXTURE> 1 5.000000e-01
<MEAN> 39
 -2.361991e+00 1.184543e+00 -2.129767e+00 -3.082561e+00 -1.171347e+00 -1.516387e+00 3.828764e+00 -2.709970e+00 -5.638464e+00 -1.672576e+00 -3.821202e+00 -1.716976e+00 9.216014e-01 1.424178e-01 1.321511e-01 -1.476015e-01 2.265738e-01 2.232067e-01 1.653434e-03 -7.385281e-02 1.568213e-01 7.632865e-02 -2.629039e-01 1.637643e-01 -2.984947e-01 2.893287e-01 -1.459358e-01 -1.340782e-01 -8.880745e-02 1.278688e-01 4.532352e-02 -8.328053e-02 -7.852186e-02 2.000191e-01 6.558286e-02 -1.025904e-01 5.254737e-02 4.456439e-02 4.086140e-02
<VARIANCE> 39
 3.236007e+01 3.505095e+01 8.673248e+01 4.679927e+01 6.778677e+01 1.559100e+02 1.326040e+02 9.746989e+01 4.069953e+01 7.926402e+01 3.364592e+01 2.700782e+01 4.103836e+01 2.173495e+00 1.965339e+00 3.493323e+00 3.299794e+00 3.216496e+00 5.805827e+00 5.352818e+00 4.657265e+00 3.636615e+00 4.642576e+00 4.392646e+00 2.218940e+00 3.445839e+00 2.208780e-01 3.984008e-01 4.327827e-01 4.495938e-01 3.974698e-01 9.019131e-01 1.107614e+00 8.874009e-01 7.090505e-01 7.606367e-01 5.359638e-01 4.150847e-01 6.251339e-01
<GCONST> 1.330374e+02
<MIXTURE> 2 5.000000e-01
<MEAN> 39
 -2.361991e+00 1.184543e+00 -2.129767e+00 -3.082561e+00 -1.171347e+00 -1.516387e+00 3.828764e+00 -2.709970e+00 -5.638464e+00 -1.672576e+00 -3.821202e+00 -1.716976e+00 9.216014e-01 1.424178e-01 1.321511e-01 -1.476015e-01 2.265738e-01 2.232067e-01 1.653434e-03 -7.385281e-02 1.568213e-01 7.632865e-02 -2.629039e-01 1.637643e-01 -2.984947e-01 2.893287e-01 -1.459358e-01 -1.340782e-01 -8.880745e-02 1.278688e-01 4.532352e-02 -8.328053e-02 -7.852186e-02 2.000191e-01 6.558286e-02 -1.025904e-01 5.254737e-02 4.456439e-02 4.086140e-02
<VARIANCE> 39
 3.236007e+01 3.505095e+01 8.673248e+01 4.679927e+01 6.778677e+01 1.559100e+02 1.326040e+02 9.746989e+01 4.069953e+01 7.926402e+01 3.364592e+01 2.700782e+01 4.103836e+01 2.173495e+00 1.965339e+00 3.493323e+00 3.299794e+00 3.216496e+00 5.805827e+00 5.352818e+00 4.657265e+00 3.636615e+00 4.642576e+00 4.392646e+00 2.218940e+00 3.445839e+00 2.208780e-01 3.984008e-01 4.327827e-01 4.495938e-01 3.974698e-01 9.019131e-01 1.107614e+00 8.874009e-01 7.090505e-01 7.606367e-01 5.359638e-01 4.150847e-01 6.251339e-01
<GCONST> 1.330374e+02
<STATE> 3
<NUMMIXES> 2
<MIXTURE> 1 5.000000e-01
<MEAN> 39
 -6.164988e+00 -2.048869e+00 -3.402561e+00 -1.308249e+00 -1.598721e+00 1.642457e-01 2.453569e+00 -3.504211e+00 -5.282394e+00 -1.127964e+00 -4.313179e+00 -4.089656e+00 1.513473e+00 7.368003e-02 -5.084794e-01 -4.511593e-01 1.577301e-01 1.562761e-01 3.214719e-02 1.153618e-01 9.689723e-02 -2.105863e-02 -2.787026e-01 -2.529904e-01 1.575716e-01 2.970164e-01 -4.611896e-02 -5.256953e-02 2.603478e-02 8.222134e-02 1.079545e-02 -1.261835e-01 6.660220e-02 -5.328224e-02 -7.961399e-02 -8.998959e-02 2.771558e-02 2.148302e-01 -6.248823e-02
<VARIANCE> 39
 4.055796e+01 3.542008e+01 5.227210e+01 5.358676e+01 5.972538e+01 4.951226e+01 6.272632e+01 4.563970e+01 6.619975e+01 5.137895e+01 3.902213e+01 2.728929e+01 2.885674e+01 2.501060e+00 3.606796e+00 3.418252e+00 2.751049e+00 2.894387e+00 5.355464e+00 3.670967e+00 4.213829e+00 4.433873e+00 4.501264e+00 4.701336e+00 2.932711e+00 3.780109e+00 3.761357e-01 5.213376e-01 5.369060e-01 5.919287e-01 5.013304e-01 7.938991e-01 7.784157e-01 7.078630e-01 9.513215e-01 6.784838e-01 8.919106e-01 7.163950e-01 5.800377e-01
<GCONST> 1.324458e+02
<MIXTURE> 2 5.000000e-01
<MEAN> 39
 -6.164988e+00 -2.048869e+00 -3.402561e+00 -1.308249e+00 -1.598721e+00 1.642457e-01 2.453569e+00 -3.504211e+00 -5.282394e+00 -1.127964e+00 -4.313179e+00 -4.089656e+00 1.513473e+00 7.368003e-02 -5.084794e-01 -4.511593e-01 1.577301e-01 1.562761e-01 3.214719e-02 1.153618e-01 9.689723e-02 -2.105863e-02 -2.787026e-01 -2.529904e-01 1.575716e-01 2.970164e-01 -4.611896e-02 -5.256953e-02 2.603478e-02 8.222134e-02 1.079545e-02 -1.261835e-01 6.660220e-02 -5.328224e-02 -7.961399e-02 -8.998959e-02 2.771558e-02 2.148302e-01 -6.248823e-02
<VARIANCE> 39
 4.055796e+01 3.542008e+01 5.227210e+01 5.358676e+01 5.972538e+01 4.951226e+01 6.272632e+01 4.563970e+01 6.619975e+01 5.137895e+01 3.902213e+01 2.728929e+01 2.885674e+01 2.501060e+00 3.606796e+00 3.418252e+00 2.751049e+00 2.894387e+00 5.355464e+00 3.670967e+00 4.213829e+00 4.433873e+00 4.501264e+00 4.701336e+00 2.932711e+00 3.780109e+00 3.761357e-01 5.213376e-01 5.369060e-01 5.919287e-01 5.013304e-01 7.938991e-01 7.784157e-01 7.078630e-01 9.513215e-01 6.784838e-01 8.919106e-01 7.163950e-01 5.800377e-01
<GCONST> 1.324458e+02
<STATE> 4
<NUMMIXES> 2
<MIXTURE> 1 5.000000e-01
<MEAN> 39
 -2.525758e+00 -1.564980e+00 -1.154473e+01 2.266858e+00 3.771408e+00 -2.915863e+00 -1.295315e-01 -3.049438e+00 -7.899716e-01 -6.084448e+00 -4.074036e+00 -1.153428e+00 1.091494e+00 1.236654e-01 -2.197995e-01 -1.550535e-01 1.479264e-01 5.977558e-03 -1.235878e-01 1.399709e-01 3.030145e-01 -4.083329e-02 -2.501473e-01 -1.523209e-01 2.942222e-01 1.033920e-01 -4.166815e-02 7.722674e-02 1.693574e-01 1.543802e-02 -9.691224e-02 -7.023685e-02 6.424038e-02 -2.700955e-02 -2.247269e-01 8.945230e-02 1.046271e-01 2.902503e-02 -1.134749e-01
<VARIANCE> 39
 4.540900e+01 2.606269e+01 1.244458e+02 4.419759e+01 4.341460e+01 2.950098e+01 4.437921e+01 2.509600e+01 5.217715e+01 4.945577e+01 3.697609e+01 4.246314e+01 2.672798e+01 1.786736e+00 1.842604e+00 3.042228e+00 1.971485e+00 1.587762e+00 1.979790e+00 3.263522e+00 3.348226e+00 4.112969e+00 4.120413e+00 2.557441e+00 3.005716e+00 2.331152e+00 4.104461e-01 3.001790e-01 6.003351e-01 3.871130e-01 3.082204e-01 5.023762e-01 6.235316e-01 6.171724e-01 8.105575e-01 7.760558e-01 6.707436e-01 4.923231e-01 6.209939e-01
<GCONST> 1.238510e+02
<MIXTURE> 2 5.000000e-01
<MEAN> 39
 -2.525758e+00 -1.564980e+00 -1.154473e+01 2.266858e+00 3.771408e+00 -2.915863e+00 -1.295315e-01 -3.049438e+00 -7.899716e-01 -6.084448e+00 -4.074036e+00 -1.153428e+00 1.091494e+00 1.236654e-01 -2.197995e-01 -1.550535e-01 1.479264e-01 5.977558e-03 -1.235878e-01 1.399709e-01 3.030145e-01 -4.083329e-02 -2.501473e-01 -1.523209e-01 2.942222e-01 1.033920e-01 -4.166815e-02 7.722674e-02 1.693574e-01 1.543802e-02 -9.691224e-02 -7.023685e-02 6.424038e-02 -2.700955e-02 -2.247269e-01 8.945230e-02 1.046271e-01 2.902503e-02 -1.134749e-01
<VARIANCE> 39
 4.540900e+01 2.606269e+01 1.244458e+02 4.419759e+01 4.341460e+01 2.950098e+01 4.437921e+01 2.509600e+01 5.217715e+01 4.945577e+01 3.697609e+01 4.246314e+01 2.672798e+01 1.786736e+00 1.842604e+00 3.042228e+00 1.971485e+00 1.587762e+00 1.979790e+00 3.263522e+00 3.348226e+00 4.112969e+00 4.120413e+00 2.557441e+00 3.005716e+00 2.331152e+00 4.104461e-01 3.001790e-01 6.003351e-01 3.871130e-01 3.082204e-01 5.023762e-01 6.235316e-01 6.171724e-01 8.105575e-01 7.760558e-01 6.707436e-01 4.923231e-01 6.209939e-01
<GCONST> 1.238510e+02
<STATE> 5
<NUMMIXES> 2
<MIXTURE> 1 5.000000e-01
<MEAN> 39
 -2.581065e+00 -5.164220e+00 -1.047399e+01 1.389343e+00 2.531136e+00 -6.687436e+00 4.708856e+00 -8.252771e-01 -5.451507e+00 -8.790352e+00 -5.407201e+00 1.649740e+00 1.037948e+00 2.434827e-02 -2.722625e-01 1.464232e-01 1.328400e-01 -3.156277e-01 -2.633205e-01 6.208559e-01 2.911714e-01 -1.344910e+00 -1.009091e-01 5.715836e-01 1.556315e-01 -4.171940e-01 -2.035410e-02 1.651110e-01 1.068452e-01 -9.549410e-02 -6.891675e-02 3.883463e-02 -3.964541e-02 -1.322313e-01 -4.896047e-03 3.251709e-01 8.218903e-02 -2.657969e-01 -6.571136e-02
<VARIANCE> 39
 1.617212e+01 2.237206e+01 8.794932e+01 3.826580e+01 6.455690e+01 4.518514e+01 4.711676e+01 2.337555e+01 6.262937e+01 6.948684e+01 3.308802e+01 2.896848e+01 2.537166e+01 1.086803e+00 1.375919e+00 1.967347e+00 9.961984e-01 1.920306e+00 1.469042e+00 2.355641e+00 1.551189e+00 2.987118e+00 2.714203e+00 2.447793e+00 1.697178e+00 1.521912e+00 1.586980e-01 2.286837e-01 2.110000e-01 1.807642e-01 2.724652e-01 3.212968e-01 3.311291e-01 3.259298e-01 4.244202e-01 3.586805e-01 4.358174e-01 2.595662e-01 2.671180e-01
<GCONST> 1.098685e+02
<MIXTURE> 2 5.000000e-01
<MEAN> 39
 -2.581065e+00 -5.164220e+00 -1.047399e+01 1.389343e+00 2.531136e+00 -6.687436e+00 4.708856e+00 -8.252771e-01 -5.451507e+00 -8.790352e+00 -5.407201e+00 1.649740e+00 1.037948e+00 2.434827e-02 -2.722625e-01 1.464232e-01 1.328400e-01 -3.156277e-01 -2.633205e-01 6.208559e-01 2.911714e-01 -1.344910e+00 -1.009091e-01 5.715836e-01 1.556315e-01 -4.171940e-01 -2.035410e-02 1.651110e-01 1.068452e-01 -9.549410e-02 -6.891675e-02 3.883463e-02 -3.964541e-02 -1.322313e-01 -4.896047e-03 3.251709e-01 8.218903e-02 -2.657969e-01 -6.571136e-02
<VARIANCE> 39
 1.617212e+01 2.237206e+01 8.794932e+01 3.826580e+01 6.455690e+01 4.518514e+01 4.711676e+01 2.337555e+01 6.262937e+01 6.948684e+01 3.308802e+01 2.896848e+01 2.537166e+01 1.086803e+00 1.375919e+00 1.967347e+00 9.961984e-01 1.920306e+00 1.469042e+00 2.355641e+00 1.551189e+00 2.987118e+00 2.714203e+00 2.447793e+00 1.697178e+00 1.521912e+00 1.586980e-01 2.286837e-01 2.110000e-01 1.807642e-01 2.724652e-01 3.212968e-01 3.311291e-01 3.259298e-01 4.244202e-01 3.586805e-01 4.358174e-01 2.595662e-01 2.671180e-01
<GCONST> 1.098685e+02
<STATE> 6
<NUMMIXES> 2
<MIXTURE> 1 5.000000e-01
<MEAN> 39
 -2.261650e+00 -4.846448e+00 -5.435752e+00 -9.394740e-01 -4.665076e+00 -3.307921e+00 9.732512e+00 -1.739407e+00 -1.212366e+01 -1.126500e+00 -5.283047e+00 -2.607297e+00 9.782366e-01 8.030979e-02 2.521266e-01 4.311991e-01 -1.340923e-01 -2.282512e-01 -1.010545e-01 8.684400e-02 -4.225055e-02 7.002411e-02 2.600569e-01 -1.182102e-01 -9.854068e-02 -1.166662e-02 4.237866e-03 7.487582e-02 6.056274e-02 6.530892e-03 3.944529e-02 -2.142154e-02 -1.641547e-01 -4.303789e-02 1.845687e-01 -4.822554e-02 -2.212494e-02 3.334594e-02 2.508950e-04
<VARIANCE> 39
 1.040997e+01 1.731948e+01 4.934066e+01 2.946859e+01 4.440886e+01 3.876474e+01 3.515693e+01 2.531657e+01 3.344444e+01 5.381345e+01 3.343030e+01 2.441196e+01 2.493688e+01 5.948785e-01 8.917795e-01 1.279802e+00 1.242228e+00 1.595593e+00 2.001539e+00 1.913568e+00 1.561764e+00 2.105984e+00 3.225724e+00 1.842615e+00 1.174698e+00 1.148873e+00 8.183964e-02 1.030121e-01 1.255956e-01 1.854088e-01 2.019863e-01 2.923715e-01 3.360424e-01 2.667417e-01 2.750705e-01 4.938837e-01 3.186760e-01 2.186989e-01 1.933789e-01
<GCONST> 1.006450e+02
<MIXTURE> 2 5.000000e-01
<MEAN> 39
 -2.261650e+00 -4.846448e+00 -5.435752e+00 -9.394740e-01 -4.665076e+00 -3.307921e+00 9.732512e+00 -1.739407e+00 -1.212366e+01 -1.126500e+00 -5.283047e+00 -2.607297e+00 9.782366e-01 8.030979e-02 2.521266e-01 4.311991e-01 -1.340923e-01 -2.282512e-01 -1.010545e-01 8.684400e-02 -4.225055e-02 7.002411e-02 2.600569e-01 -1.182102e-01 -9.854068e-02 -1.166662e-02 4.237866e-03 7.487582e-02 6.056274e-02 6.530892e-03 3.944529e-02 -2.142154e-02 -1.641547e-01 -4.303789e-02 1.845687e-01 -4.822554e-02 -2.212494e-02 3.334594e-02 2.508950e-04
<VARIANCE> 39
 1.040997e+01 1.731948e+01 4.934066e+01 2.946859e+01 4.440886e+01 3.876474e+01 3.515693e+01 2.531657e+01 3.344444e+01 5.381345e+01 3.343030e+01 2.441196e+01 2.493688e+01 5.948785e-01 8.917795e-01 1.279802e+00 1.242228e+00 1.595593e+00 2.001539e+00 1.913568e+00 1.561764e+00 2.105984e+00 3.225724e+00 1.842615e+00 1.174698e+00 1.148873e+00 8.183964e-02 1.030121e-01 1.255956e-01 1.854088e-01 2.019863e-01 2.923715e-01 3.360424e-01 2.667417e-01 2.750705e-01 4.938837e-01 3.186760e-01 2.186989e-01 1.933789e-01
<GCONST> 1.006450e+02
<TRANSP> 7
 0.000000e+00 1.000000e+00 0.000000e+00 0.000000e+00 0.000000e+00 0.000000e+00 0.000000e+00
 0.000000e+00 6.683383e-01 3.316617e-01 0.000000e+00 0.000000e+00 0.000000e+00 0.000000e+00
 0.000000e+00 0.000000e+00 6.753485e-01 3.246515e-01 0.000000e+00 0.000000e+00 0.000000e+00
 0.000000e+00 0.000000e+00 0.000000e+00 7.401307e-01 2.598693e-01 0.000000e+00 0.000000e+00
 0.000000e+00 0.000000e+00 0.000000e+00 0.000000e+00 6.410776e-01 3.589224e-01 0.000000e+00
 0.000000e+00 0.000000e+00 0.000000e+00 0.000000e+00 0.000000e+00 8.450916e-01 1.549084e-01
 0.000000e+00 0.000000e+00 0.000000e+00 0.000000e+00 0.000000e+00 0.000000e+00 0.000000e+00
<ENDHMM>
~h "b"
<BEGINHMM>
<NUMSTATES> 5
<STATE> 2
<NUMMIXES> 2
<MIXTURE> 1 5.000000e-01
<MEAN> 39
 4.484537e+00 2.068412e+00 3.365001e+00 6.585455e-02 -3.211504e+00 -9.210133e+00 -8.178468e+00 4.282745e+00 -3.709090e+00 -3.122387e+00 -2.698478e+00 -3.472170e+00 2.374310e+00 1.391762e+00 7.967725e-01 9.781058e-01 1.223768e+00 1.243823e+00 -1.695805e+00 -1.933790e+00 -1.468764e-01 -1.321561e-02 -3.293219e-01 -6.135913e-01 1.356549e+00 2.476870e-01 -2.262723e-01 2.162564e-01 8.259138e-02 -1.994330e-01 -2.225862e-01 1.956143e-01 -6.827042e-02 -3.876198e-01 2.485914e-01 7.746747e-02 -7.706823e-03 7.207870e-02 3.519233e-02
<VARIANCE> 39
 1.137219e+01 6.880156e+00 8.240495e+01 1.745018e+01 1.281844e+01 2.493421e+01 3.404617e+01 2.259709e+01 2.104837e+01 1.483176e+01 3.155352e+01 1.910707e+01 1.390923e+01 5.275683e-01 8.165585e-01 1.776625e+00 1.040400e+00 2.569326e+00 3.078210e+00 1.637163e+00 4.169812e+00 1.816242e+00 2.382274e+00 2.385543e+00 2.623499e+00 1.648588e+00 4.479416e-02 1.374201e-01 4.697839e-01 2.051449e-01 5.790208e-01 5.544119e-01 4.037405e-01 9.547938e-01 2.488735e-01 3.496639e-01 9.178538e-01 4.270991e-01 2.544265e-01
<GCONST> 1.037921e+02
<MIXTURE> 2 5.000000e-01
<MEAN> 39
 4.484537e+00 2.068412e+00 3.365001e+00 6.585455e-02 -3.211504e+00 -9.210133e+00 -8.178468e+00 4.282745e+00 -3.709090e+00 -3.122387e+00 -2.698478e+00 -3.472170e+00 2.374310e+00 1.391762e+00 7.967725e-01 9.781058e-01 1.223768e+00 1.243823e+00 -1.695805e+00 -1.933790e+00 -1.468764e-01 -1.321561e-02 -3.293219e-01 -6.135913e-01 1.356549e+00 2.476870e-01 -2.262723e-01 2.162564e-01 8.259138e-02 -1.994330e-01 -2.225862e-01 1.956143e-01 -6.827042e-02 -3.876198e-01 2.485914e-01 7.746747e-02 -7.706823e-03 7.207870e-02 3.519233e-02
<VARIANCE> 39
 1.137219e+01 6.880156e+00 8.240495e+01 1.745018e+01 1.281844e+01 2.493421e+01 3.404617e+01 2.259709e+01 2.104837e+01 1.483176e+01 3.155352e+01 1.910707e+01 1.390923e+01 5.275683e-01 8.165585e-01 1.776625e+00 1.040400e+00 2.569326e+00 3.078210e+00 1.637163e+00 4.169812e+00 1.816242e+00 2.382274e+00 2.385543e+00 2.623499e+00 1.648588e+00 4.479416e-02 1.374201e-01 4.697839e-01 2.051449e-01 5.790208e-01 5.544119e-01 4.037405e-01 9.547938e-01 2.488735e-01 3.496639e-01 9.178538e-01 4.270991e-01 2.544265e-01
<GCONST> 1.037921e+02
<STATE> 3
<NUMMIXES> 2
<MIXTURE> 1 5.000000e-01
<MEAN> 39
 9.847322e+00 8.163496e+00 1.961392e+00 5.343829e+00 4.137320e+00 -1.829797e+01 -8.490969e+00 -2.504936e+00 -9.014664e-01 -2.719590e+00 -7.201123e+00 6.652040e-01 1.890920e+00 4.595669e-01 5.121865e-01 1.272101e-01 2.583639e-01 5.397971e-01 -3.369837e-01 -1.450426e-01 -3.835176e-01 1.238918e-01 4.234180e-01 -4.202808e-02 1.036861e-01 -4.309866e-01 -1.064803e-01 -6.451061e-02 -5.381755e-02 -6.455117e-02 -5.097734e-02 1.867317e-01 9.265926e-02 -9.003746e-03 -8.212897e-02 -2.164232e-02 9.579545e-03 -1.719134e-02 -2.745703e-02
<VARIANCE> 39
 1.161989e+01 1.787453e+01 6.841759e+01 2.203908e+01 3.471250e+01 2.341326e+01 5.385056e+01 2.558581e+01 2.710606e+01 4.254738e+01 2.290542e+01 1.300698e+01 2.591628e+01 2.334951e-01 3.225076e-01 1.379612e+00 1.093666e+00 9.715751e-01 1.619388e+00 1.369201e+00 1.400540e+00 3.275944e+00 1.659857e+00 1.384899e+00 1.157837e+00 1.007699e+00 5.485690e-02 7.278186e-02 1.546775e-01 1.898497e-01 1.774319e-01 3.177396e-01 2.528216e-01 2.897456e-01 6.386860e-01 3.579763e-01 2.485143e-01 2.779488e-01 1.703883e-01
<GCONST> 9.490646e+01
<MIXTURE> 2 5.000000e-01
<MEAN> 39
 9.847322e+00 8.163496e+00 1.961392e+00 5.343829e+00 4.137320e+00 -1.829797e+01 -8.490969e+00 -2.504936e+00 -9.014664e-01 -2.719590e+00 -7.201123e+00 6.652040e-01 1.890920e+00 4.595669e-01 5.121865e-01 1.272101e-01 2.583639e-01 5.397971e-01 -3.369837e-01 -1.450426e-01 -3.835176e-01 1.238918e-01 4.234180e-01 -4.202808e-02 1.036861e-01 -4.309866e-01 -1.064803e-01 -6.451061e-02 -5.381755e-02 -6.455117e-02 -5.097734e-02 1.867317e-01 9.265926e-02 -9.003746e-03 -8.212897e-02 -2.164232e-02 9.579545e-03 -1.719134e-02 -2.745703e-02
<VARIANCE> 39
 1.161989e+01 1.787453e+01 6.841759e+01 2.203908e+01 3.471250e+01 2.341326e+01 5.385056e+01 2.558581e+01 2.710606e+01 4.254738e+01 2.290542e+01 1.300698e+01 2.591628e+01 2.334951e-01 3.225076e-01 1.379612e+00 1.093666e+00 9.715751e-01 1.619388e+00 1.369201e+00 1.400540e+00 3.275944e+00 1.659857e+00 1.384899e+00 1.157837e+00 1.007699e+00 5.485690e-02 7.278186e-02 1.546775e-01 1.898497e-01 1.774319e-01 3.177396e-01 2.528216e-01 2.897456e-01 6.386860e-01 3.579763e-01 2.485143e-01 2.779488e-01 1.703883e-01
<GCONST> 9.490646e+01
<STATE> 4
<NUMMIXES> 2
<MIXTURE> 1 5.000000e-01
<MEAN> 39
 4.121344e+00 5.301923e+00 -3.165350e+00 2.614925e+00 -8.714297e-01 -1.011093e+01 -6.091490e+00 -5.111021e+00 2.784516e+00 -1.597059e+00 -5.292579e+00 -1.168978e+00 1.118395e-01 -1.360339e+00 -1.248132e+00 -1.886950e+00 -1.105292e+00 -8.493373e-01 1.445526e+00 1.167632e+00 -2.151591e-01 8.668411e-01 -7.005394e-01 3.576790e-01 -4.358180e-01 6.162727e-01 1.053523e-01 -1.789682e-02 -2.551483e-01 -7.560620e-02 3.278309e-01 -2.076749e-01 6.161762e-02 6.530315e-02 1.600374e-01 -1.044490e-01 -7.972177e-02 -3.816999e-02 -1.674995e-02
<VARIANCE> 39
 3.996724e+01 4.014366e+01 9.694054e+01 3.914557e+01 6.491543e+01 4.592541e+01 3.927198e+01 3.870225e+01 3.822400e+01 5.832753e+01 3.082538e+01 2.163927e+01 1.130937e+01 3.781876e+00 3.233277e+00 6.422918e+00 2.783919e+00 6.219800e+00 3.834555e+00 2.574104e+00 3.842370e+00 4.409071e+00 4.567460e+00 2.032352e+00 1.510072e+00 1.035276e+00 8.454026e-01 7.644252e-01 1.031838e+00 4.412390e-01 1.211256e+00 7.452563e-01 4.519024e-01 7.117049e-01 7.660001e-01 7.832511e-01 4.174420e-01 2.689503e-01 2.290194e-01
<GCONST> 1.276413e+02
<MIXTURE> 2 5.000000e-01
<MEAN> 39
 4.121344e+00 5.301923e+00 -3.165350e+00 2.614925e+00 -8.714297e-01 -1.011093e+01 -6.091490e+00 -5.111021e+00 2.784516e+00 -1.597059e+00 -5.292579e+00 -1.168978e+00 1.118395e-01 -1.360339e+00 -1.248132e+00 -1.886950e+00 -1.105292e+00 -8.493373e-01 1.445526e+00 1.167632e+00 -2.151591e-01 8.668411e-01 -7.005394e-01 3.576790e-01 -4.358180e-01 6.162727e-01 1.053523e-01 -1.789682e-02 -2.551483e-01 -7.560620e-02 3.278309e-01 -2.076749e-01 6.161762e-02 6.530315e-02 1.600374e-01 -1.044490e-01 -7.972177e-02 -3.816999e-02 -1.674995e-02
<VARIANCE> 39
 3.996724e+01 4.014366e+01 9.694054e+01 3.914557e+01 6.491543e+01 4.592541e+01 3.927198e+01 3.870225e+01 3.822400e+01 5.832753e+01 3.082538e+01 2.163927e+01 1.130937e+01 3.781876e+00 3.233277e+00 6.422918e+00 2.783919e+00 6.219800e+00 3.834555e+00 2.574104e+00 3.842370e+00 4.409071e+00 4.567460e+00 2.032352e+00 1.510072e+00 1.035276e+00 8.454026e-01 7.644252e-01 1.031838e+00 4.412390e-01 1.211256e+00 7.452563e-01 4.519024e-01 7.117049e-01 7.660001e-01 7.832511e-01 4.174420e-01 2.689503e-01 2.290194e-01
<GCONST> 1.276413e+02
<TRANSP> 5
 0.000000e+00 1.000000e+00 0.000000e+00 0.000000e+00 0.000000e+00
 0.000000e+00 7.192218e-01 2.807782e-01 0.000000e+00 0.000000e+00
 0.000000e+00 0.000000e+00 9.273401e-01 7.265991e-02 0.000000e+00
 0.000000e+00 0.000000e+00 0.000000e+00 8.664659e-01 1.335341e-01
 0.000000e+00 0.000000e+00 0.000000e+00 0.000000e+00 0.000000e+00
<ENDHMM>
~h "c"
<BEGINHMM>
<NUMSTATES> 5
<STATE> 2
<NUMMIXES> 2
<MIXTURE> 1 5.000000e-01
<MEAN> 39
 -9.945651e+00 1.416400e+00 -3.595494e-01 9.301698e-01 -3.266085e+00 7.066178e-01 2.194616e+00 -4.635067e+00 -2.312687e+00 -3.580075e+00 -3.204942e+00 -3.559888e+00 2.767714e+00 -2.148263e+00 -4.932026e-01 -1.153866e+00 -4.827988e-01 1.928657e-01 -4.830905e-01 -4.662706e-01 -2.497054e-02 8.606254e-01 -5.060779e-01 7.652039e-01 -4.007242e-01 1.070085e-01 -3.724175e-02 6.165042e-03 3.776154e-02 -1.076718e-01 -1.790941e-02 -4.901342e-02 -1.266592e-01 -9.409269e-03 4.139933e-02 9.916658e-02 1.315553e-01 1.499472e-01 4.201022e-03
<VARIANCE> 39
 6.810863e+01 3.991992e+01 3.453180e+01 2.066710e+01 1.970624e+01 2.123659e+01 3.734684e+01 2.621441e+01 1.847681e+01 1.929437e+01 2.826262e+01 3.247585e+01 2.373183e+01 3.275886e+00 2.999147e+00 3.467558e+00 2.919023e+00 2.175380e+00 2.536835e+00 3.919566e+00 3.131540e+00 2.366338e+00 2.709965e+00 3.646115e+00 4.161533e+00 3.060195e+00 8.042333e-01 5.596383e-01 5.984097e-01 5.748061e-01 3.904903e-01 5.050405e-01 3.133284e-01 6.868706e-01 3.839510e-01 4.675573e-01 7.136243e-01 8.249068e-01 5.464820e-01
<GCONST> 1.215789e+02
<MIXTURE> 2 5.000000e-01
<MEAN> 39
 -9.945651e+00 1.416400e+00 -3.595494e-01 9.301698e-01 -3.266085e+00 7.066178e-01 2.194616e+00 -4.635067e+00 -2.312687e+00 -3.580075e+00 -3.204942e+00 -3.559888e+00 2.767714e+00 -2.148263e+00 -4.932026e-01 -1.153866e+00 -4.827988e-01 1.928657e-01 -4.830905e-01 -4.662706e-01 -2.497054e-02 8.606254e-01 -5.060779e-01 7.652039e-01 -4.007242e-01 1.070085e-01 -3.724175e-02 6.165042e-03 3.776154e-02 -1.076718e-01 -1.790941e-02 -4.901342e-02 -1.266592e-01 -9.409269e-03 4.139933e-02 9.916658e-02 1.315553e-01 1.499472e-01 4.201022e-03
<VARIANCE> 39
 6.810863e+01 3.991992e+01 3.453180e+01 2.066710e+01 1.970624e+01 2.123659e+01 3.734684e+01 2.621441e+01 1.847681e+01 1.929437e+01 2.826262e+01 3.247585e+01 2.373183e+01 3.275886e+00 2.999147e+00 3.467558e+00 2.919023e+00 2.175380e+00 2.536835e+00 3.919566e+00 3.131540e+00 2.366338e+00 2.709965e+00 3.646115e+00 4.161533e+00 3.060195e+00 8.042333e-01 5.596383e-01 5.984097e-01 5.748061e-01 3.904903e-01 5.050405e-01 3.133284e-01 6.868706e-01 3.839510e-01 4.675573e-01 7.136243e-01 8.249068e-01 5.464820e-01
<GCONST> 1.215789e+02
<STATE> 3
<NUMMIXES> 2
<MIXTURE> 1 5.000000e-01
<MEAN> 39
 -2.066032e+01 1.228970e+00 -5.183441e+00 -4.566389e+00 -3.124481e+00 -1.181654e+00 -2.549191e+00 -4.050148e+00 2.655375e+00 -2.471661e+00 -9.916289e-01 -2.277835e-01 1.173584e+00 5.613828e-01 4.969381e-01 5.280076e-01 -2.737494e-01 -1.735338e-01 2.696514e-01 -2.067094e-01 7.806664e-02 7.860988e-02 4.230693e-01 -8.002965e-01 2.270253e-01 -3.619473e-01 3.667659e-01 8.294278e-02 2.010886e-01 5.188387e-03 -8.644123e-02 6.328654e-02 4.604425e-02 2.674678e-02 -1.766542e-01 4.834209e-02 -1.726296e-01 -1.307525e-01 -1.019371e-01
<VARIANCE> 39
 1.933145e+01 2.424794e+01 1.798982e+01 1.619380e+01 2.026168e+01 2.414218e+01 1.910300e+01 2.071200e+01 2.220786e+01 2.343414e+01 3.180523e+01 1.979849e+01 1.684436e+01 1.955055e+00 1.607691e+00 2.133531e+00 2.066988e+00 2.228158e+00 3.019644e+00 2.168973e+00 2.297538e+00 2.599980e+00 2.681252e+00 3.039796e+00 2.920281e+00 1.527018e+00 2.208735e-01 3.124202e-01 3.247111e-01 5.699692e-01 5.048874e-01 7.125017e-01 5.636314e-01 5.020733e-01 5.318749e-01 5.877946e-01 6.618255e-01 5.664954e-01 3.284739e-01
<GCONST> 1.119865e+02
<MIXTURE> 2 5.000000e-01
<MEAN> 39
 -2.066032e+01 1.228970e+00 -5.183441e+00 -4.566389e+00 -3.124481e+00 -1.181654e+00 -2.549191e+00 -4.050148e+00 2.655375e+00 -2.471661e+00 -9.916289e-01 -2.277835e-01 1.173584e+00 5.613828e-01 4.969381e-01 5.280076e-01 -2.737494e-01 -1.735338e-01 2.696514e-01 -2.067094e-01 7.806664e-02 7.860988e-02 4.230693e-01 -8.002965e-01 2.270253e-01 -3.619473e-01 3.667659e-01 8.294278e-02 2.010886e-01 5.188387e-03 -8.644123e-02 6.328654e-02 4.604425e-02 2.674678e-02 -1.766542e-01 4.834209e-02 -1.726296e-01 -1.307525e-01 -1.019371e-01
<VARIANCE> 39
 1.933145e+01 2.424794e+01 1.798982e+01 1.619380e+01 2.026168e+01 2.414218e+01 1.910300e+01 2.071200e+01 2.220786e+01 2.343414e+01 3.180523e+01 1.979849e+01 1.684436e+01 1.955055e+00 1.607691e+00 2.133531e+00 2.066988e+00 2.228158e+00 3.019644e+00 2.168973e+00 2.297538e+00 2.599980e+00 2.681252e+00 3.039796e+00 2.920281e+00 1.527018e+00 2.208735e-01 3.124202e-01 3.247111e-01 5.699692e-01 5.048874e-01 7.125017e-01 5.636314e-01 5.020733e-01 5.318749e-01 5.877946e-01 6.618255e-01 5.664954e-01 3.284739e-01
<GCONST> 1.119865e+02
<STATE> 4
<NUMMIXES> 2
<MIXTURE> 1 5.000000e-01
<MEAN> 39
 -4.943761e+00 4.719870e+00 3.374584e+00 -9.351879e+00 -8.366378e+00 8.665788e-01 -3.425789e+00 -3.567971e+00 3.030500e-01 2.095690e+00 -9.055960e+00 -1.835890e+00 -3.867947e+00 1.592042e+00 -4.942169e-01 2.774100e-01 -1.086292e+00 -1.347672e+00 -5.066929e-01 1.378124e-01 1.914016e-01 -3.323684e-01 9.649564e-02 2.925100e-01 -1.348604e-01 -5.828733e-03 -7.405361e-01 -3.020861e-01 -4.590609e-01 9.128001e-02 1.318259e-01 -1.296725e-01 6.118354e-02 1.443719e-01 2.763714e-01 -3.649131e-01 3.852584e-01 1.862361e-01 3.368535e-01
<VARIANCE> 39
 1.822968e+01 2.298108e+01 1.795562e+01 2.479957e+01 1.777328e+01 1.965984e+01 4.159219e+01 1.783568e+01 1.822696e+01 1.979400e+01 1.396302e+01 1.697255e+01 1.463863e+01 5.253770e+00 1.670523e+00 2.186495e+00 2.197065e+00 1.692959e+00 2.798650e+00 3.244282e+00 2.731568e+00 2.298631e+00 4.404326e+00 2.262538e+00 1.543216e+00 2.154999e+00 4.239151e-01 3.895216e-01 2.521311e-01 3.275855e-01 2.923935e-01 4.873397e-01 4.861858e-01 3.533706e-01 2.417810e-01 5.311467e-01 5.031622e-01 2.556725e-01 3.053507e-01
<GCONST> 1.088368e+02
<MIXTURE> 2 5.000000e-01
<MEAN> 39
 -4.943761e+00 4.719870e+00 3.374584e+00 -9.351879e+00 -8.366378e+00 8.665788e-01 -3.425789e+00 -3.567971e+00 3.030500e-01 2.095690e+00 -9.055960e+00 -1.835890e+00 -3.867947e+00 1.592042e+00 -4.942169e-01 2.774100e-01 -1.086292e+00 -1.347672e+00 -5.066929e-01 1.378124e-01 1.914016e-01 -3.323684e-01 9.649564e-02 2.925100e-01 -1.348604e-01 -5.828733e-03 -7.405361e-01 -3.020861e-01 -4.590609e-01 9.128001e-02 1.318259e-01 -1.296725e-01 6.118354e-02 1.443719e-01 2.763714e-01 -3.649131e-01 3.852584e-01 1.862361e-01 3.368535e-01
<VARIANCE> 39
 1.822968e+01 2.298108e+01 1.795562e+01 2.479957e+01 1.777328e+01 1.965984e+01 4.159219e+01 1.783568e+01 1.822696e+01 1.979400e+01 1.396302e+01 1.697255e+01 1.463863e+01 5.253770e+00 1.670523e+00 2.186495e+00 2.197065e+00 1.692959e+00 2.798650e+00 3.244282e+00 2.731568e+00 2.298631e+00 4.404326e+00 2.262538e+00 1.543216e+00 2.154999e+00 4.239151e-01 3.895216e-01 2.521311e-01 3.275855e-01 2.923935e-01 4.873397e-01 4.861858e-01 3.533706e-01 2.417810e-01 5.311467e-01 5.031622e-01 2.556725e-01 3.053507e-01
<GCONST> 1.088368e+02
<TRANSP> 5
 0.000000e+00 1.000000e+00 0.000000e+00 0.000000e+00 0.000000e+00
 0.000000e+00 8.748865e-01 1.251135e-01 0.000000e+00 0.000000e+00
 0.000000e+00 0.000000e+00 9.241330e-01 7.586701e-02 0.000000e+00
 0.000000e+00 0.000000e+00 0.000000e+00 8.033496e-01 1.966504e-01
 0.000000e+00 0.000000e+00 0.000000e+00 0.000000e+00 0.000000e+00
<ENDHMM>
~h "d"
<BEGINHMM>
<NUMSTATES> 5
<STATE> 2
<NUMMIXES> 2
<MIXTURE> 1 5.000000e-01
<MEAN> 39
 4.598696e+00 1.199738e+01 4.839133e+00 -4.265924e+00 4.774310e+00 -1.791317e+01 -3.375039e-01 -9.365610e+00 -9.670350e+00 1.158964e+01 -4.669633e+00 -4.278816e-01 -3.608989e+00 5.375214e-01 2.985369e-01 2.070711e-01 2.207800e-01 -3.923433e-01 -2.247479e-01 -7.281452e-02 1.300544e-01 1.714078e-01 2.926443e-02 1.593382e-01 7.884585e-02 3.283635e-01 -1.183046e-01 -7.956760e-02 -4.900200e-02 3.265649e-02 -1.861520e-01 2.293407e-01 -8.716683e-02 1.596829e-01 3.582198e-01 -2.787766e-01 7.739619e-02 -4.815595e-02 -2.807763e-02
<VARIANCE> 39
 2.785435e+01 1.676534e+01 4.610982e+00 2.067487e+01 3.892133e+01 2.435926e+01 1.519150e+01 2.359773e+01 2.060738e+01 3.519558e+01 1.718564e+01 3.032328e+01 1.430147e+01 1.552432e+00 1.310547e+00 5.571674e-01 1.778989e+00 2.561789e+00 3.435515e+00 2.027285e+00 1.792791e+00 3.172294e+00 3.918854e+00 1.712680e+00 1.622814e+00 1.007286e+00 3.267057e-01 2.551669e-01 1.232567e-01 2.231691e-01 3.899428e-01 5.234413e-01 3.775439e-01 3.084417e-01 7.224904e-01 6.734424e-01 3.161118e-01 2.631855e-01 1.785008e-01
<GCONST> 1.035893e+02
<MIXTURE> 2 5.000000e-01
<MEAN> 39
 4.598696e+00 1.199738e+01 4.839133e+00 -4.265924e+00 4.774310e+00 -1.791317e+01 -3.375039e-01 -9.365610e+00 -9.670350e+00 1.158964e+01 -4.669633e+00 -4.278816e-01 -3.608989e+00 5.375214e-01 2.985369e-01 2.070711e-01 2.207800e-01 -3.923433e-01 -2.247479e-01 -7.281452e-02 1.300544e-01 1.714078e-01 2.926443e-02 1.593382e-01 7.884585e-02 3.283635e-01 -1.183046e-01 -7.956760e-02 -4.900200e-02 3.265649e-02 -1.861520e-01 2.293407e-01 -8.716683e-02 1.596829e-01 3.582198e-01 -2.787766e-01 7.739619e-02 -4.815595e-02 -2.807763e-02
<VARIANCE> 39
 2.785435e+01 1.676534e+01 4.610982e+00 2.067487e+01 3.892133e+01 2.435926e+01 1.519150e+01 2.359773e+01 2.060738e+01 3.519558e+01 1.718564e+01 3.032328e+01 1.430147e+01 1.552432e+00 1.310547e+00 5.571674e-01 1.778989e+00 2.561789e+00 3.435515e+00 2.027285e+00 1.792791e+00 3.172294e+00 3.918854e+00 1.712680e+00 1.622814e+00 1.007286e+00 3.267057e-01 2.551669e-01 1.232567e-01 2.231691e-01 3.899428e-01 5.234413e-01 3.775439e-01 3.084417e-01 7.224904e-01 6.734424e-01 3.161118e-01 2.631855e-01 1.785008e-01
<GCONST> 1.035893e+02
<STATE> 3
<NUMMIXES> 2
<MIXTURE> 1 5.000000e-01
<MEAN> 39
 3.453815e+00 6.807098e+00 3.841951e+00 -2.834991e+00 -8.463140e+00 -7.958875e+00 3.307076e+00 -1.358261e+00 -5.449121e+00 3.320657e+00 -6.409187e+00 -4.941002e+00 1.389637e+00 4.031894e-02 1.573343e-01 3.193714e-01 3.069754e-01 -3.526332e-01 2.827321e-01 6.196992e-02 1.852987e-01 -1.782573e-02 -3.113178e-01 1.347902e-01 -3.188990e-02 1.904845e-01 2.111573e-03 6.194690e-02 4.424052e-02 7.908462e-02 1.667780e-01 -4.050701e-02 -6.235006e-02 -1.408211e-01 -1.729125e-01 1.066832e-01 1.075558e-02 1.251217e-01 -9.821848e-03
<VARIANCE> 39
 5.938430e+01 9.315405e+01 2.898325e+01 4.405418e+01 4.717464e+01 6.572467e+01 3.411088e+01 1.947090e+01 2.175822e+01 2.113108e+01 2.978614e+01 2.566498e+01 1.208622e+01 4.469087e-01 6.534859e-01 6.875656e-01 9.146057e-01 1.636024e+00 1.850503e+00 2.070225e+00 9.136834e-01 2.187987e+00 2.739942e+00 1.624159e+00 1.693072e+00 1.363168e+00 6.393421e-02 4.233901e-02 7.437464e-02 1.553867e-01 2.594445e-01 2.683223e-01 3.798398e-01 1.394842e-01 3.064230e-01 5.260338e-01 2.847044e-01 2.822749e-01 2.622995e-01
<GCONST> 9.875051e+01
<MIXTURE> 2 5.000000e-01
<MEAN> 39
 3.453815e+00 6.807098e+00 3.841951e+00 -2.834991e+00 -8.463140e+00 -7.958875e+00 3.307076e+00 -1.358261e+00 -5.449121e+00 3.320657e+00 -6.409187e+00 -4.941002e+00 1.389637e+00 4.031894e-02 1.573343e-01 3.193714e-01 3.069754e-01 -3.526332e-01 2.827321e-01 6.196992e-02 1.852987e-01 -1.782573e-02 -3.113178e-01 1.347902e-01 -3.188990e-02 1.904845e-01 2.111573e-03 6.194690e-02 4.424052e-02 7.908462e-02 1.667780e-01 -4.050701e-02 -6.235006e-02 -1.408211e-01 -1.729125e-01 1.066832e-01 1.075558e-02 1.251217e-01 -9.821848e-03
<VARIANCE> 39
 5.938430e+01 9.315405e+01 2.898325e+01 4.405418e+01 4.717464e+01 6.572467e+01 3.411088e+01 1.947090e+01 2.175822e+01 2.113108e+01 2.978614e+01 2.566498e+01 1.208622e+01 4.469087e-01 6.534859e-01 6.875656e-01 9.146057e-01 1.636024e+00 1.850503e+00 2.070225e+00 9.136834e-01 2.187987e+00 2.739942e+00 1.624159e+00 1.693072e+00 1.363168e+00 6.393421e-02 4.233901e-02 7.437464e-02 1.553867e-01 2.594445e-01 2.683223e-01 3.798398e-01 1.394842e-01 3.064230e-01 5.260338e-01 2.847044e-01 2.822749e-01 2.622995e-01
<GCONST> 9.875051e+01
<STATE> 4
<NUMMIXES> 2
<MIXTURE> 1 5.000000e-01
<MEAN> 39
 2.276429e-01 7.627774e+00 7.591160e+00 2.348564e+00 -8.221709e+00 -3.569070e+00 -2.268839e+00 -4.665617e+00 -8.374320e+00 7.695896e-01 -3.715052e+00 -1.328689e+00 3.140626e+00 -1.177623e+00 -7.969147e-01 -6.697237e-01 -3.853186e-01 6.611009e-02 8.983169e-01 -1.200527e-01 2.110834e-04 4.232115e-01 -7.288822e-02 5.932754e-01 -6.804866e-02 -2.969111e-01 8.214752e-02 -8.146097e-02 -1.290801e-01 -1.873874e-01 -1.315895e-01 -2.679642e-01 -4.143138e-02 2.949517e-01 1.303561e-01 2.486757e-01 -1.253145e-01 -1.558583e-01 -5.379761e-02
<VARIANCE> 39
 9.015520e+01 5.117899e+01 5.795878e+01 2.664538e+01 5.650296e+01 4.768624e+01 2.292974e+01 3.006430e+01 5.143726e+01 3.189195e+01 5.370401e+01 1.665044e+01 4.064495e+01 1.097043e+01 5.641587e+00 4.451859e+00 3.927545e+00 4.759312e+00 7.986224e+00 4.152554e+00 3.434322e+00 2.939003e+00 3.579763e+00 3.817340e+00 2.301319e+00 3.057706e+00 2.055106e+00 1.091283e+00 8.445444e-01 7.294576e-01 9.271678e-01 1.364356e+00 9.550533e-01 3.167914e-01 7.172265e-01 6.752214e-01 8.408046e-01 4.157766e-01 6.391112e-01
<GCONST> 1.358598e+02
<MIXTURE> 2 5.000000e-01
<MEAN> 39
 2.276429e-01 7.627774e+00 7.591160e+00 2.348564e+00 -8.221709e+00 -3.569070e+00 -2.268839e+00 -4.665617e+00 -8.374320e+00 7.695896e-01 -3.715052e+00 -1.328689e+00 3.140626e+00 -1.177623e+00 -7.969147e-01 -6.697237e-01 -3.853186e-01 6.611009e-02 8.983169e-01 -1.200527e-01 2.110834e-04 4.232115e-01 -7.288822e-02 5.932754e-01 -6.804866e-02 -2.969111e-01 8.214752e-02 -8.146097e-02 -1.290801e-01 -1.873874e-01 -1.315895e-01 -2.679642e-01 -4.143138e-02 2.949517e-01 1.303561e-01 2.486757e-01 -1.253145e-01 -1.558583e-01 -5.379761e-02
<VARIANCE> 39
 9.015520e+01 5.117899e+01 5.795878e+01 2.664538e+01 5.650296e+01 4.768624e+01 2.292974e+01 3.006430e+01 5.143726e+01 3.189195e+01 5.370401e+01 1.665044e+01 4.064495e+01 1.097043e+01 5.641587e+00 4.451859e+00 3.927545e+00 4.759312e+00 7.986224e+00 4.152554e+00 3.434322e+00 2.939003e+00 3.579763e+00 3.817340e+00 2.301319e+00 3.057706e+00 2.055106e+00 1.091283e+00 8.445444e-01 7.294576e-01 9.271678e-01 1.364356e+00 9.550533e-01 3.167914e-01 7.172265e-01 6.752214e-01 8.408046e-01 4.157766e-01 6.391112e-01
<GCONST> 1.358598e+02
<TRANSP> 5
 0.000000e+00 1.000000e+00 0.000000e+00 0.000000e+00 0.000000e+00
 0.000000e+00 8.925586e-01 1.074414e-01 0.000000e+00 0.000000e+00
 0.000000e+00 0.000000e+00 9.250930e-01 7.490703e-02 0.000000e+00
 0.000000e+00 0.000000e+00 0.000000e+00 8.981479e-01 1.018521e-01
 0.000000e+00 0.000000e+00 0.000000e+00 0.000000e+00 0.000000e+00
<ENDHMM>
~h "g"
<BEGINHMM>
<NUMSTATES> 5
<STATE> 2
<NUMMIXES> 2
<MIXTURE> 1 5.000000e-01
<MEAN> 39
 4.821970e+00 -2.858773e+00 1.951013e+00 -2.809751e+00 -7.466261e+00 -5.988081e+00 1.047878e-01 3.515900e+00 -1.271540e+01 3.264299e+00 7.425662e-01 -4.685676e+00 1.124144e+00 1.031961e+00 1.242549e+00 1.244350e+00 5.038538e-01 4.188112e-02 -1.225928e+00 -1.183106e+00 -1.043267e+00 1.972063e-01 9.321635e-01 2.297392e-01 4.195444e-01 2.547691e-01 -5.464683e-02 -1.480926e-02 -2.114138e-01 3.006975e-02 2.692535e-01 4.611540e-02 8.168595e-02 -1.277230e-01 -8.606659e-02 -1.669614e-01 -7.208058e-02 7.818262e-02 6.047516e-02
<VARIANCE> 39
 1.276703e+01 2.089808e+01 2.165178e+01 2.200351e+01 1.766367e+01 4.933561e+01 3.070185e+01 4.344606e+01 1.581597e+01 1.585545e+01 1.482123e+01 2.000926e+01 1.825684e+01 2.239118e-01 8.597720e-01 8.084523e-01 1.697025e+00 1.450406e+00 1.059600e+00 2.249641e+00 2.288427e+00 1.839289e+00 1.720415e+00 8.756338e-01 1.466591e+00 1.308227e+00 5.140030e-02 1.862218e-01 2.339212e-01 4.988751e-01 2.351251e-01 2.749343e-01 4.480332e-01 5.457721e-01 4.198252e-01 1.958433e-01 1.752438e-01 3.224648e-01 3.022813e-01
<GCONST> 9.641264e+01
<MIXTURE> 2 5.000000e-01
<MEAN> 39
 4.821970e+00 -2.858773e+00 1.951013e+00 -2.809751e+00 -7.466261e+00 -5.988081e+00 1.047878e-01 3.515900e+00 -1.271540e+01 3.264299e+00 7.425662e-01 -4.685676e+00 1.124144e+00 1.031961e+00 1.242549e+00 1.244350e+00 5.038538e-01 4.188112e-02 -1.225928e+00 -1.183106e+00 -1.043267e+00 1.972063e-01 9.321635e-01 2.297392e-01 4.195444e-01 2.547691e-01 -5.464683e-02 -1.480926e-02 -2.114138e-01 3.006975e-02 2.692535e-01 4.611540e-02 8.168595e-02 -1.277230e-01 -8.606659e-02 -1.669614e-01 -7.208058e-02 7.818262e-02 6.047516e-02
<VARIANCE> 39
 1.276703e+01 2.089808e+01 2.165178e+01 2.200351e+01 1.766367e+01 4.933561e+01 3.070185e+01 4.344606e+01 1.581597e+01 1.585545e+01 1.482123e+01 2.000926e+01 1.825684e+01 2.239118e-01 8.597720e-01 8.084523e-01 1.697025e+00 1.450406e+00 1.059600e+00 2.249641e+00 2.288427e+00 1.839289e+00 1.720415e+00 8.756338e-01 1.466591e+00 1.308227e+00 5.140030e-02 1.862218e-01 2.339212e-01 4.988751e-01 2.351251e-01 2.749343e-01 4.480332e-01 5.457721e-01 4.198252e-01 1.958433e-01 1.752438e-01 3.224648e-01 3.022813e-01
<GCONST> 9.641264e+01
<STATE> 3
<NUMMIXES> 2
<MIXTURE> 1 5.000000e-01
<MEAN> 39
 3.753292e+00 1.317608e+00 3.755497e+00 -4.065615e+00 -7.124957e+00 -7.536848e+00 -1.857845e+00 3.864146e-01 -8.491817e+00 3.392048e+00 1.276675e-01 -4.648339e+00 6.290240e-01 -4.283848e-01 4.842380e-01 -4.398423e-01 -1.838873e-01 3.833233e-01 -4.665929e-01 -1.643276e-01 6.454737e-01 2.401481e-01 -3.753169e-01 3.083352e-01 -1.214921e-01 -2.750639e-01 -9.012742e-02 -2.722371e-02 -6.004411e-02 6.380264e-02 2.015043e-02 -2.541918e-02 -3.557657e-02 9.638326e-02 -4.268330e-02 -9.498961e-02 1.126065e-01 -2.526162e-02 1.922337e-02
<VARIANCE> 39
 2.320383e+01 3.229181e+01 1.858005e+01 3.063201e+01 3.100327e+01 4.233458e+01 3.426544e+01 5.326386e+01 1.089053e+01 2.439409e+01 1.812332e+01 1.953358e+01 8.688859e+00 1.518145e+00 3.769430e+00 8.861606e-01 4.453376e+00 4.869824e+00 6.000286e+00 2.902610e+00 2.810449e+00 1.189875e+00 2.385612e+00 2.714592e+00 2.239546e+00 5.233204e-01 3.274273e-01 7.281654e-01 2.042420e-01 9.599278e-01 9.939869e-01 8.349248e-01 6.080114e-01 4.877957e-01 2.715957e-01 7.043197e-01 4.302157e-01 4.270956e-01 8.964839e-02
<GCONST> 1.135099e+02
<MIXTURE> 2 5.000000e-01
<MEAN> 39
 3.753292e+00 1.317608e+00 3.755497e+00 -4.065615e+00 -7.124957e+00 -7.536848e+00 -1.857845e+00 3.864146e-01 -8.491817e+00 3.392048e+00 1.276675e-01 -4.648339e+00 6.290240e-01 -4.283848e-01 4.842380e-01 -4.398423e-01 -1.838873e-01 3.833233e-01 -4.665929e-01 -1.643276e-01 6.454737e-01 2.401481e-01 -3.753169e-01 3.083352e-01 -1.214921e-01 -2.750639e-01 -9.012742e-02 -2.722371e-02 -6.004411e-02 6.380264e-02 2.015043e-02 -2.541918e-02 -3.557657e-02 9.638326e-02 -4.268330e-02 -9.498961e-02 1.126065e-01 -2.526162e-02 1.922337e-02
<VARIANCE> 39
 2.320383e+01 3.229181e+01 1.858005e+01 3.063201e+01 3.100327e+01 4.233458e+01 3.426544e+01 5.326386e+01 1.089053e+01 2.439409e+01 1.812332e+01 1.953358e+01 8.688859e+00 1.518145e+00 3.769430e+00 8.861606e-01 4.453376e+00 4.869824e+00 6.000286e+00 2.902610e+00 2.810449e+00 1.189875e+00 2.385612e+00 2.714592e+00 2.239546e+00 5.233204e-01 3.274273e-01 7.281654e-01 2.042420e-01 9.599278e-01 9.939869e-01 8.349248e-01 6.080114e-01 4.877957e-01 2.715957e-01 7.043197e-01 4.302157e-01 4.270956e-01 8.964839e-02
<GCONST> 1.135099e+02
<STATE> 4
<NUMMIXES> 2
<MIXTURE> 1 5.000000e-01
<MEAN> 39
 -7.726850e-01 7.058678e+00 -2.045149e+00 -2.719568e+00 -4.125420e+00 -1.682341e+01 7.030694e-01 4.035360e+00 -7.063890e+00 9.199247e-01 2.535306e+00 -4.921420e+00 -2.391623e+00 -4.170174e-01 -9.171307e-01 4.360628e-02 6.524215e-02 -5.878955e-01 1.415557e+00 1.013114e+00 -7.837736e-01 1.770312e-01 -2.530612e-01 -8.089869e-01 -6.419361e-02 3.366135e-01 -7.101309e-03 -1.637870e-01 1.947995e-02 -8.132746e-02 3.424498e-02 3.284517e-01 6.117164e-02 -6.525821e-02 -6.090049e-02 6.965724e-02 -1.778260e-01 1.702963e-02 6.076687e-02
<VARIANCE> 39
 1.363692e+01 3.433251e+01 9.733427e+01 1.565322e+01 5.757175e+01 1.245080e+02 7.551799e+01 5.496045e+01 2.842251e+01 2.165011e+01 3.746611e+01 1.928796e+01 1.151542e+01 1.394541e+00 2.775168e+00 2.663810e+00 1.681783e+00 4.838536e+00 8.205062e+00 2.219228e+00 1.359144e+00 4.812358e+00 4.211743e+00 2.352620e+00 1.372351e+00 1.654386e+00 1.728610e-01 4.078277e-01 4.005727e-01 2.456428e-01 1.004966e+00 9.287313e-01 6.237199e-01 3.703395e-01 7.726585e-01 7.107639e-01 6.079498e-01 2.443102e-01 2.141637e-01
<GCONST> 1.195823e+02
<MIXTURE> 2 5.000000e-01
<MEAN> 39
 -7.726850e-01 7.058678e+00 -2.045149e+00 -2.719568e+00 -4.125420e+00 -1.682341e+01 7.030694e-01 4.035360e+00 -7.063890e+00 9.199247e-01 2.535306e+00 -4.921420e+00 -2.391623e+00 -4.170174e-01 -9.171307e-01 4.360628e-02 6.524215e-02 -5.878955e-01 1.415557e+00 1.013114e+00 -7.837736e-01 1.770312e-01 -2.530612e-01 -8.089869e-01 -6.419361e-02 3.366135e-01 -7.101309e-03 -1.637870e-01 1.947995e-02 -8.132746e-02 3.424498e-02 3.284517e-01 6.117164e-02 -6.525821e-02 -6.090049e-02 6.965724e-02 -1.778260e-01 1.702963e-02 6.076687e-02
<VARIANCE> 39
 1.363692e+01 3.433251e+01 9.733427e+01 1.565322e+01 5.757175e+01 1.245080e+02 7.551799e+01 5.496045e+01 2.842251e+01 2.165011e+01 3.746611e+01 1.928796e+01 1.151542e+01 1.394541e+00 2.775168e+00 2.663810e+00 1.681783e+00 4.838536e+00 8.205062e+00 2.219228e+00 1.359144e+00 4.812358e+00 4.211743e+00 2.352620e+00 1.372351e+00 1.654386e+00 1.728610e-01 4.078277e-01 4.005727e-01 2.456428e-01 1.004966e+00 9.287313e-01 6.237199e-01 3.703395e-01 7.726585e-01 7.107639e-01 6.079498e-01 2.443102e-01 2.141637e-01
<GCONST> 1.195823e+02
<TRANSP> 5
 0.000000e+00 1.000000e+00 0.000000e+00 0.000000e+00 0.000000e+00
 0.000000e+00 8.461514e-01 1.538486e-01 0.000000e+00 0.000000e+00
 0.000000e+00 0.000000e+00 9.134640e-01 8.653598e-02 0.000000e+00
 0.000000e+00 0.000000e+00 0.000000e+00 8.823190e-01 1.176810e-01
 0.000000e+00 0.000000e+00 0.000000e+00 0.000000e+00 0.000000e+00
<ENDHMM>
~h "h"
<BEGINHMM>
<NUMSTATES> 5
<STATE> 2
<NUMMIXES> 2
<MIXTURE> 1 5.000000e-01
<MEAN> 39
 -3.131597e+00 -5.025305e+00 -4.605008e+00 3.318846e+00 1.219669e+00 -3.143691e+00 5.344462e+00 3.523952e+00 -2.020886e+00 1.317918e+00 -2.085302e+00 -3.190717e-01 1.336110e+00 7.034252e-02 -1.029873e-01 -1.163399e+00 8.659422e-01 1.440499e+00 -5.470266e-01 -9.375947e-01 5.535818e-01 9.671454e-01 -1.014971e+00 -2.861950e-01 5.799946e-01 2.682188e-01 -3.838333e-02 1.761928e-01 -5.398338e-02 -1.155034e-01 -1.208993e-01 8.938333e-02 -1.528750e-01 -2.149218e-01 2.348554e-01 -7.028514e-02 -1.343319e-01 -2.211599e-01 9.099439e-03
<VARIANCE> 39
 3.381413e+01 2.221336e+01 2.885899e+01 5.777431e+01 4.539135e+01 3.973682e+01 3.623524e+01 3.024340e+01 3.345973e+01 3.034980e+01 2.674553e+01 2.500758e+01 2.115248e+01 2.952779e-01 8.022600e-01 1.685323e+00 1.128057e+00 2.070506e+00 1.737151e+00 3.252651e+00 2.597217e+00 4.223972e+00 3.075347e+00 3.174188e+00 2.330553e+00 3.112789e+00 4.854166e-02 1.391369e-01 2.284229e-01 2.765691e-01 3.811901e-01 4.071864e-01 6.936310e-01 7.255412e-01 7.282835e-01 5.123087e-01 5.916324e-01 4.514355e-01 6.750180e-01
<GCONST> 1.120040e+02
<MIXTURE> 2 5.000000e-01
<MEAN> 39
 -3.131597e+00 -5.025305e+00 -4.605008e+00 3.318846e+00 1.219669e+00 -3.143691e+00 5.344462e+00 3.523952e+00 -2.020886e+00 1.317918e+00 -2.085302e+00 -3.190717e-01 1.336110e+00 7.034252e-02 -1.029873e-01 -1.163399e+00 8.659422e-01 1.440499e+00 -5.470266e-01 -9.375947e-01 5.535818e-01 9.671454e-01 -1.014971e+00 -2.861950e-01 5.799946e-01 2.682188e-01 -3.838333e-02 1.761928e-01 -5.398338e-02 -1.155034e-01 -1.208993e-01 8.938333e-02 -1.528750e-01 -2.149218e-01 2.348554e-01 -7.028514e-02 -1.343319e-01 -2.211599e-01 9.099439e-03
<VARIANCE> 39
 3.381413e+01 2.221336e+01 2.885899e+01 5.777431e+01 4.539135e+01 3.973682e+01 3.623524e+01 3.024340e+01 3.345973e+01 3.034980e+01 2.674553e+01 2.500758e+01 2.115248e+01 2.952779e-01 8.022600e-01 1.685323e+00 1.128057e+00 2.070506e+00 1.737151e+00 3.252651e+00 2.597217e+00 4.223972e+00 3.075347e+00 3.174188e+00 2.330553e+00 3.112789e+00 4.854166e-02 1.391369e-01 2.284229e-01 2.765691e-01 3.811901e-01 4.071864e-01 6.936310e-01 7.255412e-01 7.282835e-01 5.123087e-01 5.916324e-01 4.514355e-01 6.750180e-01
<GCONST> 1.120040e+02
<STATE> 3
<NUMMIXES> 2
<MIXTURE> 1 5.000000e-01
<MEAN> 39
 -4.118115e+00 -5.459705e+00 -1.518827e+01 5.815981e+00 5.422253e+00 -2.454754e+00 -4.641897e-01 -2.567674e+00 5.413597e+00 -3.322078e+00 -4.701938e+00 -2.464120e+00 2.108349e+00 1.194110e-01 2.756552e-01 -2.666480e-01 -1.436573e-01 -1.987323e-01 2.525069e-01 -4.069664e-01 -5.775349e-01 3.161916e-01 3.465338e-01 3.140671e-01 -4.784051e-01 -1.202219e-01 7.280491e-02 5.200160e-02 1.438742e-01 -9.413307e-03 -1.862825e-03 3.288097e-02 7.341964e-02 1.340704e-01 -3.689611e-02 7.961361e-02 9.857191e-02 4.115614e-02 -6.485700e-03
<VARIANCE> 39
 4.255164e+01 2.895234e+01 4.346385e+01 4.086280e+01 3.450121e+01 2.984354e+01 2.818881e+01 2.894998e+01 2.024805e+01 3.066269e+01 1.935165e+01 2.004637e+01 1.160693e+01 3.250345e-01 5.784656e-01 1.777842e+00 1.602916e+00 1.810248e+00 2.672548e+00 2.862760e+00 3.334784e+00 3.283951e+00 3.387237e+00 3.314532e+00 2.110263e+00 1.760517e+00 9.037733e-02 9.452493e-02 3.115955e-01 2.996868e-01 4.587313e-01 5.172177e-01 5.879735e-01 6.184620e-01 6.770446e-01 8.307444e-01 6.483651e-01 4.395735e-01 3.987825e-01
<GCONST> 1.105553e+02
<MIXTURE> 2 5.000000e-01
<MEAN> 39
 -4.118115e+00 -5.459705e+00 -1.518827e+01 5.815981e+00 5.422253e+00 -2.454754e+00 -4.641897e-01 -2.567674e+00 5.413597e+00 -3.322078e+00 -4.701938e+00 -2.464120e+00 2.108349e+00 1.194110e-01 2.756552e-01 -2.666480e-01 -1.436573e-01 -1.987323e-01 2.525069e-01 -4.069664e-01 -5.775349e-01 3.161916e-01 3.465338e-01 3.140671e-01 -4.784051e-01 -1.202219e-01 7.280491e-02 5.200160e-02 1.438742e-01 -9.413307e-03 -1.862825e-03 3.288097e-02 7.341964e-02 1.340704e-01 -3.689611e-02 7.961361e-02 9.857191e-02 4.115614e-02 -6.485700e-03
<VARIANCE> 39
 4.255164e+01 2.895234e+01 4.346385e+01 4.086280e+01 3.450121e+01 2.984354e+01 2.818881e+01 2.894998e+01 2.024805e+01 3.066269e+01 1.935165e+01 2.004637e+01 1.160693e+01 3.250345e-01 5.784656e-01 1.777842e+00 1.602916e+00 1.810248e+00 2.672548e+00 2.862760e+00 3.334784e+00 3.283951e+00 3.387237e+00 3.314532e+00 2.110263e+00 1.760517e+00 9.037733e-02 9.452493e-02 3.115955e-01 2.996868e-01 4.587313e-01 5.172177e-01 5.879735e-01 6.184620e-01 6.770446e-01 8.307444e-01 6.483651e-01 4.395735e-01 3.987825e-01
<GCONST> 1.105553e+02
<STATE> 4
<NUMMIXES> 2
<MIXTURE> 1 5.000000e-01
<MEAN> 39
 -3.707328e+00 3.140894e+00 -3.431716e+00 -4.208257e+00 5.476595e+00 2.699968e-01 -3.645612e+00 9.053538e-01 2.171332e+00 -1.217387e-01 -2.577790e+00 -2.202117e+00 -7.492059e-01 7.365487e-01 6.437041e-01 -2.679127e-01 -6.695019e-01 -2.854409e-01 -5.491229e-01 -3.373138e-02 2.965672e-01 1.796087e-01 2.333487e-01 -8.089876e-02 -3.129087e-02 -2.349994e-01 -8.508449e-02 -4.982749e-02 -7.244597e-02 -6.738909e-02 -5.342247e-02 -4.805550e-02 -3.321579e-04 -5.238294e-03 -7.002395e-02 2.562964e-02 -9.518617e-02 -5.215978e-02 3.054645e-02
<VARIANCE> 39
 3.474332e+01 4.439936e+01 9.651958e+01 1.508009e+02 2.773188e+01 4.653680e+01 3.605758e+01 4.437901e+01 3.593819e+01 1.955884e+01 1.511910e+01 2.419350e+01 1.227662e+01 1.678201e+00 1.581748e+00 1.621612e+00 2.206356e+00 2.305032e+00 2.329995e+00 3.530399e+00 2.960863e+00 2.820969e+00 2.151087e+00 1.988083e+00 2.559196e+00 1.077295e+00 2.497544e-01 2.201527e-01 3.319947e-01 4.098351e-01 4.111265e-01 5.467535e-01 6.863880e-01 5.350622e-01 7.012426e-01 4.323398e-01 4.001032e-01 6.128286e-01 2.438398e-01
<GCONST> 1.164930e+02
<MIXTURE> 2 5.000000e-01
<MEAN> 39
 -3.707328e+00 3.140894e+00 -3.431716e+00 -4.208257e+00 5.476595e+00 2.699968e-01 -3.645612e+00 9.053538e-01 2.171332e+00 -1.217387e-01 -2.577790e+00 -2.202117e+00 -7.492059e-01 7.365487e-01 6.437041e-01 -2.679127e-01 -6.695019e-01 -2.854409e-01 -5.491229e-01 -3.373138e-02 2.965672e-01 1.796087e-01 2.333487e-01 -8.089876e-02 -3.129087e-02 -2.349994e-01 -8.508449e-02 -4.982749e-02 -7.244597e-02 -6.738909e-02 -5.342247e-02 -4.805550e-02 -3.321579e-04 -5.238294e-03 -7.002395e-02 2.562964e-02 -9.518617e-02 -5.215978e-02 3.054645e-02
<VARIANCE> 39
 3.474332e+01 4.439936e+01 9.651958e+01 1.508009e+02 2.773188e+01 4.653680e+01 3.605758e+01 4.437901e+01 3.593819e+01 1.955884e+01 1.511910e+01 2.419350e+01 1.227662e+01 1.678201e+00 1.581748e+00 1.621612e+00 2.206356e+00 2.305032e+00 2.329995e+00 3.530399e+00 2.960863e+00 2.820969e+00 2.151087e+00 1.988083e+00 2.559196e+00 1.077295e+00 2.497544e-01 2.201527e-01 3.319947e-01 4.098351e-01 4.111265e-01 5.467535e-01 6.863880e-01 5.350622e-01 7.012426e-01 4.323398e-01 4.001032e-01 6.128286e-01 2.438398e-01
<GCONST> 1.164930e+02
<TRANSP> 5
 0.000000e+00 1.000000e+00 0.000000e+00 0.000000e+00 0.000000e+00
 0.000000e+00 7.598247e-01 2.401754e-01 0.000000e+00 0.000000e+00
 0.000000e+00 0.000000e+00 8.326460e-01 1.673541e-01 0.000000e+00
 0.000000e+00 0.000000e+00 0.000000e+00 8.712156e-01 1.287843e-01
 0.000000e+00 0.000000e+00 0.000000e+00 0.000000e+00 0.000000e+00
<ENDHMM>
~h "i"
<BEGINHMM>
<NUMSTATES> 7
<STATE> 2
<NUMMIXES> 2
<MIXTURE> 1 5.000000e-01
<MEAN> 39
 -3.641817e+00 3.600417e+00 6.305074e+00 -7.220952e+00 -3.853105e+00 -1.769973e+00 -7.102864e+00 -2.891433e+00 -2.272311e+00 -1.116358e+00 -7.773457e+00 2.293355e-01 1.847810e+00 -3.056562e-01 2.840491e-01 -4.272007e-02 -1.422313e+00 -9.183366e-01 8.361127e-01 -8.090736e-01 6.433220e-01 4.440943e-01 2.581032e-01 -6.408153e-02 1.847467e-01 -7.256909e-03 -4.839855e-02 -9.984304e-02 -1.566056e-01 -3.667472e-02 2.907768e-01 -3.878363e-02 6.020313e-02 1.032562e-01 9.063581e-02 -1.924445e-01 9.137390e-04 1.176626e-01 -8.853567e-02
<VARIANCE> 39
 2.712899e+01 2.850510e+01 1.700225e+01 8.516985e+01 3.128959e+01 4.057874e+01 3.280618e+01 3.241899e+01 4.393808e+01 2.757693e+01 2.937997e+01 1.406784e+01 3.469582e+01 2.847034e+00 1.419027e+00 1.742128e+00 3.278473e+00 2.407573e+00 5.775076e+00 3.443137e+00 2.400277e+00 2.523872e+00 5.750400e+00 3.507637e+00 2.080183e+00 1.722735e+00 3.751059e-01 2.392522e-01 3.038067e-01 6.418869e-01 4.748382e-01 7.012408e-01 2.914029e-01 4.484409e-01 4.505569e-01 8.699282e-01 5.428150e-01 4.256241e-01 3.543783e-01
<GCONST> 1.188622e+02
<MIXTURE> 2 5.000000e-01
<MEAN> 39
 -3.641817e+00 3.600417e+00 6.305074e+00 -7.220952e+00 -3.853105e+00 -1.769973e+00 -7.102864e+00 -2.891433e+00 -2.272311e+00 -1.116358e+00 -7.773457e+00 2.293355e-01 1.847810e+00 -3.056562e-01 2.840491e-01 -4.272007e-02 -1.422313e+00 -9.183366e-01 8.361127e-01 -8.090736e-01 6.433220e-01 4.440943e-01 2.581032e-01 -6.408153e-02 1.847467e-01 -7.256909e-03 -4.839855e-02 -9.984304e-02 -1.566056e-01 -3.667472e-02 2.907768e-01 -3.878363e-02 6.020313e-02 1.032562e-01 9.063581e-02 -1.924445e-01 9.137390e-04 1.176626e-01 -8.853567e-02
<VARIANCE> 39
 2.712899e+01 2.850510e+01 1.700225e+01 8.516985e+01 3.128959e+01 4.057874e+01 3.280618e+01 3.241899e+01 4.393808e+01 2.757693e+01 2.937997e+01 1.406784e+01 3.469582e+01 2.847034e+00 1.419027e+00 1.742128e+00 3.278473e+00 2.407573e+00 5.775076e+00 3.443137e+00 2.400277e+00 2.523872e+00 5.750400e+00 3.507637e+00 2.080183e+00 1.722735e+00 3.751059e-01 2.392522e-01 3.038067e-01 6.418869e-01 4.748382e-01 7.012408e-01 2.914029e-01 4.484409e-01 4.505569e-01 8.699282e-01 5.428150e-01 4.256241e-01 3.543783e-01
<GCONST> 1.188622e+02
<STATE> 3
<NUMMIXES> 2
<MIXTURE> 1 5.000000e-01
<MEAN> 39
 -6.193116e+00 -3.573179e-01 2.440185e+00 -1.394755e+01 -7.491835e+00 4.634518e+00 5.305162e-02 -2.512741e+00 -2.791980e+00 -3.149094e+00 -1.115034e+01 -1.920079e+00 4.048692e+00 -8.245263e-02 2.977747e-01 1.877612e-01 -5.155225e-01 1.099918e-01 -1.360826e-01 -4.014611e-01 3.764262e-01 5.523597e-01 -3.210026e-01 1.859362e-01 2.045030e-02 -3.524974e-01 2.919660e-02 4.773434e-02 4.346400e-03 1.432870e-01 7.882485e-03 -1.589198e-01 -2.271163e-03 -2.906636e-02 -7.053749e-02 1.036343e-01 8.188318e-02 -8.198880e-02 -2.520293e-02
<VARIANCE> 39
 2.973693e+00 2.202543e+01 1.237014e+01 2.196476e+01 1.872856e+01 2.391809e+01 5.885361e+01 1.271746e+01 1.970540e+01 2.342286e+01 2.642602e+01 1.572392e+01 1.521424e+01 1.911303e-01 3.896452e-01 3.636030e-01 8.377295e-01 4.934120e-01 9.496182e-01 1.191323e+00 1.154876e+00 1.118799e+00 1.012344e+00 8.346024e-01 8.985891e-01 1.047815e+00 3.414553e-02 3.976920e-02 5.449217e-02 1.168696e-01 8.935782e-02 1.875590e-01 1.469627e-01 1.521611e-01 1.411388e-01 2.291832e-01 1.696119e-01 1.621588e-01 1.028129e-01
<GCONST> 7.588454e+01
<MIXTURE> 2 5.000000e-01
<MEAN> 39
 -6.193116e+00 -3.573179e-01 2.440185e+00 -1.394755e+01 -7.491835e+00 4.634518e+00 5.305162e-02 -2.512741e+00 -2.791980e+00 -3.149094e+00 -1.115034e+01 -1.920079e+00 4.048692e+00 -8.245263e-02 2.977747e-01 1.877612e-01 -5.155225e-01 1.099918e-01 -1.360826e-01 -4.014611e-01 3.764262e-01 5.523597e-01 -3.210026e-01 1.859362e-01 2.045030e-02 -3.524974e-01 2.919660e-02 4.773434e-02 4.346400e-03 1.432870e-01 7.882485e-03 -1.589198e-01 -2.271163e-03 -2.906636e-02 -7.053749e-02 1.036343e-01 8.188318e-02 -8.198880e-02 -2.520293e-02
<VARIANCE> 39
 2.973693e+00 2.202543e+01 1.237014e+01 2.196476e+01 1.872856e+01 2.391809e+01 5.885361e+01 1.271746e+01 1.970540e+01 2.342286e+01 2.642602e+01 1.572392e+01 1.521424e+01 1.911303e-01 3.896452e-01 3.636030e-01 8.377295e-01 4.934120e-01 9.496182e-01 1.191323e+00 1.154876e+00 1.118799e+00 1.012344e+00 8.346024e-01 8.985891e-01 1.047815e+00 3.414553e-02 3.976920e-02 5.449217e-02 1.168696e-01 8.935782e-02 1.875590e-01 1.469627e-01 1.521611e-01 1.411388e-01 2.291832e-01 1.696119e-01 1.621588e-01 1.028129e-01
<GCONST> 7.588454e+01
<STATE> 4
<NUMMIXES> 2
<MIXTURE> 1 5.000000e-01
<MEAN> 39
 -6.625728e+00 9.100239e+00 7.207420e+00 -1.786070e+01 -5.711317e+00 -4.070982e+00 -1.396138e+01 1.149215e+00 8.158116e-01 -1.571488e+00 -3.120810e+00 -1.272217e+00 -1.032332e+00 9.089441e-02 1.384365e-01 2.162040e-01 -8.972033e-02 5.533166e-02 -2.535864e-01 -3.068396e-01 4.578041e-03 -1.575943e-02 1.438302e-01 2.172198e-01 -1.724912e-01 9.717637e-02 5.265942e-02 -4.106088e-02 4.218366e-02 5.729269e-02 4.782552e-03 5.042369e-02 6.385069e-02 -8.039452e-02 -2.098003e-02 4.202083e-03 -4.435122e-02 1.294702e-02 3.084408e-02
<VARIANCE> 39
 1.931772e+00 2.224533e+01 1.893633e+01 1.915614e+01 3.159282e+01 2.546882e+01 4.064727e+01 1.307543e+01 1.273424e+01 2.366346e+01 3.380629e+01 8.967428e+00 7.278720e+00 1.072612e-01 2.067034e-01 2.716799e-01 1.496961e-01 3.285505e-01 5.491456e-01 5.306029e-01 4.733216e-01 4.658575e-01 4.311937e-01 4.063804e-01 2.452094e-01 3.110882e-01 1.400154e-02 1.652922e-02 1.945061e-02 2.883530e-02 4.466886e-02 4.766164e-02 5.834069e-02 6.421992e-02 7.613925e-02 6.154635e-02 3.934143e-02 3.679779e-02 4.100951e-02
<GCONST> 4.982954e+01
<MIXTURE> 2 5.000000e-01
<MEAN> 39
 -6.625728e+00 9.100239e+00 7.207420e+00 -1.786070e+01 -5.711317e+00 -4.070982e+00 -1.396138e+01 1.149215e+00 8.158116e-01 -1.571488e+00 -3.120810e+00 -1.272217e+00 -1.032332e+00 9.089441e-02 1.384365e-01 2.162040e-01 -8.972033e-02 5.533166e-02 -2.535864e-01 -3.068396e-01 4.578041e-03 -1.575943e-02 1.438302e-01 2.172198e-01 -1.724912e-01 9.717637e-02 5.265942e-02 -4.106088e-02 4.218366e-02 5.729269e-02 4.782552e-03 5.042369e-02 6.385069e-02 -8.039452e-02 -2.098003e-02 4.202083e-03 -4.435122e-02 1.294702e-02 3.084408e-02
<VARIANCE> 39
 1.931772e+00 2.224533e+01 1.893633e+01 1.915614e+01 3.159282e+01 2.546882e+01 4.064727e+01 1.307543e+01 1.273424e+01 2.366346e+01 3.380629e+01 8.967428e+00 7.278720e+00 1.072612e-01 2.067034e-01 2.716799e-01 1.496961e-01 3.285505e-01 5.491456e-01 5.306029e-01 4.733216e-01 4.658575e-01 4.311937e-01 4.063804e-01 2.452094e-01 3.110882e-01 1.400154e-02 1.652922e-02 1.945061e-02 2.883530e-02 4.466886e-02 4.766164e-02 5.834069e-02 6.421992e-02 7.613925e-02 6.154635e-02 3.934143e-02 3.679779e-02 4.100951e-02
<GCONST> 4.982954e+01
<STATE> 5
<NUMMIXES> 2
<MIXTURE> 1 5.000000e-01
<MEAN> 39
 -3.811094e+00 8.477839e+00 7.729271e+00 -1.579436e+01 -2.939138e+00 -1.543691e+00 -1.300432e+01 -1.368784e+00 3.948870e-01 -6.759530e-01 -3.201995e+00 -5.817106e-01 -5.453740e-01 6.261623e-01 3.368919e-02 4.370985e-01 7.476062e-01 7.586060e-02 3.010352e-01 1.366441e-01 -3.078071e-01 8.286234e-03 6.033211e-01 1.577549e-01 -1.575115e-01 2.307942e-02 4.053561e-02 2.301188e-02 -8.403121e-02 3.049479e-01 8.218320e-02 -1.963516e-03 1.287394e-01 3.456846e-02 -9.751105e-02 3.479480e-02 -1.338492e-02 -1.225772e-01 4.498324e-02
<VARIANCE> 39
 2.867472e+00 1.582970e+01 6.960806e+01 2.540866e+01 8.319337e+01 3.032513e+01 3.763650e+01 8.060209e+00 1.981202e+01 2.658956e+01 3.373579e+01 1.558775e+01 1.390288e+01 2.005240e-01 4.828348e-01 6.655322e-01 1.189646e+00 1.135669e+00 9.944146e-01 2.064890e+00 1.013953e+00 2.124537e+00 1.245839e+00 4.342605e-01 6.404887e-01 7.109397e-01 5.321978e-02 5.716291e-02 1.066560e-01 1.727698e-01 1.973686e-01 2.827293e-01 1.566436e-01 1.777095e-01 4.346689e-01 2.052299e-01 1.240133e-01 1.100355e-01 1.456827e-01
<GCONST> 8.443330e+01
<MIXTURE> 2 5.000000e-01
<MEAN> 39
 -3.811094e+00 8.477839e+00 7.729271e+00 -1.579436e+01 -2.939138e+00 -1.543691e+00 -1.300432e+01 -1.368784e+00 3.948870e-01 -6.759530e-01 -3.201995e+00 -5.817106e-01 -5.453740e-01 6.261623e-01 3.368919e-02 4.370985e-01 7.476062e-01 7.586060e-02 3.010352e-01 1.366441e-01 -3.078071e-01 8.286234e-03 6.033211e-01 1.577549e-01 -1.575115e-01 2.307942e-02 4.053561e-02 2.301188e-02 -8.403121e-02 3.049479e-01 8.218320e-02 -1.963516e-03 1.287394e-01 3.456846e-02 -9.751105e-02 3.479480e-02 -1.338492e-02 -1.225772e-01 4.498324e-02
<VARIANCE> 39
 2.867472e+00 1.582970e+01 6.960806e+01 2.540866e+01 8.319337e+01 3.032513e+01 3.763650e+01 8.060209e+00 1.981202e+01 2.658956e+01 3.373579e+01 1.558775e+01 1.390288e+01 2.005240e-01 4.828348e-01 6.655322e-01 1.189646e+00 1.135669e+00 9.944146e-01 2.064890e+00 1.013953e+00 2.124537e+00 1.245839e+00 4.342605e-01 6.404887e-01 7.109397e-01 5.321978e-02 5.716291e-02 1.066560e-01 1.727698e-01 1.973686e-01 2.827293e-01 1.566436e-01 1.777095e-01 4.346689e-01 2.052299e-01 1.240133e-01 1.100355e-01 1.456827e-01
<GCONST> 8.443330e+01
<STATE> 6
<NUMMIXES> 2
<MIXTURE> 1 5.000000e-01
<MEAN> 39
 -2.992025e+00 1.052925e+01 1.188389e+01 -1.060050e+01 1.358829e+00 -1.218968e+00 -1.266788e+01 1.778735e-01 -6.866224e-01 7.935317e-01 -1.777369e+00 -1.556371e+00 2.336728e-01 -1.770685e-02 -3.719884e-02 -1.171632e-02 1.217075e+00 3.911912e-01 3.628631e-01 6.799326e-01 -3.559484e-02 -5.893724e-01 -8.243306e-02 6.452978e-02 1.272516e-02 3.787325e-01 -9.822341e-02 -1.196798e-01 -1.209227e-01 -5.291011e-02 6.044896e-02 -1.008756e-01 1.859652e-01 2.449444e-02 -1.088518e-02 -1.352824e-01 7.801624e-02 1.654795e-01 -1.914879e-02
<VARIANCE> 39
 1.623350e+01 2.241818e+01 4.627811e+01 4.795655e+01 8.353557e+01 3.742761e+01 2.785621e+01 2.201959e+01 2.799246e+01 2.857569e+01 2.577942e+01 2.143932e+01 1.718977e+01 1.340159e+00 1.718787e+00 1.902397e+00 2.265491e+00 1.686639e+00 1.723750e+00 1.980557e+00 2.906261e+00 2.594821e+00 2.229594e+00 1.861345e+00 1.902091e+00 1.774621e+00 1.584329e-01 2.970953e-01 3.734965e-01 3.864767e-01 3.980935e-01 4.065031e-01 3.777443e-01 5.933683e-01 5.265681e-01 3.936317e-01 3.208807e-01 3.957500e-01 4.129618e-01
<GCONST> 1.114652e+02
<MIXTURE> 2 5.000000e-01
<MEAN> 39
 -2.992025e+00 1.052925e+01 1.188389e+01 -1.060050e+01 1.358829e+00 -1.218968e+00 -1.266788e+01 1.778735e-01 -6.866224e-01 7.935317e-01 -1.777369e+00 -1.556371e+00 2.336728e-01 -1.770685e-02 -3.719884e-02 -1.171632e-02 1.217075e+00 3.911912e-01 3.628631e-01 6.799326e-01 -3.559484e-02 -5.893724e-01 -8.243306e-02 6.452978e-02 1.272516e-02 3.787325e-01 -9.822341e-02 -1.196798e-01 -1.209227e-01 -5.291011e-02 6.044896e-02 -1.008756e-01 1.859652e-01 2.449444e-02 -1.088518e-02 -1.352824e-01 7.801624e-02 1.654795e-01 -1.914879e-02
<VARIANCE> 39
 1.623350e+01 2.241818e+01 4.627811e+01 4.795655e+01 8.353557e+01 3.742761e+01 2.785621e+01 2.201959e+01 2.799246e+01 2.857569e+01 2.577942e+01 2.143932e+01 1.718977e+01 1.340159e+00 1.718787e+00 1.902397e+00 2.265491e+00 1.686639e+00 1.723750e+00 1.980557e+00 2.906261e+00 2.594821e+00 2.229594e+00 1.861345e+00 1.902091e+00 1.774621e+00 1.584329e-01 2.970953e-01 3.734965e-01 3.864767e-01 3.980935e-01 4.065031e-01 3.777443e-01 5.933683e-01 5.265681e-01 3.936317e-01 3.208807e-01 3.957500e-01 4.129618e-01
<GCONST> 1.114652e+02
<TRANSP> 7
 0.000000e+00 1.000000e+00 0.000000e+00 0.000000e+00 0.000000e+00 0.000000e+00 0.000000e+00
 0.000000e+00 7.375829e-01 2.624172e-01 0.000000e+00 0.000000e+00 0.000000e+00 0.000000e+00
 0.000000e+00 0.000000e+00 8.458681e-01 1.541319e-01 0.000000e+00 0.000000e+00 0.000000e+00
 0.000000e+00 0.000000e+00 0.000000e+00 9.051187e-01 9.488133e-02 0.000000e+00 0.000000e+00
 0.000000e+00 0.000000e+00 0.000000e+00 0.000000e+00 6.730880e-01 3.269120e-01 0.000000e+00
 0.000000e+00 0.000000e+00 0.000000e+00 0.000000e+00 0.000000e+00 8.375693e-01 1.624307e-01
 0.000000e+00 0.000000e+00 0.000000e+00 0.000000e+00 0.000000e+00 0.000000e+00 0.000000e+00
<ENDHMM>
~h "j"
<BEGINHMM>
<NUMSTATES> 5
<STATE> 2
<NUMMIXES> 2
<MIXTURE> 1 5.000000e-01
<MEAN> 39
 -1.419434e+00 1.619737e+00 -5.791747e-01 -2.086983e+00 -2.534185e+00 -5.743593e+00 8.989167e+00 -6.839492e+00 -1.101959e+01 3.516630e+00 -5.157615e+00 -2.267196e+00 -5.318094e-01 -2.165387e-02 8.513248e-02 5.502356e-02 7.113972e-02 3.034419e-02 2.011168e-02 -1.437653e-01 -1.008084e-02 1.876501e-01 -5.469863e-02 6.259440e-03 -2.184301e-02 3.242242e-02 -4.908736e-02 -2.747974e-02 -1.254231e-02 2.727066e-02 3.424332e-03 4.562801e-02 -2.069980e-02 8.701751e-03 3.727444e-02 -4.768809e-02 -3.531321e-03 4.151736e-03 1.518648e-02
<VARIANCE> 39
 4.041732e+01 7.020715e+01 7.440656e+01 2.535382e+01 4.070401e+01 1.133687e+02 1.181943e+02 3.004379e+01 5.825225e+01 6.750017e+01 2.748055e+01 2.276035e+01 1.512422e+01 1.508918e+00 1.783894e+00 1.749974e+00 1.124626e+00 2.027397e+00 3.952571e+00 4.952057e+00 1.785378e+00 3.375248e+00 3.315146e+00 3.043742e+00 1.055304e+00 1.495028e+00 1.971016e-01 2.661423e-01 2.905279e-01 1.708840e-01 4.150540e-01 6.850232e-01 1.045658e+00 3.774968e-01 5.848449e-01 6.033134e-01 6.819324e-01 2.066233e-01 3.340653e-01
<GCONST> 1.188903e+02
<MIXTURE> 2 5.000000e-01
<MEAN> 39
 -1.419434e+00 1.619737e+00 -5.791747e-01 -2.086983e+00 -2.534185e+00 -5.743593e+00 8.989167e+00 -6.839492e+00 -1.101959e+01 3.516630e+00 -5.157615e+00 -2.267196e+00 -5.318094e-01 -2.165387e-02 8.513248e-02 5.502356e-02 7.113972e-02 3.034419e-02 2.011168e-02 -1.437653e-01 -1.008084e-02 1.876501e-01 -5.469863e-02 6.259440e-03 -2.184301e-02 3.242242e-02 -4.908736e-02 -2.747974e-02 -1.254231e-02 2.727066e-02 3.424332e-03 4.562801e-02 -2.069980e-02 8.701751e-03 3.727444e-02 -4.768809e-02 -3.531321e-03 4.151736e-03 1.518648e-02
<VARIANCE> 39
 4.041732e+01 7.020715e+01 7.440656e+01 2.535382e+01 4.070401e+01 1.133687e+02 1.181943e+02 3.004379e+01 5.825225e+01 6.750017e+01 2.748055e+01 2.276035e+01 1.512422e+01 1.508918e+00 1.783894e+00 1.749974e+00 1.124626e+00 2.027397e+00 3.952571e+00 4.952057e+00 1.785378e+00 3.375248e+00 3.315146e+00 3.043742e+00 1.055304e+00 1.495028e+00 1.971016e-01 2.661423e-01 2.905279e-01 1.708840e-01 4.150540e-01 6.850232e-01 1.045658e+00 3.774968e-01 5.848449e-01 6.033134e-01 6.819324e-01 2.066233e-01 3.340653e-01
<GCONST> 1.188903e+02
<STATE> 3
<NUMMIXES> 2
<MIXTURE> 1 5.000000e-01
<MEAN> 39
 -6.233463e+00 1.175420e+01 1.053351e+01 5.391030e+00 -1.881991e+00 -3.387260e+00 -4.256831e+00 -8.804141e+00 -1.478493e+00 -7.697847e-01 1.907440e-01 -1.438675e+00 1.828932e+00 -3.599465e-01 -1.478955e-01 -4.549890e-01 -1.215447e-02 -1.317393e-01 3.056838e-01 3.418390e-01 2.930076e-01 -1.790951e-02 7.899471e-02 2.429262e-01 -7.904135e-02 1.685200e-01 2.443184e-01 -1.302651e-01 -1.733306e-01 -1.416905e-01 -1.054271e-01 -1.114245e-01 2.362465e-01 1.730715e-02 -2.081204e-01 1.231534e-01 -1.048001e-01 -5.383530e-02 -3.775373e-02
<VARIANCE> 39
 3.899191e+01 3.150174e+01 1.559196e+01 1.894881e+01 2.033488e+01 2.137713e+01 3.111363e+01 1.893768e+01 1.888079e+01 2.507316e+01 2.116570e+01 1.862581e+01 9.113432e+00 3.091463e+00 2.018428e+00 1.407413e+00 1.587634e+00 2.181151e+00 3.012947e+00 3.041575e+00 2.098706e+00 2.548804e+00 3.013096e+00 2.945721e+00 2.282181e+00 1.690145e+00 2.728244e-01 3.374755e-01 2.267300e-01 2.347023e-01 4.061157e-01 5.624790e-01 4.807886e-01 4.315544e-01 6.807516e-01 4.135711e-01 7.380641e-01 4.309022e-01 3.607397e-01
<GCONST> 1.103190e+02
<MIXTURE> 2 5.000000e-01
<MEAN> 39
 -6.233463e+00 1.175420e+01 1.053351e+01 5.391030e+00 -1.881991e+00 -3.387260e+00 -4.256831e+00 -8.804141e+00 -1.478493e+00 -7.697847e-01 1.907440e-01 -1.438675e+00 1.828932e+00 -3.599465e-01 -1.478955e-01 -4.549890e-01 -1.215447e-02 -1.317393e-01 3.056838e-01 3.418390e-01 2.930076e-01 -1.790951e-02 7.899471e-02 2.429262e-01 -7.904135e-02 1.685200e-01 2.443184e-01 -1.302651e-01 -1.733306e-01 -1.416905e-01 -1.054271e-01 -1.114245e-01 2.362465e-01 1.730715e-02 -2.081204e-01 1.231534e-01 -1.048001e-01 -5.383530e-02 -3.775373e-02
<VARIANCE> 39
 3.899191e+01 3.150174e+01 1.559196e+01 1.894881e+01 2.033488e+01 2.137713e+01 3.111363e+01 1.893768e+01 1.888079e+01 2.507316e+01 2.116570e+01 1.862581e+01 9.113432e+00 3.091463e+00 2.018428e+00 1.407413e+00 1.587634e+00 2.181151e+00 3.012947e+00 3.041575e+00 2.098706e+00 2.548804e+00 3.013096e+00 2.945721e+00 2.282181e+00 1.690145e+00 2.728244e-01 3.374755e-01 2.267300e-01 2.347023e-01 4.061157e-01 5.624790e-01 4.807886e-01 4.315544e-01 6.807516e-01 4.135711e-01 7.380641e-01 4.309022e-01 3.607397e-01
<GCONST> 1.103190e+02
<STATE> 4
<NUMMIXES> 2
<MIXTURE> 1 5.000000e-01
<MEAN> 39
 -6.200839e+00 -8.935851e-01 2.003302e+00 -3.687883e-01 -1.432505e+00 7.021112e+00 -9.407893e-01 -7.049890e+00 2.039022e+00 -8.870559e-01 -3.895233e+00 6.695259e-01 2.238618e+00 1.215121e-01 -1.915622e-02 -6.322046e-02 -8.580973e-02 -1.305095e-01 -1.666434e-01 6.311350e-02 2.793002e-02 -4.640420e-02 3.514780e-02 -4.184553e-02 -5.636569e-02 -6.514296e-02 7.956819e-03 5.041370e-03 7.245324e-03 -5.794787e-03 5.398777e-03 -5.626278e-02 -1.748919e-02 -1.765419e-03 -3.058865e-02 1.197122e-02 -1.162881e-02 -9.211344e-04 -1.686576e-02
<VARIANCE> 39
 8.507685e+00 3.503011e+01 1.465301e+01 2.325124e+01 2.249835e+01 2.569382e+01 3.436397e+01 2.797642e+01 3.088683e+01 2.420220e+01 2.323348e+01 2.442616e+01 1.938653e+01 4.241590e-01 7.841157e-01 1.629227e+00 1.966395e+00 2.839750e+00 2.483040e+00 4.630009e+00 2.532552e+00 3.744650e+00 2.703685e+00 3.237312e+00 2.560840e+00 3.059318e+00 4.443945e-02 1.450878e-01 3.260267e-01 3.617820e-01 5.615553e-01 4.295079e-01 1.049724e+00 5.782608e-01 8.667663e-01 4.856121e-01 7.501659e-01 6.135041e-01 7.311103e-01
<GCONST> 1.113253e+02
<MIXTURE> 2 5.000000e-01
<MEAN> 39
 -6.200839e+00 -8.935851e-01 2.003302e+00 -3.687883e-01 -1.432505e+00 7.021112e+00 -9.407893e-01 -7.049890e+00 2.039022e+00 -8.870559e-01 -3.895233e+00 6.695259e-01 2.238618e+00 1.215121e-01 -1.915622e-02 -6.322046e-02 -8.580973e-02 -1.305095e-01 -1.666434e-01 6.311350e-02 2.793002e-02 -4.640420e-02 3.514780e-02 -4.184553e-02 -5.636569e-02 -6.514296e-02 7.956819e-03 5.041370e-03 7.245324e-03 -5.794787e-03 5.398777e-03 -5.626278e-02 -1.748919e-02 -1.765419e-03 -3.058865e-02 1.197122e-02 -1.162881e-02 -9.211344e-04 -1.686576e-02
<VARIANCE> 39
 8.507685e+00 3.503011e+01 1.465301e+01 2.325124e+01 2.249835e+01 2.569382e+01 3.436397e+01 2.797642e+01 3.088683e+01 2.420220e+01 2.323348e+01 2.442616e+01 1.938653e+01 4.241590e-01 7.841157e-01 1.629227e+00 1.966395e+00 2.839750e+00 2.483040e+00 4.630009e+00 2.532552e+00 3.744650e+00 2.703685e+00 3.237312e+00 2.560840e+00 3.059318e+00 4.443945e-02 1.450878e-01 3.260267e-01 3.617820e-01 5.615553e-01 4.295079e-01 1.049724e+00 5.782608e-01 8.667663e-01 4.856121e-01 7.501659e-01 6.135041e-01 7.311103e-01
<GCONST> 1.113253e+02
<TRANSP> 5
 0.000000e+00 1.000000e+00 0.000000e+00 0.000000e+00 0.000000e+00
 0.000000e+00 9.770231e-01 2.297690e-02 0.000000e+00 0.000000e+00
 0.000000e+00 0.000000e+00 9.281604e-01 7.183965e-02 0.000000e+00
 0.000000e+00 0.000000e+00 0.000000e+00 9.700658e-01 2.993423e-02
 0.000000e+00 0.000000e+00 0.000000e+00 0.000000e+00 0.000000e+00
<ENDHMM>
~h "k"
<BEGINHMM>
<NUMSTATES> 5
<STATE> 2
<NUMMIXES> 2
<MIXTURE> 1 5.000000e-01
<MEAN> 39
 -6.020658e+00 6.319230e-01 5.486282e-01 2.988921e+00 -1.986809e-01 6.028281e-02 2.053532e+00 -1.162039e+00 -6.194882e+00 -4.108240e+00 -2.219641e+00 -4.513022e+00 4.909538e-02 -4.529423e-01 1.199388e-02 1.073264e-01 1.463909e-01 -5.291609e-02 -2.460868e-02 -1.729614e-01 -2.470677e-01 9.116744e-02 -3.253523e-01 -3.841521e-01 -1.266951e-01 -5.478195e-02 1.307306e-02 -1.015110e-01 -5.221375e-03 -9.234668e-02 -5.743816e-02 -3.133932e-02 -1.994473e-02 -3.656469e-02 9.564130e-02 7.999469e-02 -5.168036e-02 1.012948e-01 3.775632e-02
<VARIANCE> 39
 8.366201e+00 1.716443e+01 2.447876e+01 2.361052e+01 2.303066e+01 1.589597e+01 4.169827e+01 3.385570e+01 2.248379e+01 3.906349e+01 2.330531e+01 1.637666e+01 2.535524e+01 5.397833e-01 1.231764e+00 1.318985e+00 2.038518e+00 2.705236e+00 1.943839e+00 3.545766e+00 3.355475e+00 2.619344e+00 3.040549e+00 2.648647e+00 2.259010e+00 3.336833e+00 1.031470e-01 2.721100e-01 2.553448e-01 4.054819e-01 6.362328e-01 4.385127e-01 7.675115e-01 6.637205e-01 5.670366e-01 6.423689e-01 5.122790e-01 4.162626e-01 7.212830e-01
<GCONST> 1.112268e+02
<MIXTURE> 2 5.000000e-01
<MEAN> 39
 -6.020658e+00 6.319230e-01 5.486282e-01 2.988921e+00 -1.986809e-01 6.028281e-02 2.053532e+00 -1.162039e+00 -6.194882e+00 -4.108240e+00 -2.219641e+00 -4.513022e+00 4.909538e-02 -4.529423e-01 1.199388e-02 1.073264e-01 1.463909e-01 -5.291609e-02 -2.460868e-02 -1.729614e-01 -2.470677e-01 9.116744e-02 -3.253523e-01 -3.841521e-01 -1.266951e-01 -5.478195e-02 1.307306e-02 -1.015110e-01 -5.221375e-03 -9.234668e-02 -5.743816e-02 -3.133932e-02 -1.994473e-02 -3.656469e-02 9.564130e-02 7.999469e-02 -5.168036e-02 1.012948e-01 3.775632e-02
<VARIANCE> 39
 8.366201e+00 1.716443e+01 2.447876e+01 2.361052e+01 2.303066e+01 1.589597e+01 4.169827e+01 3.385570e+01 2.248379e+01 3.906349e+01 2.330531e+01 1.637666e+01 2.535524e+01 5.397833e-01 1.231764e+00 1.318985e+00 2.038518e+00 2.705236e+00 1.943839e+00 3.545766e+00 3.355475e+00 2.619344e+00 3.040549e+00 2.648647e+00 2.259010e+00 3.336833e+00 1.031470e-01 2.721100e-01 2.553448e-01 4.054819e-01 6.362328e-01 4.385127e-01 7.675115e-01 6.637205e-01 5.670366e-01 6.423689e-01 5.122790e-01 4.162626e-01 7.212830e-01
<GCONST> 1.112268e+02
<STATE> 3
<NUMMIXES> 2
<MIXTURE> 1 5.000000e-01
<MEAN> 39
 -7.049902e+00 -2.029667e+00 2.130916e+00 1.492153e-01 -3.126339e+00 7.877095e-01 -1.344942e+00 -4.610660e+00 -2.269020e+00 -3.998448e+00 -4.659648e+00 -1.601820e+00 1.486638e+00 -7.078157e-02 -1.967933e-01 -2.263900e-02 -1.130086e-02 -3.872734e-02 1.809089e-02 7.583661e-02 -4.988344e-02 1.388920e-01 4.615206e-02 8.952457e-03 2.774404e-02 -3.305666e-02 -2.563443e-02 -9.175802e-02 -4.758846e-02 -4.494455e-02 -8.307346e-03 -5.286659e-02 4.609989e-03 -8.388752e-03 1.814924e-02 3.393142e-02 8.777325e-02 7.228201e-03 -5.188139e-04
<VARIANCE> 39
 7.592286e+00 3.864309e+01 2.145065e+01 3.709755e+01 3.547957e+01 2.811863e+01 4.436024e+01 4.466652e+01 2.397314e+01 2.596828e+01 2.480487e+01 2.488333e+01 1.958262e+01 6.296515e-01 2.537416e+00 1.794313e+00 1.955794e+00 3.301917e+00 3.119318e+00 3.707235e+00 3.759243e+00 2.949287e+00 3.535144e+00 3.116139e+00 2.952904e+00 2.306255e+00 1.250147e-01 4.087419e-01 3.497805e-01 4.577266e-01 7.250376e-01 7.227061e-01 6.585274e-01 7.583325e-01 6.416502e-01 7.570134e-01 7.110031e-01 6.772380e-01 4.934639e-01
<GCONST> 1.181528e+02
<MIXTURE> 2 5.000000e-01
<MEAN> 39
 -7.049902e+00 -2.029667e+00 2.130916e+00 1.492153e-01 -3.126339e+00 7.877095e-01 -1.344942e+00 -4.610660e+00 -2.269020e+00 -3.998448e+00 -4.659648e+00 -1.601820e+00 1.486638e+00 -7.078157e-02 -1.967933e-01 -2.263900e-02 -1.130086e-02 -3.872734e-02 1.809089e-02 7.583661e-02 -4.988344e-02 1.388920e-01 4.615206e-02 8.952457e-03 2.774404e-02 -3.305666e-02 -2.563443e-02 -9.175802e-02 -4.758846e-02 -4.494455e-02 -8.307346e-03 -5.286659e-02 4.609989e-03 -8.388752e-03 1.814924e-02 3.393142e-02 8.777325e-02 7.228201e-03 -5.188139e-04
<VARIANCE> 39
 7.592286e+00 3.864309e+01 2.145065e+01 3.709755e+01 3.547957e+01 2.811863e+01 4.436024e+01 4.466652e+01 2.397314e+01 2.596828e+01 2.480487e+01 2.488333e+01 1.958262e+01 6.296515e-01 2.537416e+00 1.794313e+00 1.955794e+00 3.301917e+00 3.119318e+00 3.707235e+00 3.759243e+00 2.949287e+00 3.535144e+00 3.116139e+00 2.952904e+00 2.306255e+00 1.250147e-01 4.087419e-01 3.497805e-01 4.577266e-01 7.250376e-01 7.227061e-01 6.585274e-01 7.583325e-01 6.416502e-01 7.570134e-01 7.110031e-01 6.772380e-01 4.934639e-01
<GCONST> 1.181528e+02
<STATE> 4
<NUMMIXES> 2
<MIXTURE> 1 5.000000e-01
<MEAN> 39
 -1.091921e+01 -4.809472e+00 2.380521e-01 -5.211017e+00 -4.458352e+00 -3.819364e+00 9.256244e-01 -2.563677e+00 -1.140086e+00 -2.723344e+00 -1.440972e+00 -3.612214e+00 -4.248537e-01 3.034106e-01 -5.941463e-02 -3.702749e-01 -7.302971e-01 -3.058895e-01 -5.498101e-01 2.617122e-01 1.024421e-01 -1.810880e-01 2.266531e-01 7.367535e-02 -1.423436e-01 -1.536085e-01 1.783232e-01 3.941964e-01 1.049962e-01 3.586449e-02 1.414434e-01 9.095034e-02 -1.270776e-01 1.491621e-01 -1.807497e-01 -2.526052e-02 -6.814391e-02 -1.900546e-02 1.052208e-02
<VARIANCE> 39
 3.544664e+01 8.136341e+01 2.438924e+01 8.443176e+01 4.654227e+01 2.469696e+01 5.245161e+01 3.157818e+01 2.806683e+01 1.660999e+01 2.103407e+01 1.561113e+01 1.446631e+01 3.851720e+00 8.195645e+00 2.642341e+00 4.246088e+00 4.648458e+00 3.447742e+00 3.741265e+00 3.070253e+00 3.149816e+00 2.502417e+00 3.393093e+00 2.224191e+00 1.599970e+00 5.912313e-01 1.252036e+00 4.226310e-01 7.451243e-01 8.339388e-01 7.287567e-01 6.483704e-01 6.293839e-01 5.413849e-01 4.983819e-01 6.541135e-01 4.658891e-01 3.270184e-01
<GCONST> 1.255186e+02
<MIXTURE> 2 5.000000e-01
<MEAN> 39
 -1.091921e+01 -4.809472e+00 2.380521e-01 -5.211017e+00 -4.458352e+00 -3.819364e+00 9.256244e-01 -2.563677e+00 -1.140086e+00 -2.723344e+00 -1.440972e+00 -3.612214e+00 -4.248537e-01 3.034106e-01 -5.941463e-02 -3.702749e-01 -7.302971e-01 -3.058895e-01 -5.498101e-01 2.617122e-01 1.024421e-01 -1.810880e-01 2.266531e-01 7.367535e-02 -1.423436e-01 -1.536085e-01 1.783232e-01 3.941964e-01 1.049962e-01 3.586449e-02 1.414434e-01 9.095034e-02 -1.270776e-01 1.491621e-01 -1.807497e-01 -2.526052e-02 -6.814391e-02 -1.900546e-02 1.052208e-02
<VARIANCE> 39
 3.544664e+01 8.136341e+01 2.438924e+01 8.443176e+01 4.654227e+01 2.469696e+01 5.245161e+01 3.157818e+01 2.806683e+01 1.660999e+01 2.103407e+01 1.561113e+01 1.446631e+01 3.851720e+00 8.195645e+00 2.642341e+00 4.246088e+00 4.648458e+00 3.447742e+00 3.741265e+00 3.070253e+00 3.149816e+00 2.502417e+00 3.393093e+00 2.224191e+00 1.599970e+00 5.912313e-01 1.252036e+00 4.226310e-01 7.451243e-01 8.339388e-01 7.287567e-01 6.483704e-01 6.293839e-01 5.413849e-01 4.983819e-01 6.541135e-01 4.658891e-01 3.270184e-01
<GCONST> 1.255186e+02
<TRANSP> 5
 0.000000e+00 1.000000e+00 0.000000e+00 0.000000e+00 0.000000e+00
 0.000000e+00 8.585778e-01 1.414221e-01 0.000000e+00 0.000000e+00
 0.000000e+00 0.000000e+00 9.372746e-01 6.272545e-02 0.000000e+00
 0.000000e+00 0.000000e+00 0.000000e+00 8.848089e-01 1.151911e-01
 0.000000e+00 0.000000e+00 0.000000e+00 0.000000e+00 0.000000e+00
<ENDHMM>
~h "l"
<BEGINHMM>
<NUMSTATES> 5
<STATE> 2
<NUMMIXES> 2
<MIXTURE> 1 5.000000e-01
<MEAN> 39
 -3.330779e+00 7.981766e+00 -1.462029e+00 -9.572049e-01 -9.087717e+00 -1.636976e+01 2.002079e+00 -2.389890e+00 -6.677310e+00 5.117259e+00 -1.907290e+00 -3.019784e+00 1.666948e+00 -1.601367e-01 -3.195702e-01 -2.745404e-01 1.201331e-02 -1.080549e-01 3.217240e-01 6.799127e-01 5.938486e-02 -5.036362e-01 -5.560691e-03 1.172940e-02 -2.556461e-01 -1.305073e-02 -1.790164e-02 -1.064146e-01 -4.176870e-02 -5.148538e-02 8.654355e-02 2.249412e-01 -3.431415e-02 6.301521e-02 4.954028e-02 -1.470571e-01 -3.523065e-02 3.425673e-02 -3.672997e-02
<VARIANCE> 39
 1.059057e+01 5.065545e+01 2.737894e+01 2.334920e+01 4.115842e+01 6.643722e+01 4.749834e+01 6.511311e+01 3.570530e+01 5.486148e+01 3.958552e+01 1.719783e+01 2.372918e+01 3.447309e-01 1.736062e+00 1.294979e+00 1.231451e+00 1.680427e+00 4.597605e+00 2.526566e+00 1.720095e+00 2.337110e+00 2.569746e+00 2.100703e+00 1.358863e+00 1.270676e+00 5.661293e-02 1.960185e-01 1.194249e-01 2.151971e-01 2.913723e-01 5.257449e-01 4.545147e-01 2.591704e-01 4.215816e-01 3.787571e-01 3.504449e-01 2.259014e-01 2.313865e-01
<GCONST> 1.061798e+02
<MIXTURE> 2 5.000000e-01
<MEAN> 39
 -3.330779e+00 7.981766e+00 -1.462029e+00 -9.572049e-01 -9.087717e+00 -1.636976e+01 2.002079e+00 -2.389890e+00 -6.677310e+00 5.117259e+00 -1.907290e+00 -3.019784e+00 1.666948e+00 -1.601367e-01 -3.195702e-01 -2.745404e-01 1.201331e-02 -1.080549e-01 3.217240e-01 6.799127e-01 5.938486e-02 -5.036362e-01 -5.560691e-03 1.172940e-02 -2.556461e-01 -1.305073e-02 -1.790164e-02 -1.064146e-01 -4.176870e-02 -5.148538e-02 8.654355e-02 2.249412e-01 -3.431415e-02 6.301521e-02 4.954028e-02 -1.470571e-01 -3.523065e-02 3.425673e-02 -3.672997e-02
<VARIANCE> 39
 1.059057e+01 5.065545e+01 2.737894e+01 2.334920e+01 4.115842e+01 6.643722e+01 4.749834e+01 6.511311e+01 3.570530e+01 5.486148e+01 3.958552e+01 1.719783e+01 2.372918e+01 3.447309e-01 1.736062e+00 1.294979e+00 1.231451e+00 1.680427e+00 4.597605e+00 2.526566e+00 1.720095e+00 2.337110e+00 2.569746e+00 2.100703e+00 1.358863e+00 1.270676e+00 5.661293e-02 1.960185e-01 1.194249e-01 2.151971e-01 2.913723e-01 5.257449e-01 4.545147e-01 2.591704e-01 4.215816e-01 3.787571e-01 3.504449e-01 2.259014e-01 2.313865e-01
<GCONST> 1.061798e+02
<STATE> 3
<NUMMIXES> 2
<MIXTURE> 1 5.000000e-01
<MEAN> 39
 -2.923212e+00 -3.468487e+00 -1.109736e+01 1.951108e+00 -5.226961e+00 -9.212427e+00 8.726017e+00 5.963225e-01 -1.045936e+01 -6.399536e+00 -2.630116e+00 -1.432349e+00 -2.998143e+00 -5.054805e-02 -1.705944e-01 -8.485906e-02 4.019632e-02 2.232822e-01 7.853958e-02 1.547897e-01 -2.014154e-01 -1.981001e-01 5.829860e-02 6.741396e-02 6.235162e-02 -1.076250e-01 2.197355e-02 3.915496e-02 -4.164298e-03 1.575994e-02 2.610945e-02 -8.018219e-02 -1.045853e-01 -5.411375e-03 7.984308e-02 3.866229e-03 2.271304e-02 1.524469e-02 7.623655e-03
<VARIANCE> 39
 9.639409e+00 3.429027e+01 1.304451e+01 2.068145e+01 6.389663e+01 3.545145e+01 4.583023e+01 3.393645e+01 4.726010e+01 3.396355e+01 1.262678e+01 2.241341e+01 1.043728e+01 3.645440e-01 1.162399e+00 4.547735e-01 9.822969e-01 2.911911e+00 1.081354e+00 1.488107e+00 1.505651e+00 2.833817e+00 1.067111e+00 9.994905e-01 1.024552e+00 4.164928e-01 4.458848e-02 1.441534e-01 7.630992e-02 1.537447e-01 2.919533e-01 2.021087e-01 2.854545e-01 1.756792e-01 3.505229e-01 1.453532e-01 1.310697e-01 1.458395e-01 5.761218e-02
<GCONST> 8.896230e+01
<MIXTURE> 2 5.000000e-01
<MEAN> 39
 -2.923212e+00 -3.468487e+00 -1.109736e+01 1.951108e+00 -5.226961e+00 -9.212427e+00 8.726017e+00 5.963225e-01 -1.045936e+01 -6.399536e+00 -2.630116e+00 -1.432349e+00 -2.998143e+00 -5.054805e-02 -1.705944e-01 -8.485906e-02 4.019632e-02 2.232822e-01 7.853958e-02 1.547897e-01 -2.014154e-01 -1.981001e-01 5.829860e-02 6.741396e-02 6.235162e-02 -1.076250e-01 2.197355e-02 3.915496e-02 -4.164298e-03 1.575994e-02 2.610945e-02 -8.018219e-02 -1.045853e-01 -5.411375e-03 7.984308e-02 3.866229e-03 2.271304e-02 1.524469e-02 7.623655e-03
<VARIANCE> 39
 9.639409e+00 3.429027e+01 1.304451e+01 2.068145e+01 6.389663e+01 3.545145e+01 4.583023e+01 3.393645e+01 4.726010e+01 3.396355e+01 1.262678e+01 2.241341e+01 1.043728e+01 3.645440e-01 1.162399e+00 4.547735e-01 9.822969e-01 2.911911e+00 1.081354e+00 1.488107e+00 1.505651e+00 2.833817e+00 1.067111e+00 9.994905e-01 1.024552e+00 4.164928e-01 4.458848e-02 1.441534e-01 7.630992e-02 1.537447e-01 2.919533e-01 2.021087e-01 2.854545e-01 1.756792e-01 3.505229e-01 1.453532e-01 1.310697e-01 1.458395e-01 5.761218e-02
<GCONST> 8.896230e+01
<STATE> 4
<NUMMIXES> 2
<MIXTURE> 1 5.000000e-01
<MEAN> 39
 -5.834306e+00 -8.467963e+00 -1.375929e+01 4.300672e+00 2.681324e+00 -6.540124e+00 8.205793e+00 -5.076960e+00 -1.349005e+01 -5.815711e+00 9.180812e-01 9.581963e-01 -4.343326e+00 -1.442055e-02 2.439770e-03 -1.269295e-01 1.354670e-01 1.768505e-01 -5.104034e-02 -1.571540e-01 4.606805e-02 1.913738e-01 -1.173663e-01 4.069034e-02 4.507474e-02 -3.145510e-03 3.449650e-02 2.849532e-02 2.044861e-02 -4.634355e-02 -5.992772e-02 -1.126805e-02 1.934894e-02 5.095791e-02 1.993626e-02 1.639834e-02 -5.907317e-02 -2.430963e-02 1.588892e-02
<VARIANCE> 39
 3.719438e+00 2.272400e+01 1.664765e+01 2.708078e+01 2.887339e+01 1.429397e+01 2.485370e+01 3.162657e+01 2.121564e+01 2.730383e+01 2.200835e+01 9.624187e+00 9.929598e+00 1.480306e-01 1.690516e-01 1.958828e-01 2.208738e-01 2.575701e-01 2.870021e-01 3.375813e-01 2.838846e-01 4.091838e-01 3.855284e-01 3.964442e-01 2.690780e-01 2.887703e-01 2.224421e-02 2.361212e-02 1.960701e-02 3.006662e-02 2.392008e-02 5.319213e-02 4.121105e-02 4.986838e-02 4.987390e-02 3.694694e-02 3.658990e-02 4.010418e-02 3.253014e-02
<GCONST> 4.773451e+01
<MIXTURE> 2 5.000000e-01
<MEAN> 39
 -5.834306e+00 -8.467963e+00 -1.375929e+01 4.300672e+00 2.681324e+00 -6.540124e+00 8.205793e+00 -5.076960e+00 -1.349005e+01 -5.815711e+00 9.180812e-01 9.581963e-01 -4.343326e+00 -1.442055e-02 2.439770e-03 -1.269295e-01 1.354670e-01 1.768505e-01 -5.104034e-02 -1.571540e-01 4.606805e-02 1.913738e-01 -1.173663e-01 4.069034e-02 4.507474e-02 -3.145510e-03 3.449650e-02 2.849532e-02 2.044861e-02 -4.634355e-02 -5.992772e-02 -1.126805e-02 1.934894e-02 5.095791e-02 1.993626e-02 1.639834e-02 -5.907317e-02 -2.430963e-02 1.588892e-02
<VARIANCE> 39
 3.719438e+00 2.272400e+01 1.664765e+01 2.708078e+01 2.887339e+01 1.429397e+01 2.485370e+01 3.162657e+01 2.121564e+01 2.730383e+01 2.200835e+01 9.624187e+00 9.929598e+00 1.480306e-01 1.690516e-01 1.958828e-01 2.208738e-01 2.575701e-01 2.870021e-01 3.375813e-01 2.838846e-01 4.091838e-01 3.855284e-01 3.964442e-01 2.690780e-01 2.887703e-01 2.224421e-02 2.361212e-02 1.960701e-02 3.006662e-02 2.392008e-02 5.319213e-02 4.121105e-02 4.986838e-02 4.987390e-02 3.694694e-02 3.658990e-02 4.010418e-02 3.253014e-02
<GCONST> 4.773451e+01
<TRANSP> 5
 0.000000e+00 1.000000e+00 0.000000e+00 0.000000e+00 0.000000e+00
 0.000000e+00 8.868698e-01 1.131302e-01 0.000000e+00 0.000000e+00
 0.000000e+00 0.000000e+00 8.913224e-01 1.086776e-01 0.000000e+00
 0.000000e+00 0.000000e+00 0.000000e+00 8.899589e-01 1.100410e-01
 0.000000e+00 0.000000e+00 0.000000e+00 0.000000e+00 0.000000e+00
<ENDHMM>
~h "m"
<BEGINHMM>
<NUMSTATES> 5
<STATE> 2
<NUMMIXES> 2
<MIXTURE> 1 5.000000e-01
<MEAN> 39
 -1.169462e+00 4.507440e+00 1.642108e+00 1.380173e+00 -7.517767e-01 -1.304688e+01 -5.033734e+00 -1.976513e+00 -6.261952e+00 1.224676e+00 -2.132247e+00 -9.454072e-01 -2.851946e+00 9.531891e-01 5.226942e-01 1.250059e-01 2.799948e-01 1.107423e+00 -2.383433e+00 -9.420548e-01 -5.494720e-02 -6.318570e-01 9.244196e-01 2.992361e-01 9.336857e-01 -7.542056e-01 -1.758660e-01 1.577152e-02 -1.221501e-02 -1.174822e-01 1.137873e-01 -7.417313e-02 -1.399581e-01 -1.603333e-01 2.083643e-01 -4.299282e-02 1.055567e-02 1.362075e-01 -2.369309e-02
<VARIANCE> 39
 2.309704e+01 1.569027e+01 2.166808e+01 1.934453e+01 2.907214e+01 5.277243e+01 3.359090e+01 4.512109e+01 3.079589e+01 3.889224e+01 2.569242e+01 2.484268e+01 2.085793e+01 1.681960e+00 1.704431e+00 2.195131e+00 1.942435e+00 3.730425e+00 5.384384e+00 3.067077e+00 5.032649e+00 3.010962e+00 4.135798e+00 2.841750e+00 3.263249e+00 2.629092e+00 2.687302e-01 2.888451e-01 4.067749e-01 3.118861e-01 5.433122e-01 9.645730e-01 6.262835e-01 7.073544e-01 4.814474e-01 8.142083e-01 5.476593e-01 7.510368e-01 4.389411e-01
<GCONST> 1.200789e+02
<MIXTURE> 2 5.000000e-01
<MEAN> 39
 -1.169462e+00 4.507440e+00 1.642108e+00 1.380173e+00 -7.517767e-01 -1.304688e+01 -5.033734e+00 -1.976513e+00 -6.261952e+00 1.224676e+00 -2.132247e+00 -9.454072e-01 -2.851946e+00 9.531891e-01 5.226942e-01 1.250059e-01 2.799948e-01 1.107423e+00 -2.383433e+00 -9.420548e-01 -5.494720e-02 -6.318570e-01 9.244196e-01 2.992361e-01 9.336857e-01 -7.542056e-01 -1.758660e-01 1.577152e-02 -1.221501e-02 -1.174822e-01 1.137873e-01 -7.417313e-02 -1.399581e-01 -1.603333e-01 2.083643e-01 -4.299282e-02 1.055567e-02 1.362075e-01 -2.369309e-02
<VARIANCE> 39
 2.309704e+01 1.569027e+01 2.166808e+01 1.934453e+01 2.907214e+01 5.277243e+01 3.359090e+01 4.512109e+01 3.079589e+01 3.889224e+01 2.569242e+01 2.484268e+01 2.085793e+01 1.681960e+00 1.704431e+00 2.195131e+00 1.942435e+00 3.730425e+00 5.384384e+00 3.067077e+00 5.032649e+00 3.010962e+00 4.135798e+00 2.841750e+00 3.263249e+00 2.629092e+00 2.687302e-01 2.888451e-01 4.067749e-01 3.118861e-01 5.433122e-01 9.645730e-01 6.262835e-01 7.073544e-01 4.814474e-01 8.142083e-01 5.476593e-01 7.510368e-01 4.389411e-01
<GCONST> 1.200789e+02
<STATE> 3
<NUMMIXES> 2
<MIXTURE> 1 5.000000e-01
<MEAN> 39
 1.556188e+00 5.667392e+00 5.212103e-01 4.278607e+00 8.802291e+00 -2.726118e+01 -9.022106e+00 -8.563162e+00 -2.149281e+00 3.776735e+00 -4.310867e+00 4.361900e+00 -6.601944e+00 6.752577e-02 -6.687190e-02 -5.660818e-01 2.191519e-01 5.798723e-01 5.642832e-04 -1.169505e-01 -4.955156e-01 2.763532e-01 -1.054396e-01 2.685992e-01 8.390351e-02 -7.772263e-02 -6.272704e-02 -1.223022e-01 -8.198731e-02 3.090556e-02 -1.044010e-01 3.082162e-01 9.269020e-02 1.094978e-01 -1.888099e-02 -1.680821e-01 2.222232e-02 -9.424685e-02 1.261519e-01
<VARIANCE> 39
 1.492133e+01 1.230971e+01 2.988777e+01 3.466897e+01 2.560232e+01 5.160054e+01 2.414112e+01 5.895703e+01 4.274223e+01 2.761374e+01 2.915058e+01 1.370562e+01 2.369955e+01 7.472821e-01 1.123812e+00 2.328206e+00 1.631244e+00 1.989948e+00 5.442920e+00 2.628355e+00 2.625596e+00 1.933928e+00 2.867004e+00 1.872191e+00 1.769253e+00 2.179257e+00 1.239544e-01 1.281185e-01 3.463399e-01 3.107805e-01 3.993951e-01 6.248987e-01 4.693979e-01 4.232481e-01 4.051201e-01 3.947431e-01 2.598870e-01 3.074427e-01 4.189024e-01
<GCONST> 1.090674e+02
<MIXTURE> 2 5.000000e-01
<MEAN> 39
 1.556188e+00 5.667392e+00 5.212103e-01 4.278607e+00 8.802291e+00 -2.726118e+01 -9.022106e+00 -8.563162e+00 -2.149281e+00 3.776735e+00 -4.310867e+00 4.361900e+00 -6.601944e+00 6.752577e-02 -6.687190e-02 -5.660818e-01 2.191519e-01 5.798723e-01 5.642832e-04 -1.169505e-01 -4.955156e-01 2.763532e-01 -1.054396e-01 2.685992e-01 8.390351e-02 -7.772263e-02 -6.272704e-02 -1.223022e-01 -8.198731e-02 3.090556e-02 -1.044010e-01 3.082162e-01 9.269020e-02 1.094978e-01 -1.888099e-02 -1.680821e-01 2.222232e-02 -9.424685e-02 1.261519e-01
<VARIANCE> 39
 1.492133e+01 1.230971e+01 2.988777e+01 3.466897e+01 2.560232e+01 5.160054e+01 2.414112e+01 5.895703e+01 4.274223e+01 2.761374e+01 2.915058e+01 1.370562e+01 2.369955e+01 7.472821e-01 1.123812e+00 2.328206e+00 1.631244e+00 1.989948e+00 5.442920e+00 2.628355e+00 2.625596e+00 1.933928e+00 2.867004e+00 1.872191e+00 1.769253e+00 2.179257e+00 1.239544e-01 1.281185e-01 3.463399e-01 3.107805e-01 3.993951e-01 6.248987e-01 4.693979e-01 4.232481e-01 4.051201e-01 3.947431e-01 2.598870e-01 3.074427e-01 4.189024e-01
<GCONST> 1.090674e+02
<STATE> 4
<NUMMIXES> 2
<MIXTURE> 1 5.000000e-01
<MEAN> 39
 2.150031e+00 6.808375e+00 -9.353528e-01 2.910098e+00 8.067160e+00 -2.267506e+01 -1.032294e+01 -9.122478e+00 -5.971833e+00 3.703946e+00 2.594473e+00 2.252429e+00 -7.294299e+00 -5.239457e-03 -1.374708e-01 -1.643718e-01 -1.321177e-02 2.246453e-02 2.216104e-01 2.349213e-02 8.185568e-03 1.062048e-02 -2.691756e-01 2.398725e-02 6.462148e-02 1.402056e-01 -1.605344e-02 -2.923776e-02 -3.277069e-02 -6.200184e-02 -9.086420e-02 1.347864e-01 8.117014e-02 4.254330e-02 1.144328e-02 -5.213795e-02 -5.744138e-02 -5.263938e-02 6.183489e-02
<VARIANCE> 39
 4.617146e+00 8.927301e+00 3.137808e+01 1.938186e+01 4.639795e+01 2.675119e+01 1.485415e+01 1.283726e+02 3.495140e+01 1.836636e+01 1.422273e+01 1.736436e+01 1.720424e+01 1.249121e-01 3.625527e-01 2.744463e-01 3.804957e-01 4.419929e-01 1.048311e+00 5.685969e-01 7.271705e-01 4.659776e-01 4.391776e-01 5.897914e-01 3.183565e-01 4.217326e-01 2.113680e-02 5.555502e-02 8.563622e-02 8.532263e-02 9.476433e-02 2.146229e-01 1.099688e-01 1.774095e-01 8.053608e-02 9.381806e-02 1.321032e-01 8.522519e-02 1.096528e-01
<GCONST> 6.909290e+01
<MIXTURE> 2 5.000000e-01
<MEAN> 39
 2.150031e+00 6.808375e+00 -9.353528e-01 2.910098e+00 8.067160e+00 -2.267506e+01 -1.032294e+01 -9.122478e+00 -5.971833e+00 3.703946e+00 2.594473e+00 2.252429e+00 -7.294299e+00 -5.239457e-03 -1.374708e-01 -1.643718e-01 -1.321177e-02 2.246453e-02 2.216104e-01 2.349213e-02 8.185568e-03 1.062048e-02 -2.691756e-01 2.398725e-02 6.462148e-02 1.402056e-01 -1.605344e-02 -2.923776e-02 -3.277069e-02 -6.200184e-02 -9.086420e-02 1.347864e-01 8.117014e-02 4.254330e-02 1.144328e-02 -5.213795e-02 -5.744138e-02 -5.263938e-02 6.183489e-02
<VARIANCE> 39
 4.617146e+00 8.927301e+00 3.137808e+01 1.938186e+01 4.639795e+01 2.675119e+01 1.485415e+01 1.283726e+02 3.495140e+01 1.836636e+01 1.422273e+01 1.736436e+01 1.720424e+01 1.249121e-01 3.625527e-01 2.744463e-01 3.804957e-01 4.419929e-01 1.048311e+00 5.685969e-01 7.271705e-01 4.659776e-01 4.391776e-01 5.897914e-01 3.183565e-01 4.217326e-01 2.113680e-02 5.555502e-02 8.563622e-02 8.532263e-02 9.476433e-02 2.146229e-01 1.099688e-01 1.774095e-01 8.053608e-02 9.381806e-02 1.321032e-01 8.522519e-02 1.096528e-01
<GCONST> 6.909290e+01
<TRANSP> 5
 0.000000e+00 1.000000e+00 0.000000e+00 0.000000e+00 0.000000e+00
 0.000000e+00 8.287988e-01 1.712012e-01 0.000000e+00 0.000000e+00
 0.000000e+00 0.000000e+00 8.701407e-01 1.298593e-01 0.000000e+00
 0.000000e+00 0.000000e+00 0.000000e+00 9.350039e-01 6.499613e-02
 0.000000e+00 0.000000e+00 0.000000e+00 0.000000e+00 0.000000e+00
<ENDHMM>
~h "n"
<BEGINHMM>
<NUMSTATES> 5
<STATE> 2
<NUMMIXES> 2
<MIXTURE> 1 5.000000e-01
<MEAN> 39
 9.249973e-01 3.367507e+00 3.942891e+00 -3.932728e+00 -1.653269e-01 -1.530996e+01 -1.207404e+00 -2.401712e+00 -1.389432e+01 5.505847e+00 -5.457808e+00 1.172437e+00 -4.802895e+00 4.807180e-01 9.156923e-01 3.570327e-01 -6.494717e-02 2.676685e-01 -1.894811e+00 -7.081212e-01 -3.779044e-01 4.197143e-01 9.715872e-01 2.979158e-02 2.626909e-01 -9.180672e-01 -1.638225e-01 -2.829135e-01 -2.066118e-01 -4.587658e-02 -8.592173e-03 5.726922e-01 2.316267e-01 -1.640991e-02 -7.809848e-02 -1.190149e-01 -2.679202e-01 -3.678954e-02 2.547436e-01
<VARIANCE> 39
 1.185132e+01 1.119588e+01 1.584843e+01 1.402111e+01 1.036222e+01 4.673144e+01 3.431559e+01 4.268668e+01 1.893974e+01 2.878580e+01 2.326946e+01 1.297483e+01 2.278591e+01 3.333709e-01 1.470000e+00 6.854552e-01 8.439361e-01 7.740967e-01 5.345555e+00 1.669978e+00 1.026957e+00 9.147268e-01 1.428649e+00 1.193064e+00 1.302229e+00 1.575412e+00 4.349137e-02 1.633775e-01 7.383412e-02 1.465506e-01 1.548518e-01 5.951677e-01 3.807688e-01 2.188043e-01 2.020181e-01 2.456582e-01 2.259758e-01 2.018173e-01 1.591187e-01
<GCONST> 9.016849e+01
<MIXTURE> 2 5.000000e-01
<MEAN> 39
 9.249973e-01 3.367507e+00 3.942891e+00 -3.932728e+00 -1.653269e-01 -1.530996e+01 -1.207404e+00 -2.401712e+00 -1.389432e+01 5.505847e+00 -5.457808e+00 1.172437e+00 -4.802895e+00 4.807180e-01 9.156923e-01 3.570327e-01 -6.494717e-02 2.676685e-01 -1.894811e+00 -7.081212e-01 -3.779044e-01 4.197143e-01 9.715872e-01 2.979158e-02 2.626909e-01 -9.180672e-01 -1.638225e-01 -2.829135e-01 -2.066118e-01 -4.587658e-02 -8.592173e-03 5.726922e-01 2.316267e-01 -1.640991e-02 -7.809848e-02 -1.190149e-01 -2.679202e-01 -3.678954e-02 2.547436e-01
<VARIANCE> 39
 1.185132e+01 1.119588e+01 1.584843e+01 1.402111e+01 1.036222e+01 4.673144e+01 3.431559e+01 4.268668e+01 1.893974e+01 2.878580e+01 2.326946e+01 1.297483e+01 2.278591e+01 3.333709e-01 1.470000e+00 6.854552e-01 8.439361e-01 7.740967e-01 5.345555e+00 1.669978e+00 1.026957e+00 9.147268e-01 1.428649e+00 1.193064e+00 1.302229e+00 1.575412e+00 4.349137e-02 1.633775e-01 7.383412e-02 1.465506e-01 1.548518e-01 5.951677e-01 3.807688e-01 2.188043e-01 2.020181e-01 2.456582e-01 2.259758e-01 2.018173e-01 1.591187e-01
<GCONST> 9.016849e+01
<STATE> 3
<NUMMIXES> 2
<MIXTURE> 1 5.000000e-01
<MEAN> 39
 3.897225e+00 6.663012e+00 4.822623e+00 -4.177026e+00 2.003526e+00 -1.906104e+01 -1.164138e+00 -8.936183e+00 -9.022694e+00 7.458391e+00 -4.548522e+00 2.471807e+00 -7.308545e+00 -3.106009e-01 -1.018299e-01 -1.119337e-01 2.437978e-02 -2.366176e-01 6.567770e-01 -6.362785e-02 1.441311e-01 -5.862090e-02 -3.445298e-01 -1.555850e-01 1.229509e-02 4.029843e-01 -1.103553e-01 -1.425876e-01 -9.031234e-02 -4.749502e-02 -6.039173e-02 3.569266e-01 1.490566e-01 4.950262e-02 -4.161366e-02 -1.776202e-01 -3.248012e-02 -5.282754e-02 1.565651e-01
<VARIANCE> 39
 1.095906e+01 1.338147e+01 8.564754e+00 1.906692e+01 2.233752e+01 5.721838e+01 7.522839e+01 2.523623e+01 3.969385e+01 3.338902e+01 3.633073e+01 2.404998e+01 4.648977e+01 6.092070e-01 1.240672e+00 9.326372e-01 1.338219e+00 1.474326e+00 4.900355e+00 3.075807e+00 1.433631e+00 1.464584e+00 2.810412e+00 1.650434e+00 1.052800e+00 1.821845e+00 8.336064e-02 1.895921e-01 1.612317e-01 2.989588e-01 2.364231e-01 7.078839e-01 6.006234e-01 2.822524e-01 2.456982e-01 4.714123e-01 3.255472e-01 2.020215e-01 2.619507e-01
<GCONST> 1.032754e+02
<MIXTURE> 2 5.000000e-01
<MEAN> 39
 3.897225e+00 6.663012e+00 4.822623e+00 -4.177026e+00 2.003526e+00 -1.906104e+01 -1.164138e+00 -8.936183e+00 -9.022694e+00 7.458391e+00 -4.548522e+00 2.471807e+00 -7.308545e+00 -3.106009e-01 -1.018299e-01 -1.119337e-01 2.437978e-02 -2.366176e-01 6.567770e-01 -6.362785e-02 1.441311e-01 -5.862090e-02 -3.445298e-01 -1.555850e-01 1.229509e-02 4.029843e-01 -1.103553e-01 -1.425876e-01 -9.031234e-02 -4.749502e-02 -6.039173e-02 3.569266e-01 1.490566e-01 4.950262e-02 -4.161366e-02 -1.776202e-01 -3.248012e-02 -5.282754e-02 1.565651e-01
<VARIANCE> 39
 1.095906e+01 1.338147e+01 8.564754e+00 1.906692e+01 2.233752e+01 5.721838e+01 7.522839e+01 2.523623e+01 3.969385e+01 3.338902e+01 3.633073e+01 2.404998e+01 4.648977e+01 6.092070e-01 1.240672e+00 9.326372e-01 1.338219e+00 1.474326e+00 4.900355e+00 3.075807e+00 1.433631e+00 1.464584e+00 2.810412e+00 1.650434e+00 1.052800e+00 1.821845e+00 8.336064e-02 1.895921e-01 1.612317e-01 2.989588e-01 2.364231e-01 7.078839e-01 6.006234e-01 2.822524e-01 2.456982e-01 4.714123e-01 3.255472e-01 2.020215e-01 2.619507e-01
<GCONST> 1.032754e+02
<STATE> 4
<NUMMIXES> 2
<MIXTURE> 1 5.000000e-01
<MEAN> 39
 -4.759349e+00 -4.072296e+00 -1.814024e-01 -2.265811e+00 -2.251406e+00 4.438948e-01 -8.938770e-01 -8.666453e+00 -4.656761e+00 3.515780e-01 -7.038143e+00 -3.521838e-01 2.539793e+00 -1.945315e-01 -1.786807e-01 -2.010253e-01 -7.234194e-02 8.311538e-03 5.801032e-01 3.642061e-02 -7.989444e-02 9.498177e-02 -2.794633e-01 4.709791e-02 8.087644e-03 1.338796e-01 3.963279e-02 8.384463e-02 5.490622e-02 2.911765e-02 5.738765e-02 -1.648937e-01 -5.210599e-02 -1.090433e-02 2.087383e-02 4.526564e-02 8.752472e-02 8.780816e-03 -7.957043e-02
<VARIANCE> 39
 5.844700e+00 2.794764e+01 1.613080e+01 2.833305e+01 2.095014e+01 2.937563e+01 5.531852e+01 3.116648e+01 6.937547e+01 3.398481e+01 2.637532e+01 1.850752e+01 1.841310e+01 6.883688e-01 1.500352e+00 1.882060e+00 2.125484e+00 2.398328e+00 3.892400e+00 3.461401e+00 3.212998e+00 2.652080e+00 3.537633e+00 3.604709e+00 2.291093e+00 2.201507e+00 1.185232e-01 1.971822e-01 3.486006e-01 4.309468e-01 5.285566e-01 5.516589e-01 6.080652e-01 5.989857e-01 4.755112e-01 6.946675e-01 7.659435e-01 4.689758e-01 4.616802e-01
<GCONST> 1.140435e+02
<MIXTURE> 2 5.000000e-01
<MEAN> 39
 -4.759349e+00 -4.072296e+00 -1.814024e-01 -2.265811e+00 -2.251406e+00 4.438948e-01 -8.938770e-01 -8.666453e+00 -4.656761e+00 3.515780e-01 -7.038143e+00 -3.521838e-01 2.539793e+00 -1.945315e-01 -1.786807e-01 -2.010253e-01 -7.234194e-02 8.311538e-03 5.801032e-01 3.642061e-02 -7.989444e-02 9.498177e-02 -2.794633e-01 4.709791e-02 8.087644e-03 1.338796e-01 3.963279e-02 8.384463e-02 5.490622e-02 2.911765e-02 5.738765e-02 -1.648937e-01 -5.210599e-02 -1.090433e-02 2.087383e-02 4.526564e-02 8.752472e-02 8.780816e-03 -7.957043e-02
<VARIANCE> 39
 5.844700e+00 2.794764e+01 1.613080e+01 2.833305e+01 2.095014e+01 2.937563e+01 5.531852e+01 3.116648e+01 6.937547e+01 3.398481e+01 2.637532e+01 1.850752e+01 1.841310e+01 6.883688e-01 1.500352e+00 1.882060e+00 2.125484e+00 2.398328e+00 3.892400e+00 3.461401e+00 3.212998e+00 2.652080e+00 3.537633e+00 3.604709e+00 2.291093e+00 2.201507e+00 1.185232e-01 1.971822e-01 3.486006e-01 4.309468e-01 5.285566e-01 5.516589e-01 6.080652e-01 5.989857e-01 4.755112e-01 6.946675e-01 7.659435e-01 4.689758e-01 4.616802e-01
<GCONST> 1.140435e+02
<TRANSP> 5
 0.000000e+00 1.000000e+00 0.000000e+00 0.000000e+00 0.000000e+00
 0.000000e+00 7.241793e-01 2.758207e-01 0.000000e+00 0.000000e+00
 0.000000e+00 0.000000e+00 9.032660e-01 9.673398e-02 0.000000e+00
 0.000000e+00 0.000000e+00 0.000000e+00 9.161429e-01 8.385710e-02
 0.000000e+00 0.000000e+00 0.000000e+00 0.000000e+00 0.000000e+00
<ENDHMM>
~h "o"
<BEGINHMM>
<NUMSTATES> 7
<STATE> 2
<NUMMIXES> 2
<MIXTURE> 1 5.000000e-01
<MEAN> 39
 3.951328e+00 2.994087e+00 -2.066216e+01 3.281135e-01 2.185133e+00 -1.051086e+01 -1.170748e+00 -2.588631e+00 9.108673e+00 1.278560e+00 -7.522808e+00 -6.656251e+00 2.300284e-01 -1.594372e-02 3.546210e-02 -1.614815e-01 5.064563e-02 -1.463086e-02 -1.159135e-01 -1.506375e-01 1.715080e-01 -9.620721e-02 -1.283647e-02 -1.575230e-01 3.090856e-02 -3.063982e-02 -1.839768e-02 -1.166591e-02 1.191809e-01 2.958366e-02 -7.410198e-02 2.055907e-02 2.931546e-02 2.970016e-02 -9.392211e-02 -4.370830e-02 5.094984e-02 4.908595e-02 -2.153954e-02
<VARIANCE> 39
 8.822262e+00 7.926608e+00 4.648899e+01 1.108200e+01 1.562332e+01 2.687197e+01 1.182601e+01 5.404298e+01 2.185193e+01 2.332534e+01 2.271850e+01 2.438019e+01 1.404383e+01 3.489032e-01 2.678647e-01 8.303497e-01 4.897313e-01 7.512934e-01 7.636383e-01 6.541306e-01 1.544952e+00 1.478036e+00 1.401306e+00 1.258737e+00 1.140694e+00 7.540364e-01 4.580082e-02 4.394453e-02 8.847938e-02 9.196540e-02 7.934782e-02 9.578596e-02 1.173682e-01 1.520185e-01 2.009476e-01 1.930173e-01 1.673584e-01 1.496766e-01 1.062320e-01
<GCONST> 7.775050e+01
<MIXTURE> 2 5.000000e-01
<MEAN> 39
 3.951328e+00 2.994087e+00 -2.066216e+01 3.281135e-01 2.185133e+00 -1.051086e+01 -1.170748e+00 -2.588631e+00 9.108673e+00 1.278560e+00 -7.522808e+00 -6.656251e+00 2.300284e-01 -1.594372e-02 3.546210e-02 -1.614815e-01 5.064563e-02 -1.463086e-02 -1.159135e-01 -1.506375e-01 1.715080e-01 -9.620721e-02 -1.283647e-02 -1.575230e-01 3.090856e-02 -3.063982e-02 -1.839768e-02 -1.166591e-02 1.191809e-01 2.958366e-02 -7.410198e-02 2.055907e-02 2.931546e-02 2.970016e-02 -9.392211e-02 -4.370830e-02 5.094984e-02 4.908595e-02 -2.153954e-02
<VARIANCE> 39
 8.822262e+00 7.926608e+00 4.648899e+01 1.108200e+01 1.562332e+01 2.687197e+01 1.182601e+01 5.404298e+01 2.185193e+01 2.332534e+01 2.271850e+01 2.438019e+01 1.404383e+01 3.489032e-01 2.678647e-01 8.303497e-01 4.897313e-01 7.512934e-01 7.636383e-01 6.541306e-01 1.544952e+00 1.478036e+00 1.401306e+00 1.258737e+00 1.140694e+00 7.540364e-01 4.580082e-02 4.394453e-02 8.847938e-02 9.196540e-02 7.934782e-02 9.578596e-02 1.173682e-01 1.520185e-01 2.009476e-01 1.930173e-01 1.673584e-01 1.496766e-01 1.062320e-01
<GCONST> 7.775050e+01
<STATE> 3
<NUMMIXES> 2
<MIXTURE> 1 5.000000e-01
<MEAN> 39
 4.689217e+00 1.909353e+00 -1.531974e+01 9.604868e-01 -1.047778e-01 -9.702497e+00 -2.506196e+00 3.745504e+00 4.140754e+00 -2.533434e-01 -8.801315e+00 -1.943059e+00 4.018183e-01 2.180748e-01 1.125217e-01 1.178184e+00 5.146240e-01 -2.359778e-01 2.568790e-01 1.144299e-01 2.819249e-02 -7.959458e-01 -3.325474e-01 1.072779e-01 5.989628e-01 2.300613e-01 4.980768e-02 5.787186e-02 1.347797e-01 1.443361e-01 2.081347e-01 3.962933e-02 3.628986e-03 -3.019520e-01 -9.184858e-02 -4.459792e-02 8.518213e-02 -5.173520e-02 1.332787e-01
<VARIANCE> 39
 1.926813e+01 3.584751e+01 1.142066e+02 3.140489e+01 4.715507e+01 7.634052e+01 3.260530e+01 5.586946e+01 5.952171e+01 5.959185e+01 5.260461e+01 4.813052e+01 4.173978e+01 4.593621e-01 1.015424e+00 1.437335e+00 7.975365e-01 1.607253e+00 1.488066e+00 2.439322e+00 2.603879e+00 3.084042e+00 2.857841e+00 2.176841e+00 1.871351e+00 1.573698e+00 8.428334e-02 1.122787e-01 2.122845e-01 1.329003e-01 2.949337e-01 2.425571e-01 5.051680e-01 3.470294e-01 7.604854e-01 5.069249e-01 4.227477e-01 3.188142e-01 2.725437e-01
<GCONST> 1.111027e+02
<MIXTURE> 2 5.000000e-01
<MEAN> 39
 4.689217e+00 1.909353e+00 -1.531974e+01 9.604868e-01 -1.047778e-01 -9.702497e+00 -2.506196e+00 3.745504e+00 4.140754e+00 -2.533434e-01 -8.801315e+00 -1.943059e+00 4.018183e-01 2.180748e-01 1.125217e-01 1.178184e+00 5.146240e-01 -2.359778e-01 2.568790e-01 1.144299e-01 2.819249e-02 -7.959458e-01 -3.325474e-01 1.072779e-01 5.989628e-01 2.300613e-01 4.980768e-02 5.787186e-02 1.347797e-01 1.443361e-01 2.081347e-01 3.962933e-02 3.628986e-03 -3.019520e-01 -9.184858e-02 -4.459792e-02 8.518213e-02 -5.173520e-02 1.332787e-01
<VARIANCE> 39
 1.926813e+01 3.584751e+01 1.142066e+02 3.140489e+01 4.715507e+01 7.634052e+01 3.260530e+01 5.586946e+01 5.952171e+01 5.959185e+01 5.260461e+01 4.813052e+01 4.173978e+01 4.593621e-01 1.015424e+00 1.437335e+00 7.975365e-01 1.607253e+00 1.488066e+00 2.439322e+00 2.603879e+00 3.084042e+00 2.857841e+00 2.176841e+00 1.871351e+00 1.573698e+00 8.428334e-02 1.122787e-01 2.122845e-01 1.329003e-01 2.949337e-01 2.425571e-01 5.051680e-01 3.470294e-01 7.604854e-01 5.069249e-01 4.227477e-01 3.188142e-01 2.725437e-01
<GCONST> 1.111027e+02
<STATE> 4
<NUMMIXES> 2
<MIXTURE> 1 5.000000e-01
<MEAN> 39
 5.746554e+00 4.385842e+00 -7.919606e+00 4.802420e+00 1.272642e+00 -9.862077e+00 -4.122056e+00 -7.318075e-01 2.807869e+00 -8.390026e-01 -6.284492e+00 -7.578393e-01 2.449325e+00 -4.549179e-01 -5.286270e-01 2.343359e-01 3.122174e-01 4.907659e-01 7.182383e-02 2.041473e-01 3.539819e-01 -1.730199e-01 -1.601548e-01 3.876840e-01 6.738275e-02 1.362004e-01 -2.328344e-01 -1.837572e-01 -2.730964e-01 -2.523904e-01 -6.159335e-02 1.228217e-01 1.222239e-01 4.138632e-01 4.082997e-01 6.050273e-02 -6.747202e-03 -1.609497e-01 -2.671440e-01
<VARIANCE> 39
